,0,1,2,3,4,5,6,7,8,9,10,11,12,13,14,15,16,17,18,19,20,21,22,23,24,25,26,27,28,29,30,31,32,33,34,35,36,37,38,39,40,41,42,43,44,45,46,47,48,49,50,51,52,53,54,55,56,57,58,59,60,61,62,63,64,65,66,67,68,69,70,71,72,73,74,75,76,77,78,79,80,81,82,83,84,85,86,87,88,89,90,91,92,93,94,95,96,97,98,99,100,101,102,103,104,105,106,107,108,109,110,111,112,113,114,115,116,117,118,119,120,121,122,123,124,125,126,127,128,129,130,131,132,133,134,135,136,137,138,139,140,141,142,143,144,145,146,147,148,149,150,151,152,153,154,155,156,157,158,159,160,161,162,163,164,165,166,167,168,169,170,171,172,173,174,175,176,177,178,179,180,181,182,183,184,185,186,187,188,189,190,191,192,193,194,195,196,197,198,199,200,201,202,203,204,205,206,207,208,209,210,211,212,213,214,215,216,217,218,219,220,221,222,223,224,225,226,227,228,229,230,231,232,233,234,235,236,237,238,239,240,241,242,243,244,245,246,247,248,249,250,251,252,253,254,255
location_of,1.1582985,0.17197403,-0.050596427,0.6887072,-0.8410172,-0.11256396,0.7802545,-1.5312159,2.1613786,0.562638,-0.41672355,0.96126556,0.7184426,-0.24512547,-0.9575621,1.1344452,-0.16915926,-2.098943,-0.97186124,-0.5230016,1.5062858,-0.8081735,1.1875659,-0.24729164,0.6030631,0.5359494,-0.4201287,0.26528096,0.4948384,0.6764339,-2.0755396,1.1245171,-1.2813002,0.4529668,-0.20075539,-2.4303243,0.6535401,0.7179207,0.3393207,-0.20993882,1.1190469,0.14653327,-1.2064209,-0.30215126,2.3058898,1.8068488,-0.2666496,-0.6402459,-0.8730001,-0.29007396,-1.5364745,-1.6348869,0.40755433,0.9346044,0.22947454,-0.86833495,0.80162615,0.4238976,-1.4633168,0.84943277,-1.2973839,-0.059999913,0.8464194,-0.85867786,-0.14719443,-0.06733833,0.37222782,-0.47755027,-0.37476328,1.0478696,-1.4326426,0.2456218,0.16144478,1.277703,-0.16616121,-0.40651104,1.2247363,0.61720747,0.8879229,2.0219913,-1.0616957,-1.2335635,1.1637559,0.74738306,0.8297542,-0.44734836,0.8432181,-0.20551959,-0.7130211,-0.24066472,1.0500537,-0.031588607,-0.7903198,-0.7143526,1.5069144,-0.41956124,-0.06325042,-0.5381352,1.043079,-0.58199865,-0.09348858,-2.0563781,-1.8528321,-0.78582805,-0.09948118,2.515657,-0.2996941,0.09539747,0.74512583,1.2202137,-0.68289936,0.21350099,1.0472407,-0.74068147,1.4969035,-0.8617893,1.3073595,-1.3191183,1.9024384,0.06812452,-0.21369956,-0.025496008,0.65034384,0.7318254,0.6738016,-0.8796795,-1.5705321,0.18717752,0.04753307,2.139605,-1.1452812,1.04613,0.4356384,0.6992083,0.6384222,-0.78964156,0.80308956,2.2312634,0.3550061,-1.419509,-0.3282581,-0.09325718,-0.248814,0.7493619,-0.05107282,2.2151794,0.255239,-1.07733,-0.015369642,-0.7728014,-0.2116071,-0.33802208,0.8431561,-1.5761093,-0.040840156,0.69167024,0.83853555,0.13914171,1.4040722,0.13481587,0.73156434,0.4265888,3.3257678,0.37817395,-0.36640623,-0.31221107,0.24005176,-0.57833064,-0.62569475,0.30450904,1.5845819,-1.8947943,0.4994015,-1.6065059,-0.72615385,-0.41601968,-0.59738845,-0.12499622,0.84999555,-0.43468556,-1.9893537,-1.4326938,-0.17005524,0.12703268,-0.55503106,0.1380633,1.9470515,0.12808134,0.23228237,0.23150347,0.30096337,1.1377695,0.58177114,1.7254223,-1.0865589,0.5255703,-0.7823834,0.78349996,0.5779646,-0.01813809,0.41627848,-0.38844413,0.24141897,-0.45282605,0.49231258,-1.5764025,-0.95350695,2.020147,-0.9705811,0.4852489,-1.1947092,-0.7806011,0.5364348,0.20199807,-0.41040763,-0.45269567,-0.97524804,-0.16145033,-0.8584877,1.0877885,-0.59484345,0.52319217,-0.8811935,-0.13100512,1.4934611,-0.74004984,0.051882736,0.057083562,0.35664496,0.36636925,-0.0842771,-1.2529452,-1.189643,0.32017592,0.7275609,-1.3001711,1.1643574,-0.78189874,-0.6792127,0.6784908,0.461877,-1.0550082,0.80543834,1.6667848,-0.19199541,-0.28656545,0.40799215,0.27882543,-0.4546835,-1.6742043,-0.2689825,-0.47977826,0.13479206,1.2802136,0.33989528,0.52504563
manifestation_of,0.5464442,0.4376045,-0.7167013,-0.1647021,-0.8990269,-1.1358604,1.4994603,-1.0756466,0.3223494,2.0288038,-1.3524246,-0.61830336,0.27376336,1.145456,0.7831937,-0.87954193,1.4742274,-1.2170628,1.8320115,-1.1294142,-0.6336653,-0.3539472,-0.4683122,-1.2752979,-0.24764422,-0.38373995,1.751129,0.5711664,1.1031849,-0.7987289,1.3113501,0.25801978,-3.1401966,-0.6950564,0.3405285,-0.8303078,-0.6315778,-0.34633103,1.2098078,0.6715138,0.11892826,-1.2641337,0.014922572,0.9396308,0.9721745,0.16070607,-0.37572792,0.81953025,-0.15849635,-1.9084907,1.3682513,0.23586684,-0.0059498167,-0.23339708,0.2609817,0.2905868,-0.58843267,-1.2982395,0.026171269,1.3165244,-1.4075018,-0.6867833,-0.2953177,1.298497,-1.1235838,0.5617591,-0.289802,1.5794063,0.19735053,0.8971924,-0.709899,0.24302731,-0.50129396,-1.2732372,0.8973319,0.7904709,1.1486524,-1.132689,0.1157486,0.13969228,0.86282575,1.0287968,-1.0089673,0.6717519,0.60769075,2.1548622,0.64500195,1.0781401,-2.1859746,0.05086301,0.61159295,-1.636437,-1.1005921,-1.9256957,0.09540494,-1.2893462,-1.1378874,0.50627154,1.7511837,0.8777649,-1.2401913,1.0230613,0.1344835,-0.65871096,0.89007896,1.4153024,-0.4609352,-1.7272695,0.4969343,1.0833893,-1.0400811,-0.84378034,1.0582783,-0.30918923,0.19888015,0.21574894,1.8667071,-0.42527622,0.88369155,-2.0013213,-0.32660514,0.43734518,-2.3947375,-0.5624338,1.3657112,-0.050971758,-0.1786177,0.4876387,-0.08560307,-0.08660332,-0.23749784,-0.16227119,-0.079178885,0.70155585,0.39747098,-0.44193837,-0.32253337,0.11796745,-1.4836452,-0.23051643,-0.850966,-1.4139781,-0.54579484,0.29399553,-0.120968156,0.4777018,1.2714442,0.4508416,0.05079137,-0.73072886,3.1450932,-1.0126412,0.21424694,0.5541444,-0.25372782,-0.72154135,-0.09558083,-0.3163698,0.76179457,-0.046922583,-0.98511684,-0.3759878,0.8579722,-1.2736498,-1.2857208,-1.1442659,1.1908876,-0.83430046,-0.2546825,-0.54291046,-1.5104573,-0.46438628,-0.8164411,-0.38043657,0.3961051,1.3796153,-0.39171645,0.2665832,0.6969768,0.79404086,0.18217055,-0.6751112,-1.132328,0.50500125,-0.7524348,0.18309061,-0.45977518,1.1230069,1.7923384,-0.96969044,1.6186036,-2.4931917,0.08792595,0.9510216,-0.58381563,1.7231194,0.39977413,-0.8645333,0.15517254,-0.31692272,-0.25323698,1.521484,0.9642729,0.20510831,1.3870734,1.098792,-0.18546987,1.6131728,0.06140784,-1.0401071,1.3909415,-1.3028803,0.01378148,-0.90903085,-0.6949356,-0.070806116,-0.43842497,-1.2918761,1.4977156,0.89345294,0.3888319,0.91586053,-0.74125624,0.7037164,-2.662197,-0.02596831,0.94006526,-0.37759277,-0.51354516,-0.64457893,-0.53226775,-0.36559042,-1.8156798,-0.3885666,2.0490816,0.2165865,0.9838184,-0.06460745,-0.3238934,0.04816973,0.66261876,-0.21955726,-0.44866866,-0.42882046,-0.24542119,-1.5382656,0.52890366,0.08539039,0.19229966,-0.06447863,0.63804686,0.6324331,1.6207699,-0.37684128,-0.7863053,-1.2513132
isa,0.8463075,-0.61806834,1.1882952,0.262543,0.23460081,-0.8439368,0.24385183,-0.8461425,0.3394739,1.34742,-0.35532287,0.85647976,0.24600637,-0.045692105,0.80134666,-0.535851,2.3168898,-0.14945142,-0.078304775,0.34498885,0.6451119,2.0864725,-0.3182821,0.8904652,-0.6184003,-0.46995053,0.5703218,-1.5282105,0.3405853,-0.45385224,-0.34627452,-0.65065163,0.45749888,-0.13572556,-0.09525316,-0.2219273,-0.2892795,0.61103094,-0.3367499,-0.8411177,-0.48996934,-0.97756124,-1.2966751,-1.2031921,0.16873726,1.439894,0.99182373,-0.0150676295,1.9216781,0.054218363,0.5435962,-0.4326524,0.47449914,-0.8160502,0.58541334,1.8309395,1.3178501,-0.3649939,-0.7790873,0.8526927,-1.3186373,-0.47629645,-0.29094636,0.784422,0.20969327,-0.7398432,1.7056555,-0.29722878,0.9063696,1.3854411,1.0963858,-0.56114775,0.52796626,-0.6033181,-0.6574084,-1.3371508,1.5934178,2.2917717,-1.7265627,-0.98071516,-0.59200454,-1.3712149,-0.51614195,1.8101285,0.11774548,-1.6297798,-0.43766224,0.02486035,-0.7360687,-0.06965441,-0.07208447,-0.7660177,1.2908627,1.5187382,0.17209804,0.26075697,0.60070705,-0.54069465,-1.0542687,-1.6425233,0.57943135,0.30974513,-1.840428,-1.867217,-1.8304384,0.8797593,2.2592363,0.15685065,1.4145746,-0.431932,2.0323982,0.33359313,0.020702075,1.6267413,-0.93632996,1.0629922,0.16406976,2.0176704,-0.26483777,-0.637802,-1.7576557,0.60893106,1.7859633,1.8106589,-2.5283487,-0.27852663,1.54165,0.16869849,0.57595134,0.19887564,-1.5707135,-0.12249952,0.31061277,0.81404424,-2.3342175,1.473338,0.43106413,0.8016106,-0.12084928,0.01462033,0.92789966,-2.0956774,-0.41639063,-1.7672085,1.1159205,0.52124155,-0.97882354,1.3724858,0.22900122,-0.47037557,0.06690438,-1.8205556,-0.88155216,1.1275743,-0.29128,0.83037853,-2.1235323,-0.21040365,-1.5271331,2.4179032,1.1200366,1.0944972,0.73223394,-0.087512836,-0.37986827,-2.6909246,-0.5364613,0.623531,0.42367673,0.051145628,-0.20443468,0.5302462,-1.1743605,0.36840734,2.1333728,-0.94221723,0.6888367,-1.4291921,-1.0927119,1.7001241,-1.3151357,-0.049857847,0.626359,0.16466199,-0.9879885,0.7727726,-0.61979306,-0.13505112,0.2607047,0.91150314,-0.6203387,0.8761573,-0.1069252,-0.85499144,0.30692053,0.095489055,0.07636435,0.07228463,-0.6885024,1.8449775,0.7569912,0.10682424,-0.47922376,1.324675,-1.1233325,-0.98804724,1.5643067,-0.658376,-1.6222142,-0.049273323,-0.83253187,-1.0386972,-0.520804,-1.5422825,-0.9503811,0.61100084,-0.9474547,-0.60253024,0.28519696,0.9588589,1.3058671,0.9088781,-0.5461903,0.81797236,-0.9709498,0.3460326,0.6088912,0.25815696,-0.77271456,-1.2635311,2.594918,0.90802723,0.30042034,-1.0546958,-0.47597125,1.0958056,-0.30659395,1.1386082,0.83486235,1.4108808,0.78310305,0.38710377,0.33404788,0.82598037,0.3616033,-1.666555,0.37307233,-0.31080434,0.062548935,0.21958776,-1.1621577,0.1496972,2.0108066,0.62818784,1.343986,-0.3036594
affects,-0.71141654,-0.050316278,0.047127053,0.961383,-1.9392908,0.3563962,0.9776691,-2.0944715,0.7861095,-1.0703028,0.013363068,-0.55468106,-0.34068108,-0.25252816,-0.26733032,0.060088307,0.088146456,-1.4985806,-0.046598494,-0.33611882,0.07222454,1.040353,0.065266125,-1.0702815,0.41244268,0.8984769,0.4393753,0.1482806,-1.7569826,0.26347235,0.89325815,0.046995945,0.12806152,-0.1698503,-0.28359982,-0.20176528,0.14093971,-0.16001604,-0.32567924,-0.16311091,-0.07139328,-0.88273716,-0.8819825,3.3541622,-1.1935773,0.14447385,-0.7394142,1.4721282,0.35790733,-0.5827805,-0.5136842,0.4034215,-0.57154995,1.3116088,1.0505996,0.6891724,-0.8931802,0.5028636,-0.58893514,-0.8661742,-1.1527762,0.83666325,-0.037676524,-0.714119,0.8054227,0.57922935,-1.18596,-0.7067517,-1.1243743,1.1512066,0.49829268,-0.99233615,1.217431,-0.96663404,-0.2397457,-0.5240275,-1.1009126,-0.7799757,0.47257924,-0.15199521,-0.63057727,0.41200313,1.0953038,-1.5614308,-0.6512163,-0.6962157,-1.6249092,-0.77713555,-0.7325934,0.867719,-0.14208217,-0.049155984,-0.29075107,-1.0761032,-0.9138602,-0.28214964,-0.453349,-0.8762407,-0.3480879,0.8270099,0.35917205,-0.42301628,0.45856598,0.7932177,0.20632862,-0.36317804,0.047767233,0.7783439,-1.5330199,0.2888056,0.97987735,-1.1823083,-2.585035,0.73390484,-1.4387732,-0.24678977,-2.2712412,-0.44286156,-0.29124168,0.19122183,-0.37491313,1.2693046,-0.45410594,-1.4417778,0.31019995,-0.41155568,2.225642,0.8318888,-0.8044376,0.33171713,-1.1277715,-0.9127589,0.37879106,-1.5785623,0.43668675,1.28746,0.8353121,1.4270334,-1.0516685,0.1000575,1.7397377,0.42777488,1.0363681,0.75325495,-1.862242,0.79343265,-0.03717262,-1.1259606,-1.9019183,0.11701831,-0.798478,0.43598545,-1.0474906,1.7011384,0.2722741,0.67334837,1.0334867,-0.37763584,0.50372213,0.74095213,1.7933384,-1.60051,-0.20755024,0.1050434,0.5553632,1.2729297,-0.49272433,-2.8300097,1.1338738,-1.9431745,1.4737124,1.1414489,0.09316982,1.1247333,0.71319044,-1.0013771,-1.0813113,-0.5151842,0.2324427,1.1650118,-0.9575136,1.985377,1.0221144,0.09951401,-1.1844501,0.14568508,-0.00441854,-1.0960143,0.4897877,-1.533585,1.9085084,1.347095,1.3154099,-0.05627162,0.8826673,0.5906986,0.6087791,-0.44923383,-0.774944,2.2570336,-0.0074075847,0.7637186,1.3984876,0.5536409,-1.3258237,-0.83043176,0.8930018,-0.39561623,-0.16734783,0.20368315,0.24315543,-0.39861012,-0.101667345,-0.29419327,1.4175743,1.3618598,0.16859628,0.80162126,-0.5352587,-1.135659,1.6206694,2.5366247,-0.74017787,0.68310434,0.030873235,-0.055128187,0.32631037,0.097035445,-1.0804513,0.17268044,-0.5256168,0.5609598,-0.12262698,-1.2878406,-0.8320875,0.40577188,-1.5023075,0.45210522,-1.0648212,-0.44518602,0.16185132,0.7017001,1.3002516,0.12619755,-1.6633093,-0.94081956,-0.58580697,0.33967957,-1.297138,-1.7737678,0.03175105,0.2972197,-0.34846044,1.7692385,0.1359784,0.59910554
associated_with,-0.5911355,-0.671551,-0.23408055,0.6783876,-0.17849283,0.8611336,-0.39647722,0.2258935,-0.11388366,-0.8464545,1.6851236,-0.15902755,-0.47508636,0.08429671,-0.8960895,0.8355524,-0.7349977,-0.11927265,-0.43936068,-0.10456211,-0.78586,-0.08045685,-1.2699535,-1.476954,-0.71902454,0.50702566,0.3966078,0.63610804,-0.44283098,-0.48974842,-1.99138,-0.5289009,-1.2106527,0.5658564,1.0815779,-1.0153378,1.1507947,1.4696757,0.29708055,0.15416503,-1.3088806,0.7329716,-0.14419354,-0.18369122,1.1269927,-0.58323926,-2.8021822,-1.1984249,1.7306639,0.010731468,-0.09437249,0.24107303,-2.0952396,-0.5137473,-0.022570828,-1.2072376,0.5287258,1.0982202,-0.10172043,-0.1252087,0.10421917,-0.4536614,-0.81146693,0.1079691,-0.47825006,-0.99981225,-0.7001055,2.149449,2.6155345,1.3971537,1.4186559,1.8635862,0.44538015,1.1609102,-1.4910823,-1.6038605,0.25007978,0.9186347,1.2874701,-3.1180134,0.14285423,-0.92753625,-1.4959337,-0.3702114,0.7109427,0.26221764,0.30970448,-1.0830047,0.89841765,-0.5624051,0.34838,0.40999466,-0.9829663,-0.8772676,-0.776652,-0.44048938,-0.42288205,-0.21044311,-0.17639427,0.22732231,-1.138917,1.2938285,-0.39237773,-1.2442664,-0.49350268,-1.5201795,0.033917308,0.5032189,2.1742659,0.5367338,-0.4641394,0.08246545,-0.5051706,0.42755693,1.4085611,0.80712384,-0.6997933,-0.63236195,1.7053837,-0.529539,0.8392638,0.37204868,0.08205478,0.34026086,-0.95315874,0.030563805,1.4511435,-0.033664558,0.25210726,-0.11210827,0.47479975,1.6953355,-0.039800018,1.7221224,0.18714496,1.2748047,0.58820504,-0.24497525,0.7882325,-0.38361052,1.7149608,-0.21838647,-0.82563126,-0.5206707,1.6157954,0.8452619,0.80379426,-0.34326994,0.12561648,1.0875899,0.19416936,0.74065423,1.2276524,0.18577535,-0.8134517,0.34915563,-0.22136188,-0.94229907,-0.48986286,0.09457521,-1.8254795,-0.1691964,-0.2025107,0.62280977,0.09090927,-1.6985632,-0.41060376,-0.5115306,-2.045664,-1.1392475,-0.16902415,-1.231395,0.78801554,-1.8918853,0.46255258,-0.13461933,0.57298064,0.40399373,0.18512425,0.3439381,0.75824153,-0.61655504,0.3892599,-0.96392924,-0.649322,0.6176741,0.23029669,1.3659794,0.9437496,-1.5992832,1.4802451,-0.96688086,0.3481271,2.2918046,-1.0176401,-0.8194468,-0.017912833,-0.47534683,-1.9804522,1.3020993,-1.1714946,-0.8167076,-0.89500827,0.017004691,0.23551998,0.12716754,-0.2426732,-1.3613429,0.3113295,1.7717988,0.14166492,-0.5525746,-0.61678594,-0.054530323,-0.7492526,-1.6837956,-2.2911532,-0.8314085,-0.5778349,1.041949,-0.6109711,-0.4115704,1.098017,-1.190483,-0.15818194,-0.36015108,0.9489749,-1.2649736,0.42508605,0.63847995,0.48751727,-0.48736638,-0.11654301,-1.5395677,0.29536387,-0.05177814,0.13916549,-0.31895503,0.05824628,-0.44124475,-0.8999847,-0.3579878,0.29940674,0.18173829,1.5107573,-0.23942742,0.87317234,-0.19429798,0.34044018,-2.3688855,0.19599822,-1.129819,1.1069161,0.5199231,-0.18133402,0.33814174
interacts_with,-0.16662568,0.98495823,-0.21201502,-1.4684448,-0.5900241,-1.7813238,1.088383,-0.042748336,0.45232204,-1.495323,0.026064916,1.5577432,-0.12876256,-0.25932685,-0.9690184,-0.13851187,1.1096531,-0.45138365,-0.5173567,0.7590942,1.3913102,0.41988158,0.4806476,-0.47162086,-1.1480349,-1.6396054,-1.6425867,1.0153223,0.8685871,0.9753887,1.4887571,0.63170594,0.4298222,-0.18837605,0.017533809,1.03318,-0.346501,-0.91736734,-0.69427216,1.423102,2.272506,-1.0512067,-0.20248948,-1.699959,-0.5183584,0.15096718,1.3508134,-0.48225877,0.30260885,0.8295937,0.09435837,-1.6730164,-0.4702029,-0.6996195,-0.39391732,0.15826635,-1.6662832,0.9210909,0.43945765,0.16053537,1.0532163,0.08979943,0.22392091,-0.12882346,-0.96898246,-0.5678256,-0.12060785,-1.0324475,0.5674587,0.704121,-0.5590868,1.4937651,-0.8900631,0.580907,-1.5060407,0.43899825,0.050490778,-2.4064784,1.4617561,-1.2305946,-2.4292047,-0.06007382,-1.6186305,1.6904571,-0.0120727625,-2.0010407,0.3753995,1.73416,-1.0595036,0.14498776,1.2511209,-0.79739237,1.2083362,-1.521748,0.7920175,0.087079376,0.8283638,1.0089085,-0.17073995,-0.82290596,-0.62958044,1.1636344,-1.4946121,-0.15232882,0.2767269,-0.99248004,0.21913967,0.98815686,-0.25460207,0.13621785,-1.4027349,1.6030728,0.046230007,0.4197374,0.17141339,-0.63984203,0.07494244,-0.07375874,-1.4018985,1.188287,-0.5133033,0.054806318,0.7048591,0.5284853,-1.3623289,-1.119097,-0.70412993,-0.05867072,0.8478308,0.058834173,-1.1609058,-0.030984106,1.0649407,0.06866192,-3.5771575,-1.0105422,-2.354764,-0.14937684,0.5522504,-0.41519353,-0.90579396,1.6683693,-1.4893968,-0.41661504,-1.3431122,0.21255954,0.028315654,-1.7245041,-0.7114712,1.0966344,-0.02971031,0.2365231,0.9466149,0.042094234,0.34884003,-0.67215765,-0.045733854,-0.27490208,0.7403078,-0.15727824,0.5083625,1.0999776,0.6521344,0.13407736,-0.80039227,-1.2026485,-0.8170502,0.3289184,0.52094716,-0.41265073,-1.0353309,-0.41521385,-0.7658229,2.4588685,0.18876645,-0.27592698,0.47578177,0.9918048,1.0016809,0.41694063,-0.031615246,1.6300292,0.7352441,0.23904043,0.7973024,3.5422626,0.5856703,0.31464255,-0.46417764,-0.39326414,0.92303497,1.1769862,1.3199259,-0.27382043,0.866585,-0.1359317,-0.8029253,0.02580717,1.7105933,-0.2995063,0.56329197,-1.1447974,0.41718578,-0.53362286,1.0553002,-1.6717647,-1.9016441,-0.8221353,-1.4712247,1.0320048,-1.5095426,0.35217404,0.42720237,-1.4658017,0.9534803,-0.57074434,-0.30673078,0.6916381,-0.48874924,-0.46617877,0.6021455,1.4104167,0.54726154,0.9507087,-1.577584,0.32511842,0.16797282,-0.621727,-0.5124684,-1.0706973,-0.2063027,-0.92128015,-2.0281718,-0.09267057,-0.110060975,-0.23750086,-0.5099705,0.40776998,-0.8836131,-1.383744,0.8141309,-0.017501887,-1.287715,-1.7877117,1.032392,-1.3989989,-0.8291074,0.021678537,-0.2973548,-0.88437825,0.4537035,0.8673115,0.20550984,0.172351,-0.35045117,3.9324784
result_of,-0.7127419,1.3914295,-0.7461383,-1.2670022,-0.9569914,0.36135337,0.06523336,-1.5697889,-0.18877071,1.4530653,-0.43078756,0.24320789,1.0808249,0.011449428,0.7019257,-0.67915916,-0.13058421,-1.2858415,0.40244216,-1.490547,-0.0865862,0.42618987,0.27630883,-1.5741746,0.003980548,-1.0545558,1.032056,-0.4666437,0.61859524,0.9939288,-0.1302296,0.7893645,-0.9775391,-0.00782451,-0.708162,0.6668568,1.965385,0.17051546,1.45817,0.17543891,-0.49939927,-0.82272434,1.6116146,-1.0312476,-0.20269212,-0.75598073,0.83901966,-0.11562021,-0.97568965,-0.012789051,-0.5841333,-1.588934,-0.21338157,0.8767529,-0.30727896,1.1352087,0.20840603,0.9029031,-1.2572755,-0.1127808,-0.23352441,-1.7528188,-2.3677418,1.4351678,1.5495399,0.668552,-1.0952961,-3.913886e-05,-0.2970786,0.87866235,-0.11511162,0.42805338,-2.598151,0.9125097,-1.3661152,0.4521942,-1.5380939,-0.009085194,1.4253647,-0.19914643,-1.126534,-1.9173427,-0.25203884,0.49513415,0.6200319,1.1948594,-1.4418386,-0.6483396,-1.0869907,-0.51929647,-0.55910146,0.97975713,0.27080926,1.8230197,-0.4668572,0.62647414,-0.0016338214,0.13866884,0.31329784,1.2397484,-0.10762513,1.1776459,1.6346252,0.8575896,-0.45730785,-1.6101074,-0.9418498,-1.3434833,-0.89751834,0.110858664,2.6976602,-1.0502689,0.52997655,-0.16996208,-1.1838421,-0.48148066,-0.37988114,1.6124319,-0.88409567,1.0165353,0.3806624,2.0207412,0.06863931,-0.16637337,1.5456945,-0.914406,-0.78748906,-1.3665448,-0.28618717,2.5110364,-0.9711733,0.6262026,1.5800968,0.09647939,0.2594925,0.32799962,0.97359735,1.2226824,-0.18355145,1.0893147,0.27972862,-0.20889926,0.58825845,-1.016837,0.22431445,1.9175035,1.4121715,-1.6794356,-0.95374185,1.1000702,-0.730874,1.0695273,-0.73354053,-0.72861254,0.68865615,0.20476095,0.35944903,-0.96729636,1.3893754,0.9629044,0.5759219,0.19880901,0.54418486,2.104492,-0.19447379,-0.9701809,-0.014636563,0.11728569,-0.43843973,1.8543384,-0.65537494,-1.7465262,1.7120191,-0.68424857,0.37255964,-0.64803916,1.1299485,-0.6027041,1.996416,0.043945402,-0.63583297,-1.3532995,-0.29790583,1.7479033,-0.16934082,0.09562031,-1.0495515,-0.6719549,-0.098728284,1.1732588,0.6882363,0.111350976,0.031501997,0.1450129,-0.36013648,0.45480746,0.025406683,0.688451,1.7965935,0.3295943,0.04007558,-0.13331328,0.14014655,-0.08439395,-1.3468918,0.24049406,0.5175662,0.11383031,-0.016022902,1.3821039,-2.035095,1.2212825,0.97706676,0.418322,1.342418,-0.85789543,1.1374987,0.3946994,0.40328997,0.65058225,-2.2059622,-1.7933521,-0.23180856,-1.8652844,-0.1277597,-1.2223686,-0.2051048,0.12133886,-0.22854804,0.5851221,0.41777018,1.0034959,-0.090400055,-0.9738894,2.0433483,-0.5943451,-0.09059896,1.9832876,0.4280614,-0.20216736,0.47397992,-0.5142982,0.7592643,-1.3896257,-0.2571508,-0.66552424,0.96648234,-0.38385695,1.367679,1.1556125,-0.55331784,-0.30165017,-0.49119937,0.07339776,-0.1714014,-0.42316684
complicates,0.85621494,-0.6494899,-0.1695304,-0.049708486,0.58091086,-1.0702095,-0.052573632,0.25315973,-1.1977137,0.6484533,1.7180911,0.97152114,0.8147287,0.37469274,1.0088528,-0.40316993,0.07202872,0.15450521,1.4956664,0.8676854,-0.55251837,1.530954,-1.0669179,-1.0857615,-0.17040682,1.4940783,-0.12466167,2.45617,-0.08994997,3.0505538,-0.93054956,0.3509961,0.65175754,-1.0814989,-0.32288587,2.1570413,1.8803456,0.3736562,-0.8997699,-0.76669574,0.75286746,0.43821922,-1.2244593,-1.6253129,-1.4680847,0.7422984,1.016592,0.3805633,0.41449967,1.116726,-0.16008061,0.7540613,-0.39440468,-0.05343035,-0.18683615,0.73225933,0.6394064,2.1788762,-1.2069747,1.2418829,1.0879441,-0.029067032,1.5548159,1.5452404,-0.28206187,-0.03739509,-0.010159716,-1.5742533,0.24638256,0.65805155,-1.1651542,-1.3816382,1.0901845,0.7037653,1.2329488,0.2674885,-0.25027922,-0.112227604,0.08067618,-0.65025085,-0.37072048,-0.7846502,-0.65282375,-0.44639447,-0.027093364,1.8574259,-1.0737145,-1.2045321,-0.66276777,-0.49047577,-1.1088815,1.2459863,0.47903544,-0.3713695,-1.6521077,1.9089407,0.41691846,-0.42483616,1.3046843,0.70279115,0.73989624,-1.1555887,-0.43586898,-0.11728332,1.02369,0.74293476,-1.5059375,-0.99189126,0.0061603296,-0.68391734,-0.9320949,-0.58782613,1.1356332,0.80827165,0.252146,-1.2790688,0.18752487,0.43141487,0.07588096,-0.7399603,2.2845476,0.5992207,0.36614904,0.06370413,0.6878945,0.26371273,0.5283323,0.10774551,-1.4404185,-1.2218091,-0.906366,-1.3176252,0.22795443,1.4863473,0.667586,0.04543616,1.3116823,-1.1820118,-1.0862821,1.3873608,-0.69820553,-1.138142,0.41168198,0.67073303,-2.0668309,-0.9981889,-0.3083658,-0.42582217,-0.3849261,0.66340274,-0.97225374,-0.7670951,-0.08634525,-1.3882163,0.18562025,-1.1032124,-0.16439664,-0.7110247,-1.1310163,0.19949245,0.6952596,-1.1368289,0.8020195,-1.5522138,1.0942863,-1.136059,0.48279464,-0.18961298,-0.2935054,1.1710283,-1.262367,-1.0150933,-0.8927845,1.4387603,0.45930332,1.2831881,0.06065571,2.2670114,-0.25400412,0.26220545,1.3729903,0.10563661,-0.21576646,0.05428297,1.5428858,-1.0029035,0.6408788,-1.4356078,-0.88135266,0.45897606,1.2271649,-0.28486085,1.1828932,-0.27465925,0.87066126,0.43880427,0.32221413,0.1515542,-0.2427407,0.47384983,-1.2073798,0.014495161,0.21143612,-0.30530086,-0.5504995,-0.81214154,1.2939353,1.4959974,-0.28859305,1.0838865,-0.22283103,1.5638691,0.50075734,-0.77151406,0.05361113,-1.7057853,1.0624114,-0.55627507,0.6251722,-0.6825694,-0.38225082,0.2665486,-1.0168184,0.5352957,1.4057404,0.56830364,-0.4671852,0.7935089,-0.083194904,-1.1298785,0.04090316,0.89364153,1.2604328,-0.78091204,0.4352071,1.2608955,-0.37258506,-0.90398204,-0.34744385,1.9563667,1.8997945,0.6315004,-0.71863645,1.2458531,0.6028831,-0.569522,0.9034802,0.9982708,0.45290494,-0.15887275,1.6223373,0.12602872,-2.8862965,0.36948657,-0.36868745,0.14395243
occurs_in,-0.30002353,-0.42704344,-0.3590773,0.5642815,-1.539672,0.4419593,0.71723163,0.48285958,0.4830184,-1.6898608,-0.7280357,1.4830043,2.0119298,-0.88323927,0.44116879,0.4387122,-0.0049161236,0.24557592,-0.35628918,-1.2995661,-0.32272378,-1.3447973,0.4591732,0.5181346,-0.30683365,-1.3563318,-0.12866314,0.5016058,-0.24905266,1.4343698,-0.5913696,-0.5204626,0.43542457,-0.6566951,-1.0649853,0.1017145,-0.12578964,0.88962036,-0.31012088,0.6652011,-0.2365405,2.4528248,-2.3280354,-0.70907485,-0.18671978,0.5826081,-0.69584197,1.0109812,-0.0033040473,-0.19509588,-1.2776507,0.65595615,1.3526254,1.0391273,1.0173779,0.47869593,-0.4001406,0.105110005,0.8343868,0.89722997,0.8377342,1.7360003,-1.5520638,0.71195143,-0.10934633,-0.7439223,-0.2740913,-0.61362445,-1.0826212,0.1113069,-1.9566542,-0.1813607,0.905802,-0.36731437,0.18160626,-0.49657485,-0.9346914,-0.56571615,0.45533895,-0.37264323,0.823072,1.3130496,-1.3106465,1.4477923,1.3462924,-0.8250785,0.1851415,-2.3899837,-0.08144997,-0.57909334,0.64517564,0.8364643,-0.45950967,0.8812447,0.075799264,-0.27157333,0.64192235,-0.3237573,1.0404633,-0.5471862,-0.7805952,0.65793264,-1.3481665,-0.008248536,0.34560698,-0.96673155,-0.31986758,1.28659,-0.07445911,0.46725506,-0.74127674,0.8237786,0.9431274,-0.14393319,-0.14695194,0.61591476,2.2346072,-0.65526134,-0.29600284,0.40930095,1.0323834,-1.6294688,0.10913233,-0.22398762,-0.51603085,0.78386855,0.54962367,-0.6907121,1.0183302,-0.35550284,0.077787876,0.3631088,0.46162918,0.9550166,-0.3334918,0.80247337,1.1907378,0.14331914,-0.38966414,0.0009386193,0.28409865,-0.6175085,1.0374995,0.43037528,0.72298294,-0.53055173,-0.3368146,-1.5075668,-0.3971354,1.1222537,0.18663253,-0.6512877,0.311336,-1.6847991,-0.7508981,0.6701571,1.1641116,1.0869724,0.7613862,-1.0129614,0.92724836,-1.3805375,0.13829121,-0.60411644,1.0410546,0.05431387,0.5983793,-0.3344701,1.0473735,0.9486287,-1.5743016,-0.07789934,-0.25667453,0.5827882,0.6185158,2.0036936,-0.10364558,-0.95802844,-0.014081825,-1.1279687,-0.21828413,-0.2882174,-1.5664439,0.87379694,-1.2218196,0.8926539,0.4548153,0.46798372,-0.5515291,1.9987543,-1.3601041,-1.4705844,-0.2904916,-0.51122105,0.042199258,-1.6546817,1.0741524,0.1349013,-0.403601,0.111371025,-0.05979502,0.4082723,1.4032971,1.7985458,-0.19862607,0.74873024,0.65317327,-0.9155653,0.35267824,-0.4801611,0.8037993,-0.8075831,0.33283645,-0.09550402,0.43884328,0.26281595,-0.18189773,0.8924315,1.7306898,0.17260662,0.27022728,1.3839186,0.638748,0.4227428,1.4608932,0.5035739,-0.4546704,-0.15153567,0.976199,1.2419385,-0.87137157,0.5793133,-1.4676949,-1.6542317,-0.54295987,0.25715253,-1.0570215,-0.43960258,-0.5177882,-0.60639685,-0.16769518,0.1871834,-0.63744664,-0.2089436,-1.3491917,-0.53948545,-0.098498456,-0.6105386,-0.6151107,0.83506644,1.9024436,0.61519223,2.713576,1.4273335,-0.05979796,1.0582725
uses,-0.5247052,0.37238285,-0.21126056,-0.1198615,0.55663145,-0.5953552,-0.74820894,0.21236339,-1.4735225,0.4072417,1.5061408,-0.60202116,0.6216067,0.80921364,-1.0505198,0.38752386,-0.07832537,1.0232444,-0.33375156,1.013459,-1.7560517,1.7682942,0.41959983,0.24366727,-0.43080005,0.7677027,-0.27655056,0.6418119,-1.0105449,-1.2685874,-0.20080978,0.7387243,0.20357276,0.7842038,1.2876444,-0.0077882498,-0.69443303,-0.47704905,0.13722938,0.2922062,-0.3206953,1.9171441,0.19789888,-0.5804047,0.5713159,-1.1959307,0.34133112,-1.6262002,-0.6322286,1.2266161,-0.57561934,-0.19749339,-0.24515662,0.120080024,-0.29528219,0.025109706,-0.33212125,0.5693669,1.1839744,1.230084,-0.071562044,0.39385173,0.70062023,-0.43466973,-0.6487125,1.9008124,0.45726383,-0.72575676,1.4651355,1.2937235,1.634644,-0.9787093,2.1344106,-1.3380153,0.6041183,-0.6111341,0.40474355,-0.103460416,-0.34433347,0.94106275,0.9324083,0.93891805,-0.61630124,-0.8108386,-0.7491192,-0.68058676,1.0124588,2.3220482,1.270305,1.9866564,0.5687007,-1.0362967,-1.0743632,1.2323446,-1.9745927,1.1922222,-0.21746123,0.9075939,1.7748966,0.61566734,0.9686782,0.39677685,-0.59881574,0.2137591,2.486138,-0.2551863,-0.42455217,-0.40762192,1.3828654,0.6452455,0.63914096,-0.30696285,0.8394812,0.3980333,0.10267156,-1.2633744,-0.42945832,-0.22254406,-0.3592477,0.13838096,-0.82487893,-0.5842818,2.1449435,0.14365208,0.40846652,-0.6753231,-0.98468107,-0.94146127,1.8431009,0.40822196,0.102831125,0.57860875,-0.89552015,-0.6568792,0.9856102,0.14636709,1.2397026,-1.5904061,0.94860846,-0.98236626,-0.6737559,-1.3476524,0.08848411,-1.2070812,-1.2715322,-0.5020567,1.0422041,0.6150852,1.6250539,-1.0774288,-0.30572596,-0.0781434,-0.3185568,-1.4973196,-0.2624088,0.82596433,-0.7817368,0.86170566,-0.99089354,1.1471281,0.7124134,-2.0199704,-1.5351712,0.7110515,1.6879201,1.7890193,0.10621783,-0.77091724,-1.1715577,0.35367498,-1.2518985,-0.39240882,0.44237417,-2.329185,0.5715873,-0.461819,-0.60091215,-0.083877385,0.7518091,-0.7329923,-0.7013546,2.051446,0.6039796,-0.12265243,-0.21472006,-1.5681589,0.026009291,1.3972986,0.23165248,-0.59028715,-0.0794715,1.2977682,0.29448158,-2.456847,-1.4416367,1.0617719,-1.4130355,0.51222,-0.018010903,1.8108627,-0.04690906,-0.629691,1.6724447,0.046765607,-0.32545188,0.46952862,-1.4738685,0.72740096,1.3190957,-2.0935693,-0.41289398,-0.49866015,1.5395602,-0.614792,0.29351732,-1.3149226,0.79133856,-2.3973231,-0.9013096,1.2284595,-0.015857505,0.13546762,-1.3144771,1.552631,-0.7650911,-0.25604367,0.3410659,0.63290584,-0.9208344,-0.36216873,0.5059067,-0.5683189,0.68902516,-0.14953734,0.09319111,-2.0901582,0.33956543,0.9809475,-1.0812066,0.5630274,-1.0703952,1.3792773,1.1078378,-0.7072367,-0.50691414,1.1791755,0.5770596,-0.37506148,0.34170204,-0.338532,-0.14036314,0.11626056,-0.28125876,0.2524291,-0.49429703,0.068806216
produces,1.2005899,-0.41265258,-0.014728426,-0.05266667,-0.066031165,-0.44556603,0.90270656,1.8547734,-1.5002489,-0.28869566,-0.051677965,1.0307713,1.3340895,0.48732427,0.1832936,-0.35261425,-0.99124616,-0.08311278,0.927033,0.42072546,0.345025,-0.38872784,-0.39827728,-0.8960065,0.59182537,-0.6673869,-0.42012203,-2.0900145,0.5136649,1.5361773,-0.5540785,0.8695374,0.015188743,-0.5915551,0.16642396,0.6281812,-1.0252633,0.093973584,-1.299887,-0.7347368,0.19564222,1.5752697,-0.7489635,-0.8179512,1.2383724,-1.2370001,0.75252646,0.092252955,-0.06116273,-0.17663331,-0.67937267,-0.020589847,0.3049661,1.2344432,-1.3471202,-0.58582985,1.3289735,1.0246749,0.3237153,0.37188995,0.75314265,-1.2775762,1.4050651,-0.89739835,-0.59222513,-0.84573025,-0.7541042,-0.30998218,0.61197925,-1.4634625,1.5647417,2.600298,0.6088902,0.2698275,-0.3505382,-1.0470066,-0.16805747,-0.26408666,0.08807402,0.57392424,-0.13395374,1.7294825,-1.2839699,0.9020977,-1.1365715,-0.0043818285,-0.1271641,1.5080993,-0.47705153,0.9294896,-0.8648532,-1.3846083,-0.28803086,-0.11568878,-0.73767763,1.6397563,-0.97908413,-0.23595643,-1.1915312,-0.6545827,0.17506188,-1.5569773,-2.8876963,-1.359652,-0.6120042,0.6439615,-0.2530681,-0.08596141,0.33021885,-1.5615242,-0.089614525,-0.6657056,-1.7536328,0.24925621,0.08140043,1.3992918,-1.4769164,-0.53969544,-0.77814287,-0.11275492,-0.24036263,-0.16696358,-0.06461291,1.1795058,0.98425424,-0.3405605,-0.09638284,0.06743195,-0.73962057,-0.5040392,1.3469179,-0.88484603,0.10253328,-0.7903245,0.88982576,0.64978534,0.86609954,-1.31031,1.4458808,0.97534543,-0.031169094,0.65917414,-0.38598028,0.542084,-0.20496033,0.0396887,0.30711907,1.3090329,-1.0399584,0.76846784,1.3067158,-0.0008384705,1.6833415,-0.40115634,1.022225,1.3460875,-0.56006247,-0.6595816,-0.623504,-1.710951,-1.3333437,-1.942706,-1.010821,-0.19689871,-2.5301828,-0.5890384,0.6228987,0.17647986,-0.9667979,0.2650464,1.9033437,0.29613993,-1.0024414,-0.23757188,0.7259011,-0.032703348,0.72410864,0.15246162,1.1515646,0.371101,0.39751434,0.26913655,1.6486708,0.3212958,-1.9393998,0.5575976,-1.544705,-1.381569,-0.65645933,1.5025414,1.6673892,0.28428873,-0.43329093,0.34369877,-1.4637281,-0.82568336,-0.44891652,1.0507987,0.39492318,1.1838088,-1.2565004,0.18882874,0.9902589,-0.029220464,-0.12150292,-0.70858824,1.3443623,-1.4306602,1.4845278,0.472601,-0.8094388,0.3638635,-0.6651929,-0.54944646,-1.2245449,0.5232194,0.5870309,-1.6155794,-0.26496568,-1.221896,0.3303603,-1.070598,-0.45045274,-0.29073173,0.8328868,-1.0922068,0.17520255,-1.0260184,0.97693807,0.19034801,-0.81084394,0.3416586,1.5905663,0.52353644,-0.056955263,1.0861126,-0.017030882,1.2551416,-1.3996931,0.6619943,-0.42028275,0.27431414,-1.1023259,0.82768714,1.4951473,0.6807888,0.15023799,-0.25292662,-1.5581359,0.69285464,-0.7757293,0.19768906,-0.27893698,-0.72735965,0.90522414,1.2844923
degree_of,-0.23389438,-0.12569092,-1.2070664,0.21349156,-0.3609398,1.7380008,0.05288523,1.0174572,-0.37008587,0.47148877,0.7518926,1.4236592,-2.2232153,1.2847443,-1.6816198,-1.4444066,-0.6024094,0.7877022,0.52494216,0.28590044,-0.847417,-1.4431949,1.1499655,1.6647252,-0.10985449,-1.1317751,0.7013122,0.47835922,0.6604385,0.41487002,-0.1721933,1.4707294,1.3069999,0.62129354,-1.262581,0.67479837,-1.363122,-1.3335356,-1.6730226,-1.3014672,-0.18856156,-2.0160189,0.22459827,-2.139696,0.36565825,-0.21464105,0.84396064,0.056238055,0.3567785,-0.5840121,1.082448,0.5170986,-1.582369,-0.75032,1.0075202,-2.0869615,0.9472825,0.03971194,1.2853694,-0.7264201,0.9480226,-1.1835047,-0.9910369,1.1175674,-0.36824057,-0.39616597,0.60394144,1.2076229,0.65436435,1.92484,0.41911057,0.43743786,0.7010975,-1.4131674,-0.55507445,0.84862494,-0.6011064,1.1739117,-1.0330685,1.5062424,-1.1984295,0.90796465,0.3824318,-1.1942649,-0.3240018,-0.10102581,2.4341204,-0.043967135,0.7154817,0.952082,0.31904945,-1.4649854,0.3401224,1.0602118,-0.21300845,-0.58578926,0.43000028,0.16950199,-1.4233549,0.65505856,0.5420572,0.30117676,-0.44224346,0.13534766,0.24983715,0.33240986,-0.3301232,-0.70079035,1.4492393,0.9542679,-1.2045956,-0.58108515,-0.693871,1.7331903,1.9229796,0.439035,0.43744746,0.6155703,-1.3410141,-0.38119328,-0.9972557,1.0379272,1.4039202,-1.5245887,0.29789957,1.4450238,0.14846283,1.8673844,-0.6321369,0.98079604,1.0356255,-2.56277,1.2450241,1.0182683,-1.0784618,0.05708808,0.59039855,-0.1656602,0.87286973,-0.9916582,-0.32251698,2.7354765,0.6581156,0.26197666,0.18713552,1.1884884,-0.83858585,-0.6087747,1.9746203,1.4776146,-1.5376852,-1.7263165,-0.49555182,-0.53165054,0.33592117,0.8360654,0.004862767,-1.034169,1.6297193,-0.28323376,-0.6089368,-1.4366559,-1.627375,-1.5376282,-0.44903085,-0.18850552,1.3817071,-0.12466676,1.0696567,-0.041864574,1.7008924,0.12174463,0.2472382,-0.9258007,-0.09665814,-2.3647056,-1.0708044,1.7054276,-0.19308671,-0.8677892,1.8268486,-0.029842358,-0.7375738,-0.8067222,1.4813502,-1.2891016,0.15381114,1.7540015,0.13832097,-0.0005510669,0.21888204,0.04852444,-0.03981369,-0.8701748,-1.2359381,1.8773894,0.33640113,0.73852515,0.21109512,-0.19086987,-0.9535408,-0.15009573,-0.374787,1.088328,0.887068,1.0381576,0.3599057,-0.35265863,0.19718052,0.5302692,-0.67745644,0.27449316,-0.32535243,0.39887443,-1.1579975,-0.89986056,-0.041822948,-0.5531916,0.08725606,-0.91292214,0.3227876,-0.11021065,0.88374287,-1.0985539,-0.72321296,0.8326844,1.3039281,0.36542106,-0.32358912,1.7641218,0.83336604,-1.177605,-0.7411604,-0.8139425,0.9635708,0.03002075,-0.67625964,-2.5750191,-1.5640638,1.1093485,0.45255747,0.9260418,1.2388364,-1.2966597,-1.251085,0.14039373,0.2562568,0.87346745,-1.6620096,-1.0690528,0.6046626,0.83030176,-0.41976693,-0.7646349,0.95133704,-2.098438
connected_to,-1.7682954,2.066061,-0.50129294,1.1769876,-0.7782803,1.081476,-0.44043475,-0.9582903,0.8689491,0.99974614,0.23488672,0.12529321,-0.0077384715,-1.1854745,-0.07405261,0.42104498,-1.2457477,0.87138677,-0.43287835,-1.1318313,0.5804759,-0.40001222,-0.5078453,0.3353733,0.6874364,-1.1407802,-0.9604429,-2.7656822,-0.72247964,1.262149,-1.0521847,-0.2928886,-0.7624728,0.13241142,-0.7074831,1.7076378,-1.183873,-0.49179828,1.0855868,0.64667296,0.20843844,-1.7046896,-2.1046054,-2.3323236,-0.49026835,0.1744546,0.564927,0.38881356,-0.92941725,2.173026,1.2153606,0.15432426,0.54863507,0.13702096,0.16384326,0.47898608,0.8599536,1.3192177,-0.9619589,-0.68758816,0.4952612,-0.13682027,1.1677876,2.0091515,0.30413628,-0.8316666,1.3178569,0.7212039,0.749014,0.635379,-0.51347214,0.913384,0.17257659,-1.0473163,1.0272018,-0.1374464,0.6990967,-0.6506459,0.39730895,1.8080035,0.40432054,-0.47849914,-0.07270753,0.4732879,-0.9355008,0.2597652,-0.12947656,-0.029451346,-0.093202256,-0.2952372,-0.57770115,-0.03332828,0.73785895,-1.87018,-1.2313555,-2.1969056,0.1850014,-0.02217736,-0.34500647,0.5471227,-1.1492407,-1.0046461,0.14031057,-0.8850188,0.118451044,0.2501262,0.37593547,0.05444509,-1.0908201,0.20478758,-0.81507176,0.21557046,0.77315354,-0.3840713,2.129894,0.767942,-0.23137452,-0.9684047,-0.3177142,0.4868224,1.6339223,-0.16266719,-0.08346171,1.6908423,1.2314609,1.1545755,2.0633085,-1.4196713,-0.31392527,-0.5395101,-0.6098042,0.53615856,0.2546664,0.17827226,1.8949732,2.0042794,0.343664,2.1872845,1.5750138,1.6665366,0.7695461,0.9669887,-0.20115238,-1.6052148,1.5794969,-0.6416229,-1.3007321,0.6060334,-0.026886994,0.68773437,1.0036258,1.0951473,1.0516253,0.78214127,0.19205572,-1.4062285,-0.048083793,0.2997312,1.9464747,-0.10430209,0.837619,0.27118018,-0.18732645,0.7051738,-1.720916,0.5227974,0.8387402,-1.1783285,-0.105470106,-0.96768874,-1.299951,0.63208026,0.39929208,-0.68360615,-0.41131905,-0.6336171,0.22408824,1.6669871,-0.97746766,1.5301509,2.141892,0.69901294,0.87020195,1.7502174,0.5060605,1.1472678,1.2796233,-0.5307572,-0.8907036,-0.6652186,-0.2905387,-2.8269567,1.2681061,0.10010881,-0.9214603,-0.5985074,0.74281263,0.51087415,0.2123426,0.15616728,0.65290636,0.9501206,-0.8525507,-0.8998833,-0.40309763,-0.36300856,-0.41441807,-0.007572495,-0.07391445,-0.45933604,-0.39731544,0.421024,-0.22677796,0.31272942,0.14470609,-0.4207725,0.67000806,0.55957216,0.8968165,0.8822835,-0.17097674,-1.1145225,1.608875,1.5440084,1.5746137,0.85982305,0.6939952,0.16932677,-1.2672473,0.44479758,-0.065230116,-0.9605214,-0.40099105,-0.3638479,1.5944374,-0.4639239,1.5109512,-0.9999312,-1.5227758,-0.24443404,1.8847802,-0.26012337,1.0934895,-0.5987814,-0.8290954,1.7120109,-0.20319395,-0.21784915,1.2487355,-0.8008138,-0.8454242,0.20532055,0.4223009,-0.45498914,0.74896693,1.6498533
process_of,0.71441513,-1.0765742,-1.1245558,0.37573475,-0.9693688,-0.61748296,0.20303911,0.5657044,-0.18000579,0.22408468,0.57442015,0.6519353,-0.0716934,-0.5387452,-0.69541293,-1.0897604,0.8247752,0.80120105,0.48218277,0.946764,-1.3033788,-0.100971006,0.8141446,-0.5485444,-1.6719855,-0.94654083,0.16433908,0.61208755,-1.6831573,-1.081613,-0.6993841,1.4760778,-0.06369232,0.4547449,0.11030906,-1.102916,0.38736743,1.329049,0.708758,0.6316259,0.49882373,0.36565557,-0.51188195,-3.1625936,0.031285882,-1.0848854,0.40871564,1.7806888,2.7380257,-1.3554971,-1.4950403,-0.5914843,1.9715644,0.5142511,-0.07477324,1.1855125,0.42489967,-0.22724256,1.148847,-0.7454285,-0.14275499,1.3344948,1.955386,0.39765888,0.12753731,0.38356754,0.46567458,0.33222938,0.062405463,-0.13753767,-0.1481302,-0.3031551,-0.103430025,-0.16728663,-0.031317428,-1.0995173,-0.948278,0.20880884,1.101402,0.05592778,0.4942318,-0.7832077,0.3539496,-0.99299914,-0.10150968,0.7733349,0.17532119,0.72806007,-1.2260965,-1.0492407,-0.5556347,-0.114945486,-0.58349305,0.28057098,-0.37896606,0.9950912,-0.16471142,-1.2742996,2.6717432,0.8526433,-0.20409644,-0.6807289,0.42500624,-0.33650127,-1.1117449,0.6667532,-0.28250366,-0.07219017,0.42924282,-0.2013356,-1.2477627,0.12988824,0.48715118,-1.1038685,-0.4488095,-0.2942066,2.9044592,0.12035528,1.348787,-0.40531158,-1.4823467,-0.013152283,-0.4523438,1.5161,0.8147668,-0.73752564,1.6249037,-0.012829929,0.082042485,0.59328645,1.1522799,-1.5052086,-0.3981027,-0.2536315,-3.1627076,0.84896696,-0.40356198,-0.023865905,1.4511014,-0.9496083,0.70711523,-1.1599561,0.53378874,0.7208755,0.71024626,-0.6404743,-0.3414577,0.090931684,-1.7110009,-1.9750648,-0.41019133,0.4927764,-1.2657871,0.54327106,1.1010607,0.24335803,-2.2790184,0.66134167,0.3265648,0.28366208,-0.2996801,1.4146729,-0.97021526,-0.92139894,0.44980428,0.98077506,-3.153922,-0.39230156,0.9227783,-1.3687989,-1.5064005,-0.2500898,0.4856957,0.425368,-0.5920829,0.44482535,1.1617905,0.967998,-0.21289656,0.42608953,-1.8094965,-0.0028841055,1.0816723,-1.6947775,-0.33181491,0.57214975,1.1935606,-0.51981306,-0.4784386,0.28145143,0.008372397,0.35503462,-0.9651524,0.44388935,-0.57985306,-1.019858,-1.2783973,-0.248943,-0.15979792,0.42342475,0.9382007,1.7563561,0.49796402,-0.7348932,0.3881552,1.4803867,0.9690547,1.4254925,-0.39659092,1.070197,-0.81522244,0.40051922,-1.3603015,0.011567907,0.44365978,0.004638833,0.73882586,0.0951411,0.5428549,0.8854659,0.6217213,0.7350207,0.37324744,-1.0735126,-0.71846586,0.052783825,0.48945153,1.1756958,1.6738203,0.9113992,0.1962561,-0.5317862,-1.1540763,0.12651427,0.71262187,0.9237186,1.2682841,0.17867585,0.82748693,1.1070974,0.29225782,-1.6258978,-0.6907605,-1.8898368,1.0715429,1.6348693,0.5936466,1.0404173,-0.45221913,0.6339939,-0.16956599,-0.8752651,-0.65536153,1.1543386,0.76673657,0.3230929
co-occurs_with,-0.9101136,-1.1749701,-0.62163216,0.40677598,-1.2800779,0.5176753,0.05456098,-1.3506598,-0.54267395,-0.2812052,-1.9425507,-0.12599479,0.4794446,-0.25671574,-1.4855748,0.4612175,-1.5142353,0.05624593,0.07822406,-0.5287754,-1.1716163,0.3053134,1.1265147,-0.49984926,1.8209373,0.17067768,-1.1602641,-0.30580255,2.4743023,0.27209455,0.14385363,1.3727043,-1.0593864,2.5178885,0.8746077,1.5392832,-1.4539549,-1.2178162,0.5944259,1.0071224,0.006987074,-0.49564674,1.0524979,-1.3290071,-0.13325188,-0.79297256,0.7870053,-0.18949103,-1.6200076,-1.8379344,-0.5303037,-1.0161744,-0.41161993,-0.117343836,-1.9190153,0.66276103,-0.54965615,0.94225895,0.18627812,-0.84006244,0.19339165,-1.0449443,-0.67800397,0.38835272,0.43799016,-0.08016627,0.3336366,0.03607995,-0.04009376,-0.14567189,-0.19705358,-0.25106224,-1.0001534,-0.94808483,-1.5305392,-0.51372343,-2.0575023,0.2402479,-0.62550426,-0.5315696,-0.7667541,-0.5828367,-0.29096892,-0.34763116,0.15622035,0.725048,-1.0116531,-1.4563794,-0.6178748,1.1924002,-0.95003307,0.706153,-0.83408225,0.30873272,-1.4573438,-0.38042557,-0.7509413,1.0957787,0.93982565,0.9753464,2.63165,-0.6797951,1.1168456,-0.8784708,-0.3003277,1.820329,-0.34066865,-0.85429806,-1.0985137,0.8077713,0.85009533,-2.0490477,1.0419221,-3.0740385,0.7082139,0.9430695,-0.16704643,0.6898672,0.24888968,0.6578208,1.357957,0.46433514,-0.27479643,1.2979214,-1.4468018,-0.84481966,0.6969367,-0.25298867,0.36458448,-1.2456746,-0.49893308,0.7203869,-0.6166522,0.17800498,0.9454829,-0.9457102,0.14619182,0.41011986,0.7177931,-0.26457867,0.22033563,0.14559567,1.1303248,0.7409857,-0.150147,0.5007029,-0.13698828,-0.13052078,0.57931566,0.21582067,0.13710223,0.87028456,-0.48300284,-0.7588792,0.19633083,0.99838024,1.9852477,-0.0076874355,-0.29947984,0.5809169,0.262868,0.32635817,-0.8588186,0.32206407,-1.3500075,0.26620457,-0.20744787,-0.8563925,-1.586927,1.0781192,1.2206206,1.0394931,-0.22529748,1.2649229,-0.6920128,0.278136,-1.1696906,2.0715375,0.4030496,-0.87121964,-0.15213741,1.470704,-1.4857622,0.17041092,1.0469092,-0.24390343,-0.67835295,0.11515754,-0.6592321,-0.048842367,0.14406194,0.7290061,0.10834269,0.88696367,-0.21381667,0.25806698,-0.710517,0.28359812,1.2587808,2.1467159,-0.9337833,0.38666517,1.5663285,1.370117,-0.5523318,-0.6955742,-0.16462995,-0.28881314,0.004228973,-0.7887149,0.8456548,0.044462815,0.6331188,0.81881344,-0.7397481,0.43079457,-0.47263706,-0.044136245,-0.53296524,0.86982864,0.9303158,-0.6249716,-0.07253747,0.5253601,-0.611865,-0.82713354,0.38412705,0.9121185,0.46206915,-0.6178693,-0.054150626,-0.2601198,-1.8781128,0.30960086,-0.5765855,-1.4792447,-1.5925629,-1.2498169,0.163586,-1.1199001,0.028172674,-0.5771073,-0.9735819,-0.46840617,-0.29499727,0.32376534,1.8257846,1.895134,-0.565442,0.53871137,0.15494199,-2.0991597,-0.554128,0.36950904,0.26323807,-0.05626023
disrupts,-0.8910059,1.8996401,1.0245894,-0.77814054,-0.97315234,-1.4655858,0.3677489,0.035403196,0.8934382,0.46351504,-0.65287215,-0.53101087,-0.4518871,0.23277918,-0.04856316,1.5007405,-0.720712,0.77938175,-0.12243494,-0.04424554,1.7327387,0.31443727,0.76326007,1.2161244,-1.374003,-0.8902671,-1.01641,-1.5041564,-0.24640903,0.37904805,-0.74902946,0.31348857,-1.3723878,0.023916025,-0.37929067,-1.0792247,0.9761077,0.33014977,-0.20867275,0.5985883,-0.5805951,0.21322545,0.6842903,-0.4148335,0.6173481,0.9506628,-0.7100762,0.16314861,1.1614008,-0.03778025,-0.75424916,0.7195872,-0.73059016,0.29748428,0.87872225,-0.4878024,-0.3074843,0.03414396,0.22446854,-0.26711604,0.03880345,-0.005174413,1.6991268,0.4718464,-0.268779,-0.9802286,0.358069,-0.013176906,-1.7174515,-0.0014171287,0.54137754,-0.86212796,0.28843006,-0.063871756,-1.1319348,-0.7026607,0.92034966,0.4079823,0.6062639,0.5560516,-0.83402157,0.11075984,-0.7670948,-0.12962006,0.4744111,-0.6424984,-0.42547926,-1.9964032,-0.803371,0.6115941,1.1675011,0.83493006,-1.8637937,-0.32628798,-0.81963325,-0.39896926,0.55908465,-0.5031947,0.51187766,0.30491415,-0.22945224,0.0051076305,1.4910625,0.1010512,-0.6416228,-0.6439264,-0.45611727,-1.1423341,0.641174,-0.24613744,-1.12443,-0.064375654,-1.4333125,1.1745695,-0.16381465,0.8901653,-0.8312004,1.6243521,0.22534283,0.9466484,-0.9965672,-0.28854337,0.41422093,-2.221079,0.3897766,0.1406766,1.3463702,-0.86103433,0.8397468,-1.6060058,-0.7296252,-1.0412875,-0.16689247,1.4744751,-0.85451657,0.6552278,-0.40915462,0.35416234,-1.398287,0.53987205,0.474949,-0.4059531,0.5407684,0.8015993,0.08034837,-0.9415086,0.62582284,-0.119643666,0.12471332,1.7258605,-1.1885368,-0.558918,0.1950818,-0.5699642,-0.91570526,1.4247897,1.2227256,0.14588283,-0.9126592,0.54425275,-0.60085034,0.5703226,-0.07632741,-0.26755416,-1.2910485,-1.27755,-1.7203249,0.24840769,0.29178783,1.0968211,-1.2717065,-1.4580415,0.8486723,0.41943786,-1.4637027,-0.761559,-0.88606423,0.23960075,0.9235591,0.6712446,0.29453218,0.08514595,-1.4070561,-1.9857242,0.09555655,0.25187802,1.3282853,1.3061802,-0.87446773,-1.945288,2.1639132,1.4526259,-2.2429793,-0.8008937,-0.09455546,1.0991766,-0.21794954,-0.07841472,0.42734164,-0.64290416,2.293988,0.34126946,-1.0294425,-0.37578723,0.11957294,-0.34266573,1.031558,0.005324107,-0.65905017,-0.5943429,0.13657025,0.41846383,1.0034448,-0.39811093,-1.8435596,0.2957439,-1.4250895,-0.37947494,0.48554572,-0.7576963,0.22791064,1.7667028,0.33080748,-1.6127934,-0.30193993,-0.38799417,-0.4207644,0.97599614,-0.9542837,0.81517494,-1.1004962,0.14711079,-0.8754514,-0.024471952,1.691057,-1.0262878,1.1568325,-1.5211812,-0.3091008,-0.034162823,0.34327844,0.6314112,0.40154245,1.3804811,0.44142997,-1.5706798,0.8394707,0.87526184,0.013315965,-1.4484149,-0.9949368,-1.4576782,-1.5355738,-0.14431103,-0.124210775,-1.0707353
issue_in,0.95391196,0.7004926,-0.10867508,0.9387371,0.7825461,1.7640793,0.33115196,-0.36922967,-0.5397711,1.7956932,2.041082,-3.3132718,-0.032160047,0.9496411,0.8584464,-0.72785485,1.6812824,-0.28157967,-0.7544837,0.60355896,2.7826076,0.6945991,-1.0800444,1.0760745,-0.24764802,1.7833971,1.0507355,-1.1329796,-0.12215818,-1.013482,-0.25066918,0.035745155,-0.19899407,1.4838523,-1.1995788,-0.3494193,0.72289556,-0.29567432,-0.5635188,1.3741045,0.026327677,0.18719958,2.273402,-0.65132767,-0.23825927,2.140096,0.02073045,0.93959427,-1.8890183,2.1810257,0.32592863,-1.0575811,-0.7967541,-0.09219875,2.2746089,0.33529282,0.29727617,-0.6932893,-0.7455277,1.0078185,1.4474759,0.2654938,-0.08576381,-0.64473253,2.2662964,0.017782003,-0.4923547,-1.0047622,-0.80133736,0.34171632,-0.43466327,1.3558162,-0.7191412,0.40235707,1.5468371,0.7608761,2.0257869,-1.3299958,-2.1958377,-1.1756059,-0.33558825,-0.62514967,0.2086016,-0.9538873,-0.30786407,2.2759638,-1.7246898,0.22819404,0.076993175,-0.7672616,-0.6661324,1.0472316,-2.3047047,0.9664446,0.86105365,-0.90498567,0.4640111,-0.3848259,0.86548316,-0.2716283,-1.3252136,-0.6188806,-0.0694316,-0.5057882,-1.3606235,-0.8191128,-0.4654717,0.28565368,-0.7070766,-0.62402517,-0.028812759,-0.39237303,1.206251,-0.37077698,-0.16709155,0.46511513,0.7771146,0.61751246,-0.05724349,1.758429,-0.03028772,1.7747825,3.1421824,-0.14248884,1.4526659,-1.8952644,0.58364064,0.27077964,-0.04176103,-0.10455808,-0.21880275,-1.5021048,-0.03614119,-0.755546,2.1599722,0.34854403,1.0448338,0.3858189,-0.6395338,0.6598394,0.0626942,0.8033961,0.6558547,0.970254,1.2301805,-1.4199796,0.29980406,-1.5875576,-1.0207516,-0.682334,1.1730692,-0.48899725,0.58314407,0.5121765,-1.0426435,-0.5514989,1.0065124,-0.69519675,2.3653307,0.7842906,0.13873059,0.12175095,-0.23798552,0.19765387,0.2994368,-0.8068434,-1.0965643,-1.5191089,0.659862,0.5300655,-0.11399363,0.75030273,0.30987936,0.070621535,-0.7842451,-1.0487788,0.8271996,0.56056976,-0.11858475,0.81092,1.1549828,-0.7741933,0.42616183,1.1490682,-0.53339326,-0.8413035,0.62918943,1.8978175,0.38404354,-0.57658964,0.46938086,-0.36366966,0.10201014,0.40680185,-0.47821227,-0.84234667,0.3555739,2.3346593,1.7593383,-1.2355726,0.28646377,1.6924677,0.6238717,1.0971673,-0.20407699,1.8768566,-1.1092488,0.57752186,-0.38677076,-0.13862285,-0.6387797,-0.50118315,-0.8048886,1.2490498,-0.7574113,-0.84456056,0.3835046,-0.68903255,-0.16302188,-0.42892912,0.51633954,-1.0107988,-0.08876482,-0.47021347,-1.2315282,-2.1949606,-1.5531996,-0.8180228,-0.4146248,-0.49984896,-0.0039006951,1.5003237,-1.3618268,-1.3064512,-1.4903853,-0.4825934,-0.67104864,0.44792902,-0.18911642,-0.2768912,0.25368145,0.052910477,0.08244268,0.9530236,0.3103348,1.7094501,1.070765,-1.2147604,0.48360267,-0.7399536,0.71907604,-0.50994825,0.6400061,1.144213,-0.23215872,-0.63056004
part_of,0.3616112,0.80603576,-0.3244287,0.6969674,-0.5587995,0.9969969,1.2712553,-0.8004714,1.0001048,0.88754046,0.2555356,0.5311372,0.115646385,0.02712955,-0.7592461,0.13268925,-1.2725189,0.6459488,1.6056962,0.29933694,-0.9596374,-1.0896281,-1.1485727,0.69926435,0.43104532,0.062335048,-0.8527599,-0.48247242,0.5077333,0.797568,0.62330896,2.283034,-0.06360529,0.25414327,-0.17457576,0.5763606,1.5840904,-0.7836663,-0.5511194,-0.15971869,0.23170727,-1.7261324,-0.7296458,0.07445888,-1.4361415,1.3179771,-0.43286785,1.645481,1.8256642,-1.4950063,0.066420175,-1.1848383,0.32837427,-1.0014331,-0.105250835,-1.0331265,0.9258386,2.1919837,-0.45424363,-0.8786207,1.0504005,0.6044738,2.187075,0.7780015,1.8147362,1.9864054,-0.48387772,-0.25496247,-1.4463038,-0.5402471,-0.99429464,-0.009500637,1.0214162,-0.2913613,1.3684565,-0.57405204,0.577476,-1.2597917,-0.23665544,-0.76644933,0.85108536,1.4666514,-0.7768974,0.8245726,1.6631529,-0.2228059,-0.40497068,-0.24586259,0.6775053,-1.5220275,-0.9704469,-0.8566593,0.6612237,-1.3869398,-0.37209675,0.05046724,1.5194151,-1.6908333,-0.9946072,1.2752509,-1.0637612,-0.0075587765,0.9345378,0.35126957,-1.0361614,1.2402974,0.23269601,-0.06486277,-0.61082613,-0.358151,0.46575156,0.31495264,-1.5833046,1.466614,-0.11284608,-0.88087535,-0.21458837,0.7148545,-1.6157037,-0.020214073,-0.47799003,0.5653211,0.24395595,1.8179755,0.8607485,-1.6783946,-2.258597,-0.4681846,-1.06031,-1.1118478,1.3462025,0.685521,1.8053646,-0.299097,-1.0729306,0.8540446,1.2015195,-0.78093857,-0.6171275,0.40137234,0.86620444,1.267343,-0.15053302,-0.8336144,-1.5012711,-1.2278582,-1.3865216,0.52589875,-2.4838288,1.8946666,-3.1194992,-1.6693718,0.95862424,-1.9873458,0.2617548,0.19160703,-0.52901536,-1.1723775,-1.8012208,0.092204645,-0.2823377,1.5882833,-1.7957735,-0.9501445,0.14139463,-0.024031952,-0.21123534,-1.4992332,1.2851552,-0.8610214,0.010666792,-0.587929,0.15816075,0.110303454,-0.60402465,-0.36403924,-0.41037163,-0.48947436,0.44503218,-0.97355336,0.28796,0.36445287,1.1680282,-0.8199762,0.23419629,0.57899266,-2.662588,1.7109939,-1.0783399,0.22959691,-0.3136788,0.53243846,-0.58968,-0.31054005,0.09194005,0.18731202,0.9357419,0.8518344,2.3172529,0.48630145,-0.64893407,-0.04435762,0.17983717,0.42876962,0.3408868,1.2906456,-0.99908936,0.47103655,0.48195142,2.1782246,0.31026733,-0.7443096,-0.41510892,0.29943496,-0.19315341,-0.5422811,-0.4075068,0.13153836,0.054741472,0.71725506,0.41527036,0.03978621,-1.506629,-1.758982,-1.3291965,-0.699239,-1.7766865,-1.9972591,0.19028541,0.037164297,-1.1414152,1.0025078,-0.189197,-0.74413246,0.25644892,0.5426542,-0.0141906245,-0.3399424,0.058862776,1.2314404,0.7932119,-0.28206432,0.3378282,-0.6888145,0.88630646,-1.0229279,0.16946405,2.0733619,1.2846972,-0.14178227,-0.48089778,1.695463,0.038603768,-0.80539066,0.6062887,-0.3764358
measures,-0.8568205,-0.24833085,0.5182995,0.09590903,0.50395316,-1.1757132,1.4813437,-0.4418475,0.7278219,1.7878646,-0.4204242,0.2523331,-0.414182,-0.34017128,0.06699792,-1.0060349,0.88348323,0.6343164,-1.2419723,-0.08687269,-0.118103266,0.16136527,-0.81125885,1.0752025,0.45373338,0.5311318,-0.32237703,0.6302626,2.014332,-0.19245625,0.02220173,-1.2861004,0.9113608,0.6239729,1.6757678,-0.3362304,-0.66537815,0.1952129,1.9057454,1.5844275,-0.14338084,-0.58919424,1.8388283,-2.6421957,0.9902071,0.15611711,0.40665513,0.078073755,2.7203622,0.38723508,0.94246423,-0.8808053,-0.32493916,0.13419266,-0.122961715,0.6366756,0.9678454,0.6877176,0.7213363,2.0466428,0.63529825,0.57089907,0.7076416,1.4849283,1.8912475,2.169064,-0.7942749,0.09559262,-0.5857642,0.7851281,1.0836341,0.7654774,1.0690583,0.9981347,-1.3612713,0.57860774,-1.0906305,1.880867,-0.78185874,0.35877168,-0.6947944,0.040800583,0.32205293,0.53164226,-1.3657855,-0.32594424,0.3563593,-1.5566298,-2.5882142,1.5605038,0.12874049,1.2662709,0.38036028,-1.713149,0.032707516,0.105626285,-0.76926917,-0.09194642,0.37224203,-0.7052027,1.1207162,-1.6011292,-0.39853346,-0.682414,1.1465855,-0.15354809,0.452476,-1.7769803,-0.11493857,1.3263118,0.61094296,0.24240687,-0.9461,-0.58264154,-0.19920187,-0.4831628,1.2996256,0.7640415,1.0912286,-0.11446457,-0.77198917,-0.49682993,0.54508555,-0.67523414,-1.003785,-0.09235977,2.431007,-1.2747995,0.13365954,0.2584827,0.9118816,-1.1729888,0.40536729,-0.6110118,-1.2850295,0.27522162,0.45496017,1.394347,2.0406625,-1.0628474,-0.9798748,-1.3345206,-0.49219325,0.84968424,0.3657861,-0.532119,0.8431738,-1.1793833,0.43762746,-0.25682476,-0.008376357,-0.33007127,-0.65170944,-1.235952,-1.2193229,-0.6505175,7.098092e-06,1.0827417,-0.032132495,-1.3264891,-2.0341828,1.2781909,-0.27722362,0.0043698396,-1.1538892,-0.9758113,-0.7859257,0.57053864,-0.48342544,-0.55865633,0.6290728,0.8382198,-1.2264706,1.5827508,0.5857154,0.26379645,0.5821377,0.9883116,1.3488706,-2.2140133,1.015439,0.012465814,-0.23564579,-1.5144763,2.092952,-0.26228285,-1.290066,0.83243656,0.2060144,0.09733011,0.8834945,-0.007326354,0.2002054,1.0168622,-0.9273871,0.97124827,1.9634372,-0.7172647,-0.93162024,0.09066879,-0.03754123,0.6498115,-0.85692006,0.23933752,-0.16755235,1.9841433,-1.1839066,-1.208036,0.8591644,1.171793,-0.05531787,0.070050746,-0.41887495,1.0163583,-0.06306178,0.6343894,-0.7715592,-0.64954495,0.8287062,-0.6545001,-2.540871,-0.72120106,-1.1951343,0.35799146,-1.9595405,0.22780795,-1.3721035,-0.6790116,-2.460162,0.6279173,-0.15556648,0.39222842,0.7914289,-0.15973788,0.5188702,0.1493484,1.269353,-0.16205947,-0.36462846,-1.2035577,0.113445126,1.4714386,0.9132875,0.5143439,-0.07806803,0.8068771,-0.945372,2.3550918,-1.2189716,-0.05368507,0.31565562,0.08280241,-0.19174716,0.230574,-1.4752235,-2.2044709
prevents,-1.2483561,1.3697165,-0.8154087,-0.91364545,0.2556867,0.7138221,-1.7761246,0.3755836,-1.3434927,0.5885683,-2.4867766,-0.70532095,0.82214415,-0.7388047,-0.22292754,0.64377975,-0.49516958,-0.7614749,0.43596405,0.15545581,1.4335412,1.0150111,0.63595325,-0.46409473,-0.25621203,-0.098140374,-0.60199475,-1.5343194,-0.7466103,-0.6223143,0.5470339,1.7370267,-1.5138215,-0.8843304,-0.19857761,-1.9098432,0.13005194,-0.18243168,-0.20528801,0.44033682,0.60369986,-0.15196125,0.01552182,-1.5622976,-0.83220416,-1.5083878,-1.1147724,0.08316036,2.4002826,0.2094269,-0.24705267,0.89797837,0.39878047,-0.5316836,2.2134924,0.33167878,0.27192885,-1.0120463,0.67882293,-0.84830964,1.2922459,-1.0183961,-1.0208542,-0.98074627,0.14118205,0.39371437,-1.2445747,2.000209,0.17768763,1.3112404,-1.058609,2.653971,0.85467535,-0.51066226,1.3578929,-0.38979352,-0.81350154,-2.1164174,-0.12088151,-0.57307947,-1.1567138,0.8689191,0.972189,2.11433,-1.4375414,1.0542727,-0.113677226,0.52893203,-1.0610033,-0.32722023,0.5292653,-0.17251989,0.7412242,-0.35230663,-0.34588337,1.3130238,0.019035298,-2.6381893,0.0260385,1.809857,0.28299,-1.0751746,0.7118862,1.0639123,-0.13116652,0.08670666,-0.6196588,-1.002427,-0.5093593,-2.1744883,-0.1460854,-1.0624737,1.8762066,0.3678904,-1.3887515,0.05660162,0.8289353,1.5218174,-0.5975248,-0.024492294,0.9122688,0.38123766,-0.44342947,-0.6451138,-0.9509379,-0.67795014,0.31992087,-0.5960892,-1.0449519,0.21726611,-0.17971206,0.7532932,-1.3204865,-1.0099715,0.28135946,0.014365625,-1.6426262,-0.47987482,-0.2623518,-0.9074089,-1.0039612,0.6608833,0.26753268,0.118544616,-1.1405132,0.49219054,0.31530863,-1.5399879,0.8665396,0.336475,1.0753781,0.58523256,-1.5344826,1.0355542,1.249451,-0.6193988,-1.2688344,0.7550446,0.15508808,0.18194653,-0.45470777,-1.1634599,1.9056028,-0.43977734,-0.5706491,0.92385674,1.4648274,-0.48028454,0.6319451,0.011030272,0.6037117,-0.92893875,2.2232199,1.1524124,-0.7201011,-0.088803135,-0.61076033,-0.5346927,0.53337955,-0.086770274,0.8459919,0.6385544,-0.38680083,0.3209903,-1.5029154,0.3320814,-0.9821164,1.203726,-0.7455385,-0.52225083,-1.2258682,-0.7234434,-0.36986974,0.5279418,-0.8327315,-1.4607534,-0.5354765,1.4894248,-1.2220348,-0.46319395,-1.3357817,-0.54005224,-0.8632935,-0.41352716,-0.014625608,-0.54760665,0.09034327,-0.8929119,-0.17430793,-3.210367,0.62807167,-0.7835802,-1.1807998,-1.3383027,0.16284627,-0.6016966,-0.015576849,1.365334,-0.88486993,1.9316574,0.23329553,1.7670999,0.12155135,0.29306272,1.9552313,1.0264084,-0.029944383,0.46294588,0.49759227,-0.9438273,-1.949358,0.3785147,-1.2708161,-0.49507403,-1.2270131,1.7166736,1.1074955,-2.2622511,0.77897125,0.08769524,0.96212363,-0.31825915,0.51112616,0.5135098,-0.17396834,0.72257155,1.585041,-1.4551833,0.35204586,-1.025288,0.03935874,-1.3622442,0.50864935,-0.38620588,0.08936107,-1.0544369
causes,1.4696398,0.73433346,-0.08091471,-1.4126102,-1.484013,1.4704255,0.02046159,0.3750645,-0.56577367,0.51197404,-0.17580195,1.2310103,0.032668564,-0.42151964,0.3023145,0.98504543,0.41882464,0.20370606,-0.4414452,0.5181779,0.44543734,-0.1190181,-0.38079166,-0.8024125,-0.20708169,-1.8938706,-0.14530522,0.6148964,-1.040356,-1.0899975,0.93647826,-0.073051184,1.4961411,-0.67322,-1.608475,-0.41390422,0.5624004,1.6487173,0.29417944,-1.8568717,0.5000953,-0.83664006,0.26772523,0.27271745,0.34543458,-2.9120507,0.4275716,0.34491435,1.8413582,-0.2547944,1.2718217,-0.47316545,1.2836754,0.6531355,1.448186,0.7433852,-0.5371056,0.65644807,1.7957973,-0.58232677,-1.5439427,1.6820955,-1.1539236,-0.81697655,-0.023233512,0.8751386,-0.244857,0.6440547,-1.809601,-0.69374007,0.044770047,-0.5464128,0.114093274,-2.656375,0.7905225,1.6846343,0.83884645,0.2597309,-0.50413,0.13506399,-1.1141276,-1.6053226,-0.5127823,-0.45353675,-0.6616911,0.75734955,1.2136037,1.164707,-2.8341904,-1.3340882,0.54050976,1.2571995,-0.039610602,0.3543061,2.0609906,-0.05068709,-1.2816999,0.40102407,0.8420714,-0.49631888,-0.03133248,-2.5344188,-0.89182353,-1.372239,-0.64122933,0.21600355,0.5885593,-0.33768547,-0.20520382,-0.30641818,-0.14399917,1.2561924,1.1632161,0.17587903,0.4182238,-0.9637921,0.26126412,-1.347789,0.93616956,0.26566,1.4098791,0.6304363,2.0791545,0.18263344,0.13623293,-0.33068168,-0.9823686,-0.46791083,-0.33115068,0.45212525,-0.023611804,-1.4876424,-1.469044,0.27580312,0.3274934,0.8872798,0.83877105,0.03817517,1.0148863,0.8626509,-0.4784561,-0.8616878,-0.486724,-0.5359364,-0.4322009,1.1362326,-0.6912676,0.2286424,1.4478577,0.57555634,0.31220296,-0.94365597,-0.38815215,0.87536395,1.405253,-0.020160282,-0.22398378,-0.0547102,-0.56322855,0.71123326,-0.4788075,-0.7050306,-1.5282478,-1.7540852,1.4262522,-1.8035752,-1.0136534,-1.2144653,0.45362023,-0.8073361,0.52639747,0.80587196,1.2691528,-0.5460215,-0.04130178,0.17138356,0.04131666,-0.6210512,-0.043830965,-0.28555146,1.3082292,-0.5515939,0.59831333,0.030929621,1.3297821,0.36594656,0.9294215,0.17876993,0.104172714,0.25443286,-1.0733879,0.12228219,-1.5228174,-0.6105932,-1.2911893,1.881972,-0.90497917,0.21489413,0.19760133,-0.10858829,0.70147526,1.2847224,0.03248665,0.09086741,-0.5126138,-0.30681017,-0.30997154,-1.3211927,-0.42374474,0.8400944,0.2808825,-0.5055643,0.8877377,-1.0683707,-0.058420226,-0.6632314,-0.050607428,-1.4847336,0.24317214,0.29609883,0.850117,-0.87430656,0.29812872,-1.5920343,1.3891729,-0.043594863,1.0926112,0.26874232,0.8561284,-1.8299932,-0.7583316,-0.25425363,-2.8338852,0.6666832,1.2499338,0.69711024,-0.16218105,0.008826597,-1.0462065,-0.75565994,-1.125626,-0.11031877,0.6500813,0.34078598,2.1504173,-2.1544008,-0.541664,-0.2714344,0.6824129,-1.6578642,-0.12524366,0.42340407,-1.1114744,-1.4624553,-1.245333,0.35789236
indicates,1.1884125,-0.5736747,0.049846444,0.60274243,-2.0146387,0.2870538,-1.7566129,1.1625571,-0.3890768,0.8365009,-2.2736633,-1.3016939,2.163205,1.1921623,0.81312746,-0.49961382,0.0059376317,-0.9266961,-0.83361995,-0.9476153,0.07023932,0.098616,-1.2693542,0.15191594,-0.75507146,1.267855,1.8922272,0.23014088,1.183242,0.7617024,-0.90021634,2.0069413,1.3368239,-0.74744344,0.16417298,-1.4899172,0.7820045,-0.74586976,0.3058267,-0.6267032,-2.3258336,-1.4191399,0.4277775,0.84638923,-0.30294725,-0.2705763,0.5024435,2.1675003,0.4163715,-0.2618138,-0.8017242,1.8845426,-0.46413773,-0.6079245,-0.4169699,0.9051855,0.25427467,2.1927416,-0.32434404,0.8312275,0.8774967,2.5951796,-1.7770181,0.9821146,0.30068997,0.03299054,-0.59552056,-0.23849833,1.6484996,0.5469867,-0.9532696,-0.9012757,0.7687229,1.4521189,-1.3242755,-0.6401395,2.7573876,0.23874728,0.7891715,-0.20178775,1.1807902,0.54994845,-0.526286,-0.5460523,0.447618,1.3574766,0.8748897,1.2923307,0.02709627,0.6661487,0.87087965,-0.6982081,1.1721848,-0.8832405,0.29214442,-0.2610379,0.91181225,1.8224077,-0.29688552,0.39776528,-2.325942,0.13721871,1.1566966,0.3379073,-1.0875221,0.7710631,-2.46222,0.12844147,-0.43011674,-1.549444,-1.7016364,-0.29048452,0.543099,1.449494,-1.6135839,-0.22611618,-0.7929815,-1.988723,0.5729074,0.16250032,-0.8263334,0.10991675,-0.8254464,0.6032634,-1.6973054,-1.2933909,-1.3345342,0.38899678,-0.44501776,-1.3846055,-0.9691735,0.015941957,0.9498414,0.73287886,1.1855676,-0.45870787,-0.7650427,-0.31767702,-0.7822136,0.29136917,0.013151645,0.041607987,-0.619073,-0.45521027,0.75409216,-0.28943402,-1.4450084,0.87251323,-0.5997304,-0.32993194,2.258008,-0.70765793,-0.053598914,0.5928702,1.3530599,0.29455045,-0.19459093,0.9724509,-0.41696128,1.0450128,-0.11276844,-0.70155925,-0.26129764,1.0318547,-0.36084402,-0.1811165,0.9292226,0.62673146,0.2666003,0.037578087,0.03726935,-0.48407945,-1.2741804,-0.94881314,-0.28406644,-1.0955453,1.0455763,0.9043039,-2.2810407,0.15663216,0.07136555,-0.33735725,0.0015008751,-1.6144973,-1.2360197,0.39165488,0.61789334,0.8102827,0.74496263,1.5765336,0.33573788,-0.001378294,0.86783475,-0.74023217,1.8185948,-1.8696247,1.1054374,-0.1327523,-0.16459374,1.007863,-3.560672,-1.114966,-1.0120099,-0.5501936,-0.9066879,0.6494215,0.038227912,0.55552036,-0.5875992,-0.8162137,-1.3272585,-0.40214905,1.547075,1.5138034,-0.61209255,0.059300885,-1.2101369,-0.6127398,0.9902424,-2.2314398,0.66125095,0.91388774,-1.5225054,0.1693456,-0.045919925,-0.3773624,0.5883976,-0.47672307,-0.26047716,-1.244813,0.63315207,1.4143773,1.0202976,-1.4728149,-0.559205,-0.88220996,0.8814419,0.28190246,-0.26975474,-0.765387,2.922481,-1.0705801,-1.7766882,0.48755538,-0.52971977,0.07593182,-1.3012817,-0.5944936,-0.11574943,-0.47417402,1.1941447,-1.5028751,1.9641129,-0.21103294,-1.9007893,0.79082257
treats,-0.5561798,-0.056260582,0.23365028,0.28090298,-0.69367206,1.8240715,0.9356011,1.1881425,0.53540856,1.3191218,-0.39567783,-1.1228497,-0.37456653,-0.80115235,-0.91680443,0.9719486,-3.649073,0.37058458,0.504884,-0.19009613,1.231148,-0.86638945,0.5190948,-0.04899418,0.0806288,-0.23895735,-0.90657365,0.27210346,2.0262291,-0.9278693,-1.2783246,0.15654667,-0.21723649,-0.8396103,0.104876906,-0.05548489,-2.3498075,-0.35873327,-0.947364,-0.2641765,-0.9493878,1.2376038,0.26587626,0.14493304,1.5114498,1.1704334,-0.05141864,0.40683085,0.06850002,-1.4198482,-0.8122555,0.5470916,-0.38657075,-0.22086914,1.0211589,-1.1220936,-0.20576043,1.5034463,-0.9813487,-0.01655536,-0.3564084,-0.49520952,-1.5081382,-1.8417568,1.1576318,-0.9948459,0.4647483,-0.98132765,-0.21140946,-1.7359719,0.09814954,-0.99690706,0.17691462,-1.1479151,0.699716,-0.6731011,0.40614563,1.1530678,-1.3121041,-0.8691335,1.3505952,-1.7900872,-1.0642459,0.47969878,-1.7649181,0.18761373,-1.3221842,1.4145902,0.5698061,0.2253189,0.7956147,0.34312755,0.8533998,0.14846025,-1.6726769,0.6259377,-0.86797446,-0.24851663,0.49027458,0.93070626,2.1031141,1.260887,1.2174467,1.2045332,-0.09222677,0.3464408,0.119099125,-0.097606055,-1.7632775,-2.3173292,-0.805019,-0.6349519,-0.08171258,-1.146686,-0.30440646,2.0244727,-0.8084779,-0.28389522,1.7789527,0.4613727,1.0528145,1.4348687,0.28022128,-1.137651,-1.952187,-0.53254455,1.239156,-0.17044467,-1.1705883,-0.70861524,-0.13714999,0.16928537,0.7894373,-0.74255615,-0.6767456,-0.7008289,-0.8279684,0.45805112,-2.505606,1.996721,-1.1467341,-0.3709425,-0.84189796,0.18804301,0.4826423,-2.1239903,-0.4484996,0.5394056,-0.26403606,1.1467977,-0.43154186,-1.3344506,-0.15479633,1.0264294,-0.90152586,-0.0020284224,0.9302989,-1.3641403,0.32434097,0.6080478,-0.19690436,1.5908115,0.47184607,-1.2324134,1.0115392,-0.27322832,0.7166281,2.0019832,-0.6485146,-0.6185031,0.24932246,-0.43918663,-1.9925725,0.73137206,0.5342329,0.476234,-1.372715,-0.82493293,0.92080826,-0.7535184,0.6645861,1.1541231,-0.62728745,2.335248,-1.0649812,0.7479589,-0.29055032,0.19440009,0.41887626,-0.42399877,0.5415778,-1.927148,0.67920375,1.2892035,-1.1263362,0.08598468,0.5372242,1.6301937,-0.84103113,-0.7342214,-0.13370591,-0.4869747,0.95533246,0.14992672,-0.88690406,0.32722616,1.3376651,0.052857574,0.12725051,2.350998,-0.2457981,-1.0967602,0.07994893,-0.27828294,1.2185731,-0.6689425,1.1247468,0.28904298,0.37929466,-1.1704218,-0.47590134,0.31250432,-1.4113371,1.3326275,0.55297494,0.56703156,1.1110628,1.9187013,-0.3810432,-2.0504558,-0.069345586,0.09137884,-1.0884066,-0.031207671,-0.36019152,-0.0377243,-0.5091661,-0.53745216,-0.23940405,1.4179037,-1.2359252,0.20094062,-0.7281434,-0.010821895,1.9802926,0.316092,-0.19496933,0.5778256,-1.1139251,0.49598056,0.4900245,-0.5130561,-1.4814328,1.543253,0.99816775,-0.6406492
evaluation_of,1.3948351,-0.8475884,-0.1410138,0.53627586,0.1063918,1.8146908,-0.21242094,0.46417987,3.6327975,1.1280805,0.022644388,-0.23639214,1.0832741,-1.2961243,0.60306585,0.22522907,-0.25819275,0.7603548,0.03937356,-1.1369214,-1.1885207,-0.22142993,0.9971914,1.1921203,0.28273472,-2.4882107,-0.10071641,-0.053001467,0.5235211,1.1891428,0.71371824,-1.7773095,-1.3899063,0.39648643,-0.07369111,-0.25558135,1.6060641,1.6401814,-1.8107517,-0.9849543,-0.7389426,2.2797594,-1.6008615,0.83309436,-0.07347728,-1.9160523,-1.8977796,0.70813435,0.89514834,-0.69613665,-2.4372337,-0.3852783,1.044373,-0.2612469,-1.0546198,-0.74944127,-0.29345194,-1.2415836,1.0304217,-1.4750489,-0.79909825,0.7274003,1.0025605,2.0771408,-1.0517836,-0.5372077,0.6103059,1.7018516,-0.18356834,0.4169483,-0.07209967,-1.0809603,-0.45327047,1.6979696,1.4956356,3.0315433,0.5020277,1.5836307,-0.85227865,2.0225668,-0.30270588,0.5554639,-0.9562365,-0.5093676,-0.7216305,0.68221116,0.7463713,-0.6692334,0.3178237,-1.0276468,0.16240683,1.7254894,-0.2215191,-0.82873625,-0.24455665,-0.10402846,-3.1735582,0.8743463,1.9804053,1.3683697,0.5437015,1.2517239,-0.7624799,-1.29719,-0.82702285,0.98445207,-0.3688549,2.7932994,0.08720627,0.8053081,-0.9320416,0.19419594,1.0010487,0.32471347,-1.0966644,-0.14083612,1.5088586,1.1345059,-0.7656948,-0.6111796,-1.4121403,-1.0447123,-0.44718757,-1.8656235,-1.8026428,-0.3311127,-0.45839375,1.9943098,-1.4433073,0.6478,-1.0116624,-0.079317346,0.739408,-1.5956634,-1.7037234,-0.6217271,-0.49798107,0.82606566,-0.54793215,0.2634793,-0.7475339,0.92172813,0.71028346,-0.80715734,-1.6431946,-0.50741667,-0.1836856,-1.7859975,1.3335373,-1.2222208,0.94565016,-1.241029,-0.98304904,-1.9171888,0.9785403,-0.17835005,0.25990546,-0.15435927,0.34490004,-0.79448456,-0.99644816,-0.43126154,0.9927884,-0.70474106,-0.96794575,-0.7965602,1.071555,-1.462502,0.01674427,0.5862981,-2.1413856,-0.8108807,-0.7853042,0.6758924,1.5307986,0.23723258,-0.7919222,0.25980496,1.323112,0.7084063,-1.3993798,0.96432424,0.9242346,0.9422839,1.3157524,-0.68016535,0.88299817,-1.7880386,1.218641,0.12311755,-1.1554017,-0.34721312,-0.49583662,1.0498908,0.47165516,-0.59722334,0.16060506,-0.9620694,-0.68251747,-3.4026203,-0.34259492,0.77032083,0.46972194,0.70920527,0.051005587,-0.2825505,1.0950991,0.047582548,-1.8175445,-0.69502866,0.09437486,-0.018707313,1.5063368,0.9154887,-0.39368352,-0.39657772,0.94576854,-0.32771468,-0.3551525,-0.08702199,0.42057055,1.8367211,-3.7772453,-0.44045734,0.15838088,-1.0129714,0.9291358,-0.0121294465,0.4690011,0.010500676,-0.42412248,0.5059714,2.3204508,1.1650125,-0.13900651,0.7055752,0.92629725,-0.9328313,1.1769493,0.37116373,0.9736448,1.0571947,-0.70875335,0.6478564,-0.4240221,0.45690447,-1.6250823,1.4110044,-0.32904783,0.09275837,-1.0827157,1.4936417,1.4251487,1.2422594,0.4440944,0.77436286
diagnoses,0.10430543,-0.7441743,0.9361092,1.3631612,-1.3371897,-1.6431273,0.08673304,0.4069314,-3.033713,-0.6455336,-0.457177,-0.028068058,0.26448327,0.6578132,0.42992035,0.19460359,0.14170109,-0.6714668,1.4044708,-0.21292843,0.44165844,-1.1990396,0.4766283,0.89346737,-0.15856725,-0.1901321,0.082824916,0.2948209,1.4408826,-0.36535212,-0.9956023,-1.1814682,-1.1425853,-0.56129587,0.5713685,2.2773266,-0.13526747,-2.8346586,2.2548647,-1.0905353,1.0811521,0.4189585,0.16517252,0.5084151,0.585705,-0.39500132,-0.19229224,1.8353238,-0.0004210654,0.9436051,-0.6830196,-0.7669045,-0.16621688,-0.61368513,0.24983458,0.23527221,0.46937537,0.37888995,-0.917938,1.0672768,-1.0649832,1.3193542,-1.8490458,-0.2790144,0.48504287,1.1954659,0.8727103,0.73587453,0.065604694,-0.1413375,-0.20792636,-0.83763695,1.9943357,-0.16073468,0.6138233,-0.51077324,0.08301282,0.6424812,-0.47199324,0.9524448,-0.43963692,0.6778027,-0.77474535,0.6306186,1.7257729,-0.18072513,-0.8825391,-0.19720247,0.42817006,1.0650218,-1.580434,-2.0901277,1.6232957,0.3590258,1.137807,-1.3176942,-0.5498127,-0.2323551,-0.19498052,0.5219358,-0.28239217,0.51895475,-1.2508334,0.3177113,-0.23912476,-0.5507533,0.4870306,-0.22459882,-1.8066807,0.8641757,-0.14484884,-0.6290516,0.97661996,-0.6804305,0.4024229,0.6096968,-3.2561743,-0.3094692,1.4187084,-2.313112,-1.460647,-0.0986304,-1.5979329,-1.2791967,0.66430676,0.794568,-0.4144997,0.00778048,-0.021985432,0.5308484,0.3002374,-1.1844639,-0.008382762,0.4401432,1.3890736,-0.58961815,1.4659003,-0.925111,0.4698139,-1.8202792,0.14522153,-0.40452626,-0.004469444,-0.9117372,1.1855576,1.4101495,-0.09145639,0.6423742,1.3734746,-0.43055314,-0.1967445,-0.30880058,1.0210863,-1.9356799,0.032624718,0.005464795,0.39399147,0.76624274,-0.20935093,0.3540138,-0.64359313,-0.3958074,0.05153372,0.6706935,-2.1191485,-0.6387098,0.8992809,1.5563601,0.8471094,0.45002627,-0.75183445,-0.1448802,0.059194054,-0.5504655,0.67211056,-1.1482223,0.3674156,-0.7737754,-0.2892051,-0.20228262,0.0077133183,-0.88373065,-0.032957073,0.8182863,0.71592164,-1.7591705,0.34296188,-0.72772074,-0.57077676,-1.4587591,0.9798877,-0.040138125,0.21536042,-1.3163514,-2.313466,0.8118252,-0.728843,-1.7190968,-0.67424685,0.10756286,-0.3763106,-0.6290466,0.3702887,-0.15301073,0.7268256,0.31865332,0.5157567,-0.1916174,2.1149893,0.4367383,-0.26123545,-0.2115298,0.0805873,0.9790079,0.8316065,-0.4614888,0.012504573,-0.6712348,-0.4484497,-1.0370259,-0.29507908,0.67788076,0.80571544,-0.7063888,-2.1419618,-0.084139794,0.15415655,0.59860384,-0.01347754,0.6360964,-0.44456255,-2.3653128,-0.2862954,-1.7901429,-1.5264468,0.68536466,-0.16724782,1.1470526,-0.80897236,1.0571024,-1.5455536,0.2935562,-0.94039905,0.058785427,0.16641012,1.5730503,-0.8358744,-0.17760414,-0.9097174,0.027884873,1.5421721,-0.6687781,2.7083526,-0.24790847,-0.33984157,-0.119518586
exhibits,-0.049692366,0.35084158,0.3121224,-0.59704304,1.0976467,-2.4977684,0.16054316,1.0245486,0.7853956,-0.21398948,-0.38543957,1.0256437,0.6259805,0.97762305,-0.20963563,0.2988576,0.14825661,-1.777694,1.6868832,1.2936106,-1.5356476,-1.592824,0.06610427,-1.1387767,-0.2394253,0.73391485,-0.48502535,1.0908487,0.37610337,0.064552695,-1.378217,-1.2511438,0.85227865,0.20600086,0.49888146,-1.2060272,-0.8116076,-1.3956221,0.58503854,-1.0033106,1.5559583,0.3006821,-0.039171502,0.24627247,-0.016875308,-0.84063226,-1.2456188,-1.2131506,-2.441558,0.6646581,-1.1663759,-0.76256967,-1.0567768,0.924895,-0.123561375,0.8539888,-1.2486917,-0.15025742,0.97837985,1.407005,-0.024710977,2.213609,0.99360925,-0.32780987,0.20039938,-0.3677129,0.88082165,0.45552,-1.9354966,1.2753367,1.2465041,0.27292827,-0.43812203,-1.0379448,-0.9453745,0.34784314,0.2745083,-0.52140117,0.47043538,-1.3618234,0.29360634,0.012764296,0.17640518,-0.3592254,-0.40076953,0.5854675,-2.185848,1.4237968,0.5018011,-0.65370536,0.65871066,1.8226988,-0.047386214,-0.5735501,-0.05623259,0.51500463,-0.82901555,-1.3656225,0.8171496,-0.09178451,1.2407702,-0.39923432,-0.77401966,0.16130562,0.584376,0.50857514,0.092309274,-0.97588134,-1.7723336,-1.3139006,-2.3650248,0.8049616,0.75192994,0.6656012,0.8774915,1.8825891,-0.08327265,0.49911687,0.058694944,-0.095789,-0.14657278,0.494371,0.26015803,0.24094914,0.97456485,-1.4024919,0.28155315,-0.8987853,1.3323793,0.22867195,1.2737808,-1.4885255,2.3026001,-1.0370511,-0.4635317,1.479371,1.0989426,0.8603761,1.0474075,-0.19047248,-1.2393885,-1.9942712,1.9181477,0.43135983,0.60369706,-1.0798995,0.6011309,-1.8450133,0.06517126,-1.1747506,0.14417633,1.2301466,0.21762568,-0.14160259,1.0411726,0.521363,0.09218921,-0.8871362,1.1674609,0.95829487,-1.8656012,0.19532424,1.9218748,0.0137802595,-0.66436625,0.86171675,0.3672808,-0.037518814,-0.047556452,0.1244929,-1.34313,0.2649124,-0.7152792,0.42749718,-1.9627627,0.608025,0.40679294,-1.4785682,-1.1570611,-0.061167035,0.027700607,0.4936193,-0.06927753,-0.34501484,-0.50897765,0.34552765,-1.6418117,0.27065635,-2.0587742,0.19694352,1.7488871,-1.5969572,0.25563088,-0.90478534,-0.29468653,0.67695147,-1.9054787,0.21518457,-0.2387266,-0.95085657,-1.2934933,0.5878456,-0.7550804,-0.09970209,0.3364383,-1.6418818,0.4335679,0.5923915,1.4829236,-0.13229328,0.1803847,0.041768756,-0.4171853,-1.449274,0.119720764,-0.9708204,-0.42146355,-0.96072924,-1.8809876,-0.84084886,-0.26843378,-0.17236233,0.34777147,0.30796546,0.8024568,-1.658229,1.0618447,-0.7786467,-1.4118841,-0.8021861,0.7057523,1.1183697,-0.84015936,1.4127915,-0.29146138,0.6198575,-0.2185634,-0.9860977,0.14960274,1.3129187,0.07324344,-0.71723974,-0.5390846,-0.5649492,0.35885695,-0.9347846,0.7930628,-2.5548887,1.8234322,-0.36131266,-1.6234668,-2.9414477,-0.023852857,0.6011881,-1.0848936,1.0061915
ingredient_of,-0.929659,-0.842978,-0.7981569,0.5455371,0.33827487,-0.37768906,-0.18315084,-0.65487295,-0.05762162,-0.014252958,-1.6572207,0.77845806,-1.2289698,-0.74472785,-0.87765545,-0.77200294,0.7813827,-0.76837975,-1.6220567,-0.36171478,-1.231326,-0.2540755,1.499072,0.12943211,0.5747652,-1.049846,0.9030105,-1.0624834,-0.5704844,-1.2059635,-0.4823509,0.62110627,-1.1816326,1.0189538,0.78020716,-0.8462285,-1.7657579,-0.8564326,-0.30313876,-0.60614955,0.8592629,-0.76432174,-1.4338901,0.62761706,0.46809214,-1.1436028,-0.07475304,1.3339181,-0.38698128,1.7902349,-0.3067668,0.4427808,0.7560242,0.13955179,1.1784271,0.5854028,-1.6699432,0.33632258,-0.81567556,1.3718197,0.59504354,1.1401225,-0.11064395,0.36353475,1.5590525,-0.1854772,0.1082641,-1.381493,-0.16584009,-2.5746675,-0.2579048,0.35248554,-0.17771356,2.410907,1.0728812,-0.27360547,-1.3081226,-0.56521034,-1.6029387,-0.45846072,-0.14725466,-0.6626698,-0.7999242,0.30316663,0.14301306,0.13329136,-0.56498295,0.5837513,-1.4784889,1.6909118,0.5506948,1.9151607,0.34450328,-0.57182956,-0.00888777,-2.4446006,-0.2168109,-0.2346791,-0.6275359,-1.1360638,1.1138374,-0.41616967,-0.40139917,2.6794362,-0.39980114,-0.8247597,-0.38648263,0.16215315,0.26248002,0.881367,-2.4638374,-0.9322739,-2.0779684,-1.8352835,-0.64582014,3.809212,-0.68328667,-0.5465113,0.35783598,0.37602678,-0.8523858,-1.0823549,0.7232939,-0.7541091,-1.2823974,-0.3759632,-0.29540095,0.029185537,0.44509324,-0.3431782,-0.55707353,0.83795595,0.5347886,0.59215814,0.3439625,-2.8095405,1.1700767,0.52834684,-0.28955117,-0.9523656,-1.0763081,-0.04937435,-0.16442473,0.34525615,0.6978585,-0.07434436,-0.6300925,0.70544153,1.528007,-0.37347174,0.39164978,2.3912883,-0.36227667,1.4002092,0.65717685,-0.47993922,0.8007643,0.7663342,0.15705125,0.98396075,0.4288402,0.99679035,0.84536296,1.6716973,-0.61335415,-1.873483,0.23514594,-0.158311,-2.5722604,0.8105537,-0.2626204,-1.1937428,-0.56999785,-1.3051028,-0.1264275,-0.7252611,0.5872046,-0.5437057,-0.84213156,1.4110876,-0.563034,0.48019332,0.5787011,0.7091693,1.3133843,0.63877964,-0.24412069,-0.89385235,-0.16747725,-0.63985586,0.57124686,-1.108562,1.5755696,-0.5881231,0.65158373,0.94264835,0.49771604,1.3131034,1.3133448,-0.44133604,-1.3775493,0.33622223,0.3183894,0.52371585,-0.6873557,0.3840772,-0.117083944,-2.582309,-0.11682875,1.3530507,0.20715295,-0.729007,2.0757697,0.57263327,-1.935059,1.1630019,1.0392385,0.35004276,1.3188808,-1.3261361,0.51196057,0.496614,0.7531905,0.7415916,0.8810302,-1.3182807,-0.8717894,-1.943449,0.13582163,-1.1920035,-1.5686108,0.9431895,-0.30900106,0.17779994,0.37614003,-2.1728327,0.41342402,0.6693972,-1.0822035,-1.9305856,-0.7385417,1.6534617,1.3589681,0.26492983,0.32221857,-1.2828743,0.7372708,0.9215003,-1.6141527,0.19626306,-0.23480694,0.20192003,-0.94413984,-0.34261185,0.67336553,0.7741699
property_of,0.49483824,0.37723058,-0.62402177,-0.30951512,0.36153975,-0.590493,0.97526246,-0.27839366,1.1928139,-1.7335215,-0.4363822,-1.6663427,-0.037616894,0.3405079,0.5000082,0.027713226,-1.366369,-0.4767414,0.55767834,2.0754745,-1.5047951,0.17209901,1.1196189,-0.094797805,0.4617508,-2.1572,-0.7054003,-0.5437996,-0.19867605,-0.7638088,-0.043421693,0.91990435,-0.30161655,-0.28485572,0.21546899,0.12071081,-0.42896974,0.8334744,0.16932426,1.2589287,-0.67900467,-0.4333357,0.54962957,-0.92951757,1.6151435,0.591716,-1.094991,1.153678,1.708608,-0.077740535,0.7944006,0.22150739,-0.41626254,0.7612779,1.5648191,-0.55338603,-0.002482294,-0.8202064,0.23733826,1.2217567,1.5130227,-0.7490457,0.568159,1.1272155,1.2535,1.3389887,1.2598183,0.38023925,1.0505428,0.035133816,1.2192805,-0.9364567,0.19215657,1.4706336,0.82138884,-1.2630981,-0.6832382,-1.1865948,-0.7914648,-1.2356619,0.5970108,1.1063823,0.7851092,0.25039726,0.5022148,-0.35277352,0.6572843,-2.3127422,0.15488034,1.0461729,-0.92312866,0.35049558,-0.30282834,-2.0792875,0.51517737,-0.39656037,0.47408977,0.77050275,-1.6428702,1.0966264,0.19653457,0.8959429,0.5576236,1.8247033,-0.17047594,-0.4831104,0.036467087,-0.63853836,-0.23498012,0.5120161,-0.6603691,1.1196105,-0.4377604,0.6761092,-1.3901875,-0.45750877,0.3035461,0.6833748,-1.6812912,0.6237307,-0.13665405,2.195234,-0.95050645,0.2365795,-1.0878683,1.1530722,0.6756299,-0.15599267,0.38775575,1.2761703,0.17270567,-0.06783053,1.2965994,0.46389717,0.9012017,0.77549213,1.6024746,-0.036045372,-0.5842972,1.0611886,1.1271274,0.13101387,0.6725352,-0.43831453,0.90798265,0.13383971,0.46078065,-0.77255,0.43575335,0.85957766,0.7490498,1.7787731,1.3690335,0.7108947,-0.51167697,1.2302214,0.3816257,-0.4681868,0.018218704,0.7302666,1.2251807,0.7159362,0.831824,0.18338744,0.27711657,-1.3869811,0.7813579,-1.9491642,0.30597928,-1.2668494,0.32226834,-0.79604644,0.26791552,-1.3898968,1.7564783,0.13034067,-0.34464124,0.989731,-1.281035,-1.3928789,1.2842743,-1.1391592,1.258554,-0.81442,-0.612309,0.53063905,-1.0097865,0.74863774,-0.084248975,-0.40530214,-1.6053807,0.61961025,1.8266765,-1.1087973,-0.649623,0.664236,1.1102445,0.35437116,0.33762068,0.8671863,-0.5673296,-0.095582224,0.4421193,1.538685,0.34326613,0.14760786,0.41774222,-0.6319796,-1.0431569,0.67691994,0.62136894,-1.1841705,0.82459855,0.9605042,-1.3555545,1.0003753,-1.0331839,-0.34005743,0.4938715,0.46428403,-0.66379994,0.85298866,-1.53164,0.86837,-1.0051594,2.002496,1.6449955,-0.21399282,-1.0780452,0.92630994,0.4074031,0.74559456,-1.7334017,0.17971364,-1.015288,-0.5420841,0.8183474,0.50428843,0.05862091,0.04679859,-2.1236472,-0.02617556,-1.7700127,0.41127384,-0.5049872,1.1002829,1.1612935,-1.6425643,-3.2378087,-0.7421339,0.92442024,0.6840187,-2.291195,1.4837368,1.13091,1.7361877
manages,-0.32282916,1.6823033,-1.1660103,-0.65250516,-0.67341554,-1.14061,-0.53419566,1.1349978,-0.3398586,-0.97509205,0.61358273,0.39379334,0.4145426,-1.4154931,-0.45514858,-0.762352,0.892043,-0.26516673,0.3146249,-0.12325588,-1.0206772,-0.76878446,0.24615845,0.89744407,-1.0832529,0.5378448,-0.23115061,-0.2178324,1.5046363,0.9519128,-0.1527071,2.0064688,0.26967195,-0.19979383,0.60453933,0.64984745,-0.87318116,-1.5072181,0.607691,-0.31813335,-0.16745934,-1.6481766,-0.47853866,-0.12475913,-0.7764591,-0.916251,-0.023318106,-1.7126548,-0.09486051,0.879438,0.6420382,0.025304506,2.6601753,0.4213733,-0.15956336,-0.283663,-1.0654758,-0.43900853,1.9894367,0.13408817,1.1591494,-1.6824902,1.1045082,-1.4049919,-0.7707022,-0.6292424,0.45811376,-0.28503138,0.70919496,-0.07417008,0.083297156,-0.22803293,-0.40382928,0.90149164,0.2780564,-0.7145833,-1.1056651,1.504565,-0.15416875,0.40362132,-2.0362377,1.0232084,0.55700266,0.82219386,-1.3269339,-0.7246462,-0.91422963,0.6657806,1.4657377,-0.520051,-1.6811773,-0.6504169,-0.7282244,1.4600075,-0.50568616,0.2017322,-1.7813945,0.49184278,0.7178852,1.2149416,0.6665049,-1.3158418,-0.46621788,-0.86208904,-1.4450678,0.0037656121,-0.04461757,0.05607014,1.7114958,1.0474544,0.450245,-0.62633187,0.19616053,-0.24352553,-0.31612128,-0.11787657,0.29157713,-0.26429787,0.7744695,-0.70420974,-0.53861874,0.8252787,0.06859375,1.2646557,-0.6129644,-0.069687344,-0.3341719,0.062545404,-0.36982742,0.6163782,-1.0216815,0.0919733,0.1921707,-2.0992634,-1.1716774,0.20663758,-0.5309295,-0.9995085,0.35176325,-0.27990058,0.440558,-0.49134716,0.27452427,0.68973756,-1.0441772,-1.5624903,1.2210238,0.025856718,0.06899927,-0.5086009,-0.39891887,0.085482605,1.0446397,-0.65904874,-0.37743124,0.5597909,0.86355793,2.1968327,0.63125837,0.51346797,-0.3965256,0.32194182,0.5050922,0.26127267,-1.5943855,-1.1861984,0.23364367,0.25706628,0.48101416,0.602891,0.22746459,-1.0355335,0.037622247,-0.29403445,0.4510332,-0.9418078,1.67066,0.9174507,-0.38649797,0.0070762956,1.7361311,-2.7965295,0.77315074,-1.0509549,-1.3673992,-1.442785,0.6657073,1.703681,1.079914,-0.6544891,0.46482804,-0.0569556,-1.0760275,1.3735226,-1.0941256,2.034991,-0.44289297,-2.9081614,0.95712453,-1.2317833,1.0553206,-3.074518,-1.8123296,-1.4844978,-0.4665691,-1.179797,1.298349,0.25672764,-0.010989551,0.41249853,-0.066486575,-1.118997,-0.4114624,2.0871387,-2.6854873,-1.0177835,-0.16929595,2.289178,0.18876569,-0.26852575,0.86791325,-1.6764015,0.39096412,0.24028766,2.236057,-1.2181418,-0.17295626,-0.349313,0.039682288,-1.3697709,-1.5014887,-0.279691,-0.9309739,-0.090459436,1.4567862,-2.1983197,1.6047529,-1.1795938,1.3801453,-0.53988695,-0.60168,-0.621753,0.3384988,-0.77438545,0.2532726,-0.54010993,-0.027756227,0.118980885,-1.3197848,0.14649667,-0.39059216,0.2623618,0.649795,0.46748406,-0.5855469,0.69264203
assesses_effect_of,-0.2489042,-0.85390687,-0.5330412,0.08322139,1.3110456,0.23360386,0.77589864,0.61641425,0.49580908,1.0431507,0.28664732,-1.808258,-1.3685979,1.1122414,-0.7143007,0.12084497,1.3588524,-1.7310275,0.94799626,0.5659204,0.5777489,-1.1735554,-1.1884732,0.8431767,0.30836245,0.6803356,1.5051672,-1.2810124,-0.41935238,0.10278079,0.20375259,-1.2451143,-1.4066999,0.8397447,0.781006,0.11611774,0.25218198,1.1666985,-1.2943991,1.3057641,1.2154655,-0.402466,-0.094236925,-0.74019015,0.3136275,-0.84517556,-0.9443218,-2.8049877,0.65367305,-0.40080708,-0.81956047,0.5124518,0.33546957,1.2182467,-0.81629753,0.57342595,0.69581056,0.21976806,-0.40759513,-1.0251226,-0.3805702,-0.47050527,-0.27974156,-0.21942571,-0.23556757,-1.7823707,0.29688188,-0.60133713,-0.729103,-0.3636034,-0.3043441,0.52485013,1.5687464,0.33876806,0.5743596,0.17931502,-0.71003366,-1.3513702,1.642008,-0.7475898,0.10729211,0.31247142,-1.3774551,0.2786465,-0.90424645,0.038520016,-0.37284294,-0.23328908,0.707377,0.5037755,-0.32091257,0.12149463,-0.37028515,-0.40216523,1.3217908,0.4821856,0.70474946,-1.26858,-0.47454536,0.13424467,-0.46913812,0.29516432,-0.054399468,1.2903316,-1.0549628,-0.047832575,0.88807,0.44470653,-0.87000066,0.7603203,0.55735296,0.7336568,1.1286424,0.5328746,-0.66097826,-0.032291953,0.9384304,-0.4503184,-0.6496557,-0.9270998,1.1753063,1.2790262,0.2245096,0.95376617,-1.0211041,-0.27183017,0.7224275,-0.15711358,-0.8882338,0.85459274,-1.5328472,0.20490527,-0.71557647,1.4248798,-1.0826575,0.5267038,1.4186369,-0.6623191,0.7009114,0.4619834,-0.7941183,-4.516962e-05,0.23679322,-0.38536143,-0.34923682,-0.29378396,-0.45840928,-0.3556173,0.8996864,0.3349314,2.2906945,-0.48798308,-0.9781624,-0.778937,0.278044,-1.376135,-1.5753565,0.9619235,-1.0929099,2.2657726,0.51815313,-0.15970182,0.5562018,-1.1600837,0.25469732,-0.4749787,-1.0097455,-0.43746716,1.4201894,0.5731214,-0.15357473,-1.148344,-0.8995496,0.2452074,0.021811506,0.24924664,2.0697684,0.17007798,-1.0749227,-0.1483898,-2.037901,-0.359027,-0.13227838,1.10087,-0.00070398074,-0.8613878,1.5949682,0.2212093,3.0348063,0.1606464,-0.3479367,-0.6758383,1.6945719,-0.86319244,0.7037804,-0.7440255,0.48560295,-0.77605236,0.6844017,-0.5340269,-1.9280542,-0.2322615,0.6709589,0.22969764,0.56907016,-0.8193926,-0.035076812,0.19624035,-0.495196,0.9458929,0.60334337,-0.27004418,0.12784939,0.87583476,1.7830896,-0.50648177,0.7421411,0.63153136,2.0051715,-0.2651715,-0.79655814,0.6899654,-1.2050735,2.0503702,0.1783849,1.9461458,0.12726672,-0.60485137,0.34941941,0.06718956,0.39129007,1.017972,-0.9104295,0.5823061,0.40093547,-0.6274695,2.0764244,0.7852597,0.833515,-1.3067871,1.4867693,-0.726064,-1.1574326,0.06687927,-0.77722996,0.26703724,-1.159294,-0.089106865,-1.2660376,-0.98371106,0.40581912,0.5283727,0.4041903,1.1019504,-1.8358064,-0.769261
method_of,0.87569606,1.9597088,2.3727796,-1.1967189,0.877595,-0.11769032,0.66035813,1.6975074,0.91691726,0.7786511,-1.5725211,-0.86617035,0.88335997,0.23486854,-0.5483599,1.3901473,0.42964786,-1.2547876,-0.28389844,0.4788263,0.14786102,0.1817842,0.5138749,0.14081222,-0.026738536,0.26372638,-2.0571215,-1.8645622,0.73039436,-0.74508816,0.71486986,-0.080387175,-0.88866067,0.6337777,0.28569946,0.49869487,-0.37674305,-1.22396,1.1311173,0.9446997,-1.1774417,-0.104804605,0.8072901,-0.33512455,0.96247953,1.3810323,-0.71916014,-0.73906165,1.2934824,0.71983594,0.34624168,0.42429993,0.046158887,-0.8836966,-0.5086573,-0.6257672,-0.68316853,-0.45111248,0.74917233,1.1884516,0.6223983,-1.6282178,1.3904904,-1.3346304,0.43048722,0.34226775,-0.5726757,-1.0017252,1.0151005,-0.19799359,-1.4883054,1.0478803,0.007510292,0.5100354,-1.5700891,-0.31655106,-0.41411492,-0.60911995,0.39756846,1.3098121,0.07271517,-0.60910267,-2.2172666,-2.3485441,-0.3966197,-0.037611794,0.72395456,0.15414615,0.6355741,0.13405451,0.14317155,-0.97405607,-0.98017263,-0.60844636,-2.0086062,0.0756093,-1.2404754,0.9301611,-1.365836,0.43793556,0.032133024,-0.73232484,-0.7852344,-0.9023774,0.23055375,0.78554547,-0.022971507,-1.1228546,-0.8328695,-1.0513153,1.8594929,2.1701946,-0.028889522,0.77456,-0.67340565,0.22738406,-1.0935695,0.35521427,1.2561015,-0.49002075,-0.6049025,-0.76978457,-1.8066281,-0.8663219,-2.3128881,-0.38383633,0.8002179,0.2626188,-0.7286564,-0.29964978,2.169307,-0.72745717,1.3257351,-2.6579072,-1.6102605,0.66003263,-0.8503949,-1.6019138,0.6073854,-0.1078172,0.67946607,0.14931253,-0.5821225,0.15558232,-2.9707787,-0.57852316,-0.7569422,1.0464478,-0.51230747,0.5399915,1.10488,-1.1647773,-0.13970652,-1.0824126,0.37792236,0.00878154,0.36933658,0.15642315,-0.67568904,0.67706394,0.7700521,0.7740345,-0.1458506,-1.1521059,-1.0261701,-0.014362242,0.40878743,-1.7428846,0.38275787,0.032779656,-1.5643748,-0.22666338,0.46194315,0.40010464,0.005579604,-0.11310497,1.5076654,0.6451145,0.43979388,1.7248229,0.902075,1.0860785,-0.22074193,0.23148115,-0.51486933,0.6700638,1.4847671,1.477552,-1.7256336,-1.2946568,0.80659086,-0.27397326,0.5005493,1.5826718,-1.0866245,1.9354147,0.22462562,0.26925397,0.16833171,-1.2596136,0.6395692,0.88551503,0.5599883,0.53853536,-1.2716794,-0.5654687,-0.57026654,0.05196858,0.8701949,-0.49408704,1.9375706,-1.4133981,-0.24073014,-0.7306432,0.8798333,0.5784493,-0.01753873,0.43354318,0.15157849,2.1513476,0.95862997,0.37196037,-0.73453313,-0.69703317,-1.8346368,1.6625615,0.8025854,0.56306034,0.5427023,-0.49695602,0.66300446,-0.66694635,0.1284199,-0.013387805,-1.213512,-1.6783017,-0.5328688,0.6565733,-1.5419617,-0.10806527,0.93809587,0.04531622,-0.53588957,-0.2938695,0.5243172,-0.43670702,0.060106434,-0.86280006,-0.53550744,1.529428,-0.297065,-0.20761661,-0.5159275,0.21691126,0.12908348,-2.252744
measurement_of,-1.4217658,0.38311344,1.2109423,1.7813368,0.19696927,0.8277399,-1.081486,0.60386384,-0.20948766,-0.048925128,-1.1648879,1.8347945,-0.048451193,0.48952234,-0.8000026,0.90221846,-1.4274997,1.5237534,-0.29978088,-1.2726171,-0.44667852,0.53419507,-0.17333809,-0.5833567,-0.8074446,-0.69629884,0.5795773,-0.005756132,0.005432634,-0.16858985,-1.5918583,-0.20018093,-1.1453631,0.3637045,-0.7187723,2.5765874,0.7040227,-0.28769898,0.18900459,0.15492666,-0.995968,-0.44103956,0.4576868,1.1853826,-0.08235203,-1.933857,-0.96905774,1.0015279,-0.055173997,-1.5444298,-0.5243336,1.1775026,2.2436519,-1.6515166,1.6045859,0.33555076,0.30160978,-1.4929364,1.215364,0.0069770436,-0.5442721,0.34152925,0.074066624,0.8519041,-1.4331104,0.33895734,0.34069362,-0.5150637,-0.45728067,-0.10900966,-0.39859208,-0.358232,0.98349684,1.5804843,-0.21312952,1.1832392,-1.1810275,-1.4666375,0.18239573,0.35227686,1.4516631,1.5213517,-0.16722642,-0.09030929,-0.34552306,0.04595679,-0.50956184,-0.20634542,-1.2777919,0.323403,2.1590576,-1.233497,1.9789823,-1.0691713,0.6478414,1.10659,0.044085145,1.2648851,0.56516576,-1.3520542,1.4486437,-1.60506,0.114693396,-1.4373336,0.042907424,0.8015416,-1.3612205,0.4060007,-0.45123932,-0.48167044,0.056121957,0.22812425,0.5886853,-0.70454395,0.12834679,0.29732466,0.3895672,0.41957012,-0.62850106,-1.9970081,2.195144,-0.40473092,-0.06479013,-1.7659398,1.2148064,0.115829945,0.57378393,0.82133746,2.224611,0.97932917,-1.4616044,0.31273198,0.38842487,0.8187451,0.07364005,-0.046384457,-0.74256,0.4350232,-0.015149538,1.5100893,-0.3560902,-0.3836878,0.5212331,-1.3974857,-1.0767165,-0.16811551,-0.7482614,1.5358016,1.2216612,1.0758669,0.7688243,-0.39285782,0.37701082,-0.10304745,-0.18559824,0.48740676,1.8120264,-1.0124029,0.97586435,-1.3670443,1.8525478,0.83093053,-0.5200103,0.74335593,-0.4400366,0.98550016,2.1631343,0.61071754,0.8254951,-0.8962263,0.34012243,-1.3978274,0.1409796,-0.72233135,1.5824293,0.43422857,-0.71347654,0.48205346,-0.08022319,-0.22397111,0.018214364,-1.673556,-1.1076772,-0.58141726,0.8875528,-1.7266233,2.1954787,-0.3448521,-0.5601599,-0.7416901,0.64245874,-0.14364359,0.5490596,-1.0480849,-0.055200543,0.6636667,-1.9819341,0.83566546,0.8456863,0.70466816,2.3815095,0.053303305,-0.50953,0.011795708,0.8898527,0.7652584,-1.3074056,-0.8990916,0.5058335,-1.5310388,1.1190834,-1.208946,-1.5402832,-1.64109,-0.41461372,-1.1790234,0.786594,-0.6428238,-1.3007675,1.3430595,2.716157,-0.5701241,-1.0218235,0.0019169663,-0.9615479,0.07900219,-0.026723895,-1.3583965,-1.2167567,-0.9762443,-1.7121705,-0.09711493,0.6342706,-1.4273748,-0.8501904,0.3299338,-0.41577253,-2.993013,-0.39196488,-0.11170201,1.3543681,-0.97006595,-0.8752109,1.1393914,-0.69073737,1.1768686,-0.48096845,1.5402131,-2.610844,-1.2172931,0.6284175,-0.3769122,1.6627012,1.4638436,0.75547206,-0.8899776
precedes,0.2043684,2.750391,-2.6715121,-0.04247598,-0.0933116,-0.62049264,0.90279037,0.61869943,0.42265013,-0.6591099,-0.16663511,-0.68680227,0.6644805,-0.41385555,-1.225636,-0.4606794,-0.03459551,0.057888694,0.9793391,0.94559,-1.2983185,0.64126414,-1.1752126,2.4738412,0.017350357,1.0619717,-0.60810626,1.6068937,0.8029459,1.8265977,0.5149316,-0.98231167,2.1580102,0.59988683,0.35904062,0.85019386,0.34454185,-1.1343726,1.9119561,-2.2523954,-2.5564382,0.83622235,1.6086487,-0.5009505,1.8135674,0.45621383,0.06697796,-0.28181204,0.53404516,-0.6600671,1.9978161,-0.96624035,0.8970867,-1.2764754,3.0510437,0.42446074,0.10037823,-0.13563837,0.37843353,1.3454616,0.39246568,-0.59587306,0.023423389,-0.7653296,-1.1085211,-0.483765,1.4265381,-0.2425662,0.96638936,-2.1558995,1.928673,-1.5284412,0.23811097,-0.29580045,0.67323804,0.93719035,1.4003214,-0.17033866,-0.7224156,0.36821666,-0.051173277,-1.8434361,0.45732126,-0.8552014,-0.11616468,-0.12659368,1.0400349,-0.42825285,-1.1962273,0.27549466,3.2161026,-0.12732734,1.2366841,0.48410666,-0.47399315,-1.8565965,-0.5993428,0.14777845,0.05616603,0.14756303,0.23704365,-2.1337147,0.27220058,0.44919053,0.06928878,-0.009890212,-1.0935388,-0.31903628,0.3666033,1.6194663,-1.4557052,0.520258,1.0006696,0.20895964,-0.53128135,0.3244907,1.008971,-0.61113214,-0.3023679,-2.467041,0.028915036,-0.7034524,1.8256422,1.1063735,-0.64911556,1.3653989,-0.06723813,0.5968399,0.028502455,-0.18434082,-1.2269497,0.13633566,0.4971724,-0.43836784,-2.0249984,0.24316426,0.7512243,-0.21062432,-0.0076679927,1.0789633,0.30059677,-1.1659493,-0.029902693,0.7101591,0.7756324,1.6674719,-1.4885017,0.95635617,-1.5963308,1.13462,1.2594059,-0.7702603,1.0081816,-0.40396154,-0.29574138,0.35568097,-0.56468743,0.4022974,1.0556159,1.6348321,0.67367554,-1.0237014,0.4700903,2.426803,0.48967904,0.23869123,0.43863016,0.36820367,0.753122,0.7800039,1.0754924,0.3843421,0.5749011,0.8437526,-1.3093605,0.19659083,-0.7301101,-1.2714155,0.56074154,-2.7084138,-0.6493259,-0.25358078,1.2280256,-0.7285033,-0.48596445,0.12270155,-0.17254655,0.6163268,1.1897202,-0.66005296,0.30207646,0.2028022,-0.3946998,0.026812563,-0.33834523,-0.42256495,-0.656133,0.27259028,-0.30439866,0.9675307,-0.0750065,0.6139824,-0.598974,-1.6543242,-1.7274787,0.91325456,-0.83687055,-0.7299204,-0.7541119,0.04006026,-0.121671684,-1.9348491,-0.5753502,-0.44386628,1.2756802,0.07891779,-0.20138822,0.7138968,1.1134812,0.12271481,0.20415714,-0.056148846,-0.79742646,-0.23858342,-0.22354689,0.6490701,0.10887492,-0.8496677,0.23126216,1.2372361,0.8843445,-0.17533141,-0.009064015,-0.9555817,1.8509387,-2.5993485,-0.5937693,-0.37441787,-0.37365285,0.58094925,-0.40569553,0.45200673,1.2192062,0.54410475,-1.3678454,-0.13036975,-0.13614558,-1.1907676,-0.15416612,-0.74086255,-1.4055617,-1.606705,-0.8217534,-0.86083955,0.65811825,-1.3491691
consists_of,1.3882297,-1.2375834,0.21009535,0.6470758,-1.2819461,-0.028321665,0.011769471,-0.95017517,-0.20654902,0.59425503,0.06757587,-0.2738204,-0.3697221,0.34259772,-0.5795567,1.3979186,1.537006,-0.9637875,-1.0731506,0.055574115,0.34615877,0.2865405,1.0020928,0.30342272,-1.2522266,0.78459936,1.8352706,0.4786269,1.0519757,0.22306775,-2.110369,-0.45131424,2.6961098,0.14717504,0.60878795,0.22482549,-0.2969497,0.34812218,0.03338232,-0.6022962,-0.34673908,-0.17562684,0.37157762,-1.1038759,-1.4535594,-1.5321704,-0.14635348,-0.19951855,0.6021651,-1.9211273,1.904065,-0.34133655,-0.2889184,0.09466155,1.01489,-1.4178522,-0.68150413,0.733895,-0.8928381,0.96810216,0.21285535,0.06159708,2.8239057,0.48064655,-0.6369246,-1.9181838,0.5064929,0.38316047,0.10707397,-1.9075955,1.0920954,-1.470088,0.13148955,0.35069486,0.20562044,0.2246761,-0.16464712,-0.18228963,1.0402706,0.52439386,1.0506485,-0.5999387,0.87541264,-1.7116857,0.08800058,-0.94897866,1.5410388,0.5029366,-1.9636894,0.3709458,-0.52616817,1.1168933,1.2143214,-1.3006881,-1.429609,0.15525687,0.1079964,-2.0347035,-0.45379108,-0.12052004,-0.91828233,0.20477244,-1.3504074,0.3743228,2.60603,0.40708035,-0.5316002,0.8271919,0.46879905,0.04293268,-0.25633025,0.29700816,-0.14024252,-0.75694484,0.39613858,1.0413814,-0.004622242,-0.8964371,-0.37469682,0.31997603,-0.4777146,-1.7813601,-0.18900177,3.436491,0.8358547,0.17088056,-1.0062587,-1.3598472,0.5912125,-1.2986202,0.8174134,-1.1015505,1.6260608,0.7864526,1.6075394,-2.32621,-0.8620962,0.28600857,-2.034193,-0.2763633,-0.43570697,0.62061405,2.1450863,1.753605,0.49107972,-1.8520207,-0.9917781,1.8311553,0.53382224,1.3802675,-0.6889655,-0.2699419,-0.3180861,0.9977439,-0.37138084,2.0464587,0.27551657,-0.23570234,0.7858333,-1.0329956,0.49347007,-0.124636136,0.34983933,0.65415925,-1.6436585,-0.84521407,0.47115728,0.03324223,-0.9012425,0.44317022,2.588666,0.95849144,0.17160115,-1.020393,0.16693914,-0.8341597,0.6135846,-0.056387257,-0.1987355,-0.29446965,-0.2145421,0.12088804,-0.48452583,0.88166803,-0.4234328,-1.3532736,0.6129946,-2.448722,0.4221689,1.4684985,0.48696053,-0.552645,-1.2025385,-0.18598771,-1.1117157,-0.017701956,2.241255,0.53970313,0.54470253,-0.77263504,1.066569,0.3945097,-1.7340355,1.3126996,0.3668697,1.0424625,-0.85048395,-0.2929469,-1.0839515,0.34733438,-2.4881232,-1.3993453,1.060077,1.865869,-2.266428,2.459079,-0.052722223,-0.97709435,2.876946,-0.9568276,-0.39075285,0.7460403,1.1284411,-1.8429976,-0.5499705,1.0172948,-0.8816416,1.1475052,-0.27197406,-0.0058509666,0.3570567,-1.5931021,0.053092185,-0.35732797,-0.29871666,-1.0483327,-1.035052,0.07925263,-0.3391275,-0.7927966,0.8325928,1.0674604,0.87938637,-0.36925393,-0.76946217,1.7614303,0.22001739,-0.66591686,-0.08300258,-1.0817736,-0.11835566,0.75309515,0.5459165,0.118897475,0.23719844,-0.28553104
performs,-1.0639516,0.72535837,-0.78501827,-0.27316356,1.4362413,0.34868783,-0.034392912,-0.41318414,-0.042399794,-0.65771705,0.22794329,0.5548593,1.4012157,1.37087,1.0523324,3.33964,-1.2027899,-0.07142647,-1.7903785,0.15740223,-0.1738705,0.06277814,0.053920347,-0.58343554,-2.299339,0.1949229,-1.4523976,-0.5251092,0.06561309,1.4754897,0.41548738,-0.5829531,-0.68436646,-0.7207802,-1.7529641,-1.0001242,1.4222918,1.3081032,-0.016946156,-0.92063934,-0.29295138,0.0072692353,0.25388053,0.60275,0.6731151,-1.0442653,-0.05531682,0.72696286,-1.595214,0.84112996,-0.530939,-0.3548536,0.42437527,-0.29001477,0.77943695,-0.5565217,1.4627912,0.22211394,0.4601567,1.0808948,0.43355903,0.63356864,0.0869108,2.7335432,0.3627648,-0.81422263,-0.15606046,1.1352608,0.08222565,-0.5982277,1.0824898,0.4154142,0.10682006,0.12496782,-0.022378903,0.6356667,-1.2888799,-0.51689625,-0.030109247,0.3391256,-0.8644059,1.2396326,-0.80006677,-0.914934,-1.1690478,0.69046974,-0.83059627,0.43699858,-1.4121289,-0.6937989,-1.7480812,0.62444,-0.21046445,0.061423946,0.2643162,-0.26261714,-0.98249966,0.9844954,-0.9325834,-1.8657882,0.8396556,-0.2097899,-0.12328524,-1.7106233,-0.046677355,-0.5036995,-2.5727673,0.5120882,-0.62177587,-0.20218168,-2.4439793,-0.10084596,-1.5858842,-0.8915337,-1.3417295,0.0049014245,-0.17295824,-0.860154,1.8387057,-0.54363346,0.23428674,-0.4644202,0.69764894,0.14435336,-1.8751631,-0.9221051,0.21878424,-0.2334144,-0.9239208,-0.7199404,-1.656802,-0.019151757,-0.4753119,-0.048924483,-0.7191371,1.4246885,1.541685,2.0326676,0.9925965,-1.8033862,1.1834782,0.42719272,-0.08428337,-0.19774082,-0.39583886,-0.2531089,1.4309376,-0.841344,0.20586255,0.81003606,-1.2025324,-0.1543997,-0.56812,2.2466407,-0.4230907,1.0332139,0.034929637,-0.35338712,0.14021665,-0.017538402,0.12214456,-0.7448838,0.93636036,0.71764094,-0.34223375,-0.036050025,-0.6231106,-1.5479892,0.90272975,-0.09388362,-0.9392691,-0.44595048,-0.021767754,-1.3044121,-0.6137455,1.6023552,-1.4286681,0.0734042,-0.59862137,-1.6988802,-1.2567049,-0.2969365,-0.4732596,-0.016080404,-0.14414005,-0.30264646,0.12822129,0.079605184,-0.56955653,-0.8086486,1.576471,0.27099645,2.3910232,0.49611917,-0.3900521,-0.2297153,0.5150851,-1.2624259,0.4775121,-0.7806815,-0.5488261,1.902853,-0.69052696,-1.9642856,1.1699356,1.0509928,-1.0066108,-1.259385,0.14683741,0.63635534,-0.041471586,0.9246348,-0.16372031,1.0917914,-0.30231687,-0.89558125,-0.08127487,0.9412708,0.70471007,1.3984048,0.9735324,1.044066,-1.0614648,1.3724948,-0.04262398,0.62021184,0.9361337,-1.8328797,0.2584215,-1.1714276,1.7946097,-0.2636614,-0.5648517,0.4733192,-0.14159547,0.49896196,-0.65983003,-0.41622716,-1.1709573,-0.90319693,0.34637678,0.09675208,-1.0126548,-0.67336714,-2.104694,-1.4348768,0.2660436,0.7204771,-1.5179279,0.70187116,0.9764463,-0.051692765,-1.3485813,1.264291,0.3176432,-1.861337
