,0,1,2,3,4,5,6,7,8,9,10,11,12,13,14,15,16,17,18,19,20,21,22,23,24,25,26,27,28,29,30,31,32,33,34,35,36,37,38,39,40,41,42,43,44,45,46,47,48,49,50,51,52,53,54,55,56,57,58,59,60,61,62,63,64,65,66,67,68,69,70,71,72,73,74,75,76,77,78,79,80,81,82,83,84,85,86,87,88,89,90,91,92,93,94,95,96,97,98,99,100,101,102,103,104,105,106,107,108,109,110,111,112,113,114,115,116,117,118,119,120,121,122,123,124,125,126,127,128,129,130,131,132,133,134,135,136,137,138,139,140,141,142,143,144,145,146,147,148,149,150,151,152,153,154,155,156,157,158,159,160,161,162,163,164,165,166,167,168,169,170,171,172,173,174,175,176,177,178,179,180,181,182,183,184,185,186,187,188,189,190,191,192,193,194,195,196,197,198,199,200,201,202,203,204,205,206,207,208,209,210,211,212,213,214,215,216,217,218,219,220,221,222,223,224,225,226,227,228,229,230,231,232,233,234,235,236,237,238,239,240,241,242,243,244,245,246,247,248,249,250,251,252,253,254,255
acquired_abnormality,-1.4538697,-0.66555107,-0.7249546,-1.5302597,-0.065623865,-0.64280856,-0.99248046,-1.5249726,-0.633973,0.3288523,-0.70291096,-0.18397188,-0.20780715,1.7009318,0.14825577,0.49726707,-0.6470737,-1.0770142,0.62174416,0.15864797,0.8569054,0.31271517,-0.74740547,0.8061275,1.1058403,-0.24351475,-2.1609666,-1.5314705,0.12560835,-0.53307813,-0.7745842,-0.13913086,1.8149397,-0.10225925,0.12663324,-0.737933,0.11552409,0.11949347,0.22762106,-0.55909675,-0.055448424,0.2792201,-0.12725262,-0.11359739,2.3158197,-0.9885978,1.6582378,-0.59223986,-0.9337501,0.47439018,-0.0066654147,-0.39468846,0.7300444,0.50964904,1.0852231,1.9725704,0.17607306,1.0201329,-0.21884666,-0.72033423,1.4947929,-0.87397647,-3.2855763,-0.66820127,-0.107776046,-0.9225697,-0.5968371,-0.9235302,-0.12935047,-0.026938718,1.6415011,0.040555812,-0.626566,-0.21209076,-0.95869094,-0.843181,-0.4044042,-0.485174,0.4507486,-0.9649585,-0.44790944,0.18462254,-0.57737917,0.7439159,-1.5187441,-0.44193962,0.24203841,-0.23977037,0.1795315,-0.43868524,-1.1260835,0.66045,-0.98458284,-0.5016874,0.32990476,1.9302535,0.68327767,1.1397614,0.76353836,-0.9864728,1.3006952,-0.7733081,-0.95297587,1.0866287,1.2727425,0.5260817,-0.1039208,-0.1828344,-2.044106,-0.66064656,-1.41597,-1.049242,0.8362703,-0.54219806,1.3514011,0.7750324,0.13905354,0.32685474,0.49342284,-0.5059378,2.494419,-0.26173973,-0.049539503,1.8080733,-1.9636104,1.7375901,0.1379845,0.39943618,0.7449328,-1.7639375,0.27682397,1.1225541,-0.34065875,-1.8454077,0.5895825,-0.7249772,-1.5735836,-1.805771,0.6074947,0.58419126,2.2249262,0.7193624,1.7194353,-1.7741059,-1.2823559,-0.89861554,1.4478555,0.6849607,0.52262104,-0.34678397,0.47128332,-1.5197842,0.44709525,0.18410946,0.3537097,1.2536503,1.679542,1.7941164,-0.719548,2.5112057,0.35835466,-0.21090497,-0.79062265,-0.4257559,-0.55005753,-0.8945086,0.79890174,0.91445994,0.34199014,1.4541284,1.2417039,-1.8661593,-0.3303805,-1.0429152,0.040134918,-0.16111983,0.92792666,1.106084,0.4464074,1.5857924,-0.8998867,0.10815257,-0.18600002,-0.28368583,1.6585139,-0.374774,0.16945961,1.4141214,0.16528006,1.1256301,-0.25861537,0.90653896,-0.5579961,0.81045383,1.7191535,-0.27108425,0.44001317,-1.7641187,-2.8421936,-0.5881957,-0.47463456,0.9550648,-0.8577237,0.5354092,-1.5407678,-0.22305521,0.657768,0.14170033,0.84540933,0.9616071,-0.59105337,1.2980013,0.28760144,1.8473723,1.7790664,1.3124648,-0.9122776,1.1780506,1.1412874,-0.44745922,0.2763057,-0.63867307,1.3737559,1.6973125,1.7347398,-0.4717567,-0.22437127,-1.3856955,1.2565904,1.1930388,0.43895066,0.35388088,-0.14599328,0.41537595,1.0329714,-1.3193208,1.7133904,-2.2974372,-0.84942335,0.2088768,0.17440163,1.0189365,1.3822389,-0.61548865,-0.67337877,-0.28258005,-0.14839245,0.07814549,0.39326796,-0.6471287,-0.4884737,1.0375084,-0.06857727,-1.1241318,-0.15806763,0.48168033
anatomical_abnormality,-1.1931285,0.81175816,0.23517546,0.7019462,2.3434656,1.0474788,-0.3814654,-1.660209,-1.1755376,1.6220962,-1.0328189,0.83509636,-0.618565,2.0998766,-0.46875298,-2.398946,-1.0642042,-1.072219,0.7546084,-0.53270805,-0.28181627,0.042884838,0.7219873,0.9797862,0.9034321,-1.8588717,-0.42315686,-0.58487666,0.2975564,1.0815271,0.29094282,-0.6504733,-0.1895697,-1.2849858,0.27087176,0.16815194,-1.502053,-1.009256,-0.9562616,-0.3990055,0.92519456,-0.13934974,1.1534282,0.53884745,0.70350695,1.290635,-0.8691395,0.48204884,0.97869974,-0.39943808,0.05536695,2.2984622,-0.5280931,0.84668964,0.16671748,-0.3127405,0.2020706,0.85994804,-0.17989063,0.20030785,1.1402652,-2.2207532,-1.0800925,-0.8579145,0.5711736,-0.85426664,0.018108735,-0.25477132,1.454865,0.42739424,-0.6694122,-0.7691128,0.71451503,0.6528929,-0.96114177,-0.81748843,-0.65588206,0.71467143,0.021625867,1.1263173,-0.5259129,-0.57480055,-0.48995218,0.07038071,0.6472001,0.08600073,0.16529204,-2.3872805,0.44065335,0.47574505,1.2160958,1.2558575,0.1466093,0.5040636,-0.47022682,-1.862435,0.1721742,0.8001734,0.57199234,-1.7295529,-0.71225256,-1.3997188,1.6253266,-0.005283943,0.8903953,-0.009303284,-1.6718193,0.9165872,-2.65643,-0.28396964,0.370384,1.1913745,-0.521675,0.93059546,0.08136327,-1.3651937,-0.91370493,0.7227188,1.2422262,-0.98346025,1.2359769,-0.38993338,-0.14163679,-0.5182063,0.6075977,0.3573563,-0.96051383,1.0539029,-0.48816162,-0.0967676,1.4497131,-1.3688115,0.88345146,-0.7302365,1.197474,0.45374525,-0.2803728,1.8180677,0.05347059,-0.17531887,-0.68749565,-0.6425124,-0.48905298,-2.0396104,0.47989988,-1.4574226,-1.0312649,0.0012782726,-0.247489,0.23673485,-0.33293912,-0.04743036,-0.5716012,1.2786503,0.6893044,-0.466206,-1.03332,0.32834992,-0.64267623,-0.53880256,-0.3960771,0.23686999,-0.30265784,0.76961476,-0.2921783,-2.3459623,-1.290945,0.020923821,-0.13419439,-2.2694666,0.521665,0.4855716,-0.12857653,0.61942834,0.35725036,2.168886,0.90371954,1.4930207,1.4365878,0.07237899,-1.6847646,-0.021925032,0.32815337,0.57578355,0.6748702,-0.26204726,0.0870682,-0.35979035,-0.32048956,-1.201827,1.9811308,-1.783181,-0.09288017,0.2974382,0.29569378,0.1862241,-0.48091546,0.92670953,1.7954562,-1.0134472,0.6875636,0.16800077,-1.3753089,1.7777089,-3.215017,0.42745337,-2.043692,-1.4275863,1.0066396,1.3595928,0.49257863,0.7730163,1.1087774,-0.2803079,-0.3029149,0.6216444,-0.13122162,-0.81783307,-0.15010369,-0.5645248,0.112527825,-0.6812856,-0.9267837,0.5424153,-0.31623387,-0.038407933,-0.5598431,-0.57100105,0.8088824,0.7346634,-0.4580554,-0.44164273,-1.5088314,-0.64801246,-1.124702,1.2600129,-2.1327417,0.36538038,-0.218393,-2.494079,-1.5395235,0.30131167,-0.10155752,1.4692472,0.14012894,-0.39626846,0.122954346,-0.57017624,0.9994119,0.6477106,0.65488183,0.6184237,-0.4430834,0.30350867,0.2109733,-0.646039
alga,0.56103706,1.2630744,-0.19066054,-0.0028225372,-0.08946411,0.45288953,-0.15500185,-1.1951499,0.101900585,1.3560979,-1.6816915,0.16483583,0.37660918,0.2489387,-0.7396719,-0.33674133,0.40855917,-0.6143725,0.61811996,1.2407879,0.36212084,1.2056334,0.056485362,-0.26835334,-0.70759165,0.05948222,1.1274829,-0.526756,-1.5189316,0.8642061,1.0056225,0.37350637,0.28671506,1.1427268,0.08348183,-2.4820905,0.70214784,-0.33325538,0.3595014,0.2845238,-0.5557835,1.0359505,0.5016037,-0.89247817,-0.57442254,1.6750339,1.0798289,0.7724777,-0.6796858,-0.83109695,0.67180955,-0.5643026,1.2926278,0.7539633,-0.45651692,-0.47957304,-0.43847993,0.10651926,-0.85283595,0.30027762,0.7649188,0.8110218,0.4143781,0.38994196,-0.8274678,0.4478925,0.2080473,0.38614428,-0.19968192,1.0019329,-0.8304646,1.3557175,-0.85780376,0.85013133,1.519291,-0.8208379,-1.9309293,-0.8095186,0.14200735,-2.0385973,0.7945762,-1.4193615,0.9278257,-0.45888886,0.19321373,0.8627988,0.23070323,2.9542186,-1.3626877,0.41453606,-0.12491436,-2.7214606,1.2981725,0.34826323,-1.0810097,-0.52894264,-0.35782745,-0.27517933,1.075952,-0.5090899,-0.77217597,-0.5285381,0.8553322,-1.6286696,-0.6808964,-1.4886793,-0.37337726,-0.7654276,-0.35154757,1.2368532,-0.9616759,-0.85092086,-1.804461,-0.5924561,-0.36091235,-1.5201808,-0.9454496,-1.0846583,2.030607,0.21068147,-0.2716653,2.7337952,1.0252256,1.1003544,-0.05363882,2.1240246,0.3086439,0.7896612,1.0242593,-0.54141825,1.151799,-0.9186694,1.5549657,-0.11980999,0.13209023,0.89405483,0.3640195,0.82499367,1.7007293,-2.049872,0.87002075,1.5427076,0.42616978,2.4584622,0.39355153,-1.9616989,1.0318742,0.75571036,0.023864985,1.6555531,-0.2893357,-0.25369373,-0.737226,2.262925,-0.24947642,1.1543698,-0.044823077,1.6832951,-0.946371,0.14315811,0.19582252,1.0422633,0.5847773,-0.21748506,-0.61581933,0.48946252,-1.1740849,-0.19155802,-0.27808243,-0.70595694,0.86014104,1.4543818,-0.2139432,0.021718217,-1.5165719,0.6814435,-0.28954616,-0.23859352,0.87395185,0.30992436,0.13199437,0.16587469,-0.27351603,0.12913442,-0.74509454,0.3720241,-1.3986493,-0.458978,0.45753682,0.8792128,0.6076234,-0.1187592,0.9556711,0.1296984,0.44000155,-2.6915824,-1.4476205,-0.1205093,-0.87553537,0.36967888,-0.45096356,0.93714154,1.7221513,-0.1582464,1.2855488,-0.4056774,-0.33152053,1.0288256,-1.8948189,-0.73143774,1.4057963,0.24604034,-1.6006405,0.9137719,0.34472474,0.09613056,-0.361482,1.633209,-0.16945225,0.025357572,0.5080531,1.5366169,-1.3301299,-0.82361346,1.6307024,0.047686916,1.0435948,0.6627162,0.020654703,-0.4563003,0.7444729,1.1306119,0.5898799,-0.44074956,-0.9350705,-0.6315034,-0.29174614,0.3406614,-1.2844958,-0.9888593,1.1049094,0.1462553,0.5855153,1.723672,-1.4188155,-1.4086248,0.18693914,-0.69017327,1.1533307,0.47517034,-0.6215449,1.0666518,1.4137286,-1.0854816,0.8484428,-0.6250191
mental_or_behavioral_dysfunction,-0.8860606,0.11079988,0.15746641,-0.02621414,0.05017824,-1.4417441,-2.680951,-0.7975465,-0.5193178,1.4708612,0.47482342,1.2216238,0.2386139,-0.9761354,0.95104796,-0.20492557,-0.5558024,-0.009661536,0.4247756,-0.32162035,1.3732449,-0.59048474,-0.1392603,0.25172302,-0.039798997,-0.58129877,-0.12397107,-0.41243893,-1.7425908,1.3156445,0.088608,0.94845027,1.2708796,-0.12376747,-1.568247,0.7576124,-0.35021797,-0.9873905,-1.0005277,0.31934965,0.2834665,2.4801147,-0.88129705,3.2962503,-0.822723,0.30739254,0.9348653,-2.0955155,-1.7656158,-0.5845709,-1.1018878,-0.7994023,1.2456396,-1.1623443,-0.30338815,1.0162374,-0.6580291,2.8086536,1.0513635,0.71225303,1.7158962,1.830623,-0.59785557,-1.2522545,-0.31654853,-0.06140685,1.4689313,-0.8458631,-0.7772153,0.08671509,0.87706655,-2.0885038,-1.1553663,0.2628634,0.7426414,0.03664286,-2.2077808,0.051010266,0.4083513,0.0028204198,0.79819596,1.3758795,-0.02407527,0.9183359,0.13210474,-0.89144224,0.054035373,0.7934608,0.5661779,1.2326218,0.25687662,0.32401794,-0.3711514,0.49270546,0.79287773,-1.1489882,-0.82248884,-1.5183527,-0.91376716,-0.16071239,0.9875241,-1.647988,-0.0033134706,1.1617423,-0.6201117,-0.5392054,0.0122138355,0.2786597,0.8019082,-0.8235393,0.1161438,0.7422833,-0.8526524,-0.17625612,0.35744363,1.3871033,0.31257123,-0.10166802,-0.67379004,0.40909013,-0.07128183,-0.5253881,-1.3583916,-1.3923647,-2.162876,-0.5651783,1.5488207,1.9953073,0.540615,1.901116,-0.8187392,-1.1213908,0.32332927,0.30004653,-0.58475256,-0.02747345,-0.44073156,1.2088062,0.39948925,0.25840038,0.11268164,-1.020517,0.7084104,-0.56065387,-1.4545232,-0.9288342,1.3196641,1.355801,-2.2506602,1.4058022,-0.50397867,0.36767855,-0.76189744,-2.0834641,0.19247289,-1.3870577,-1.1962335,0.3391277,-0.9362842,-0.8255083,-1.2283237,-1.8376646,-1.2761562,-0.0466378,0.7129789,0.73374397,0.33112255,0.2691192,-0.9486731,1.0001677,0.03239743,-0.33839124,1.0323075,-1.7795451,-0.6040673,-1.6166916,-3.8794208,1.0554401,0.5104293,-0.99124193,0.91386575,0.8586785,-1.3299667,-0.21171421,-0.45993343,-0.16696659,0.27376983,0.7058412,-0.028357202,-1.1603087,-1.8576179,0.74984884,0.91135246,-0.117359474,0.21700534,-0.30535793,-0.17548153,-1.3817315,-1.148289,1.0003576,-0.41115296,0.17927344,-0.12835632,0.024177171,2.730596,1.5737228,0.88972366,0.32831264,0.66600376,-0.9578605,-0.7695423,1.6467332,1.0243158,0.25114042,-1.1986077,1.8455353,1.2350416,0.17841616,1.3353995,-0.61929274,0.24668774,1.5319246,-0.4313446,-0.6175701,-1.4542373,0.15132737,0.17984264,0.22279134,-1.3787857,-0.069925465,-0.05082711,-0.12459097,1.214551,0.24418375,0.55899185,2.95263,0.15331599,-0.3063832,-0.99572533,1.5137074,-0.3658572,0.39916524,-1.9694896,3.0257423,2.8623433,-1.4979583,-0.47928607,0.554845,-1.0039761,0.12476459,-0.40964484,2.0021863,0.064043045,0.18120602,0.7705109,0.98594594
health_care_activity,0.85939103,-1.0003583,-0.11124539,-0.36770383,0.062245943,-0.9019362,0.47517297,-0.75189716,-0.9451886,-0.5797919,-1.235796,0.4886627,0.1212801,-0.78619194,0.6567932,-0.4253079,-0.42281353,-2.0361004,-0.14702466,2.2424917,1.9225546,-1.9663618,-0.13322343,-1.4137617,0.14596157,0.151672,0.48639175,0.5952447,-0.48033568,-0.2775154,-1.7133992,-0.2228955,1.3385125,-0.548379,-0.46071085,1.1946708,1.4514161,-1.5951568,0.075674295,1.2603582,0.2171917,0.22714858,0.0052474313,1.5835528,0.08675925,-0.112879,0.03764098,-0.4599841,0.5884053,-0.81227237,0.37407243,0.2958402,0.882349,-2.435354,0.7336966,1.0505939,-0.061896138,-0.49441308,-0.20644006,-0.33608937,-0.26921755,-1.4350153,0.60036993,0.4558904,0.76472974,-2.062907,-1.2315301,-1.35589,-0.11464419,-0.14203209,1.5349996,-1.016813,0.07076405,0.79877406,1.1231256,-0.03923741,-0.42615312,-0.47834966,1.4087462,-0.028407373,0.50418746,-1.8222843,-1.7229993,1.6670313,1.2723849,1.5772811,-0.10248331,-1.1707424,0.6111122,-0.73294276,-0.02757693,-0.102762535,2.0289247,0.16892292,0.070079274,-0.73591405,1.0794367,-0.95513546,0.8547256,1.2466068,0.87610936,0.76765245,0.34620944,-1.3506933,1.6962404,-1.8561286,-1.8028347,-0.61339265,-0.041254036,-0.458893,0.61092466,0.42110327,-2.2142305,-1.1926125,0.4402716,-0.2144677,-0.10579389,1.7931284,2.336823,-1.1568013,-1.1769056,1.0808616,0.81875634,1.6860378,0.020685986,1.0701587,1.5872973,-0.45230725,0.48584673,-0.040699024,0.9952212,0.20655036,-0.95481545,0.82060516,0.40328896,-0.5519695,0.4167983,-0.652059,-0.49798286,0.7327499,2.2976136,-0.22617579,0.45894703,-0.77853763,-0.18514591,0.27380896,-0.98778,0.190613,1.7426741,0.8537509,-0.22966793,-0.25175706,-0.4886619,-0.112373985,0.47213477,0.5678787,0.0616174,-0.19573231,-1.1083275,-0.7038639,-1.259656,-0.29380774,-1.534249,1.2462915,0.8167687,-0.39927307,-1.7757947,-0.5315609,0.06693538,1.5775495,-0.25781024,-1.1114278,-1.6191975,1.1706456,1.3587338,-1.7290041,0.8558339,2.4735763,0.80224067,-0.6309605,1.0850626,-0.18499926,0.3148342,0.28387463,1.1825845,0.97075087,-1.4665607,-1.3390106,0.70650506,0.038060468,-0.8774039,-1.195341,0.034558684,0.15348758,-1.0678113,-0.28498396,-0.32541943,0.17591073,0.69102705,0.9636742,-2.4467604,0.7803178,1.0684388,0.25619254,0.93235505,0.5648174,-0.69337904,-1.430597,-1.9774112,0.24234554,-0.4966102,0.7625999,-0.493055,0.4936027,0.67386174,0.5140837,-0.8706475,0.62417096,-1.8488454,0.37933508,0.8114707,0.7041131,-0.88911915,-0.5988736,-0.29187366,-0.6366738,1.5388921,-0.88392127,-1.1321491,-0.495608,-0.47131607,0.581086,0.26478964,0.06110828,-1.7619259,-1.1273334,-1.4460115,-0.06265241,1.4890885,1.6590418,1.6930578,0.10942761,0.42376158,-0.033495896,0.39199948,1.0391548,0.41653717,0.5022727,-3.1943343,-1.035594,2.3174396,2.2093732,0.6015304,0.5106249,-0.8094296,1.017363
population_group,-1.1213781,-0.9813807,0.60648465,-1.0514092,0.943943,-1.3144219,-1.9219965,1.1682127,0.032253258,-0.5859393,-1.0813704,-0.45026752,-1.2911695,0.30537313,-0.07839411,-0.60042167,-0.17531525,-0.4959181,-0.47809312,-0.21031182,-0.60055864,0.4252921,-0.8682522,1.280733,-0.08290743,-1.2322675,2.3793404,-0.6782412,0.8359938,-1.0360861,1.1673696,0.62174416,0.7075481,-1.5987097,-1.1012949,1.159753,-0.9526822,1.2047473,1.1802628,0.28597534,0.9089783,-0.24348387,0.21364792,-0.132555,0.8553826,-1.0977787,0.6713499,0.1048431,-0.62680554,-0.4753793,0.8999975,-1.1488569,0.040221035,1.6939675,0.5741049,-1.358189,-0.8761318,0.3555517,0.43871126,-0.7095999,0.38796347,-0.8784025,0.23557559,1.4681506,0.17981617,-0.43745452,0.6744327,-0.96730655,1.0246955,0.9601908,-1.1657126,-0.63167596,0.60191745,0.46582416,-0.1402841,0.36752295,0.6612078,-0.7943782,-1.0939177,-0.49389568,1.2589909,-1.5153781,0.17500658,-0.7093665,1.4297819,-0.9844184,1.753963,1.7242811,-0.1850801,1.3802913,0.8465136,1.8884726,2.334406,-0.08243599,-0.28258842,-0.08001315,-2.1225874,0.69345194,-0.05222334,1.5044166,1.4842497,-0.43148342,-0.69657034,0.056810584,0.14631654,0.94198596,1.1283687,-1.0960159,-0.83312666,0.9456094,0.5501142,1.6279657,-0.7925214,-0.2428322,0.0038393117,0.5350994,0.22309391,0.21481243,0.9237474,-0.1899695,0.38279378,2.40778,0.41209993,1.4688056,0.22162399,0.6608805,-0.05643725,1.1858451,-0.35165024,-0.4638197,0.34244183,1.6825582,0.043147188,-0.029309925,-0.48650688,-0.32963523,0.0064549395,-1.8186419,-1.4188392,0.73622304,-0.13663787,0.29707435,-0.32351595,-0.5399308,0.5244939,-1.3969269,1.0640283,-1.7387495,1.279852,0.6979733,0.02949693,0.48441505,-1.2120082,-0.24457218,-0.0617051,0.57829285,-0.072645545,2.2142546,-1.3472912,0.4519828,0.47204193,-0.8004178,-1.6912041,0.037190318,0.098092884,-1.5162201,-0.5938426,-1.4874713,1.7775701,1.0377443,0.050486393,-0.37503055,-0.012472918,0.3776221,0.6544883,0.056927975,1.4583436,-0.02810433,-0.89306855,-0.2682667,-0.93698245,0.41860813,-0.58130693,-2.072535,0.6760565,0.38511252,0.3838279,0.001238915,0.7973812,0.9503227,1.6114436,0.25800982,-0.25141215,0.5884759,1.4284168,0.36448148,-1.1203084,-0.33696556,0.12740025,0.66955775,2.0733166,-0.73517513,-1.2050095,0.03614426,0.1952219,0.1907814,0.22119442,0.9427968,-0.7908887,1.4484698,-1.4659839,-0.8550819,-0.6317727,-0.46239996,-0.9744305,0.6320722,0.2180461,0.3635295,0.17934936,1.4683818,0.91036063,1.5263761,0.77405846,0.6481295,0.623991,0.5991398,0.8683884,-2.015687,1.5076972,1.4292607,-0.9322099,-0.56261754,0.94689447,-0.84962994,-0.11442849,1.1123922,-1.1865383,-0.31315804,0.08108141,1.1001151,1.0664201,-0.6677618,-0.29918614,-1.0309598,-0.0976491,0.24660897,-1.1244493,-1.0168756,-0.40909874,1.0293365,-0.08799848,0.21622355,0.93924755,1.8007187,-0.16748492,-1.5004797
clinical_attribute,0.6571315,0.5485648,1.6444416,1.0538869,0.68164974,0.44383568,0.4390662,0.17934038,0.81239223,-1.2385831,0.71508145,1.0566142,-1.3160324,-1.3189522,0.044397637,-0.584805,0.52850795,-1.2764987,-0.30226558,0.24213722,1.3143198,-1.9385551,-1.7341832,-0.14403872,0.9527058,0.22165732,-0.48440203,-0.9795391,-0.05038515,0.4649949,-0.12816355,0.66199136,-2.043435,-0.7481845,0.18643117,0.5263229,0.5363204,-0.44528136,-1.2917745,2.179493,-0.33768013,0.60048693,-0.098950416,-0.4324276,-1.0322737,-0.17778903,-0.14620656,1.8493463,-0.9850013,-2.5577981,-0.27074367,-0.23803845,1.404076,-2.25792,2.2170691,0.5445828,-0.6473407,-1.3799131,1.2585859,0.21282971,-0.88677347,-0.75102425,-0.37984568,1.0188625,0.2243314,-1.1024413,0.61185503,0.89316916,-1.656825,0.34017953,1.4618169,-2.2125118,0.95635945,0.2103203,0.028794881,1.8191601,0.8684671,0.5444983,-1.76295,-1.344297,-0.011463032,-0.6083858,0.34972563,-0.046780467,-0.85416365,-0.13642362,-0.10259206,1.1135377,1.6425933,1.8538022,-0.9129072,0.02744737,-0.7400531,-1.0370264,-1.4607415,1.1988137,0.009705561,0.28789297,0.18754129,-1.2038603,-0.0058726855,-1.7580291,0.024637658,-2.4000278,1.3221813,-1.2845923,-0.07031474,0.49302673,1.1046844,0.99007756,0.1397339,-1.0787158,-0.43431583,0.9161362,0.69433725,-1.7854993,2.1658041,-0.33533052,1.7381828,-0.87449634,-1.4420639,1.0106198,0.38449797,0.087550856,1.1332786,-0.78067803,-0.27512553,0.71579593,0.93746245,-1.2143513,-0.7136131,-0.23757465,0.42928687,1.1513458,-0.20540681,-1.0005698,0.5903833,0.3107743,0.10710741,1.0307741,-1.2617135,-1.7608607,0.33548263,0.44160646,0.6381298,-0.6643271,0.21416272,-1.738437,-0.29848725,1.4453846,0.10646513,-0.04478034,-0.67980266,0.9165467,1.5332747,-1.8835964,0.11905581,0.35136476,0.6206212,0.491945,0.4639153,-0.35916752,0.18238768,-1.7038863,-0.32156017,-0.17469856,-2.158747,-0.67364347,1.0164608,-0.38822523,-0.14073512,0.5306003,0.005132084,-1.045755,-0.824682,-0.5761589,0.6022737,-0.5722463,0.48223695,0.71360564,-1.6506493,-0.84001476,-1.2508343,-0.34001833,-1.5329884,-1.4919769,-0.051646322,0.24176925,-0.8415321,-0.9004143,0.7890132,2.758236,-1.1423589,0.49323863,0.11688573,2.0011945,-0.73885137,0.88406456,1.4118034,0.8625062,-0.537221,0.057266254,-0.74393183,0.6495761,-0.39331827,0.0808679,0.60667026,-0.5163368,0.39699677,-0.54155934,-0.928243,1.7588238,1.1249852,-1.2712313,0.54590905,0.5517001,-0.4920452,-1.0358219,-0.9371381,1.7122464,0.79042655,-1.0632124,0.5229088,-0.6797061,-1.7798222,0.3087004,0.46432424,-0.64487517,-0.6019435,0.5057029,-0.21187188,-1.0791726,-1.2916416,-0.7005654,-0.29692432,-2.8697364,-0.2564993,-0.08404084,0.46588862,0.752891,1.8843814,0.65559393,-0.24973802,-1.3825946,-0.08736343,-0.8975252,-0.15376051,1.4626375,-1.2690748,0.47624055,1.6443468,-0.124353446,-1.4544553,0.3588047,0.3201064,-1.3487128
body_part_organ_or_organ_component,0.4987575,-1.3486476,0.21134132,0.7707886,0.81847644,0.017782325,-1.5172551,-0.6583446,-0.54501396,-2.0893223,1.0959843,-1.4340417,1.1331977,-1.3014036,1.1783761,-1.0204993,-0.12296194,-0.5244181,0.91398823,-0.8891273,0.27143672,-0.18521376,0.6540458,-0.117312655,1.0164568,-1.3109593,-0.3012104,-1.3700386,1.5159296,-0.09786012,2.261858,-0.5337601,-0.765083,1.2546738,0.49680683,-1.3385472,-1.175813,-0.0028264672,-0.42764908,0.06635719,0.83371913,-0.40598932,0.05476136,0.9110953,-2.4083288,-0.6448401,1.3637633,0.83512783,0.98855066,0.009461381,1.1362218,0.26237717,0.36625168,0.9924911,0.30393025,-0.35433346,0.82969236,-0.24627043,-0.75681275,0.6502405,-0.9359802,-2.1577344,0.19101101,-0.71170086,-1.297986,-0.86675996,-1.8673115,0.35386395,0.8302899,0.60001695,-0.09338966,0.1852182,-0.80553395,-0.27256006,-0.49678063,1.0200245,-0.5850401,1.5680501,0.3758241,0.1119888,-0.067956485,0.1552866,-0.3430646,-1.6954961,0.9529946,-1.4518646,2.2613037,0.1964844,0.013471446,-1.2960844,0.72210664,0.37546173,2.6580422,-0.39951742,0.40153188,0.6124014,-0.15330152,-0.5731975,1.1281984,0.36000812,-0.7520557,-0.21944088,0.2586554,1.1687495,0.32428887,0.77120143,0.36952436,-0.07833733,-0.3883448,-1.6968325,-1.1513689,-0.4179909,0.30983573,0.15584669,0.39573255,0.5008553,0.22528526,1.5370038,0.27093288,-1.5470762,-0.4657457,-1.3800435,0.24619704,-1.4099557,0.67024326,0.25173712,-0.4055015,-0.8048706,0.44082716,-0.24303617,1.3429916,-0.810809,-0.19886172,0.21241434,-0.28078055,0.9393587,0.8075203,0.31966498,0.13205627,0.26288137,0.3478048,-0.9913191,0.1826542,-1.3377857,-1.1578912,-1.2637511,-0.8543108,0.43925038,0.5573484,-0.34913406,0.45388547,-1.6149485,1.9098235,0.21862718,-0.05224423,0.23786327,-0.21348141,0.7996591,0.277539,0.09413451,-0.2806604,0.4556291,0.45049796,0.53957653,0.19111791,-1.4556957,-1.374651,0.66138226,-0.1676889,-1.100605,0.26360214,0.8045791,-0.85445905,-1.3032734,-1.5285102,-3.2959857,0.31612545,0.7269447,-0.89719,-0.6150327,1.3881022,-2.1060193,-0.55193955,0.6025111,-1.7597235,-1.399942,-0.019859947,0.81165975,0.052099783,-0.35856706,-0.9946619,0.70593214,0.13888457,0.048209433,0.43460545,2.1987076,-3.0028605,-0.8918574,-0.036714062,0.15953803,-0.43269137,0.037272528,1.9928544,-1.2389135,0.9801931,-2.1588545,1.0855862,1.5449249,0.34940395,-1.0039151,1.6458869,1.5300046,-0.85869956,2.9281957,-0.5728454,-0.050225396,0.94299966,-0.66968656,-0.40484613,1.0262617,-0.6442922,0.7900545,0.51055294,1.1605448,-1.028823,0.19892356,0.2656465,0.03570783,0.330587,-0.7255238,-0.58657384,2.1728556,-0.44688362,0.44794816,1.4489166,0.29199862,1.295882,-0.25964603,0.05277683,-0.96760035,0.9586505,0.3937588,2.0113094,-0.87656426,-0.32993823,1.7948334,2.2732334,0.36435336,0.5442309,0.5564211,0.95763147,1.1597182,-0.94358015,0.6066392,0.143592,0.16126741
biologically_active_substance,-0.19988513,-0.047738798,-1.2946684,-1.6402519,1.1039897,-0.16636367,1.2361637,0.42151263,-0.7084723,-1.8113344,-1.9883107,-2.85203,0.16573428,0.4167491,2.6038117,-0.483251,0.44713464,0.98130006,1.472229,1.8879437,0.35789686,0.19793293,-1.7367032,-1.468008,0.5518722,-0.44124147,1.7692266,-0.7618461,-0.37430176,-0.3164484,1.2897487,-0.3288418,-0.34216866,1.0971692,0.59547925,1.1442037,0.23167992,-1.7698417,-0.48233056,-0.37385198,-0.39913335,1.2446251,0.99495405,1.6127595,0.74590826,-2.139748,1.794548,0.77916044,0.99054134,-1.1870799,-0.48758644,-0.24099788,0.52468216,-1.4701791,-1.785153,1.8793125,1.5793468,0.41469672,-0.5949769,0.91839755,-0.7757824,0.50225127,-0.7037581,0.89037466,-1.8606032,-0.26616645,0.7825395,0.21506347,-1.6742203,-1.1016799,-0.72595185,-0.12031993,-0.46023673,-0.5978858,-1.0062923,-0.24284723,1.1439359,0.32186905,-1.3092394,0.3740977,-0.6223884,0.33767492,0.049716,0.57259226,-1.3443989,-0.35232782,-0.7919267,-0.34857294,0.52744824,0.0939294,-0.06484607,0.61294866,-0.0071953624,-1.1234487,-0.862171,1.2477896,0.02855166,-1.9345181,1.1661338,0.8295162,1.5057698,1.4738559,0.9972462,0.26765087,0.29588142,-0.8461105,-0.085185766,-2.4158118,-0.41712946,-0.24762593,-0.9012664,1.0499357,0.46276596,1.2203547,-0.6051488,-0.7847845,-0.18259324,0.08805973,-0.7044242,-2.8750896,0.4035471,-0.035147194,-0.24803613,-0.55530214,0.76737994,2.2917428,-0.8196767,-0.37010926,-1.1378336,1.2579195,-0.78158367,-0.98964834,-0.25075495,-0.6576985,-1.0116056,-1.300024,0.048492365,1.0205817,0.17981239,1.7777857,0.41826835,0.48140967,-1.1094464,1.2963196,-0.086106226,0.32057855,-0.059682783,0.0602975,1.195802,0.31406188,1.9338154,0.8379028,0.46887457,0.6725214,-0.3366278,0.10234251,-1.1518298,1.6687682,0.39530516,0.8996446,-1.8527621,1.8849878,0.8387806,1.281438,1.0114565,-1.0202782,-1.7916666,-0.34445342,-0.968579,-0.530411,1.0435523,-0.008639681,2.1083071,1.3623306,0.20913982,-0.51300895,0.100638375,0.64429873,-0.039951127,0.6454318,0.30381325,0.030342977,2.6511629,0.1869773,1.38269,-0.09207803,1.6874334,-1.290064,-0.9688331,0.026817253,1.8612114,0.92325336,1.1164864,1.4125493,0.5058644,-0.09050033,0.43457255,-0.46432436,-3.1941638,-0.5402768,0.84027886,2.292811,-1.024872,-0.93281525,-0.80220234,0.16523188,2.2625184,-0.9419921,-1.1142074,0.824011,-0.8278491,-0.7504524,0.42204338,-0.37611127,-0.4963728,0.70614135,-0.50314075,-0.13501881,-1.0263536,0.0826364,0.3526719,0.86841786,0.20758776,0.8548272,-1.294789,-1.8859473,-0.74782693,-0.7322117,0.7873879,-1.959196,0.55521065,-0.14872222,0.09965451,-0.2478093,1.5610597,0.3361858,0.51924646,-2.8994272,0.7938639,-0.255643,-1.251498,-0.23513877,-0.5740832,0.94906074,0.045078706,-1.4979959,0.9913144,1.3504044,1.4770205,-0.4920632,-0.60815823,0.6601189,-1.2319566,1.0078274,-0.3972756,0.018770734
disease_or_syndrome,1.0848012,-0.44527614,0.14226566,0.1449764,0.5839647,-0.3765757,-0.46099675,2.068766,0.36232394,1.4386364,-1.8612349,-1.1133611,0.19877075,-0.27857006,-0.10710196,-0.63343346,-0.7400993,0.824203,0.7615651,1.6647273,-1.0944816,-0.586461,-0.82344955,0.5718765,-0.729414,-1.3154547,0.66195977,1.7573196,-0.0049085263,0.2000671,1.188241,-0.44097528,0.7822762,0.8129767,-1.2073405,0.937024,-0.028490303,-0.44758695,-0.4968189,1.2979479,-1.305077,0.16605608,-0.25739205,-0.22771712,-0.68905085,1.3961174,-0.3328173,0.32767206,0.4057808,-0.7862594,-0.15432423,-0.70149726,-1.0712403,0.6138286,-0.95175856,-0.29358685,1.2818421,-2.177033,-2.4180057,0.8390942,0.9084874,0.89106715,-0.3922136,-1.1978662,-2.4552526,0.12035667,0.19717558,0.37036943,0.7194299,0.8706434,-0.9963546,-1.2790983,0.9400839,-0.10620976,-0.28823745,1.2472281,2.3884504,0.7534212,0.9642959,0.11482204,1.274039,-0.2626557,-0.058282953,0.028067863,-0.7221415,-0.74657404,1.6262999,-0.3137722,1.8994942,0.066650115,-2.0021212,0.72287434,-0.9754148,0.8262478,0.38763833,-0.11637284,-0.63964075,1.2586138,1.6042086,-1.7094201,0.40767613,0.21791995,0.11192193,-1.1346186,-0.78748894,1.0987334,-0.93632895,0.535599,1.6954324,-0.33984792,0.00037827683,-0.5148131,0.6934297,0.09963804,0.19530115,-0.0014524339,-1.4563537,0.835951,-0.34841523,-1.6100785,0.4088125,1.1830231,-0.517414,1.7553533,-1.1134733,-0.46817318,0.23634641,1.4054404,2.1079898,1.1169907,0.6833718,-0.5080348,-0.24429162,0.7036482,0.106989,0.51348096,1.3501104,-0.532883,1.2590324,-0.7058773,-0.23841211,-1.0032699,-0.6489276,0.59824246,-0.3994828,-0.2651062,0.3397096,0.76652163,-0.07060515,0.6317807,-0.50438035,-2.156763,-1.4552922,0.74382424,1.1430887,0.25317228,0.46662113,1.3440171,-0.28300133,-2.101687,-0.6738649,-0.66572183,-0.5218723,0.39010224,0.53819567,1.1258909,-0.010763702,0.3538407,-2.189986,1.0007576,0.7660295,0.796781,1.0033667,1.1321551,0.14163451,0.122299835,-0.70269364,1.7787858,-0.1367834,1.9494827,-0.45403656,-0.6165585,-0.07530562,0.47047943,0.021044107,-1.088075,0.6193583,-0.49311274,0.12659135,1.1064588,-1.0229281,-0.26074687,2.0339541,-0.2249049,0.15872736,-0.28944325,0.910683,-0.47768456,-1.4577262,-0.14423986,0.9131982,1.6712168,0.2260028,-0.8561454,0.8767753,0.4838507,-0.44943598,-0.96213335,-0.056787517,-1.4806463,-0.006597769,-0.5516929,-1.6353205,-0.76314443,0.92395496,1.3750968,0.410527,1.1440637,0.5590993,0.1869403,-0.014998488,0.03941539,1.7830291,0.7493699,-0.15546562,-1.1401438,-1.0973694,0.14724913,0.07756013,-0.36662573,-1.8265369,0.09515529,0.70586526,0.51822853,0.5618558,0.72775555,-0.96232915,1.0008081,-0.68596184,0.27847865,-3.003921,-0.17065965,-1.0084755,1.5375993,-0.5862668,0.10080066,-1.8658817,-0.25897437,1.16548,-0.61257005,-0.117514275,-1.445787,1.5771223,0.18333733,-0.40846515,-0.67261016
carbohydrate,-0.95544547,-0.6063125,0.45863938,0.46832997,0.49500826,-0.34170678,0.17230128,0.5034548,-1.6948117,0.2463943,-0.9235343,-0.41394177,0.39363688,-0.2878697,-0.5377211,0.40066722,0.767328,1.8010988,0.026361747,-2.37217,0.97075415,-1.2570515,2.220962,-0.316152,-0.33173066,0.6250376,-0.6155162,0.37739632,-0.7654325,-0.012263206,0.19823296,-0.10534859,-1.8130157,-0.7163883,-0.14612629,-0.76069635,-0.43897435,-1.2769662,-1.4737151,0.6606547,0.25143933,0.55308837,-0.2348187,-0.64004534,-1.1313719,0.3230423,0.4931086,-0.7496824,0.640426,-0.07588954,-0.8737585,-2.5275326,-0.9839767,-1.0758162,0.27839276,-0.83214974,-1.0329614,0.26305085,1.0111386,-0.11139023,0.4138019,1.3512503,-0.43403035,0.5254933,-0.84726804,-1.3170055,-0.45560685,0.56201386,1.0513132,-0.372664,-0.20529869,-2.1326473,-0.22755314,-1.4701495,1.2291589,0.5905159,1.3432037,-0.7233149,-3.5145688,0.013286308,-0.5151437,-0.81619257,-0.41199765,0.65817946,-1.755484,0.19607428,-1.921695,-0.76170796,0.7629824,0.42520788,0.54438084,0.3982064,-0.3851643,0.2187864,-0.26607922,1.5028554,0.34519866,-0.3033984,-2.2259192,1.3300937,-0.33784384,0.55494666,0.7569939,1.7048008,-0.27302843,-0.20767072,-0.68858266,-1.6285005,-2.4156287,1.367446,-1.301344,-0.209419,-0.34552792,-0.050826784,1.0445377,0.6238712,-0.16188,-0.09722545,-0.29395005,-0.88621885,-0.73413044,-0.2675233,-0.32362726,0.025944173,-3.42389,0.9322984,-0.65249366,1.7595191,2.0114758,0.25912362,-0.6252597,-0.31521574,-1.190271,0.017298877,0.15222761,1.6492696,-1.4376816,-0.8841884,1.049663,-0.35243413,-1.2341923,0.10110989,-1.6267626,1.0538338,-1.1770498,2.5667558,-0.72484803,1.288431,-2.4179742,0.07371779,2.0213819,-0.50347877,-0.9575387,1.3540641,-0.44465938,0.1368155,-0.92586714,-2.1800165,0.77944607,0.24600375,-0.30442113,-0.7024813,0.5120941,-0.5223031,-0.49297556,0.29881987,0.09916745,0.9305292,0.67091787,2.0424128,-0.8633162,-1.7658321,-0.19665685,-1.3275211,1.9243613,0.7544693,0.8867599,-1.0081198,-0.015730612,-0.6940829,0.299186,1.0524434,0.3087241,-0.31663388,0.29709712,1.6346512,-0.11384014,-0.4037076,-1.3309901,-1.0066795,-1.5582441,1.3662525,-0.06756573,0.98131365,-1.047475,0.98443955,0.9333011,1.1491644,0.42271185,0.30681342,-0.7139808,0.11899568,-0.163738,0.34765777,-0.19400878,0.5283526,1.7377044,-0.46196684,-1.422818,-1.8571312,-1.4634161,-0.27293348,-0.4866633,-1.1030564,-0.11734221,-2.0465915,0.8111195,-1.1001687,0.17295644,0.18702805,0.31757617,-1.5227281,-0.008872229,-1.2143893,1.7985611,1.0767653,0.4109149,0.06472748,-0.5963105,1.4057523,-0.704018,0.69855154,1.1932851,-0.46880937,0.08653677,0.433738,-1.6746755,-0.5480613,1.1113211,0.028065197,1.2018695,-0.8637493,-1.0959134,0.061988972,1.4680555,-0.06657801,-1.3284557,0.7493089,-0.47170994,0.7584093,-0.21358427,0.39341554,1.356356,1.2214938,-0.63322306,1.5611373
molecular_sequence,1.6641937,0.93631923,0.6689797,-1.5900191,-1.9303391,-0.9636404,0.70822185,-0.75493366,-0.27664885,1.0487008,-0.603114,-0.03960714,-0.49194843,-0.049918544,1.4930916,1.6034844,-0.37959018,0.77281713,1.2714244,0.38223305,-0.023837954,0.021873826,0.1338806,0.17898859,-0.00684909,-0.7299083,0.3376373,0.2820523,1.467412,0.07158783,1.7143793,-0.13434222,0.0063933465,-0.47997674,-0.0976784,0.7439514,-0.51126117,0.16991122,0.6273456,-0.09642729,-0.6201582,-1.4500567,-0.581935,-0.3671988,0.12337859,0.041399535,0.35237095,1.1304667,-0.27385134,-0.0004139776,0.5935841,-0.16292259,0.8677421,-1.1202734,-0.8495665,-0.15466605,-0.24079587,0.6407751,-0.017429756,-0.021370975,-2.4206188,0.58366084,-1.3300147,-0.8521348,1.9083784,-0.16638674,0.16089958,0.010565632,0.7149443,0.9970046,0.45606625,-0.414913,-0.25922823,0.015658664,0.74041885,1.2365887,-2.6710665,-2.5901,-0.23657113,0.2813486,-0.44921744,-0.2416708,-2.4158757,0.0016784975,1.3094609,0.5015099,0.792225,-1.015246,0.9007105,1.1635154,0.32803437,-0.41252875,-0.89734495,0.02711956,-0.61557126,1.9235121,0.7214441,-0.57835704,1.3460443,0.2174688,0.51920193,0.6498084,-1.7478894,0.10799406,1.0959191,-0.2525908,-0.05865689,0.07585464,-0.20797426,-0.4476318,-0.2526558,1.493956,-1.5437702,1.4347976,-0.46469957,-0.39569893,0.06282974,-0.6008391,0.63660264,0.10588658,0.04183334,-0.621205,-0.60809046,-0.5023078,0.5386566,0.6226821,-1.1196672,-1.5228413,0.558183,-0.56522167,0.1906132,1.11732,0.49169958,-0.32748818,-0.9517852,-0.12761337,-0.83258647,0.40924382,0.07425156,0.26149032,0.31251764,0.93867147,0.26007348,-0.16331083,0.697672,-0.14621753,-0.5114518,-0.72114426,1.5487714,0.35938016,-0.2060793,-0.2714083,0.8925078,-0.033786442,0.038761724,0.29984787,-1.309677,1.0622468,-0.16484268,0.6912236,0.6376654,-0.19075164,-0.8077403,-1.3368694,-0.53423977,0.70456725,-0.8948941,0.36272,1.1365942,0.3314924,0.26136154,0.96362245,-0.15980668,0.14024866,0.46081412,0.22500686,-0.8712454,-2.438539,0.37633884,0.1288487,-2.656879,-0.6512337,1.4568487,-0.60982955,-1.3543762,0.20437673,-0.41490594,-0.5557512,0.9460235,-1.9105986,0.62116754,-0.28316003,-0.12531902,2.0094738,0.22805648,-0.29530856,-0.35168934,-0.6683621,-0.13847618,0.06106601,-0.66208905,0.77766496,0.5769274,0.23815334,-0.022255978,0.5321604,-1.1520312,-1.0127494,0.48961356,0.53880256,-1.0820712,0.29320142,-0.618709,0.9199093,-0.45780203,-0.25974262,-0.9261145,0.88493294,-0.29707414,1.1493124,0.5353588,0.41623372,0.1710264,2.1575284,0.19943546,-2.951384,0.0142485,1.5036498,-1.2108333,0.65986156,0.11905763,1.4994158,-0.35643858,0.4981601,1.3450757,-1.1385157,0.29803503,1.0129585,-0.84988177,-0.07868077,-1.3732357,-2.0965817,-0.25621188,-0.07170301,-0.5938118,-1.8861523,-0.21622816,0.019721532,2.1689641,0.42902356,-2.3971345,-0.010187571,1.4083028,1.2389348,-0.5301527,1.3474891
steroid,-1.6245855,0.09366426,0.4927845,-0.59409666,0.5756113,1.2920457,-0.18494576,0.5959594,-0.8129284,-0.28373346,0.13259624,1.1809494,-1.0158637,1.0409703,-1.502899,-0.9974929,1.3359699,0.5369946,0.6321168,0.6532021,-0.44791198,1.5189909,-0.65183187,0.9040046,-0.4235486,0.12891035,0.02914561,-1.1387165,0.75789654,0.19023007,1.2827041,-0.8590613,0.28568262,-0.4982084,-1.6529775,-0.8213239,1.0670104,-0.5523826,0.20933717,-0.9358438,-1.0579567,-1.507218,-0.6895947,0.39610142,1.2846893,1.2611896,-0.50390506,0.2020981,0.4664608,1.0176251,-0.09211697,0.5711538,-0.31927603,0.07493688,0.47953486,-0.52388734,0.48591226,-0.6590139,-0.4661454,0.8302592,1.0541219,-0.088841744,-0.20027849,-0.24253601,-0.86356616,-0.40229082,-1.7181125,0.7765858,-1.1729692,0.64433444,1.05752,0.11187464,0.72519314,0.2610157,0.029016176,0.64640504,0.17076173,0.66000736,-0.92354906,-1.4361249,1.01186,-0.696267,1.0568272,0.1686758,-0.6484815,0.52818596,1.2405441,-0.7423946,0.28128508,1.914135,-0.87216115,-2.4442277,1.1176993,1.472917,-0.15270495,-0.17171136,0.13476673,0.67311084,1.0485562,1.1591556,0.7893447,-0.6615396,-0.42635605,1.483247,0.32729128,-0.43299776,-0.65996754,0.054132756,0.10714639,1.2608715,0.28780708,0.45779142,1.3998239,-0.6754317,0.5706193,0.34983906,0.22910383,1.2981706,0.60265183,-0.397444,-0.64929336,0.5093643,1.0016798,-1.5272667,0.3109759,-0.1363748,-0.39854503,-1.9245071,0.84383875,1.8705788,0.8524982,-0.9314742,-0.053329427,0.27104065,-1.7951812,-2.2706435,0.20988812,-0.55073124,1.909848,-0.64997715,0.6007441,1.1988502,0.91354185,-0.18612479,0.32940632,-0.7728877,-0.77316856,0.18731448,-0.49582547,0.40367147,-0.28210893,0.9146319,-0.20357929,-0.20179495,1.7337706,1.0518298,0.58176863,2.2535114,0.03225226,-0.27833757,-1.3951429,0.23684968,-1.7450504,-0.0071906596,0.9898045,1.1657307,1.3490026,-0.0067431116,-0.98087955,-0.78258836,0.5298639,-0.3089444,0.6361882,-1.8710557,0.03905814,-0.5151196,-0.32228962,-0.9564549,-0.93779147,-0.63052464,-0.78292584,-0.32889986,-0.4847174,-1.7274833,-0.19683395,-0.27439,0.50997365,-0.6972794,-0.6361112,0.27948084,-0.14536919,-0.36196798,-2.2342544,0.23674327,-0.45494756,0.50178087,0.68397826,0.5319859,-0.38757384,0.11722967,0.6802787,0.11084276,-0.39914078,-0.47454324,-1.4241389,0.32982096,0.6731758,-0.768329,-0.32914737,0.91197246,1.1729572,-0.71139205,-0.19751516,-2.5320585,0.82248586,-0.80334693,-1.4154513,-1.332985,1.0230567,-0.6951113,1.7999517,-0.42527744,1.2546215,0.50339526,-1.0998361,0.14115512,-0.6001792,-0.7189019,-0.7134435,-0.56001985,0.7397537,-1.9274131,-0.08895772,0.5759501,0.13434482,1.4665332,-0.32886657,-1.8045322,0.2838905,-1.103492,-0.95961726,-0.6258815,1.2366748,0.85946614,-0.40673542,-0.8653843,-0.40673718,0.42743358,-1.3720756,0.32054773,0.13342027,1.5231375,0.16085851,1.8013269,0.1392763,-0.7519097
experimental_model_of_disease,0.549559,-0.051320482,-0.017771125,-0.7669582,0.72216815,-0.7112496,-1.0933441,-0.68707997,0.48075202,-1.2064394,0.39296892,0.14682889,2.0026965,1.3728817,-0.2068204,0.44726855,0.99547756,-0.2948365,-1.4665568,-1.2837687,1.3742635,1.1635157,-0.17343676,0.84382486,-0.5794725,1.0137838,-0.20692846,-0.167772,1.9329557,-0.24554263,0.2834941,0.7698724,-0.3139244,0.60392445,-0.05258531,-0.64652556,2.1256104,-0.18136619,0.45303383,-1.3858925,0.35663992,0.011006802,0.12892282,1.8921309,1.2331479,0.29499817,-0.53439504,0.8519375,0.1470233,1.665012,0.29797724,-1.1561853,-1.0110176,0.6560654,-2.1125746,0.44616538,0.14308856,0.20195647,-0.671194,0.8497675,-2.7205236,1.3962138,-0.4526638,-0.18460283,1.1688614,1.3238944,0.055111375,-1.1838152,-0.9337468,0.24002504,-0.052671667,-1.0178465,0.097578354,-1.720925,0.5171399,0.27188054,-0.022412237,-0.023511881,0.8038616,-0.47354367,-0.53155655,-1.4848809,-0.6413169,-0.89072925,1.0763755,1.2296605,0.29794645,-0.23003148,0.78634554,-1.010396,-1.311953,-1.2595717,-1.2682378,-0.237238,0.3213499,1.5289208,-1.1606699,-1.0127558,-0.34395534,-0.009019704,0.72162175,1.0645075,-1.5890058,-0.4670412,-0.9980004,-0.41978875,1.2886933,-0.3857953,-0.3626672,-0.5336108,1.3758509,0.020115593,0.9327775,-0.9426149,0.65860057,-0.09205636,-1.6884203,1.6795789,-0.7212975,-1.7010154,0.46036074,1.4036268,-0.4729994,1.3312005,-0.26574123,-0.24104393,-0.25428984,-0.021839865,0.78336954,-0.04917246,0.043834012,1.3349733,0.89133203,-1.208285,0.0720164,-1.0167503,1.0506752,0.49770015,0.1051136,0.7910152,-0.65174305,0.94781154,1.0746374,1.7384233,-0.67216134,0.67924863,0.16190186,-1.0741981,1.1365057,0.18452303,1.4386785,-0.9037169,0.77073145,0.6189739,-0.043734465,-1.5011008,0.32026652,-0.4372515,0.35667077,0.2986137,-0.12448727,-0.49250907,0.09082033,0.7382819,1.0375594,1.1955631,0.52822375,-1.4826087,0.39556533,0.1145495,-0.35983783,-0.23800874,-0.63018596,0.17644307,0.58263856,-0.9787336,0.7152067,1.173027,-0.25810975,0.60140026,-1.5158437,-0.6042899,-1.6247207,0.6112032,-0.81838566,1.6807498,-1.7635733,-0.07690671,-1.9652016,1.2451266,-0.21139556,-0.72069687,0.55751616,0.54647636,-1.1329927,0.72643894,-0.006133791,0.43051046,-1.6387519,0.18309218,0.35515332,-0.4267331,0.5028072,0.24591851,-0.8962002,0.73790294,0.23984887,-0.41954055,0.60910183,0.1084656,0.6770122,0.7084796,-0.3251791,1.9257786,1.3021412,0.5676002,0.26820362,0.40093514,1.0100825,-0.0018932755,0.9665718,-0.17480181,-0.12612608,1.2869636,-1.3832322,-0.16534542,2.406047,-1.7710841,-0.7725413,1.4797906,0.9638163,0.95026046,0.5920793,0.7813535,1.3032134,0.8588674,1.1069556,-0.8599513,-0.34573287,0.41313654,0.52715826,0.21672383,0.08713331,0.17623627,0.30510956,0.6610166,-0.58921266,-0.7805096,0.10503597,0.6895726,0.07563773,1.1523699,1.3083899,-0.75650686,1.1782594,0.6768522
patient_or_disabled_group,0.18406159,-0.8019993,-0.98511636,-0.8016512,-1.1731323,-1.4153814,-0.2409781,-1.9344326,0.42205518,0.21959426,-0.7014757,-1.0082502,2.0905316,-0.48548505,-0.99854314,0.4618964,0.8341017,0.09220047,-0.72571254,0.0697778,1.0596461,0.47622815,0.21399225,-2.07066,0.17161551,-0.20041774,-0.0047864146,0.12742935,-0.14781944,-0.28588858,0.73975813,-0.20221737,0.21492635,0.19266795,-1.6243178,-1.4127154,-0.901553,0.28659314,-0.60099036,0.40106183,0.7627317,-0.02199483,-0.16873784,-0.8419377,-2.144132,-0.57350266,-0.6321065,1.7077248,-0.8142107,0.6171382,0.9842499,0.10021502,0.47322974,0.39939153,1.034362,-1.1919996,2.2154264,0.3919845,-0.85410887,0.00293054,-0.56843066,1.8869008,-0.62596655,-0.086907364,0.15747008,-0.20936784,1.9723558,-0.28451815,-0.1997173,0.8730636,-0.51701516,-1.623164,0.53458434,-3.0369606,-0.8013616,-0.5855876,0.5793811,-0.10161024,1.0119824,-0.9482219,-0.1110253,1.3934512,-0.049207807,-0.9913687,-0.10545733,0.1695141,0.052153822,1.9159342,-0.6369768,0.91157705,-0.19510841,1.1476873,0.48578584,0.09650171,0.9250834,-0.41459367,-0.35441926,-0.8960394,-0.8216687,-0.121854015,-0.6618965,1.1318663,1.4265648,1.2244294,-0.44162348,1.6329026,0.04821853,-0.2554832,0.32747698,-0.9726283,-0.5724287,-0.5254307,-2.0947964,-0.131835,-0.8157536,-0.0071613705,1.7871689,-0.89110863,0.6572062,1.2294108,-1.0793157,0.1026,0.33177006,-1.8241315,-0.2757744,0.7885281,-1.2148894,-0.18991342,-0.8470843,1.9318299,-1.6144369,-0.38276333,-0.583185,0.62782955,0.4128715,0.8650096,1.0220616,1.1289924,0.33590978,-0.13384952,0.2631323,1.3213329,0.7755913,-0.39869025,-1.5733074,0.5040594,-0.24838617,-0.9203147,-0.23214139,0.14347251,-0.32114303,1.0712901,1.5709624,-0.47808778,-0.50195485,0.2807836,0.6868284,-0.07040456,0.31695476,1.9483576,-1.220966,-0.736809,-1.1866785,-1.333894,-0.091771595,-0.30468205,-0.60790026,1.2227552,-0.79566795,0.0748463,1.0136892,0.5877528,-0.3090265,0.67978734,1.0904701,-0.38672483,2.4806008,1.9233806,1.2458677,-0.25314826,0.82882833,-0.3628231,0.3911847,0.7470477,-0.4758727,0.24417806,-1.8688424,0.6307239,-0.50245404,-0.2940707,0.68427545,-1.4518622,-0.025385626,0.02803779,0.7117039,-0.83786625,1.3963102,-0.53854644,-0.59196407,1.2102779,-0.5858272,-0.78752583,0.48029116,-1.3512331,0.39371705,0.36674535,0.0937197,0.44172984,-0.34794495,-0.24920154,0.81635755,-0.63025856,-0.3078448,-0.040934317,-1.1870904,-0.34675995,1.8087535,0.56406873,-1.085768,-0.45504546,1.5713173,1.3783878,1.0040015,0.9570629,-0.76818085,1.161452,0.27373695,-1.9588059,-0.4367995,-0.54010844,-1.4222002,-0.19789612,-0.3381655,2.2611477,0.5962526,-2.7253995,-2.1051142,0.41985205,0.53433865,-0.22826552,0.19192137,-0.4645241,0.19082256,-0.6135076,1.8608981,0.8122207,-0.8436896,0.2305952,0.024064066,-1.038267,0.17300683,0.5328632,-1.3298459,0.042796563,-0.1803997,0.24152464
professional_or_occupational_group,0.13567589,-0.9374281,-1.3593434,0.16064143,-0.6464329,0.3979231,0.8931979,-0.25305462,-0.44738746,-0.0701651,0.6702408,0.09608601,-0.0060104793,-0.013409141,0.31380862,-0.717371,-0.0029986345,0.5095007,0.24957514,-1.1411278,-1.7364349,-0.87269646,-0.5090953,-0.6186782,0.0108977975,1.1397648,-1.3279108,-0.25728497,0.75327134,0.36277917,1.8161671,-0.47892618,-0.106487475,0.32801333,-0.53852886,-0.35862517,-0.5461803,-0.0782805,-0.17621267,-1.1633052,-1.053173,-0.9503737,-0.7272529,0.40049547,-1.0771295,-1.1618834,-0.26799926,1.9339875,-0.591692,-1.0311567,2.1210632,-0.57841104,0.5934409,-0.6103534,-0.31037658,0.46133992,0.24750859,-0.29677108,-0.22309807,-0.39885557,-0.4884763,-0.31099144,0.20122837,-1.3874526,1.0237293,-1.0242563,-0.43113673,0.36606285,0.12036236,1.4570534,-1.0373847,0.5332225,1.0318347,0.15565598,-1.2309173,-0.5798997,1.0390364,1.0659236,-1.9304831,2.4174373,1.5907571,0.5702528,0.38583693,0.5057127,-0.009880732,-0.09914114,-1.1548692,-0.80243236,3.4333,0.036700316,-1.5469728,-0.8639924,0.48921221,0.09784011,-0.97406834,0.39284003,-0.839832,-0.25434756,-0.17650609,-0.88940763,0.5776119,-0.3024512,-0.59061223,0.9273277,1.4392064,0.89655435,-0.9229065,0.47339693,-0.5068185,-0.40301326,0.878759,-0.0606593,-0.45741907,-0.04975527,1.4099584,-0.43476874,-1.8036367,1.8565387,-0.62888485,0.7645529,-0.75710285,-0.34077883,-1.1513063,-0.44179705,-0.53829676,-0.80456054,-0.546377,0.41866887,0.77285457,-0.24971619,-1.4105982,0.25516498,-0.06507908,-0.33540115,-0.61806124,1.9735837,0.54425097,-1.0258486,-0.18387347,-0.13115938,0.015915466,0.5240423,-1.0429146,0.3670041,1.1456729,-0.7442154,0.70217067,-0.5818518,2.0409305,-0.86084396,-0.7935527,-0.3755384,1.3348254,-0.13806671,1.0634567,0.14608747,-0.9116685,-1.0871146,0.92410415,0.76293415,0.62928,-0.08465584,-0.37583378,-0.18513554,-0.3997096,0.6357879,0.17261675,-0.31932846,-1.409243,0.38922912,0.14081334,-1.1498456,1.6539617,-0.15275723,1.0029553,0.646501,-0.52996683,-0.71958554,-0.07355197,0.29252982,0.20367451,1.3701516,0.694748,0.037624624,-1.0829458,-0.18870997,0.06891285,-0.51779544,0.33992663,1.902571,-0.9399644,-0.7060627,-0.41128385,-1.3924116,0.58479464,-0.2524446,1.0992728,-0.6881133,-1.3258085,0.38427112,1.5032841,0.050095107,-0.46256423,-0.021296188,-0.38059473,1.4761614,-1.2044026,1.0174905,-1.0305613,0.8739815,0.355528,2.297671,1.8639004,-1.2013451,0.33182785,-0.98219115,-0.6150684,1.8337618,-0.11134685,0.06534675,-0.80685836,-1.7114837,-0.69382864,-1.5890845,-0.05511682,0.7496963,0.18884549,-0.6373249,-0.86355287,-0.6278165,-0.0762981,1.6093488,-0.35470945,1.2776618,-0.4301019,-0.5763913,-0.40671298,-0.25111538,0.97688264,0.94813734,-1.2509735,-0.19438405,0.04091326,1.9362203,-1.6124885,-1.6699445,-1.4310704,0.9026491,-0.5525685,2.2549865,0.38905954,1.4123894,-0.33373654,-0.7581802,-0.98122704,1.7526824
nucleic_acid_nucleoside_or_nucleotide,-1.8694453,-0.24640633,-0.10200564,-2.6049836,-0.42969602,-1.6010011,-0.1764571,1.3683215,0.27115777,0.61261106,-0.36562034,-1.6669024,1.361448,1.3159472,-1.2418232,-2.0319595,0.28012684,-0.3863623,0.36245784,-1.3457675,1.1027391,0.93350464,0.26223236,-2.0310378,0.5046215,-0.34902143,-1.7504514,-1.4664162,-0.17235476,0.10268931,-1.5026563,0.57668644,0.4954291,0.6889388,-0.526596,2.3860397,-0.5647263,0.24696957,-0.4301347,-1.494427,-0.4984153,-1.1041982,-0.76140803,0.5168521,-0.30603388,1.2045122,-0.6622258,-0.68341464,0.24150112,-0.45538443,-0.49292707,-0.18526413,-0.67332774,-0.7727749,1.5814607,1.3542695,0.21421142,0.27015176,-0.59395003,0.20226179,-0.5359171,0.15322003,0.70026666,-0.8907352,0.5480744,0.62861043,-0.7111221,0.37388146,1.1470923,0.7069672,-0.14489503,-0.07657701,-0.19108076,0.36233136,0.9497303,-1.4203308,-0.9461682,-1.1276358,0.47435907,-0.489571,0.395265,-0.26743034,-0.38051635,0.29128462,2.309178,-0.82409775,-1.2734709,-1.4973176,-1.4760585,-0.47412798,0.41676632,-1.1420658,0.35414302,-0.184232,-0.55333924,1.3110818,-2.5550666,-0.0951456,-0.16270119,-1.143522,0.49469554,-0.59430844,-1.1759645,0.8346984,-0.105112106,0.250291,0.6289768,1.8457793,0.7042951,-1.1275804,0.19094132,2.010042,-0.42618304,-0.50067663,1.4138923,0.5734446,-2.4766605,-0.15466243,-0.54127884,-0.17133802,-0.94340384,-0.8170555,0.7266792,0.12608562,-1.447254,0.11735352,2.8255534,1.1066437,0.053331047,1.2943003,-0.0923345,0.6467782,-0.046415873,0.9845644,-0.22244687,0.25077474,-0.55529183,-0.7802247,0.51190746,-0.36962152,1.6315218,-1.2333201,-0.94468147,0.12925108,-0.25697222,0.6333861,-0.84900904,0.012796703,-0.62949544,-0.69878733,0.28243443,-0.7090111,-1.4180701,0.34664413,-0.20721404,1.1352687,-0.12830636,1.2654865,1.8930447,0.6758237,-0.13796604,0.46066803,-0.31170878,-0.90133697,-0.19385964,0.48223278,0.628302,0.41148698,-0.25271323,0.5265496,-0.6619573,2.7096107,-0.6789788,-0.99951285,-0.568944,-0.166812,-0.92289346,-0.1621273,0.80399096,-0.069141746,1.2395049,0.082494974,0.4983732,-2.0721679,0.03967341,0.052517034,-0.28577536,0.2615515,0.2960219,-0.25011373,-0.94866353,0.48943907,0.49707073,1.2856077,-0.9501584,0.22102019,0.015166898,-0.7173514,-1.6530471,0.48044574,-0.12459816,-0.32142973,-1.1206653,0.5329006,0.7411137,0.8099415,-0.5559053,1.1208405,-0.29349706,0.12282293,0.3775408,-0.9445388,-0.69315803,0.8530823,-0.8876507,0.6456137,-0.053089686,-0.8675972,0.3687837,-1.0061151,-0.17087084,0.15198784,-1.2229991,1.1024272,-0.50289035,0.38092074,0.10502519,-1.6345935,0.45296428,-1.1663579,0.65420157,-1.5991368,0.7873054,0.59127825,0.26888537,-0.7616269,1.6712749,0.4920183,-0.014783132,1.7005197,-0.23646805,0.39110267,0.2536971,-0.66723543,1.2428154,-0.21874765,0.6032899,2.5709798,-0.013718925,0.22592272,0.36476988,-0.15144685,1.7918199,-0.8250519,0.21724126,0.8043569
organism_function,-1.0971875,-0.85017955,-1.0418326,0.17928705,-0.50018275,-1.2897118,-0.23935285,0.70142585,1.3064357,0.7302494,1.0124111,0.837758,-0.3988321,-1.2802066,0.91865903,1.8450978,0.47081682,0.9217865,-0.043279473,-0.33688605,-1.7015079,0.11220417,0.10345173,0.30855212,-1.9749823,-0.6067864,1.2603667,0.6053138,0.879141,2.1559815,-1.2802589,2.3323305,-1.4307665,1.2611849,0.90317917,0.22085239,0.83923495,0.8639173,1.0249976,-0.49668744,-0.008447168,-1.0761192,0.5293215,2.422852,-0.03268029,-1.2405831,-1.5743798,-0.39612728,-0.7793143,-0.17038967,0.629433,0.68256366,1.0051095,-0.23887447,-0.4013156,0.52022725,-0.98840445,0.20132625,1.3886992,0.23729195,-1.3130436,0.4920821,-0.31348857,-1.808694,0.091567926,-0.64960015,0.573943,-0.44891432,-1.045267,1.0281837,1.401998,-0.15225136,-0.9137438,0.45829904,0.22068842,1.2114123,0.025121775,-0.3828001,-0.07780012,0.32716277,0.40569288,-2.111646,-0.6973709,0.6608673,0.17689611,1.1014278,-0.8031657,-0.9930696,0.5718507,-0.5494184,2.0453656,-1.5851324,0.19771044,-0.5531016,-1.0083274,-1.057298,-0.027117342,1.0677514,-0.52843136,0.18445665,0.2453758,-0.96556795,1.4941362,1.4273857,0.8709591,-0.06807193,1.2592529,0.56402385,-1.2050635,-1.3191167,0.30173057,1.7824874,0.059754103,-0.89124376,0.8270474,-1.1865592,-0.6696685,1.6221981,1.1577293,0.1658104,0.23734388,-1.0826292,1.1598829,-0.59219044,-0.66672456,1.6950134,-1.6609744,0.36317202,-0.38326156,-0.54949576,-0.08644963,-0.7600041,-0.4947851,1.6187224,-0.18346387,-0.8509982,-0.45596653,-0.7843656,-0.7419939,0.8748728,-0.29936633,1.0089791,0.122185335,-0.03621372,-0.13029467,-0.4824637,1.2522258,0.31512824,1.7277915,0.6670755,0.7574586,-0.85456705,0.19502401,-0.5704451,-0.4482633,-0.16831464,-1.1399655,0.33127448,-0.18290512,-1.546496,-0.52968895,0.8008096,0.60331225,-0.5087538,0.6226007,-0.28147477,-0.003053165,-0.143526,1.4233258,0.3568375,0.103882045,-0.3879898,1.162524,0.33739108,0.21603493,2.0288265,0.9454275,0.69057035,0.39593163,1.1365124,-0.6494258,0.41745287,0.860113,0.8804486,1.3972819,-4.2600045,1.5630558,0.29312122,-1.0728798,-0.03059893,-0.16138043,1.5614871,0.22510917,1.42075,0.38632208,-1.339626,1.1908361,0.39714703,-2.0814857,-0.14301457,-0.20830362,-1.2763418,-0.09724522,-1.3438805,-3.4040504,1.0236572,-1.0803355,-0.3485235,0.6917669,0.473839,-0.34308082,1.0606623,0.34173083,-1.3224012,-0.122682825,-1.2498566,-0.97681504,1.3320242,1.4287859,1.8461616,-0.15974039,0.533874,0.44900498,0.38739842,0.10600712,0.6603896,0.31863418,0.6724571,0.053570475,1.4225283,1.0926803,-0.8247374,1.2512393,-0.08212358,0.87449044,0.17768893,-2.5428221,-1.664302,-1.3429439,-0.525501,-1.0155835,0.040184,-0.8088239,-1.0322626,0.16924597,-0.76020426,-0.46109128,0.6793693,-0.19524059,-0.0750525,0.6059463,-1.2838804,-0.83865225,-0.42254612,-1.6817803,-0.6344905
mental_process,1.1299535,1.5967731,-1.1248245,-0.51963985,1.6297501,1.4769965,-0.24443462,0.56706715,-1.3162804,-0.30260724,2.891357,-1.2587541,-1.0252963,0.92540956,0.30976808,-0.26543647,-0.6027977,-1.3602452,-0.68102354,-0.44179434,-1.5070236,-0.013648021,-0.221965,0.6618964,-0.72722334,-0.7084585,1.1838021,-1.2903398,2.048813,-2.427244,-0.223785,-1.2523822,1.0433675,0.91306597,-1.7896945,-1.6166716,1.0300807,-0.14105964,1.3304806,-1.0132862,0.054696012,-0.017923089,-0.87930393,0.95234007,-0.9451562,-0.122391336,0.8900028,0.5314296,-0.7859664,-1.0479733,-2.1602573,1.0566629,-1.1776882,-0.7560849,0.5139832,-1.0650874,1.488416,1.0550396,-0.9209394,-1.7018363,0.7885904,-2.3404977,-0.42958567,-0.47253746,0.23439856,-0.6079212,0.6796252,1.1119595,-0.07144502,0.99754125,0.1450314,0.45214728,-0.9756487,0.16660894,-0.025049837,0.39647964,1.2786889,0.38932288,-0.2484539,-0.55172807,-1.0144395,-0.35081366,0.15685308,0.28688782,-1.066308,-0.830237,0.23796824,0.20210487,0.20521715,-1.7906685,-1.4141787,-0.73588693,-0.15127458,-0.065279685,-0.8364569,1.783424,0.39570758,0.04117353,-0.8983202,-0.98091006,-0.13225082,-1.4547725,0.21550378,-0.80230135,1.1766273,-1.3526142,-0.47493148,-0.345297,-1.5895785,0.29548416,-0.48632535,0.53442746,-0.8007425,1.5348115,-2.16478,0.83834445,-0.12341848,-0.10251911,0.5069893,0.2217156,-1.4272532,0.42113855,1.1867576,-0.48083192,1.2094432,-0.17049317,-2.0872772,-1.1567438,0.32789728,0.63366336,0.25894934,-0.060199562,-0.31469056,0.32621834,0.27003264,1.9075023,2.5202813,-0.22282231,0.5402003,-1.4575989,0.9139107,-0.44136366,0.025148183,-0.94943404,-0.51987666,-0.9274428,0.2294023,-0.78787786,-1.3205192,0.85552436,0.45080924,1.6376526,0.38457045,-0.04185614,0.6234456,-0.6597448,-0.5164669,-1.741508,-0.57695067,-1.102578,-0.45266634,-0.02853673,-1.2823381,1.9461638,-0.3384582,1.3059789,-0.74814063,0.7070269,1.6536738,-1.0937922,1.1785612,0.07327068,1.8736714,1.1600456,-0.48907685,-0.89025414,-0.46055812,0.8477827,0.31603542,-0.4102363,0.04499819,-0.008013359,0.058633916,-1.6135011,-0.97282106,0.24603254,-0.8934077,0.16848512,1.5419508,-1.7146455,0.60868347,-1.095137,2.5308986,1.339129,-1.0377997,0.3548646,-0.5899494,-1.3120848,0.48661643,-1.7797971,-0.94450414,-0.9710081,-1.4396195,0.6538898,-0.2347997,-0.5998659,1.0381646,0.822359,0.46749863,-0.47787508,0.8132275,0.03859673,-1.7124839,-0.6539579,0.5930132,0.50354,1.183485,-0.36159497,0.908922,-0.32349062,-0.42520437,-0.54441047,-1.4729644,-0.9849863,1.424449,-1.6106081,0.13909234,0.6845555,-0.38782495,0.10206532,0.4592925,1.9506831,-1.5509316,0.8165092,1.007488,-1.0701692,-0.3120472,1.2924087,0.9852317,-0.00035675836,-1.2154436,1.323611,-1.1386466,-1.2973953,-0.53987795,-0.17869346,-0.082987055,1.4637202,0.87650573,0.51602286,-0.87395453,-1.0585415,-0.25123346,-2.7113664,1.7155542,-0.27907637
therapeutic_or_preventive_procedure,1.2722868,-0.07758521,0.236296,1.2378589,0.7235847,-0.8545192,0.5196658,-0.857418,0.14352942,0.20214112,0.78809434,-0.5252716,1.7183003,0.13100836,-0.608416,0.6355988,-0.5781532,-0.16516708,0.06757655,-0.4836866,-0.34269083,0.6937341,-0.43265375,-0.1335667,-2.0483046,0.7019209,1.0446943,-1.0741336,-0.37021372,1.6558394,-0.9656586,-0.088168226,0.77319604,-1.3875839,0.08993828,-0.13608414,0.5895782,0.60745925,0.02168746,1.9914258,0.2936566,1.1867479,-1.258341,1.5232294,0.6690393,-1.4118221,-1.3311162,-0.5658385,-1.4036297,1.0058742,-0.48935467,-0.4181094,1.3937223,-0.87835664,-1.5069199,-1.7928259,-0.36050555,-0.054811973,-0.090673365,-0.47310936,-0.009952546,0.33326694,-2.2112286,0.40934747,2.4221692,1.2974075,-0.52639,0.24203493,-1.2074392,0.28879106,1.4909024,-1.4838576,0.62547255,0.78946203,0.6183886,0.21173176,-0.13189296,-1.0582645,-0.26712558,0.27494857,-0.24374261,0.7019455,0.47994056,-1.1626723,0.15060772,0.4544995,1.6380109,0.56504464,0.46616417,-1.7983208,0.18159676,1.44813,0.83054185,0.64459985,0.7510857,1.3585643,-1.3009969,-0.56015134,-0.43527728,-0.84089893,0.95327544,-1.5250959,0.6861142,0.57382005,0.7005116,0.29436496,2.377395,-0.5025486,0.8829981,-1.1445339,1.092708,-0.30224177,0.76583177,0.14103551,-0.24575432,0.031517044,-0.5632414,-0.36283642,-0.100938834,-0.7193691,0.6822215,0.26222193,0.45209497,0.2625795,-1.1878475,-1.0871536,0.6985084,0.009781971,-0.96708536,-0.9409158,-0.556142,0.91567886,1.8891201,-1.1277077,-1.0853788,-0.45690134,-0.14047948,-0.29814312,-0.8417156,-0.34194586,1.2289631,-0.5683382,-1.1972152,-2.0793097,0.797523,2.147073,-0.48297286,-0.27333748,0.48286858,-1.5399529,-1.192528,0.98138916,-0.83338314,-0.17577316,-2.3059745,-0.19094613,-0.1488301,0.56431735,0.9074847,1.45976,1.6087747,0.51627696,0.24684128,-2.9643776,0.048604354,0.9464354,-0.018625934,-1.4636153,-1.8604001,-0.40132928,-0.93545413,-0.07549482,0.32579315,-1.4104419,-1.1074823,-0.14273968,0.9994186,0.7444403,0.2680016,-0.42239138,-0.4011122,-1.1964065,-0.6478079,0.9627511,0.7643039,-1.3304096,-0.5841435,0.2921483,-0.16135912,0.37914574,0.46583945,-0.79638815,1.3024637,0.8012729,-0.2178056,0.38238284,-1.7259481,-0.10228847,1.6043553,0.72552305,1.9859089,1.9091495,0.40082058,-1.8945644,0.17963453,0.93632096,-0.2912315,-0.9908013,1.0950835,0.33939338,1.289985,-1.0589452,0.562024,-0.8640876,0.82404065,-0.9074854,-0.8911718,-0.019029716,-0.71292293,2.858676,0.6883703,-0.1767694,0.845438,0.095090345,0.54256064,0.17333433,1.9062648,1.8395704,-2.751047,1.8605545,-0.2743113,-0.47670394,-0.50447196,-1.5403337,1.5012466,0.13875373,-0.09632907,-0.14119107,-0.04930985,1.2149073,-0.38165095,1.1777538,1.2705108,0.6050168,-1.6688925,1.5170779,0.3889765,1.370671,0.22416346,-0.6454861,1.7374209,-0.56770813,-1.7023373,-0.8381626,2.8521395,0.94589937
cell_function,-0.16239266,-0.19584407,0.25739244,0.16264714,0.5728598,0.7240943,-0.29664618,-0.011347703,0.9857187,-1.0315837,-0.42440352,-0.04671211,0.23970294,-2.5679014,2.7954676,0.12815902,-1.7785711,-0.7040765,-2.0816534,0.9997042,1.1736753,0.7335114,-0.3034614,1.8449968,1.3966151,-1.3716458,1.4467312,0.49110067,0.73876303,-0.092520274,0.8971936,2.6038446,-0.074564315,-1.5347277,-1.2864218,-1.1949241,-0.4921802,-0.34126326,0.07351598,-0.82809913,0.34901208,1.2319051,-0.15207706,0.051493835,-0.20554218,0.5351026,0.35653675,1.1250092,1.1657495,-0.49155748,1.0669098,-0.46496183,0.9835744,-0.4873591,0.50625443,-0.9251337,0.86580074,-0.30885953,0.017987743,-0.50379395,-0.9248905,0.09390436,-2.1254275,1.936368,0.7956136,0.74155915,-0.066663235,0.16487674,1.8653232,0.12679733,-2.0777898,-0.9389451,-0.15264493,-1.2223811,-0.5486714,-0.8161517,0.835697,1.5796045,0.03727027,-0.60211927,-2.5550308,-1.7096123,0.42576012,-0.9316239,-0.43750313,-0.7467572,-0.10559277,0.34804446,-1.2870551,-1.6144167,-0.7191844,1.5032046,1.3884841,-0.41034046,0.15394038,1.4456451,-0.036497466,0.21982053,1.0423096,1.7988597,0.48644572,1.1537744,1.1212726,-1.3037504,0.026001386,-0.25813302,0.2433375,-1.0455589,-0.41491273,-0.48767754,-1.142082,0.35388038,-0.53468764,-0.6381971,-0.3280563,0.29729632,-0.072495505,1.4206365,1.502716,-0.34269735,-0.06424721,-0.17068432,-0.05321271,-0.47160202,-0.40378174,1.226883,-0.35096824,0.8325898,0.8022793,-3.6940067,-0.51994205,0.22928688,-0.2700413,-0.37888196,1.8052663,-1.6026087,0.059133112,1.8900974,-0.2600133,-1.0024488,-1.1959946,0.14047872,-0.733498,1.2973217,1.0013875,0.6453242,-0.07364978,0.6521113,-0.17493615,-0.12667172,1.2718425,-0.5640528,0.5201952,-0.1596471,0.7279967,0.74539924,0.15533996,1.009816,0.13106224,0.2897221,-0.4501451,0.43717292,1.4952059,-1.1864965,-1.4602368,-0.032737855,-2.2656384,-1.6579767,0.63711774,-0.69286454,-0.24496248,-0.40250802,-1.6660321,-0.037925985,0.5924165,0.17436844,0.024139116,1.3790061,0.6714156,-1.0156022,-1.2326436,0.16716915,-1.9350712,-0.58288157,-0.7807059,-0.019211642,-0.30954218,-1.3061028,0.34425244,0.4079706,-1.3437465,-1.2871597,0.9281246,1.3345953,0.055231832,-0.27190036,0.1396194,-1.4942218,1.0498315,-1.6481401,-1.0724192,-1.4557914,0.37032983,0.5279676,2.7970405,1.6565214,-0.28986797,0.18132149,-0.42156103,-0.891592,1.4081248,-1.1408004,-0.120847926,-0.5781519,0.17438884,0.78558826,0.22627804,1.7900066,0.4197117,-0.47731316,0.64917755,1.9138637,-0.5141999,1.4346524,2.696233,-0.39459607,-1.6886595,-1.2165304,-0.401188,-0.6971923,0.054563142,0.53776073,0.5105239,2.0845613,0.96840024,0.06255985,0.44437867,-0.5211863,0.6963286,0.86579394,-0.15305276,-2.3823786,-1.323644,0.20820522,-0.29909277,1.0160862,0.64203334,0.774983,0.42012817,-0.8500471,1.3435608,0.2997653,0.05182367,-0.25475967,-0.5301226,1.169618
pathologic_function,-0.29031453,1.0131872,0.77405244,0.88904065,1.8048414,-0.17408569,-0.39552367,1.0431197,-1.3424337,2.0671124,-0.85906065,-0.50804484,-1.2944905,1.2368739,0.9028273,-2.2481785,-1.7148575,0.27883053,0.8712596,-0.78249633,-1.3054962,-0.28300926,-0.48948583,0.10516319,-0.9292734,-0.20906118,2.0156972,1.4304391,0.43288848,-0.96585506,-0.8772727,-1.7525522,0.16051295,0.8628001,-0.9325322,0.6540525,-0.58949965,-1.827975,-0.89725035,-1.6415218,-0.6362989,0.40406862,1.1838381,-0.65128195,1.8426459,-0.46075988,1.5975131,0.26811624,-0.70902115,-0.87378424,-0.7479901,0.7416706,-0.8887155,-0.85527265,-0.41674083,-0.66081595,-0.6910777,0.017367003,-1.0104561,-2.4781728,-0.8162868,0.27670455,-2.1056554,-0.30586994,1.0368797,1.2131115,-0.019235473,0.62684864,0.41330105,-0.6739169,-2.8364706,-0.16970931,0.3991764,-0.64522076,0.80848986,-1.0238003,-0.51454556,1.3830607,-0.1716445,0.8038819,-1.0255275,0.5594265,0.30108026,-0.2696362,-1.0932934,-0.156892,0.93342036,0.06889479,-1.8890904,0.18351139,-1.1708635,0.5526266,-1.8029487,-1.5990338,2.2028978,-0.8209193,-0.644431,1.4784868,-0.08782532,-0.5267595,-0.42474836,-2.2023354,-0.73780733,0.15857261,0.48812035,-0.0009966684,0.8192854,1.1389391,-1.1077604,0.46471038,-1.1338221,1.397096,0.01843518,0.27993694,0.066565804,-1.3001192,2.1705844,-0.096159294,1.3269724,-1.9204806,0.018491339,-1.4343357,-1.6566632,-0.9984918,0.25034985,-0.09510582,-0.40083387,0.95367306,0.58241934,-1.3322021,-0.3849902,0.17847379,-1.4489087,-1.2114725,0.82449734,0.1494006,1.3951,-1.4853865,0.3377425,0.038565826,0.42084485,0.13543254,0.08506684,-0.3140728,-0.9614781,-0.6139019,0.12987296,-0.10764799,-0.04517722,-0.12287935,-0.6654973,-0.7664841,3.7443154,-1.8300266,-0.2047965,0.59024924,-0.4331572,-2.2257257,-0.4646975,1.8254359,-0.008237736,-1.3786542,-0.39199543,-0.7187021,0.62336427,-1.3336331,-1.7068641,0.058538456,0.4260265,0.31307167,0.08272866,0.5826538,1.2699717,1.1067636,1.3163445,0.389246,1.4755692,-0.40799966,0.37837124,1.1871374,0.70514965,1.7144723,0.11545815,0.2711284,-0.36941466,-0.36606705,-0.12459288,-0.53045994,0.035641115,-1.5249151,-0.5263581,0.629348,-0.22089966,-0.24435988,0.9692002,1.1874723,1.066688,0.21676032,1.1426506,0.67856985,-0.87301445,1.1226405,-0.5036563,1.6326056,-0.8624995,-0.041962534,0.82022655,1.0325493,0.21881495,0.35000914,-0.81783766,0.6130149,0.2594743,0.9770738,-0.4086447,-1.7262228,-1.8017168,0.20010826,-0.78758925,-0.15414481,-1.6741049,2.4181058,-2.074664,-1.4885952,-0.26090407,-0.10874496,0.50318265,0.42923963,0.9593917,1.1871258,0.48416963,-0.954982,0.6055915,-0.28966168,0.39284372,-0.050407898,-0.123885356,-0.497603,-0.57732224,0.26377133,0.3235203,1.5892633,-0.15858611,-0.27894264,-0.82314044,-0.6946486,0.5779346,-0.14973281,0.55985886,2.0189478,-0.014755206,0.07265598,1.9503881,-0.4653021,-1.7723516,0.60748965
organ_or_tissue_function,1.688766,0.13110766,0.78205293,0.8441392,0.4116609,2.910851,-0.5221062,1.2926297,0.23447001,-0.8047836,-1.1996276,0.1899076,0.5606762,0.39960417,-0.36027685,0.292884,1.4923512,1.7014576,-1.0366155,0.49582177,-0.22384803,1.3326854,-0.90339094,1.7370925,0.056653373,2.1309588,0.4195224,1.5277808,-0.40302342,-0.39701268,0.562986,-0.5125997,-1.8399931,0.4887585,1.666235,0.49522507,-0.16094828,0.13722052,0.71680725,0.41119134,-0.40450218,0.87629575,-0.44428006,2.117756,1.1670078,-0.3107423,1.2130038,0.036765553,-0.3135416,-1.0198555,0.7193704,1.0122207,1.0879972,0.18083973,-1.1598802,-0.18547349,-1.2317357,1.3983246,0.14278968,-0.70218927,-1.0848609,1.5952352,-0.104431085,-2.4268641,-1.99229,0.5637534,-0.6172345,0.09771991,1.0169623,-0.951468,-0.80735326,-1.1494739,0.24613188,-0.5144126,1.4387059,0.74588656,-0.59388274,-0.13789634,1.0240996,-1.274864,-1.3222717,-1.1182522,-0.6102137,-0.5964255,-0.8014509,-1.2181232,-0.34525174,1.096077,0.06874614,0.07327118,-0.56867564,-0.40801522,-0.6479983,-0.041424446,0.15862817,1.7610036,1.2868061,2.3303108,1.812432,-0.22944283,-1.7911813,0.26191166,-0.25238216,-2.1719394,-0.87867904,-0.92118055,0.6481506,0.16504881,-0.39291662,1.4024967,0.09927319,1.5535971,1.2857542,-0.6222118,-1.0058529,1.8631518,-1.019599,1.4354173,-0.14897627,-0.6123167,-0.45750695,-0.15417154,0.22626124,1.0819867,1.6670189,0.11218136,-0.6601034,-0.28686655,-1.0398685,-1.4976125,0.4152032,-1.4028965,-1.9531604,0.01094926,-0.4687637,2.337376,0.33413863,-0.16966125,-1.2282934,-0.45138544,0.42625216,-0.6426541,-1.0508404,0.27145934,0.97964084,-0.90357727,0.05500928,-1.0531423,0.9485379,0.3843602,1.3499376,1.6470894,1.0721154,0.27890152,-1.2677047,-0.5317632,-1.6266307,-0.15625302,-0.7492917,-0.15728234,0.9647988,0.90832096,0.40262643,-0.34516886,-1.0442604,0.6309335,0.35113227,-0.20339973,-2.7158163,-0.33069035,-0.9521813,-0.28434446,0.20083924,1.1858481,-1.5695113,1.1280959,-0.4921747,1.0037034,2.4045684,-0.49876243,1.2653612,1.5807816,-0.19221368,0.26495993,-1.0838583,-1.9346926,2.3530993,1.0291677,-1.3975346,-1.3572192,0.6832703,-0.9583893,0.07981277,0.6531291,1.3439028,1.2659014,-0.5044966,-0.5276181,-0.5393087,0.3253852,-1.2007833,0.5150282,1.058951,-1.5758013,-0.10506401,-0.059905034,1.8960044,-1.2506489,0.93818074,-0.05155952,1.421377,-0.37002376,-0.47639805,0.19994836,0.3518016,0.35860962,0.9896288,-0.25054973,0.69601,1.2937685,-0.6673873,1.9120122,-1.4408683,-1.6151879,-0.70116603,-1.9652771,-0.8954649,-0.3328253,1.8861953,-0.42762473,0.60895747,-0.8877199,-1.1865228,0.5060748,0.5726931,-0.80369747,0.28100502,1.0122484,0.022861259,-0.19994861,-0.67389894,-0.003738781,1.2613157,-1.3732772,0.18247904,-1.0709586,0.77482873,1.2925264,1.1635058,-1.2723448,-0.18565941,-0.54735774,1.3796785,0.8961124,0.30043122,1.8644942
enzyme,-1.190819,-1.3262429,0.5860696,1.1833619,0.113740765,0.548587,0.035991866,0.24729548,0.17173865,-1.7747086,-0.7615869,0.065817066,-1.2198048,0.3767577,-0.8165135,0.46475202,0.5309861,0.33997437,0.9773359,0.40159526,0.72102386,1.1078147,0.18208082,-1.7098182,-0.23535585,0.09829846,1.9730288,-0.24172384,1.7424595,-1.9686729,0.59939873,0.85364294,0.10243399,1.2236437,0.23764089,0.4938554,1.0736256,0.4137557,-1.0341613,-0.6859528,-0.68002504,-0.26976815,-0.72223765,0.37827513,0.6601105,0.96927154,-0.11037336,0.20517425,0.780297,-1.2906997,1.6889206,1.111879,0.80026567,-0.83636063,0.4774136,-0.4598582,0.91751647,0.5468993,0.32468924,-1.2117805,-1.0629525,-0.09321018,0.9671896,0.66028184,-0.5654341,-1.9325798,-2.1537266,0.69228053,1.4372985,0.50413907,-0.23163515,-0.31750077,1.1850126,-0.8185232,-0.12610847,-1.2727251,-0.54424906,0.71920615,-0.5308179,0.60884625,0.78650206,-0.33816484,0.067268826,0.7581069,0.4393024,0.7055555,1.4824412,0.40972164,1.4723872,0.1023359,-0.9692525,1.4893105,-0.7787024,0.12018338,-1.2717103,0.42915437,0.4422426,0.032018784,-0.48307276,-2.7872996,1.0189964,0.05252077,-0.39233243,0.8809255,-1.0356303,-0.6271433,-0.06152676,-1.1396611,1.0801802,-0.3052772,0.074374266,0.665242,0.44665742,-1.0170203,-0.5860463,-0.76809394,-2.3388894,-0.97253287,-0.48437735,1.434935,-0.15337272,-0.37895823,0.11615242,-0.27863598,1.6832762,-0.60122514,-0.5607695,-1.3923442,-0.967343,-0.8835574,-0.106884204,0.6631402,-0.82003045,-1.1247234,-1.1442018,1.0500115,1.2276893,-0.9057296,1.0612104,-1.8791227,1.2468952,-0.86425185,-1.4647598,0.90090966,-0.23764655,-0.75553805,-0.037835605,0.5079624,0.8980758,1.33415,-1.1737577,0.17966866,-0.3953216,1.8392382,-0.16381797,-0.59149,-1.4247017,0.08460376,2.5492616,-0.14722526,-0.11466446,-0.4294815,-1.858319,0.6218856,0.77998114,-0.89486104,0.22823475,0.07079895,1.4457242,0.25240323,-0.06259622,-1.8332087,-0.3443564,-0.3137452,-0.48406473,-0.5387952,-0.11030635,-0.21096408,-1.4707166,-1.0890493,-0.12218776,0.38496265,-0.46267506,-1.2507726,1.270272,-0.77570957,0.22632653,0.59368783,-0.3859288,-0.7949411,-0.72976184,-0.6910956,-0.9067806,-0.5096967,1.2202631,-1.0686835,0.07423352,-1.5303297,-0.017367331,0.27488747,0.4953049,-0.83918417,-1.0312468,-0.071016,1.997636,0.8258458,0.20820124,-1.2684138,-1.1577877,0.6490209,-0.38979486,-0.9895495,-1.7663105,1.0134789,-1.4031644,-0.23731843,-1.1467605,-1.0089968,-0.09135419,0.48288926,-2.3011355,0.41489306,-0.04041647,0.41714776,-0.11883127,-0.8043889,0.40204495,0.2152236,0.10586761,1.5618373,1.4314855,-0.09191291,2.6648734,0.5172625,-1.9907888,-0.8413362,0.74560964,0.43583712,-0.6369283,0.2510645,0.8618695,0.07582234,1.1198066,-0.5726537,1.8607074,0.54829466,-0.27287534,0.784563,-1.2662797,0.27583936,0.09634129,1.3967067,-0.8225566,0.13646443,-0.38974762,-0.40291786
cell,0.8379223,1.4720988,0.5024675,1.6141608,-0.25969255,1.6230539,-0.7850862,-0.4561486,-1.5589219,-1.8615232,-0.6661777,0.99951154,-0.20087206,0.66519254,-1.29871,1.6430448,-0.4454799,0.39298385,1.1378598,-0.63359964,0.36867312,-2.2562642,-0.35072798,-2.4848905,-0.52818155,-1.0324613,0.41190112,0.010194955,-0.033266455,0.08326611,1.423676,-1.5980917,0.21328354,-0.5482313,-0.028094994,-1.1432177,0.3654628,-1.6336218,0.7082202,0.0060032574,0.396086,-0.09174643,-0.7921203,0.593816,0.08654773,-0.030996623,-0.1198278,0.44242805,-0.2818916,0.20658685,0.50263906,-0.117062055,-0.9678239,0.5014231,0.7496269,-1.3756465,-1.1978664,-1.3366784,-0.57069844,0.4554612,-1.309406,-0.43184268,1.0079927,-1.7816526,0.6029636,-0.14285728,0.11141539,0.89314586,-0.5105181,1.032897,0.73558104,0.7923147,0.5094744,-0.42666453,0.38257706,-0.9279274,-0.013032582,1.263596,-0.6691185,-0.74195784,0.33979613,-0.71504414,-0.8664366,-0.3905557,0.99871737,0.43855655,1.3397197,0.2423365,0.18413457,-0.10893171,0.045781992,-0.29186875,0.6148926,-0.24087206,0.90585196,-0.30136958,-0.2984834,-0.99123776,0.01753728,-0.65332633,0.35854962,0.5692582,-0.32217678,0.30774286,2.5342731,-0.8754698,-1.3180197,-0.0495004,1.3373067,2.0529425,-0.11453912,2.2704115,-0.18291852,0.30407733,0.64975923,-0.08322785,-0.44726357,1.4238648,1.6815348,-1.4677033,-0.53857845,-0.14435346,3.017636,-0.20731106,-0.32927564,0.39051074,-0.5891568,-2.372441,-1.7131405,-1.5474619,0.649738,0.4816995,-1.7036904,-1.181556,-0.6814198,-0.02456111,0.25742528,-0.85706306,-1.2206438,-0.55467045,0.37687284,-0.1337801,-0.092390776,-1.6880658,-0.006541655,1.7673044,0.5029342,-0.7104585,-0.8074785,1.711696,-1.0233163,-0.24593353,-1.5820049,-0.24790885,-0.6677058,-0.1609196,0.5664537,-0.1563532,-1.8578572,0.68729186,0.059678145,0.044337533,0.14585312,1.030205,-0.6898519,0.5109611,0.74936074,0.45483005,1.304209,0.6302573,-0.6411544,-1.9830905,1.4596447,0.0050005643,-0.6921579,0.94653225,0.90381736,-0.45789072,-0.7751026,0.030293114,1.330582,-0.24924342,-1.5903474,-0.22715782,0.53107667,-0.6292113,0.08814758,-1.9580554,-1.623687,0.65313977,-1.2601628,-0.5430817,0.6066068,-0.21259655,1.2233167,0.17935593,-0.9314861,0.6478262,0.010722005,0.13677706,1.0189482,0.9496557,-0.68254364,0.45152327,0.42709216,-0.26693672,-0.3053423,-2.1626544,1.0448066,0.9263118,2.019674,-0.39914715,-0.91357327,-0.24839677,-0.7461511,0.43816218,0.8829375,0.45654848,0.076809615,-2.1760774,-0.5606183,-0.8368463,0.18630084,1.1480951,-1.1942191,0.25940883,-0.21547554,-1.594882,0.4533829,0.69262594,-0.14279981,1.0609028,-0.23916097,0.9711145,-0.8597578,1.0756379,0.6569036,-1.0460546,0.70284593,-0.3728637,0.5496225,0.8375107,-0.23549388,0.7455025,1.5008435,0.87437713,-0.62889266,-1.2561818,0.752623,-2.2295668,0.45190614,-0.48116136,-2.2729683,-0.414807,0.36963645,0.6794309
cell_component,-0.09553816,-1.5598258,0.015725825,-0.515973,-1.9493991,0.5723728,1.6745179,-0.5962114,-1.0386701,-0.2913571,0.010393035,-1.604466,0.80066943,-0.57353276,0.9387741,1.8313726,0.03239007,1.7210007,-1.0445933,0.51694274,-0.083812654,-0.09125469,-0.73129857,0.11129996,0.2518911,0.03980718,1.4686645,-2.6991928,-0.002648793,1.3689399,0.43520314,0.70190763,0.625291,-1.570283,-0.44349948,1.3507688,0.07791232,0.06494097,0.7689986,0.7538199,-0.5628061,-1.4937793,0.20895891,0.5688543,0.35023162,-1.1950533,-1.2438936,-0.99423337,-0.880105,0.44367424,-2.1722493,-0.33498785,-1.195498,-0.5202661,0.02852029,-0.5475343,-0.21866746,0.36564958,1.008936,-0.16467343,0.81326896,-1.50172,-1.515579,2.125721,0.7901712,0.36352497,0.6175588,0.23803455,-0.2624989,-0.67995346,0.2917308,-0.37159127,-0.40152413,-0.78691614,0.46353266,0.39849278,-0.7421972,-0.6857414,0.42612818,0.10416704,0.1045868,-1.1120746,-0.14070946,0.21503377,-1.0242023,-0.09573042,-1.9766438,0.7683452,-0.46113905,-0.43621165,0.56083035,-0.9777609,0.38265148,0.61170936,0.8977264,0.60731804,-0.35670742,1.2371114,-0.959231,-0.5459801,0.14595287,0.5708734,0.38330185,1.1023815,0.9959669,-0.4912189,1.5524533,0.47038507,0.036574516,-0.40319577,-0.5706023,0.4361379,-0.5224585,1.28187,-1.0890251,-0.4878621,-1.122315,-1.1958864,-0.39859873,-0.14739382,-0.89343506,0.86572117,-1.2251974,0.49603656,-0.20829661,-0.40625626,0.22603266,0.13808565,0.24400012,-0.7569504,0.126561,0.5427839,-0.9011572,0.93410546,-0.34238434,-0.49238446,-0.98451847,0.5690761,1.3285646,-2.4451458,-1.7194613,0.38582897,-1.802848,1.4984894,-0.5526928,1.422417,0.8510788,-0.7237151,-0.51578754,-0.4678554,0.98260343,-2.0290413,-0.8282689,-0.120485,-1.2968476,1.1291044,0.46891558,0.8552616,-0.4631135,-0.4522514,2.1442525,1.24146,0.17858276,0.13167664,-0.63877726,-1.4392489,-0.33145934,-0.57557774,-1.2852073,0.906777,-1.703639,-1.6347935,0.2199039,0.03411637,-0.6462047,0.33087924,0.39024806,1.2872585,-1.1766363,-0.8340079,1.4648682,0.65245605,-0.21246924,0.45121995,-0.076921724,1.198,-0.52646273,1.2838962,-0.97675186,-1.7470185,1.4620336,-0.18652195,1.6826066,-0.12160696,0.1682863,-0.92199665,0.6021313,3.0099514,-2.872435,-0.7105963,0.62257195,-0.03632909,-1.686537,-0.50475097,-0.015743613,-0.4809198,-0.94697535,0.88382107,0.38364145,-0.57725304,1.426336,0.87611884,1.5377465,-0.16511928,-0.13872002,-0.34951448,-0.0005355207,-1.5502881,0.5640297,1.51395,-0.99803424,1.4681937,-0.37354004,0.2985647,-0.5914392,0.17398034,-0.72880566,0.6226703,-1.584335,0.20880039,0.16048199,-0.06536669,-1.4897938,0.9089868,1.1340672,-0.31718358,1.000141,-0.69167817,-0.049959604,-1.345203,0.68847376,0.5557138,0.28316817,0.62351334,0.7336964,-1.0574499,-1.009414,0.22775173,-1.6106024,-0.21197799,-0.52231973,-0.7698639,-0.43323055,0.60249317,1.4586132,0.14213948
cell_or_molecular_dysfunction,-1.305237,1.1717842,1.0887924,-0.46669343,-0.033666838,-0.71568954,-0.0771239,0.5646153,-1.359464,0.6019397,-0.34233207,-0.5803339,1.2159714,-0.021653669,0.2210397,-0.69879854,-0.23087187,2.064161,0.63302153,2.255374,0.5403989,-0.40117094,0.77679676,0.98262763,0.5477997,0.61332864,0.2986738,-0.51336473,0.037609503,-0.24327643,0.38192323,-0.32993352,-0.52151763,-0.16283259,-1.3512285,0.19711241,0.63119733,-0.76853526,-0.47537306,-0.8912562,-0.32845443,2.4151542,1.4300659,-0.20664732,0.44445026,-0.12823029,-1.6660478,0.3465228,-0.38659057,0.7015032,0.55403364,1.7195479,1.1888121,0.6885018,0.24782385,0.1116563,1.442389,-0.17199928,-0.6174764,-0.98071104,0.07665473,-1.447799,0.5617416,-0.0296045,0.61775285,-1.5871993,-0.44388288,0.010783528,-0.45593196,-1.1184931,0.27930707,0.9910018,-0.743565,1.8717328,-0.49573043,-0.68870825,-0.6711414,0.24350637,0.94907624,-1.7792931,0.4784767,-0.43567526,-0.5830535,0.76220477,0.33005682,-0.2943093,1.1389372,-1.0602142,2.6682272,-0.6296704,-2.2089736,-0.87130886,-1.2577193,1.0111222,0.030680658,-0.6214063,-0.90947676,-1.5168549,2.3636668,0.54702735,0.20502779,1.0692872,-1.0605466,0.10044932,0.48201862,-1.7448047,0.13909842,-2.0458465,-2.4463632,0.6977342,-0.7202715,-0.42858675,0.76941913,-0.24235828,-0.25549427,1.7499093,0.3924973,-0.70673805,-1.3677493,-0.6937348,-2.3470109,-1.3620834,0.8696835,0.41571647,0.1769841,-0.19289534,-0.28096205,-0.31794646,-0.22208272,-0.04306638,0.36539942,0.60868084,-0.48320183,0.18734981,0.4774401,0.40294152,0.23147269,1.519612,0.1851158,1.1322621,-0.88084036,-0.75829345,0.72051764,0.9752395,-0.5431887,-0.70636857,-0.18030563,-1.4694029,1.6748489,0.9776488,-0.50187004,0.31325155,-0.6180314,-0.3704192,1.2828168,-0.013832901,-0.9184205,-0.286132,0.17201991,-0.5815248,1.095112,0.2727993,1.323907,-0.34814748,-1.2079152,-0.41208354,0.116703786,0.42501694,-0.20427616,0.37656444,0.45204106,-1.050529,-0.09585991,0.29045615,-1.1381016,-0.4746053,-1.9374838,0.32619515,1.062615,-1.6791695,-0.85779756,0.9352376,-0.1946071,-0.59990025,-1.1278067,1.0113246,-0.1631122,0.44507483,-3.21926,-0.3789898,-1.0704215,0.93200046,2.011625,-0.62312126,0.6683342,-1.5309899,0.40915853,1.5581973,0.32236108,0.5651669,0.80352294,1.2323937,-0.5919226,-1.5529149,-0.062309396,0.374288,0.36438626,-2.0315998,-0.11216753,-0.30492914,-0.7099125,1.0215027,1.4963834,-0.40093726,0.87078303,-0.23269281,0.35864654,1.0425569,0.26773575,-1.7682003,0.7836555,-0.8384025,0.0038886701,0.6102966,0.14940593,-1.4738277,0.25163436,-0.39158347,-0.22927453,0.18284854,0.02633682,0.6501402,-0.8349925,0.6600589,-1.3855962,0.8588089,-0.23907207,0.6769999,-0.007891096,-0.9290844,1.8111922,-0.5413476,-0.98844725,0.98173094,-0.22012468,0.3988868,-0.730583,0.3635565,1.1893568,-1.3125834,-0.51411617,0.015922744,0.454729,-0.91036534,0.6687485,-1.7057257
hormone,-2.1472754,-0.46646595,1.3878062,-1.3695796,-0.6959126,0.32057303,-1.1786878,1.0145737,0.8285827,0.36843425,0.3176284,-1.0602247,-0.44747406,-0.67969906,0.9955748,-0.2984876,-0.27084562,0.8836726,1.6683663,-0.88643306,0.25528592,0.82571465,1.1042014,-1.8525879,0.4113097,-1.2898834,1.806321,-1.2903069,1.3392842,0.6563034,-0.44469723,1.9010935,-0.24070144,1.0307539,1.9918461,0.3836468,-0.7037931,0.86994094,1.1967001,0.121201076,-0.95817256,0.2878859,-0.23434089,-0.5956054,-0.4006073,-0.8556116,0.15835226,-0.42009276,-0.07206363,-1.0524232,0.66310817,-1.4967117,-1.3121965,-0.3957947,0.41302988,-1.4394495,0.30421826,-1.9777483,-0.5780304,1.0135431,0.18984313,-0.58712244,-0.72327036,-1.9068983,0.66882765,0.36971447,0.14388652,-0.011162786,0.5807049,0.58165735,1.2867888,0.6409192,-1.0010558,0.2303987,-0.5339677,1.0315261,-0.038833763,0.6861643,1.1315942,-0.3816391,0.15324959,-0.41492578,-0.08865864,-2.4798691,-1.3611245,0.06659948,0.01178325,-0.89366204,1.7053136,-0.06844087,0.43327162,1.4194466,-0.7817468,-0.09674229,0.8709218,-0.5320865,0.11876759,0.52457345,-1.1834729,0.8883487,0.08541214,-0.73477393,0.041271776,-0.8283649,0.32374713,-0.8678937,-0.12700601,0.19059768,1.1495513,-1.6589164,-1.8203598,0.15538053,0.12999077,-0.6956115,-0.7193353,-1.9371691,-2.5985537,-1.3395803,0.3182049,0.4952546,1.7067623,2.3404214,-0.88838744,-0.23015264,0.092815205,-1.7596445,3.1898127,-0.05946315,-0.17088446,-0.4482072,0.31110206,0.6409054,1.2825136,1.3314958,-1.128069,1.0636172,0.23546982,-1.6292117,-1.9591877,-1.3630626,1.8812263,-1.689824,0.38807824,-1.2165654,1.89216,-0.47088456,0.28954348,0.844553,-1.4164886,-0.86646706,-0.5103405,-0.3566131,1.0899336,-1.0261716,-0.6367873,-0.42367622,0.6319596,-1.6975791,-0.22672448,0.09600856,-0.46112424,0.45642513,0.6969354,-0.14870892,1.0788268,-1.8472148,-1.482919,0.7779211,0.07507088,-1.1086233,0.4813174,-2.1690674,-1.7330431,0.28164378,-1.3434843,0.62239176,1.0355151,-0.550796,0.39933476,-0.0068492503,-0.9346944,-0.9286933,0.41341075,0.75390923,-2.0298994,0.84235746,0.21182442,-0.5458602,-0.053969372,-0.47182816,0.47484258,0.4439543,1.1007165,-0.9941881,0.34932974,0.12262461,-0.9187305,-0.90032744,0.3916081,0.56340045,0.1058492,0.47369048,-0.34005398,0.59735,-0.8093331,-0.98429793,1.1001346,-1.2449094,-0.29582378,-2.8508933,2.128658,-0.42456242,2.5865757,-0.27038026,0.5941135,-0.6738862,1.7141663,0.9772341,0.22064771,1.0723784,0.13516377,-1.3167799,0.14032978,-0.18718599,-0.6893088,-1.0495394,1.1097306,0.46574923,-0.051944565,0.23093428,0.50225383,1.0066813,0.1528813,0.12398053,-1.2365588,1.4189298,0.1554894,-0.3942606,-0.3367654,-1.0194006,0.3912516,0.5468926,0.50370395,1.093893,1.921334,-0.6528896,-0.017317839,-1.7271203,-2.2673583,0.39568835,0.9116237,-2.5694532,0.3277315,-0.2771365,-0.41240615,-0.41445032
organic_chemical,0.55753696,-1.0601847,0.6614784,-0.38464254,-0.5662191,-0.2916232,0.89245963,-1.524272,-1.0435599,-1.3858149,1.3998585,-0.9537174,0.4941206,0.6147775,-1.2574017,-0.097546,0.7105658,-1.5443952,0.36647213,-0.73129296,-0.062350005,-1.0358183,2.2904286,-0.09620035,0.9412371,0.5960411,0.40966713,-1.2549702,-0.7265814,-1.221469,0.27861807,1.1518662,0.9778919,-1.8514057,1.0203248,1.6385695,0.31371707,0.88494873,0.590038,1.3138365,0.33811226,-0.043708533,-0.57289773,0.49708918,-0.9816646,0.39636415,-0.6011857,1.0421683,-1.6807792,-1.7492616,-0.017780354,-0.11917243,0.5462192,-0.48077446,0.29470217,0.69607323,-1.1768789,-1.1775044,0.32481185,0.0042507555,-1.405349,-0.55417186,1.6834092,-0.040815566,0.9089843,-1.9803388,-1.5867366,-0.34204012,-0.82025325,-0.22154431,0.8197898,-0.20694643,0.9224578,0.3608835,0.40875208,-0.43073907,0.44220015,0.55371886,-0.6473383,1.654944,0.5981549,0.8709688,-1.2103583,0.2751688,-1.4524207,-0.8556878,0.20841162,-1.8005749,0.18898572,-0.5692308,1.129717,-0.6167529,-1.6955965,0.49538743,1.5312344,-0.95363486,1.4434897,1.8268048,-0.09520562,-1.3240641,-0.03984963,2.7812054,0.2267658,0.4590932,0.8661181,-0.1085298,2.0294845,-1.5515665,0.1619422,0.052072532,-1.2854747,0.4917574,1.1946317,-1.4343663,2.3229659,-1.3519839,0.6330153,-0.25918546,0.07805198,0.5443979,-0.22815476,3.081124,0.07594408,0.1322089,0.40273362,0.056275595,0.83710563,-0.56062865,0.48322964,0.13349165,2.8443637,0.33020902,1.046247,0.20372099,0.4001074,-1.879763,-0.6041699,0.7747006,0.5578278,1.8720725,0.4968642,-0.26538897,1.3720124,-0.89479804,2.1277435,-0.12379616,-0.46515402,0.77648926,-1.1869987,0.33101186,0.98667264,2.0391245,0.8991655,1.4054804,-0.2178375,-0.8130708,2.155404,1.1747556,0.26302317,0.6279485,-0.6731511,-0.5281954,1.297469,-1.3835995,-0.98040086,0.10269848,-0.092090495,0.58099824,1.4417205,0.31949744,0.2827682,0.61184096,-1.0793161,-0.05091404,1.5477333,0.7627936,0.27904406,0.62212515,1.9333388,-1.4531741,-1.1090041,-0.16516072,-0.6177098,-0.4123722,-0.66598713,-0.032949463,0.5923288,0.19688287,-1.0497234,-0.28437242,0.30980206,-0.095474556,-0.15109117,0.49032623,-0.7677796,-1.7797779,-1.1424329,1.40376,1.2772448,-0.60163695,1.2328693,1.371716,0.4696153,-0.4797396,0.10283215,-0.7925379,-0.48046964,-0.37926275,-1.0744686,-0.04958605,0.6462956,0.7135582,-0.092699,0.27840263,-0.19324939,-0.4329527,-0.3169758,0.70459074,-1.6536173,-0.17410804,-0.487296,-1.6509337,1.7090912,-1.5008498,0.0835521,-0.73554784,0.9870148,1.4816014,-0.1978722,-0.4360457,-0.7716357,1.2658404,-0.90611374,-0.46061715,1.1933755,-0.3651255,-1.6800325,-0.9131897,0.5022435,-0.36675766,0.41980678,-0.631634,1.5058874,0.53736717,-1.2299693,-1.2378931,0.70558697,0.8606082,1.07829,0.8659055,-0.64719534,-1.0768613,0.3771584,-0.22668435,1.1813493,-0.93685716
behavior,0.01998031,1.4749019,0.6853649,-0.43432304,-1.087594,0.35065684,0.5381487,0.26281434,-0.16559342,0.5476202,1.75958,-1.2355701,-1.0618527,-0.0012224928,-0.6083261,-0.67777777,1.2281765,1.1669255,0.3607978,0.13766402,-0.4835644,-0.4793004,-0.25568986,-0.768664,-0.17366034,0.08688556,-0.2489674,0.035627082,-0.16097113,-0.00031672942,-0.51306516,-0.20204121,-0.4694792,0.38893068,-2.5194852,-0.47941914,0.53194696,0.11892305,0.61439157,-0.1504251,0.19656304,-0.033440422,-0.7955079,-0.6866093,1.5451862,1.457359,0.48694888,-1.0639596,-0.47801328,1.2852733,-0.7763869,0.011216006,0.6934867,1.4360654,0.17165443,-1.4756119,-0.13009046,0.878364,-1.4476244,1.2792258,-0.48614106,0.9298618,-0.39210057,-1.1936971,-0.021903384,-1.425792,-0.05193771,-1.4275382,1.1912555,-0.29800117,-1.1612449,0.27870187,0.10437893,0.07782463,-0.8398914,-0.5008297,0.2078316,-0.6305008,0.63662595,0.6100612,2.3741202,1.1408546,1.0533671,-0.06721029,0.095393114,-1.8006616,0.5217924,-0.8366084,-0.95759016,0.6611993,-1.2602652,-1.1660107,-0.21852264,-0.43834913,1.2945406,-0.23369381,0.24848059,-0.38717136,-0.020463372,0.4545653,0.5188319,0.38972655,-1.9758321,0.87796855,0.5763783,-0.83284944,0.78771317,-0.28274617,-2.0611217,-0.08316786,-0.20392165,0.10652104,-1.0267073,0.96586037,0.71847546,-1.2854999,0.05985044,0.54310334,-0.25161123,0.3334479,0.7868181,-0.17700456,1.2651268,-0.018879784,0.265499,-1.6854513,0.40244788,0.23844457,-1.4922037,0.35656664,-1.7108693,1.1641206,-1.22143,1.1026525,0.65124387,-1.530113,-0.1353535,0.40291688,-1.153305,1.073854,0.4749884,1.0698233,-0.0013195112,-1.8008815,0.12162693,0.8936006,-1.1515895,1.244557,1.0329678,-0.85960823,0.7606539,-1.003317,-0.46479866,-1.6866755,-1.6230446,-0.6247043,0.26080373,-0.09689615,-0.25621006,0.51002157,0.07368029,1.0383134,-0.98225063,2.2841468,0.004777078,-0.21144979,0.81396955,-0.28001386,0.913775,-0.489508,0.11089152,-0.49813536,0.1209608,0.50992596,0.40387118,-1.0943251,-0.8350783,-0.10216867,0.038357582,-0.6741436,-0.05000802,-1.3537518,1.063024,-0.3889671,1.1838019,0.34176087,-0.080776736,-1.8842402,-1.2565284,0.24055767,0.012752993,0.17768273,-1.474078,-1.1444488,-1.5322542,-0.2661266,-0.19504713,-0.3478135,1.0491581,-0.4031541,-1.0486865,0.86054397,-0.11309868,-0.027016617,-0.13084108,0.5351506,0.17873958,-0.30835915,0.4564811,0.71804494,-0.33379063,0.500719,0.29974875,-0.94005615,-0.83474445,1.2396324,-1.0162919,-0.2581305,0.2573178,1.0109257,0.006206524,-0.39569223,1.241904,-0.42659983,0.50397575,-0.92668414,-1.5200818,-0.9592604,-0.44098148,0.53372747,-0.4576783,-0.20242544,-0.90227646,0.5935093,0.4940988,1.0588503,0.8430925,1.5233657,-0.60804915,-0.47016314,0.24106762,-2.5911438,0.67696536,-0.3282173,0.73160386,0.82950705,0.42711982,-0.38502246,0.15383253,0.8189074,0.30796745,-0.3027459,1.1902612,-0.37524948,-0.22312322,0.11303
neuroreactive_substance_or_biogenic_amine,0.8372567,1.9862335,-0.71696454,0.49385634,-1.489894,-0.7238338,-0.16472982,-0.13388057,-1.8971294,-0.010664513,2.0087352,-0.055777706,0.8210672,-1.0018258,0.47327238,1.2109226,-0.36626473,-1.3702819,0.38132527,0.6419704,0.923005,0.5260844,-1.2555044,1.0122261,1.7464659,-1.0951816,0.09797646,-0.29374894,0.2969328,0.42199033,0.96636957,0.11080346,0.88426965,-0.8405989,0.35953668,-0.670414,-1.5949595,1.1219343,1.0283059,-0.028874258,-1.0434146,0.6173823,1.1154435,0.776004,-1.138828,-0.83182263,1.0058254,0.15583064,1.1610433,0.4639888,-0.3616079,-0.6611685,0.4606969,0.1293607,-0.48635027,-1.6116573,-1.5988307,-0.17050056,-1.5338753,-1.2436054,-0.8845683,0.08104142,-1.3017471,-0.7471914,0.5467806,-0.010780174,-0.40852535,0.67396677,-0.4248242,2.6540644,1.2419072,1.0345323,1.9230181,0.72710353,0.648642,-1.2239257,0.5760319,-1.6169987,0.64967084,0.174908,-2.8778021,-1.7338569,-0.4106763,-0.34508786,0.8498791,-0.5701697,1.1578732,1.273959,0.5947312,0.41636956,-0.020104475,0.36601067,-2.5877683,0.17905857,-0.4016318,-0.5508681,1.2021862,0.16668642,0.12799838,-0.69037586,-0.53773206,0.77498764,1.8063695,-0.119240515,0.38462472,-1.570007,-1.1941376,1.0584046,1.7996914,-0.008278699,-1.6041528,1.3227866,-0.46009317,-0.80353945,-0.83510023,-0.55956185,0.00865087,-0.11714677,0.828508,0.003120313,-0.506413,0.23904748,-0.31707823,0.73308873,0.26763973,-0.75634205,-0.54701865,-0.44808444,-0.5666249,0.58480257,0.4355828,0.49544135,-0.24668323,-0.9220848,0.70240015,-1.0230927,0.6565772,0.68789876,0.5055763,-1.3335787,0.45113453,0.9913286,0.8550805,-0.061554868,-0.03648017,0.97126293,0.049630806,-0.04245904,2.2236948,-0.19883277,-1.4395343,0.47463477,-0.59040415,0.67479616,-0.30385578,-1.2228624,-0.45387545,-0.2756438,-0.52300364,0.4736874,1.2240504,-0.49809217,-1.3279935,-1.0185928,-0.39378396,-0.2910393,-0.8166288,-1.4333215,1.8484106,-1.093118,1.5852379,1.299581,0.00794498,-2.4652011,-0.88682413,-0.35109606,-0.0365717,0.96326244,0.48119578,1.6399205,0.77948123,-0.33925506,-0.32572863,0.3985746,1.7134811,2.4958189,0.9693381,0.33642435,1.3803579,0.6971952,0.17043304,-1.127952,1.1822549,-0.49329847,-0.85760707,0.16778609,3.1137228,0.6908609,1.1662474,-0.20300002,-0.67522234,1.4730303,0.04533261,1.3231908,0.2495856,-1.4720297,-1.224105,-0.9194785,-0.07726093,-0.21354607,0.10526222,-0.28477457,0.29374346,-0.40233415,0.47217226,-0.53946,-1.2186155,0.10257872,-0.45793062,1.0864052,1.5942893,-0.9039682,0.17084652,-1.0653001,-1.0225462,2.399088,-0.7102509,-0.9698893,0.6888786,1.2160231,-0.3865413,-0.40168378,0.58287895,-0.06989061,0.23873131,0.3018546,0.19355965,0.5066893,0.026197752,0.29026857,-1.0801845,0.50368243,0.67491037,0.82151765,-0.15546311,0.639322,0.39494625,0.09958208,-1.1216481,0.4812885,0.969136,0.6969773,-0.6317411,-0.83947605,0.62772477,1.4272418
embryonic_structure,0.10878879,-0.36665627,-1.0379639,-1.5041678,-2.2991216,0.25057566,0.20896123,-0.17233182,0.03172183,0.06729112,1.085361,-0.07189929,2.2618515,-1.73393,0.56091064,1.3014717,0.5801847,0.6086248,-0.4107356,-0.6565815,-0.30748746,1.0041463,0.9455262,-0.15201095,-0.9138258,0.7597797,1.5618262,0.29237616,0.20218119,-0.55578786,-0.46325853,0.95058906,1.0179658,0.68172866,-0.12167778,-2.601029,1.46659,0.48413047,0.13535063,0.62416005,0.23953958,-0.83235216,-0.30830953,2.3245623,2.325218,-0.80156034,2.489193,0.3890341,-0.78492075,0.1702571,0.30126968,1.0131738,-1.675864,0.12414477,0.3161621,-0.8600842,0.4120343,-0.649187,-0.7978897,0.70126903,0.92527515,-0.3605426,-1.2689768,-1.356365,-0.5849235,-1.2329597,-0.24608526,0.5997302,0.2803587,0.677263,-0.74658394,-0.7319644,-1.8329855,-1.2025186,0.86639917,-0.11887183,0.2831076,0.14803277,-1.3464901,-0.8776672,0.14564703,-0.09663059,0.58874077,1.9116807,1.5667719,0.22494622,-0.59319633,0.4429737,2.7811184,-0.1030494,0.872079,0.116108134,-0.74018216,0.68244183,0.3043251,0.8004008,0.15996756,-0.44159314,0.95120054,-0.6655733,-0.2480066,1.1175529,-0.35111114,-0.8463676,0.6213687,1.1072311,0.008722649,0.40986234,-0.2755537,0.79364276,-0.16468121,-0.011474022,0.022090169,-0.041959416,0.95785916,0.500615,0.7585736,0.6559231,-1.0978767,-1.8480982,0.4128047,0.13148265,-1.1527487,-0.30355284,0.36229464,-1.3503726,-1.1271387,-0.35967425,-1.1337565,-0.97920144,-0.52398485,0.23376803,-0.6302208,0.23183295,-0.22791637,3.1005182,0.22870259,0.40091756,-0.26833022,-0.6523119,-0.068440035,0.2836103,0.71813875,1.4862273,1.7115713,-0.80016834,0.8522104,0.61144245,1.0495685,0.20444313,0.26668343,-0.30647254,0.21886222,1.2747428,-0.040697433,-0.24947774,0.016744804,-0.9381898,-0.515782,1.704771,1.2105927,-0.7008352,-0.04930785,-0.24099137,0.69498473,0.26571915,0.28935903,-0.2758613,-0.42742565,-0.71377766,0.8881319,-1.0127304,0.8187204,0.34352577,0.078440815,-0.22126634,-1.3566453,-0.08020421,-1.0123674,0.8573688,-0.31549278,0.2825619,-1.243875,0.67908895,0.453139,-1.7826828,-1.9594021,0.31101713,-1.0469445,-1.529336,1.2405572,-1.7898614,-1.0286486,-2.1332781,-0.09120776,-0.12598011,-0.19445767,0.25227717,-0.1608687,0.27891955,0.680573,0.9762218,0.92369545,-0.90567935,0.1632778,-0.41727948,-1.1651713,2.1331184,0.5170602,1.1992984,-0.7426588,0.046767812,-0.3762784,-1.3135606,0.14207,-0.40324894,0.06501468,-0.2682821,-1.3401983,-0.5921871,2.0462482,0.73047864,-0.85248685,1.3315926,0.18553816,-0.23921521,0.87237906,-0.7843283,0.8542761,-0.13109009,1.6035501,1.0418097,0.64996123,0.40022752,0.32860962,-1.0121971,0.009210707,0.31227067,1.5405982,0.9741807,0.5203766,1.2214243,-2.009081,0.05749073,1.0182679,0.50733775,-1.0467433,0.95202214,0.6733849,0.921905,-1.5084757,1.7495689,0.71911794,-0.7792997,0.9439396,0.70935583
neoplastic_process,0.3069748,-1.7642207,0.1970353,-0.32226425,0.42268834,-0.3081268,-0.55553555,1.0227282,-0.87211674,1.3169652,-0.36418185,-2.4592888,-1.2856857,0.1283983,0.4494678,0.880984,0.14266653,0.22913158,0.6071307,0.22147617,-1.5847816,0.38243005,-0.27027118,0.122108966,0.03327421,-0.4930835,0.33278838,-1.229605,1.062771,0.95409703,-0.9382297,-0.88201386,-2.5030594,-0.3330813,0.40926704,-0.9012817,1.6233665,-0.2258423,-0.12396279,0.9414083,-1.2351218,-1.0519569,-1.4554827,0.7163934,1.1867231,0.43413505,-0.020843733,0.9826646,-1.193635,-0.6814605,0.83075994,-1.5841497,1.4961956,1.2651107,-0.30197892,-0.88367987,-0.3469327,1.688496,-0.6988997,-0.38046715,0.76117146,2.5217555,1.0646595,-0.49665907,0.5450836,-1.6038785,0.582311,0.92278093,0.6421941,-1.6457856,0.7566997,1.7261376,0.8917142,-0.14775155,-1.9451065,0.44432935,0.8940604,1.7684699,0.7194492,-0.24730144,-0.12730058,1.4445648,0.01914624,-0.50617355,-0.8469099,0.42689624,0.27934435,-1.1412202,-1.261476,0.22288282,0.092493735,-0.20587087,-0.037614416,1.0313619,-0.32155004,0.7415344,-0.6260617,0.34507337,0.06177912,0.058360327,0.34496763,0.3531545,-1.2901042,-0.15836416,-1.6997854,0.24094056,1.0632058,-0.58810484,-0.93365324,-1.8595576,-0.6133935,0.019973636,0.05193103,-0.40182808,-0.48764235,0.48836857,2.3291667,1.3411064,0.5123401,-0.16793138,-0.6189353,0.019340647,-0.6405356,0.13746336,-0.910981,-0.37954336,-1.1807957,-1.5137483,1.605592,-0.25740287,-1.4009942,1.1160891,1.1703835,0.43690297,-0.8182945,1.1559454,0.31745327,1.3902173,0.34404042,-0.4621416,-0.034304857,-0.05863815,-0.60792667,0.8318625,0.49717978,-0.05299553,0.6192454,-1.3788205,0.0043380335,0.40085128,-0.604111,1.9025617,-0.056571044,1.2887448,-1.0480003,0.72440946,0.12165781,0.5392,-0.32258642,-1.2623858,-0.78144115,1.3560941,0.24257031,-1.2888639,-0.40414217,-0.0910432,-0.7483104,-0.80069214,1.478073,0.60017025,-0.6557592,0.38994512,-0.29725274,-0.7287988,0.15835711,-1.5522742,0.73178315,-0.96358913,0.068112984,1.0467006,-1.2142397,-0.469595,1.965743,-0.96395046,-1.730798,-0.41469085,-2.0597677,-0.8273752,-0.3123387,-0.067482926,0.5727593,0.9444937,-0.2618218,1.3170995,0.40893564,-0.2031882,-0.008716611,-0.7266479,-1.291985,-0.9308369,-0.4910534,-1.7292358,1.2610359,-0.40048033,0.88479227,0.35506934,1.661478,-1.3690126,-1.627103,-1.8489343,0.81322473,-0.28038454,-0.8826704,-0.82266635,0.7470423,-0.35444412,2.7665532,1.2883325,0.1306827,-2.0877998,0.27410975,-0.83270466,0.346013,-0.19082505,-0.77082664,-0.37470675,1.2198814,0.4493652,-0.13749708,-0.890115,2.4650083,-0.39428803,0.40715584,-0.22941464,-0.112381324,-0.10687154,0.28038833,0.063470446,0.7215973,0.84174377,-1.2635357,-0.014539955,-0.048751894,-0.26627815,-0.19751392,-0.39304978,0.5074769,-0.23447387,1.210165,-0.086109005,0.55636656,1.5501435,0.29003602,0.8034414,-0.22124724,-0.1273203
laboratory_procedure,0.1669275,0.24530286,2.6466882,-0.67113477,0.5249063,0.5018087,-0.25122243,1.2213466,0.062082604,0.07858512,0.20036831,-1.1486791,-0.71001065,2.2999408,-0.9400098,-0.10827162,0.11774201,0.9764199,0.6385779,1.3086033,0.15839393,-0.89377916,-0.097654924,-1.3825399,1.3415335,-0.71314967,0.7195344,0.23491414,-2.0171528,1.6196834,-0.053771105,0.48061475,-1.2020197,-0.87008727,0.9770766,-0.24566098,-0.0657515,1.0196466,-0.74681604,0.3880736,-0.05347577,0.015400756,-0.7905376,0.7878165,-1.8411206,1.1643819,0.05442172,0.96185905,-0.65755427,-0.62111485,0.08261837,-1.2269908,0.6298791,1.5424567,1.0426342,-0.4221574,-0.6767491,1.314728,-1.0489386,1.8360006,0.6700486,-0.49214876,0.088533364,-0.28669372,-1.2177958,0.5541005,-0.09358772,-0.510716,0.51419413,-1.1950884,-1.3019123,1.0137341,-2.5011864,-0.03871437,-0.09203208,1.8005913,1.1485947,-1.3873229,-0.080002524,-0.47232205,-0.0795466,-0.22627522,-0.81754285,-0.3368444,-0.7805012,-0.468395,0.31599316,-1.7906404,0.76088035,0.36986133,1.0794189,1.2290428,0.084102936,-0.644969,2.1899328,1.1185342,-0.09908869,0.13622066,0.8807796,-0.15802917,-1.6444551,-1.1509936,0.3644132,1.8336955,-0.32076898,1.7628468,0.2754106,0.5298715,2.0535328,0.8219664,-1.6333933,0.39839166,-1.161281,-1.7662932,-0.84892714,0.86511093,0.48562977,0.48298487,-0.46270815,-1.4053828,-1.0626471,-0.30398256,-0.8124186,0.5217272,-1.7673954,0.3378044,-0.9805231,0.6632033,0.6704366,1.0954874,-0.16383888,1.2389935,2.1006124,-1.5565754,-0.6693493,0.025903318,0.40253493,-0.29364845,-1.0261424,-2.0617878,-0.49659443,-0.44953737,-0.88595647,-2.1149664,0.26018465,-1.4144071,-0.11071531,-1.3911884,-0.46905944,1.2391298,1.1626732,0.25958192,-0.56028324,-2.708669,-1.0681365,0.4979155,-0.31832916,2.0942054,-0.62337667,-0.456943,0.8330281,-0.19619994,-0.2452472,0.75875884,1.1951987,-0.5629197,0.16294554,-0.7559285,0.741261,-0.27050456,-0.4580396,0.255144,-1.361072,-0.13958372,0.6801798,-0.22586489,0.97078145,1.3558764,-0.67518413,-2.1260371,-1.3815134,1.0308224,0.91882944,-1.1012809,0.8435445,-0.38637042,0.3878914,2.3311923,1.4864103,2.0849729,0.52663636,0.12704243,-0.35987052,-0.18496107,-1.2508756,-1.2726507,0.32089177,-0.48459342,0.77317315,1.3053286,0.16939893,-0.6378811,-1.254722,-1.0102744,-0.41369125,-0.91312456,-0.007278496,-0.6932998,0.14904408,0.5830744,0.93133205,-0.79267734,0.80447763,0.22926877,0.17592905,1.1253225,0.38019928,-1.728147,0.5012046,-1.4147708,0.45840225,1.0038306,-1.0162307,-2.2738945,-0.26328442,0.21079686,0.018093081,-0.9439099,-1.5640255,-0.72268265,-0.13144714,-0.61393225,-0.980138,-0.30350903,-0.43654978,0.96572846,0.6161046,1.272941,0.19648375,0.3379257,0.72368306,-1.2068697,-1.0282009,-1.013011,-1.3845074,-0.06392072,0.98827964,-0.46858922,1.2899337,-0.055655003,-0.8034905,-0.6428581,-1.039197,0.9084371,0.81670135,-0.9649172
natural_phenomenon_or_process,0.2696177,-0.5100505,-0.946813,-0.6261411,-0.048824184,-0.0060426085,-0.50924814,-0.28992933,1.2908036,-0.50075334,-3.337004,-1.3695915,-2.181562,0.46766442,1.2053282,0.18082194,-1.2365677,1.1907349,-0.6949952,-1.9615182,0.20844395,-0.7440993,0.16193397,-0.007872887,0.0927091,-0.46626204,0.09708609,0.33335194,-0.085075706,-1.6008711,-0.14197347,0.011026964,-0.8146479,1.3025234,0.51408035,1.1018708,0.35171834,0.072102785,0.27438518,-1.2764554,-0.2802876,-0.559115,-0.43844062,1.8716868,0.7351371,2.069922,0.4930977,-0.4133939,0.7039015,-0.8145681,2.1568186,-0.53226084,0.31691456,-1.4567269,0.33740744,0.1812043,0.608276,-0.97529596,0.0987909,-0.23301625,-0.07408413,-0.3215687,-0.3598144,-0.28131482,0.4820867,-1.6297085,1.3646266,-1.2210964,0.21662416,0.063186474,0.39121312,-1.8817706,0.10228827,-0.391637,-0.9188095,0.5609555,0.021217374,2.1606326,-0.2216857,0.52458876,1.5834665,1.2128932,1.9530396,-0.22496761,-1.3856763,-1.0751169,-0.5628949,1.0457759,-0.77792126,-0.2119651,0.49779406,-0.86582947,-1.3220655,0.394917,-1.6692822,-0.8754003,0.6476675,-2.2499652,0.8733165,1.0325253,-0.29816148,1.3072067,-1.4957273,-0.46573123,0.5979029,1.7820196,-1.4806778,1.4049389,-0.4039244,2.34508,1.1837863,-0.96892077,-1.5795038,0.16708653,-0.3259689,-1.1264538,-0.66978276,-0.11659039,0.7934528,-0.36029613,-0.36861303,-0.6153977,0.49513915,-0.3533027,-0.8987522,0.44719714,-0.4843296,-0.11205458,1.0260525,-0.1948208,0.4588078,-0.14322606,0.10186028,-1.2889901,0.50556517,0.41392776,1.3378437,0.5488168,-1.190713,-0.18772833,0.9607294,-0.65898925,0.40362173,0.36893997,-0.42903852,-0.77660096,-1.0488579,-0.3983429,0.4410325,0.65008706,0.023732895,0.44648933,-0.9985658,-0.19129716,0.5110794,1.2513783,-0.065546334,0.25719178,0.8925874,0.10369626,0.6980368,-0.6156732,-1.3549988,-0.64862055,-0.040506743,0.2341128,-0.23466821,-1.115406,1.3627179,0.05934872,-0.18427509,-0.43251118,0.29504293,0.265454,-0.7737698,-0.8641798,0.96479756,-0.28960928,1.6026549,0.92517555,-1.4118562,-0.6745311,-2.0520527,0.94742817,-0.5272823,1.6271849,1.0688008,1.2558926,-0.09240036,0.0034818752,-0.41582945,-0.22734435,0.096636236,1.0681397,-0.6776318,-0.24995495,0.09116248,0.77196157,0.30712047,-0.6203197,0.31549776,-0.7252478,-3.2172692,1.0663142,-0.41296938,0.9211509,0.32239524,-0.100033395,-0.6610456,-1.6097476,0.3550176,2.4805636,0.64484686,2.0330255,0.20522192,-0.70245695,0.6446653,-0.79124457,-1.6508216,-1.5197573,0.55270845,-0.6673907,-1.1724837,-0.029593745,0.23501489,0.69367456,-0.7771157,-0.7554395,0.63325924,0.16171445,-1.151361,0.50943273,-0.14136171,-0.9485258,1.0339434,-0.3047201,-0.14340426,-0.40128207,-0.36345556,-1.1057634,-0.4275218,1.3885506,0.69488335,0.118982464,0.7084168,-0.23740487,-1.0872457,1.0560864,-0.42509726,0.011498312,0.9686814,-1.9426062,-0.74449307,-0.083630264,-0.25123715,-0.044471238
