,0,1,2,3,4,5,6,7,8,9,10,11,12,13,14,15,16,17,18,19,20,21,22,23,24,25,26,27,28,29,30,31,32,33,34,35,36,37,38,39,40,41,42,43,44,45,46,47,48,49,50,51,52,53,54,55,56,57,58,59,60,61,62,63,64,65,66,67,68,69,70,71,72,73,74,75,76,77,78,79,80,81,82,83,84,85,86,87,88,89,90,91,92,93,94,95,96,97,98,99,100,101,102,103,104,105,106,107,108,109,110,111,112,113,114,115,116,117,118,119,120,121,122,123,124,125,126,127,128,129,130,131,132,133,134,135,136,137,138,139,140,141,142,143,144,145,146,147,148,149,150,151,152,153,154,155,156,157,158,159,160,161,162,163,164,165,166,167,168,169,170,171,172,173,174,175,176,177,178,179,180,181,182,183,184,185,186,187,188,189,190,191,192,193,194,195,196,197,198,199,200,201,202,203,204,205,206,207,208,209,210,211,212,213,214,215,216,217,218,219,220,221,222,223,224,225,226,227,228,229,230,231,232,233,234,235,236,237,238,239,240,241,242,243,244,245,246,247,248,249,250,251,252,253,254,255
/location/country/form_of_government,0.73473805,-1.6644747,-0.11089179,-0.0013659059,-0.23269539,-0.20703347,-1.100286,0.046043687,0.59773207,-1.9745921,1.1427554,1.0946304,1.5233479,0.14492273,-0.104302965,0.66886693,-1.1935196,-0.64737946,0.782463,-1.6787666,0.62428933,-0.16696706,0.087018676,0.63377523,0.09733419,-0.1900944,-0.6815613,-0.34834144,-0.60308003,0.43471196,-0.5830148,-0.008023841,-0.878769,0.29591635,0.9259032,0.558293,0.035490114,0.9268757,-0.01707177,-0.41473886,-0.33332616,0.3695635,0.028343558,1.0506302,-1.3413239,0.057836268,-1.7025014,0.50112647,-0.8877123,-0.22970384,-0.6911305,0.5964745,0.96398264,-0.69289154,-0.004580188,0.66700596,-0.068643756,-0.67869836,0.29948914,0.4606636,-0.32503703,1.6872092,-0.108992994,0.10046806,0.10851821,-2.2238436,0.035159554,-0.016709592,-0.41602704,1.1815917,0.1811196,-0.034827426,0.41731378,-1.3113067,0.0043409145,-0.31460404,0.027031701,-0.18169484,0.046968166,-0.05047908,-0.023427848,1.3495821,-1.2948973,-0.13631022,0.012047372,-0.8671464,0.044677433,0.073313504,1.1989974,-0.0046977983,1.2589155,-0.019506687,-0.9525297,-1.628587,0.081756495,0.30120075,0.69980425,-1.3903604,-1.7423297,-0.058869895,0.041365173,0.70228684,0.010567269,0.4733494,0.16566803,0.47132686,-1.1812063,0.90894896,-1.721662,0.4809776,-0.058575626,-0.96465164,-0.30593085,-0.38484767,1.6265281,-0.7466241,-0.026830232,0.21954794,1.6398649,-0.37154993,-0.10257696,-0.12058389,0.28682098,0.34221435,0.040034007,-1.0457194,-0.17690182,-0.16783628,-0.11683799,0.32495382,-0.061400425,-0.9422596,0.5949156,-0.36831662,-0.26719448,-0.30741832,0.004130903,-0.41748708,-0.33496836,1.1158104,0.41822648,0.049390186,0.2859218,0.032697216,0.032895934,-0.023145178,0.5374522,1.6063421,-0.62413573,0.020815525,-0.005411711,0.029673789,-0.5452686,0.07944906,-0.6417316,0.0023807161,-0.043938685,-0.037391398,0.51236105,-1.3303357,-0.0036408855,0.40550146,0.7023803,0.005059965,0.17005238,-0.5402898,-0.97319883,-0.7279832,-0.17090498,0.015092607,1.231642,0.014294634,0.7926751,-1.7039425,0.79746795,-0.22585562,1.2791816,-0.56005394,0.17265037,-0.21225125,0.014324067,0.1880556,0.005110358,0.5516441,0.5418598,-0.71847606,0.049007468,-0.04151404,-0.06481841,-0.8672788,0.04348719,1.3308637,-0.81826097,-0.112851664,-0.13747366,0.61740905,-0.8553102,0.03440913,0.6022443,-0.53128815,0.9951733,0.022739561,-0.1285112,0.013249373,1.3930798,0.09824844,-0.07423404,0.064753905,-1.4163486,-0.2027723,0.017349698,-0.1334394,0.39534137,0.18165885,0.019611167,-0.04517898,0.0151029,-0.32669806,0.004278421,-0.016846776,0.005635711,-0.10031773,-0.747887,-1.5469317,-0.5389714,0.3087041,0.32734513,-0.017957235,-1.5787586,0.036326777,0.005235617,-0.21912232,0.6646008,-0.6208237,-0.04578263,0.82958096,-0.40014857,0.009170791,0.8136931,0.6420993,0.5201492,2.1068878,-0.44918406,-0.062881805,-0.14860791,0.03159918,0.048314266,-0.02249184,0.16205935,-0.17754136,0.59168607,0.022824991,-0.06465257,-0.7444769,-0.5902874,0.4473113
/tv/tv_program/regular_cast./tv/regular_tv_appearance/actor,-0.4311749,0.002704434,-0.40285948,0.035105843,-0.27845222,-1.4851156,-0.71758395,-0.5590583,0.24337801,-0.21852753,0.07088871,-0.009392785,-0.009539826,-0.7826369,-0.61569834,-1.053241,-0.332574,-0.007543338,0.30503514,0.9877837,0.40303618,-0.063387156,0.021792961,-0.78164214,-0.93764734,-0.5060658,-0.0048295925,0.09717155,-0.293764,-0.046556942,-0.119211376,0.07614007,0.00998036,-0.0041004475,-0.044165205,-0.080368534,-1.2998805,0.97915083,-0.44869506,-0.2755373,-0.009476109,-0.07566155,-0.019357955,0.0293684,-0.0019396517,0.12913904,0.49742573,1.0503937,0.020140264,-0.0041466355,0.23207672,0.0068109585,0.18671267,0.16857028,-0.12365805,-0.11394493,-0.008758072,-0.26330274,-1.2196463,-0.12485189,-0.68571454,-0.059080835,0.52625245,0.53534436,0.00677284,-1.1237065,0.08158,0.055291105,-0.196135,-0.0072485963,0.15852085,-0.011719855,-0.24949676,-0.18865885,-0.01789285,-0.17387377,-0.08648952,1.248382,0.25375235,0.0012186753,0.047570117,-0.049007304,0.11251084,-1.6515478,-0.37511218,0.5129116,0.56077886,-0.8511852,-0.003159048,-0.21003118,-0.02620997,0.3429086,0.121708415,-0.7361983,-0.66554785,0.021553217,0.014592585,0.024987873,-0.021924552,0.30239648,-0.3220665,-0.71234655,-0.59296566,0.23398024,0.5893075,-0.5249844,-0.29667243,-0.021213718,1.4922006,-1.2002909,-0.18035087,1.5102538,0.011451662,-0.014038639,-0.04676831,0.015802572,-0.30310565,0.020073175,-0.086091705,-0.5501177,-0.054127205,0.028367855,0.100678705,0.42750856,0.09269634,1.6154346,-0.010226731,0.38786367,-1.0837446,-0.11451697,-0.21258329,0.758006,1.6328009,0.53760755,0.023046209,0.0042324,0.124281354,-0.13445702,0.44105008,-0.66098183,0.013023925,-0.18009843,-0.7775034,-0.32254422,-0.58581704,0.34612972,-0.72106665,0.6106516,-0.0027187369,-0.15169275,0.8727261,0.79283863,-1.1611065,-0.11489799,0.043244433,2.0048327,0.001380745,0.52899164,-0.04943086,0.15894896,0.010874242,-0.00474839,0.7911587,0.62790865,-0.026405532,-1.0593531,-0.17052917,-0.022100396,-0.040004816,-0.02137522,-0.26829073,0.43084955,2.1169956,-0.25589368,-1.3605287,0.0015641821,-2.3408177,0.017318409,-0.31756064,-1.7980826,-0.00989676,-2.3961225,0.40521595,-0.221535,-0.41918543,0.2990012,-0.59202766,-0.30688202,0.31836435,0.016250083,-1.0450728,-0.110365726,-0.8961321,-0.010480356,0.035172667,-0.048466984,1.2409652,-0.017277677,1.4199753,0.27747047,0.6049919,-0.0019445086,0.079018556,0.04768973,-0.60106957,0.63890463,0.026183067,0.012010883,-0.0607234,-0.52551633,0.09186235,-0.014875309,1.4262233,-0.10943354,-0.22777282,0.23756512,-0.04634003,0.04201967,0.4302389,-0.010627781,0.070490845,1.0728171,-0.026264897,-0.003505634,-0.62157696,0.37028453,-1.3192925,0.026477624,-0.84781766,-0.011206411,-0.03156555,0.013672567,-0.22644536,-0.084658526,0.09135936,-0.015208023,0.17406316,-0.45439902,-0.07184562,0.27281785,-0.21621603,0.0059122066,-0.0074755526,-1.855505,0.50265455,0.0058362433,-0.0015577804,-0.03981975,0.5381691,-0.531546,0.09541091,0.115706384,0.15286192,0.48323128,-0.7924426,1.2529345
/media_common/netflix_genre/titles,-0.4865745,-0.11331342,0.016272312,0.36176026,0.38712177,0.5036156,0.9423551,-0.44671997,-0.021489237,-0.07306206,-0.99429965,-0.110040955,-0.93122715,-0.035566367,1.4536152,-0.20123528,0.3193469,0.051950153,0.24541827,0.6542148,0.029739378,0.70177287,0.30564255,-0.60405374,0.26239267,1.4316233,-0.08858011,-0.575787,0.15343963,0.3571458,0.49933133,0.19475804,0.10917129,0.13584155,0.07764619,1.2329789,-0.82989734,0.92807806,-0.4370248,-0.09764068,0.7285333,-1.2348621,0.11951992,0.38411498,-1.7435088,-0.33184463,-0.011346485,0.14166792,-0.45792425,1.2457956,-1.9550123,-0.13005246,-0.26655915,-1.6487205,-0.7342342,-1.0721916,0.5356901,-0.37579876,1.2043879,0.36653414,0.07716141,-0.04651223,-0.84290725,-0.050517447,-0.45895988,-0.041683026,-0.8469233,-1.185445,0.95880306,0.001081519,0.023977883,1.2023882,0.1815034,0.7683387,-0.5097203,-0.5293796,1.3601433,0.037639324,0.9331054,-1.1259573,0.69907045,-0.0049243947,-1.4513583,0.89938706,-0.071759626,-0.0033333735,0.35923117,0.38162178,0.25102717,-0.024702203,-0.4063285,0.58032036,-0.19549711,-0.5710245,-0.4846229,1.2701011,-0.4642601,-0.028918007,0.06883298,1.0379405,0.014938763,0.22974029,0.19662514,-0.0017681705,-0.11177249,-0.3547149,0.82836413,-0.042595018,0.08948416,-8.749068e-05,0.04897313,-0.20799659,0.04554868,-0.037099417,-0.6494659,0.19314045,0.8362973,0.1612226,0.1595582,0.11900821,-1.4595147,0.23677304,-0.06265732,0.009343274,-0.1394849,0.5652906,-0.6225443,0.31924516,-0.45682418,-0.41592216,0.8809169,-0.037689745,0.07719474,0.031550184,-1.0665252,-0.020750673,-0.02545463,-0.6309863,-0.072738856,-1.7260308,-1.054356,0.29768682,0.30401662,0.37949884,1.0417092,0.7718091,0.24463938,-0.2253407,0.395094,-0.54138815,-0.06336202,-0.13268211,0.07111861,-1.0055597,-0.62921727,-0.029650956,-1.7448483,0.03815291,0.29067788,-0.9832064,0.18026327,-0.06978317,-0.21227328,0.25321963,0.3494167,-0.3831268,-0.10679888,-0.4650503,0.027827222,-0.0112887155,-0.016317384,-0.059761483,0.06410331,-0.010542686,-0.005810119,-0.43097624,-0.82484174,0.6812392,-0.043270927,0.23952098,0.07463119,0.34166414,-0.1941567,0.9456871,0.038738698,-0.5030563,0.41482306,0.17518485,0.09892356,0.038968742,0.088281855,-0.08166087,-0.7604141,-0.2984803,0.31514204,0.022002801,0.8401878,0.048640203,0.045185577,0.4131451,0.06132449,-1.2588627,0.042468373,-0.34732002,-1.1398381,-1.426816,-0.722711,-0.18714991,0.38538295,1.73683,-0.10355684,0.073769346,0.464017,0.6752849,-0.027489096,0.015149941,0.0039415555,-0.3840818,0.926984,-0.8339829,-0.062295776,-0.117302835,1.5221039,0.46546343,0.960507,0.98837644,-0.14936684,1.2276239,0.3874035,0.2556513,1.3926938,-0.050950397,-0.8112077,0.030284742,0.7290057,-0.27307135,-1.0370648,0.7937105,-1.8866829,0.03490239,0.43678004,-0.9178657,-1.3445332,0.01628198,-0.0436772,-0.2205015,0.08115417,-0.12265899,-0.1265866,1.585721,-0.0062753893,-0.018988144,0.04619526,0.9255854,-0.91770345,0.5142149
/award/award_winner/awards_won./award/award_honor/award_winner,0.021897139,-0.30152935,0.88332933,0.036089428,0.068477765,-0.73737377,0.04048635,0.13907868,-0.20113596,1.2168825,0.019103063,-0.1967568,-1.516815,-0.42948407,1.1448152,-1.4868963,0.15407453,0.018990356,1.0980524,-0.03022427,-0.63602114,-0.008137837,0.9740528,-0.49854934,-0.027695196,-1.240045,-0.54709506,0.028474187,-0.003180849,-0.062087726,-0.3349553,-0.11128082,0.034483057,-0.23493078,-0.0035695813,0.15666838,-0.03109006,-0.2470276,0.05092737,-0.26987642,0.5364107,0.03327974,1.3143665,-0.051901918,-0.27870765,-1.31224,-1.25016,-0.021248255,-0.012754968,0.056635283,0.19638489,-0.06990673,-0.024769263,-0.19468923,-0.014291546,0.41585675,-0.003574078,-0.0023060846,0.025567561,-0.015312383,-0.8923056,-1.5465558,-0.029769864,-0.01150626,-0.11641896,-0.013290133,-0.748673,0.0074040266,-0.03331067,-0.2831895,0.5611541,-0.09837258,0.20344898,-0.033868268,0.18256344,0.026517628,0.10813071,-0.39834517,0.099259354,-0.0040683295,-1.7509388,-0.00413476,-0.006749576,0.06315929,-0.079031914,-0.01934784,0.04634206,-0.14481257,-0.055723127,-0.039549313,-0.02050646,-0.051152065,-0.20208178,0.8656354,0.012175893,0.0029057008,-0.018040381,-1.1245668,0.5328031,-1.2727675,-0.04531514,-0.015408517,-0.02415345,0.07975962,0.008604713,-0.034422655,0.0016703423,0.3234482,0.47727507,-0.42663696,-0.86224145,-0.007991062,-0.6591936,-0.1102944,1.9288592,0.0016135054,0.5874563,0.011221702,-0.13742648,0.10004973,-0.6984279,-0.07627031,-0.040557854,-0.24653214,0.1775095,0.018882768,-0.5351765,0.45915583,0.01069901,0.05396074,0.006189765,-0.005641987,0.8550633,-0.8688133,0.008872335,-1.1457344,-1.696652,-0.0021008388,0.5195507,0.0015335137,-0.8702861,-0.008417204,-0.013007164,-0.012276493,0.01885363,-0.515249,-0.0007954606,-0.051961064,-0.0012557522,0.09920555,-0.01039345,1.3284374,0.005274751,-0.039126433,0.019378252,-0.0020107904,0.19322748,0.8135554,-0.60388464,-0.015512916,0.71061826,-0.5723653,0.35766053,1.1464195,0.1230191,-1.27658,0.56143415,0.01774084,0.20910127,-0.02367609,0.5733463,-0.29364258,-0.71415704,0.15141152,0.03706221,0.4382141,-0.036157206,-0.010885393,-0.0186813,0.39996153,0.020206377,-0.88914996,-0.06788745,0.27169475,-0.28770784,-0.030116523,-0.084383935,0.53549576,-0.2366324,-1.1714154,-0.011424555,0.27419066,-0.8119898,-0.81646615,0.05571692,-0.014621353,-0.038218997,-0.17858714,-0.07999396,-0.3362063,-0.008258699,0.0008758176,0.009648571,-0.0016657545,-0.017359965,0.25814718,-0.0031325885,-0.123720065,0.02782447,-0.1333964,-0.5573666,-0.002701434,-0.13038689,1.248792,0.01797911,0.55970716,0.18013644,0.36793935,1.1594352,0.6214727,-0.039099988,1.4265566,0.22653607,-0.045179587,0.13015278,0.021746697,-0.5772071,0.30862653,0.13527085,-0.3364285,0.7074922,-0.014436813,-0.03379077,0.007516722,0.898071,-0.26385605,0.0015664392,-0.035463385,0.031302005,0.1425548,0.28601548,0.88482636,0.004613841,-1.1459022,0.17047344,0.19371006,-0.0077973003,-0.33602557,-0.0066629895,0.1761607,-0.46465498,-0.2612564,0.3032333,-0.29064056,-0.4594384,-0.008795512
/soccer/football_team/current_roster./sports/sports_team_roster/position,-0.005116806,-0.74243104,-0.73612046,-0.7402264,-1.166616,0.28423366,-0.23578148,0.16857252,-0.080367975,-0.34993008,-1.3141601,0.013923983,-0.20361726,-0.19727258,1.1794226,0.008762583,-0.24121736,-0.7407126,-0.047758,-0.21557352,-0.3102405,0.6386521,0.16773571,-0.05860249,-0.60394895,-0.03180448,-1.0269414,-1.0611149,-0.66237676,-0.9021472,0.32821116,-0.23445153,-0.032873653,-0.032100417,0.0062779053,0.004041137,-1.2457207,-0.6345021,-0.6611962,-0.34162113,0.00083728455,0.59132284,-0.0812821,-0.64862645,0.46070585,0.016345114,0.36680347,0.6515902,-0.012910674,-0.12557338,0.6333443,-0.07963299,-0.018539928,-0.20684241,0.20688814,-0.20504522,-1.2945966,0.45210388,-1.0129439,-0.23154193,1.0713125,0.02858547,-1.2944331,0.12150297,0.3112721,-0.0071003744,1.0930858,-0.40309012,0.43040207,-0.9674623,0.4768104,-0.13665868,-0.0036303403,0.002218584,-0.4770338,-0.014417756,-0.11236518,-0.029177625,1.0491511,0.47747338,0.015323499,-1.1254483,-0.020431811,-0.016684888,-1.4397954,0.009430558,0.7205927,-0.0034083587,0.8006072,0.18667832,0.008347942,0.0004733358,-0.015893137,0.08221793,2.0575068,-0.0050214194,0.29094735,-0.23542939,0.0027523942,-0.3045686,0.89719915,0.07605978,-0.4698587,-0.22850604,-0.014625183,1.5372592,-1.0216756,-0.2651837,0.007364357,-0.008276684,-0.12483054,0.9354647,-0.45205763,0.25624153,-0.008773616,0.4296282,0.025773587,0.06899191,-0.34173527,0.07382989,0.23085262,-0.42188308,1.1915818,-0.9995805,0.006250336,-0.4753915,-0.22649162,0.3327345,0.4091326,-0.8115705,0.09148064,-0.33516142,-0.002652667,-1.0022073,1.4217658,0.57297945,-0.2069653,-0.0041308915,-0.02092324,0.28810692,1.2471918,-0.0028119413,-0.8515598,-0.531537,-0.7791916,0.19259286,-0.6905128,0.3997502,0.0073179305,0.32977045,-0.015536984,1.2897196,0.0677148,0.6325524,-0.18045935,-0.05135117,0.17737435,0.04252815,-0.012786902,0.2726366,0.40896752,0.0019510485,0.066942565,-0.24219096,0.9189402,-1.6976538,0.01207589,-0.8980747,1.4578277,-1.7519594,-0.75743335,1.1155163,-0.44736293,0.2871635,0.10172635,-0.33651397,-0.0073704636,-0.3001884,0.6404226,0.005724987,-1.3938432,-0.032362673,1.6692078,-0.13483416,-0.3354314,0.17853719,-0.5840989,-0.14565325,-0.30190223,-0.11977451,0.25517216,0.60369694,-0.24186428,0.5027602,-0.6662504,-0.28571382,0.018223424,-0.14583726,0.7636014,-0.15155447,0.42327702,1.1308583,-0.014477587,-0.02391156,0.15467064,-0.034043483,-1.7359753,0.22734518,-0.43717098,-0.0032149344,-0.29551223,0.23834988,0.011972402,0.045322146,0.79603386,-0.05567241,-0.589272,-0.79256666,0.016839711,0.0028504445,-0.24860413,-0.025066163,0.66637725,0.51889914,-0.0024080507,-0.09542151,-0.9794498,-0.30391818,0.012358512,-0.81932896,-0.77342707,-0.050644934,-0.65722233,-0.0017181335,0.227059,-0.1797288,-0.49544817,-0.027152494,-0.913543,-0.2918834,-0.049298238,0.012636982,0.29415625,0.48282626,0.0009777984,-0.003585412,0.1643633,0.9698823,-0.29638022,-0.416846,-0.1781344,0.009480779,1.0038068,-0.44452477,-0.71422213,-0.24156581
/soccer/football_team/current_roster./soccer/football_roster_position/position,0.022191463,0.4183719,-0.007707142,0.10753642,0.0045229197,0.29657212,-0.82087046,0.00339171,0.17509767,-0.6969858,-0.38437745,0.018183034,-0.013330901,-1.1021618,-0.34551218,-0.548427,-0.024231108,-0.76674974,-0.90047354,-0.13876495,1.0651853,0.0065543833,1.0207893,0.8153869,-0.021146433,-0.4255402,0.24715027,-0.019476773,-1.2362363,0.3741715,0.009009733,4.325764e-05,-0.5413202,0.2722598,-0.26325572,-0.2645541,-0.003471589,-0.8013631,0.0047438173,0.090217955,-0.035409026,-0.1107165,-0.00728053,-0.0063023353,0.3486718,0.016984835,-0.24700676,0.23804925,0.0024591475,-0.007917271,-0.36348826,0.049280792,-0.31000564,0.00034749924,0.19870238,-1.6734813,-0.9990563,0.65247303,-0.108503394,0.043141425,-0.024531271,0.10195217,1.4499114,-1.0223213,0.009429398,0.001698777,-0.84982514,0.8813816,-0.15420435,0.26811153,-0.44961393,-0.1372757,-0.21502604,-0.52178705,-0.2553612,-0.06701298,0.09216992,0.0019745321,0.010384493,0.0040835035,-0.6452196,1.1903626,0.83281815,-0.02798864,0.1236697,-0.51042736,-0.18983312,-0.34930247,0.37155178,0.01839809,-0.04558032,0.013865275,0.001377452,0.22059387,-0.11270146,-0.0015250607,-0.040401276,-1.0415165,-0.40025815,0.9910329,-0.4696585,-0.082073234,2.1099524,0.92424536,0.17088875,0.17782617,-0.16890112,-0.5554426,-0.10673338,-0.00746969,0.51848996,0.020467674,0.12803541,-0.70095104,0.07523228,-0.8460439,-0.38617545,-1.239565,0.53375876,1.2322574,0.014913115,-0.20643975,-0.48006648,-0.026287336,-1.54421,0.55062664,0.4867165,-0.82576567,-0.006429648,0.698909,-0.14820263,-0.07416055,-0.04558597,0.4165688,0.0517785,0.00034753451,1.0653456,0.016558709,-0.23685469,-0.22315703,1.2419052,-0.22436039,0.77114934,0.6066394,-1.5912312,-0.5008391,-0.13776375,-1.5479643,0.081860945,1.1788372,0.12860945,-0.7393136,0.06759862,-0.000569192,-0.6380561,0.0144980475,0.07160555,-0.0027568282,-0.068920374,-0.03937891,2.192343,-0.6935973,0.057053667,0.041913938,0.5198699,-1.3273201,0.029996417,-0.40436378,-0.32845154,0.6338356,-0.2763111,0.7962572,0.08529483,-0.7642406,0.066022255,0.022652227,0.18635651,-0.1570636,0.42469522,0.08415276,-0.08112774,-1.131269,0.017160172,0.0020164954,-0.84262013,0.014589749,-0.014497269,-0.2545306,0.65593815,-1.2667998,-0.046340514,0.3926206,-0.25730807,0.05954785,0.90006995,-0.2639784,-1.1858702,-0.038724795,-0.1157237,0.07545781,1.7459309,-0.052600116,0.016260056,-0.024280712,0.8480621,-0.96005607,0.08466773,-0.029535886,0.013319194,-0.36942014,-0.15537864,-0.2325308,-0.1997561,0.54798514,-0.67218864,0.3775112,-0.73962045,-0.0016909961,0.017475082,0.22847623,-0.73201376,-0.23303273,-0.20386393,0.45744738,-0.38480157,-0.44925413,0.308275,0.5482523,-0.44703597,-0.20837156,0.03912855,0.18227266,0.0119783655,-0.2836779,-0.2035662,0.00040549878,0.612223,0.0069878413,-0.6017219,0.7221641,0.4220664,-0.017121185,0.36256805,-0.17922394,-0.17495319,0.061914425,-0.8380014,-0.005267885,0.662495,-0.5742972,-0.03280222,-0.058768187,0.023568379,-0.011885048,-0.8796015,-0.79147047
/film/actor/film./film/performance/film,1.164588,-0.05378425,-0.13018264,-0.15129392,0.15751822,-0.06010913,0.8203394,-0.13551182,-0.43066362,0.06866494,-0.039388712,-0.03188868,-0.67623705,-0.0006933917,0.037640885,0.026083263,0.008821625,0.10877608,-0.2278931,-0.013848639,-0.020030564,-0.06027239,9.427827e-05,-1.0165827,1.3761662,0.011706453,-0.019087551,-0.005500426,0.57512045,0.21406098,-0.2083488,-0.0044737123,-0.82758856,-0.08158678,-0.025340017,-0.01241617,0.042379268,-0.20661741,0.7330465,-0.010398518,0.015393484,0.0027184924,1.1605923,0.3304677,-1.1167179,-0.038305014,-0.013041448,0.00033225975,-1.3667171,0.00019683836,0.04312816,-0.078207016,-0.0037630028,-0.21079835,0.2942074,-0.2708351,0.006310243,-0.0015847379,0.1089182,0.6877948,0.5677095,-0.52730584,-0.06357474,-1.077859,-0.0069347415,-0.008825274,1.1218942,0.002961285,0.08565876,-0.024015337,0.07859887,-0.004330741,-0.014312873,-0.66640604,0.242225,0.009774406,-0.9464197,0.9509238,-0.006254963,-0.0014026897,-0.84261686,1.0027901,0.08521718,0.009734821,0.004975315,-0.010208485,1.2248979,-0.019982532,-0.23333697,-1.9236966,0.28997537,-0.020724155,-0.7869025,-0.3933378,0.0010091631,0.08140708,0.15340626,0.002142904,0.12161745,0.02192955,0.7970688,0.084782,0.09132934,0.008252275,0.48311344,-0.051307693,-0.005765929,0.2774964,-0.45970008,-0.015045497,0.011807149,0.06670296,-0.0012695426,0.30652446,-0.29150814,1.2141433,-1.1028613,-0.0015971797,0.3138086,-0.55868673,-1.17288,-0.012985578,0.0062560416,-0.6968441,-0.035633318,0.5095322,0.43106127,-0.013936664,0.33550602,-0.0044137565,-0.8780297,0.00048771696,0.11532335,-0.35112366,0.016050445,-0.60921085,0.31979272,0.009863312,-0.4125104,-0.2651492,0.593528,-0.0023320972,-1.556774,-0.6746161,-0.01431073,-0.00035637207,-1.3286618,0.34837738,-0.015363018,0.81783736,-0.03406541,-0.15904781,-0.22627915,-0.008086686,0.03510685,0.037865806,-0.04587869,-0.14990507,0.008308595,-1.5223678,0.09185017,0.011238451,0.5055829,0.039847933,0.8584597,-1.5931556,-0.13591436,0.01248684,0.9656395,1.6904638,-0.011717259,-0.014084159,0.088018,-0.016652528,0.008801484,0.28158695,-0.18046133,-0.18505946,0.0143858455,-0.059973706,-0.0011353547,-0.001782695,0.44096658,-0.6782508,-0.021346832,-0.0035234524,-0.004916144,0.020127052,0.017438974,-0.017092954,-0.14291126,0.0029277783,-0.0010344537,0.05716507,0.0034401412,0.20081581,-0.020445244,-0.25657946,-0.021328239,-0.011938012,-1.401023,-0.0074304976,0.020169728,-0.005517623,0.2131675,0.013667485,0.0029840504,-0.23127507,0.024947083,0.0028948507,0.118653744,-6.119074e-06,-0.0024250504,1.3890598,-0.19541353,0.40880644,0.002713978,0.30848774,-0.00022040227,-0.12875707,-0.5425006,-0.61734855,-0.02135844,-0.1846309,0.49682584,-0.1347468,-0.0055843857,0.5703854,-0.37254333,-0.015435345,0.0073814658,-0.063371226,-0.13051808,0.1454876,-0.2634313,0.2552211,0.1363148,1.334219,-0.040868003,-0.8863213,0.06931224,0.9593124,-0.07619703,-0.30865574,-0.6465516,-0.17878449,0.00794312,-0.014285093,-0.8883378,-0.20986857,-0.031983986,0.34597147,-1.4901173,-0.059514914,-0.11500874,-0.011892063
/award/award_category/nominees./award/award_nomination/nominated_for,0.51595366,-0.36598876,-1.4412166,-1.3650625,0.25943002,1.027331,0.98757297,-0.2701763,-1.6937066,-0.73533684,1.0624025,0.09563228,-0.012250731,-1.7499521,0.112949744,0.12907234,0.081670664,0.090895824,0.01982775,-0.6005344,-0.5194101,-0.82833654,-0.40087283,0.011002663,-0.6468246,0.057955023,-0.11811753,-0.113659106,2.0340092,-0.07198678,-0.6329816,-0.69093436,1.6652026,-0.059268765,0.3880958,-0.07464346,-0.10105349,-0.6082276,1.4841065,0.31570056,-0.17655428,0.35790622,0.15787363,0.06089207,0.04430144,0.1833982,0.61295253,-0.027555805,-0.08322731,-0.09002172,0.035356294,-0.01197458,-0.3108594,-0.08222777,-0.042968474,-0.056398116,-0.02253318,-0.05165306,0.015874239,0.6565738,0.14085566,-0.06862779,0.36378142,-0.053323656,-0.09015042,0.013498038,0.042361036,0.00860681,-0.24558938,0.09275215,0.12312691,0.0048357407,-0.11128304,-0.016723378,0.19282244,0.16537906,0.13626276,-0.12977487,0.6298642,-0.06264491,0.32016864,0.23029003,-0.1818234,0.5283385,-0.14126195,-0.30892003,-0.828523,-1.2364281,0.1687096,-0.63642216,-0.02029451,-0.17418675,-0.10508266,0.05401014,-0.89039296,-0.19761616,-0.7511259,-0.99505115,-0.07786665,0.5134906,-0.6878583,-0.5364644,-0.7168038,-0.06594348,0.06401986,-0.20477623,-0.21929535,-0.2079489,0.09362511,-0.37766957,0.32277593,-1.2720723,-0.98575604,-0.12884954,0.24339142,-0.0023548983,-0.65642333,-0.0575924,0.16121411,0.009360202,-0.648728,-0.12852803,-0.12041233,1.2712262,-0.23328654,0.6420623,0.67799336,-0.14219375,-0.4623447,0.015168946,0.5123464,-0.0013831784,-0.038874026,-0.46182206,-0.50464773,-0.4480147,0.56231344,0.045629885,-0.023631211,0.39326698,0.49919778,-0.08465243,0.092733,-0.118951015,-0.27970955,-0.9792747,-0.27952248,-1.0693209,0.8724794,0.14101334,-0.10435274,-0.7152222,0.030369077,-0.99802,0.5363961,-0.76037836,0.023136148,-0.08714565,-0.44363508,0.6339578,1.1954759,0.018109323,0.5144608,-1.0725453,0.7071657,-1.4282591,0.8484546,1.1344916,0.82717085,-0.037130646,-0.11503274,-1.2041795,0.667182,-0.0030984965,0.0047567105,0.020743752,-0.102984786,0.33725405,0.14129165,0.3666472,0.020929132,-0.036781583,0.037717912,-0.121577136,-1.1393188,0.23835154,0.263554,0.5938276,0.10738408,-0.026000118,0.14397968,-0.055210296,-1.1262288,-0.03152689,-0.0067182574,-0.9928262,0.46297327,-0.2983425,0.012574507,-0.6341949,-0.22878748,-0.0032857992,1.2854455,-0.30891323,-0.25179332,0.70658296,-0.3556555,0.73820376,0.14641525,0.006106472,0.05269871,0.07933732,0.70666164,-1.4806963,0.8966564,-0.21791232,0.033066154,-0.2393805,-0.021721995,-0.032099493,0.04971871,1.6066433,-1.8167081,-0.6330769,-0.15831392,0.34481978,-0.010232992,0.41938487,-0.11853962,-0.7167548,0.967253,-1.1411412,-0.36312053,0.19834885,0.011378031,-0.055183817,-1.1886601,0.05450442,-0.05506695,-0.0069876825,0.885319,-0.7563182,0.021035306,-0.47754738,-0.09907796,0.013566047,-1.2790074,-0.082540065,-0.21901259,-1.2156585,0.005710392,-0.017000543,-2.1783936,0.4504729,-0.09164124,-0.036401562
/award/award_nominee/award_nominations./award/award_nomination/award_nominee,0.0074424464,-0.21761426,0.017844843,-0.0036147232,0.29189196,0.01873371,0.05017513,1.3625653,-0.057358492,-2.1845863,0.039837584,-0.8912344,-0.004571529,-0.028382733,0.0010300252,-0.116669364,0.032226726,0.13641156,0.0049735713,-0.023653116,-0.013785467,0.68221486,0.017029205,0.00022479892,-0.08802797,-0.087168545,-0.052768283,-0.011705976,0.3681894,0.01854476,-0.017138576,0.12588514,-0.7057248,0.85197496,1.7482655,1.0594084,0.42172647,-0.31749323,-0.0012869624,-0.057910606,-0.30366036,-0.27067995,1.8154178,0.09452104,0.006405492,-0.53896177,-0.1269884,-0.013515784,0.44758603,-0.010125454,1.1566517,0.19167264,-0.015609159,0.47190025,-0.61669505,-0.053625003,-0.31408054,0.0022701528,0.2698617,0.008769711,0.025217041,-0.2863427,0.045528196,0.021093937,-0.73271203,-0.21910459,-0.028697172,1.3350087,0.04005636,-0.13966382,-0.45674124,-0.014883688,0.027506655,-0.40099788,0.10397109,0.020152511,-0.006727188,-0.04533122,0.27376094,-0.3260046,1.1597221,-0.027916308,0.2895205,0.9960828,-0.29616076,0.025128646,0.5627958,-0.011058505,-0.047208447,0.6332554,0.17462413,-1.358317,-0.018301016,0.75883645,0.017916061,0.3033302,1.4468812,-0.010008836,-0.71463513,-0.0032520446,0.23208255,-0.013739907,-0.004503957,-0.06871816,-0.26698494,0.046600565,0.26441902,-0.0112279635,0.7731573,0.15136465,0.41331777,0.59802985,0.68450546,0.25662348,-0.014698858,-0.012328278,0.04414423,-1.3674626,0.10335273,-0.47573963,-0.29094377,-0.037210844,-0.24458888,0.009396531,-0.02155535,-0.042942405,1.2183722,-0.37054515,0.020598946,-0.051184073,-0.12888405,-0.18186915,-0.10949129,0.23586117,0.23831755,-0.047216613,-0.0075979237,-0.013649603,-0.0015651715,-1.9602176,-1.2080997,-0.27674398,0.98275024,0.011257301,-0.007912176,-0.25111166,-0.01848476,0.011745035,0.007422667,0.2998989,-0.061461154,-0.005477084,0.042031277,-0.02515693,0.0050105574,0.22549465,-0.21543954,0.007958743,0.39205036,-0.3565544,0.007055351,-0.06650623,0.1268635,0.0125705395,0.040154718,-1.5980233,-0.64909804,0.9789994,0.028162828,0.014656913,-0.40469238,0.6580469,-0.037780367,-1.3648795,-0.33159098,-0.5026271,-0.027657643,-0.022027658,0.064363316,0.1388193,0.3696442,-0.018697357,0.35085446,-0.16156115,-0.039516587,1.1042376,-0.33531365,-0.24413423,0.011612584,-0.023006978,-0.5805139,0.39297447,-0.040349923,-0.0053107743,-0.21629474,0.00892122,-0.27900955,0.025264317,0.015193194,-0.29595372,-0.22392362,-0.1473665,-0.08520724,0.076666884,0.0145589,0.0070373137,-0.033823524,-0.004576269,0.03879029,0.007865689,-0.016367083,0.062065177,0.29018667,0.38967037,0.16239884,0.013452196,-0.015594389,-0.030229539,0.35509598,-0.06116057,-0.01771276,-0.019700127,-0.022230128,0.012043833,-0.060765844,0.010755745,-0.012766705,0.0041047037,0.021937538,0.58241457,0.8383284,-0.7755355,-0.014677505,0.023189252,0.004877252,-0.014078073,-0.097244754,-0.4533868,0.13160102,0.059186205,0.12671153,0.1785896,-0.0071588,-0.21529137,-0.24076527,0.37374836,-0.10623421,0.05379927,-0.18760674,0.026498605,-0.29041824,-0.0047453525,-0.045276612,-0.3278009,-0.57673347,-0.76208967
/music/performance_role/regular_performances./music/group_membership/role,-1.4501302,-0.61115944,-0.19474693,1.0063684,-0.0077395476,-0.06328163,-0.29152244,-0.12593831,1.3938602,-0.082603075,-1.023137,-0.057956148,0.035096545,1.1484795,-0.24516897,-1.8328655,-0.81492716,0.336036,-0.30073965,0.047882948,0.05404047,0.35769758,-0.04217838,-0.07614776,0.21375027,0.74708813,-0.6089008,0.7758861,0.8776921,-0.17177223,-0.05931833,0.0055864234,-0.121089,0.003765775,1.7088618,0.24590532,-0.9040135,-0.37768045,-0.09732347,-1.087869,0.24467023,-0.057972275,0.06624814,0.21349522,0.38487855,-0.5615647,0.8542806,-0.00054722885,0.70727265,0.05057383,-0.33723402,0.1440505,0.9077907,-0.29497164,-0.023099415,0.30537924,-0.47872818,-0.2236975,-0.23553999,0.6749642,0.06595851,-1.1425316,-1.3271077,0.43919888,-0.17406833,-0.51201475,-1.3409628,0.017609598,-0.41309685,0.040241722,-1.365188,-1.2390807,-0.024943033,0.2731023,0.24012767,0.047349803,-0.20632872,-0.107498355,-0.20014793,-0.6218969,-0.00944674,-0.41166565,-0.7365223,0.15179168,-0.21117052,0.37879923,0.049432285,-0.041291397,-0.33035377,-0.005307297,0.02676602,0.2517822,-0.07175672,-0.0034084832,0.19130327,-0.46839055,0.03499849,-0.026870247,0.6745178,-0.098284215,-0.12099579,0.6914296,-0.34153134,-0.13244592,-0.06340402,-0.10952928,-0.87217623,-0.20547253,-0.8301061,-0.8264155,0.022163006,-0.2755411,-1.1151894,-0.038461253,-0.1007571,0.36927754,0.26289877,-0.025939561,-1.0144982,-0.19643998,-0.8100525,-0.037472863,0.43372697,0.16104707,-0.58672327,1.2154268,0.11127783,-1.1437008,0.7779586,0.45359665,0.60503095,-0.36794907,-1.0248458,0.2403011,0.015962034,-0.06176779,1.4442025,0.22695857,-0.024534332,0.8147959,-0.117043756,-0.3053767,0.012230973,0.33882907,0.6450968,-0.44830173,1.1711534,0.04832244,0.80581033,0.7677683,0.91375375,-0.5060353,-0.010956556,0.30984926,0.3441123,0.23553626,-0.07592063,-0.7703248,0.033396572,-0.04418485,-0.15707916,0.56525946,1.2253042,-1.0124373,0.23350304,-0.9926683,-0.06498128,-0.2727852,-0.7560023,-0.03283607,-0.044848833,-0.61720884,0.890347,-0.07255708,7.8271965e-05,0.20679414,-0.13419944,0.12642314,0.31043452,0.37478977,-0.05385208,-0.572655,0.19165328,-0.28897247,0.8863649,0.3302096,-0.61310595,0.29647973,0.87845325,-0.9849602,0.29751644,-0.02869402,-0.011879427,0.67908037,0.25252628,-0.9278315,2.334957,-0.013649601,0.054626532,1.2247713,0.809575,0.5153272,0.017751848,-0.7601717,-0.27823958,0.9952533,-0.054635018,-0.36230522,-1.6635988,-0.49128842,0.5572046,0.09641107,1.1805681,-0.50426465,0.12196065,-0.0012887057,-1.4362919,-0.071224384,-0.36768296,-0.015471028,-0.030462123,0.4103311,1.0827612,0.1417386,0.2941255,0.060913544,0.112853736,0.030099554,0.23861271,-0.65547454,-0.04564663,0.91982573,-0.054492194,-0.18290597,0.016452454,-0.11489823,0.82367337,-0.5242799,0.18065414,0.033239167,-0.7316995,-0.026138965,-0.7642586,-1.208552,-0.03643701,-0.011492051,0.6256819,0.03305064,-0.19247422,0.6674479,0.8958674,-1.3325336,0.4860278,-0.04526057,0.28408808,0.1370971
/award/award_category/winners./award/award_honor/ceremony,0.04117226,-0.044274807,0.035447948,0.001453033,-0.3020777,-1.0882306,-0.1426818,-0.72810763,0.8838083,-0.0126231685,0.036899004,-0.36086968,0.042828124,-0.6592094,1.1397483,-0.19370455,-0.30167758,1.1963806,0.42283723,-0.0034240475,-0.52009547,0.010522033,0.3696933,-0.045020804,0.90694135,0.71428734,0.82716763,-1.1709024,0.7060054,0.5197223,0.3798211,1.0877402,0.08563795,0.8036777,-2.351612,-0.60500014,-0.17089662,-0.36444342,-0.061066914,0.122204125,-0.88487905,-0.034422897,0.013030009,-0.1594059,-0.001437857,-1.1612271,0.71573013,0.0004297187,1.8773618,0.033130914,0.06679569,0.0045089414,-0.43651894,-1.1731516,-0.025176462,0.011179522,0.11947466,-0.012867632,-1.1867672,-0.73626,1.3251475,1.3871294,-0.21236688,-0.40987518,1.3328102,0.5032768,-0.04327448,-0.5664111,0.55615413,-0.81174046,-0.72674644,-0.00388816,0.03743928,0.28417096,0.008728623,0.4917391,-1.7811306,0.10949842,0.0071860473,0.50806135,0.20818835,-0.03518751,-0.017918618,0.46704122,-0.2874146,0.9965318,2.0417428,-0.604413,-1.1088903,-0.022287639,0.2722296,-0.97639793,-0.386531,-1.0267767,-0.0027067298,0.36779472,0.025279544,0.3768876,-0.030880615,0.20568646,-0.69271845,0.9523442,-0.05370481,-0.034968376,-0.02204307,1.3781995,-0.9335396,0.6992043,1.8802773,0.0391624,0.0378953,2.2778146,-0.77805394,-0.97651786,0.7707069,-0.1925923,-1.6035321,0.01842001,-0.07946148,-0.34151116,-0.7949367,-0.63352865,-0.06639627,1.6871862,-0.39614856,-0.00070043135,0.55640376,-0.08641074,1.1680422,0.024684297,0.009706928,1.6847351,-0.3424293,0.31116557,0.20549667,-0.32908243,-0.103734985,0.763287,-0.2907786,0.0068430942,-1.3631649,0.33645207,0.14281498,0.852393,0.002053535,-0.2539331,-0.084498204,1.6562293,-0.085549094,0.017215619,1.0456429,0.14032659,0.73453593,-0.019984402,0.9862744,0.24322404,0.34457684,-0.00026140088,-0.42099455,0.012021487,0.020822126,0.30946252,0.12266674,0.053831253,0.028737636,-1.3600624,-0.2012066,-0.06794697,-1.1569444,0.01838268,0.012726853,-0.034278527,-1.0216076,0.6026199,0.0011951651,-0.823948,-0.025731,-0.43826482,-0.438853,-0.5772249,0.6056849,0.31272447,-0.45353672,0.016460232,-2.12635,0.7114855,-0.07239494,-0.39205462,-0.11207502,-0.029650152,0.39690897,0.0004008556,0.19197728,0.27981973,-1.275851,-0.89798516,-1.6418546,-0.024734538,0.034824025,-0.75587296,-0.09967198,-0.2639068,-0.0014131934,0.19072491,1.1085148,0.012496734,-1.1496803,-1.7553248,0.30082798,2.2597108,1.7309185,0.9636197,0.6794506,0.09049487,-0.111091375,-0.15386164,-0.0018803822,1.703624,1.048737,0.24077065,-0.022533309,-0.031367123,0.0134370085,0.068906076,-0.00036363743,-0.026298225,0.6214959,0.95275104,0.51605666,-0.09889041,-1.6664124,-0.01050471,-0.0059997356,-0.55121464,0.26016253,0.52048564,0.03254202,0.0062742126,-0.6177379,-0.00990716,0.14440073,1.2066807,0.39322072,-0.71923673,-0.034622893,-1.4923726,-0.3532146,-0.83613837,-0.01846665,-0.09959396,0.010537814,0.37495646,-1.691647,-0.18887416,-1.1564173,-0.26736322
/film/film/release_date_s./film/film_regional_release_date/film_release_distribution_medium,-0.82124555,0.28828916,-0.11957395,1.2500255,-0.009127689,0.015636113,-0.45222202,-0.007839122,-0.12369091,-0.33374336,-0.03272783,0.71985674,0.36570346,-0.311384,0.0049951007,-0.82084733,-0.8330156,0.3790362,-0.479884,-0.23409547,-0.4770938,-0.48360038,1.8820906,-0.02578946,0.21509776,-0.13200273,-0.02708071,-0.0065571005,0.7821417,-0.37657654,0.8613341,-0.061049063,0.8421087,-0.44648847,0.94576746,0.028697731,0.0054128543,-0.2949218,-0.035054408,0.0118897585,-0.20039424,0.0712393,-0.016059533,-1.0933633,0.35960093,0.28970072,-0.064807236,0.84847033,-0.010725116,0.23939024,-0.17549264,-0.033000726,-0.00507774,-1.4955041,0.95162845,0.68201345,0.8095562,0.24549915,-0.0019390438,-0.010239777,0.34341365,-0.043631967,-0.1683812,-0.2707599,-0.21354547,0.12268617,0.0074159326,-0.5005986,-0.0112857185,-2.4843001,1.0485209,-0.13803986,-0.4975743,0.030233989,-0.6676191,-0.3762337,-0.33158422,-0.12607759,-0.02982309,-0.8673792,-0.004492292,0.5775179,-0.0586331,0.1338412,-0.2725841,0.4308297,0.02550369,0.70861614,-0.23955815,-0.94313717,-0.0048073204,-1.6873237,0.0004068176,-0.51833606,0.00491617,-0.10216742,0.22670463,0.11649237,0.8506581,-0.02303761,-0.20066053,-0.037463643,-0.39184788,0.006549494,0.0036149258,-0.26372024,-0.089999095,-0.0092845,-0.0034228924,0.01733566,0.019169936,0.29949236,0.29620358,0.8661393,-0.22844914,-0.06574682,-0.022281174,-0.00042661047,-0.20608252,0.0040124487,0.010838876,0.0073027955,-0.009327635,1.5888941,-0.8733015,-0.02899275,-0.019466478,0.010837208,-0.019098006,1.088852,-0.10243174,-0.29936805,0.0012985626,0.66303194,-0.23520726,0.94884634,-0.0036506753,0.36801472,0.028806498,-0.004498589,-0.013992993,-0.23864174,-0.29217467,-0.054589182,-0.7565387,0.020013258,-0.8198661,0.8032437,-0.07449408,0.3315759,0.2523493,-0.7821656,0.22818731,0.010430102,-0.6031925,-0.006855545,-0.6159791,0.09180465,-0.020066308,0.3365527,0.035302915,0.77117217,0.45651627,-0.0019780176,-0.0028853992,-1.563811,0.0047795214,0.15082316,0.01098881,0.0017689499,0.016802674,0.118769675,-0.5439053,-0.14727959,0.1466112,0.14094028,-0.0065121283,-0.56937236,-0.08315493,0.060749736,-0.15911569,-0.019028403,0.36749005,-0.0026932838,-0.7201941,-0.0005453353,-0.01681974,-0.3021527,0.3209568,0.010992009,0.035696186,0.77933455,-0.25286224,-0.12561487,-0.320442,-0.03255422,-0.35890117,-0.17378625,-2.0300987,-0.040699292,0.36060685,0.41311797,-0.011718248,0.27763623,1.2141527,-0.9842768,-0.2171617,-0.22439301,0.33039495,0.16316357,-0.35815004,-0.018854495,-0.5175871,-0.39026278,-0.6971003,0.019371515,0.2703149,0.13704045,0.011239716,-0.004694001,0.007848047,-0.44824383,0.0029498755,-0.00364107,0.6011866,0.13929525,-0.89581096,-0.030774599,0.30814165,-0.8634766,0.3812815,0.35014808,0.006271044,0.2427563,-0.0053669275,0.025610343,-0.7004213,0.06916767,0.83363205,-0.014298312,-0.013233176,0.21269529,-0.018653616,0.046879258,-0.097109415,-0.2933697,-1.0095754,0.22691233,0.40726748,0.0065494636,0.015707957,0.41653752,-0.3920132,0.78852236,-0.4384253,0.024035774
/award/award_winning_work/awards_won./award/award_honor/award_winner,0.25818998,-0.29730377,1.1092865,0.005293877,0.44451526,-0.036621768,0.029387271,0.115107134,0.20790134,-0.028544508,-0.53216094,-0.78925335,0.003298222,-0.81487924,-0.7450472,-0.065488406,0.98025423,-1.4665172,-0.012126382,-0.011486076,-0.1274472,-1.6750127,-1.0616107,0.0026522598,-0.07751945,0.059505247,-0.100774504,0.10952912,-0.69430345,0.006634708,-0.09460865,-0.02077369,-0.39940402,-1.1927135,-0.0099494,-1.3427899,-0.67927665,-0.420327,-0.03966615,-0.0069646947,-0.036196914,-0.46306482,0.002691717,-1.1630259,-0.7514462,-0.021316621,-0.010171467,0.29236048,-0.085754186,0.015458097,-0.721687,-0.19668269,-0.2672284,0.063186795,-0.37226528,-0.014977518,0.06584988,0.37820306,-1.0073335,1.0279284,0.11372153,-0.06311792,0.5022293,0.068794556,-0.1648214,-0.730864,0.85530126,0.087787375,0.0046072816,0.027469054,0.14356104,-0.27122688,-0.00055240584,0.5427362,-0.27622685,-0.2804732,0.018052641,-0.012500533,-0.0131670395,-0.009486487,-0.039513946,-0.0066614207,0.010823963,0.6582441,-0.2549343,0.52272916,-1.0403357,0.39986804,0.19422457,-0.13124487,-0.22966066,-0.0409667,-0.2628487,0.50146866,-0.13694063,0.16633272,0.018599663,-0.0080699,0.72798735,0.01120393,0.25909042,-0.588521,-0.75900453,-0.0369089,0.08749086,-0.012856568,0.030078767,-0.03020793,0.0226908,-1.1028537,-0.20284034,0.6833112,-0.0064231474,-0.015820846,-0.5448452,0.14476734,0.0130671365,0.0050949277,0.03713222,-0.20202719,0.73634917,-0.009166317,0.0108322175,0.012626009,0.15458547,1.5004351,0.28142905,-0.13346827,0.068307295,0.06370881,0.52629536,1.5075434,0.007960125,0.3273128,0.0004623922,-0.12375868,-0.027980411,-0.061563794,0.05100366,1.6851466,0.631389,-0.0031967512,-1.272598,0.19405414,0.4139549,-1.1930835,0.23633058,-0.0021653927,0.17898522,0.3577811,0.23833023,0.12789509,0.09145135,-0.70771796,0.061097167,-0.018244112,0.12973227,0.6974303,0.07553172,0.12899834,0.013768473,-0.13819835,-0.029865112,-0.525375,0.54308945,-0.781445,0.73193496,-0.98971933,-0.2115492,-0.28159752,-0.09501003,-0.37795734,0.29085115,0.15407668,-0.009531611,1.1017405,-0.015626721,0.33201712,1.1138091,-0.0043374104,-0.32048565,-0.00976395,0.0031702996,-0.2989055,0.13133948,0.02270839,-0.5634015,-0.68100095,0.0056187217,-0.018981995,1.5794895,0.37585956,0.0061052274,-0.010379581,-0.475818,0.009906754,0.06293765,0.89165175,0.02236504,0.00893843,0.008045427,-0.0046049915,0.6782297,0.87467134,-0.011122059,-0.0016441578,-0.3330581,0.017284466,0.014126688,-0.55716646,-0.023041,0.0051457924,-0.031536013,-0.026917797,0.5810778,-0.013672145,1.2185662,0.5372568,-0.0025686354,0.8562036,-0.005425962,-0.28190762,-0.017664626,0.07750582,0.008970872,0.31053862,0.009678755,-0.37523025,1.2370508,-0.48132116,0.03228468,0.34917346,-0.044343103,-0.01439207,-0.017426515,0.48634788,-0.11293209,0.10457434,0.02539217,-0.0832905,-1.3599905,-0.01893681,-1.4163742,-0.008750361,-0.2717633,-0.008820592,-0.4766046,0.5108732,-0.1664866,0.0032269696,1.5904406,0.025943793,-0.0014927859,-0.62435156,0.62845474,-0.04011616
/film/film/release_date_s./film/film_regional_release_date/film_release_region,0.6403985,0.009368298,-0.3138683,1.4689322,-0.11195534,0.08194403,-0.28304312,-0.08772779,-0.590334,-0.06279793,-0.2725743,0.67889524,-0.0025139803,-0.008624539,-0.02938481,-0.46048945,-0.0021301636,-1.1285967,-0.007262794,-0.048598025,0.01073558,-0.58313286,0.1506955,0.51839495,0.5717563,0.13247506,-0.14510745,-0.017047238,0.81875956,-1.6837155,-0.008878162,-0.016138826,0.15451282,-0.086933345,-0.017573543,0.84806955,-0.35908017,-0.6992639,1.2434281,-0.19960015,2.6475945,-0.034212366,-0.9062885,-0.49574706,1.2426288,-0.080612905,0.009827489,-1.3802679,1.6874287,-0.062551565,-0.017044276,-0.60701895,0.15706857,0.06578351,-0.37607458,-0.04617825,0.7311034,0.41954777,-0.11047596,-0.8077101,0.009662541,-1.5498492,-0.37846574,1.11775,0.48340267,0.03501223,-0.022610651,0.0074944342,-0.14898384,-0.009595338,0.4814421,-0.31324008,-0.014772559,0.107627064,-0.3616888,1.4325639,0.24423185,-0.3811195,1.2409761,-1.4165714,0.76004213,0.10381661,0.09770618,0.041200098,0.7973068,-0.15271884,-0.11766174,-0.88218164,0.72499496,-0.68397576,0.28489804,0.24209765,-0.04495596,-0.0023265197,-0.00035600568,0.0016576236,0.013310998,0.49837226,-1.4078305,0.34265137,0.17365149,0.68630445,-0.013760749,-0.49011388,-0.8883253,-0.0099185705,0.0038312676,0.0040724888,-0.020588519,1.328072,0.1887537,0.34798416,0.20110446,-0.03620135,0.35497874,-0.0062259785,1.1764404,0.009177081,0.08537285,-0.0010895979,-0.0592507,-0.62882966,-0.09445937,0.037767094,1.2528268,-0.11901418,-0.09415776,-0.011280523,0.005234015,0.0024285365,-0.007570001,-0.12190793,-1.4400554,0.8416225,0.010128538,-0.028860265,-0.36019206,-0.011857457,0.12331949,1.1471941,1.0094185,0.17120966,0.018435951,0.79648226,-0.02355589,-0.21247959,1.8517913,0.010549515,0.0049161613,0.3994453,1.6800245,0.55561644,9.350284e-05,-0.3941754,-0.0017079568,-0.3176769,-0.58620894,-0.70044327,0.30749246,0.017359182,0.33456472,-0.17796837,-0.2222351,-0.3604029,-0.0010241016,-1.4807206,-0.41379377,-0.00015528082,0.66000575,-0.020487739,0.035801496,-0.069439776,1.9061642,1.6219872,-1.8929639,-0.13482016,-0.028720213,0.29957324,-0.073704705,-0.46231574,-0.01989955,-0.004450234,-0.1174637,-0.009123394,0.8015067,-0.031713877,-0.04889551,-0.1883731,-0.036997896,0.31278566,0.02330806,-0.032744963,1.0319928,0.008623757,0.18969975,-2.4595985,-0.022345949,-0.5372259,-0.026210293,0.31220236,-1.0608972,0.96939385,0.067994654,0.18316863,-0.9579596,0.0061633196,-0.03873678,0.0069305273,-0.83777475,-0.074960686,0.5074418,0.012444885,0.071152,-0.14926456,0.19972801,-1.1478335,-0.007896584,-0.026734294,-0.0034703626,-0.14524561,0.7052096,0.45581645,-0.39294168,0.76060975,-0.0037950613,0.00532214,0.0023071058,0.39023718,-0.02029174,-0.014147947,0.94770145,0.09214395,-0.48945734,-0.010652083,0.019720215,0.14205326,0.013501009,0.9713307,0.10930352,0.0023565283,-0.06335986,-0.012936497,0.39096305,0.521249,0.30808875,-0.20807384,-0.24283312,-0.37897906,-0.6614953,0.9357828,0.13554427,0.074077465,-0.82892805,-0.1095298,0.5822758,0.008519037
/film/film/language,0.11216244,-0.04799843,-0.053506427,0.40590128,-0.4153866,-0.43034294,0.31534514,0.095566936,-0.02216774,0.7745109,0.010315917,0.23431583,0.10127877,-0.006328195,1.1767728,-0.020455986,0.59505385,-0.010390347,0.02370928,-1.554872,0.20100664,0.91210824,-0.22346161,-0.09442932,0.0028768294,0.6835792,-0.13077036,-0.002827349,-0.3497578,-0.0015185863,-0.11851015,-0.04876218,0.053014945,-0.85707814,0.5512301,-0.0029991074,-0.25132924,-0.4314262,-0.7450486,-0.0041623134,0.0003956717,-0.0031204615,0.10911636,0.63018113,0.08265292,-0.6520067,0.66708314,-0.57396996,-0.8255457,1.0537862,-0.007543808,-0.5691202,0.0035132156,0.22543804,-0.55462337,-0.56172216,0.09172182,-0.06567098,-0.12277828,0.44549006,0.20862086,-1.201783,0.6366263,0.0008201913,-0.005868553,-0.2052381,0.006719019,-0.0239519,-0.05424986,0.2751622,0.53839123,0.003857421,-0.111459486,-0.5909238,-0.010122895,0.7946784,-0.018177783,-1.2110771,-0.010333678,-0.41631627,0.35716295,-0.21460558,1.1062196,0.27988756,-0.040150058,-0.013488811,0.081549995,0.04449259,0.011578647,-0.27603087,-0.00177353,-0.0061265617,-0.68653435,0.3300438,-0.12543811,0.6276331,0.59183985,-0.24111761,0.06936473,0.2765642,0.010222396,0.22859779,0.24190363,-0.25693047,0.00991537,0.5953598,0.01315821,-0.19738719,0.033705745,0.08366308,0.52842575,0.051983293,0.271269,-0.32843155,0.023986412,-0.0058871526,-0.002885326,0.27720952,1.3450056,0.018352298,0.2205708,-1.2310201,0.032872632,0.92685413,0.01956571,-0.19746238,0.2544985,0.18204848,0.6886905,1.2615921,-0.0077748485,-0.28476858,-0.008654574,-0.49371067,0.19277732,-0.0051266016,0.93012506,-0.1092422,0.05782681,0.0050817113,-0.017285792,1.6191261,0.02420417,-0.018418157,0.003888806,0.20402548,0.93793404,0.07937881,0.4000951,0.0038768882,1.5139128,-0.6103963,0.011236661,-0.02951974,0.0130953,0.080129854,-0.29633108,-0.0020289011,-0.015696324,-1.0511994,-0.26680383,0.015017396,-0.013167086,0.43114078,-0.07102925,-1.0376093,0.0071022827,0.16460013,0.025046067,0.0037496772,-0.5425366,-0.012656287,0.5156178,-0.5642121,-0.530874,-0.70247227,-0.09094948,0.0121792285,0.39183375,-1.0499803,0.65863353,-0.9750031,-0.5191041,0.47324765,-0.79389405,-0.33534822,-0.47794738,0.0024791455,-0.012648546,0.0010650031,0.022333639,-0.2516761,-0.0018915212,-0.30642664,-0.011211283,-1.7514006,-0.039996747,-0.49288806,-0.19274887,-0.008902211,0.026761413,0.49152717,0.6116753,0.9104627,-0.12939176,-0.006903102,-0.004976607,-0.0016651116,0.000645313,0.036124803,0.2996779,0.0953805,-0.0058440436,-0.8612144,0.075463526,-0.0153563,0.36895388,-0.021022093,-0.023814235,-0.5284978,-0.520491,-0.2247035,0.46316248,-0.004613873,0.003911145,-0.70511883,0.4542542,0.22975455,-0.7061189,-0.44251084,-0.4941706,0.22772153,-0.0051532066,-0.015889078,-0.05577235,-0.012481727,-0.31442547,0.9922888,0.46609902,0.19820021,0.5377723,-0.046446603,-0.030728197,0.20730074,0.07378441,0.008372626,0.20998971,-0.026155606,0.14490908,0.06253173,-1.3374133,-0.0025457477,0.10600009,-0.00025407464,0.19753297,-0.0058918637
/location/location/contains,-0.977099,0.7878098,0.0004295618,0.0073375423,-0.10534434,0.21073346,0.49090815,0.33747384,0.19085234,-0.012245266,0.18913984,0.12528332,-0.02357293,-0.005468798,0.030264724,-0.020900445,0.005084469,-0.7333183,-0.0064597805,0.3467053,-0.6671065,0.14741367,-0.0019243903,-0.0064481306,0.0058788173,0.008646542,1.0229425,0.16683109,0.1589941,-0.014888724,-0.012600633,0.045123264,-0.032247372,-0.012720996,0.4740649,-0.9776758,-0.40964222,0.65825063,-0.028760476,-0.093338236,0.018285565,-0.01572019,-0.074433476,-0.19448446,-0.07152444,-0.7059667,-2.0153635,-0.91782475,-0.008985684,0.020976452,0.009338898,-0.04796294,0.2662914,-0.9829739,-2.7755616,-0.014285037,-1.385233,-0.0024741674,-0.18352686,0.11225214,-0.0065021263,0.011002518,-0.28575498,-0.031398587,-0.0033058599,0.1237281,0.7933401,-0.009446557,-0.6031983,-0.5041502,-0.9523899,-0.005236913,-0.033530615,-0.034963354,-0.48343104,0.0835783,0.00038612066,-0.0438092,-0.468484,0.23908222,-0.7668186,-0.1191365,-0.0067501157,0.3159159,1.2971425,-0.796555,-2.0647712,-0.032940008,-0.17429465,0.018777166,0.00434986,-0.24764231,0.14325568,0.18505879,0.019938895,0.08903182,0.76125765,0.0020179034,-0.2203793,-0.33319184,-0.15847485,-0.08844535,-0.005380759,-0.08997459,-0.004697563,0.2952577,0.46519387,0.107038744,0.024700096,0.15523809,0.021457141,-0.06950971,-0.003927152,-1.4893489,0.013925633,0.00609161,0.44120315,0.7984763,-0.42627132,-0.1164058,0.91574425,0.73506314,0.0077420888,-0.20218772,-0.3275464,0.005738099,1.764157,-1.868309,-0.13534708,0.2730315,-0.15075244,-0.005206335,0.41348988,-0.77812725,0.8804725,-0.7653015,-0.0069566015,-0.4379233,0.07393046,0.5000866,0.405633,-0.006966711,-0.08299594,-0.03333189,-0.7612583,0.03909758,0.032840364,-0.04773691,0.14709003,0.009514152,0.42386672,-0.8397614,0.05983784,-0.00971883,0.0021414023,0.005074666,0.30650195,-0.9836163,0.5134758,-0.3073447,-0.025656613,-0.15102409,0.2775669,0.010045094,0.01206345,-0.76296586,-0.7389074,0.590386,0.5603411,-0.016992116,0.07292645,-0.0199433,-0.0009953923,-0.483605,0.13164453,-0.013423686,-0.077594444,-0.16233715,-0.06313793,0.26103196,-1.1979767,-0.6079146,0.0017249928,0.2828353,-0.7962578,0.48332888,-0.02909805,-0.6858798,0.31692198,0.006028456,-0.50989854,0.2116261,-1.0991584,0.32710555,-1.8471776,-0.009180466,0.2758698,-0.010853959,0.39164975,0.007326572,0.24374044,-0.45100215,-1.0008129,-0.12986208,0.23088758,-0.016281363,-0.013895497,0.0062547,-0.0069403583,0.3513573,-0.9358611,0.7294766,0.21130763,-0.38805792,0.05260893,-0.5665245,-0.0051523726,0.018362122,0.014810776,-0.6475198,0.008601486,0.22891293,0.31808162,0.009580653,-0.09972231,-0.14775348,-0.7464598,0.2918901,-0.009198846,-0.22949567,1.1187881,0.04197223,-0.16112277,-0.6961021,0.07071922,0.1006005,1.7992455,0.08149619,1.5609026,-0.038829777,-1.0631953,-0.39280924,0.0042793946,-0.011991027,-0.3966257,0.083109945,-0.0023673503,0.06325855,-0.01580318,-1.0760424,-0.03548095,0.0004783297,-0.3212426,-1.5357622,-0.6846599,-0.025672927
/organization/organization/headquarters./location/mailing_address/country,0.9368079,-0.46867254,-0.8688579,-0.00528083,-0.01402942,-1.4698734,-0.017062757,0.045701157,-0.55363196,-0.4235866,0.64948857,-1.4366246,-0.2928415,0.7279826,0.6234549,-0.27683842,0.7341746,0.5238793,-0.5431831,-0.37763917,-0.232713,0.27747712,-0.22386204,0.73789376,-0.57571423,0.14228734,-0.3018884,-0.5756075,0.0078381635,-0.48439088,0.6223893,-0.3346872,-0.11392423,0.30981547,-0.21501908,0.0362397,-0.28186694,-0.24485949,0.1874613,-0.66092366,-0.022166234,0.2592524,1.5181084,-1.4913614,-0.094010174,-0.23182297,-0.6783011,-0.007581713,0.8755003,0.036437042,0.22439268,-1.0514517,-1.4043005,0.04181662,-1.1773388,-0.9197038,0.023606619,0.082132205,0.4426974,-0.75385153,-0.2437938,0.11615481,0.123491764,0.035802845,0.4559475,-0.0026331302,-0.23173055,-0.7299282,0.24914788,0.15763305,-1.3564377,0.04472357,-0.05751871,0.036474038,-0.06335086,-0.15797952,0.0057445057,0.03222918,2.2042987,1.2979571,0.059351586,-0.7333338,-0.38673884,-0.0881963,-0.94836634,0.78028166,0.14507557,-0.1929094,-0.08826354,-0.011420209,0.015916212,1.098998,0.018382339,-1.1786897,-0.012439004,0.3722225,0.112728305,1.0281616,-0.03445359,-0.03284793,-0.25964975,0.02554685,-0.6321027,-0.19371715,-0.69249094,0.09782407,-0.037830938,0.8194394,0.027116414,0.015014831,-0.79853964,0.74269456,0.124245904,-0.027561486,1.6152964,0.36219886,-0.07132624,-0.008475224,-0.026406782,0.6359644,-0.3168965,-1.0343858,-0.0038487231,0.41945958,-0.06614765,0.15144815,0.15120761,-0.1679583,-0.012442209,-0.5061663,-1.1809313,0.37453547,-0.29045168,-0.23590125,0.18814269,-0.26784852,0.46721444,-0.009562559,0.013967939,-0.027897632,0.00059823506,0.25234956,-0.45556533,-0.4067016,0.038794167,1.0446508,0.030089477,-0.9398309,-0.03878009,-1.0586678,-0.0069133,-0.010920032,-0.33424142,0.053363685,0.020635048,0.42302465,-0.16217554,-0.14490739,2.8782544,-0.009597938,0.008437839,-0.7781037,-0.021706095,0.6881387,0.07642014,-0.9955927,-0.41630617,1.334851,0.8035095,-0.024499476,-0.014750768,0.1101543,0.66013217,0.030444695,0.17073111,-0.5541675,-0.4593761,0.006111623,0.13947445,0.7320436,-0.18585044,-0.15735264,0.023329718,0.6904902,-0.08776722,-0.233651,-0.023007879,0.23168273,0.1647352,-0.7067515,0.25704432,-0.17864035,-1.6782498,-0.49708256,1.189016,-0.012325834,0.7611235,0.02020507,1.2057368,0.27541226,-0.72452515,0.7780622,-0.6744901,0.86971676,0.43696246,0.07863665,0.4240274,0.028789882,-0.09136573,0.45893738,-0.09828509,0.0047647124,0.07811165,0.7902518,0.76884395,-0.025116608,0.2738028,-0.05067076,0.90173423,0.1566607,-0.2789707,1.1262891,0.011537263,-0.052339714,0.03982686,1.3957222,-0.2166261,0.06886858,-0.0024145753,-0.119390994,-0.02992881,-0.1392506,0.03680924,0.6138877,-0.3585105,-0.08616228,0.12057492,0.21581139,-0.08657749,-0.09247359,-0.18619645,0.028030623,-0.04666604,0.07786986,0.079132885,-0.106197536,0.037967976,0.7997889,0.21773958,-0.24854736,-1.8634051,0.5570058,0.12151317,0.19386227,-0.53427637,0.07171824
/people/person/profession,0.15714131,0.11200229,0.06957981,-0.16661753,0.48935464,-0.20233773,1.5892758,-0.008305085,-1.1656605,0.010954618,0.0006883675,-0.014566912,0.37907085,0.15613748,-0.4035524,0.72759426,-0.005157962,-0.26760283,0.84131545,0.00037528243,0.45612422,0.5610074,-0.012200374,-0.03217613,-0.0054044994,-0.009656328,0.26259848,-0.33144996,-0.0028718866,0.57918495,-0.25443533,-0.30350652,-0.006594973,0.18910357,0.28188282,-0.35173875,0.0059991507,-0.33402595,0.010022544,-0.17976637,-0.0057830736,-0.8231456,0.10951036,0.027688047,-0.004248393,-0.012614555,0.81302506,0.15706559,0.83265156,0.7276918,-0.00020735475,-0.07105914,0.08169485,-0.2585197,-0.00870345,-0.008176201,-0.0068501737,-0.000562584,0.020841336,0.028565984,0.5498704,-0.083705366,-0.0074857064,1.0299956,0.16875607,0.0067861406,-0.53505766,-0.027130295,-0.85724086,-0.015139521,0.021648694,0.3538584,0.021133978,-0.03762986,-0.0016864793,-0.02859181,1.2867258,0.046985045,0.011618559,-0.0037555294,0.040049557,-1.3788463,-0.0020478317,0.0018472573,-0.72184426,0.004101854,0.47708273,-0.20963363,0.004344394,0.04987609,-0.113772325,-0.8780453,0.5403042,0.43440628,0.39858684,0.08075799,-0.0072584655,-0.06255123,0.41367742,0.67333794,-0.0052732946,0.23364839,-0.004618588,-0.11491984,0.021426098,-0.5426809,0.51150495,0.8762962,-0.0033366128,-0.012834954,-0.022170473,-1.02697,-0.35232055,0.14259812,0.65037495,-0.29093257,0.60996336,0.9140384,-0.011433732,0.35247397,0.3107159,-0.26942638,0.030270133,0.75843644,-0.00028761162,0.113908835,-0.06379319,0.07632927,-0.590789,-0.633081,0.32057112,-0.9318224,0.50572443,0.0017018418,-0.0021631815,-0.19511075,1.3774256,0.0037083556,-0.054266527,-0.14863738,-0.01707921,-0.004811586,0.614935,-0.07441962,-0.032747023,-0.84360474,-0.0005114309,-1.156572,0.05813897,2.5017617,-0.03259158,0.04431723,0.0032758869,-0.47132224,1.6232631,-0.0664978,0.022137333,0.27111566,-0.004670263,-0.0044391286,-0.0034187222,-0.3454244,0.020549895,-0.5019396,-1.190506,-1.7930987,-0.8060988,-0.0030667642,0.0008429822,0.083946176,0.0064363447,-0.034071222,0.23955256,-0.08771987,-0.81809,-0.001481768,0.7783706,-0.20536847,0.53382736,0.009947385,0.53214884,0.0019992744,0.5405857,-1.1809466,0.48917446,0.0041415035,0.00029101313,-0.020749018,0.20807084,-0.020951755,1.3714465,0.013939703,-0.06133403,-0.36059734,1.3683058,0.2129814,0.008024319,-0.0036909885,0.0064251767,0.0040131616,-0.15019388,-0.31364655,0.2886451,0.0069141705,-0.19496535,-0.00262584,0.21514587,-0.012677429,0.24390793,-0.004302125,-0.63203406,0.089010105,0.0028382945,0.016168552,-0.027975002,-0.10156251,-8.992627e-05,0.079717845,-0.004888269,1.7872374,0.011554618,-0.003854765,0.22441426,-0.6948648,0.0060637845,0.08795065,0.012475888,-0.21392252,-0.04457844,0.005256576,0.42668778,-0.32340991,-0.00053045916,0.16208875,0.0037148292,0.008947894,0.0039368453,0.45868674,1.0126941,0.19558224,-0.011506243,0.67184,-0.016009033,0.002746311,0.0018301089,-0.2682147,-0.019459205,0.01248265,-0.0319761,-0.8055072,-0.0443378,0.08309864,-0.7785661,0.030770978,0.71918476,0.064698696
/location/statistical_region/religions./location/religion_percentage/religion,-0.13286807,0.0029312246,-0.32818195,-0.47940224,-0.018896809,0.3018788,0.4412127,0.8054887,-0.009132628,0.22781046,0.067473516,-0.0007787152,0.008094559,-1.0816928,-0.6323023,1.2782347,1.383447,-0.20783585,0.039479364,-0.62302685,-0.15949035,0.5184433,-0.6769618,-0.058445767,0.53181744,0.7540271,-1.0438688,0.007563306,-0.047809847,0.85187614,-1.0128324,-0.10777245,0.020934567,-0.091553755,-2.2969232,-0.2947804,-0.80842984,1.5072082,-0.08235517,-1.4861312,0.412686,-1.9758669,-0.71899056,-0.25496045,-0.04217334,-0.0032105239,0.071811296,-1.1851761,0.2515399,1.6996679,0.7685017,0.18924907,-0.044681523,-0.16276175,-0.029342055,0.05995807,-1.1590835,-0.6441471,-0.59726965,-0.0061266934,0.13200459,-0.030605359,0.34244394,1.1336851,2.8565204e-05,-0.9999334,0.61368185,-0.35451818,1.6003923,-0.10215045,0.6044139,-0.94667125,-1.3847588,-0.3437974,0.7994414,0.07102028,0.42662624,-0.31499097,0.23993784,-1.698575,0.6165662,-0.7835583,-0.015824148,0.17388026,0.90759337,1.2663552,-1.1042842,-0.4756854,0.07911625,-0.013003715,0.28830576,0.24673308,0.027420798,0.27433673,-0.02057507,-0.24654236,-0.05409528,0.26867235,0.019974086,0.26034433,0.09585871,-1.370471,-0.070416525,0.002239417,-0.7995329,0.5750569,-0.13762695,0.1324184,-0.15270509,0.030150581,0.10036139,1.0403847,0.5966648,-0.024936315,0.11212902,-0.011420084,0.22062781,-0.5859976,-0.017268574,0.20073755,-0.49065217,-0.6043059,-1.4796118,0.38513437,-0.12979692,-0.23226327,1.1937729,0.7265679,-0.123403564,0.22100103,0.5964312,-0.3493091,-0.30622947,0.38606477,-0.13532785,-0.7094704,-0.002017205,0.03113208,-0.006406097,-0.24152228,1.2364799,-0.010466537,-0.47020817,0.67843217,-0.081879705,-0.46895656,0.50904804,0.81984955,-0.90297776,0.028469248,-0.8538554,-0.1949724,-0.61146,-0.3654434,-1.1804295,0.07956568,0.6306647,0.22520912,0.0073572947,0.04035406,0.44124356,0.15129316,0.11327979,-1.400629,0.93760586,-0.043057848,1.0263884,-1.8597193,-0.88720095,-0.43308815,1.2095642,-0.2352636,1.4271952,-0.63587517,0.007115971,0.45891446,-0.38224393,-0.4015296,0.37209845,-0.10946294,-0.34819648,-1.4188639,-0.020901399,0.09977188,-0.60930187,0.19260745,-0.37048566,-0.4671705,-0.39636204,-0.08723168,-0.11437906,-0.14608811,0.40290236,0.072115764,-0.0049931416,-0.30551642,0.0067879087,1.2340027,-0.25214118,0.017803343,0.6180486,-0.18283816,-0.5740883,-0.003762654,-1.3382449,0.051850572,-1.1879543,-0.03490544,-0.00739164,-1.0507458,-0.10541803,1.2398168,-0.021170583,0.88077974,-0.10025108,-0.24126652,-0.0057419054,0.014134384,-0.07675685,0.7115499,-1.8655013,1.0689565,0.500184,-0.9967788,-0.5790462,0.6694464,1.3831408,-0.05472648,1.2162764,-1.9719756,-0.35636744,0.49608165,0.20794046,-0.38785493,-0.8809733,0.56534463,-1.0599847,1.5191905,-0.46690077,-0.569591,-0.36739781,-0.43238178,-0.08361665,-0.60446185,0.7399543,-0.028860373,-0.7223644,-0.3908057,0.7173441,-0.03275227,-1.3162832,0.74100137,-1.1080532,0.024212794,-0.8192839,-0.89457923
/award/award_nominee/award_nominations./award/award_nomination/award,-0.006921185,-0.145163,0.00068012316,0.41052428,-0.34773278,-0.32697174,-0.09539828,-0.025953759,-0.48531285,0.02082009,-0.33102462,0.091309875,0.012608962,-0.048272967,-0.21265775,0.12670179,-0.041877523,-0.5928352,-1.1516031,-0.18664621,-0.24611491,-0.0038848764,-0.004220608,-0.0057119788,-0.0032998999,-1.1801276,0.24234325,-0.032518186,-0.00041802993,-0.33072984,1.4895927,0.0010874327,-0.0061703315,0.6518119,0.097296834,-0.7099453,-0.001455404,-0.2969102,-0.857646,0.66960824,0.7925864,0.18922524,-0.006060099,0.018691342,0.007607598,0.1257726,-0.09648559,-1.2284867,-0.059866946,0.007666757,-0.00925115,0.5984224,-0.036126908,0.12499801,-0.0076772203,-0.15602069,-0.12638487,-0.0030918617,0.06601958,0.013674934,-0.00031703874,1.2900916,-2.0528204,-0.52214366,-0.002101918,-0.47147384,0.007834492,-0.91188884,-0.006209293,0.0047149835,-0.23273611,0.010595552,0.033095874,0.4858785,0.009378839,0.00745375,0.72917765,0.014244031,-0.0055224546,-0.39471155,0.056137033,-0.0140628945,0.6600067,0.12831196,-0.65078104,0.006063844,0.28201747,0.059988096,-1.2806071,-0.037117485,0.000356222,0.3391953,-0.007988463,1.4898969,-0.29434267,0.0033441742,0.7948757,0.022219196,1.2939456,-0.12628113,-0.00070241035,0.088777214,-0.007218069,-0.033242423,-0.7585157,-0.86581373,0.2835505,0.0015269837,1.1335686,-1.3996356,-0.015283802,0.05424977,-0.0029219016,-0.8719125,-0.0043513766,-0.031824715,-0.4363749,0.008811385,-0.0041249157,0.0049762786,0.0048372042,-0.025357079,-0.34541872,0.013260469,-0.9681819,0.0023043423,-0.407314,-0.645327,-0.0007127399,-0.005471734,0.34567288,-0.009039756,0.24673967,-0.008666914,-0.19548069,0.017602235,-0.45740482,0.004918536,-0.13002874,0.16371861,-0.26550528,-0.61986166,0.25570834,0.059874605,-0.0098360535,-0.54638404,-0.003765576,-0.094694294,-0.014773795,0.0048995875,0.009000989,0.27675954,0.54995346,-0.20390896,-0.7331487,0.13507915,0.5985809,-0.009307193,-0.007917906,-0.9130682,0.003839643,0.69179326,0.23445497,-0.22944658,-0.11823204,-1.7280849,0.0047405125,-0.63218635,-0.011464707,-0.027188724,-0.04191281,-0.013182504,0.015097396,0.3959569,0.22192043,-0.17523466,-0.33356026,0.009684923,0.15587394,-0.056808952,0.0031606166,0.008566771,0.6463372,-1.7522743,2.7281115,-1.2799553,-0.25444576,0.21140961,-0.0019377819,0.009560243,-0.15233192,-0.8302842,0.002868607,-0.013474156,0.007996168,-0.7695244,-0.036960892,0.20367654,0.002048829,-0.0003327622,0.0044583604,-0.004137464,0.0047488916,0.17863436,-2.2321758,-0.62224954,0.010217712,-0.9234934,0.0073694373,-0.004885761,0.101676136,0.619383,0.017881425,-0.036129534,0.0063184504,0.0010441354,0.0880238,0.53401446,-0.071531765,0.063874856,-0.03638292,-1.2050813,-0.62346315,-0.009458036,-0.0065562455,-0.17510648,0.0058977366,-0.020167535,0.0970894,0.048531234,-0.9312071,0.0070561976,-0.0074610664,-0.008824563,0.2253952,-0.0045582266,0.0015691012,-0.13185346,0.0123512475,-2.243616,0.0023378823,-0.0022982624,-0.75753736,0.00044275247,-0.003283655,-0.5062578,0.7839379,1.4817059,-0.18924135,0.4861933,-0.9056877,-0.41776073,0.0074346857,0.0065746033,0.0067197615,-0.029818043
/music/genre/artists,-0.28291127,-0.19094835,0.9844634,0.07406378,0.01676648,0.2707248,0.11777077,-0.73518,-0.30981505,0.019631213,0.14855878,-0.058276933,0.0026753307,-0.4583522,1.1854376,-0.34740007,0.09141888,-0.21525471,0.22357042,0.28603652,-0.09841844,0.3762069,-0.13457945,-0.54221654,0.23154946,0.73867965,-0.106021196,-0.066702455,-1.2080808,1.1753093,-1.0620091,-0.21788538,0.054233365,0.2804355,0.6012033,-0.5644242,0.8118592,-0.6385528,-1.1905222,0.3672873,0.20183024,0.08706787,0.20973155,-0.33194992,0.010992425,0.048747584,0.52041155,-0.18048875,1.8762525,-0.065899774,-0.025774522,0.8298441,0.44619262,-0.32373556,-0.14813834,-0.40265328,-0.18720742,-0.27890608,0.29371226,0.2951388,0.12162855,0.6081019,-0.026891105,0.03905753,-0.23879768,-0.008958801,-0.13323784,-0.9400682,0.18642093,-0.47352302,0.680371,0.46827313,0.03918023,-0.076726206,-0.19156775,0.14204375,-0.045004513,-0.08693286,-0.027821405,-0.042898566,0.4929529,0.017038243,0.581245,0.51225585,-0.73808384,-0.22157177,0.080457225,0.046291735,-0.07135307,-0.469481,1.2494993,-0.1569332,-0.38459015,0.8014871,0.80061555,-0.013481369,0.14370446,-0.35990876,-0.5717618,1.6040794,0.4742,-0.05968413,-1.8286812,-0.23115982,0.29034978,-0.109648146,-0.1427573,0.004847251,-0.4451254,-0.79036534,0.07099815,0.23865402,0.051362377,0.40388545,0.65692383,-0.013079554,0.6755396,0.47084838,0.33029622,-0.02703067,-0.11726465,0.16590287,0.04201258,0.55491036,-1.4297453,0.11812835,0.702146,0.41157857,1.0004853,0.00995226,-0.13879989,-0.19257358,0.018252043,0.6617711,0.8923773,-0.45169318,-0.04981897,-0.14043666,-0.0048782234,0.52413327,-0.648952,0.3854622,0.25965866,-0.34130317,0.07697316,-0.42560956,0.046288095,0.94095844,0.026740352,0.11269584,-1.1219715,1.0537307,-0.15031452,0.06961496,-0.45728144,-0.20281693,-1.4509791,0.3185788,-0.47152936,0.024861172,0.0255545,-0.059998788,0.92175406,-0.034735117,0.57129836,0.19789708,-0.07343009,1.2522128,-0.0966339,-1.0381043,0.28621718,0.5926011,0.46294072,-1.338524,0.52940136,0.7473342,0.42572886,0.5838527,0.15498592,-0.08912088,-0.0671893,-0.030673297,-0.070988655,0.090745725,-0.03029065,-0.6490336,0.70101607,0.044374462,0.08468101,-0.17715591,-0.5221317,0.12736188,-0.059100192,0.082410954,-0.047924448,-0.65155196,-0.8129253,0.1938828,0.42825016,0.48442692,0.042338282,0.21887587,-0.003957975,-1.0662801,-0.33507913,1.4733922,0.97492856,1.2696878,0.16932237,0.10782236,-0.3700886,-0.9890164,1.192415,0.02499456,-0.09475221,-0.23718102,-0.2609689,-0.029436518,-0.45292333,-0.073145494,-0.0426242,0.14059684,0.76884216,0.65570426,-0.05096682,0.8617069,-0.3037786,0.03643067,-0.44181415,-0.0997403,-0.3053697,-1.7437214,-0.55901015,0.33001494,-0.6549078,-1.2442778,-0.4423701,-0.024335118,-0.40997547,0.02010611,0.16398832,0.006528549,-0.0064976895,0.8033212,0.31942084,0.8316842,0.27519372,-0.7039553,-1.2242559,0.19640473,0.58783406,0.69907093,0.51654726,-0.9626978,0.006138952,0.020312542
/influence/influence_node/influenced_by,0.32611787,0.014257482,0.028081136,0.391438,-0.2730001,-0.042817168,0.24756396,0.13764383,0.69402266,0.006505792,-0.38007462,-1.5377616,-1.3512827,-0.012526064,1.2343864,0.34920752,-0.4642763,-1.1858113,-0.35355103,-0.4956389,-1.21213,0.019811664,0.011461185,-0.087864675,-0.24776863,-1.4871646,0.46121135,-0.7843615,-1.118975,0.44388637,0.55478984,-0.009201114,0.02413467,-0.0068259025,0.003357117,-0.4751968,0.07560732,0.3213851,-0.08232256,-0.01809116,-0.39025483,-0.542083,0.010489095,-1.0497401,0.4191712,0.64863944,-0.1928433,-0.05680628,-1.3260169,-0.2753414,0.82042605,-0.46359056,-0.002297382,-0.00925371,-0.004629551,-0.014394172,0.354801,-0.7045317,0.017911356,-0.5045496,0.84925485,-0.009931536,-0.3588438,0.4709178,-1.0523868,-0.25943625,-0.011000894,0.3866252,0.019605868,1.9273927,-0.5429658,0.26447025,-0.52002,0.2928522,0.17488411,0.19778603,-1.3828672,-0.63264877,0.6488142,0.32364324,0.8148339,0.21647736,0.70143634,0.1641066,-0.6708899,0.18948409,-0.036707167,-0.34474894,-0.020411039,0.44114253,-0.015589764,-0.018692322,-0.2904679,-1.2004284,-0.84379256,0.20339838,0.014665664,0.69827294,-0.018069934,0.061300043,-0.019314725,0.23960733,0.5994559,0.027185433,0.012014569,-1.38398,1.1236123,0.0018474766,-0.30591574,-0.035498746,-0.015456167,-0.016392216,0.007214515,-0.28988767,-0.2721115,1.2813499,0.023240015,0.020784503,0.2801764,0.008671354,-0.032744013,-0.24118693,-0.22503495,-1.4829686,0.27398074,0.05896171,-0.5527175,-0.027560763,-0.9754643,-0.4794523,0.0395758,-0.41222814,-0.004784361,0.045924235,0.5587041,-0.550806,-0.17641746,0.21623328,0.033309244,-0.32290995,-0.4032025,0.06662278,-0.15189423,-0.27258843,-0.5252697,0.25800166,-0.9830422,-0.5285474,-0.36415333,0.031041091,-0.67364347,-0.35189077,-0.20479266,1.1238859,-0.02139716,-0.6113314,1.4346992,0.028368391,0.037666142,0.29781485,0.05330429,-0.42114392,-0.028091744,0.17779762,-0.10880033,-1.4417344,-0.209313,-0.13101543,-0.0020974434,-0.024085818,-0.042169522,-0.0443384,0.3766227,-0.011141212,-0.007518617,0.022684561,-0.3563302,0.6942237,-0.20907788,0.04494006,-0.23200434,0.6815719,-0.51754427,1.748401,0.11062782,1.0033973,-0.09590941,0.14848496,0.025603434,1.1283423,-0.2119049,-0.43914247,-1.1252618,0.0014344982,-0.74340606,-1.237601,-0.41711178,-0.11099013,0.013917939,-0.010521981,-0.19751684,0.69646984,0.008802855,-0.78232086,0.2509318,-0.99375343,0.02812529,0.37353802,0.79563016,0.6909094,-0.35267285,0.61359,-0.1686202,-0.02291833,0.013129199,0.83422095,-0.1911742,-0.31038252,-0.031002596,0.12624775,1.261235,-1.2790966,0.30837476,1.2565359,-0.008183716,-0.122000284,0.3026802,0.0036950198,-0.2539437,-0.010139165,-0.11800556,-0.080436036,-0.09680632,0.29838312,0.03662368,-0.22232851,2.023167,-0.25605157,0.17037742,1.0014596,0.028858552,1.1855599,1.4378269,0.2646053,0.07626514,0.0057390677,0.06068538,-0.06678126,-0.5801739,-0.016380033,-0.4811674,1.0320307,0.10893926,1.076702,-0.029781723,0.031895295
/education/educational_institution/students_graduates./education/education/student,0.051206995,0.019827329,-0.11738752,-0.004277386,0.5451387,-0.3780867,0.02784418,0.057001248,1.8509437,0.2691371,0.31548366,0.079686925,-1.793016,-1.3519512,-0.010406351,0.0707077,1.2963805,-0.0282664,0.12104581,-0.034290835,0.016003726,-0.21279791,-1.2198528,-1.2385814,-0.07127246,0.75050974,0.008894492,0.016465912,-0.007465664,-0.010155325,-1.6278652,0.27180365,0.012182981,0.46442956,-0.31330523,0.030867705,-0.71229047,-0.3242237,-0.6845862,0.06993133,-1.1684773,0.024075462,0.969046,-0.0052232584,-0.04436164,1.2362874,0.2510685,0.83836645,-0.52847564,0.3977453,0.45048556,0.58201724,0.80534446,-0.43889448,-0.28013512,-2.154761,-0.32947165,-0.21572272,0.01871873,0.21059158,0.5324783,0.46832773,0.2451379,1.8222772,-0.45555502,-0.11702851,0.07067286,-0.030242026,-1.3759897,-0.0009910328,1.2830055,-0.7811295,1.2643826,-1.3181645,0.26795182,0.0759626,0.104963005,0.090335146,-0.05909982,-0.8281017,-0.03146691,0.039198395,0.2419797,-0.043416858,0.012638512,0.30611688,-0.012468204,0.40001673,1.9009888,-0.036409993,-1.552429,-0.63976383,0.019200267,-0.6149811,0.03276783,0.03467838,0.45890778,1.48017,-1.4071966,-0.45031208,-0.45177406,1.0988891,-1.389713,-1.8043946,0.4340674,0.3404498,0.010410065,0.04483275,0.20805983,-0.3131595,0.3182912,1.1671389,0.0050927578,1.5155972,0.37692392,-0.0068791215,-0.029214865,0.020036338,0.09815641,-0.003013977,1.8347263,0.0025695509,0.048314407,2.207491,-0.0059977598,1.1058652,-0.016289907,1.2778863,-0.35022885,0.19424999,0.24362355,-0.0030663926,0.0020325957,0.012228138,-0.33760318,-0.10272419,0.10800164,0.03404109,-0.08597901,-0.0035535244,0.3275858,0.15090433,-0.115988165,0.0995649,-0.0068573463,-1.7842844,0.00410446,-0.26223823,0.0543528,0.16757604,0.100969546,0.028333701,0.88105625,-0.2120765,-0.353457,-0.66088694,-0.26159826,-0.0054359115,0.24043186,0.3296734,-0.692147,-1.1884458,0.08834397,-0.07331572,-0.0068677114,-1.3392593,-0.846839,-0.22472484,-1.3831639,0.13312072,-0.5328454,-0.29555982,1.3401198,0.16916166,1.4551885,-0.011105069,0.018470062,0.04306818,0.6980879,-0.0067988723,0.08855571,1.2423248,0.40051153,-0.4630123,1.0900338,1.2565422,0.7594758,0.24499208,-0.0157938,-1.581758,-1.2938144,-0.15816647,-0.17826597,0.3786814,-0.63712674,-0.13585447,0.70279753,-0.0081465235,-1.0496671,0.0042100265,0.6710539,0.012640014,-0.059927206,0.030756522,-0.5316681,-0.04859951,-0.04908905,-0.664677,0.00038006634,2.0557406,0.023176096,-1.1738441,0.519867,-0.03240339,-0.0003674527,0.211198,0.6945932,0.6165904,-0.36587188,-0.09907609,-0.5472149,0.0058756955,0.009551665,-0.0096273245,0.019650498,0.4779962,-0.006755185,-0.037912194,-0.31215078,0.23741254,0.26031724,0.633007,0.02758639,-0.016876373,0.08530291,0.6459098,0.054077487,-0.60345906,-0.56629604,0.27432373,-0.03137876,-0.021039695,-0.45439547,0.09815001,-1.2609693,0.8992427,0.059092622,-0.83090436,0.005798049,0.019414468,-0.005085966,-0.00045103594,-0.005190856,-1.2701812,2.1819038,1.4415835
/organization/organization_member/member_of./organization/organization_membership/organization,0.0085491985,0.006133039,0.014341088,-0.09879402,-0.168525,0.8113416,-0.07145012,0.3606297,-1.7953458,0.68733406,-0.25170252,0.60603917,0.3155531,-0.71204466,-0.050215334,-0.43648878,0.8642695,-0.05456704,1.6236441,0.5416158,0.9959391,1.237606,-0.012124247,-0.0009791871,-0.04037741,0.29117936,-0.17197722,0.19469124,-0.027775005,-0.8902625,-1.5551606,0.016911123,-0.7914429,-0.028708702,-0.43659282,0.057779327,-0.3270384,-0.22373655,0.7922088,0.11166636,0.16764459,0.00042215464,-0.8496045,-0.017680738,-0.91734993,0.82420266,-0.89894575,0.21384408,-0.47245133,0.018522622,0.033940166,-0.066129096,0.16269583,-0.64701,0.36865553,-0.59279424,-0.8475729,0.005006014,-0.033789787,-0.056720536,-0.18971352,0.21082644,-0.08528449,-0.8566633,-0.8877609,-0.018346423,0.039643288,1.1399437,0.6620566,-0.028210215,0.85041845,1.0335952,1.1450865,-0.979317,-0.30751497,0.9188822,-0.684215,-0.45403948,0.0065862476,-0.2596463,-0.5130023,0.67788804,0.33383,-0.7133526,0.073543236,0.0056343805,0.061706208,-2.143451,-0.9530111,-0.62597394,0.1478945,-0.03128764,0.13650659,-1.3386134,-0.37886778,-0.6415579,-0.023871645,-1.8315547,-0.5824856,-1.4438537,0.5720153,-0.86337554,0.17121643,0.7949163,-0.89177,-0.42421928,0.048450217,-0.10337376,0.028153999,-0.8944838,1.047694,-0.23126125,0.7334517,-0.018345986,-0.13161747,-0.1750705,-1.3145976,-0.011944603,-0.11915979,-0.14576091,-0.3389736,-0.033585124,0.7306697,-0.015065117,0.02925167,-0.24915108,-0.05827607,0.5386784,0.19769269,-0.6107638,1.2635599,2.5050852,-0.5036677,0.23928139,-0.0065291882,1.437017,0.020923752,-0.067386806,0.9293887,-0.7956122,-0.09839479,-0.029822953,1.1474794,0.014731225,0.02628887,0.67522496,-0.019681688,0.02086551,0.34407577,-0.520649,0.7928612,-0.054720495,0.4754317,-0.40679136,0.24742109,-0.71694225,-0.20323133,-1.420514,0.0417086,0.0045941775,0.31777787,-0.70691985,0.21197091,-0.057398804,0.09764216,-1.3410677,-1.3351481,0.88162065,-0.16225374,0.4953308,-0.0058859843,1.0766746,-0.790625,0.03397864,-0.38865417,1.594852,0.86963385,0.62760705,0.19150577,0.9193991,-0.36141965,0.6580805,0.105609514,0.95531213,-0.39086038,0.71575,-0.85517645,0.009901791,-0.032746177,-1.7245007,-0.8575076,0.060232885,0.65017253,0.5047071,-0.11150866,-0.58978164,-0.071758956,0.26399407,0.024156133,0.08684694,-0.059258375,0.004930056,0.124364026,1.6976358,0.9895431,-0.013606466,0.17116629,-0.017424986,-0.041960087,0.02859645,-0.04336543,0.34091532,-0.5369156,0.5620938,0.052710388,-0.18194285,0.00088160916,-0.13417052,0.08685293,0.70989186,-0.19064175,0.36266652,-0.021543398,-0.8272881,0.26376498,-0.48255214,0.03540839,-1.0489514,0.052614592,-0.39864883,0.94469833,-0.10727857,0.74410003,-0.0017820308,-0.38731918,-0.85816216,1.4845113,1.4284623,1.2513801,-0.021382496,-0.089726835,0.18769921,0.010072308,-0.53970385,2.1112826,-0.04119957,-0.85035276,1.3580934,-0.27655387,-0.011995037,-0.6893889,-0.46737182,0.551669,-0.10735247,-0.27847663,-0.020419832
/people/person/place_of_birth,-0.019524202,0.0053972937,-0.041239906,0.009205398,0.0014437386,-0.06459651,1.095878,-0.10705821,-1.1237308,-0.005993957,0.05279708,-0.2802398,0.1012092,0.010674246,-0.02201016,0.19329116,-0.028368609,0.0047558453,-0.07365342,0.38077536,-0.0035227572,0.45284832,0.6843973,-0.0044554654,0.41589978,0.004145545,-0.0095634125,0.5162057,-0.0014309634,-0.17535862,-0.0003293084,-0.00015285553,0.6070709,-0.010499122,-1.1001241,-0.04011403,-0.37251022,-0.27309906,0.0006341785,-0.10298161,0.005945512,-0.001104743,-0.0094828075,0.29375845,0.16867678,-0.00040847782,0.28062528,0.2611524,-0.07929674,0.91254824,-0.033814233,0.6387333,-0.043859456,0.50890684,-1.441628,0.22166958,-0.04887127,0.06821845,0.3972147,0.0013380429,-0.33492362,-0.54978746,0.0114572225,0.00058608584,0.003125396,0.31732425,-0.08794429,-0.6751056,0.004639427,0.5496021,0.018006,0.36146924,0.027311098,-0.007955721,-0.0040201247,-0.43689057,-0.0076558525,-0.004703437,-0.49519026,0.002855422,0.12355093,0.47901902,1.3922013,0.15202878,-0.001733251,-0.47921062,-0.18527423,-0.5201211,0.45908505,0.43993565,-0.018833196,0.06563381,-0.079842664,0.036741093,0.0020041582,-0.0034445345,-0.010806279,0.0054876176,0.020980544,0.006625767,1.4503039,1.1794597,0.34407872,-0.1587044,0.08743242,0.0013262595,-0.12604026,0.03351882,0.8061778,-0.6627601,-0.2265866,-0.1073624,-0.005127311,-0.3683293,-0.28131044,-0.7059847,-0.25104252,0.0062581766,-0.014132941,-0.2628805,0.037859514,-0.10735107,-0.010965661,-0.053727493,0.45255792,-0.86661726,-0.36090484,-0.0020518994,-0.8476556,0.005130361,0.0058559543,0.20999469,-0.2449007,-0.0031161113,0.52249837,0.1441058,0.2687359,-0.09199129,0.29674187,-0.055992197,-0.0003604061,-0.8095703,0.003344002,0.44471815,-0.3223519,0.18842864,0.0018824148,1.4167271,0.012509185,0.40311402,0.17787386,-0.29903543,-0.0028815777,-0.012101116,-0.8222716,0.13187031,-0.017198548,0.04131858,1.4266022,-0.009313129,-0.54862124,0.0053275456,0.1531126,0.009808051,0.41084072,-0.015426503,-0.02868764,0.23011632,-0.48844445,0.23759882,0.5105409,-0.0037485904,-0.021693371,-0.00024581762,0.0066911704,-0.041516133,-0.0053144265,-0.0059772795,0.028449971,0.06130833,0.24417952,-0.41972062,0.0013759375,-1.1732914,-0.0057826973,-0.032840226,-0.0014511344,0.015265397,-0.60286206,0.5468754,-0.3341968,0.068132296,0.00075263635,0.54408884,-0.9960841,-0.008182074,0.6055892,-0.0057508284,-0.2712139,0.05808158,-0.0011438574,-0.24335727,-1.0950903,-0.05175696,0.73306626,0.6128095,0.0014645952,-1.0105336,1.3679068,0.24689771,0.0012754644,0.8133265,-0.002376454,0.008292077,0.11112089,-0.019878,0.48935845,-0.11950907,-0.6771913,0.58788264,0.0062936256,-0.36324114,-0.013568075,-1.527602,0.025979849,0.0034878675,-0.07515469,0.42101744,-0.24892418,0.0964209,-0.00028445624,-0.113148905,0.0069466173,-0.38966632,0.009220788,-0.21628971,-0.071792975,-0.8729635,0.007533649,0.662303,-0.067789555,-0.050434556,-0.022844115,1.0539837,-0.0063631083,-0.0101562245,-0.0011056542,-0.47905073,-1.272844,0.9045307,0.16531941,0.41747078,0.010678807,0.0039841477,0.007700505,-0.0019678012
/common/topic/webpage./common/webpage/category,-0.92153186,0.11777456,-0.15592836,-0.0050544394,-0.66652775,0.04697312,-0.012430514,0.7994252,2.336007,0.6808123,0.10685754,0.010526903,0.80450374,0.07974479,-0.27491492,0.010614505,1.0961655,-0.011274944,-0.026341295,-0.2629594,-1.2767774,-0.023877593,-0.16918354,0.08453786,0.196653,0.36586654,-1.7451019,-0.0081568,0.7200235,0.025176747,0.00024964864,-0.10861147,0.45952445,-0.008486395,-0.5848403,-0.0068576885,0.009527319,-0.5649031,0.017291589,-0.37947166,-0.48916662,0.014901918,-0.015285388,-0.011523544,1.106347,-0.3487268,-0.033958755,0.09777475,-0.40578964,0.23709118,0.8226577,-0.037634414,-0.23303345,-0.00672219,0.0038957556,0.55553645,-0.059615187,-0.94582,0.24446185,-0.7619835,-0.016679846,-0.034323424,-0.16539514,0.1710048,-0.36106932,0.05275164,1.2105685,-0.0051029176,0.3173651,0.007845333,-0.74920493,-0.0002147315,-1.2667049,-0.00022222882,0.4500426,-0.014430816,-0.44633874,-0.025262184,-0.03040376,0.05513949,5.1713072e-05,-0.005826891,0.3402121,0.54892933,-0.009160877,-0.07400262,-1.2037067,-0.03199642,0.24873675,0.0034268163,-0.13161507,0.18239248,-0.285577,-0.44675353,-0.0034019276,-1.1094269,0.2189653,0.7098712,-0.0011264948,-0.0011605714,0.016717272,-0.9992496,-0.020230811,1.2910299,0.10464308,-0.34844032,-0.19261742,0.00157931,0.040419716,0.21717435,-0.17416628,0.1493749,0.47067535,0.20273724,-0.04998659,0.11860027,0.65924585,-0.67945457,0.065032296,0.4102833,0.015578157,0.0034048697,-0.021648072,-0.012865374,0.0367994,-0.033324398,0.13083091,-0.02947046,0.7236547,-0.19077405,-1.3619643,-0.63868374,0.0016087269,1.5612632,0.79981977,-0.4141931,0.880308,-0.14375652,-1.3669235,0.55012673,0.17310329,-0.1849074,-0.0071331286,1.2369715,-0.25614408,0.88939303,-0.0043636477,0.12077597,0.0057192543,0.33031824,0.68117577,-0.80033237,-0.0059706937,0.80465895,-0.50948536,0.14560115,0.13406508,-0.00085762003,-0.73965186,-0.10184234,0.009038142,-0.0022470294,0.65446085,-0.014442129,0.05665666,-1.4231992,-0.81853604,1.1083546,0.5490386,0.0014501858,-0.12292142,-0.44882658,-0.0018240442,0.28239894,0.0006329198,-0.035806756,0.01307116,0.21084617,0.0024467555,-0.31291988,0.0019927367,-0.00062415097,0.6336708,0.076059945,0.020218333,-0.10267788,-0.0016948374,-0.9850545,-1.6206417,0.26874056,-1.0365875,0.035030127,-0.008788812,-0.006814999,-0.27670634,-1.1291617,0.4419507,0.7215419,-0.050484784,-0.0049831374,0.009990942,0.6468629,1.2984612,-0.6891089,-0.31484154,-0.0034787378,0.80489516,-0.9886623,-0.004879135,-0.050264504,-0.030523779,0.019542946,0.0030290936,-0.015997343,-0.19784497,0.46710655,1.0089495,0.023740416,-0.0037178749,-0.75323415,-0.24269989,-0.020570938,0.0028862213,-0.0056819115,-0.29743475,-0.21973425,0.0069329124,0.00477665,-0.10460171,0.36979243,0.011408531,-0.13799757,0.08861817,-0.489126,-0.067004986,0.7129189,0.0007611704,-0.15838729,-0.11222968,0.02947962,-0.07022326,-0.2967839,0.0027125669,0.007865909,-1.1153518,-0.007954607,-0.030258916,0.97613364,-0.3002877,-0.009273948,-0.14744377,-1.1519346,0.23461334,-0.047259185,1.3672037,0.007970903
/film/film/other_crew./film/film_crew_gig/film_crew_role,-0.47005114,0.022580909,0.028126221,0.4545792,-0.08037585,-0.45648596,1.3095534,-0.21266499,0.01283349,-0.003638492,-0.34863555,0.07431505,-0.62432456,0.5993915,-0.2529659,0.42753887,0.46406975,0.054387785,0.28458056,0.45437315,0.16310538,0.000978758,1.0783448,0.016885031,0.00012935599,-0.0025947664,0.33900377,-0.0075596594,-0.0076057157,0.00391791,0.7892436,0.08504989,-1.1477159,0.5961572,-0.015554278,0.00027529252,-0.009437096,-0.5224843,0.015394802,-0.0100491,0.505928,-0.336951,-0.094996445,0.7965075,0.78278285,-0.21705984,0.11666043,-0.006697105,-0.352318,1.3977587,-0.00521262,-0.10240063,0.0884102,0.20357907,0.92594343,-1.3896524,0.64294654,-0.77072036,-0.65083706,0.0050971103,-0.2350045,0.39936602,-0.009661393,-0.61925787,0.613154,0.015122848,-0.45180732,0.09079743,0.007008936,-0.62139684,1.5038959,0.057806484,0.20842211,-0.08994716,-0.8419885,1.326901,0.18601687,0.34742507,-0.8992563,-0.6231952,0.4204858,0.15440395,-0.13189876,-0.44078988,0.9626296,0.25053358,0.0795487,0.5499148,1.5596583,-0.00295573,-0.36260444,-0.013790075,-0.100389965,-0.37923825,-0.009338013,0.09928943,-0.38204846,-0.012682726,-0.45578864,-0.39943853,0.03212289,0.19541235,-0.025044017,1.3640974,-0.10130859,-0.014385861,0.49955153,1.0225102,0.092150696,0.012288536,-0.054470513,0.20417966,-0.08076631,-0.04079112,0.3151459,-0.0041703596,0.41548964,0.3179776,0.012907412,-0.12310224,-0.0043852553,-0.0004590464,0.012421127,0.014384968,-0.082681246,0.7284,-0.0007109721,-0.27394947,-0.24996562,-0.035216466,0.41467273,0.43593013,0.08005205,-0.010813198,-0.0034554703,0.1788538,-0.011346622,-0.3659623,-0.009874069,0.018236393,-0.20163763,0.7184317,0.52784765,1.6858968,-0.5263911,1.3948224,0.0047889207,0.0060237036,-0.055456344,0.00061882194,0.8771793,-0.03413772,0.044349454,-1.7589927,-0.012037286,-0.13103291,-0.36664852,0.014593286,0.10070166,-0.2916249,0.029785927,0.39979264,-0.27892706,0.45655635,0.015585201,0.5580487,-0.003715065,-0.9207679,0.06914102,-0.0053030318,0.00782299,-0.13273264,0.15718837,-1.322031,0.4414796,-0.0056314357,0.31587487,-0.124943994,0.0052240305,-0.53144795,-0.009834642,-0.14925826,-0.75012034,-0.017549077,0.0065988307,-1.1524127,0.5143317,0.010388739,0.6259371,0.8570975,1.0792885,-0.008886874,-0.0020601004,-0.002558796,-0.85976475,-0.32449514,-0.098339975,0.23620842,-0.13928492,-0.0037603958,0.26869383,-0.012142243,-0.67325324,0.04668649,0.03909385,-0.20538223,-0.0075251046,0.6787781,-1.184888,-0.014027845,-0.31441024,0.041637227,0.007398984,-0.07575793,-0.011238145,0.06342605,0.0016806852,1.234837,-0.098610364,0.009560678,0.009384506,-0.1135551,-0.62089443,0.0013598894,-2.0527222,0.47369838,-0.018487971,0.010628352,-0.3774506,0.00116602,0.17257237,0.39968258,-0.44926947,-0.00518428,-0.003592996,0.5021241,0.0017450458,0.003966535,0.012060045,-0.10069293,0.02270715,-0.35971147,-0.018197723,0.18955533,0.58299714,-0.17463438,-0.35573477,0.11613116,0.006758679,0.042141657,0.4209346,-0.018589724,-0.016488247,-0.17931427,0.43298563,0.79195684
/award/award_ceremony/awards_presented./award/award_honor/award_winner,1.4257506,0.2273456,-1.4695076,0.0059633357,-0.2386369,-0.054524597,-0.09909647,0.6070044,-0.7107895,-0.038044605,-0.37231904,-0.050591648,0.92340183,1.723279,-0.97982883,-0.04075665,0.20966986,0.3586819,-0.4382418,0.7560654,-0.049450528,-0.443627,-0.3152885,-0.023329923,0.49284238,0.100484796,0.16094132,0.65782887,0.03803696,-2.2821512,0.745785,0.7163743,0.050577875,-0.2296928,-0.002813027,0.3524648,-0.16670832,0.94685775,0.053188317,-0.016338037,0.15469189,-2.563257,0.05478744,-0.24117841,0.38896528,-0.27916417,0.1721068,-0.04505961,0.83884454,-2.3727689,-0.10347509,-0.029999243,0.81761,0.022153236,0.44554606,-0.039431155,0.02630885,-0.26374742,-0.24501699,-1.1718975,1.1841486,0.65458834,-0.047303334,-1.4660052,1.2858942,-0.071044736,-0.045504082,-0.84197444,-0.02927954,1.1084434,1.564276,-0.5393182,0.7173036,-0.045006864,0.7008134,-0.59755695,-0.0071975607,0.34410554,-1.3529757,0.14850445,-0.051396858,1.3514479,-0.93642706,1.4327594,0.24777907,-0.48362744,0.053015456,-0.096985586,-1.0415488,0.018423116,-0.017173564,-0.10220379,-0.026446007,-0.047548357,0.25673452,0.7593762,-0.10872597,-0.5688672,-0.6643552,-0.43122682,-0.01631377,0.5099476,0.7220967,-0.19447796,0.27017054,0.13437434,0.022644976,-0.006897942,-0.34549725,-0.35510266,-0.65310353,0.12864257,0.014326898,0.17411634,-1.6500031,-0.28782505,0.07213018,0.66559523,0.035225976,-0.8706602,-0.17455219,-1.0185604,-0.01385382,-0.53491646,-0.12684348,-0.69538414,-0.031250503,-0.18863064,-0.6522098,-1.0779786,-0.24168901,1.0386549,-0.13216268,-0.36000726,-0.28117615,-0.18209171,1.2140576,-0.51082635,0.43460727,-0.0032392237,-0.63099134,0.49236467,-0.48760155,-0.7387271,-0.07875454,1.1493747,0.8603649,-0.11185067,0.64489627,1.5829322,-1.0010679,2.0512216,1.1173495,-0.64379483,-0.6706532,0.48396373,-0.21481252,1.1183795,0.09578906,-0.66854876,-0.014290903,0.03537296,-0.14649954,-0.58340794,0.020706128,-0.90585643,0.52267647,0.5849983,0.056797225,-0.8156993,-0.5347062,1.3821263,-0.26184386,-0.38842395,-0.043768022,0.02219278,-0.04664372,-0.75282747,0.6465452,-0.107251175,-0.4219152,0.46578974,0.8004378,0.5619611,-0.07693705,-0.6137723,-0.82151026,-0.86423916,-0.29198965,-0.010115144,-0.32086927,0.14092456,-0.009044347,0.037812367,-0.01621017,0.38200998,0.119860545,1.4086932,-1.0426995,0.028021814,-0.028457876,2.919526,-0.13164161,0.052875064,-0.18617438,0.13534246,-0.078819215,0.020953612,-0.003069427,0.252403,-0.762128,0.9560351,0.06206062,0.0978039,1.3050668,-0.522556,-0.39795893,1.7695873,0.022668017,-0.03640867,-0.024341794,-0.18996684,0.34398767,0.08512704,0.47037494,0.085980125,0.05981473,0.027245931,0.6297286,-1.8590584,-0.9348584,0.016564757,-0.23921202,-0.51018983,-0.25022277,0.09328377,0.13176697,-0.18886812,0.10907179,0.7542535,-0.5622059,-1.0460901,0.6565034,0.60635346,0.07098092,0.7488933,0.41363093,-0.14101124,-0.875438,-1.8377302,-0.5846176,-0.5993229,-0.08463,-0.09429558,0.9805285,-0.18454157
/film/film/country,0.0021434447,0.083482236,-1.3716996,-0.025160262,0.26795688,0.35923418,-0.004917337,0.003237029,-0.01574043,1.1841362,-0.011973894,0.13653761,-0.25832027,0.008102001,-0.012182761,-0.24427298,1.5798223,-0.5464003,0.0052579576,-0.485953,0.72500193,-0.62388027,-0.018150175,-0.0022366873,0.08980858,-0.6270389,0.007394829,0.0004121254,0.15214764,-0.0044815983,0.027649328,0.0009809687,0.17179044,0.017675588,-0.7043465,-0.014986601,-0.26394847,-0.7449403,0.0029259562,-0.0022651409,0.3398447,0.32429945,-0.5582284,-0.017278247,-0.1913388,0.003755916,0.060531158,-0.0017302509,-0.5706965,-0.009869361,0.86157197,-0.9391359,0.036638968,0.10209548,0.29952642,-0.021598011,-0.6522633,-8.542984e-05,-0.14437112,-1.3061328,0.5106409,-1.2790638,-0.17942521,0.01781626,-0.41225532,0.48076874,-0.017546255,0.080504075,-0.028463334,0.006722777,-0.24812517,0.83301437,-0.6923138,0.1637273,0.76866853,1.1324818,-0.29254165,-0.047304586,-0.3983447,0.11595069,-0.011483314,0.013436548,0.28993565,-0.18985185,-0.6461263,-0.7212455,-0.0110534355,0.556262,-0.2714742,0.005560029,-0.00312624,-0.19923164,0.34185088,0.02575219,-0.26570946,-0.004575185,0.43025187,-0.28203228,-0.0032363043,-0.025750702,0.0034465443,-0.09190297,0.00010422141,0.010180667,0.002107565,-0.15649514,-0.009872987,-0.0021788739,0.03746406,0.18388085,0.13043582,0.8399727,1.1310525,-0.0009604255,0.24563625,0.44043183,0.3598674,0.009932681,0.26506624,-0.17191751,0.008198339,-1.4346923,-0.0043445635,-0.28376007,0.0129188495,-1.5577632,-0.009929058,0.48255253,-0.008112067,-0.05778649,-0.02297074,0.4757117,0.009695348,-0.032381445,0.0148313,-0.9141554,-0.0056882217,0.3386502,0.017075308,-0.036332797,-0.96692437,-0.060068443,-0.6192248,-1.3409499,-0.34389275,0.445324,0.018775938,0.010878856,1.6004995,-0.30266592,0.31220648,0.0059780884,0.37060925,0.27598238,-0.96282107,-0.6268903,-0.0005796132,-0.023964016,-0.5425071,0.00828617,0.6576819,0.33781475,-0.0008855329,0.09191507,-0.0052496926,-1.5840042,-0.49915794,-0.001836795,-0.050634257,-0.00013814306,0.0029979928,-0.5992523,-1.797557,0.0020056956,-0.19596685,-0.009425209,0.36789384,0.7682219,0.2739592,-0.1345715,-0.31551576,0.11491051,-0.3172084,-0.074663945,0.2285694,-0.007747889,0.05288874,0.036602233,0.16800931,-1.4533213,0.003621179,-0.34280816,0.000468464,0.13010268,0.070132144,-0.009622895,0.34956947,-0.022123884,0.22008964,0.0006626925,-0.07142019,0.07883874,0.08231753,-0.0015357649,0.118356116,-0.1846903,0.001021045,0.565531,0.058961377,-0.6015909,0.10641394,-0.34887367,-0.2292306,-0.1878337,-0.12164527,-0.025998572,-0.9099083,-0.012459149,0.0026243576,-1.2085713,0.22631475,-0.15715544,-0.3207345,-0.003209416,0.14912653,0.003952878,-0.19146821,0.001728277,-0.08136597,0.010516213,0.085760064,0.08171683,-1.6444718,-0.017181903,0.4859643,-0.0058347634,-0.0047481074,0.43904412,0.0084250765,-0.0036188606,-0.110096,-0.480363,-0.023970012,0.21650688,-7.266772e-05,-0.008890284,0.05095531,-0.18496075,0.07614778,0.0028472377,0.0060041407,-0.0045702644,0.1086494,-0.7735636,0.18787457,-0.35022902
/olympics/olympic_sport/athletes./olympics/olympic_athlete_affiliation/country,0.7967555,-1.5804331,-0.5138605,-0.4788014,0.003249397,0.35214496,0.44717687,0.1993253,-1.5433654,0.51312655,0.65764743,-1.2651314,0.03154173,-0.081893526,-0.37983683,0.07136232,-0.14038348,0.077658996,-0.47649142,-1.0546347,0.26029402,0.16053869,-0.051277105,0.042599216,0.18352601,0.3662467,-1.0369341,0.12895691,0.5642326,1.603038,-1.1951085,-0.28637323,-0.105357185,-0.5009921,-0.0059328615,1.3840309,-0.094099656,0.47109133,-0.1449376,-1.9382193,0.1993298,-0.59207356,-0.061495896,0.23313507,-0.44530264,0.20207843,-1.204951,0.40809894,-0.004947916,-0.8566085,-0.478094,-0.008759199,0.24209121,1.4072124,-0.7549204,0.8713757,0.26952863,0.2617855,1.7266195,0.46741682,-0.7140628,-0.75444746,-0.6220591,0.53310585,0.23949604,0.012176233,0.09771717,-0.09989114,-0.1376002,-0.24762535,0.9255221,-0.08494365,-0.047952995,-0.06607235,-0.34082428,0.80024004,0.31663227,-0.04788091,-0.01595302,1.2627534,-0.059749637,-0.100156054,-0.7105883,1.2396711,0.73693097,-0.2778457,0.39647987,-0.18450844,-0.090149015,-1.200954,1.7814982,-0.122257836,1.7417708e-05,-0.0078059803,-0.29380792,-0.62424463,-0.0026744544,0.18709987,0.9843042,-0.27177736,-2.5174546,0.67650926,-0.46646732,-0.033622075,0.0025275068,-0.32847396,0.08534844,-0.2927916,0.5187049,-0.012804988,1.2722493,-0.4379713,1.0697964,-0.5931355,0.54944706,0.5359548,1.5855178,0.23169996,-2.2798567,-0.7903569,-0.07172008,-0.52130777,-0.09677019,-0.061225194,1.0023888,0.13335842,0.029444788,-0.42055467,-0.4226922,0.8229818,0.49991488,-0.09265856,0.023743842,0.7904382,-1.0832499,0.3664057,-0.052591033,0.17381544,0.28967497,0.27095452,-0.29652622,0.02874803,0.103076205,-0.04672467,0.6752828,-0.569983,0.3915817,-0.015592327,1.243162,-0.8839656,0.11026678,-0.13069426,-0.86270916,-0.25358748,0.0060666394,-0.19890228,-0.057030756,-1.6222589,0.7594924,0.74289626,0.36665082,1.0726576,-0.49283037,0.055229787,-0.115823954,-0.7723257,0.8025351,-0.26185605,0.226848,0.19522817,-0.29969576,-0.043876857,-0.28716433,-0.7946724,1.3550675,-0.009183291,0.1288457,0.3199424,-2.0469468,0.20932688,-0.062306803,-0.1898712,-0.09654491,-0.16110528,0.14641756,-0.02293072,-0.3142959,0.009426634,-0.88917804,0.17638624,0.49498662,-1.5318384,-0.040390767,0.8420501,-0.0092426,0.547461,-0.6923902,-0.12886633,-1.1462198,-0.028372154,-0.24931239,0.5135198,0.42796803,1.9907562,1.113195,0.38664946,0.3612369,0.066161774,0.0667815,-0.14811428,2.7292974,0.18109205,-0.09492135,0.105762005,0.1694677,0.16754721,0.0076716477,-0.036233384,0.018442173,-0.35055488,-0.052467037,0.3668306,-0.34157804,1.605514,0.17206773,-0.54004544,-0.6176911,0.15266481,-0.75102454,-0.18000825,-1.2690076,0.06705297,-0.8858464,-0.75131065,-0.67942256,-0.9767525,0.13068952,0.7148316,0.37794065,0.44069213,0.9100604,-0.3288831,-0.012920749,0.55029714,-0.043650214,0.76150125,0.11672083,0.48868313,-0.6524123,0.40424532,-0.4958366,0.0347395,-1.7739908,0.31052613,0.75006413,0.47118324
/award/award_winning_work/awards_won./award/award_honor/award,-0.0043123793,0.0044598854,-0.03890308,0.001030417,0.5715128,1.2230968,-0.07358867,0.007338985,-0.45039868,0.0042542946,0.9553269,-0.5677359,0.11329283,0.17174183,-0.0025844518,-0.006971581,-0.90784276,-0.5457433,-0.18327242,0.993191,-0.99283427,-0.07050347,-0.26873896,0.012392181,0.0072909757,-0.08659524,-1.176098,0.07523556,0.002664052,0.0010709668,-1.5823754e-05,0.027865384,-1.937885,0.6173266,-0.5464535,0.006379673,0.33065635,0.15932482,0.012435076,0.033155,0.018865729,0.003367499,-0.0053217583,-0.7068379,0.034893874,0.5866812,-0.2872218,0.0029469286,-0.009193117,-0.018893111,0.68687415,-0.02508367,0.4179204,-0.013364341,-0.26117608,-0.035678044,-0.1825248,-0.035808247,0.01071839,0.030063959,-0.0014184902,0.295465,0.0029886412,-0.5132406,-0.15009771,-0.24118765,0.002996425,0.37231734,-1.1031414,0.24254633,0.37687266,1.0253347,-0.47002968,-0.60567945,0.22358309,0.5881875,-0.01163091,-0.12399681,-0.5159601,0.0016696117,-0.009034873,-0.0388329,0.71701676,0.021248506,-0.0017880009,0.001863294,0.005400172,0.17055073,0.16043615,-1.1640527,1.216225,-0.03409454,-0.009767981,0.018651145,-0.6933811,0.03415622,-0.08224767,-0.9075294,-0.0695113,-0.010434812,-0.508109,-0.0019272282,-0.12642305,1.8277112,0.107445076,-0.04266505,1.0818406,0.3170144,0.21436287,-0.055409797,-0.19442618,0.057683263,-0.58386016,-0.51138633,0.065680295,0.0006409972,0.0039622807,1.0707037,0.8787027,0.06747081,-0.8078154,0.142004,0.28479177,0.18681063,-1.4131067,-0.11412755,0.73365694,-0.17051215,-0.7637348,0.647887,-0.051154997,-0.19045408,-0.28978875,0.09089589,0.17064197,-0.15064248,-0.10112136,0.28359842,-0.5084991,0.004046303,1.3076744,0.16202764,-0.5519307,-0.016598182,-0.013029848,-0.5483922,-0.004823949,0.27815422,-0.15320423,-0.22727075,-0.57852954,0.014228724,-0.0017467975,-0.002924614,-0.27210787,0.009507168,-0.33373252,0.0040520104,-0.009466445,0.78068006,0.15488288,-0.050990116,-0.58604604,0.73875344,-0.25160268,-0.7838501,0.34844774,-0.13479929,0.7014647,-0.005731333,1.1319525,-0.452186,0.41646367,0.53832626,0.0076587503,0.3460973,-0.09172202,-0.18175149,-0.33033314,-0.40185842,-0.008317537,0.075950354,-1.5871482,0.027506575,-0.0022660687,0.0048725875,-0.5309162,0.71494526,-0.5909692,1.4036702,1.5771003,-0.5947,0.0047805957,-0.0039668055,0.28537068,-0.008274526,-0.015318089,-1.19655,-1.0523505,-0.6388558,0.267593,0.078846164,-0.009330221,0.09138497,-0.0099024745,-0.2947976,0.43931875,0.13759921,0.9681467,-0.0021339054,1.0036803,1.9439474,-0.05131706,-0.13050123,0.006529943,-0.022085113,0.00058618234,0.06660029,-0.0055026133,0.014480845,0.16736281,-0.2614362,-0.17341718,-0.004362855,-0.17662759,-0.0033544821,-2.23103,-0.17586999,0.679967,-0.0011609085,0.005507167,-0.0034652418,-0.002621601,0.010056459,-0.006087021,-0.48627368,0.9738623,-0.094588846,0.80041504,-0.3252633,1.5490398,-0.719087,0.24346823,-0.018324813,0.017103383,-0.13297355,-0.5967291,-0.014940466,0.38795832,-1.8338897,0.046828043,-0.008517734,0.4174717,-0.015056514,-0.004998517,0.64334506
/film/film/genre,-0.011427266,-0.002877007,0.19789976,-0.12669681,-1.2834954,-0.05015525,0.0062543876,-0.36034146,0.0028469295,-0.45243874,-0.00033423002,0.39384565,1.3879112,-0.0012765976,-1.6140658,0.006744584,-0.07465319,0.010236358,0.9276626,-0.36402214,0.71281993,0.73323244,-0.009932257,0.42942306,1.0916448,-0.5113373,-0.9590317,-0.37764412,0.26594195,-0.01057253,0.00048696643,-0.16147545,0.009039222,0.3364625,-0.003569931,0.3457584,0.0010509188,-1.5700047,-0.0030346601,-0.35576135,0.0007522026,-0.30396634,2.540031,0.37142774,0.55008477,-0.018765846,-0.02074197,-0.048057217,0.27241963,-0.11535363,-0.0022264111,-0.00110997,0.45307803,0.12868011,0.7403547,-0.025903525,-0.057803098,0.06392855,0.1968357,-0.23388335,-0.43186703,-0.022356266,-0.6301846,0.17813548,-0.7592877,-0.15576203,-0.9022404,0.7609651,0.004754384,0.46569303,-0.50170046,0.34837097,-0.00043384326,-0.0010008655,0.036831025,0.88471085,-0.009491652,-0.009728511,0.3258572,-0.86974776,0.9730157,1.1382731,0.27250606,-0.034596995,0.24312623,-0.008859912,0.0034763236,-0.036726207,-0.0004919784,-0.62312585,-0.007092419,-1.2809821,-0.5695446,-0.121826105,0.038114123,-0.000787703,0.07873,0.067816906,-0.06635883,-0.046430975,1.6686538,-0.6231894,1.4116409,0.10745819,0.1273876,0.6335275,0.72831786,-0.018238995,0.005783498,0.9260106,-0.022324681,0.006174428,0.0004537387,-0.37145388,-0.18687917,-0.0005243991,0.007513238,-0.014094936,0.18624815,-0.0015862769,-0.68933505,-0.011359448,1.0667107,-0.89928985,-0.011334627,0.061914753,-0.027299792,1.0912536,0.0013374,-0.15424532,0.009503045,-0.00077635515,-0.879168,-0.12343034,0.34880614,-0.31133822,-0.0119809,0.0001876544,-0.27377877,0.017153926,-0.30298707,0.11675166,0.000257204,-0.00012405991,0.0029268956,0.0071831015,-0.67188245,0.0006017797,-0.52812594,-0.14693478,0.05262652,-0.948639,-0.0019908242,-0.019654708,0.4097552,-0.00558496,0.0015706796,0.12299221,-0.15000418,0.51492566,-0.0035485416,0.052559134,-0.2199201,-0.00055957964,1.3680404,-1.6080146,-0.0019744304,0.00026675683,0.012945074,-0.46293873,-0.003986842,0.041813046,0.0050565023,-0.010091922,0.0063160495,-0.11890803,-1.1282885,1.6979783,-0.0016627404,0.010706556,0.13853797,0.46073145,0.23816854,0.7642026,-0.118424155,0.16889927,-7.869532e-05,0.08625364,-0.02716021,0.543553,0.025325455,-0.4431202,0.077319875,0.0060330485,0.99809426,-0.22910307,1.4041425,-0.61930454,0.077616416,0.0044208365,-0.1457159,-0.002872558,0.40277463,-0.78192,-1.6558129,1.0899206,-0.008840825,-0.29411542,0.1207414,0.39921632,-0.12144534,-0.04255485,0.0031398546,-0.017720276,-0.16035749,-0.31106588,0.4638416,-0.023753755,-0.03263798,0.15539844,-0.0462794,-8.034942e-06,-0.009977898,-0.004118051,-0.32164934,0.0053631323,-0.001207207,0.00067590724,0.062423054,-0.914033,1.1417782,-0.011687007,0.0022287678,-0.10340354,-0.0003447763,0.13572195,0.75653625,0.0042988095,-0.10186358,0.7248762,0.29439494,0.013025327,-0.044292532,-0.51686335,-0.40367323,-0.009951638,-0.033636708,-0.2901949,-0.253902,-1.5982941,-0.056497842,-0.011138531,0.4750377,-0.069844656,0.00215762,-0.5257795
