,0,1,2,3,4,5,6,7,8,9,10,11,12,13,14,15,16,17,18,19,20,21,22,23,24,25,26,27,28,29,30,31,32,33,34,35,36,37,38,39,40,41,42,43,44,45,46,47,48,49,50,51,52,53,54,55,56,57,58,59,60,61,62,63
/location/country/form_of_government,-0.34200358,0.34372166,-1.6370064,-0.783875,1.4278486,-0.5082647,-0.12539145,-0.8452832,0.7353822,-0.6028199,1.5459261,-1.0490655,-1.4627349,-0.22278939,0.9981973,-1.3891335,0.9441486,1.028371,-0.13368902,-1.0378752,0.6480146,-0.9146431,1.0641857,-0.9759167,0.7071669,-0.13964045,0.13800429,-0.69234776,0.61973464,-0.94464254,0.47894746,-1.1569544,-1.4285418,0.94725806,0.1368335,-0.64895463,0.61572015,-0.98419994,-0.953884,-0.6273378,-0.77297103,0.10223929,0.027030455,-0.3421188,-0.23691925,-1.1884185,0.55859625,0.67020977,0.2460973,-0.356123,1.9044299,0.19706243,2.1943033,-0.41222194,1.4836389,0.66168284,-1.720408,-0.19384801,-1.4375213,-0.038921658,-0.6300248,0.13001841,1.1194751,-0.814925
/tv/tv_program/regular_cast./tv/regular_tv_appearance/actor,-0.06533554,-0.24638383,-0.598514,0.18849427,0.2612508,-0.49482659,1.023247,-0.46500102,0.9738428,1.2585125,-0.7498933,-0.1373614,0.5293338,-0.45146728,1.4259067,-1.2732285,-0.69814193,0.8894528,-0.9931152,0.13461272,-1.5320337,-1.1252007,-0.45365143,1.2253515,-1.7132618,0.4455626,1.1941166,1.3098885,0.65857756,-1.3274568,-1.0768646,1.3374968,-1.1474876,0.24762116,-0.50295824,-0.6306995,1.2468438,0.88817525,0.046185624,-0.34812623,0.5246771,0.663376,0.886632,-1.369254,-0.29310775,0.7271663,0.4401748,0.8212024,0.89384025,-1.3832533,1.1736199,-0.5497226,-0.38146868,0.34657782,0.31278902,-0.07942417,0.49166363,-1.0915514,0.31899104,-0.8681126,-1.1382475,0.43073726,0.24921212,1.1980473
/media_common/netflix_genre/titles,-1.3100643,0.7232946,-1.2389841,-0.0978194,0.91769916,0.4014918,1.433862,1.2056829,-0.44425306,-1.0234209,0.6969265,-0.66127163,-0.77578795,-0.029426826,-1.1710452,0.7252815,0.39502227,-0.30081934,-0.972677,1.025856,-0.5315237,-0.79009676,0.7298901,1.4536163,-0.237517,-0.1380853,0.46031386,-0.21113196,-1.0222839,-0.75987256,-0.18406895,-1.190152,-0.8709868,0.88933504,-0.6544245,1.4776146,0.29128143,0.9001475,0.15518604,-0.19798966,1.0462594,0.64419985,0.14857568,0.5602107,0.46070227,-1.3891386,0.23280717,0.61257714,-0.39085805,0.95534796,-0.15979809,-0.11322101,-0.9917869,-0.66897273,-0.5656892,0.5669183,0.85250896,0.42905614,1.5082955,-0.40397137,-0.3967671,0.66676736,1.1095736,0.512443
/award/award_winner/awards_won./award/award_honor/award_winner,-1.2304966,0.15979907,-1.3749905,0.75777745,1.8584844,-0.8735309,-1.1276202,1.9673749,1.5664451,1.8499037,-0.58039373,1.4617691,-1.3312306,-0.8835835,1.2354743,-0.75280637,-0.085248336,-1.0133123,0.2376366,2.123828,0.03514556,0.7657876,-1.0973032,-0.86969256,1.2450211,1.65546,0.81881124,-0.7531573,-1.3455192,1.7094809,1.8987333,1.6945378,-0.07393648,0.24961813,-0.055028006,0.00035568772,0.02130303,-0.03499673,0.03532518,-0.032028574,0.045523446,0.028204033,0.04097466,0.04836189,-0.061265346,-0.094624825,-0.09588601,-0.120257236,-0.09616187,0.030057987,0.14586778,0.0013550441,-0.071667045,-0.022116404,0.11294015,-0.15517385,0.049247168,-0.13239077,0.07863869,0.20120916,0.14958727,0.052110128,0.037775856,0.029630892
/soccer/football_team/current_roster./sports/sports_team_roster/position,2.1077702,-0.039044667,0.736736,0.9100065,0.8312526,-0.6794948,0.8692117,-0.36504912,-1.456506,-0.24909309,0.38381815,0.822216,0.408304,1.9750788,-0.3357894,0.28401005,0.35186386,-1.5782093,-0.52589387,0.5538074,-2.1640747,-1.0462356,-0.7275429,-0.33426058,1.0244551,0.07461154,-0.3850245,-0.097828224,0.44262573,1.2267008,0.15761358,-1.4116563,-0.5289777,-0.48543438,-0.8068355,-1.0028247,0.08105334,-0.94064486,1.0234683,0.34242257,0.4371639,-0.2210285,-2.6274478,-1.5158483,-1.3884865,-0.7630739,0.2833034,0.46514893,-1.3087963,-0.7709135,-0.67779744,-1.3884747,-2.4193037,-0.28782827,-0.7648597,-0.7590288,-1.8642846,-0.78228563,-0.6640583,-0.41756108,1.0658146,-1.2294512,-1.1594605,-0.5169514
/soccer/football_team/current_roster./soccer/football_roster_position/position,0.73754615,-0.4463223,-0.30730113,-0.10717189,-0.9511332,1.623455,-1.3744669,0.78846526,-1.6592815,-0.4368157,0.8709681,1.4342077,-0.11457704,0.28578115,0.21968068,0.58574027,0.2891041,-0.4035567,-1.0459867,0.26673076,-1.7756141,-1.2243081,0.9785615,-0.07665729,0.8748312,-0.6523096,0.78257215,0.49961007,1.0186933,-0.7919144,-0.68815726,-1.4120961,-0.82303554,0.2601085,0.13613383,0.84167635,-0.51023304,-0.8240659,0.35476556,-0.47253692,1.0613985,-0.7851494,-2.4076257,-1.0796864,-0.26809716,-0.1802591,1.4959129,0.08181868,-1.3821927,-0.10382531,-1.5903585,-1.1408308,-2.3738775,-0.5130112,1.2248782,-0.28020167,-0.14434606,0.22454882,-0.4894276,0.49253047,1.1733587,0.08159592,-1.2546746,-0.89859366
/film/actor/film./film/performance/film,-0.8268609,-0.4482673,-0.8696324,-0.8072834,-0.3788986,0.5774849,0.80437833,1.2444471,1.3093685,0.9890735,-0.479515,-0.03502926,-0.7018192,0.41692558,1.1734662,-1.1982553,1.1153171,1.1233114,0.5617472,0.09335472,-1.8698123,-1.3804703,-0.5218172,1.1939949,-1.8596257,0.13263391,1.0455157,0.12728827,-0.84148586,-1.2261239,-1.4581552,0.48800638,1.1351738,0.13530876,-0.50078434,1.346638,-1.0407177,-1.092935,-0.060822036,-0.094178304,-0.22002369,-0.749598,-0.90143013,1.1653212,-0.38287127,-1.6649429,0.3997794,-0.8306639,-0.5890777,0.5819622,0.84492147,0.9695688,-0.7862436,0.15372194,1.2508742,-0.0932923,-0.50703573,0.86331666,0.49679783,-1.1769146,1.0360997,-0.80548865,-0.5940147,1.5583014
/award/award_category/nominees./award/award_nomination/nominated_for,-0.3677699,0.051361717,1.4852935,-0.053746708,0.61537665,1.003458,-0.6318183,1.1554406,0.43875805,1.1575742,-0.9976034,0.8487503,-1.5761462,0.85931873,-0.21440107,0.8060971,-0.19753365,-0.21546113,-0.7059039,1.0267612,0.8802586,-0.7580801,-0.6668436,0.34950206,0.56307375,0.27691305,-1.0233778,0.75501585,-0.5586595,-0.19857106,-0.8208025,1.2662673,0.35262436,-0.52516603,0.09099207,0.3275722,-0.6848966,-0.19772969,0.9522093,-0.72411704,0.4673462,-0.4189354,-0.83492935,1.3263279,0.2707494,-0.5709413,0.5366489,0.8185187,0.8907937,0.8868738,-1.0861404,0.71136135,0.19772395,-1.7006291,-1.1156776,1.2773786,-0.93340045,-0.15815039,-1.4405667,0.5893791,0.7320135,0.82853657,-1.3682551,-0.6060806
/award/award_nominee/award_nominations./award/award_nomination/award_nominee,-0.6914552,-0.6573168,-1.057119,-0.32408118,2.0753744,-0.898474,-1.096021,1.5192274,1.9927915,1.9347388,-0.50596315,-0.15651126,-1.341986,-0.55537695,1.9454604,-0.8052292,0.93849444,-0.9937542,-0.73631036,1.731815,0.64656574,0.39669812,-0.967667,-0.26934293,1.6059445,1.8642032,0.3956828,-0.9085175,-1.2065966,2.0072658,1.1142539,1.7262837,0.11427387,-0.024763573,-0.023266638,-0.0238954,0.03796284,0.06495694,-0.030802272,0.006392538,-0.01124441,0.034430075,0.014970718,-0.12887272,-0.074380614,0.03970472,-0.015165035,0.02688696,0.107628465,-0.14542669,-0.019581627,-0.071117125,-0.33888373,-0.07539638,-0.08856709,-0.0026391675,0.026759414,-0.0722128,-0.084061295,0.014166929,0.023472667,-0.023083067,-0.048169352,-0.055064
/music/performance_role/regular_performances./music/group_membership/role,0.48420623,1.1327633,-1.1630561,0.41749617,-1.3890966,-0.27347583,-0.4101106,-1.3985605,2.0094707,0.57393587,-0.21652718,0.9636072,1.5327423,-0.2732899,-0.36799306,0.8791191,-1.8339852,0.86868405,-0.8748795,-1.6696645,-0.42538482,0.68983173,-1.2437176,0.28761038,2.2818644,0.5933497,-0.39605948,-0.78243184,-0.4348879,-1.7090493,0.43972576,0.7525608,-0.006040863,0.028869342,-0.116028786,0.033476777,0.026536534,0.01733622,0.06588079,0.02155732,-0.08150082,-0.020511191,-0.14027986,0.11532787,-0.032009054,0.090447664,-0.082597636,0.039837886,-0.052645948,-0.01693785,0.0516959,0.0069875,-0.21879676,-0.082391575,0.112540185,0.02387301,0.093308665,0.09045396,0.02038624,0.07776835,0.055519283,0.012125793,-0.26056764,-0.006021098
/award/award_category/winners./award/award_honor/ceremony,-0.14678618,-0.24015437,-0.045462146,-1.2151316,-0.5999453,-2.0111253,0.56491876,-0.59563786,0.69165796,0.12010627,0.4608965,0.34940243,-0.23015577,-0.44079643,-0.17561899,1.9802042,-0.4702814,1.6855507,0.22333558,-0.18158552,1.7289758,-0.15629448,0.22751318,0.03918454,1.0921671,-0.71038413,-2.0908158,-0.5884284,-0.7918792,-0.71274436,0.42259964,-0.32104352,0.475517,-0.47583592,-0.03360636,-1.2422426,1.138788,0.304216,1.635951,0.41666117,0.0155702755,-0.10223403,-0.9426685,-0.4995307,-0.11569734,-0.7828312,-0.44253233,1.898651,-0.62331575,1.1380168,-1.142306,-1.0574154,-0.30639765,-0.00038362795,0.06659756,0.06419001,1.3378378,-0.45317015,1.1292129,-0.061290737,0.88799965,-0.6344749,0.5408276,1.0649177
/film/film/release_date_s./film/film_regional_release_date/film_release_distribution_medium,-0.035450906,-0.712336,-0.5829346,0.059368346,-0.5028137,0.17315005,-0.4803827,-0.38585833,-0.5390119,0.6006753,1.4571834,0.21785273,0.16661939,0.010730585,-0.11575855,-0.25245568,0.0430171,0.43219808,0.8790175,-0.14600004,-2.3489609,1.7011051,0.33306494,0.3772211,-1.3388355,-1.2201532,0.43749124,-0.2531562,0.610423,-0.02686963,-1.4483039,-2.3294692,0.640078,-0.7681064,0.41693622,-0.71676207,0.3072605,-0.450305,0.90798074,-0.2784519,-1.2808965,1.2167821,-0.15247029,-0.039317463,-0.942342,-0.35086757,1.8525614,-0.273242,-0.693329,-0.7453881,-0.6773104,-1.0294933,-1.6724552,0.98248583,0.28455296,-0.95622444,0.51431364,0.6046097,-0.76586425,-0.0937791,0.5176135,1.0692891,0.027368788,-0.15523289
/award/award_winning_work/awards_won./award/award_honor/award_winner,-0.40898994,-1.0849628,-0.62198734,-0.32444072,-0.23896718,0.70127285,0.60688895,1.2801111,1.2138004,1.0691702,0.2095215,-0.09111978,-0.33362702,0.57051873,1.1396707,-0.9359057,0.49219826,1.1093516,0.20065421,-0.2385832,-0.9410026,-0.5504454,-0.8442993,1.4104341,-1.2218536,0.60829127,1.6830626,0.58340496,-0.54072493,-1.3566116,-1.7009457,1.5902718,-1.1649934,0.24850357,-0.36492038,-1.4250797,1.4201016,1.1556106,0.33731976,-0.44174394,-0.23583372,1.1077145,0.71340954,-1.6375749,0.20752616,1.2655115,0.29414427,0.74922323,1.0104612,-0.6954645,-0.24148887,-1.3982857,0.48629674,0.07999012,-0.5377774,-0.18896434,0.16677755,-1.2924238,-0.31941426,0.48610616,-1.0942639,0.7863886,0.28006518,-0.70826554
/film/film/release_date_s./film/film_regional_release_date/film_release_region,-0.4737115,-0.09130893,0.18673792,0.10326901,0.32068327,-0.038295902,0.08847089,0.3312419,0.2930849,-0.57358956,-1.4635191,0.39810875,0.16323245,0.17061828,-0.9747983,-0.9822248,-0.102108605,-0.27839234,-0.8399765,-0.1445315,-0.25132534,0.34283474,0.1588037,0.090523005,-0.14219274,0.13043469,0.023044486,0.936603,-0.18598548,0.31603816,-0.91253614,-1.5111309,0.41021731,-0.3484832,-0.14401892,-0.15691052,-0.26840582,-0.30247062,-0.84432745,-0.42711273,-0.45273757,0.81081986,0.6369041,-0.40989727,-0.18750265,-0.23012073,0.22302927,-0.5165096,-0.13916892,-0.76371497,0.41693524,-0.19347815,1.0154622,-0.44955373,1.0551423,0.08102812,-0.5668778,1.9465216,0.15171713,0.96750486,-0.04650492,0.39393532,-0.5468324,0.33543083
/film/film/language,0.2503048,-0.16252634,0.71561986,-0.29233277,0.40031844,0.52686566,-0.5668297,0.5272576,-1.0546964,-0.17666347,1.5066559,-0.68931144,-0.6178598,-0.56677663,-1.1461302,0.25303116,-0.1761224,0.011007417,-0.05965025,-0.0911312,1.15936,-1.2756076,0.41500816,-0.2618957,-1.2553986,-0.41845417,-0.50671065,-0.23289731,-0.6884367,0.09508357,0.146325,-1.1344033,-0.4466779,0.4928848,0.55245984,0.96299917,-1.3292439,0.5314425,0.27484602,1.050064,0.035442483,-0.69394976,-0.6064806,-0.33188188,-0.18680821,0.72047466,-0.12925382,0.6696967,-0.14338341,-0.8400174,0.35068,-0.5837726,-1.7411103,0.0157544,0.696578,0.93015087,-0.44954458,0.28913176,-0.630601,-1.0034686,0.63013417,-0.61075366,-0.97424227,1.4805607
/location/location/contains,-0.87062883,0.7393605,0.28425926,1.0628837,1.5657952,0.8664917,-0.6005401,-0.7443031,1.401436,-0.23503377,-0.26891404,0.63478446,-0.059580356,1.6435971,-0.20871498,-0.8441727,0.12460233,-0.48037165,1.0579838,1.7179829,1.0496649,-0.4985718,-0.1418194,0.007060191,1.2340869,-0.89962494,1.8979048,-0.33143672,0.34477338,-0.24457839,1.0126644,1.1248251,-0.8084239,0.5589021,-0.54862976,1.2769742,-0.26813868,0.00786423,-0.23887949,-0.04385449,0.9467175,-0.48989734,-1.3071223,-0.2427924,0.14659421,0.67654043,-0.32399246,0.30469292,0.80046856,-1.0440648,-1.2219852,-0.121603236,-0.8560575,0.6070967,-0.6718713,0.4186988,0.8884654,0.11708246,1.0926638,0.5403923,-1.241909,0.8806004,0.93415904,-1.3381494
/organization/organization/headquarters./location/mailing_address/country,-0.34183457,-0.40343845,-0.2003141,0.74141246,0.77708435,1.1559228,-1.1533312,-0.5863765,0.9219193,1.6036221,-1.4697895,0.94395304,0.47654182,0.7538057,-1.3181025,-0.24272223,-0.38860205,-0.570401,0.012107708,-0.33348122,1.7516457,0.60278267,-0.14195961,0.39377946,1.2047136,-0.45663875,0.95478535,-0.6369023,0.66689557,0.8128934,0.78770447,-0.03596437,-0.73525506,-0.30759007,-0.69327086,-1.2657202,-0.49437478,0.052914243,1.2449735,-0.40913692,-0.87372285,0.8535979,2.3847837,0.41109037,0.860635,0.15210341,0.3515495,0.12737782,0.22271712,1.3932751,0.34622514,-1.2054944,1.1129857,-1.0046763,0.89739186,-1.0896394,-0.4946499,-0.9375253,-0.9388093,0.03163583,0.09798676,-0.36850291,0.82065016,1.2580445
/people/person/profession,0.37046316,-0.3671359,-0.48557907,-0.4321154,0.834316,-1.0950953,0.68986946,-0.7391625,-1.0322448,0.79697883,0.08051728,-0.7607945,-0.2968025,-0.1227002,0.1918481,0.053399127,0.75190043,0.6199294,-1.0787587,0.62570345,1.5288851,-0.36910632,-0.62083375,-0.05511663,0.16300929,-0.63276565,0.87354624,0.46146983,-0.58943206,-0.22198497,0.14189182,0.27397195,-1.1059301,-1.0744718,0.6394342,-0.5760514,0.32398418,-0.29120645,-0.1029837,-0.049835797,0.2933855,0.016637402,-2.78434,-0.14693063,0.11451093,-1.0314155,0.9729777,-1.0722954,-0.36626977,0.68880135,0.41025844,-0.099024154,1.5768591,-0.94070476,0.82008547,0.97262913,-1.7057815,-0.055374898,-0.635602,-1.0455503,0.19092943,-1.1241238,0.98952854,-1.1864736
/location/statistical_region/religions./location/religion_percentage/religion,1.7014701,0.29374614,-0.71061397,-0.9886562,-0.9671027,0.8918853,-0.1459818,-1.453833,1.0004858,0.39006674,-1.1223594,0.7479336,-0.32836393,0.8439125,-0.98622566,2.1703029,0.8412646,-0.23154253,0.21975596,0.6819687,0.54460645,1.0396042,-0.7364942,-0.52577007,1.2528579,-0.7394393,-0.497255,-0.77950543,-1.0601813,1.2738583,-0.15074489,-0.36522207,1.7628247,0.86730856,-0.31824508,0.28101486,0.048074927,0.045084964,1.1631806,-0.4327206,-1.7735207,0.49993348,-0.21721222,-1.5694209,-1.1407994,0.5232235,-1.2330366,-0.8090811,-0.085890025,-1.7629068,1.3764749,0.13347812,-0.8815613,0.32880512,1.4772311,0.006670085,0.681844,-0.09920208,1.0619323,-0.8751229,-0.53169787,-0.6837946,0.38740584,0.8146164
/award/award_nominee/award_nominations./award/award_nomination/award,1.5898484,-0.36721888,-0.23306036,0.4130299,1.1964185,0.6697097,-1.5080618,-0.2796557,1.0652685,0.4087434,0.9189344,1.1089228,-0.51280123,0.85408604,-1.108571,-0.8083275,-0.016144188,-0.0046567605,1.2955332,0.12631637,-0.9890862,-0.5038552,-0.8592462,0.4225493,-0.80398375,-0.85968786,-0.80135024,0.6026206,0.36708492,-0.073909655,0.81011033,1.0419852,-0.38438168,-1.3549743,-0.04661302,0.28840414,-0.6150429,-0.25009152,-0.18235523,0.69417864,-1.3755594,-0.7942467,1.8184006,0.1688481,-0.815439,-0.7852945,0.69821715,0.3963061,0.19889626,-1.2851735,0.5363901,0.98849696,-2.557237,0.7552443,-0.4121195,-1.3030701,-2.0463822,0.5768023,0.88325673,-0.41830084,-0.61941296,1.632276,-1.0039902,1.3121818
/music/genre/artists,2.1009455,-1.4824995,-0.6002374,-1.5117884,-0.47511315,-0.007818648,-1.368558,1.3533301,-0.064297654,-0.6296482,-0.23657216,0.1777879,-1.0763505,1.3455468,-1.0778698,-0.9421172,-0.37090033,0.19400397,1.2678177,-0.10981026,-0.9170751,0.98042876,-1.1094863,1.2587043,1.1101079,1.0496544,-1.5190678,0.58358175,1.1772802,1.0055642,-1.4759212,-0.38196108,0.4407606,-1.1707594,1.4343632,0.67090464,1.5834653,-0.41508695,-0.4331827,0.5236521,-1.50458,-1.2882781,-1.4116427,1.3635269,-0.34078336,-1.1696997,0.6942427,1.3160846,1.130023,0.7753687,-0.7927577,0.9386491,0.5563227,-1.065779,-0.43052953,0.0070487964,-2.1628606,0.96418685,-0.6760313,0.7613762,0.6324022,-1.0493677,-0.5253885,-1.6520163
/influence/influence_node/influenced_by,1.7743592,1.9234229,0.78289163,-0.8494813,0.081705794,1.1323705,-0.6013399,-0.42605054,0.76916707,-0.4298729,-0.004383109,-1.2870992,-1.2600651,1.0803447,0.9631919,-1.0797638,-1.046477,-0.7971652,1.6086743,0.2782585,1.3199995,0.66290617,1.6360921,-0.43268165,2.0635972,-0.5252989,0.75321424,0.89895517,0.14343828,0.77989995,0.27468562,1.2581513,-0.32918727,-0.16555567,0.42763177,0.64141726,0.65700656,0.37500587,-1.192582,0.6404466,-0.39510894,0.5337116,0.21003729,0.5610043,-0.29181904,0.440191,0.5172895,-0.3237674,-0.6789592,-0.44677237,-1.1327381,0.9792484,-1.4579839,1.2389812,-0.2405517,0.80474627,-0.012353871,0.83578885,1.1021534,0.19441558,-1.1807818,-0.5026532,0.9034566,-1.364198
/education/educational_institution/students_graduates./education/education/student,-0.6549396,1.1089085,1.2279426,-0.35858157,-0.73502016,-0.047459163,0.83325666,-1.092134,0.6126578,0.45299193,0.050368953,-0.7564198,-0.21436962,0.95664275,0.7312374,-1.1660957,-0.9220557,-1.0924249,1.2127091,-0.78055686,0.6790627,-0.68761027,-1.2100289,-0.5395862,-1.2967336,0.7368953,0.49867392,0.83025444,-1.1228279,-0.6054005,-0.6912817,-0.88328874,0.5721285,-0.22278962,-0.19770147,-0.5806377,-0.119589716,-1.1961786,-0.07926036,0.0007598225,0.32279903,-0.36070508,1.1678662,-0.66937,-1.2133969,-0.0038424782,-0.27397975,0.09098779,-0.29446387,0.041273087,-0.7585706,0.46953267,-0.3013673,-0.98770857,0.28857338,-1.0165838,0.947784,-0.39582774,-0.925285,1.2384635,-0.3535251,-0.779025,-0.36512944,0.20977587
/organization/organization_member/member_of./organization/organization_membership/organization,1.3639677,-0.78195,-0.16988654,-1.1439556,-0.5363773,-0.24965248,0.8602632,-0.26434025,0.12965381,0.24606791,0.47176886,0.66085476,0.6583444,-0.27099383,0.17464264,1.2079083,-0.4760021,0.39258653,-1.7814121,0.42290488,0.06883979,0.35966995,0.86958116,0.44388402,-0.85839105,-0.10905789,0.558643,0.72293985,0.5394669,1.1871678,0.17825824,-1.159534,0.44747475,-1.548026,-1.7440758,0.29648384,1.5712436,-1.0233555,0.6685593,0.5497127,1.3639026,-1.031631,-0.48997116,0.6394163,-0.71320844,-0.82574534,-1.0713235,-1.3650093,-1.2331195,0.54293865,-0.15339229,0.8087589,-1.0618199,-1.431342,0.7199632,-0.567885,-1.4161358,1.3079499,-1.1339072,0.6981177,-0.93954414,-0.24785209,-1.6440763,-1.1213983
/people/person/place_of_birth,-0.6644884,1.4539762,-0.2940993,0.52137166,-0.49586898,-1.5516615,-1.3044314,0.35289186,0.85787874,-1.0245425,1.8126067,-0.72438186,-1.3095251,0.39803648,0.7751231,-0.29972228,0.26621407,0.946535,0.35135847,-0.791919,0.4659786,1.5258573,0.36963218,1.4537591,-1.6254787,0.15107305,0.5877775,-1.3803489,0.6663336,0.4598086,-1.2972101,-0.64639604,-0.752818,-0.25099468,1.4650629,0.678135,-0.69043237,0.7043062,0.7582445,0.9004314,0.32874745,-0.30071837,0.5293971,-1.2732325,-1.1812724,-0.9614699,0.8764891,1.016855,-0.8423561,-0.33842674,1.2434853,0.4324862,-0.87938756,-0.0051892577,1.2117586,-0.19205295,0.8002681,0.25192556,0.04612739,0.53989196,-0.028106142,-0.96483696,-0.28921166,-0.61875737
/common/topic/webpage./common/webpage/category,-0.7007924,-0.16917787,0.6166241,0.9602714,-0.08899306,0.5040703,-0.5739616,-0.53325737,0.80223405,-0.26743913,0.4351804,1.3071778,0.33929768,-0.05269615,0.85913545,0.1093001,0.360737,0.061130516,1.2085519,-1.2258171,-0.96369076,0.738576,2.018473,-0.5268291,-0.10737531,-0.24120212,-0.5513491,-0.506013,0.4412851,0.22514223,1.0514953,-0.3182248,0.5960204,-0.7108541,-0.64866424,-0.79424375,-0.51708126,-0.2651043,-0.8518872,-1.0918418,-0.9520058,1.4507533,-0.43416777,0.42256647,0.19394976,-0.4187666,-0.57780874,-0.07554176,-1.8588985,-2.5279026,-0.7656664,-3.6967766,-1.583547,-1.5018685,1.7650033,1.106179,-0.20197102,0.20934308,-0.8540964,0.7899337,0.55784094,0.19346282,0.68551564,-0.303024
/film/film/other_crew./film/film_crew_gig/film_crew_role,0.4625724,0.17939413,0.96859384,-0.5040078,-0.9122356,-0.2562425,-0.6094686,0.4113413,0.8001178,0.7105941,1.31676,-1.0541276,0.48733968,-0.47498238,-1.1491729,1.0081443,0.5953614,0.7307537,-0.71348196,-0.39314768,0.0024417052,-0.2954296,-0.13151881,-0.5662858,-0.13073848,0.5739098,-0.40903953,0.054108676,-0.7132378,0.7065304,-0.7240849,-1.1091539,0.61773336,1.6998048,0.25132638,0.72467345,0.87085336,0.5593317,-1.0432065,-0.6237909,0.19987759,0.45882812,-0.23292315,0.12905225,1.2326193,0.075702295,0.32549313,0.14345133,-0.6038176,-0.12509775,0.50037295,0.4545236,-1.572074,-1.321811,1.0892893,0.24110873,-1.2090538,-0.4000036,1.4207197,-0.8683918,-0.47195882,0.17508166,1.0101732,-1.3276165
/award/award_ceremony/awards_presented./award/award_honor/award_winner,1.2267041,-0.63096035,1.0634245,0.8548495,0.4543534,-1.1572664,0.02777087,-0.32600352,1.214602,1.3384266,-0.22486335,0.92135614,-0.5582834,-1.3290402,-0.5399483,-0.68729633,-1.51204,0.8477161,-0.4476178,1.1020464,-1.5182508,-0.21841459,0.3720556,1.3640918,1.0179055,1.1791617,0.40546793,-0.4881501,-0.9821709,0.31720066,1.3991873,-1.4697486,-0.4700606,0.9032634,-0.35991678,1.0917908,-1.5491079,-0.037366632,0.90909016,-1.315902,0.45592323,-0.6107625,0.0008352647,0.79993564,-0.648499,0.3766546,-1.2736584,0.51431215,0.008233628,0.82622826,0.732461,0.7903665,0.3272117,-1.5300897,-1.2297635,-0.15004757,1.3732314,0.66703826,1.6637834,-0.9966424,-0.30251512,1.2823973,0.33080396,-0.57922006
/film/film/country,-0.25779432,0.24111737,-0.36763915,0.24926905,0.75381863,0.29690617,-0.7783643,0.90255785,-0.47571117,-0.6979068,-1.4943918,0.025578108,0.5628835,-0.070123374,-1.2619245,-0.21321453,0.16094308,0.6037543,-0.05599433,-0.10285216,-0.56950355,0.32064003,0.9890752,1.2714329,-0.028401673,-0.3687939,0.27096987,-0.16889583,0.49574518,-0.18138185,-0.89948726,-1.5260968,0.055267923,0.19225504,0.03791491,-0.9913067,-0.7427205,0.18796484,0.5862181,-0.10213618,0.27210847,-0.05669797,0.15779741,-0.7243278,0.570686,0.54869616,-0.0324533,0.16458023,-0.17905141,-0.27249038,0.486712,0.09447943,0.5285464,-1.232673,0.19178495,0.35643923,-1.3703128,-0.17683133,-0.522692,0.04824909,-0.342631,0.22744092,-0.6453028,-0.2533808
/olympics/olympic_sport/athletes./olympics/olympic_athlete_affiliation/country,0.7196362,-1.1074024,-0.060399335,0.27849376,0.565871,0.6234925,-0.6472596,-0.36611938,0.82360405,1.0981286,-0.05986634,0.9402323,0.25626543,-0.011637469,0.52189004,1.5120544,-1.0588901,0.27349034,-1.1021895,0.46001992,0.059958786,1.0370522,0.8565129,-0.19186607,1.0343069,0.90385467,-0.9058512,-0.8975805,0.9467101,-0.1453513,-1.413512,-0.56481844,-1.1065698,-0.30641526,-0.9072066,1.0218825,1.1097734,1.0770278,0.14330092,0.8546992,-0.14432545,0.071406394,1.6026316,-1.1409022,-1.1776774,1.0289448,-0.6992502,-0.9728562,-0.22052155,0.9803894,1.3471266,-0.009386109,0.6134038,0.49264908,0.87617236,0.5901278,0.38052192,-0.8411241,-0.78896666,1.1223818,-0.17899235,0.634266,-0.1299619,-1.0960792
/award/award_winning_work/awards_won./award/award_honor/award,-0.90581816,0.2737135,1.2338376,0.46421164,0.65937376,1.530219,-0.7625232,0.95871013,0.71079004,1.3264555,-0.8255604,0.5544645,-1.0902345,1.0615857,0.237799,1.0421162,0.82959694,-0.35258034,-0.9398009,0.98595726,0.8657348,-0.53520745,-0.17032914,0.34600648,0.66320497,-0.16669141,-0.85755116,1.2250204,-1.7510357,-0.37957928,-0.9530093,1.4710048,0.32010734,0.35890305,-0.09449078,0.5056499,0.8016105,0.5990245,-0.9039249,0.09470824,-0.8625237,0.3926185,1.101845,-1.0560747,0.22099881,0.92989135,-0.63333774,-0.9829911,-0.31585127,-0.8693535,0.8237395,-0.7911931,-0.50317734,1.4372028,1.2420689,-1.0778985,1.1745304,0.14511332,1.6623548,-0.3052903,-0.52647877,-1.2221216,1.1081599,0.72352844
/film/film/genre,-1.0070221,0.51181114,-1.373946,-0.42091626,1.115027,0.38542718,1.2177534,0.956473,0.08875648,-1.0218712,1.3255689,-0.5318062,-1.3845727,-0.0707264,-1.3167228,0.6266147,0.1806884,-0.61286414,-1.3009833,1.5968497,0.7497674,-0.9562364,1.0742922,1.4314457,0.68560493,-0.8523989,0.17797075,1.0607237,-0.8952055,-0.34359014,0.09539383,-1.4475676,0.9401095,-0.96992576,0.7577904,-1.1738827,-0.417964,-1.0212121,-0.059847705,-0.17188211,-1.2654494,-0.5411874,-1.6711936,-0.2964844,-0.23223904,1.2042557,0.1924049,-0.83719325,1.1959304,-0.9914871,0.5139717,0.14645177,0.20434776,0.9372713,0.67060393,-0.5999216,1.277699,0.4195172,-1.0256585,-0.09801539,0.5448016,-0.7557979,-1.2762275,-0.8525665
/film/film_distributor/films_distributed./film/film_film_distributor_relationship/film,-0.647617,-0.54310375,-0.780578,-0.2909503,-0.5260545,0.5836614,-0.37145373,-0.45989606,0.6051176,-0.40623003,0.5906601,-0.3597015,1.1205028,-0.0674316,1.2126873,0.73652995,-0.5263733,0.9556427,-0.55332667,-0.25245896,-1.0214195,-1.3270162,-0.7515953,1.25595,-0.06505407,1.1978861,0.45579293,1.0828928,0.40373832,-0.6410551,-1.2430342,1.5649495,0.14818436,-1.1830958,1.0274444,0.98210347,0.15088978,-1.1018381,1.0424174,-0.76653683,0.96923804,-0.83154434,0.8556027,1.1299635,0.010746815,-0.34957993,0.15534374,0.6000707,-0.12058152,0.56379503,-0.7534525,0.83935875,-0.8468085,-0.24291949,0.16807975,0.53792495,0.92756826,0.25127643,0.56532896,0.7040909,0.80813354,-0.55097955,0.026770743,-0.5976018
/location/statistical_region/rent50_2./measurement_unit/dated_money_value/currency,-0.15635727,-0.40447778,0.21747278,0.19750412,0.75315946,-0.84241223,0.078861296,-0.4335079,0.74327236,0.26399702,0.8995766,-0.24517432,-0.04332713,-0.70429415,0.632461,-0.97083557,-0.33254826,-0.23314023,0.8542114,-0.8842474,-0.93691355,0.91107666,0.4099996,-0.3317425,1.3099053,0.25743547,0.7844012,-0.34252474,0.22647296,0.0649085,-0.034777373,-0.35262513,-0.07156785,-1.5255011,1.2859739,0.8824122,-0.011044096,0.05294049,0.036858074,-0.42083603,-1.0365342,-0.4670703,0.25686592,-0.7130377,-0.49290416,-0.27037337,-0.2849622,-2.1647356,-0.6897416,-0.6545046,-0.08624485,-1.2995365,-1.1885562,-1.3348604,0.6368618,0.18498933,-2.833111,1.3742315,-0.5016571,0.18627651,1.0091476,-0.36288613,0.2438046,-1.9425215
/film/film/estimated_budget./measurement_unit/dated_money_value/currency,0.1656778,-0.33737668,-0.014040415,0.36047125,0.8985831,-0.97595805,-0.43988225,0.8755181,0.023317084,-1.3184768,-0.13151355,0.24312708,-1.0849495,0.47951588,0.36258468,-0.21078776,0.06781456,1.2635267,-0.74458086,-0.6757483,-0.83834565,1.8451151,0.4929123,0.4352775,-0.21930785,0.90561646,0.043552894,0.18603335,0.75090414,-0.18239018,0.6880974,-0.1371216,0.04306764,-0.014244517,-0.060084026,-0.30942327,0.48753768,-0.60357064,-1.1813849,-0.75397134,0.9037557,-0.08124388,1.2565739,-0.23319264,0.6921253,-0.46576726,1.3351262,-0.64377457,0.008412359,-0.1555299,-0.36663973,-1.776266,-1.9138248,-1.1253425,0.6050492,0.19876583,-1.951077,0.10148674,0.021420687,0.060920145,0.2003661,-0.7927186,0.86869735,2.8197758
/government/legislative_session/members./government/government_position_held/district_represented,-0.8279039,-0.96671087,0.6901987,-0.05307232,1.561777,0.5219697,0.18337245,-1.1016213,-2.1072397,0.12924701,0.023238637,-0.89421195,0.37034863,0.3240298,-0.0036957816,0.51725686,-1.4769002,-2.2620153,-0.86414385,0.89453954,-0.0031074511,0.89882296,0.45063454,-1.1124684,-1.5182531,0.24409555,-0.4825152,0.13310644,0.7115645,-0.41690755,-0.37461793,0.032564722,-2.0867138,0.04212245,1.9014212,0.27361196,-0.8087827,0.3694923,-0.56662655,-0.14971851,0.32297912,-0.050400782,1.3396671,-1.7574918,0.767216,-1.215632,-1.3893661,-0.4835047,0.7639621,0.4039304,1.1740264,-1.026246,-0.9445321,-1.0231597,1.0434875,0.03138422,0.796402,-0.40207127,-1.3903136,1.2933007,1.088496,-0.2279899,1.4022833,0.046874624
/sports/sports_team/roster./american_football/football_historical_roster_position/position_s,1.6009293,0.061211772,-1.3892814,1.0696719,1.7911848,0.28469998,0.49029592,0.75782233,0.35948306,1.854532,-0.38466877,0.63410217,-0.0010772843,1.3755226,0.9647391,-0.75760293,-0.34278953,0.87225217,0.07218236,0.18189846,-0.9158384,-0.43916714,1.0564314,-1.6508455,1.1329205,0.9594268,0.8929656,-1.5507562,0.030966286,1.6942838,-1.0626849,-1.354534,0.96507174,1.4080933,1.1660072,-0.75586706,1.3061881,-0.4543339,-0.23502328,-1.4341567,0.3827011,0.9577306,0.3065759,0.99974036,-0.43103567,1.4268546,-0.102867536,2.0763364,-0.9789815,-0.0693057,0.58096284,-1.8649526,-2.212578,-0.041910946,-0.6712914,-1.1935318,-0.40132424,0.09026583,1.3395289,0.8523669,-1.1557702,-0.17573556,-0.17449242,-0.28040436
/government/government_office_category/officeholders./government/government_position_held/jurisdiction_of_office,0.0012333108,-1.378084,1.0380665,-0.4720535,-1.0548959,-0.10927105,0.5082168,0.3477356,-1.0662507,0.8405516,-0.4092248,0.45931602,-0.35494924,-0.9371174,-0.5240607,1.4083155,-0.8013276,0.77782625,-1.0791245,-0.33351436,-0.053999785,-0.10139218,0.92441505,-0.8819963,-1.320061,1.2246205,-0.85173,0.39554927,-0.5762071,-0.2612967,1.219967,0.47512156,-0.98676157,0.15305139,0.34875056,-1.1571954,-0.4226389,1.1997781,-1.0130134,-1.2973506,0.10273378,-0.82801527,0.811803,-0.56176925,-0.10184588,0.69259787,-0.45617336,0.076304324,0.7134931,1.2117277,-0.32664707,-0.356143,0.30704764,-0.33937424,-0.76269656,0.06236444,0.48580012,-0.114854135,-0.27058795,0.39448598,1.012094,-0.22180675,-0.4316343,-1.0253421
/award/award_nominee/award_nominations./award/award_nomination/nominated_for,-0.4766772,-0.82076925,-0.8041271,-0.61347,-0.19670227,0.70315754,0.6627905,1.1142188,1.5829487,1.2665532,-0.19320354,-0.06578389,-0.1743308,0.39648163,1.4685885,-1.0751679,0.6607911,1.1112437,0.5687208,-0.16332532,-1.562703,-0.9463191,-0.63245916,1.5104388,-1.4708557,0.6488691,1.7390668,0.62143356,-0.8244857,-1.5929252,-1.7203875,1.7711947,1.3483374,-0.35010123,-0.0034191513,1.3931259,-1.6401014,-1.1918806,-0.31975627,-0.21953999,0.04315797,-1.1938639,-0.8392601,1.5135095,-0.2611415,-1.4390727,-0.09462293,-0.9101264,-1.0424582,0.8431053,0.72402155,1.3761717,-1.1217697,0.07179319,0.86034477,0.34215894,-0.27709445,1.3585168,0.1999245,-0.48250178,1.1604246,-0.92857593,-0.41726917,0.5693102
/people/deceased_person/place_of_death,0.26580083,0.610422,-0.45348674,0.18032193,-1.4360994,-0.7602221,-1.0654577,1.0379641,0.3719952,0.25975433,1.4650792,-1.1402282,-1.5055287,-0.77505594,0.62452614,-0.22291502,-0.40003297,-0.23352943,0.12869118,-0.44709122,-0.41417173,0.0056151003,-0.6602599,1.4668964,-1.6021152,0.12521683,1.0705017,-1.3324627,0.37424695,0.16992438,-0.41315356,-0.0057671866,-0.7182765,-0.06970831,-1.1495341,1.1235745,-0.080256455,1.2001319,0.10035116,-0.78653646,0.10102697,-0.83046657,0.34017846,-0.30832213,-0.15082294,-0.77413,-0.3067844,0.5450393,-0.4822753,-0.3653533,1.334579,0.3305563,-0.7073977,-0.81005025,-0.25790536,0.37937728,0.82186264,1.0916326,0.27823302,0.6668787,-0.050020203,0.07380122,-0.3182279,-1.1026541
/sports/pro_athlete/teams./sports/sports_team_roster/team,-1.0001459,-1.451667,-1.4929304,0.46094397,-1.1718189,0.80083823,-1.0939938,-1.1277008,-1.1514746,0.95640284,0.3689631,-1.2257125,-0.82086074,-2.0050967,-0.82500166,-0.5468447,-1.4913945,1.6934259,0.8471893,0.9302549,-0.85307646,1.5378094,-0.3486878,-1.0512204,-0.6168309,-1.7070018,-0.12479423,1.1660634,1.8759838,-0.7453793,-1.825904,1.9217829,0.85899574,0.13458017,-1.2588207,0.117377706,-0.29598626,1.3382603,0.007623212,0.6695494,1.1499667,-1.6438831,-0.44966593,0.8841199,0.3019403,-0.2996604,0.11486452,1.9373428,-0.72724247,0.17022091,-2.0188375,1.127227,0.94203556,1.4915041,1.7445365,0.41646922,1.4424725,1.068961,1.6372918,-0.47431394,0.58999574,0.64183766,-1.6054795,-0.36928433
/music/artist/track_contributions./music/track_contribution/role,-0.6886735,0.31058788,1.1096038,0.2557731,0.96147674,0.14992882,-0.047424547,0.025103401,-0.4631278,0.008179663,0.8177537,0.53043085,-0.45889074,0.16557202,-0.46851742,-0.012276345,-0.18557331,0.4708193,0.7489342,-0.062013764,0.08016129,0.7558197,0.93612444,-0.7936958,-2.2252438,-0.35451344,0.82484573,0.4017465,-0.5929322,0.22432369,0.69129324,1.3442655,-0.12634769,-2.0125904,-0.061527103,0.0026399395,0.4694116,0.06595458,0.80691427,-0.9717712,-0.19121704,-0.05565216,0.90964484,-1.0831547,-0.19918881,-0.45830876,-0.79095775,-1.6740276,0.6628526,0.4005109,-0.37571907,-0.7973199,-0.84485906,-0.6298234,-1.1822282,-0.5145989,0.5437034,-0.13638885,1.0639327,0.94620883,0.25004163,0.027514447,-1.1540531,0.16983688
/music/instrument/instrumentalists,-1.1948496,-0.1558297,-0.0032083606,-0.14835593,0.705694,0.22681975,0.29870218,-0.618789,0.18198039,0.3183489,0.06778181,-0.6237195,-0.1879238,0.53102976,-0.44786376,0.093312286,0.30232856,-0.011644785,0.874437,-0.10256782,0.26613027,0.61542666,1.0428941,-0.3426287,-1.7134825,0.21655434,0.59612226,-0.33601227,-0.3750088,0.16592985,0.5365751,0.8918298,-0.6393399,1.3365291,0.63789696,0.19409049,-0.5585406,0.18801914,-0.8444316,0.18629785,0.10434401,0.6490914,1.2776941,-0.06267491,-0.58892065,0.016492814,0.4898401,0.9537944,0.33257017,-0.5344754,-0.08038437,0.90395314,-0.41095006,0.7265251,0.04944962,-0.49052587,-0.3899136,-0.33430418,-1.2953231,-1.1943028,0.27795148,-0.038105115,1.2005962,-0.2674169
/people/person/gender,-1.021968,0.52918875,-0.2933245,1.1232129,0.7233403,0.60326546,2.2233417,0.8755322,-1.3781036,0.21970485,-0.18859307,1.4397306,0.30271423,0.36248013,0.30816483,-0.38568527,0.07008139,0.8080135,0.74652797,-0.4703802,-0.06388001,0.75715685,-1.1308666,0.71833473,-0.23203191,-0.79705733,0.1813897,0.74692565,-0.3259969,-0.120905876,0.53658205,-0.32640594,0.25231016,-0.5868788,-1.4592903,-1.7225685,-0.14166279,-1.12054,0.40710202,-0.2110275,-0.07939131,-0.997158,1.2190964,-2.0008576,1.5932206,-0.09501941,0.72253346,0.81814307,0.16274008,0.6401615,0.5833042,0.20709182,-1.0368637,-0.25048152,0.62419283,-1.330582,-1.5458113,0.9020759,-0.037923254,0.388398,0.24344048,-1.3815409,0.6439076,-0.9877247
/business/job_title/people_with_this_title./business/employment_tenure/company,-0.7272078,-1.0674496,0.5472556,-0.9321783,1.6999214,-0.32054168,-1.3222275,1.5975734,0.6999879,1.181753,-0.38077238,1.314074,0.83409816,-0.29899013,-1.0560437,0.10918466,-1.3039831,0.45315102,-1.0347857,0.015473104,-0.69407785,0.6912816,-0.975509,-1.44638,-1.2261215,-0.9490847,0.7729524,0.92745674,-0.78178155,0.39167586,-0.78195435,-1.9085932,-0.62165904,0.8768744,1.4474409,-0.40117034,0.18027814,0.56494224,0.013017066,-0.3561773,-0.962743,-0.8296445,0.23901129,-0.37248257,-0.05068895,-1.5060068,-0.14745626,-0.62718946,-0.3651398,-0.8456966,0.89312637,-0.15069045,0.97401047,0.046776015,-1.0465707,0.09209322,-0.24116653,0.4643169,0.0010071339,-0.69764733,-0.350071,-0.9405614,0.44050115,0.37297705
/base/popstra/celebrity/friendship./base/popstra/friendship/participant,0.48905325,-2.041745,1.3667037,-0.13520236,0.25658447,-0.37008455,-1.01946,1.0368298,1.3406177,0.51876676,0.4484688,-0.26206338,-1.9502368,1.1338084,0.81212777,-1.7923867,1.5115217,2.0084338,1.9285007,-0.5438619,1.3092089,0.76726437,-1.4946458,-1.4656414,2.3124394,-0.14363594,0.831473,1.1033887,-1.3169988,0.9719051,1.1297348,0.5671344,0.0055754655,0.0146935275,0.022656431,-0.023959745,-0.042090416,0.039011505,-0.010933428,-0.03014955,0.015890397,0.042869158,-0.017489886,0.030209024,-0.0058641806,-0.095070444,0.025552962,0.0026820025,0.003139924,-0.06438952,0.024033492,-0.06900942,-0.6799519,0.089990936,0.006956342,0.037357267,0.05693943,-0.03248051,-0.047882266,-0.0063938927,0.07677309,0.042419102,0.014441154,0.036594458
/business/business_operation/industry,-1.7483083,-0.8033492,0.5641912,0.79038996,0.5462039,1.6178136,0.4796726,-0.27688304,0.71887755,-1.4788581,1.0345815,1.7926315,-0.32332638,-1.7823259,0.22638948,0.8605265,-0.2547936,-1.253883,-0.08391831,-0.33235723,1.9907298,-0.16938658,0.65618217,1.7627038,-0.9841754,-1.2523209,1.2893163,1.4896889,0.044091318,-0.6683077,-1.278427,-0.5947345,-0.675879,0.2911045,1.1313277,-1.149249,-1.0834231,0.5307957,-1.0434517,-0.97001565,-0.51375103,1.3881625,-1.9440633,-1.1838771,0.30625343,0.38644373,-0.86893046,0.65649164,-0.21246628,0.39498782,-1.1842648,-0.7060238,-0.027223598,2.4585118,0.42915595,-0.36598012,0.1906018,0.11355906,-0.14941725,0.1337292,-1.2803401,-0.25099358,0.7230645,1.8119822
/award/award_category/winners./award/award_honor/award_winner,1.507492,-0.19902779,-0.22140342,-1.0910478,1.2711393,0.8487868,-1.3016646,-0.1908504,1.3759518,0.6740556,0.3819973,1.3776662,-0.42945078,1.0833488,-0.6602076,-0.983235,0.3587944,-0.042099755,1.0981226,0.20385146,-0.8852488,-0.5668545,-0.835123,0.13418527,-0.6342627,-1.0522076,-0.9072671,0.96864647,0.017794227,0.033814132,0.9857672,1.1315696,0.17184786,1.385692,-0.9772059,-0.60605735,0.76211894,0.93645674,0.18055703,-0.9215178,1.2532213,0.7763684,-0.7372018,0.08017769,0.23702978,0.725244,-0.34286168,-0.44958487,1.3093089,1.534783,-0.3058278,-1.0963463,0.5198436,-0.36384097,0.30237862,1.3585758,1.5190426,-0.2293837,-1.2743086,0.63784546,1.0237657,-1.6158785,1.0176003,-1.4920948
/people/person/nationality,0.66829437,1.229598,0.14383766,-0.23195022,-0.61534315,-0.8382683,-0.8060524,0.49082178,0.40070784,-0.17844751,0.3046918,-0.42873374,0.53643274,0.5139795,0.05126428,-0.25707588,-0.9999877,0.89873594,-0.55366105,-0.94584775,1.5923995,0.17378299,-0.28502426,0.8965173,-0.9359556,-0.054161146,0.7693912,0.20744537,0.06950491,0.8578983,0.13370469,0.0693041,-0.1878587,-0.9513239,0.21159169,-0.3949298,-0.22382717,0.89419013,0.1817967,-0.8913347,0.47612497,-0.0020428463,2.220585,0.16504961,0.0012234426,0.22743337,0.029939178,0.20147471,0.45106614,-0.019395513,0.84026814,-0.08523925,0.49731815,0.5474415,-0.31838268,0.28519636,1.0719047,0.22071968,-0.55615675,1.0126604,-0.48379144,-0.55129015,0.7868293,-0.5213502
/sports/sports_team/roster./baseball/baseball_roster_position/position,1.4201474,0.06496929,1.6636204,0.6761561,0.86956877,-0.22003359,1.0032128,1.9186938,-0.27825803,-0.77723396,-0.5882429,-0.5147483,1.014495,1.8583252,0.3441625,0.69227844,1.310357,-0.79232115,-1.4987233,0.29449373,-1.2445707,0.87728757,0.06802419,-0.5303937,-1.1263388,0.19566502,0.6090117,0.43094116,-0.62850034,1.1097468,-0.55455065,-1.6010963,-0.4473164,1.1694952,-0.6345727,-1.3199188,0.95870614,1.5495003,-1.2383069,-0.28239065,0.4731324,-0.11727022,-1.2001302,-0.9555563,1.0662895,1.1418211,0.8474589,1.293368,-0.15018576,1.6205789,-0.3505596,-1.5449977,-2.0662708,-0.40688938,0.1892116,-1.4169561,-1.0478176,1.2884741,1.7433951,-1.1370511,-0.48361558,-1.2511258,0.0031292408,-0.6940627
/people/cause_of_death/people,0.6568554,1.170102,1.2057582,-1.0796963,-1.1038405,-1.2593238,1.0253365,-0.86288553,-0.9344777,0.999639,-1.0564566,-0.41889516,1.3198328,1.4125735,-0.81411153,0.74253696,-0.69016427,-1.2940432,-1.0447624,0.51081187,0.4067961,0.89060766,0.14147158,-0.9073221,-0.46573305,-1.1692706,-1.4283438,0.98057866,1.071534,0.08445729,0.38089657,0.06866677,-1.0503885,0.61572474,-0.7734359,-0.839476,0.13135277,0.594864,0.7089428,-0.9024568,-0.41690287,0.61069494,0.32215363,1.28654,0.4145776,0.67226964,-0.629261,-1.0519823,1.3953191,0.27026558,0.69782555,-0.36477992,-0.55317974,-0.78215736,-1.1714361,-0.9025592,1.393242,0.058767643,0.42294908,-0.89888215,-0.684653,1.4102025,-1.0024068,1.5732481
/tv/tv_program/languages,-0.16930686,0.36193126,0.29216692,0.101803936,-0.37740904,-0.8556951,-0.5490142,-1.2665178,-0.43454304,-0.36751714,1.7645715,-1.3106152,0.66624224,-0.20221052,-0.2580655,-0.18158464,-0.5449119,0.07540368,0.4217112,-0.16727726,1.4064195,0.58391076,1.6328496,-1.3141708,-1.808613,-0.08943871,0.97787905,0.08346443,-0.9296645,-1.1362739,-0.19806188,1.2084138,0.069683544,-0.8206349,-1.0820146,-0.34116784,-1.4132608,1.8297743,0.03791317,0.4096918,0.39626968,0.59887177,-1.8312938,0.9646353,1.1028776,-0.73792756,-1.0729421,0.37880656,0.45822206,-0.45481342,-0.79475015,0.30323556,-2.5039408,-0.6757089,0.40172273,-1.0558428,-0.81315476,0.037452918,-0.71192795,0.6609497,0.9403768,-1.4079041,-0.36496806,-0.123068266
/music/genre/parent_genre,2.0516126,0.8821776,0.5154424,0.84643155,1.2430214,0.82992923,0.91654396,1.0979139,1.2087071,0.7233196,0.35843587,0.35146618,-1.3772864,0.7725255,-1.5349501,0.5371043,1.041275,-2.1131926,1.2649524,-1.4943188,1.486108,0.18795419,-2.040002,-1.581577,2.1371028,-0.01718396,0.94187015,1.522846,0.86503214,-1.6317505,0.7110845,-0.4958768,0.354398,1.0877223,-0.3496003,-0.63100666,-0.2175941,-2.6429057,-0.33024207,0.4144042,1.3933266,0.93547654,1.1343272,-1.0003736,-1.130539,0.12215412,1.005402,-0.27630615,0.5954751,1.1149755,-0.29765713,1.0266566,-1.7217314,0.5045343,0.25407022,-1.0852857,-0.530046,0.80501634,0.32504705,-1.6957043,-0.8307195,-0.008314577,-1.4712185,-1.0933254
/base/popstra/celebrity/breakup./base/popstra/breakup/participant,1.0253756,-1.0400143,-2.1096303,-1.9210072,0.7792316,1.2387441,-1.5164131,1.071005,1.2679693,0.9351334,-0.7696541,-0.8324554,0.25619432,1.3684943,1.2933992,1.0800925,0.04935107,0.87832814,0.31321934,-1.5748792,0.57834464,1.6249627,-2.060885,0.4610491,1.8338042,-1.2495548,-0.1326968,2.145958,-1.1516255,1.1038432,1.3246791,0.79513496,0.2776546,0.1219437,0.064193495,-0.3247224,0.05576978,0.03564917,-0.07391701,0.14643641,-0.045602925,0.055642154,0.032938566,-0.3379783,0.1039439,-0.24071091,-0.19770129,0.23915431,-0.13394266,0.02740377,-0.10467659,0.027355218,-1.3014838,-0.247901,-0.078330085,-0.04236549,0.024018172,0.11349387,0.043419816,-0.15134999,-0.10649808,0.05434917,0.017021436,0.268182
/location/country/capital,-0.7009203,0.62189174,0.6606629,1.2487893,-0.014511421,1.430567,-0.5909386,0.9727912,1.323883,0.40755448,0.47445726,1.5539087,-0.6510477,0.6754613,0.11522079,-1.0549353,0.7986557,0.5515581,0.8998815,1.303248,-0.29594576,-1.4404584,0.9211322,1.1160336,1.1271094,-0.91608113,0.8328104,0.19935979,0.61616206,-1.206442,0.7165459,1.0643015,-1.2067326,0.54071087,-2.0620196,0.39444834,-1.4086708,0.991685,-0.8777965,0.78131115,0.4045047,-0.31700763,-0.2480019,0.43404743,0.9218028,1.0208366,-0.58530366,-0.2818866,0.9641836,0.0040434157,-1.2950071,0.5754666,0.34090182,0.21418135,0.6892108,0.3877525,0.52421147,0.55335295,0.9554869,0.9623751,-0.19424598,-0.43428564,1.3793447,-0.58517694
/film/special_film_performance_type/film_performance_type./film/performance/film,0.024632102,0.63122207,0.6353554,0.70470417,-0.17875722,-0.25540265,-0.61558324,-0.26910773,0.17953466,-1.0526582,0.70200443,0.538489,0.092441134,0.587246,0.30827203,0.07561587,0.64412975,0.308349,-0.16784132,-0.38523346,0.4656509,-1.0968802,-1.2412043,0.36772034,1.6691791,-0.16084224,-0.9215497,0.74318486,-1.1853732,0.43652794,-0.73973906,0.53207964,-1.0985419,0.9178822,-0.16138802,0.034610655,-1.7198145,-0.37677315,0.25453717,-0.38518935,0.38036466,-0.14972813,-0.87035626,0.36433357,-0.840829,0.36554492,-0.5850342,0.81304103,1.1834801,-0.81625664,0.57020336,1.0736256,0.57293636,0.48299706,-0.335342,-0.57995206,0.25402784,-0.8719395,0.9979142,1.2064892,0.10321154,0.84244883,0.8236387,1.2664865
/location/hud_county_place/place,1.1196134,0.79679996,0.6067963,1.4776266,0.88156116,0.6533405,0.9602749,1.022031,0.9323172,-0.70581716,1.2040832,1.2488407,0.68043464,0.42175308,1.3590169,1.2611952,1.167662,0.65710455,1.3568313,1.1697767,-0.015323148,1.2443281,1.4951972,1.0434036,0.53244966,0.7212697,1.3873581,0.7339581,1.2426935,0.44596556,0.89740276,0.7832404,-0.17730686,0.42840517,-0.63048184,-0.3587813,0.9425559,-0.0854242,-0.2159965,-0.24571142,0.20277892,-0.6545839,-1.1506965,0.10224416,0.06952633,-0.25868648,0.24528499,-0.028986989,-0.2864455,-0.6773327,-0.10515368,-0.09933061,0.15851222,-0.5800571,0.5000871,-0.23479733,-0.2550773,-0.27423668,0.004742415,-0.03313,-0.12771267,0.43281958,-0.327082,-0.505031
/music/performance_role/guest_performances./music/recording_contribution/performance_role,0.10044487,1.1100082,0.3819728,2.7207391,-1.0617523,-0.61851346,-1.5810541,0.1299627,0.89488274,-0.37043625,0.36605883,-1.4079093,-0.14405166,1.2672856,-0.98367786,1.8478161,-0.18319078,-0.5709592,-1.1010815,-1.308174,-0.35593894,0.43242612,-0.08862765,0.3409252,1.6058505,0.5145318,0.8362218,0.49540237,0.13019146,-0.8913852,-0.9467831,0.6453822,-0.23233604,0.01612379,0.046280816,-0.14620063,0.2297303,0.009866258,-0.2959808,-0.3083885,0.051311575,-0.16959673,-0.2394347,-0.021099858,-0.17101192,0.054367967,0.058754753,-0.10779792,-0.1515718,0.021719879,0.034844924,-0.2837825,-0.48921567,-0.14795385,-0.2626512,0.02065017,0.05046853,-0.25215134,-0.0719363,0.12372434,-0.03671696,-0.040037565,-0.2739597,-0.23437335
/location/location/adjoin_s./location/adjoining_relationship/adjoins,0.3415371,-0.420156,1.1843585,0.32598737,-0.77778655,-1.2909236,-1.5204633,0.7207173,1.8002509,1.5305623,0.2695416,0.27389458,-1.3856452,0.9804868,-1.1310652,1.3561977,-0.40099874,0.24342337,1.6672144,-0.8313273,0.91657186,-1.1640546,1.4944091,-1.4068755,1.3556064,-0.34307846,1.5640349,1.4601756,1.379752,-1.0639844,1.3556408,0.41312447,0.108378164,-0.060428914,-0.07814421,-0.33623195,0.17491993,0.101775214,-0.33226874,0.46446452,-0.0867265,0.06459545,-0.23030348,-0.754365,0.37234536,-0.06875134,0.18630095,-0.058818217,0.24320851,0.1849939,0.030513829,-0.16171609,-0.5442526,-0.25964522,-0.21696946,-0.06763974,0.07643529,-0.045817472,-0.06684879,-0.027647087,0.17395891,-0.19447131,-0.005998564,0.046298932
/film/film_subject/films,-0.6209274,1.013771,0.5142831,-0.19996779,-0.18729272,0.49008343,-0.2106476,0.49076784,0.6910502,1.2084159,0.39822233,-1.3151597,0.8447872,-0.048531026,-1.2445178,0.16799907,-0.09809848,-1.0655493,0.6325787,1.0291976,-0.3710671,-0.9964537,0.9115165,1.1839702,0.24665901,-1.2752908,0.058807466,-0.89711,0.6532535,-1.0221725,0.11929604,-1.1332799,-1.1232507,-0.1386953,0.87617165,1.3163029,-1.3994595,-1.1044995,-1.094516,-1.2310907,1.1150614,-0.01835856,-0.07734851,-0.18904208,-1.096631,-0.9898699,-0.24036287,1.0283446,0.8884383,0.8307128,-0.38489622,-0.07317844,-0.7210886,-0.4788623,-0.23769085,-0.7685342,1.0471573,0.6382782,0.7834078,0.77521527,-0.8788454,0.14724164,-1.0829934,0.6737365
/base/schemastaging/person_extra/net_worth./measurement_unit/dated_money_value/currency,0.51883125,-0.04544805,-0.5568044,0.11753508,-1.0540925,-0.17237046,0.09919171,0.5508166,0.03545671,-0.8292483,1.0268255,0.8311629,-0.086579725,-0.3819949,-0.7770794,-1.0045292,0.42528477,0.011893534,1.4129952,-0.23946723,0.85012925,1.048766,0.68927944,-0.23961145,-0.45849845,0.1893323,-0.03511457,0.99229926,0.38626513,-0.7344902,-0.16667211,-0.5402663,0.16442555,-0.9134819,-0.64213103,-0.6883885,-0.97661823,-1.3552417,-0.26921886,-0.08249434,0.89486367,1.1210805,-0.085362114,0.93156785,-0.112758525,-1.0138899,0.3438155,-0.34561476,-0.42156023,-1.4153388,-0.30573446,-1.8885773,-1.6807834,-0.34380037,1.0178294,-0.5740611,2.6425374,-0.39785156,-0.86543167,-0.34024352,0.46958408,0.8233428,-1.3670037,0.083930455
/education/educational_institution/colors,-1.2423666,1.4453094,1.6225417,1.4989097,-0.8446494,0.011812749,-1.3117406,-1.5146711,1.9411001,1.3518102,0.7961901,-0.4630611,-0.6141543,-0.102837704,-1.4091189,0.10043561,-1.1324593,-0.65811265,-1.0078709,0.121348195,-1.5041407,1.821573,-0.9087314,-1.3900707,-0.59323114,0.28943545,-0.42540216,0.8171441,-0.42340133,-1.4538646,1.1183714,-1.4641954,1.1265104,0.26963887,0.6375833,-0.63524383,-2.0016055,0.72948635,-1.1684428,-0.6354128,0.12834802,0.3078596,-0.97491837,-0.19188368,-0.5907933,0.7935732,0.8611712,0.7867271,-0.5113198,0.8147634,0.26930743,-1.4024048,-2.0102885,-0.75528497,1.2207862,0.588722,-1.6984608,1.8557014,0.81914705,-1.0203736,0.7545855,-0.667898,-1.2294596,-0.31759235
/base/aareas/schema/administrative_area/administrative_parent,-0.7323388,-0.93871367,0.35222766,1.2292598,1.2343326,0.71471316,-0.63761765,-0.69169176,1.6513045,-0.5198031,0.86511046,0.5671867,-0.18291987,1.2347213,-1.1724246,-0.9037411,0.15203427,0.3005346,0.9957067,1.4436898,0.5552459,-0.10805621,-1.4442908,0.39831305,0.96281314,-1.013582,1.7506515,0.050329387,1.3060726,-0.3211218,1.0273192,1.6886166,1.3718584,-0.46985817,0.6933945,-1.3247787,0.21997471,-0.19510472,0.41947594,-1.3040076,-0.27218613,0.49190566,1.2817763,-0.011513545,0.55069447,-0.48694256,-0.5738178,1.2329898,-1.3992975,1.1048336,1.1142887,-0.017884623,-0.33463976,0.08789879,-0.5209512,-1.3600775,-0.21678407,0.06635643,-0.44320503,-1.13249,0.4779079,-0.22992623,-1.45291,-0.2813051
/organization/role/leaders./organization/leadership/organization,-1.068934,-0.11913405,0.5871605,-0.334265,0.63776934,0.8806154,-0.48096713,0.4019417,0.40637222,0.6831799,0.5696628,-0.28089306,-0.845411,0.16162713,-1.2218515,-0.7779152,0.36348695,0.4508012,-0.8169682,-1.1529536,0.035354253,0.36766103,-0.36506447,-1.2947531,-1.2098241,0.6695468,1.3260922,0.54396605,-0.022393472,1.414605,-0.7141801,-1.3751782,0.1608839,0.2261961,0.73930264,0.3731419,1.2899427,0.8771252,0.5460771,0.514294,-1.0864652,-0.44291538,0.5366489,-1.1375498,0.39139128,-0.016775418,-0.34857464,-0.7325399,-0.45901066,-0.1369883,0.27803192,0.6170931,0.9709657,-1.2685242,0.42161763,-0.30317417,0.61727035,0.011167737,-0.2255547,-0.29174757,-1.1190376,-0.80519027,1.1175096,0.3675196
/government/legislative_session/members./government/government_position_held/legislative_sessions,0.884661,-0.76672024,-0.060281992,-0.5101744,-0.652977,-1.2749155,-1.6691949,-0.9905677,1.4953644,-0.0014229552,-0.8800361,1.089443,0.56020296,-0.4988386,-0.13853477,-1.88939,1.4961702,1.894996,-0.19109942,-1.0088725,-0.031465683,2.027436,-0.6759793,2.2903829,1.7269226,-1.7504948,0.18178451,-0.893652,0.95151526,-1.0766242,-0.7971656,-1.5489504,0.12095442,0.80522126,-0.13033833,-1.6400714,-0.860098,-0.8813661,0.16998579,0.54310876,0.1884873,-1.9734701,0.1640103,-0.08431364,-0.9247852,0.5224946,-0.977229,0.19567691,-0.07422894,0.04682789,-0.8735478,0.13453108,-1.3367144,-0.18939926,0.8816553,0.17007315,-0.12561199,-0.06360364,-0.9039734,0.19840682,-0.28595853,-0.55144995,-0.057420637,0.5884481
/olympics/olympic_games/sports,-0.52768666,-0.7047571,1.670596,-0.026128516,-1.6786516,0.32030758,0.45242396,-0.32228345,1.627674,0.7651177,0.27371752,0.16394238,1.1705016,-0.03311254,-0.8705068,1.633428,0.8479962,0.19473125,-2.0616953,0.70447195,0.57397914,1.8603674,-0.18112691,0.62431735,1.9237511,-1.3161399,-0.33265093,1.1041977,-0.60357445,1.7289006,0.099690884,-1.5392349,-0.004016316,-1.4029886,-1.6346315,1.1037546,-0.47896877,-0.29869363,-1.7813021,1.0621867,0.37579355,-0.75993997,1.2760974,0.3957579,0.3777584,-0.65198946,3.0073524,-0.86900395,0.39298484,-1.2528378,0.4823793,-1.0637949,-0.96620524,0.010297051,1.1515121,-2.1678784,-0.7045914,-0.73186857,1.3520691,1.0693657,0.41397583,1.0977739,-0.694698,-0.3383215
/people/person/places_lived./people/place_lived/location,-0.34436515,1.3358651,-0.5957985,0.46030065,-0.46227837,-1.2529073,-1.0555222,0.6008105,0.8646594,-0.66856295,1.7830366,-0.8014986,-0.9020464,0.17176667,0.7011669,-0.1563844,0.7064108,0.80091333,-0.040063772,-0.8266705,0.5783331,0.92938924,0.5378305,1.3526667,-1.6851052,0.70753217,0.5887433,-1.070647,0.8625616,0.135798,-1.3435053,-0.3124902,-1.2960186,-0.5373171,1.0636156,0.59128803,-0.37176615,0.78488404,0.9460655,0.4645854,0.25543565,-0.75857836,0.71623033,-1.1037757,-1.2813368,-0.9804057,0.635224,0.9119369,-0.60305506,-0.41168422,1.363945,0.36492333,-0.37776378,-0.24630567,0.9500879,0.07803528,1.1015288,-0.42327517,0.096253365,0.75170946,-0.5061027,-1.2137277,-0.28524297,-0.6538195
/award/award_category/disciplines_or_subjects,0.80167544,0.6123213,2.2009451,0.97096676,-0.06872062,0.0015278165,-1.2003057,1.864433,1.12651,0.6759293,-0.98709244,-0.27281377,-0.46810657,-0.8854079,0.18710873,-0.9843209,0.3220719,-0.772411,0.23691268,1.7199919,-0.5353914,-0.21784218,1.5237689,0.92640585,-0.49664328,-1.5790259,0.72748846,0.80808544,-0.5325371,1.4769452,-0.54426116,0.30660853,0.11586965,-0.49233362,0.05282782,-0.3994176,-0.20424248,-1.4237523,-0.19022,-0.54989254,0.8045307,-1.3171449,-1.4502498,-0.16940376,0.3690082,-0.42135534,0.74084914,-0.42391944,-0.4415012,-1.0195516,-0.06594413,-1.272702,0.7740614,1.4566215,0.9154194,0.17606933,0.18017557,0.36755627,-0.6078729,1.0633696,0.21769571,-0.3116957,0.40088403,1.1073952
/sports/professional_sports_team/draft_picks./sports/sports_league_draft_pick/school,0.7687413,0.56770873,-0.25844604,-1.3420318,1.1370065,-1.4486368,1.1940287,0.41035414,1.1151946,0.73526335,-0.77668303,0.75620514,0.74484736,0.53595513,1.4104396,0.058983017,0.651683,1.187042,0.62083197,0.80723727,-0.10986744,-1.2241055,-0.34679258,0.89561236,0.24528481,1.077798,-0.83235157,-0.8693786,-0.95928377,-0.35912782,-0.4470761,1.3938272,-1.2938557,-0.71410346,0.8425707,-0.35781315,-0.64808774,0.49690238,-0.6128453,-0.32266587,0.8034953,0.94920456,-0.34576815,1.8686721,0.7737395,-0.3974083,0.0042924467,-0.9833369,0.9450288,0.19457129,-1.3629239,0.9170343,0.30960715,0.20580918,0.19913289,-1.1238914,1.0882705,0.0921679,0.26478025,0.946061,0.8505621,-1.4514434,1.6685632,0.2706291
/olympics/olympic_participating_country/medals_won./olympics/olympic_medal_honor/olympics,1.0971141,0.27875394,-1.2093364,0.49555245,-0.17736292,0.108295,0.5407307,0.6603977,0.56570977,-1.3458921,0.4564924,-1.1948385,0.02162209,0.79024553,-0.37219658,0.55262107,-0.91714436,-0.8098039,1.1538929,0.28178045,0.11993437,0.5031063,0.914081,0.9822805,1.1643319,-0.947133,0.49298146,-1.1530672,-0.99544924,-0.5831447,-0.2548602,0.32346445,-0.42785755,-0.13209371,0.95021945,0.36143577,1.2206217,1.5369607,0.8602848,-0.5056281,1.409722,-0.6222491,-0.7408393,-0.06105101,0.8986268,-0.60165983,-0.63276356,0.81986296,0.28862676,0.16432413,1.7029248,0.09067002,-1.4596555,0.36476102,-0.30556214,-0.30777127,0.22025967,-0.9466789,-0.17512801,-0.2939556,0.31844527,-0.75432146,0.7229643,-1.6881982
/language/human_language/countries_spoken_in,0.9524326,-1.3628552,-1.1696534,-0.18854909,-0.1789577,1.1833397,-0.23705517,-0.19814655,0.69252765,1.4254533,-0.43475223,-1.0038184,0.5531849,-1.4050627,0.38248068,-1.11124,0.51128995,-0.16086651,1.544114,0.46782738,-0.5026514,0.39726537,0.95176303,-0.80693734,-0.5356253,-0.6002749,0.6849543,0.18989111,-0.40495583,1.144685,-1.0052712,-0.45724094,-0.513352,-0.8140788,0.7617865,-0.48501557,0.8502861,0.14683497,0.43873706,-0.45948148,-0.067320615,-0.99214107,0.46628687,0.44659948,1.6070082,0.40509486,-0.4597175,1.4857538,0.7138972,-0.02663543,-1.2581575,0.278356,-0.28663144,0.48091352,-0.84283614,-0.31580126,1.1344217,0.1805288,0.8888059,-0.5378532,-0.39787084,-0.101570755,-0.53312635,0.958587
/people/ethnicity/people,0.7000215,0.3868309,1.1382855,-0.8812873,0.89985335,1.1303529,-0.7749844,0.5835974,0.88475394,0.18269143,-0.3041399,0.29175505,0.8113998,-0.2205412,0.2586173,-0.9489407,-1.1413195,0.3777027,-0.72529894,0.84547293,0.597829,-0.6256008,-0.9657392,-0.1341555,-0.9728604,-0.22804321,0.5024027,-1.0103321,-0.7029226,-1.1043074,-1.0994837,0.94522315,-0.745459,-1.2512408,0.05477074,-0.11217314,0.6718811,-0.26944193,-0.65350074,-0.5908794,-0.035844013,-0.67515266,0.8883437,1.0284293,-0.6690099,1.029966,-0.9284556,-0.52811354,0.26027632,0.81540877,0.96460354,-0.0718564,-0.62423116,-0.43858802,-0.17819715,-1.1265152,-1.1763843,0.79953134,1.1992755,-0.569386,0.16829365,0.18803881,0.031543408,0.68271464
/olympics/olympic_participating_country/athletes./olympics/olympic_athlete_affiliation/olympics,0.46613613,-0.46897763,-0.12952624,1.3621087,0.49729586,0.5513988,-0.14240102,-0.62778443,0.8391368,-0.047192372,0.40705818,-1.0533736,0.82205147,0.91140413,0.018745476,0.7054359,-0.48225492,0.06411518,1.1879151,0.38826945,-0.5637862,-0.49302953,-0.24796802,0.25705343,1.0955884,-0.4882316,0.35040742,-0.76082385,-0.8919423,-0.7783284,-1.0020573,0.88166606,-1.1942407,-1.0994966,0.8777156,0.6449311,1.1843826,0.3835618,0.87285095,-0.28964236,0.55041635,-0.70282686,-0.9561918,-0.59865946,-0.44413617,-0.87659997,-0.779384,1.1240169,0.9151301,0.17763872,1.2827924,0.21257156,-1.3793015,-0.60363966,-0.6854539,-1.1032597,0.26088777,-0.61823964,-0.54817784,0.51686037,0.643337,0.0718339,0.72233266,-1.3636333
/olympics/olympic_participating_country/medals_won./olympics/olympic_medal_honor/medal,-0.6482799,-0.7123866,-0.5449691,0.7051759,0.48487243,0.84836304,-1.0631368,1.0274613,0.92038494,0.9121091,-0.7454886,-0.8803811,1.4612948,1.4185009,0.48607513,1.0196542,-0.52450454,0.67590433,-1.5708146,-1.4207593,0.9618394,-0.22326319,-0.16542594,-1.732356,0.94248337,0.016896151,-0.29094848,0.91639787,-0.06660032,0.77898216,-0.6655917,-1.4674736,1.2319999,-1.3023379,1.5397974,-0.38164195,-0.6498513,0.381009,-1.4738078,-0.42440346,-0.8686576,-0.4767909,-1.0175625,-1.7489908,-0.65585244,-0.33060142,-0.95549166,-1.168065,-1.1468767,-0.56475806,-1.0301714,-1.7657351,1.3048913,1.1512367,1.7527877,0.7191963,-1.0003467,1.1692724,-0.71879244,0.24279842,0.4639509,0.16116463,0.26150995,0.0137526775
/film/film/other_crew./film/film_crew_gig/crewmember,0.10428088,-1.1400915,-1.30063,0.63381666,-0.26499492,0.78779876,0.51999444,-0.08449481,-0.3115479,0.5047461,-0.84448904,-0.4703276,-1.6816784,-0.4204421,0.22192447,-1.2273315,-0.11115671,-0.13647556,-0.52867615,-0.083277166,-2.0897217,-0.33778566,-0.14787449,1.0919256,0.9987533,0.029878212,1.2102867,1.3795986,-0.90943,-1.5088291,1.2394491,1.861274,-1.4435071,0.4863321,-0.6807138,-1.1915725,1.1134553,1.3110154,0.5227285,0.00094097486,0.4789912,1.2224479,0.2895485,-1.3300215,0.48625094,1.1923993,0.8545908,0.8752523,1.7391301,1.0407593,-0.96604145,-1.1016177,-0.30484936,0.9615467,1.0440164,-0.7786381,1.2768207,-0.8914792,0.74305576,-0.47423095,-1.1572272,0.23129466,0.8398072,-1.2186496
/music/performance_role/track_performances./music/track_contribution/role,-0.5700248,1.9537566,-0.63965774,0.441728,0.26349673,1.9208052,-1.460228,-0.3465044,0.5824066,-1.5080367,0.7292559,0.32049364,0.12061487,-1.4578986,1.4199175,1.2560488,-0.39122227,-1.2760575,-1.1257617,-0.2460278,-1.3862778,1.5441052,0.2383739,-1.4916638,1.929408,-1.3173697,-1.0966433,-1.0181848,-1.4045848,1.1854897,0.20655137,1.8302262,-0.11083072,0.005490236,-0.28611386,0.1170216,0.07787431,-0.14936264,0.046431933,-0.084984265,-0.046775077,0.14139639,0.3267979,-0.23101401,-0.07158759,0.13289651,0.09832843,0.060525745,-0.013843107,-0.0657519,0.09236234,-0.14478281,-0.26973376,-0.0008102538,0.13716032,0.1511189,0.06523525,-0.026691291,-0.09675489,-0.14171208,0.014025835,-0.0187443,0.17729728,0.04088044
/music/record_label/artist,0.5319994,1.2389485,-0.13414718,-0.7305854,0.98300225,1.064022,-0.14834122,-1.0406451,-1.1678336,1.0944669,-0.13334039,-1.2051568,-1.0387042,0.4985519,0.5471745,0.0220201,-1.2305028,-0.1589627,0.9414419,-0.53856933,-0.072694,0.9223812,1.2262623,1.2491497,0.19910578,-0.16116548,1.5448825,1.1771988,-0.14968902,1.1609603,0.1432295,0.19456519,-1.3269887,-0.30119613,1.3534603,0.99346346,-0.79809934,0.5779789,-1.397215,0.72676736,0.34560403,-0.2712245,0.56703806,0.24756564,0.14127132,1.3814307,-0.64265126,1.4539857,-0.0047807116,-1.1117907,0.9589618,-0.5967443,0.13202302,-0.7793126,-0.39191082,0.29313245,-1.9804704,-1.1013559,0.13841316,-0.5782051,-0.8829474,0.44752488,1.0084759,-0.92984915
/base/popstra/celebrity/dated./base/popstra/dated/participant,1.2639773,-1.728061,-1.9470911,-2.0678113,0.53536123,1.4488577,-2.0340157,0.8341382,1.1544687,0.5812639,0.025574498,-1.7078134,1.370246,1.8641562,0.86223423,0.82622945,-0.69576555,0.9008912,1.7833848,-1.0296879,0.05125691,1.1541407,-1.8808241,0.45012248,1.8151411,-0.5423639,0.41359544,1.8633503,-1.3296462,1.0424522,1.5973612,0.6368749,-0.07349934,0.024646832,0.074553035,-0.02463553,-0.054149184,0.045052946,-0.012507912,0.035263218,-0.004563938,0.019148268,0.0036889203,-0.054486975,-0.03344492,-0.010076488,-0.018792044,-0.00562584,0.04739997,0.08528666,-0.14664002,-0.0117823295,-0.64550513,0.006143008,0.012439689,-0.10159021,0.07627098,0.0033173056,-0.05978198,0.03336509,0.013852331,0.039395697,0.010495433,0.005014386
/base/locations/continents/countries_within,0.1541785,0.7945083,-0.4271464,0.81036556,0.7027315,0.20989552,-0.49859378,-1.6060104,-0.36369655,-0.43796787,0.9977834,0.74190396,-0.90892154,0.26153976,0.77087724,-1.4673451,0.13545007,-0.21145102,1.2202832,-0.3970169,-0.6997565,-0.049307033,-0.38143134,-0.5989866,1.0790482,-0.53096557,1.8577166,0.12191648,0.5772925,0.34072268,0.40716627,0.26447865,-1.1391965,1.2006961,-0.96120554,0.9486831,0.31937373,0.16926901,1.2033786,-0.09420205,0.8899459,0.41063586,1.0723573,0.8030151,0.058125008,0.7456438,0.85013556,0.17054231,0.43141255,-1.0212657,-0.7319106,0.40884075,-0.21824858,0.76338476,-1.0487539,-0.08040391,1.0095212,0.39490652,0.9094474,0.41210005,-1.2930442,0.4182454,1.3500096,0.05915716
/sports/sports_league_draft/picks./sports/sports_league_draft_pick/school,-0.46187964,-0.68474376,-0.9939526,0.9961739,-1.2197211,-1.0649881,1.3228683,-1.086343,-0.4112161,1.1594019,-0.22405607,-1.525361,-0.40149722,0.6785864,0.44495517,-0.46428835,-0.6626672,0.45463026,0.7306096,0.8879271,-1.246467,1.4314325,-0.8029925,-1.737879,0.81175184,-1.0762303,-0.8833728,0.218709,-1.8433772,-1.7698437,-1.68171,-1.1991459,-1.5039363,0.84223145,0.2805106,0.8659081,0.6825208,0.14548577,-0.7616429,0.5990693,-1.7286447,0.9370507,-0.03912083,1.0135742,-1.4031554,1.055282,1.288267,-0.4879036,-1.1851631,-1.2896372,-1.7490588,-0.74204135,0.19165277,0.8726154,-0.93592256,-0.41169623,-1.4399436,-1.7911938,0.7929581,-0.97097,0.08932633,0.5955246,1.1826437,-0.80578387
/sports/sports_team/sport,-1.2139289,-0.5773158,-0.7955892,0.74766266,-0.24422027,0.7074497,-0.052279234,1.8818213,-0.70712996,-0.84148395,0.6086571,0.33934438,0.7559531,1.0866752,-0.39936316,0.9331733,0.52326727,-0.34501716,-0.66859615,-0.86863863,-1.218415,0.31145006,0.23345326,-0.7242688,0.96427476,-1.1422106,0.7712212,-0.03485164,-0.6826585,-0.49973127,0.47057787,0.06593293,0.6014727,-0.7641567,0.59726924,-0.93057746,-0.17782861,-0.29717302,-0.60789293,0.24128045,-1.3150654,-0.9527866,-0.7176882,-1.190644,-0.13079852,-1.2050508,-0.62004274,0.07643085,-0.45489547,-0.79914284,1.2789767,0.9252249,-1.2149982,1.3520539,0.8215799,-0.6261568,-0.5984085,0.38851577,0.85484976,0.62308973,1.3061925,0.65568763,1.5532708,-1.4146731
/education/educational_institution_campus/educational_institution,0.84112406,0.95167893,0.23963392,1.3744535,0.73715687,0.95796025,1.2600088,0.39295897,0.7771481,1.2205268,0.22722098,1.0429273,1.3406126,1.0536891,1.4071687,1.0725763,0.62040585,1.2078264,1.013254,0.82386136,0.37354568,0.9905857,1.1669806,1.2008742,1.3403313,0.28039098,1.0932688,0.8872351,0.86448157,0.88622904,1.2831781,1.0067899,-0.13460207,0.13285917,-0.23492154,-0.34122738,0.69478333,0.13746339,-0.10312265,-1.0070541,-0.17021006,0.01189126,-0.06120665,-1.3820462,-0.17279029,-0.22331797,-0.057286575,0.08062471,0.22446057,-0.4558963,0.07582102,-0.2042184,-1.5794747,0.5476054,0.28253308,-0.24338959,-0.16723312,-0.018302739,0.021539865,0.30963328,0.16091636,0.5805012,0.06015228,0.57521296
/people/person/religion,0.8736396,0.7157234,-1.0328672,0.7338788,0.17386484,-1.224617,-0.35570672,-0.635265,0.5034173,1.0617406,-1.4539266,0.80531335,0.8643728,-0.6464053,-0.77086467,-0.56569874,1.2655016,0.78111035,-0.6248561,1.030763,0.20348372,-0.8076774,-0.62755847,-1.0057216,-1.8458074,0.09913565,-0.12680109,0.8186792,-0.68717146,0.905857,1.0662415,0.93256646,-0.114347406,-0.5870091,-0.9210062,-0.10038798,0.9405777,-0.2810878,-0.97924566,0.44806013,-0.7857116,0.018431928,-0.79557014,-0.93732727,-0.018498274,-0.7268499,-0.2635017,0.9144479,-0.015170365,0.6315919,-1.3758308,-0.017463746,-0.9320782,-0.57180065,0.77207005,-0.3012988,0.15635659,1.0082519,0.017249145,1.3172163,-0.39305484,-0.9415378,-0.814675,0.7533888
/organization/organization/headquarters./location/mailing_address/citytown,-0.5770922,0.6545302,0.46911988,-0.6570284,1.0440742,0.7864012,-1.339501,-0.9120898,1.4489552,-1.131641,-0.9240342,0.298544,0.23437653,1.7224475,-0.5846539,-0.7155162,-0.86902916,-1.4094516,1.2708051,2.0483508,-0.65165514,0.005757748,0.108702615,-0.51727,1.5278133,-0.6542947,1.250451,-0.25529376,0.9188751,0.67032725,0.89093554,0.18434374,1.110952,0.4469636,0.40317592,-1.4444274,0.43635482,1.1814123,-0.00971901,-0.13739665,-0.8926469,0.9059188,0.8229316,1.5787152,-0.14968157,-0.053311445,1.4248708,0.38981923,0.22330293,0.46333694,1.085866,0.07702335,-0.58193856,-0.6893475,1.6455802,-0.61396044,-0.49229652,0.34117985,-0.48602733,-1.1378341,0.96331763,-1.2735178,-0.93415517,2.1804137
/film/film/produced_by,-1.1923552,-0.57601726,-0.9238717,-0.14168414,-0.35805282,-0.19281027,-0.15696996,0.5080084,1.4617703,0.607095,-0.80966485,0.3031329,-1.0566633,1.0764023,1.0808822,0.3304576,0.95812935,0.3226512,0.61162734,-0.81484175,-1.4740738,-0.28180566,-0.7543627,1.260929,-0.4222297,0.6770956,1.1079887,-0.49107105,-0.86963993,-0.42158297,-1.6496946,2.0487983,-0.85922676,0.55705476,0.3109241,-1.6392362,1.0040793,1.2118405,0.07171495,0.446197,-0.6821603,1.219408,0.4148639,-1.3960029,0.2516464,1.0756711,0.59751254,0.6853283,1.015179,-0.24552065,-0.35342473,-0.94005024,0.140878,-1.1252533,-1.2556653,-0.3286214,1.4525179,-1.254602,-0.14947832,0.89870185,-1.3074871,1.258556,0.34507635,-0.18694769
/people/person/spouse_s./people/marriage/type_of_union,0.32089266,-0.8039805,0.27357933,-0.272046,0.18804616,-1.0378213,-0.36127988,-0.26114875,0.01441661,-0.34368616,2.1487057,-0.40632132,-0.1608868,-0.46540585,-0.10642121,0.37068218,0.5245586,0.2853177,0.7796432,-0.5408734,-1.9403954,-0.19510376,-0.34409326,0.0019035705,1.2357445,0.4140782,-0.1718428,0.13774692,0.39305142,0.5772193,-0.15616319,0.26085275,0.5181179,-0.20201981,0.180017,-0.45475656,0.5341576,-0.312607,0.06518497,-0.2569653,-0.1877929,-0.22008601,1.5351219,-1.2761049,-0.76302147,-0.21705319,0.27613395,-0.11405475,-0.070822634,0.4423462,-0.09694286,-0.87192607,-2.8672793,-0.13983342,-0.05575839,0.4355649,0.4917918,0.3745328,0.107240684,0.08576091,0.055090703,0.21416259,-0.5333882,-0.78497666
/film/film/production_companies,-0.68113035,-0.0785306,-1.0319486,-0.58743,-0.58616287,0.77609193,-0.29475412,-0.06565867,0.9972894,-0.62942046,0.20854175,-0.42886993,1.7252493,0.53244126,1.4456798,-0.20218958,-1.3025082,1.156808,-0.43404382,0.31409982,-1.094236,-1.4058408,0.6765343,1.4024032,-0.43616557,1.3674122,0.40534252,1.2109184,0.87482697,-0.71509564,-1.5740834,1.8529732,-0.5336566,1.5705378,-1.4194864,-1.3609273,-0.1676452,1.2902446,-1.2253871,0.625667,-1.2747842,1.2230748,-0.749918,-1.4495538,0.02841149,0.9920318,0.01751506,-0.95173246,-0.17820327,-0.46662405,0.8546977,-0.47434202,0.5031806,0.24987295,0.6995298,-0.41818637,-1.4760399,-0.58522725,-1.1132514,-0.24538878,-0.88859195,0.68764526,-0.0058088815,0.9862216
/location/country/second_level_divisions,-0.25624514,0.20975481,0.60277724,-0.3738519,0.5525635,0.7805696,0.13987064,0.7296405,1.3513086,0.13671406,0.32245675,-0.17677231,0.20640303,1.0849757,0.43419707,-2.008976,-0.11811979,-0.005664305,0.5157357,1.2351807,0.1160399,-0.8635537,0.34231305,0.37858608,0.66573536,-0.12186811,1.9229999,-0.17377132,0.72583264,0.0072635435,0.20688117,0.047971126,1.0030802,0.1795213,-0.6838899,0.43444893,1.3836173,0.20621094,1.4535643,-0.30673298,1.1706538,0.20307632,-0.549996,1.0724031,0.32846895,1.5065086,-0.14191882,1.0218753,1.3579558,0.1555457,-0.21493998,0.58576125,-0.029769488,-0.0028782568,-0.74412113,0.0005266575,1.3061731,0.30961323,0.8682942,0.4424301,0.0058316374,-0.11653868,0.9594774,1.1012974
/base/culturalevent/event/entity_involved,-0.22480378,-0.382003,0.17492223,0.062042862,0.71525854,1.421685,-1.0556948,1.564962,-0.58943754,0.7857,-1.3931409,-0.2773439,-0.6446927,0.9160032,0.88058144,-0.47920406,-0.06355909,0.6464631,0.067455254,0.121743545,0.6456891,0.043147694,1.197063,-0.3808373,-1.0824927,0.8936314,0.4249168,1.1476701,0.26246828,1.2378175,-1.1634837,0.9932281,1.1551375,-1.3601371,1.0337981,1.243345,1.0640992,0.85990024,-0.1742645,0.43153122,-1.0335097,-1.1919355,0.5288742,1.3031125,1.2352923,0.7534648,-1.071095,1.3949783,-0.005108919,0.6190315,-1.0961225,1.2591537,-0.46364543,-2.5592887,0.028300632,-0.9238893,-1.1791484,0.025249766,1.530083,-0.5956284,-1.9750773,1.145485,0.16176711,-0.8355157
/education/educational_degree/people_with_this_degree./education/education/institution,0.59260666,-0.9471232,-0.1945972,-0.37689638,-0.3419388,0.49912116,0.0096308,-1.2012242,0.43061304,-1.5494785,-0.60019183,-0.16470616,-0.39610705,-0.33351046,-0.26653466,1.0856062,0.44082126,-0.17207704,-1.4232783,0.29602137,0.50836927,0.7168036,1.1554736,0.1974526,0.33177423,-0.37052262,0.20335318,0.57577175,0.08365103,1.0137326,-1.0231394,0.7119461,-1.3477645,0.4503169,1.5535719,-1.1344963,1.6114086,-0.63978183,-1.1883347,0.4234774,-1.1217593,-0.30787575,-0.7655517,1.2135464,0.77431285,1.2619796,0.9467528,0.51566637,-1.5602497,-0.96038246,-0.37980306,0.7257541,-0.5277966,1.7635143,-0.51989186,1.3753638,-0.99656284,-0.6442907,-0.6857836,0.79073924,-1.037978,0.8959235,-1.08542,1.5207816
/film/film/distributors./film/film_film_distributor_relationship/film_distribution_medium,0.13407098,-1.544075,-1.125752,-0.5642707,0.016330725,-0.9812453,-0.9573693,0.018572249,1.4705701,0.16614495,0.53093755,-0.914051,-0.46254405,-1.00382,0.3034393,-0.7503491,0.09979929,0.6539577,-0.24863152,-0.109167844,-0.7446674,0.077264965,0.35655186,0.47277874,0.3947311,-0.2500381,0.010875177,-0.9501306,0.4387579,-0.22203425,-1.5007219,-2.331287,-1.1583843,-0.607869,-0.23577283,-0.059893094,-0.49320963,0.31899598,0.324996,-0.75036126,-0.32690316,1.4705981,0.08455144,0.7245699,-0.54601526,-0.21089056,1.164168,-0.55364704,-0.5416835,-0.650845,1.3107603,-0.27957132,-1.6085333,0.14418109,1.254842,-1.0812446,0.48448977,-1.0629784,-1.1302916,1.2420697,-0.8515097,-0.0044788662,-0.7536774,-0.098528504
/tv/tv_program/tv_producer./tv/tv_producer_term/producer_type,-0.04412498,0.059853766,-0.43693075,0.3695096,0.45050895,0.9036185,0.8830396,-0.022079179,-0.09182239,-0.4069047,0.54517615,-0.08392092,-0.24102989,-0.053712107,0.090108685,-0.485866,0.27309957,-0.33373627,0.43094832,-0.1654069,-1.2876685,-0.4647058,0.11162456,-0.035995103,1.989095,-0.09457144,-1.5489923,-0.41585317,0.34349376,1.5436764,-0.28036523,0.4414144,-0.37078074,0.9025485,-0.21750115,-1.2428805,-1.1540245,0.18945786,0.006494957,-0.28376007,-0.12090852,-0.58481616,-1.9594318,-2.2100616,-0.73518586,0.2274425,-0.68626386,0.7154972,-0.18809319,-0.068635195,0.1686592,-0.2343357,0.14562316,1.5437579,0.6945492,-0.63579816,0.007461135,0.17623912,-0.17299558,0.33001247,-0.09942479,-1.5993128,-0.90373164,-0.47527626
/music/performance_role/regular_performances./music/group_membership/group,-2.1748116,-1.1061524,0.020370455,0.8786639,0.10180878,0.26882046,0.23608346,0.41383114,1.3133496,0.74804425,0.23125568,-1.0441798,0.18671574,1.5362636,-0.06825354,-0.44499898,-0.838429,-1.125471,-0.43924466,0.3642405,0.040769994,-0.23243608,-0.50869244,0.6067116,-1.4396197,0.31838048,-0.16551146,-0.2130373,-0.25384384,-0.5403474,1.1757199,0.6457445,-0.8846201,-1.1228256,0.20876235,0.38994724,-0.5346784,-0.7507424,0.28655174,1.144942,0.9453731,0.3350985,-1.5331715,-0.9602483,1.5996093,-0.47386605,-0.63614815,0.34483916,-0.39883587,-0.3724295,-0.9517603,0.09067804,0.22936003,0.60621864,-0.82658947,0.11759546,0.43160024,-0.5074396,-0.6761166,-0.19483371,0.90913475,0.3462636,0.6420055,-0.7858905
/government/politician/government_positions_held./government/government_position_held/legislative_sessions,1.4446208,-1.3833026,1.6206712,-0.57512015,0.45706782,1.1487335,1.0904342,-1.837957,-0.83588696,0.010109011,-0.30622703,0.6308708,-0.75378793,0.2309079,-1.5180825,-0.22275068,1.5579717,-2.180561,-1.4157263,-0.24398819,-0.55639786,1.7460669,1.5974984,-2.172963,1.7099236,-0.61239845,1.0789137,0.77037376,-0.3151494,0.46279922,1.9141476,0.5936659,1.2758217,0.9033011,-0.22438332,0.45063293,-0.6480974,-0.25277016,-0.0102827735,0.9121678,-0.5515921,2.0301435,0.3722496,-1.9271182,-0.059415754,-0.10859564,1.107622,-0.2216166,-0.4079433,-0.7951602,-0.37410203,-0.90954655,-1.0826076,0.59266067,-1.3491873,0.77008927,-1.1557472,0.5190063,0.6950264,-0.8633839,1.7194434,-0.30203012,0.57518816,-0.7845177
/sports/sports_team_location/teams,0.63918275,-0.21822579,-0.21299337,-1.3546747,0.14427504,1.037565,0.3440352,-1.091377,1.2450752,-1.1997838,1.2053041,-1.4467013,-0.509168,1.0753891,0.13821144,0.66675764,0.5222679,0.07542358,-0.46480182,1.0695821,0.6477455,0.83615255,1.7069378,-0.83970755,1.5255895,-1.0435948,-0.18202995,1.0191817,-0.90549237,-0.8829349,-1.2051703,-1.4286613,-0.80334795,1.6269615,-1.35262,-0.58195156,-0.5004156,0.33879077,-0.8122912,0.009226882,0.84358174,0.69728523,-0.021817941,0.46410322,0.742687,0.78589827,-1.2267551,-0.16937166,-1.429357,1.0841856,-0.24832158,-0.5255655,1.6018052,-0.30110848,-0.7678909,1.4962866,-0.49042717,0.27184772,-0.3377168,0.895094,0.11672762,-1.0047739,-0.52682334,-1.3008293
/sports/sports_team/colors,-0.25541505,-1.5017675,1.2834885,-0.3191478,1.0861204,-0.30630448,-0.86331064,0.29070675,-0.35932627,1.6609641,0.061481085,0.452671,1.3700589,-0.9204995,0.28765813,0.17480458,-0.017601311,0.061985917,1.5890408,0.0055687404,-1.3452109,-1.4461527,0.024761504,1.1590308,0.34085122,0.11223138,-1.6350758,-0.323146,0.92208713,-1.9162741,0.64560735,-1.1276261,1.0544753,-0.4223943,0.70962685,-0.15800893,-0.87950164,1.3381205,-0.51674515,-0.7087215,-0.53372043,-0.04077446,-1.1500881,-1.5865537,-0.26456743,-1.0963106,-0.37782693,1.0994539,-1.5129946,-1.5541466,-0.9925929,-1.8895844,-1.540446,0.016478833,-0.63612765,1.4204595,-1.151911,0.23423465,-0.13437553,-1.3669891,0.59743774,0.207157,1.478446,-0.90160614
/sports/professional_sports_team/draft_picks./sports/sports_league_draft_pick/draft,0.9816072,-1.3844086,-1.219435,-1.235026,-1.4039261,0.56438416,0.7304339,-1.1749353,0.7676987,1.6988395,-1.1869959,-0.04259251,-0.4654812,-0.2141146,0.38061604,1.1031764,-0.10804758,-1.1097472,1.4538985,-0.5968679,-0.6984225,-0.097536646,-0.032096267,-0.10930979,-1.1620471,-0.02226101,1.5037302,-1.3093466,0.7114229,-0.28416187,1.2827449,-1.0452151,1.0111415,0.54590243,0.05152738,0.28466013,-0.27157298,-0.48600915,-0.32623175,0.85380465,0.8786971,-0.15291075,-0.82338035,-1.8769583,0.4877661,-1.6019828,0.49975726,0.40748248,0.71011156,0.23378392,-0.28194574,1.448283,-1.5589876,-0.40015486,-1.3014841,-0.49626532,0.65378845,0.6774698,1.2687047,-0.43036133,0.32712275,0.31350076,-1.0712184,0.8825125
/award/award_nominated_work/award_nominations./award/award_nomination/nominated_for,1.8134922,-0.91797394,0.02438643,-0.5003367,2.4293928,-1.2138131,-0.06847301,-0.13091628,1.4867493,1.7137445,0.64860696,2.8545578,-0.49643233,-0.6053788,1.2488294,-0.7009745,-1.9843508,-2.0732782,1.7791994,-1.2535012,0.44442192,0.9225728,-0.17031457,1.460817,1.9240661,-0.31060207,1.1591735,-1.159872,-0.28211883,1.9369897,-0.31174147,2.0656939,-0.1380819,-0.028884323,-0.07586665,0.0034834265,-0.14891455,-0.034137394,-0.048886087,-0.12709612,-0.1491819,-0.31667855,-0.35855192,-0.20493037,-0.19301422,-0.114989616,0.1720464,-0.17361003,0.19109917,-0.02602687,0.2730026,-0.19749098,-0.8963847,-0.06579993,0.129071,0.08621696,-0.045471653,0.2574113,0.16240199,-0.05366701,-0.11868836,0.015920917,0.1183369,0.029536115
/baseball/baseball_team/team_stats./baseball/baseball_team_stats/season,-0.39181194,-0.6130389,0.62067395,1.406264,-0.87219787,-0.495393,1.3824015,-1.6340636,-1.6093262,0.13588205,0.24772683,0.10287317,0.38761795,-0.58672583,0.40459728,1.577656,-0.013353117,0.600778,-1.0049945,0.66011244,-0.4559033,0.9505493,-1.1402552,0.84044516,1.6985966,-0.52701473,-1.2183703,-1.676585,-0.6443494,-0.053951103,-0.10437213,-0.46946228,0.012646266,0.1495188,-0.94223785,-0.8541308,-0.16980429,1.061351,1.5181283,-0.97783357,0.62510884,1.0359432,-0.93950945,-1.5188485,-1.0227873,-1.1770002,-0.20507336,-0.86282253,-1.3933612,-0.79427034,1.8407679,-0.4403789,1.1582607,-0.50409716,-0.09488178,0.17849611,0.032724917,-0.60819286,-2.0896146,0.11226164,-0.5434844,-0.5068259,-0.6542636,1.8212223
/user/alexander/philosophy/philosopher/interests,1.4091836,0.72304374,0.05099067,0.7572843,-0.42252076,0.8047753,-0.7417502,0.5056494,1.088373,-1.7045101,0.0011132217,0.31673723,-0.57018375,0.141681,0.30423194,-0.08597379,0.21752457,1.4603467,0.02557778,1.0159651,-2.038287,0.3311775,-1.7571689,-0.44866467,-1.667128,0.4929091,-0.5085078,-0.78747946,0.61174524,-1.0609227,0.8594201,0.42049125,1.6203395,0.115204625,-1.0679353,-1.5102892,1.6835619,1.5299385,0.61260384,1.127439,1.4669807,0.6058868,-0.5438316,-0.6734402,0.5812276,0.36417365,-1.4410862,0.5796089,-0.3784568,-0.775279,-1.5162137,0.68839085,-0.53067726,0.39827102,-0.34289628,0.8822266,-0.6083461,-0.2199851,0.23800462,-0.31107014,-0.011367269,0.3732838,1.3028839,-0.58344483
/people/person/languages,0.6631679,-1.0450937,-0.8812239,-0.010251754,-0.3529534,0.4666612,-1.1457735,-0.060318824,0.5895705,0.16146198,-0.052564044,0.7395142,0.28155613,0.08855893,0.3347077,0.6292635,0.9345261,1.5815812,-1.5278292,-1.433874,-1.7106929,0.03145811,0.0050504715,-0.6340356,1.9728513,0.25258523,0.0129029285,0.5112695,0.14979693,-0.10805491,-0.47891748,-0.7174391,-0.613522,0.6046114,-0.15033223,0.10826471,0.86541986,1.5264465,-0.3186095,0.15972634,0.63583875,0.5196375,-2.7159836,-0.10743906,0.27633792,-0.47321895,-0.33785757,-0.1898424,-0.7160901,0.1922738,-0.31155995,0.15586983,-2.0998867,-0.81627035,0.3318505,0.67022806,1.499931,-0.48894668,-1.3515198,-0.21227272,0.801428,1.1249514,0.45494902,-0.4640081
/education/educational_institution/students_graduates./education/education/major_field_of_study,-1.534857,-0.12542754,-1.1653266,0.8720696,1.7421814,0.6069106,-0.22449113,0.73141235,-1.1918867,-0.7415857,1.3768194,-0.38889524,-0.3402506,-0.25224012,-1.0348897,0.91666347,1.1441158,1.0101858,-1.2505833,0.012572681,0.16808975,-1.7035718,-0.91421866,-1.1790475,0.08573767,-0.30495986,0.34297845,0.32621372,0.9256288,-1.1993276,-0.887419,1.4841812,1.1047748,1.0057294,-0.46671414,-0.015800195,-0.428279,0.059657563,-1.2712615,-0.65465236,0.48399413,1.0328443,-1.1333619,0.66350096,1.1693873,-1.0552598,0.050066344,0.7247187,0.3789781,-0.561312,0.604714,0.8616869,0.8179333,0.44505492,0.7086085,-0.5072519,-1.0786432,-0.56510174,-0.36046535,-0.3213181,-0.099704,-0.24333577,-0.49263072,0.45702997
/film/director/film,-1.1302941,-1.131516,-1.2272328,0.32376954,-0.20145236,-0.007417816,1.0444629,0.8719776,1.709618,0.678382,0.060554523,-0.15158297,-0.45408282,1.2142231,1.2028481,-0.32235947,0.33669537,1.0317279,0.52822775,-0.9945252,-1.2146196,-0.055878893,-1.2659063,1.5697492,-0.67503226,0.25834036,1.29517,-0.26936585,-0.76203525,-0.78251654,-1.5443006,1.4683583,0.90566474,-0.14752667,0.14049518,1.4203277,-0.952861,-1.4999038,0.64829457,-0.38146898,0.19585752,-1.1661184,-0.5899786,1.5350299,-0.1408745,-0.7553622,-0.16448084,-0.9382451,-1.5909812,0.38974038,1.1364511,1.1495816,-0.9367614,1.1908,1.267441,0.68809456,-1.0468388,1.2257465,0.73536783,-0.43736735,1.2972575,-1.1498355,-0.2033126,0.65617037
/award/award_ceremony/awards_presented./award/award_honor/honored_for,0.84168845,1.0206931,-1.185836,-0.6046102,-1.440434,-0.16762036,0.71055025,0.5127289,1.1628866,0.5105996,-0.43275636,-1.3894393,-1.5602945,0.18159966,-0.50207144,0.6494612,0.08400642,0.9974906,1.2677585,-0.09039938,0.96617234,0.27944773,0.6740236,0.5568011,-0.75175995,0.17507356,0.37696987,0.55859405,0.55361146,0.1573373,-1.3189014,-0.16231537,1.4610747,-1.4677819,0.8030145,0.2795259,0.26133612,1.165564,1.0403068,-1.0657523,0.45244157,-0.8607512,-1.4929744,-0.07856749,0.5240008,1.4076304,-1.1975863,-0.5414197,0.7315834,0.5444141,-1.3426375,0.05315544,-0.60227877,0.66306466,-0.32863268,-0.83542204,-0.74469894,1.4587485,1.5384153,-1.3763436,-0.4805081,-1.3066092,-0.15036428,-0.6960105
/olympics/olympic_sport/athletes./olympics/olympic_athlete_affiliation/olympics,0.21280055,0.38187352,0.40760508,1.4160612,-1.17137,0.012065165,1.9290549,0.5018004,-0.81335396,0.044475038,-0.054823857,-0.80917436,1.047731,1.7500464,-0.66708237,1.1261694,-0.34980685,0.82247084,-2.2058854,0.06568657,0.7113684,1.0842811,1.2600704,-0.748824,1.2880312,-1.2574676,-0.24809198,0.859776,-0.3562796,2.2229266,-0.31018794,-1.285762,0.7629686,0.28723276,-0.114112325,-0.4733189,0.99582255,-0.35592812,1.9683266,-0.9742253,-0.49936935,1.0535214,-0.12070087,0.1256169,-1.6367775,1.4019698,-0.7836186,0.5083288,-0.13729402,0.9013154,-0.38328874,0.81862736,-1.5040222,0.04719821,-0.3173041,-0.4167843,-1.0199409,0.6083719,1.2832259,-0.30683786,1.5375248,-0.52598876,0.13263468,-0.09863358
/film/film/costume_design_by,-0.24562925,-0.9010709,0.7100596,0.12297451,-0.07617271,0.23430443,-0.40331465,0.28840443,-1.1304425,0.967127,-1.5591545,-1.2516177,-0.8799071,-0.0045968886,0.26973885,-0.5192717,0.13903905,0.9798214,1.0521518,0.8358928,-2.2718556,-0.6305562,-0.8975201,1.6482145,-0.053114075,0.6110343,1.5271178,1.1315564,-0.9212889,-1.4031445,-0.7236557,1.8714163,-1.5210689,0.72823775,-1.5048637,0.7631876,0.72156703,0.5701695,1.1113455,1.4088532,-0.22099222,0.98523825,0.30259177,-0.18280286,0.2816987,0.6580253,1.487771,0.29173493,0.6111035,-1.0005533,-0.5504365,-0.3017781,-0.9076431,0.067768596,1.0947205,-0.8571605,-0.39862636,-0.8282274,0.22027248,-0.6510498,-0.95385355,0.8993669,0.74105257,0.10373817
/film/film/featured_film_locations,-0.11346977,-0.12003702,0.31817153,0.14993219,-0.32288423,-0.05457666,-1.081523,0.4006815,0.492228,-0.3504803,-0.5941025,-0.4095041,0.30574018,-0.62727153,-0.2452479,-0.021503605,-0.9523865,0.54577446,0.5192803,-0.4619421,-0.20559207,-0.70433664,0.30010334,0.40004632,0.68593097,-0.34048188,0.4591209,-0.33170316,0.3216083,-0.1853419,0.78443676,-1.5705881,-0.24017504,-0.8909406,-0.11246165,0.17200366,-0.5887069,0.34721842,0.5415726,0.982453,0.094839446,0.62955046,1.1529268,0.004570945,-0.8980634,0.4234208,-0.49671352,0.1102517,-1.103216,-0.7368577,0.0050731516,-0.5232948,0.8828082,-0.6599373,0.92953646,-0.6964831,-0.718641,-0.58581746,0.13915722,0.7355589,-0.8833124,0.4294881,-0.4815431,0.4530982
/tv/tv_program/genre,-0.025910163,0.28032324,-1.4085149,-0.62083286,0.40270254,-0.7196732,0.7907542,0.461232,-1.2334502,0.37226412,1.2314204,2.0277512,0.6989805,0.17000909,-0.70961845,0.9264418,-1.1438193,0.5894022,0.7715207,0.09427247,0.4887948,0.20816615,-1.3375877,-0.31844503,-0.032534588,0.57718515,1.6070651,0.4581877,-0.5852156,-1.6950926,-0.87791455,0.9548032,0.7086122,1.7475693,-0.24966119,-0.16774932,-1.0824418,-1.2751179,-0.9941468,1.1517897,-0.77972394,0.7382627,-1.7172681,-0.92849165,1.3295522,-0.3010069,-0.31551433,-0.7129798,-0.9245384,-0.840974,0.702463,1.096527,-0.047211345,0.17116079,-1.0669322,-0.18119389,-0.5784372,-0.73089457,-0.75790447,-0.8944664,0.21835643,-0.60724294,-0.55564576,0.55124223
/organization/endowed_organization/endowment./measurement_unit/dated_money_value/currency,-1.5649949,-0.6972192,-0.03673587,0.05006423,0.40083042,-1.2474355,-0.17419487,-0.18362859,0.89763623,-1.0271838,0.067890905,-0.78869885,0.1835283,-0.9166228,0.22392228,1.0045232,-0.64553064,-0.9864035,-1.3511783,0.15507399,-1.6999516,0.6452457,-0.25756288,0.80564964,0.008343559,-0.05676054,0.72568494,-0.073,0.6880644,1.5756049,0.013477599,2.1382759,0.42197633,-1.0509391,0.25604433,-0.020538451,1.9770522,0.69046444,-0.97666204,-0.7091506,-1.4010433,0.5950511,0.69466364,-1.1921334,0.27666047,-0.93557984,-0.4849864,-0.15529041,-0.70660275,-1.3554394,0.30209765,0.4262592,-0.86561644,-2.1332176,1.3451948,-1.3359182,-1.2307193,-0.99519527,-1.4765376,0.5133822,-0.8348213,0.64317966,-1.2505499,-0.525859
/film/film/written_by,-1.0802338,-1.6484123,-1.3752155,0.5314159,-0.38022864,-0.046328593,0.16060956,1.0359652,1.176753,0.756051,-0.33908066,0.013381464,-0.704839,1.2582667,1.2219712,-0.6144924,0.52808255,0.94595623,0.6753274,-0.93748516,-1.1975185,0.23894279,-1.226427,1.3626913,-0.5444174,0.9510006,1.3617631,0.05020456,-0.7664473,-0.5514627,-1.4404508,1.4889852,-1.502296,-0.19530989,-0.19532211,-1.3217455,1.1904799,1.4622625,-1.1730478,0.2965655,-0.57207865,1.1048087,-0.043466523,-1.7891153,0.084532745,1.0011811,0.28839403,-0.023342032,1.1399223,-0.49886438,-0.65326214,-0.8754342,0.45634797,-1.3633938,-1.098129,-0.04031407,1.8271291,-1.0324556,-0.3076558,0.75757855,-1.057762,0.85335606,0.66318125,-1.1071193
/tv/tv_producer/programs_produced./tv/tv_producer_term/producer_type,0.46444398,-0.5393146,-0.55196756,0.4426707,-0.9642874,-0.16552028,0.43887812,0.22740316,0.2065788,0.3253682,-1.7193986,0.9405041,0.20496555,0.786374,0.44291005,0.2441926,-0.11163092,-0.36250272,0.533257,0.10837249,1.3797717,1.582062,0.0234676,0.39981183,-1.5955591,0.05162545,-1.5999055,-1.0159532,0.062807314,-2.1265688,0.8185297,0.16093886,0.30039757,-0.07424712,-0.7904798,-1.3016291,-0.671638,-1.5125709,-0.050225716,-0.09244609,-0.8856072,0.2799501,-1.0747116,-1.8931766,0.17390919,0.11202216,-0.20253083,0.49017537,-0.529899,1.019037,-0.28924766,0.11950758,-0.53734136,0.6992261,0.21973483,-0.24238726,-0.47572988,-0.061909027,0.4033261,-1.117412,-0.18391292,0.00054592686,-0.5718026,0.10730038
/location/hud_county_place/county,-1.6388818,0.6987927,-0.28341573,0.950329,1.4916558,0.46316445,-0.06469819,-1.4529657,1.0985265,-0.00968395,0.063053906,1.6313188,0.24885248,1.5977026,-0.9336657,0.18598182,1.0031248,0.70200473,0.77447426,1.1785994,-0.39086697,0.7858632,-0.40178582,1.1903505,1.5041432,-1.6913865,1.9164733,0.83162564,0.2128184,-0.33642754,1.7262146,-0.65305835,0.33888102,-0.8014455,-0.34984756,-1.0881625,-0.3511858,0.17249992,0.3783734,0.0961911,0.21331856,1.0072181,0.4607079,-0.061197303,0.15621233,-0.45098686,0.19721378,-1.1212544,0.007914834,1.6556534,1.4848378,0.24745631,0.19487077,-0.1599832,1.3174608,-0.38972652,0.31540957,-0.52023053,-0.21075189,-1.0203091,1.7649034,-1.0653106,-0.4681772,0.274062
/education/educational_degree/people_with_this_degree./education/education/major_field_of_study,0.7023828,0.33410263,-0.03735121,0.07418772,0.36578175,-0.8582645,-0.40320507,-0.46021345,-0.7434239,0.47583142,-0.97972757,0.17672859,0.88695997,1.0500424,0.6936367,0.7509328,0.30292496,-1.0538265,0.4131344,-0.660311,-0.39416033,-0.6622362,-0.22156724,-1.6406244,-0.7471468,-0.5150636,-1.7794659,-0.19783962,0.7539743,0.07186915,0.009990796,0.0034505988,1.4500049,-1.2862874,-0.80923223,0.54818344,1.4612395,-0.13784415,0.32532668,-0.16429667,0.6180215,0.20541318,-0.6129476,1.324012,-1.1098372,0.30329293,0.7445785,-0.38214064,0.027175622,-0.39646533,-0.61602414,0.34387672,-0.6945504,-1.28176,-0.9191652,-0.53371024,-0.7042033,-1.3850085,0.75700295,-0.026193665,-0.85402596,-1.1043515,1.701057,1.2460874
/base/schemastaging/organization_extra/phone_number./base/schemastaging/phone_sandbox/contact_category,-0.06881442,0.23594967,-0.11647731,-0.26350126,-0.0049760425,0.978007,-0.10061647,0.53356063,0.5171414,-0.3308608,0.25291714,0.7639374,-0.4586039,-1.1634628,-0.5284675,0.45639265,-1.242091,-0.5044766,-0.6642867,0.4873852,-1.7161067,-0.11312233,1.0323948,-0.37176204,-1.2386879,-0.882641,-0.3690777,-0.01860546,-0.6335116,0.17128883,-0.4537485,-1.5221748,0.035290547,0.9928091,0.94699705,-0.6594618,-0.84077096,0.37946516,-0.30972517,0.99251986,0.187388,-0.7116826,-0.5101718,-0.8963876,0.9966765,-0.72858053,-0.073842295,-1.3015331,-0.53426355,0.5002656,0.33662096,0.25895476,-1.5648392,-0.53762823,0.0010048514,0.88584226,0.6921938,1.9832135,-0.4090299,-0.52091944,1.19421,-0.23779285,-0.5439457,-0.81416625
/base/saturdaynightlive/snl_cast_member/seasons./base/saturdaynightlive/snl_season_tenure/cast_members,0.24742353,-0.1274927,0.100918755,-0.6728173,-0.59964883,-0.053688988,-0.93008465,-0.6680033,-0.02393336,2.7033062,0.23092875,-0.07526792,-1.9658303,-0.68963355,-0.188192,2.635048,-0.22320539,-0.72788584,-2.3301587,1.4326639,0.28599247,-1.3495494,1.1929725,-0.2590566,1.4303746,-0.76466924,3.0548458,3.410284,1.4188389,-0.88777447,-0.00090911216,-0.9210324,0.26782095,-0.17507575,-0.75007105,0.5775065,-0.8332396,-0.6399639,-0.43630674,-0.1492101,0.61551356,-0.17702818,0.2536558,0.8779923,-0.0032332991,-0.13912284,0.3795417,-0.44997117,-0.29314458,-0.38481715,-0.2853612,-1.4050304,3.392381,0.2372769,0.23463713,-0.54918706,-0.84896165,0.52995616,-0.17375828,-0.110594675,0.12659842,-0.38509056,0.33852592,0.44121787
/film/film/film_format,0.30717725,-0.3821304,0.841428,-0.3119626,0.4762074,-0.8801216,0.37605047,0.32084578,1.2083038,1.6073257,-0.012873405,0.4269791,-0.99015665,-0.33206785,0.57361,-0.11715957,-0.36647487,-0.11601674,-1.3130739,0.955703,-0.017173821,-1.4355859,-0.37834567,0.3514727,0.740025,-0.6079803,0.44562846,-0.7684013,-0.91713727,0.38881508,0.14810884,-0.0035785334,-0.13188887,-0.6299047,-0.17347427,0.44363046,1.120593,0.22527431,1.6697878,-0.5541652,-0.57377905,-0.38226616,-2.434216,-1.4669628,-0.33453372,-0.59348804,-1.5412767,0.7697727,0.40574697,0.05843693,-0.010376169,0.19764373,0.824998,0.31708142,1.1545688,-1.3888377,0.78775996,1.009273,-0.53772724,1.0966853,0.37096384,-0.4047043,1.9446107,2.1925547
/film/film/music,1.3227103,-1.4245348,0.07648053,-1.035526,-0.043492425,0.60405105,1.1650609,0.22108813,0.90514153,1.2181048,-1.0818074,0.18726891,-1.087291,-0.15914713,-0.102773644,-0.6476269,0.73659176,0.31497586,1.291825,-0.47179738,0.13486347,-0.95854694,-1.1215891,1.516599,-2.0615869,-0.033338465,1.604614,1.040569,-1.0281717,-0.3839279,-0.08660557,2.0113993,-1.057592,-0.02096723,-0.63834244,-1.0664395,1.3272767,0.86262184,-0.40526628,-0.0012137135,-0.97669065,0.3520145,0.4190988,-1.4429835,0.1806336,1.4291364,-1.0170971,1.383986,0.9829311,-0.8328093,-0.13815722,-0.97006136,0.1560679,-0.8482705,-0.24549188,-0.52789176,-0.0753689,-1.2069997,0.35188568,0.31288913,-0.6385103,0.89582574,-1.7294124,-0.49050042
/sports/sports_team/roster./american_football/football_roster_position/position,1.2557733,0.383608,0.9029987,0.9099944,1.3913051,0.97949123,-0.8388428,1.1313473,0.96815467,-0.6606246,0.08850793,-0.21452564,1.9914925,1.74793,0.5916603,-0.63060415,0.051861025,-1.4679579,-0.48540583,0.20908074,-0.12039793,-0.25317723,-0.69406456,0.8136708,0.93647057,0.29225004,1.4484494,0.6043256,0.9110134,-1.1878086,0.12417307,-1.6402999,0.92555726,-0.1657173,-0.26745754,-0.5494897,-0.5499491,-0.6525652,-1.6354288,-1.9444089,-0.0077482583,0.58831435,0.9109403,1.2009715,-0.14772101,0.982278,0.5523765,0.7493622,-1.410883,1.8075349,-0.34916764,-1.9386604,-1.6380044,-1.330715,1.2138791,0.1504825,1.917967,0.8928793,0.7440458,-0.37935585,0.18989715,-0.25019383,-1.3717333,-0.72200173
/user/tsegaran/random/taxonomy_subject/entry./user/tsegaran/random/taxonomy_entry/taxonomy,-3.4458065,-0.31111357,0.22343823,0.04409495,0.044153918,-0.18500307,0.049104832,-0.93892616,1.0431057,0.3600481,0.42336348,-0.09453765,0.51273686,1.3334126,1.5081708,2.1167612,0.17090657,0.12925324,0.6944908,-0.72776735,-1.5684861,1.54988,0.9916241,0.34602064,1.0392344,0.56261456,-0.021235727,-0.14906551,0.19516183,-0.4150674,-1.4184303,1.5310041,0.5192194,-0.09579002,0.55262524,0.40692613,-0.37363908,-0.8285292,0.6168212,-0.5774991,-0.6405607,-0.14905615,-0.35611075,-0.6933917,-0.46639436,-0.48433816,-1.9399341,-0.027890285,1.491468,-0.19760764,1.4598311,-1.4138728,-2.6012335,-0.77162313,-0.7636512,-0.18868607,1.7285008,-0.061431028,0.33599362,0.4143064,0.50166494,0.3258449,-0.6983076,-0.4512861
/celebrities/celebrity/celebrity_friends./celebrities/friendship/friend,-0.72622925,-1.1649563,1.2246968,-0.9576143,0.6590145,0.44150442,-0.82163817,1.1601316,0.9800463,0.5487974,0.749663,-1.1132917,-1.8495888,1.1754447,0.5911468,0.69358206,1.3851831,0.6806807,1.7860547,-1.3803964,0.8713513,1.5256048,-1.9058622,0.10890911,1.9841076,0.4293826,0.20332463,0.91805303,-1.1745353,1.0402869,0.35989237,1.1573764,-0.0557734,0.036044315,0.01334301,0.026860952,-0.054562233,0.09346296,-0.036045514,-0.0061673736,0.09242717,0.0012572897,0.0194648,0.06641986,0.0910854,0.063088626,-0.10113109,0.15601337,0.040181745,0.04908433,-0.050830573,-0.10253609,-0.22198367,-0.04469411,0.00601101,-0.16343507,0.06983672,0.007737496,0.051855724,-0.013683434,-0.055376347,0.12047663,-0.051932123,-0.044518355
/location/hud_foreclosure_area/estimated_number_of_mortgages./measurement_unit/dated_integer/source,-0.23527198,-0.26300606,-0.2578862,0.3435764,-0.40322402,-0.7491029,0.6602398,0.10698423,-0.065068476,0.4413146,-0.8624305,1.1382402,-0.81730646,1.2479452,0.24043664,1.5111713,-0.6173246,0.5290508,0.39346814,0.39955306,-0.14343476,0.5888899,0.077006936,0.18936795,-0.6998333,-1.074834,1.2823113,0.56748176,0.0364253,-0.16595267,-0.80013084,0.3209529,0.17388594,-0.2689281,-1.4435712,-1.4909588,0.17947392,-1.0926354,-0.626973,-0.80462646,-2.130181,-1.2088637,-1.790938,-1.479031,0.8183471,-0.9062243,0.19242968,0.92863935,-0.50488377,1.4700897,0.0377622,0.49425906,-1.1645367,-0.0036101937,0.1857966,-0.012015372,-2.704066,1.021639,-1.7101817,1.0582498,0.020609815,-0.1783611,0.2062235,-0.6359236
/base/x2010fifaworldcupsouthafrica/world_cup_squad/current_world_cup_squad./base/x2010fifaworldcupsouthafrica/current_world_cup_squad/current_club,0.8423952,-1.9899291,-1.7818693,1.859892,0.9952109,0.12046958,0.8296645,1.0892183,1.4154725,0.5773597,-1.0035841,-0.69401014,0.64718586,-0.8910388,-0.10282885,0.8086159,1.3147608,-0.25823867,1.0005685,0.29170418,1.0570873,1.2255177,0.5923098,-0.3117833,1.0078032,-0.069812864,0.8583504,0.5405093,0.39190435,1.7588475,-1.1253186,1.4072708,1.1894814,0.28251725,-0.066103846,1.1445656,1.2484472,-0.589866,1.0731219,1.5631014,0.7949201,1.9569091,0.5674984,1.4886193,0.17919955,1.2458789,1.6676865,-1.549359,0.9773242,1.6974834,0.3870289,-0.7342187,-0.52856463,1.9151653,1.1920522,-1.8411096,0.73261684,-0.2453766,-1.4396298,0.5101138,1.5604404,0.46228984,0.8393584,-0.89656997
/base/popstra/location/vacationers./base/popstra/vacation_choice/vacationer,-1.1291766,-0.34254426,0.4049607,0.32497752,0.016992997,0.5669901,-0.91439676,-0.8736558,-0.7087187,0.20768042,0.79839444,-0.19499224,0.07018253,0.15837257,-0.23012012,0.46422854,1.0739052,0.10072144,-0.028485999,-0.16097778,1.5336536,0.48928365,-0.38456258,-0.7911759,-1.439967,-0.25997567,0.11016711,0.09261573,-0.8919293,-0.25601864,0.27571017,-0.54192936,0.6399348,0.013776224,-0.24440323,-0.7164287,-0.63664305,0.43151167,-0.12217662,1.0551991,0.20486918,-0.091049075,-0.70042235,1.256411,0.21993953,-0.7953262,1.1173813,-0.5032239,0.9440523,-0.38138714,-0.8952973,-0.20178586,-0.19251917,-0.24009208,0.05165576,1.4548128,-1.4269428,0.1993988,0.3180056,-1.0470715,0.7732812,1.1585687,0.038241405,-0.51809007
/base/popstra/celebrity/canoodled./base/popstra/canoodled/participant,1.0957423,-0.6135675,-0.70973575,-1.65489,0.35027742,1.1725526,-1.7763345,0.61779606,0.83961433,-0.11973394,1.2491854,-0.018333217,1.3397359,1.706907,0.60051936,0.8686009,-0.41920805,-0.78340375,1.9385214,-0.41066253,0.57368845,1.6171829,-1.3096529,-1.1137451,1.8203851,-0.5388161,-0.76800555,0.98199904,-1.443261,0.77356666,1.3911123,0.4063588,0.03511002,-0.07150707,0.040088315,0.035584733,-0.013159905,0.0007575578,-0.057938017,-0.0996463,0.003481578,0.04787808,-0.3640233,-0.07842163,0.05813745,0.08338518,0.06991403,0.0023731072,0.053795762,0.06595442,0.010877593,-0.021653676,-0.43425727,-0.06955584,0.09362663,-0.084813595,0.0255429,-0.07771259,0.00042541494,0.055430263,-0.027793031,0.07972678,-0.10738698,0.16068143
/education/educational_institution/school_type,1.5588251,-0.43301365,1.0188099,-1.5130222,-2.1478014,1.0814171,-0.79781306,-0.97786725,-1.3107251,-1.205902,-0.023970792,0.35687202,0.18882497,0.29915988,-1.0026335,0.6817362,-0.47834888,0.93362826,-1.1640261,-0.89724416,0.22242518,-1.8593099,0.4303918,0.64528906,0.47202882,-0.47807282,-1.5178015,-0.3104039,-0.3885338,-1.0872355,1.8630997,-1.0743904,-0.9319461,0.72612774,0.3468006,0.7615193,0.27253166,0.31060597,-1.1678811,-0.90948564,1.4403956,-1.0363625,-1.5794618,-1.5081261,-0.6343134,-0.60962117,0.45832422,0.73282,-0.8780178,0.6053871,-0.4800113,-0.5222253,-1.4290209,-0.35380313,0.5961309,-1.3526659,-1.0350276,1.4044117,-0.16794999,0.3792079,0.97116727,-0.8336849,0.53903514,0.6313331
/sports/sport/pro_athletes./sports/pro_sports_played/athlete,0.94992,0.59240985,0.89009076,0.27151906,0.26997933,1.3609781,-0.38144872,-0.36470196,2.0200183,-1.1049633,-1.0559185,0.20132345,-0.763006,-0.8219202,-0.7566467,-0.57553834,-1.3010736,-1.176519,0.62263787,-1.3246536,0.40684226,-0.38861555,-0.9909625,1.4375807,0.22971636,1.1117785,-0.09237461,-0.1782997,-0.7871078,0.55686474,1.2130191,0.47587582,0.070071995,-1.1391151,1.3924744,0.6816113,0.48743236,-0.56394196,0.13524716,-0.19670203,-0.8501513,0.24040638,0.115099855,-1.1797181,0.51543766,-0.7926724,-0.52829665,-0.32924694,-1.3919123,-0.05731274,-1.6343523,-0.12111175,0.5199363,-1.889855,-0.11765338,-0.38940433,-1.5511131,-0.62328637,-0.90010655,-0.32307935,-0.17563707,0.6460815,1.5086657,0.66268843
/award/hall_of_fame/inductees./award/hall_of_fame_induction/inductee,-0.45569596,0.98892254,1.1594568,-1.237375,-1.133483,0.98175716,1.1879547,0.57232726,-0.16926265,-0.9427406,0.5304811,-0.25402814,-1.2110035,-0.3311264,0.648449,-0.702024,-1.1250997,-0.88096327,-1.2602007,0.23178545,-0.75180054,1.0595785,0.3472775,0.018007627,1.4455566,-0.6439974,-1.037644,-1.4130522,0.8574602,-0.21078077,-0.9923848,-0.08139234,-0.94885176,0.0037858987,0.31899852,-0.60730433,0.2403606,-0.5219188,-0.08865154,0.9383155,-1.0722686,0.02971305,-0.668553,1.2896448,-0.7014055,-1.3312796,-0.9779305,0.27324235,0.3949424,0.8220816,-0.5223754,-0.6183598,0.6874332,-0.42555708,-0.66871685,1.3799183,-0.13599475,0.05654467,-0.43690464,0.28504074,-0.43601626,-1.4374639,0.30397063,0.7547209
/base/biblioness/bibs_location/state,0.17887335,0.04370322,0.36557207,1.5297695,1.6426252,0.72260076,-0.47926673,-1.4160043,1.555621,0.1597094,0.13065147,0.22971621,0.07702798,1.6463859,-0.25785092,-0.9317358,-0.66670024,-0.85210925,1.5861199,1.874232,-0.40611243,0.79685545,0.60989714,-0.4540954,1.5340803,-0.6109707,1.8831289,-0.90111494,0.35247895,0.26707652,1.081448,1.4604608,1.4978626,-0.4259214,0.43022653,-0.98166806,0.39244345,0.23482403,0.5657962,0.11966557,-0.61567616,1.4982569,-0.24587522,0.6873077,-0.78287554,-0.9592991,-0.1992983,1.1715517,-0.72675246,0.7124877,0.90273756,0.073215276,-0.7954977,-0.42235824,-0.04898261,-0.3659495,-0.76427346,0.8673446,-0.8721425,-0.6197082,0.9171948,-1.6212355,-0.7755142,1.2200407
/education/university/local_tuition./measurement_unit/dated_money_value/currency,-1.3328016,-0.57555974,-0.010661551,-0.14480299,0.37551922,-1.2379322,-0.5394472,-0.11998395,0.75218296,-0.673125,0.032929763,-0.09866133,0.0443561,-1.0976202,0.18762347,0.966863,-0.2711664,0.22608568,-1.3749493,-1.3408523,-0.44975647,0.9568366,-0.0474461,0.7282848,-0.41871735,0.59263504,0.4873742,0.06817553,0.096414946,1.2648346,0.019621842,2.1074278,-0.08553268,0.35952625,0.70757717,-0.05291718,1.8076985,0.6863326,-0.6573082,-0.09561616,0.050927617,0.38521636,0.45256445,-1.5190113,-0.24759404,-0.23735867,-0.0995329,-0.17675008,-0.096039616,-1.1889524,0.31188703,-0.43372807,-1.8108869,-2.0442069,1.6655983,-0.36386797,-1.6261758,0.6777005,-0.6106351,0.122669175,-0.54573244,0.8114943,-0.8647575,-0.40464306
/business/business_operation/revenue./measurement_unit/dated_money_value/currency,-1.8581432,-0.5490854,-1.1315558,0.5329769,-0.7200575,-0.6568625,-0.87666035,0.48295325,0.80692947,-0.5023136,-0.7347678,0.7649504,0.3564705,-0.39528507,-0.69796354,0.9327911,-1.3550174,1.3810385,0.43371308,-0.79123247,0.48295012,1.3113332,0.80308706,-0.5767197,1.0081289,-0.43023548,0.9693242,-0.038791526,0.573807,-0.048429612,1.8914889,2.7633564,-0.9040897,0.25459045,-0.11896942,0.5837556,0.23117673,0.28295112,-0.9421001,-1.0357829,-1.4247648,1.3999367,0.73444617,0.78627115,0.36433846,0.3660939,0.90820515,0.81380194,-0.9124748,-1.7186062,0.14460899,-2.3441775,-1.7479296,-1.8085203,0.8809457,0.67428607,-1.6503218,0.30411157,-1.2306417,0.80194944,0.22669862,0.8419788,-0.81625146,0.32362932
/sports/sports_position/players./sports/sports_team_roster/team,1.448489,-0.3630595,0.58871865,0.4039578,0.63280576,-0.11452948,-0.71360326,1.3218263,-1.354314,1.0039518,-1.3132678,0.1176077,0.65079856,1.3177116,-0.6581312,-0.4145783,-0.2827667,0.08398615,-1.5576735,0.60800314,-1.127353,-1.4091911,-0.33482,-0.35322744,0.069306895,-0.4247759,0.17410989,-0.64385796,1.2271864,0.22457355,-0.2976783,-1.2648569,-0.54185146,-0.5613183,0.17533396,0.97252023,-0.88919395,-0.31708565,-0.4067905,0.60407805,-1.1925033,0.4358863,0.23388642,1.0965437,0.517375,-0.79207563,-0.19850692,-0.74225104,1.0029391,-0.5812798,1.086506,1.6894901,0.45913765,0.66509205,-0.47562513,0.04549068,1.3840066,-1.3429159,-1.2805507,-0.1344093,1.173895,0.70343053,1.9787627,0.9976261
