,0,1,2,3,4,5,6,7,8,9,10,11,12,13,14,15,16,17,18,19,20,21,22,23,24,25,26,27,28,29,30,31,32,33,34,35,36,37,38,39,40,41,42,43,44,45,46,47,48,49,50,51,52,53,54,55,56,57,58,59,60,61,62,63,64,65,66,67,68,69,70,71,72,73,74,75,76,77,78,79,80,81,82,83,84,85,86,87,88,89,90,91,92,93,94,95,96,97,98,99,100,101,102,103,104,105,106,107,108,109,110,111,112,113,114,115,116,117,118,119,120,121,122,123,124,125,126,127,128,129,130,131,132,133,134,135,136,137,138,139,140,141,142,143,144,145,146,147,148,149,150,151,152,153,154,155,156,157,158,159,160,161,162,163,164,165,166,167,168,169,170,171,172,173,174,175,176,177,178,179,180,181,182,183,184,185,186,187,188,189,190,191,192,193,194,195,196,197,198,199,200,201,202,203,204,205,206,207,208,209,210,211,212,213,214,215,216,217,218,219,220,221,222,223,224,225,226,227,228,229,230,231,232,233,234,235,236,237,238,239,240,241,242,243,244,245,246,247,248,249,250,251,252,253,254,255
/location/country/form_of_government,1.0731986,-2.0797024,-0.47136164,0.041613307,-0.509086,-0.48346406,-1.4639204,0.23058453,0.9262203,-2.3524551,1.5482827,1.4600621,2.0295458,0.40770084,-0.4953638,0.9793349,-1.6931069,-1.0104042,1.1035558,-2.1365724,0.9537363,-0.5086078,0.302722,1.09671,0.28154674,-0.44415882,-1.1231897,-0.65334433,-1.0481739,0.77577096,-0.91272223,0.057585776,-1.2259113,0.59278196,1.2576286,1.0257386,0.28700233,1.31737,-0.025574554,-0.8719251,-0.60575294,0.7076597,0.30683947,1.4175649,-1.7136536,0.0017706734,-2.09907,0.97124165,-1.3688961,-0.47893518,-1.1727595,1.0611116,1.3482232,-1.046131,-0.098058,0.9979487,-0.23238084,-1.1176299,0.6388479,0.7832865,-0.60277396,2.068922,-0.34359327,0.36468154,0.45890626,-2.7791822,0.18523833,-0.10353237,-0.7635243,1.5510265,0.5826978,-0.2319987,0.7210428,-1.630747,0.06856626,-0.63735354,0.16236283,-0.47518438,0.22512667,-0.3574536,0.18398394,1.8387499,-1.7838722,-0.34724665,-0.07952622,-1.260181,0.31525555,0.3097743,1.6014174,-0.067625694,1.6527269,-0.026455216,-1.4311497,-2.0469651,0.4236377,0.6072725,1.0506877,-1.7714896,-2.1698356,-0.25598094,0.25521764,1.0533476,0.18948874,0.796909,0.40232027,0.9083221,-1.6938593,1.2917893,-2.159538,0.963566,-0.36199027,-1.314829,-0.717986,-0.7370384,2.0083985,-1.0961734,-0.19082548,0.48632494,2.1903517,-0.67552596,-0.3578479,-0.52053154,0.6145139,0.65960515,0.36366776,-1.5686356,-0.43481264,-0.5923581,-0.39120734,0.7756541,-0.1852098,-1.28309,0.91930425,-0.671422,-0.716734,-0.7212771,-0.13270257,-0.75715834,-0.66938484,1.4816194,0.86419886,0.20117673,0.72444564,0.16714309,-0.05098805,-0.1357824,0.8526719,2.148446,-0.9554126,0.19244418,0.054168567,0.21623129,-0.81888044,0.26477686,-1.0836871,-0.18694328,-0.3464809,0.10758216,0.84899163,-1.6724236,-0.10861389,0.71798253,0.99944884,0.23302151,0.52376074,0.5253332,-1.3097913,-1.1033578,-0.39408007,-0.013923489,1.7371807,0.14627495,1.2476269,-2.0679111,1.2668896,-0.5415605,1.6582619,-0.87841016,0.5856284,-0.5805113,-0.19937174,0.58300245,0.12802671,0.9199129,0.9876102,-1.1854568,0.30942622,-0.36814925,-0.025570236,-1.345197,0.110576905,1.7258208,-1.1678336,-0.36698,-0.49397728,1.0472987,-1.3439081,-0.036930807,0.93171823,-0.9284248,1.4608918,-0.0021373257,-0.4839776,0.31143,1.7758393,0.47314656,-0.3117699,0.29926628,-1.9088786,-0.610822,-0.08324086,-0.46117344,0.69728637,0.6060673,0.17821978,0.14476041,-0.15758707,-0.6142584,0.23588812,-0.29816693,-0.03962005,-0.37426412,-1.1085382,-1.9305217,-0.8949105,0.61809397,0.77507305,-0.1222988,-1.947146,-0.020153226,0.17381926,-0.5109068,1.0136774,-0.963242,-0.34790337,1.2184337,-0.770379,-0.048803248,1.1505929,0.9787697,0.84601456,2.5308037,-0.7770356,-0.16636197,-0.3825229,0.21216589,0.42707613,-0.3729886,0.52656037,-0.5554472,0.96833146,0.33560196,-0.33925968,-1.2483586,-0.91503984,0.8072551
/tv/tv_program/regular_cast./tv/regular_tv_appearance/actor,-0.92579013,0.17746662,-0.9459125,0.3886892,-0.79222894,-1.8938898,-1.1575068,-0.9309348,0.5633013,-0.56821865,0.31532893,0.15142782,0.041519515,-1.20617,-1.1144564,-1.4933137,-0.71566945,0.1115173,0.76416296,1.4029351,0.86290956,-0.4649898,0.3630907,-1.3162146,-1.3819613,-1.0311712,0.1660109,0.4203587,-0.67197317,-0.3072586,-0.5229813,0.4555062,-0.26369175,0.28652692,0.0054240497,-0.47239012,-1.7603244,1.4722664,-0.8195674,-0.77659875,0.08701282,-0.431685,-0.18380485,0.050693274,-0.1817119,0.42051512,1.0477468,1.4965856,0.35565904,0.18712367,0.5906013,0.107133366,0.66216475,0.49714336,-0.5271287,-0.44183013,0.10889488,-0.6263498,-1.8037778,-0.5537208,-1.2041543,-0.33049992,0.94813466,0.91464126,-0.24648273,-1.671118,0.5082937,0.28136176,-0.539564,0.26347092,0.48571128,-0.1822901,-0.6124665,-0.51034504,-0.31518796,-0.4732977,-0.366096,1.7153299,0.58302027,0.254172,0.38829154,-0.3720177,0.54238284,-2.1241949,-0.9045059,0.8937234,0.9498171,-1.2769608,-0.3023732,-0.5421942,-0.22804762,0.8513219,0.56670517,-1.3061975,-1.1834737,0.23211633,0.089840636,0.2533474,0.065316804,0.7834928,-0.6648223,-1.1268542,-1.1249392,0.6030351,0.9993146,-1.0668541,-0.6963379,-0.18002592,1.9448959,-1.6369622,-0.49109066,1.9369388,-0.06748359,-0.0491652,-0.25364327,-0.1885806,-0.6578041,-0.037217602,-0.37262127,-0.958126,-0.30196312,0.19445471,0.43649468,0.7912577,0.3862547,2.0579772,-0.061151624,0.7994109,-1.51521,-0.3890807,-0.6947737,1.3066446,2.0811305,0.9014474,0.40348488,0.12742738,0.5308388,-0.4504526,0.9590741,-1.1797712,0.30980942,-0.51724845,-1.1948549,-0.8131046,-1.0106872,0.6916472,-1.1307609,0.98806405,0.056271136,-0.5716411,1.3048183,1.2344773,-1.6217809,-0.42744341,0.39610618,2.6355553,0.17296772,0.93108386,-0.34060887,0.48879692,-0.11298385,-0.16346003,1.2989122,1.0251379,-0.27629587,-0.13300407,-0.4913629,0.28030202,-0.39258438,-0.23359892,-0.5912603,0.83522767,2.5742416,-0.62367636,-1.9490243,0.05856411,-2.8248703,-0.09524109,-0.6875394,-2.2467618,-0.18403022,-2.8721418,0.8983071,-0.52107346,-0.8182834,0.65391326,-1.0230508,-0.6709119,0.80405754,-0.0072088083,-1.5955125,-0.3888982,-1.370862,0.21393119,0.22686525,-0.2649455,1.7200874,-0.17078379,1.8651236,0.65644693,1.0145309,-0.05313221,0.49439535,0.29386348,-1.0075136,1.0795841,-0.14580719,0.09996844,-0.39052165,-0.91295826,0.37488383,-0.20466667,1.9145046,-0.37081304,-0.6628418,0.58146495,-0.43775523,0.34323904,0.848432,0.022753183,0.48881197,1.5392804,0.15735103,-0.13121729,-1.0565574,0.7289679,-1.7923267,-0.06857407,-1.3875557,0.2500803,-0.3254762,0.2641834,-0.57357013,-0.36226946,0.49478698,-0.14807492,0.4934905,-0.8383237,-0.32274133,0.63359636,-0.56066215,0.15854755,0.06122207,-2.3334804,0.91235465,-0.0030378515,0.24889627,-0.38145924,1.0515438,-1.0696237,0.48373872,0.42018646,0.44557762,1.0003514,-1.2036572,1.8392763
/media_common/netflix_genre/titles,-0.8500606,-0.30437988,0.07215411,0.72741556,0.6595583,0.81187755,1.330012,-0.7714183,-0.018584678,-0.07202323,-1.3446516,-0.03485504,-1.2579112,0.059889685,1.8947272,-0.48515722,0.5635355,-0.27554572,0.45681185,1.0817827,0.17104536,1.0765855,0.6754765,-0.88498235,0.5548787,1.7477177,-0.02358997,-0.80885524,0.5103464,0.6202357,0.7851459,0.4093985,-0.049778663,0.57332385,0.4389806,1.5447673,-1.2403684,1.2584401,-0.67801684,-0.3850583,1.1313885,-1.5726967,0.32051766,0.7633181,-2.081536,-0.6234909,-0.1186208,0.36265627,-0.80812526,1.6740919,-2.398947,-0.32331187,-0.513164,-2.027958,-1.1189809,-1.3469464,0.9517282,-0.65618956,1.5511017,0.634446,0.12969442,-0.25434226,-1.1339488,-0.26189414,-0.8687032,0.07857671,-1.2643754,-1.4841834,1.3579156,0.08706052,0.12442873,1.5364939,0.5029434,1.0933491,-0.94341147,-0.82517326,1.6783495,0.264443,1.3479632,-1.5189776,0.9983296,0.34104112,-1.7409931,1.1780854,-0.093612425,0.27900586,0.6079462,0.7924448,0.5316127,0.017874306,-0.70713955,0.8776362,-0.48476282,-0.8255092,-0.7721051,1.7220796,-0.90016717,-0.075120315,-0.07129669,1.4314992,0.2955249,0.5666597,0.427138,-0.080129564,-0.49115184,-0.73651594,1.2983994,-0.24193823,0.23318285,-0.14362003,-0.043791242,-0.47109607,0.276978,0.19540882,-0.96395946,0.57197577,1.0994389,0.55778146,0.3787494,0.4539044,-1.7801813,0.47621566,-0.06111181,-0.06689333,0.08940259,0.80014104,-0.86374044,0.58209383,-0.7068064,-0.66849834,1.2218637,-0.15730816,0.28760773,0.08922087,-1.4596221,-0.113642134,-0.17675821,-0.9501869,-0.27304605,-2.2033978,-1.5135187,0.56997424,0.6874355,0.76844835,1.3524966,1.1971216,0.467672,-0.5935433,0.6815855,-0.83808714,0.0076432466,-0.44332376,0.29076087,-1.3036336,-0.9206243,-0.2079372,-2.1939716,0.13016655,0.4873507,-1.4003372,0.4602829,-0.3336511,-0.5359709,0.47320652,0.7536667,0.5697852,-0.31819332,-0.91310626,0.06729111,0.1819615,0.062023595,-0.23237562,0.37437248,0.22177967,0.029716304,-0.75086856,-1.1042014,1.11331,-0.19053695,0.5939657,0.31927824,0.652913,-0.548118,1.2462915,0.37449193,-0.786056,0.8146397,0.48995885,0.44653067,0.25902385,0.23316106,-0.30574661,-1.1927836,-0.5421399,0.6028386,-0.07589728,1.1256062,0.27942178,0.07617446,0.8014763,0.23121881,-1.5971689,0.36229083,-0.587292,-1.4570305,-1.7420908,-0.9905254,-0.5283113,0.7693998,2.196877,-0.013540247,0.31278303,0.84652376,1.0783788,-0.15979761,-0.1492266,0.0013236696,-0.6418032,1.2581507,-1.2026953,-0.102506995,-0.031110197,1.9751577,0.8855676,1.2855277,1.4235139,-0.33004653,1.6755826,0.6985029,0.5792587,1.6872673,-0.15623349,-1.1357735,-0.12669557,1.2102193,-0.5428902,-1.3326163,1.0240937,-2.2442472,-0.009889935,0.69786966,-1.345732,-1.6537964,-0.12557563,-0.10334417,-0.51073426,0.38463503,-0.4069358,0.112262785,1.8856467,0.24613863,0.01769659,0.450291,1.248927,-1.330547,0.8040755
/award/award_winner/awards_won./award/award_honor/award_winner,-0.12390024,-0.9153436,1.6092948,0.52229893,0.5181482,-1.4043163,0.25599596,0.669711,-0.8807418,2.0661206,-0.3429693,-0.88314515,-2.4209762,-1.0636573,1.9793218,-2.2265947,0.6687183,-0.12421556,1.8128994,-0.34271133,-1.2957343,-0.5094804,1.8025392,-1.2623501,0.01207075,-1.9633986,-1.2155756,0.47459984,-0.24521482,-0.6597084,-1.0526949,-0.59498465,-0.06172024,-0.8021303,-0.022246413,0.69764864,0.26924133,0.3033695,0.6021785,-0.864515,1.2034887,0.61787146,2.0618434,-0.6447145,-0.8646434,-2.0648837,-2.1203027,0.06547668,0.061080564,0.64620626,0.79774934,-0.5121227,-0.57787716,-0.75689673,-0.12103517,1.0607519,0.0962866,-0.045779817,0.35239196,-0.35816008,-1.60822,-2.3162265,0.031094935,-0.2864415,-0.6410415,0.14378516,-1.5615586,0.36093634,-0.45698485,-0.8989894,1.2232871,-0.604217,0.7794487,-0.35515472,0.7377899,0.39286506,0.626002,-1.0468329,0.60454744,0.20161845,-2.5260906,0.100440495,0.31263718,0.49746254,-0.55992484,-0.12909882,0.010698809,-0.6515772,-0.5935584,-0.43941966,-0.41712993,0.09648196,-0.7639126,1.5614113,0.376678,0.19202073,-0.4299789,-1.9906015,1.1775575,-2.0128915,0.19414964,0.16531079,-0.031524565,0.58484083,-0.3137627,-0.31823882,-0.03642641,0.95614797,1.109966,-1.0698404,-1.6889381,-0.32634324,-1.3477674,-0.61397946,2.7362626,-0.16961698,1.2546268,0.47025654,-0.69521546,0.6023684,-1.5005083,-0.51248825,0.18827306,-0.961563,0.73324114,-0.4340897,-1.2073325,1.0867583,0.25020364,0.5056535,-0.16835983,-0.37925476,1.5555658,-1.5731815,0.1674519,-1.87479,-2.4701746,0.4424547,1.1721373,-0.28985086,-1.7320645,-0.29241523,-0.37179232,0.39694017,0.43733433,-1.1589944,-0.066090174,-0.61566406,0.23871657,0.72005486,0.24571346,2.0626755,0.17464082,-0.5219942,0.032220837,-0.030179117,0.8775499,1.5138249,-1.2787396,-0.4500693,1.3886652,-1.2668501,0.9989751,1.9854394,0.6379815,0.39468437,1.227677,0.0038461692,0.7765666,0.15586424,1.2457192,-0.8952753,-1.3924428,0.7028633,0.5429394,1.1122068,-0.040580038,-0.36862728,-0.3713127,1.0424907,0.37605456,-1.5999119,-0.54835886,0.88680375,-1.007859,0.08894402,-0.59846383,1.3150846,-0.8160336,-1.9236398,-0.4427177,0.87919927,-1.5128956,-1.5198882,0.6443844,-0.38815907,0.047997814,-0.7135754,-0.5727339,-0.97652215,0.07490185,-0.08180999,-0.23101176,-0.018959824,-0.11373762,0.8571537,-0.2720027,-0.7812813,-0.0168903,-0.6764599,-1.2138511,-0.5108767,-0.67442495,1.9711058,0.012232869,1.2060846,0.7468496,1.113761,1.9229275,1.2947738,-0.445605,2.1623485,0.8403393,-0.5011342,0.6775808,-0.33167714,-1.2293835,0.9319985,0.82621175,-0.9676355,1.3857533,-0.06441702,0.08040561,0.44683176,1.635098,-0.88213754,0.38311574,-0.4085692,-0.29759973,0.67496884,0.8822712,1.595415,-0.25660777,-1.8752754,0.7322863,0.89523834,-0.05843043,-0.96057993,0.47022963,0.72297704,-1.1187962,-0.98641396,0.8709013,-1.0027317,-1.1089759,-0.24882269
/soccer/football_team/current_roster./sports/sports_team_roster/position,-0.28150105,-1.337686,-1.4490062,-1.3107152,-1.7998164,0.8224191,-0.72497636,0.6101771,-0.58041024,-0.87218875,-2.054387,0.23948306,-0.76845044,-0.70292056,1.7990216,-0.23111132,-0.7516792,-1.4539096,-0.40706548,-0.70184404,-0.9306124,1.1965271,0.6423183,-0.41781202,-1.1672523,0.09535963,-1.77417,-1.7835864,-1.2669404,-1.4644339,0.8269352,-0.69620144,-0.33590195,-0.3388314,-0.05305382,0.4099531,-1.885561,0.038672376,-1.3298128,-0.86231834,-0.10558197,1.2016981,-0.5983384,-1.2250391,1.0014699,0.34817365,0.8660803,1.2404797,-0.19856556,-0.56283295,1.2311345,-0.39608872,0.3022704,-0.8181479,0.6946471,-0.69461375,-1.9140893,0.9989819,-1.7524382,-0.7317907,1.6772673,-0.06943652,-2.0042648,0.6628409,0.7949648,-0.011757234,1.8352478,-0.9465138,1.0971491,-1.6994456,1.0072076,-0.6964119,0.16007052,-0.32001725,-1.049298,0.14636612,-0.5206932,-0.48052558,1.6845406,1.1505338,0.029904995,-1.7364397,-0.4440049,-0.1914496,-2.0977356,0.13381389,1.3156993,0.16399214,1.3818169,0.6466899,0.26789865,-0.27172595,-0.022714872,0.5013405,2.7841835,-0.06285054,0.9217159,-0.76291156,-0.0018123571,-0.8161574,1.4723667,0.6263912,-1.0254142,-0.84106773,-0.26137614,2.2984984,-1.6660987,-0.77503157,-0.2362193,0.16726828,-0.5587369,1.6544396,-0.99322134,0.7480539,-0.27134874,1.0858754,0.4360213,0.5826645,-0.86839277,0.4644264,0.84373087,-1.0769384,1.9778016,-1.5877676,0.18424106,-1.1082697,-0.7225611,0.8435945,1.0299324,-1.4177784,0.60319304,-0.96816283,0.2610572,-1.6096454,2.1596847,1.125252,-0.6758681,-0.31546706,-0.35677612,0.779478,2.0015955,0.123059854,-1.4467602,-1.0832423,-1.5161473,0.66184354,-1.2634423,0.94711995,0.416455,0.83806986,-0.15236436,1.9150379,0.44398367,1.2931681,-0.67494893,-0.44453517,0.794698,0.3908217,-0.079033494,0.875001,0.95574814,0.34126896,-0.06356055,-0.826768,1.6768975,-1.5575038,0.29652527,-1.4982451,2.0768967,-2.4397943,-1.3177013,1.7158542,-1.095831,0.91087794,0.61600494,-0.86327755,-0.36618695,-0.8100524,1.2215617,-0.21141154,-2.1740487,-0.3692212,2.3306034,-0.5653812,-0.85441804,0.64184344,-1.1581552,-0.58982295,-0.8081371,-0.6621677,0.87521607,1.175751,-0.82510734,1.1678894,-1.3574255,-0.7891109,0.3573683,-0.5967586,1.4740502,-0.58772415,1.0533127,1.7558703,0.03094255,0.011603452,0.56817436,-0.30855656,-2.4002995,0.7276482,-0.956201,0.13230048,-0.7643141,0.8204629,0.2812871,0.42583418,1.390359,-0.43387622,-1.1647571,-1.4584851,0.06266813,0.12947711,-0.8772352,-0.2526,1.4185121,1.0682807,-0.25691736,-0.6496868,-1.5604192,-0.8164386,0.2716832,-1.4376276,-1.4772438,-0.54831773,-1.2305635,0.33367178,0.7239081,-0.7477895,-1.0519332,-0.33686092,-1.5068079,-0.7960045,-0.5369962,0.3189618,0.8687434,1.0162331,-0.015571183,-0.01239238,0.6425097,1.6035904,-0.7926574,-1.0423163,-0.7613401,0.03452272,1.6388825,-0.9711528,-1.2937677,-0.8494145
/soccer/football_team/current_roster./soccer/football_roster_position/position,0.41901237,0.969538,0.16903183,0.6335994,-0.16716236,0.7901677,-1.4171708,0.36813927,0.6258412,-1.2547894,-0.9074979,0.15527947,0.20457064,-1.7448589,-0.9974829,-1.0996976,0.007711468,-1.33277,-1.4859642,-0.61174726,1.6511121,0.26860157,1.6577944,1.4070004,-0.4621027,-1.0495818,0.7325075,-0.11307131,-1.8980896,0.8952578,0.35153738,-0.05655077,-1.2547607,0.90351194,-0.7496955,-0.7258675,-0.1452742,-0.68313146,0.3246108,0.48655814,-0.5169763,-0.5656878,0.07156631,-0.36896956,0.9527496,0.21951461,-0.84445363,0.7291431,-0.24191292,-0.16206716,-1.0063815,0.5181768,-0.94798774,-0.28933504,0.6410254,-2.4386423,-1.6216716,1.2243448,-0.54025304,0.36641794,-0.25060236,0.4933434,2.0912066,-1.6649415,0.066405736,-0.0313685,-1.5675315,1.4654412,-0.7128977,0.8911766,-1.1032282,-0.68574727,-0.8011911,-1.0623049,-0.85345906,-0.40352064,0.47677603,-0.060942326,0.252992,0.36733958,-1.3073905,1.9178189,1.4101952,-0.33209124,0.69633865,-1.1025939,-0.67031085,-0.9420412,0.87050694,0.21061797,-0.42993924,-0.29097775,0.2181586,0.8171277,-0.6802639,-0.045513753,-0.093251936,-1.6942502,-0.9345725,1.6035014,-1.0351539,-0.49130318,2.8092923,1.5159034,0.6242343,0.6716525,-0.6423241,-1.1254112,-0.53078634,0.046240065,1.0969806,0.29944223,0.5700946,-1.2489862,0.539168,-1.4182593,-0.903317,-1.899426,1.0988864,1.8488753,0.0514104,-0.7827547,-1.1764063,0.1389712,-2.1818333,1.105477,1.164593,-1.537215,-0.21742302,1.2804364,-0.56404054,-0.45628932,-0.36849248,0.9380174,0.43688384,0.040108588,1.6226269,-0.26243943,-0.7376166,-0.6929702,1.872041,-0.74423534,1.4889961,1.1584499,-2.374056,-1.0487872,-0.58182997,-2.210295,0.60518664,1.7777156,0.5744192,-1.3393433,0.5529149,-0.38086474,-1.2281716,-0.31299895,0.4733229,-0.3509498,-0.41471347,-0.5032903,2.9179986,-1.2386081,0.30509433,0.38633704,1.078724,0.30942583,0.19902734,-1.0680672,-0.8395301,1.24464,-0.7493671,1.3815017,0.5885274,-1.3525478,0.52773625,0.28737077,0.7208504,-0.6101044,0.9694505,0.41920632,-0.4819469,-1.7429163,0.27445278,-0.19698676,-1.6000435,-0.19450556,-0.050241362,-0.7365106,1.2231486,-1.990908,-0.49710706,0.94971275,-0.8577423,0.4219124,1.5214779,-0.7562964,-1.7913904,-0.33312714,-0.6385016,0.47376114,2.5201244,-0.39238578,0.44607702,0.075547464,1.4008567,-1.5867432,0.5062339,-0.3702029,-0.008304469,-0.8675234,-0.7261333,-0.81861264,-0.6836988,1.1307424,-1.3871857,0.97087336,-1.3204328,0.2300503,0.04319194,0.6797528,-1.3426014,-0.8330072,-0.8452851,0.9861925,-1.0128267,-1.137561,0.78416944,1.1211303,-0.9841062,-0.71280074,0.50012904,0.6734554,-0.06381609,-0.8059148,-0.7058086,-0.06469474,1.1588012,0.23471333,-1.1798992,1.4283255,0.971234,-0.32173732,0.84008217,-0.7600627,-0.64554507,0.578453,-1.4379752,0.0364304,1.3370059,-1.240281,0.34641477,-0.5413875,-0.3433935,-0.23519704,-1.4625479,-1.3695542
/film/actor/film./film/performance/film,1.9237024,-0.5229669,-0.79407465,-0.71507955,0.710796,0.1218701,1.6626763,-0.8060001,-1.0762874,0.54114074,-0.60984415,0.098491415,-1.5188556,0.24161252,0.49553835,0.55496913,0.34138453,0.6246319,-0.8202727,-0.03621247,-0.30809563,-0.5456864,-0.305529,-1.7391678,2.1802433,-0.25040853,0.34004483,-0.37580383,1.2489191,0.7881051,-0.77594686,0.42321736,-1.668757,-0.571455,-0.5457073,0.3019321,0.61871266,0.2118469,1.4466046,0.28086272,0.11048473,0.49330088,1.9056598,0.9679913,-1.8420359,-0.57557756,0.26206836,0.33850506,-2.135301,0.124120556,0.5067523,-0.5509853,-0.22994107,-0.77760065,1.0434451,-0.863825,0.33548987,-0.33631054,0.6402033,1.4984009,1.2524722,-1.1902081,-0.53516906,-1.8120987,-0.206884,-0.4549844,1.8826497,-0.2884984,0.6867126,0.12874411,0.5731122,0.13722634,-0.573736,-1.3571563,0.8352717,-0.030068072,-1.6824733,1.7091686,-0.30095142,-0.39077282,-1.5801916,1.8714181,0.56873864,0.20702575,0.075642325,-0.31157395,1.9797245,-0.32711565,-0.8281578,-2.730848,0.9273702,-0.15130013,-1.624084,-1.1668515,-0.024242334,0.70161474,0.71151483,0.20782135,0.63456327,0.14478067,1.5201104,0.71310955,0.5775674,0.35602778,1.1558795,-0.5016875,0.120149046,0.9168305,-1.2379712,-0.29496312,0.17375581,0.5409819,0.21283793,0.9528016,-0.9125637,1.997867,-1.8569722,0.25282633,1.0565463,-1.264739,-1.9519527,-0.20585924,-0.19402015,-1.3961593,-0.06500102,1.1788639,1.1883799,-0.10148072,1.0892869,0.23755065,-1.7369449,-0.0077003,0.640312,-0.9767175,0.12507568,-1.3127376,0.93908143,0.34005532,-1.0540763,-1.0077361,1.4240917,0.2422838,-2.3412144,-1.3703629,0.10893116,0.38717368,-2.0985053,0.98635525,-0.41486004,1.5336531,-0.55770874,-0.7017882,-0.86249095,0.4013046,0.44501647,0.58568066,-0.4884172,-0.7166796,0.44326437,-2.3078017,0.7208247,-0.16532943,1.1929171,0.5892089,1.7164793,0.18195052,-0.66947514,0.31021923,1.8238363,2.6152036,-0.15377197,0.087331004,0.5757204,0.14046162,0.18667045,0.90141004,-0.7531862,-0.8632654,0.5018076,-0.6622523,0.35260105,0.00940396,1.1034058,-1.3758777,0.19741642,0.31895876,0.21352789,0.53104883,-0.078487955,-0.3655718,-0.6982468,0.16705708,-0.44234124,0.6572959,0.09708171,0.77515393,-0.03705606,-0.86837673,-0.55735695,0.092593655,-2.2038393,0.32917923,0.40184933,0.14537357,0.8073872,0.109076776,0.2935348,-0.8392416,0.15047991,0.12486615,0.6574524,-0.355495,-0.4797375,2.1708033,-0.7871621,1.0478818,-0.30315137,0.9619798,-0.12672843,-0.7905979,-1.3483304,-1.2945724,-0.05686817,-0.905253,1.1763846,-0.6987616,-0.24288714,1.3732512,-1.016634,-0.27965584,0.4167509,-0.5650884,-0.63844067,0.6935906,-0.8785871,0.8855617,0.7712987,2.1010072,-0.6230045,-1.62059,0.54796684,1.708836,-0.5658702,-0.9415658,-1.3630219,-0.7509215,0.3957835,-0.3421262,-1.6125003,-0.79312253,0.026784286,0.9730685,-2.2702827,-0.5170829,-0.75113434,-0.33811533
/award/award_category/nominees./award/award_nomination/nominated_for,0.9296103,-0.7685902,-1.9294584,-1.8320158,0.7267565,1.5031,1.5500926,-0.6366462,-2.294792,-1.212024,1.4524463,0.47605786,-0.24105738,-2.2800798,0.32961237,0.57113343,-0.27405173,0.27339774,-0.09748361,-0.99231714,-1.0282372,-1.3173982,-0.9827821,0.3143319,-1.104075,-0.26273543,0.10677546,-0.41609782,2.6738095,-0.5633709,-1.1685072,-1.1618869,2.1465762,-0.10253821,0.7904607,-0.028792478,-0.47579867,-0.754927,2.076284,0.75261825,-0.6479417,0.78470814,0.36665276,0.19302556,0.21799107,0.58312786,1.1607306,-0.04225476,-0.4402117,-0.35521868,0.43598047,-0.14141849,-0.84368646,-0.5068009,-0.18701324,0.26230302,0.23997584,-0.39924327,0.107769184,1.0803789,-0.0028090305,0.11844562,0.81076,0.25344118,-0.5019142,0.2553223,0.38859582,-0.2742766,-0.6858936,0.4757372,0.59597033,0.08149068,-0.6132511,0.47192764,0.5336347,0.42386517,0.44034913,-0.026249528,1.0716192,0.018449139,0.73294514,0.852168,-0.6447382,1.0195372,-0.04656398,-0.68162626,-1.4073967,-1.660285,0.7311664,-1.1799303,0.18267795,0.2748382,-0.55205894,0.19315727,-1.5015746,-0.55464876,-1.200423,-1.4277028,-0.52160466,1.0048628,-1.0989423,-0.96870416,-1.2704889,0.004400324,0.24609709,-0.6455411,-0.8187428,-0.60433537,0.31749502,-0.90077776,0.81681806,-1.7401829,-1.5655817,-0.34348935,0.7123072,-0.37138286,-1.1337421,-0.46748164,-0.07195896,-0.01805327,-1.0742221,-0.36750323,-0.50158226,1.7566322,-0.6739539,1.1039598,1.2062213,-0.5688358,-1.0060654,-0.18622677,0.94531894,-0.28474313,-0.0386927,-0.8681827,-0.9579293,-0.97895527,1.1388453,0.34424487,-0.35193193,0.8624944,1.0837591,-0.28477922,0.15235665,-0.30266082,-0.7888648,-1.5924909,-0.6290416,-1.511591,1.3260837,-0.03202187,-0.53694546,-1.1445256,-0.056790885,-1.5560946,0.9268175,-1.2271309,0.11931198,-0.05704132,-0.87802464,1.0974501,1.7880241,0.12868634,0.97824776,-1.5418109,1.145018,-1.0311813,1.3247277,1.707037,1.2614987,-0.059871193,0.3380527,-1.7887201,1.2107319,0.50009716,-0.108839355,-0.39391088,-0.3869123,0.79860705,0.570863,0.7813347,-0.033671826,-0.49771643,0.19566053,-0.11060611,-1.7595867,0.8190283,0.6656103,1.141444,-0.2033628,0.088009216,0.51632637,0.08468743,-1.7287542,-0.15464859,-0.016910493,-1.4780067,0.9264896,-0.7565781,0.109296,-1.2428675,-0.5956976,0.1928593,1.7820632,-0.68753093,-0.69078135,1.2677383,-0.73456126,1.2970029,-0.120269015,0.4751903,0.44057256,-0.07445396,1.1479052,-1.965937,1.4413319,-0.63221186,0.15338625,-0.62381834,-0.3423431,0.29126233,0.5699317,2.1072366,-2.4508743,-1.074677,-0.5168525,0.6994909,0.012380672,0.84734327,0.17567022,-1.3009925,1.5473592,-1.7265325,-0.7037718,0.6941558,-0.2952554,-0.16722837,-1.7911055,0.43210348,-0.41735557,0.29477963,1.3394463,-1.2070575,0.28885275,-0.921908,-0.30362478,0.43985713,-1.9727616,0.18806355,-0.094629966,-1.825879,0.454414,-0.39261404,-2.70595,0.9739503,-0.08115879,-0.26435864
/award/award_nominee/award_nominations./award/award_nomination/award_nominee,-0.009497116,-0.8420892,0.40424898,-0.41080323,0.93066967,0.5307344,-0.315196,2.1813288,-0.511539,-3.0618026,0.4508867,-1.8040148,0.21640512,0.09656488,-0.19388224,-0.6526718,-0.0049389517,0.818657,0.2852033,-0.072168365,0.44253793,1.4141898,0.44782555,0.17807804,-0.6132249,-0.61967415,-0.110123955,-0.13648003,1.1512601,-0.17344403,0.46984962,0.6754662,-1.4292066,1.6081359,2.5812645,1.8388414,1.2315049,-0.53268516,0.07528118,0.03846183,-1.0637379,-0.90090543,2.64907,0.73491824,0.12530327,-1.2728716,-0.79819345,-0.25504854,1.1114838,-0.37170988,1.9561912,0.79992646,-0.45686048,1.2603006,-1.4570924,0.12298423,-0.9664069,-0.18221624,1.0319339,0.030826451,-0.43543464,-0.9046673,0.54961103,0.47176135,-1.4709694,-0.94397897,-0.34096646,2.1104603,-0.07920836,-0.6956539,-1.1597917,-0.41209722,-0.22050951,-1.0618216,0.63831735,0.20037878,0.07671427,0.053953018,0.91501015,-1.0997684,2.0558429,-0.5824469,0.92265767,1.7623123,-1.0515206,0.4852683,1.2655019,0.39947638,-0.08281852,1.3448474,0.78736156,-2.1561246,-0.12958442,1.4940165,-0.0648768,0.9559497,2.2450774,0.06142706,-1.4467944,-0.48555264,0.98882324,-0.35008484,0.26227745,-0.57404333,-0.90523547,0.5562007,1.0344905,-0.52079624,1.5133439,0.8521202,1.0973297,1.3103288,1.4246753,0.8830521,-0.46924484,0.19293807,-0.06368785,-2.1874795,0.7580231,-1.1932818,-0.9178631,0.10809633,-1.0033879,-0.041978538,-0.43718296,-0.56144196,2.1290267,-1.0092524,0.2277823,-0.5234747,-0.6881283,-0.7842396,-0.6555509,0.8621828,0.8675943,-0.54353803,-0.22305104,0.2752249,-0.13163403,-2.8384874,-2.0094209,-1.0291091,1.8455111,0.41451988,0.321458,-0.8739527,-0.07960624,0.47337523,-0.39599416,0.95335305,-0.5654147,-0.28110075,0.53187305,-0.028984835,-0.47957206,0.85254997,-0.95841604,0.18362632,1.1786277,-1.0106207,-0.30610463,-0.58711255,0.71853817,-0.27077186,0.5302875,-0.50872135,-1.3662004,1.7342879,-0.25431752,0.41085437,-1.0843445,1.376733,-0.4913477,-2.17408,-1.1124479,-1.219634,0.24612615,-0.37587908,0.57255787,0.7105079,1.0428274,-0.4205455,1.0251645,-0.71504545,-0.43248808,1.9032047,-1.1213703,-0.87708116,-0.24637929,-0.22957733,-1.2846435,1.0698164,-0.6376342,-0.10992383,-0.8371995,-0.30356976,-0.9155357,0.6605918,-0.33770895,-1.0718722,-0.86308926,-0.7128942,-0.62335044,0.7358785,0.4359793,-0.26644573,-0.061387185,-0.39783603,0.5613195,0.36815885,0.30297533,0.5102402,0.9200529,1.076424,0.7497437,-0.2970022,-0.5359589,-0.060746692,1.0580332,-0.52831763,-0.40580082,-0.37862664,-0.17802764,0.20767495,-0.54592985,0.082387716,-0.37315306,-0.30153948,0.59786236,1.3145984,1.5916017,-1.5258659,0.34910417,0.5693045,-0.14294879,0.24423316,-0.61241573,-1.2576993,0.6844577,0.5617476,0.68133545,0.78987557,-0.30338508,-0.93701106,-0.84890413,1.0512986,-0.7701199,0.569623,-0.7695938,-0.040206525,-0.934079,0.33409017,0.17843783,-0.9745803,-1.4132233,-1.6111429
/music/performance_role/regular_performances./music/group_membership/role,-1.8280525,-1.0261427,-0.49199006,1.366703,-0.13320807,-0.1908894,-0.6446108,-0.41718018,1.7709925,0.15333657,-1.4112566,-0.09381676,0.3045267,1.5444906,-0.5773241,-2.2163994,-1.2180666,0.7059834,-0.6392669,0.33437636,0.39829648,0.6753514,-0.2799892,-0.35819823,0.5962488,1.1002898,-0.9900418,1.1809038,1.2357875,-0.53165424,-0.17097558,0.21850464,-0.45007855,0.16646375,2.1016326,0.6081183,-1.2919524,-0.15664266,-0.29396647,-1.4565722,0.5748551,-0.2193281,0.09364368,0.5181947,0.725113,-0.94198567,1.2362155,0.09382694,1.1098044,0.32860032,-0.6678984,0.4638897,1.29019,-0.6507612,0.05351205,0.6339451,-0.80226195,-0.607635,-0.5615891,1.0748022,-0.27057222,-1.5481871,-1.728081,0.8107075,-0.50917095,-0.91645163,-1.7331568,0.18033604,-0.7968211,0.36975294,-1.7433677,-1.6350963,-0.17427391,0.617567,0.5828332,-0.15102974,-0.49683753,-0.1072377,-0.52212924,-0.97225,0.24852572,-0.77190405,-1.0955017,0.39754245,-0.53532326,0.7364326,-0.15191221,-0.12955901,-0.6693879,0.0770917,0.27651098,0.590193,-0.10737973,0.14897038,0.48781335,-0.7909701,-0.2321855,-0.090712,1.0234593,-0.41990954,-0.20468953,1.0501488,-0.6768999,-0.48203334,-0.3671421,0.014410425,-1.2966304,-0.5470033,-1.2066008,-1.150196,-0.1148088,-0.61417717,-1.5299394,0.17035788,-0.44413343,0.6969838,0.5118108,0.2160501,-1.4407647,-0.5102806,-1.1882709,0.22573678,0.80358684,0.38571686,-0.9481543,1.585849,0.316939,-1.4920158,1.114667,0.82398957,1.0066257,-0.72041893,-1.4131879,0.6376419,-0.004795835,-0.35350832,1.8460289,0.58279,0.13613799,1.1887591,-0.45391598,-0.64758515,-0.1317134,0.69121933,1.0623918,-0.8466283,1.5603676,-0.13437605,1.2111987,1.0857106,1.3126982,-0.88556033,-0.24792957,0.6873404,0.64882576,0.569549,-0.3320082,-1.199996,-0.20640963,-0.2730964,-0.5397676,0.93469226,1.6271995,-1.3723482,0.5457589,-0.09788703,-0.03390597,-0.6137091,-1.1513548,0.025010655,0.09541467,-0.9724478,1.2521145,0.0008939584,-0.17592037,0.55573916,-0.40137962,0.46547875,0.69377315,0.73832947,-0.2848328,-0.9715214,0.4646472,-0.5836838,1.2801046,0.70045763,-0.98353857,0.6467459,1.2720476,-1.3537767,0.6348406,-0.19109038,0.118331745,1.0898846,0.58380765,-1.3127292,2.7438495,0.27527866,0.24521476,1.6484432,1.2027167,0.8771785,0.15322646,-1.1757188,-0.640864,1.4131461,0.16114299,-0.7270633,-2.0845902,-0.9013731,0.9083728,0.06457814,1.5830646,-0.8991981,0.39093044,-0.19300893,-1.8448799,-0.036910478,-0.7652505,-0.09782008,0.008717039,0.8167905,1.478079,0.39493254,0.6980764,-0.04809468,0.42516112,-0.040069044,0.6217819,-1.0146688,-0.282071,1.3355794,0.18343271,-0.54345953,-0.09778938,-0.4212425,1.2188216,-0.8601555,0.51017636,0.32754564,-1.1038954,0.08202097,-1.1606867,-1.5485122,0.16660006,0.21437846,1.0170313,0.3306242,-0.45315287,1.0188079,1.2694784,-1.7203541,0.8348458,0.07825289,0.6121486,0.46989015
/award/award_category/winners./award/award_honor/ceremony,0.18142831,-0.42000636,-0.05482833,-0.05753799,-0.7873081,-1.5183096,-0.4190237,-1.1649219,1.3285391,-0.13662095,-0.14294976,-0.7147106,0.26183638,-1.098977,1.5972424,-0.5176104,-0.67846406,1.6538279,0.89764047,0.24537629,-0.94133055,0.19430216,0.84675246,-0.3106368,1.3803095,1.2487679,1.2642959,-1.6303226,1.2246238,0.91852736,0.7413422,1.5572399,0.34800628,1.286736,-2.8229403,-0.9742128,-0.49619603,-0.4585572,-0.28983277,0.42906275,-1.4614984,-0.25721294,-0.28337634,-0.46267736,-0.012012932,-1.6244411,1.128773,0.32490507,2.313749,-0.011311415,0.3387662,-0.019162057,-0.951032,-1.6039323,-0.35276395,0.33130127,0.4490316,-0.1680297,-1.7678937,-1.172011,1.7886391,1.8539681,-0.50544995,-0.90392387,1.900458,0.8649109,-0.28082022,-1.0830243,1.0847064,-1.2109137,-1.2420872,-0.10984117,0.39006397,0.74672186,0.34168676,0.8808485,-2.2606277,0.43837196,-0.10313406,0.92474484,0.67534417,-0.25347844,0.087933496,0.8564136,-0.636178,1.4375554,2.5093374,-1.1023935,-1.6662176,-0.26376483,0.6686185,-1.4499655,-0.77917117,-1.6090783,-0.08009263,0.7101438,0.10026378,0.7416452,-0.1197863,0.53332156,-1.271084,1.3945085,-0.31393635,-0.23646508,-0.26265278,1.9820849,-1.487801,1.2547858,2.3998969,0.28681087,-0.03993321,2.8109636,-1.2216846,-1.5295091,1.3385231,-0.69399446,-2.0876505,0.28050607,-0.49857354,-0.81585866,-1.2044517,-1.1871704,-0.1069052,2.1557481,-0.8029035,-0.3342174,1.0074178,-0.35873696,1.6214209,0.36053163,-0.020975575,2.159633,-0.70122176,0.68453926,0.5505841,-0.73584557,-0.42495942,1.3237796,-0.6681637,-0.20355685,-1.9527848,0.84007096,0.55575377,1.385119,-0.2663748,-0.6091162,-0.3282587,2.1425745,-0.37379417,0.008542296,1.5783864,0.48065037,1.3165365,-0.11438415,1.4146566,0.7349258,0.75072753,0.06794163,-0.81338173,0.1771124,0.23995125,0.68462086,0.44288352,0.248564,-0.1694072,-0.6669205,-0.685285,-0.3770442,-1.5802568,0.30083552,0.248577,-0.13430315,-1.5593944,1.0489948,0.17378192,-1.2687047,0.17311314,-0.81836796,-0.83257216,-1.0601332,1.1581295,0.68152064,-0.91912556,0.43574777,-2.6143696,1.1433933,-0.33777258,-0.773423,-0.48352006,0.046963297,0.76106656,0.020080747,0.5287052,0.7431595,-1.7389386,-1.4525113,-2.0823233,0.21675679,0.18439251,-1.1619573,-0.45716956,-0.73143697,-0.16188687,0.53007424,1.6849669,0.0025307548,-1.7229453,-2.2179956,0.7901092,2.7672906,2.3215144,1.4279715,1.0948101,0.4049055,-0.40372074,-0.46027583,0.07804566,2.166398,1.5217693,0.746222,-0.25257593,-0.12796152,-0.070880376,0.42748415,0.15144223,-0.404592,1.1784085,1.367978,1.0897886,-0.38320366,-2.1566038,-0.09503153,0.042258278,-1.0673437,0.6335752,0.940479,0.3784547,-0.14183727,-1.0637476,0.26982144,0.59010106,1.6512357,0.9423958,-1.2844462,-0.20131645,-1.9784375,-0.8780773,-1.2339462,0.1397503,-0.52415955,0.28008053,0.77020377,-2.1444037,-0.5173502,-1.6243672,-0.7528566
/film/film/release_date_s./film/film_regional_release_date/film_release_distribution_medium,-1.6112654,0.865422,-0.7171731,2.0688028,-0.41529518,0.03243664,-1.0564555,-0.43788728,-0.7076143,-1.0298867,0.19032161,1.4934154,0.9845605,-0.88524896,-0.14496395,-1.5100112,-1.5313191,0.97415346,-1.095613,-0.77782834,-1.1076576,-1.0972451,2.6452448,-0.3943676,0.77044964,-0.75634515,-0.41496965,0.035139855,1.4492056,-0.99481696,1.6565117,-0.47249386,1.5142695,-1.0642589,1.6124346,0.4125884,-0.1604389,0.48564383,-0.4199486,0.069726914,-0.8904255,0.51257825,-0.15839882,-1.7917776,0.9510543,1.018198,-0.47737134,1.54411,0.27266112,0.92462426,-0.7210497,-0.009566431,-0.16080114,-2.2297413,1.7675229,1.4799116,1.469005,0.7951687,-0.22651392,-0.0807761,0.9469536,-0.4800231,-0.79160833,-0.85306305,-0.7409013,0.74706006,-0.21506746,-1.1284028,-0.20865163,-3.2878656,1.7901887,-0.6530061,-1.1375035,0.5079178,-1.3250065,-0.99541104,-0.92036724,-0.6500231,0.04119235,-1.5546631,0.24895178,1.3567708,-0.49917433,0.61895144,-0.82705057,1.0586009,0.42613038,1.3533269,-0.9115251,-1.6221163,-0.4557094,-2.3964436,0.31906095,-1.1394454,0.2327227,-0.56581765,0.9235378,0.7331874,1.6703395,-0.32309172,-0.88745546,-0.43718284,-1.1023027,-0.13795646,0.18515362,-0.8436672,-0.5497308,-0.1513986,0.057044923,0.20727228,0.4767706,0.881773,0.979604,1.556268,-0.93038446,-0.5047049,-0.40156433,-0.31304312,-0.7743588,0.22174,0.39755052,0.009287683,-0.45788392,2.319562,-1.5429219,0.0767868,-0.32453334,-0.11750888,-0.1734749,1.8058813,-0.5615252,-0.8708335,-0.36711922,1.3212657,-0.7828378,1.6483942,0.026575815,0.9562053,0.5171896,-0.13693483,-0.3268941,-0.7924984,-0.8695636,-0.48607907,-1.4543097,0.030976156,-1.4728286,1.6099415,-0.6627392,0.91021395,0.84760636,-1.4673653,0.8006502,-0.28958973,-1.2398221,-0.27026072,-1.3738499,0.57696164,0.25187707,0.9042219,0.43447354,1.444002,1.0759902,-0.13168727,0.41586235,-0.38715035,-0.04707094,0.7697457,-0.2347011,-0.09630265,0.42037106,0.7535119,-1.3119841,-0.7942584,0.6620992,0.6666289,0.22139144,-1.2083474,-0.5813229,0.44021478,-0.7070389,-0.011824724,0.97764724,0.10761056,-1.372692,-0.43558946,0.11576104,-1.0059149,0.91518307,0.14928666,0.34882647,1.4517955,-0.9175482,-0.6300594,-0.90869606,-0.4026043,-0.9660599,-0.7297334,-2.8164105,-0.43166766,0.95761794,1.1438674,-0.14919186,0.8473999,1.9014586,-1.7067487,-0.7518536,-0.79934824,0.90939134,0.82229054,-0.9450457,0.10691675,-1.1439574,-1.0003023,-1.3709939,0.4169441,0.9532715,0.65866995,-0.060347497,-0.2224658,0.3389403,-1.0396003,-0.11489985,0.17531297,1.3984234,0.64166903,-1.6148078,-0.5493407,0.9130248,-1.5265312,1.0977751,0.95569783,0.2361972,0.925548,0.034404464,0.40615857,-1.3496954,0.65310085,1.6430316,0.09371122,-0.28221416,0.7714115,0.30023968,0.47431776,-0.5870283,-0.9950021,-1.720639,0.7768889,1.1284131,0.13757062,-0.19431488,1.164722,-0.99498415,1.5827804,-1.0548029,-0.10221118
/award/award_winning_work/awards_won./award/award_honor/award_winner,0.9152518,-0.8616486,1.8132503,0.21154426,1.0398576,0.07063176,-0.1767937,0.61761737,0.7519557,0.15094683,-1.1413574,-1.568189,0.17546442,-1.4680644,-1.4941063,-0.4967346,1.6406612,-2.1891797,-0.27701902,0.11010056,-0.5962329,-2.364598,-1.7511077,-0.16725679,-0.5171338,0.58096313,-0.5427223,0.5790339,-1.4436191,0.08267491,-0.6761982,-0.110978775,-1.0944006,-1.862738,0.044706114,-2.0406957,-1.3251292,0.06268343,-0.40193108,-0.057362825,-0.44521633,-1.0726591,0.0073474264,-1.8398658,-1.3782338,-0.32746536,0.32206777,0.8524216,-0.6266712,0.35912868,-1.3457102,-0.7003717,-0.8396712,0.4761922,-0.9740184,0.08073284,0.47252595,1.0710524,-1.7204554,1.6909772,0.7067721,-0.4837492,1.0976022,0.5057375,-0.66012067,-1.3694011,1.513924,0.5408079,-0.19100477,0.4695441,0.7608868,-0.7994064,0.09760262,1.1608064,-0.8252999,-0.82417345,0.36538756,0.39516735,-0.15307997,0.10081471,-0.43215197,0.28477854,0.33348536,1.25842,-0.8142149,1.2685071,-1.7317716,1.0861063,0.7241257,-0.6242155,-0.7803685,-0.27216133,-0.82400525,1.0661657,-0.7849071,0.7982107,0.1318882,-0.0650578,1.4939816,0.0049249516,0.95499694,-1.3115692,-1.4012764,-0.5754622,0.5384472,-0.21083216,0.37836096,-0.41339844,0.38304603,-1.7794468,-0.7538331,1.3388149,-0.3218317,-0.25687167,-1.1111015,0.640274,-0.22422314,0.13251203,-0.15971726,-0.7410639,1.2780437,0.38169074,0.06990121,-0.23665944,0.67034346,2.2071936,0.95506823,-0.6085542,0.6128914,0.50922614,1.1689835,2.3308465,0.228603,0.8805053,-0.25398755,-0.6121776,-0.35516602,-0.4893503,0.6146429,2.3946753,1.3733078,0.30401403,-2.0800571,0.8556755,1.0175513,-1.8854436,0.7699839,0.04871214,0.8179623,0.92665213,0.89525306,0.6133362,0.66289663,-1.4730991,0.47251114,-0.25031492,0.74540824,1.3473308,0.5997458,0.6164979,0.17648034,-0.76659435,-0.23168305,-1.2755208,1.191647,0.722851,1.3568548,-1.8054258,-0.7641056,-0.8495849,-0.5342462,-0.97340316,0.83606386,0.6709128,-0.34145442,1.885327,-0.400139,0.8648341,1.797288,-0.05589844,-0.88273907,-0.052851982,-0.25525847,-0.9544034,0.61703646,0.4869784,-1.201181,-1.3240849,0.18223941,0.20458953,2.260057,1.059537,0.28658825,-0.3462458,-1.0763756,0.22212073,0.50191253,1.5708066,0.14765124,-0.17521903,-0.2599635,0.15755235,1.3107259,1.519831,0.13285145,0.06261045,-0.8966807,0.42591938,-0.258693,-1.2948033,-0.45172536,0.3329625,-0.5324325,-0.43547824,1.1990569,-0.3013616,1.9043912,1.1591821,0.24905904,1.4938821,-0.31865084,-0.8394072,-0.000779091,0.63943744,0.45697746,0.88356113,-0.078936525,-0.95062953,2.052382,-1.0631726,0.47271332,0.936433,-0.41731974,-0.523024,0.10973766,1.1041797,-0.599649,0.57014644,-0.078111276,-0.54832286,-2.0331223,-0.035814367,-2.0953383,0.08671284,-0.82899904,0.33782685,-1.0640498,1.1229562,-0.7082423,-0.13071135,2.334984,0.52917606,0.23754239,-1.3829145,1.389327,-0.5619532
/film/film/release_date_s./film/film_regional_release_date/film_release_region,1.2616307,0.14045432,-0.917365,2.2967594,-0.718199,0.5558547,-0.87501746,-0.5616428,-1.230557,-0.47278133,-0.8554735,1.3384011,-0.21714982,0.21218415,-0.52361333,-1.0772604,-0.20210055,-1.830677,-0.11095493,-0.5634465,0.4757721,-1.326332,0.7830477,1.139019,1.3514956,0.7398852,-0.6536841,-0.13574779,1.6289003,-2.4344003,0.10113908,-0.21561226,0.66073006,-0.65223086,-0.32926372,1.5295126,-0.97364664,-0.98160446,2.0637348,-0.8557084,3.5825245,0.19502497,-1.7108903,-1.107352,2.1034288,-0.52957094,0.4648462,-2.1047568,2.3915164,-0.47622758,-0.29762322,-1.256351,0.79979825,0.51488656,-0.9809665,-0.40886405,1.3941909,1.0378163,-0.64258546,-1.498543,0.22315642,-2.288198,-1.0865194,1.935462,1.2481787,0.37951228,-0.03647952,0.12446376,-0.7979128,0.3224808,1.1075723,-0.9135154,0.3398112,0.5953989,-0.9557601,2.1483376,0.9227884,-0.9712355,1.9604564,-2.1434786,1.440424,0.5852655,0.5573954,-0.089722395,1.4663339,-0.65067965,-0.62447953,-1.5548677,1.4088014,-1.3378491,0.87879616,0.940116,0.13520248,-0.46818712,-0.26058087,-0.036521655,-0.2518898,1.1440613,-2.1283524,1.0566701,0.7205684,1.4657096,-0.20353235,-1.1408052,-1.6849616,0.46008277,-0.3884142,-0.32409605,-0.5047968,2.0539777,0.7051195,0.95719683,0.87801236,0.10121912,0.94615483,0.20603238,1.8905526,-0.23999675,0.6657839,0.13609478,-0.0016833994,-1.4043363,-0.5981299,0.11383386,1.9439182,-0.6233657,-0.57460064,-0.005120102,0.30609927,0.348559,-0.215316,-0.7289058,-2.282945,1.6353683,-0.35604584,-0.39954263,-0.9564669,0.2506905,0.6286138,1.8328195,1.8277123,0.7067193,0.23031193,1.4697645,-0.07712162,-0.762239,2.7425282,0.47170162,0.06352361,0.9943192,2.4248018,1.1826748,0.31531116,-1.100361,0.20151483,-0.8980681,-1.3650869,-1.3674476,0.99588466,-0.197788,1.0352633,-0.7197697,-0.7588157,-0.95621413,-0.32620046,0.37772527,-1.0098113,-0.30524248,1.4412916,0.1821654,0.45821345,-0.48877457,2.6718006,2.363728,-2.6450078,-0.6510258,-0.33886623,0.8871225,-0.5392421,-1.0990281,-0.18297844,-0.11333592,-0.6182559,0.17822225,1.472485,-0.012515871,-0.4662379,-0.768077,-0.4300112,0.92888767,-0.10709435,-0.43421373,1.7317964,0.38423413,0.72328377,-3.2410872,0.22313619,-1.1661026,-0.40394548,0.8975068,-1.8869821,1.6558832,0.53933686,0.70682466,-1.7766812,-0.095673405,-0.15232919,0.18919744,-1.5324087,-0.52630407,1.2532247,-0.32338068,0.6456696,-0.7733078,0.87304217,-1.8409271,-0.08739046,0.27769667,-0.31475976,-0.6349284,1.4748381,1.0540781,-1.0002437,1.4149361,0.3104986,-0.21930863,-0.2784881,1.1139287,-0.4517753,0.3673863,1.6561807,0.71154547,-1.1173131,0.2614099,0.36597934,0.7905154,0.09521206,1.6704808,0.5957337,0.34759068,-0.6536313,-0.0602043,1.106818,1.1462393,0.88995606,-0.7635458,-0.8117544,-0.99476,-1.285601,1.6374478,0.7946166,0.5210526,-1.483236,-0.58796066,1.3554573,-0.14348717
/film/film/language,0.62269026,-0.49460793,-0.47701892,1.1576,-1.0573784,-1.1861455,1.044478,0.5910865,-0.49184495,1.5887479,0.4835434,0.8183559,0.74079,0.19292456,1.9030035,-0.40817538,1.2786835,-0.0152620515,0.42386985,-2.3501554,0.8961885,1.6110353,-0.8094241,-0.7043524,0.04119295,1.3718672,-0.64105856,-0.110609956,-1.0971292,0.18364914,-0.64313483,-0.60733247,0.5032423,-1.5975918,1.2048603,-0.26359266,-0.84081304,-0.2817011,-1.440758,0.35631913,0.26231453,0.28412846,0.59937614,1.3075339,0.57654864,-1.3475262,1.4854854,-1.3626046,-1.5023621,1.904636,-0.08376684,-1.3746763,0.2236532,0.78962123,-1.3393242,-1.2317169,0.58646536,-0.52166194,-0.78446573,1.0694084,0.78244144,-1.9594017,1.3176754,-0.45182577,-0.017539645,-0.7648747,0.21428517,-0.52907956,-0.50132257,0.8664108,1.2195965,0.27088615,-0.7405714,-1.2488103,0.16289169,1.5101403,-0.31782612,-1.9763228,0.17270732,-1.0744723,1.1084455,-0.9233086,1.8322295,0.88021505,-0.4741297,-0.32074264,0.59929603,0.60002905,0.36272317,-0.8603859,-0.061493564,0.13857917,-1.5129138,0.9408516,-0.66397077,1.285892,1.395858,-0.8363737,0.69177735,0.85961056,-0.020905871,0.92948616,0.84011185,-0.997011,0.29793772,1.3863019,0.36168063,-0.76553345,0.44181576,0.5651843,1.3325188,0.4831864,0.8528666,-0.93830746,0.49300468,-0.20003478,-0.18525907,0.8780076,2.1232061,0.3877978,0.7717342,-1.9813039,0.3973618,1.6407002,0.22155648,-0.7669547,0.95434535,0.85239726,1.3634847,2.0117912,-0.37087077,-0.9997978,-0.37468415,-1.151103,0.8854305,-0.03284529,1.6266975,-0.6171724,0.6521183,0.23773247,-0.3527189,2.4192522,-0.1909546,-0.36061758,-0.28191966,0.7708548,1.6671684,0.6780441,1.1616346,0.05197977,2.2916782,-1.2680372,0.4677497,-0.43791166,0.13217863,0.6728141,-0.8996029,0.07130764,0.15061153,-1.8036672,-0.85659546,0.38456985,-0.09430712,1.2006421,-0.62870365,0.5644402,-0.08450182,0.8378017,0.3809227,0.36066988,-1.193418,-0.3606905,1.1632178,-1.2396084,-1.3179517,-1.4121875,-0.5488934,0.33502856,1.0356944,-1.9216745,1.4792786,-1.7170964,-1.1793935,1.1406572,-1.628782,-0.9454582,-1.2694484,-0.20752665,-0.08784135,0.28733963,0.23988473,-0.8448634,0.28252473,-0.93343616,-0.48949546,-2.5329251,-0.46376625,-1.138165,-0.77995056,-0.27735856,-0.19147831,1.1443111,1.2870624,1.610823,-0.7660511,0.010291047,0.18057933,-0.03949841,0.07188851,0.48151037,1.048006,0.59873646,-0.2000361,-1.5661132,0.54978824,0.10175578,0.9916064,-0.17150727,-0.42745554,-1.1946439,-1.1856161,-0.7970344,1.139491,-0.3965198,-0.18186484,-1.4157726,1.2382196,0.7977603,-1.40685,-1.095469,-1.2824866,0.8314841,-0.07703367,0.18016726,-0.5028902,-0.33367017,-0.9416587,1.7148062,1.2582568,0.764602,1.1998167,-0.4963227,-0.220343,0.778687,0.557263,0.36014053,0.8001409,-0.44939342,0.785852,0.51490694,-2.2588427,-0.010025304,0.61067545,-0.12011721,0.7513958,-0.015643178
/location/location/contains,-1.5961065,1.4241024,0.15522751,-0.21467583,-0.67594934,0.83989257,1.075832,0.9131145,0.79150563,-0.003214757,0.68033147,0.5677085,-0.4914609,-0.0771629,0.33603063,-0.27854204,0.01026102,-1.3640134,0.2685571,1.0174803,-1.2451981,0.591425,0.22484627,-0.047903646,-0.1611562,0.19693208,1.6716604,0.6820714,0.62039834,-0.15261583,-0.29433432,0.49962392,-0.4863661,-0.028118733,1.164966,-1.6309035,-1.1002868,1.5784177,-0.49137393,-0.5296646,0.52497447,0.098908894,-0.59630346,-0.6996984,-0.465665,-1.3191383,-2.85454,-1.5623105,-0.14321193,0.36636558,0.042308886,-0.18802321,0.83344126,-1.6317303,-3.5381107,-0.06160302,-2.056083,-0.008886704,-0.698365,0.53017366,-0.25597605,0.2377925,-0.9153402,-0.4116465,-0.17439458,0.56894386,1.5664293,-0.13083625,-1.1889557,-1.2103373,-1.7103453,0.08390945,-0.48033804,-0.0027361347,-1.0884753,0.52090514,-0.16289234,-0.5519795,-1.1754639,0.75262594,-1.3824278,-0.7070944,-0.39458865,0.86244696,2.0811899,-1.5606267,-2.7848077,-0.24035247,-0.77357775,0.34804535,-0.3041767,-0.75704217,0.71821845,0.65416795,0.27875736,0.6326912,1.4921443,-0.010883346,-0.70907795,-0.8809153,-0.63177544,-0.5047115,0.17530961,-0.5278803,-0.3625927,0.957741,1.0422328,0.5591063,0.36870328,0.64132893,-0.22064868,-0.4747015,-0.28904963,-2.3024848,-0.031374667,-0.0024721993,1.0101386,1.4190067,-1.0245206,-0.6850844,1.5451863,1.3216829,0.060553975,-0.789853,-0.9915635,-0.3782568,2.5967422,-2.5635102,-0.6995628,0.8328817,-0.6289687,-0.42398483,0.975089,-1.3748211,1.5145036,-1.4098376,0.37812346,-1.1336629,0.5983605,1.1744379,1.0960304,-0.14851336,-0.6335788,-0.37758917,-1.4840342,0.45266473,0.3597727,-0.55781066,0.61596686,-0.12630807,0.97065777,-1.4531825,0.60183334,0.26326716,-0.17503738,0.008569308,0.8412218,-1.6566104,1.2070981,-0.929352,0.050509218,-0.6214926,0.8136947,0.18888769,0.23920114,0.6762333,-1.4525063,1.208422,1.1625487,-0.34307256,0.59791166,-0.2554271,-0.10815333,-1.070109,0.73337084,-0.31301597,-0.6037283,-0.6437259,-0.45940825,0.79443526,-2.0006735,-1.2195797,-0.185665,0.78337157,-1.4169421,1.0532485,-0.011130186,-1.3989218,0.98041636,0.020143533,-1.1869333,0.8470263,-1.8827485,0.85829043,-2.5480006,0.0036047937,0.91071653,-0.09365308,1.0610716,-0.13388,0.7387913,-0.9975407,-1.6340264,-0.58303,0.7137561,-0.4954907,0.1604867,0.085625395,0.0039467257,0.9107006,-1.5688509,1.3375618,0.7069216,-0.97238857,0.5881456,-1.2594124,-0.12836845,-0.3694025,-0.03359429,-1.370916,-0.098399885,0.72795784,0.9932757,0.28458315,-0.66005325,-0.6038602,-1.3243237,0.8248317,0.21178846,-0.7322556,1.770307,0.53556395,-0.7760762,-1.3101668,0.48963177,0.5706242,2.506067,0.50645524,2.3773608,-0.40708315,-1.7391474,-0.9822984,-0.07340881,0.120351344,-0.94637406,0.59956086,-0.12128961,0.4291229,0.028869404,-1.8340425,-0.29341647,-0.06002972,-0.9719188,-2.2155902,-1.4269117,-0.36675587
/organization/organization/headquarters./location/mailing_address/country,1.3474495,-0.86286336,-1.3110633,0.1559611,0.10404044,-1.9015955,0.2146598,0.27378085,-0.96428466,-0.79694325,1.0225793,-1.8821361,-0.67184925,1.0882095,0.9822025,-0.67253625,1.1135588,0.95194507,-0.947005,-0.7976909,-0.6355491,0.6843423,-0.5682093,1.1485255,-0.99121696,0.48922795,-0.6691533,-0.93742865,-0.10353415,-0.8807047,1.0390244,-0.731823,-0.3304498,0.66162264,-0.52458453,0.12711681,-0.70411915,-0.130975,0.4928544,-1.0493484,-0.23187478,0.5793504,1.9434266,-1.9206542,-0.42132267,-0.61498696,-1.0890149,-0.16000858,1.2691244,0.35015398,0.5800747,-1.4910778,-1.839451,0.33445016,-1.6052858,-1.2931106,0.1013194,0.34488156,0.8475756,-1.179237,-0.59787554,0.41698778,0.4500402,0.04874046,0.82777566,-0.1566925,-0.5993458,-1.1402917,0.614149,0.47179753,-1.8475986,0.17791903,-0.2203799,0.16166735,-0.31729048,-0.5010424,0.031842753,0.1364051,2.692006,1.7375134,0.09325255,-1.1393024,-0.74993604,-0.20835212,-1.3642979,1.2253966,0.4974887,-0.54727936,-0.4030667,0.11475416,-0.011150237,1.5191805,0.2366054,-1.6296923,0.19530094,0.7495308,0.43635863,1.4968917,-0.29338792,0.12274014,-0.6314256,0.012518529,-1.0342126,-0.5503887,-1.0981528,0.4316224,-0.28476396,1.2372857,0.22926712,0.08939243,-1.1860666,1.1730309,0.4528586,-0.27350903,2.0721471,0.7507122,0.06316975,-0.19195537,-0.21774878,1.0960919,-0.7014822,-1.4716345,0.0051544267,0.79831344,-0.38031316,0.46662977,0.5249067,-0.47840875,-0.19084546,-0.894317,-1.6656051,0.7585378,-0.6687686,-0.5778807,0.5192878,-0.6297196,0.85145545,-0.27284187,0.23136537,-0.21789806,-0.18932419,0.5638398,-0.8500493,-0.8324372,-0.021909123,1.5107839,0.2278483,-1.3935708,-0.33490685,-1.5174137,0.12601,-0.17357947,-0.7312548,-0.12806122,0.23020983,0.791067,-0.48526984,-0.4524116,3.3958519,-0.09705843,0.22612038,-1.1869135,-0.33180356,1.0948353,0.38447776,-0.4904601,-0.771294,1.760118,1.2088517,-0.07931183,-0.28341898,0.39520377,1.0541198,-0.2058397,0.52569723,-0.9074991,-0.84867454,-0.24254808,0.4871003,1.1870972,-0.5584795,-0.50200933,-0.08632863,1.0169144,-0.40999836,-0.5927771,-0.2835212,0.5754571,0.53472036,-1.1166731,0.6569479,-0.55870616,-2.137421,-0.88346726,1.6083724,-0.15842073,1.1442668,-0.1797572,1.6707762,0.6271185,-1.1483021,1.1601497,-1.0745106,1.281659,0.8000834,0.40809312,0.83199865,0.29299295,-0.30838314,0.845359,-0.41465485,0.12443997,0.36309606,1.236071,1.2050008,-0.014147828,0.64980614,-0.3013015,1.3690139,0.48120427,-0.6389407,1.5784347,0.0644203,-0.31101206,-0.117381506,1.8693652,-0.58663946,0.3713705,-0.25996724,-0.43654805,0.062359843,-0.50238234,0.17276631,1.0633552,-0.73746717,-0.35634705,0.46001306,0.5630696,-0.3577679,-0.3745206,-0.51100343,0.12291595,-0.011658605,0.42615393,0.3337189,-0.37794745,-0.17291418,1.2412254,0.5634493,-0.5897294,-2.3428252,0.962679,0.4561437,0.46955478,-0.96897185,0.3671815
/people/person/profession,0.74969167,0.8095429,0.59491014,-0.7498578,1.3125554,-0.9061413,2.5528862,-0.02250279,-1.9784595,-0.015780795,0.3373139,-0.49073055,1.0670066,0.75745714,-1.0820724,1.4670806,0.32861346,-0.90992314,1.5938096,-0.111037225,1.1563604,1.3228968,-0.4512348,-0.44068438,-0.24922262,0.10642599,0.9231559,-1.0028883,0.23720439,1.3022407,-0.89032567,-0.96359193,0.20395732,0.9320818,0.934619,-1.0152348,-0.13690753,0.13296467,-0.09936148,-0.782509,0.34843078,-1.5962186,0.6579523,0.577499,-0.11297741,-0.37129238,1.5709693,0.8734531,1.5868864,1.5979244,-0.12113261,-0.55486804,0.6040334,-0.881766,0.14548068,-0.023022743,0.19533674,-0.25136444,-0.19342583,0.43898642,1.2516062,-0.59646666,-0.4746692,1.8194208,0.8899712,0.3761803,-1.2690201,-0.4400291,-1.6120232,0.20088312,0.42546335,1.0388196,-0.10548202,-0.4659524,-0.4091517,-0.44905794,2.2113335,0.54184,0.43971825,0.2245165,0.610504,-2.199933,-0.44960788,0.13175952,-1.4651761,0.06144541,1.1740909,-0.82437885,0.013001252,0.65020925,-0.68380076,-1.6674367,1.2502505,1.1128788,1.2047229,0.6071448,0.28058055,-0.5616435,1.2222549,1.4194419,-0.4719807,0.8734331,0.050897803,-0.67314017,0.44648352,-1.2682205,1.2285167,1.6795764,-0.41011497,-0.28064382,0.07428489,-1.8177489,-1.0342008,0.7314206,1.3935454,-0.94389164,1.3469614,1.7043104,0.19646275,1.0266526,1.0844188,-0.9027847,0.48945415,1.5038189,-0.31696156,0.7805687,-0.55617326,0.6007275,-1.3124598,-1.3863137,0.9954895,-1.6932768,1.2145705,-0.20320623,0.3617895,-0.9268484,2.1894755,0.07857723,-0.5166172,-0.8447747,-0.432279,-0.27945718,1.3434328,-0.5845847,-0.6101128,-1.6022311,0.098973505,-1.9608694,0.6632756,3.4037342,-0.46439686,0.5129469,-0.09797614,-1.274978,2.4708815,-0.5844165,0.43048683,0.9207827,0.27377295,0.0103094075,-0.0017222083,-1.1477458,-0.19088915,-1.325298,-2.0176911,-0.21970925,-1.5693487,0.3159564,0.35139,0.6205674,-0.043757137,-0.46785945,0.8614482,-0.74087787,-1.702906,-0.0062740636,1.5258965,-0.82536125,1.2517583,0.32442647,1.2462693,0.33597523,1.2626626,-1.9765688,1.1951911,0.39206156,0.39333874,-0.51125,0.92990774,-0.43831176,2.1936069,-0.0050077867,-0.55591625,-1.0468401,2.185039,0.8275729,0.24057147,0.30808708,-0.22690547,-0.05629516,-0.73913807,-0.96192557,0.92641884,0.43377784,-0.92605793,-0.082819045,0.84154844,-0.50364923,0.87664074,-0.40801993,-1.3720565,0.6314327,0.20985845,0.42173395,-0.45677695,-0.75871503,0.0020613167,0.5806467,-0.3215082,2.6300871,0.49133947,0.32054082,0.85713047,-1.43694,-0.15500246,0.6172073,-0.023746239,-0.8381574,-0.5139686,-0.3085838,1.2289964,-1.0038341,-0.026055606,0.7575392,0.39546993,0.008509555,0.022412812,1.138431,1.7966015,0.8080337,0.22664121,1.4266822,0.08136656,0.24522343,0.19397603,-0.9218385,-0.5515738,0.004659873,-0.4682982,-1.5578498,-0.49048048,0.6009516,-1.5345212,0.57072943,1.4719018,0.5683361
/location/statistical_region/religions./location/religion_percentage/religion,-0.3097602,0.01888529,-0.6910561,-0.74972034,-0.24643339,0.53527015,0.8240289,1.1072807,0.22057435,0.49351344,0.36192337,-0.29401842,0.18294665,-1.3878685,-0.8676646,1.5606574,1.6837032,-0.59985274,0.3068295,-1.0164152,-0.39227447,0.8832888,-0.9082544,-0.28905898,0.8319109,1.0000389,-1.348342,0.26435542,-0.33054876,1.2836682,-1.4632423,-0.3004657,0.13137814,-0.28422347,-2.7412264,-0.52307004,-1.1036211,1.9291531,-0.29927832,-1.9384782,0.7881822,-2.1899734,-1.1264193,-0.60691327,-0.2515282,-0.14104338,0.26862964,-1.4720079,0.46439236,1.990184,1.034602,0.5350517,-0.15103549,-0.37378976,-0.24162212,0.2821453,-1.5805409,-0.9424277,-0.8737223,0.05864292,0.45742148,-0.2278868,0.56481546,1.4193879,-0.25351545,-1.2770998,0.9598932,-0.5941268,1.979152,-0.3734388,0.8733444,-1.2743475,-1.6542118,-0.71473956,1.0949122,0.25362542,0.66441756,-0.7045262,0.4643996,-2.119398,0.98830414,-1.1952152,0.08487626,0.40613294,1.309601,1.700789,-1.4098353,-0.7046953,0.26781374,-0.0823635,0.6353621,0.5217853,0.27475923,0.50744873,0.06338433,-0.46014187,0.049143784,0.4937321,0.19777766,0.65549827,0.27690214,-1.6739769,-0.20624764,0.072460555,-1.0640322,0.9417535,-0.48979595,0.466702,-0.4680849,0.20215616,0.4396248,1.3436835,0.9963963,-0.21826416,0.41200286,-0.18213461,0.4719732,-0.84814113,0.22317308,0.40602913,-0.89759797,-0.9966758,-1.716472,0.6623404,-0.4767644,-0.58462244,1.5852963,1.026043,-0.27469885,0.4769284,0.8438197,-0.60222656,-0.5570444,0.7103219,-0.45405844,-0.9943072,-0.12378317,-0.0724984,-0.0028863437,-0.50183475,1.6659242,-0.19068138,-0.8604535,1.0762478,-0.27575973,-0.74639904,0.89978284,1.1030067,-1.3162608,0.19581023,-1.2557268,-0.5025145,-0.8770898,-0.6197512,-1.4663726,0.19893603,1.0032283,0.48329508,-0.02462296,0.15415443,0.6957892,0.2987715,0.17882958,-1.8342276,1.2405783,0.6653378,1.3988231,-2.1811059,-1.2626858,-0.7107302,1.5236596,-0.4754229,1.8128163,-0.90767765,0.25210124,0.7325672,-0.7215679,-0.6997722,0.61638135,-0.26972938,-0.5750509,-1.6605856,-0.13015462,0.2671181,-0.9179209,0.4234256,-0.64623207,-0.7205232,-0.76082337,-0.3642326,-0.42647007,-0.50965667,0.65199393,0.1442028,0.001482487,-0.54928243,0.24071813,1.5588996,-0.49446693,0.20419236,0.99920714,-0.5106383,-0.8481014,-0.14816184,-1.594801,0.1949299,-1.4372218,0.018899124,-0.22438733,-1.4486817,-0.33162248,1.5642922,-0.110600375,1.1649798,-0.3236272,-0.35984117,-0.20305687,-0.120327175,-0.21882883,0.9947341,-2.2760305,1.3183749,0.7807641,-1.2619507,-0.86128104,0.93829846,1.7777964,-0.3182054,1.5102803,-2.2910259,-0.7307452,0.75391936,0.5290122,-0.7145448,-1.1511174,0.8371222,-1.4656413,1.830602,-0.85417986,-0.8550798,-0.61166954,-0.8326142,-0.14282282,-0.8796331,1.0146998,-0.12175128,-0.97508323,-0.6600413,0.9860395,-0.059144076,-1.5394708,1.0108006,-1.4023862,-0.091492504,-1.0649558,-1.1865656
/award/award_nominee/award_nominations./award/award_nomination/award,-0.26097557,-0.706263,-0.16380769,1.167839,-1.1227834,-0.9504936,-0.60751,-0.4255913,-1.2911094,0.51578057,-0.96990585,0.5927134,0.10034409,-0.49679217,-0.91125226,0.77202034,-0.47702342,-1.2895256,-2.024712,-0.77012724,-0.97661716,0.08534911,0.2501374,0.05663514,0.20279297,-2.080724,0.86837137,-0.44078973,0.08000307,-0.9770743,2.294655,-0.20097901,-0.19259317,1.3735963,0.74331826,-1.4363016,0.24460131,0.2677071,-1.6023564,1.4019868,1.633633,0.9020386,-0.14901951,0.39660132,-0.027833452,0.7769975,-0.73118776,-2.023889,-0.5215301,0.46147853,-0.41746613,1.4448137,-0.5874014,0.7887548,-0.23088156,-0.7348912,-0.82167464,0.026494619,0.66077447,0.105677746,0.1894184,2.0664523,-2.8883016,-1.3319173,0.22416434,-1.1527407,0.22433151,-1.6780767,-0.32780197,0.35250008,-0.8423432,0.34765974,0.027108397,1.1754514,0.33262122,-0.15499976,1.4595057,0.48457837,-0.049765643,-1.0616372,0.6416923,-0.496036,1.3562248,0.6814899,-1.3660707,0.24717261,0.89784306,0.6374145,-2.0681903,-0.612026,-0.14759238,1.0933552,-0.019121006,2.2940109,-0.9370738,-0.17330438,1.6549621,0.53187174,2.204265,-0.7978882,-0.4310047,0.7195482,-0.44160774,-0.5783017,-1.4846166,-1.7454163,0.92196184,-0.1958625,1.9029534,-2.1851983,-0.25113484,0.52608067,-0.12434703,-1.6295193,-0.2921679,-0.5549874,-1.1143402,-0.16738269,-0.108420886,0.17528109,0.20026791,-0.42179155,-1.0159245,0.5058304,-1.7183712,0.08147332,-1.0778134,-1.4881449,-0.041061025,-0.05668244,1.0028073,-0.33341786,0.85598856,-0.03828905,-0.91196764,0.39368147,-1.2560805,-0.004848004,-0.6704854,0.7323374,-0.89691156,-1.3309287,0.98019487,0.6453566,0.17610888,-1.3456622,-0.16514552,-0.5997921,-0.38159364,0.31652516,0.35409135,0.89344174,1.2675116,-0.9183168,-1.4589528,0.6797455,1.3090423,-0.3232605,-0.29480833,-1.6656944,-0.121385016,1.4204067,0.95680475,-0.9458253,-0.67423147,-0.35467774,0.19126645,-1.3565547,-0.16693932,-0.55573964,-0.4993998,-0.25956786,0.51385564,1.057372,0.81510836,-0.7679798,-0.9569186,0.38582748,0.7269394,-0.52689457,0.19186595,0.30921313,1.481683,-2.5855374,3.6136458,-2.0655224,-0.87381727,0.9263471,-0.2603505,0.32247993,-0.7358007,-1.6769252,-0.15385707,-0.43393463,0.2004886,-1.5063027,-0.4762657,0.79748064,0.16874565,-0.11786859,0.28723848,0.20293559,0.11438937,0.8740485,-3.0714786,-1.3552912,-0.21784586,-1.683992,0.19834383,0.090059295,0.7454499,1.3365663,0.5182029,-0.4695012,0.106255874,-0.09222773,0.61286527,1.2236149,-0.5659283,0.655849,-0.47642356,-2.000694,-1.3326921,-0.31982946,0.22475365,-0.88633335,-0.25375387,-0.42596534,0.74784476,0.627571,-1.6708443,-0.071655095,0.16072759,0.35671648,0.84550923,0.03157402,-0.10385702,-0.68323827,0.35445395,-3.1098547,0.12724388,-0.067049526,-1.4841937,0.10960456,-0.2539919,-1.2087682,1.5227246,2.2882843,-0.7776926,1.17607,-1.6686977,-1.0786226,0.34927103,-0.21884122,0.039925,-0.57574135
/music/genre/artists,-0.79351705,-0.5680793,1.4761858,0.11341266,-0.08122948,0.79796463,0.29571697,-1.1847975,-0.7028453,0.32054135,0.5568912,0.31688872,0.34679142,-0.98274976,1.630588,-0.7766737,0.12889896,-0.6143233,0.5956247,0.8215594,0.13136885,0.7449677,-0.5228602,-0.96565485,0.6320553,1.2768215,-0.44808358,-0.32071617,-1.7793232,1.6673945,-1.5158628,-0.71395093,-0.21070066,0.8610258,1.0324086,-0.97416335,1.3556103,-0.72284156,-1.6863213,0.9435083,0.69227517,0.46085733,0.5501457,-0.7140946,0.012603624,0.5240258,0.95548147,-0.5350451,2.423117,-0.29871887,0.12071935,1.4217378,0.8735287,-0.787824,-0.6149646,-0.7984986,-0.6575875,-0.8120675,0.73154485,0.69301736,0.4793977,1.2083733,0.179213,0.33407632,-0.6702924,0.14999492,-0.6072184,-1.5712266,0.63541424,-0.88760144,1.1690187,0.9131556,0.25075573,-0.040619805,-0.594723,0.44933534,0.12182326,0.107308626,-0.30173913,-0.35233155,1.0325205,0.13218895,1.0286487,0.9122904,-1.2146443,-0.61654425,-0.031111704,0.44855323,0.048600562,-0.8823848,1.771812,0.106391475,-0.9199401,1.2698728,1.4099017,-0.112200275,0.56380713,-0.9039421,-1.0255997,2.1164107,0.9266877,-0.33130446,-2.3580618,-0.65397286,0.68743247,-0.46997654,-0.5454205,-0.28826556,-0.90693706,-1.3727458,0.3000523,0.60361487,0.4632946,0.8989963,1.1929257,-0.122274116,1.0746448,0.9540411,0.8608802,0.022166682,-0.36612672,0.66486573,0.39997423,0.99291253,-1.9121317,0.069597915,1.1379799,0.99275637,1.4586763,0.17787355,-0.61834604,-0.5651887,0.21600348,1.1937414,1.3281578,-0.88401127,-0.40652555,-0.5232777,0.024425494,0.9370979,-1.2009056,0.7882684,0.70757806,-0.8802648,0.4508399,-0.8473669,0.34678736,1.4348886,0.047962923,0.35091576,-1.6464335,1.5408553,-0.5417757,0.55192614,-0.9041747,-0.5136333,-2.0177596,0.70341605,-1.0339787,0.43334097,-0.24300624,-0.4633887,1.4239635,-0.15458295,1.0667261,1.2371467,0.18918619,1.8830905,-0.5659052,-1.5116955,0.8362972,1.0224783,0.992709,-1.8584325,1.0749462,1.1882395,0.874782,1.0613892,0.6510149,-0.57258666,-0.44223586,-0.20350263,-0.5090041,0.555623,-0.20872375,-1.1230721,1.2275387,0.26771495,0.4625309,-0.5419154,-1.1125011,0.64715886,-0.4161306,0.5559996,-0.2678859,-1.2426865,-1.2417206,0.59996724,1.0144567,0.8895054,0.5052834,0.6203646,-0.14099784,-1.6833407,-0.7305359,2.006224,1.5946198,1.7845596,0.4705849,0.59157985,-0.76081204,-1.4584659,1.6975275,0.33965448,-0.5845619,-0.66239315,-0.6736426,-0.10871641,-0.9106046,-0.12263891,-0.48008192,0.6403051,1.390791,1.1021649,-0.03529154,1.3476003,-0.82151735,0.009472755,-0.8475134,0.19433,-0.75373715,-2.2713985,-1.1323408,0.8594672,-1.158874,-1.7944651,-0.8698578,-0.3641675,-0.8913916,0.2560741,0.5550317,0.34409505,0.1998817,1.4050272,0.71104056,1.4646142,0.8316521,-1.198532,-1.6946299,0.5413404,1.2297829,1.2690086,0.9679722,-1.4208828,0.42007706,0.13066962
/influence/influence_node/influenced_by,0.6972111,0.09955374,0.32328016,0.98453116,-0.71295184,0.12382477,0.80439836,0.5259641,1.1598979,0.05350522,-0.85613334,-2.1936772,-1.9403791,0.28293294,1.7948059,0.9369965,-0.9454106,-1.8615204,-0.8156241,-0.99976194,-1.7311813,-0.14295076,-0.2847071,-0.4693506,-0.7624165,-2.033748,0.9463721,-1.4527003,-1.6744208,0.91475827,1.2227385,-0.13070767,0.13291246,0.36925042,0.3086842,-0.9541134,0.47625637,0.8945973,-0.5680558,-0.16699399,-0.9890901,-1.0035021,0.09397995,-1.6194311,0.99191016,1.1727338,-0.7474251,-0.49719912,-1.8806862,-0.73048496,1.3389298,-0.96761954,-0.21416566,-0.13018915,0.30801973,-0.034632046,0.83250946,-1.2396334,-0.0752833,-1.0202328,1.3868414,0.20073521,-0.9484717,1.1009907,-1.6925652,-0.75302804,-0.24362095,0.877089,-0.16939005,2.548708,-1.1645728,0.80649865,-1.0565608,0.7457276,0.6412675,0.60040784,-2.0449686,-1.1710744,1.163872,0.7841776,1.341154,0.6854675,1.2244501,0.6793486,-1.1798389,0.6052596,-0.3486455,-0.81171924,-0.033240374,1.039043,-0.27299052,-0.0032962048,-0.75098324,-1.7860487,-1.3648461,0.6351929,0.23504707,1.3412924,-0.096555196,0.5485844,-0.14637038,0.82515013,1.0946203,0.34155995,-0.29038894,-1.9537919,1.7105088,-0.015858652,-0.8804642,-0.36219683,-0.002288491,-0.47283995,0.28245324,-0.7484922,-0.8668903,1.8544902,-0.0031720882,-0.123848364,0.6970294,-0.18847397,-0.29303658,-0.8086874,-0.6647516,-2.0263832,0.719045,0.36081657,-1.0527192,0.13982534,-1.5162518,-0.9516812,0.2173599,-0.9126588,-0.21516117,0.34813127,1.1734412,-1.1751534,-0.58432204,0.79595935,0.27535722,-0.8978267,-0.92106724,0.4176388,-0.5934928,-0.71990556,-1.1549805,0.6964698,-1.5168428,-1.0451236,-0.82153386,0.016702376,-1.2941686,-0.8259572,-0.59467846,1.7835177,-0.29871237,-1.1629614,2.1322277,0.060861222,-0.07584411,0.76979226,0.36254907,-0.9194503,0.06476783,0.7060908,-0.6620954,-0.84432507,-0.61648375,-0.53090906,-0.37096936,-0.055943765,-0.44981664,-0.1827034,0.9291995,-0.13270965,-0.24088632,0.09527112,-0.8099936,1.2210553,-0.63739145,0.31146798,-0.6829531,1.2064382,-0.9944797,2.3186038,0.6194899,1.6717808,-0.60389,0.5669571,-0.00066931103,1.675567,-0.64552754,-0.91901314,-1.6881025,-0.24895369,-1.3890407,-1.7884301,-0.9299337,-0.49942538,-0.26965505,-0.29587057,-0.7953726,1.2254163,-0.08019258,-1.2834435,0.6995117,-1.5857126,0.17709395,0.8168491,1.2947073,1.359845,-0.8106923,1.1625243,-0.717662,-0.33678514,0.27230987,1.4036355,-0.6510151,-0.77778023,-0.3160391,0.50669676,1.8359151,-1.8271593,0.8010186,1.8089882,0.08674596,-0.52190393,0.8678319,-0.06030637,-0.7086448,-0.17428021,-0.5009885,-0.44998693,-0.4499498,0.76432896,0.025258206,-0.6502972,2.633221,-0.7167416,0.71527946,1.5878475,-0.1319209,1.7785455,2.0356426,0.7301747,0.417128,0.0069548786,0.40624908,-0.40096855,-1.085866,-0.41567352,-1.0044354,1.5926653,0.49017152,1.6273249,-0.38722867,0.3322708
/education/educational_institution/students_graduates./education/education/student,0.37138352,0.38151315,-0.5628431,0.1065962,1.0511436,-0.86114484,0.4542733,0.51160944,2.410749,0.74539185,0.7988591,0.3406336,-2.4123683,-1.9398555,0.049181666,0.49961632,1.8553442,0.012157638,0.65699166,-0.29124048,0.059359234,-0.60843146,-1.9126021,-1.7795875,-0.42887497,1.2527771,0.020328706,0.38214093,-0.07307169,-0.11829325,-2.214616,0.7328028,0.3310304,0.96547705,-0.8931808,0.36462355,-1.2541462,-0.2154499,-1.2025739,0.41094485,-1.8322495,0.3708018,1.4771463,0.27946156,-0.3726379,1.8081567,0.810359,1.3529475,-1.038101,0.8427938,0.92668647,1.2104143,1.4394243,-0.9335436,-0.86420894,-2.771635,-0.79521567,-0.6313291,0.3500843,0.6556037,1.1604785,1.0647924,0.78555346,2.392971,-0.9657764,-0.48244393,0.542948,-0.29820785,-1.9059209,-0.12230202,1.8325835,-1.2748744,1.8218566,-1.8728422,0.82777435,0.3508721,0.56968373,0.45370713,-0.35284585,-1.3561192,-0.32365465,0.49255016,0.6888243,-0.22111724,0.37711102,0.76730317,0.12716511,0.95260197,2.494899,-0.19625406,-2.1456623,-1.1364975,0.26523507,-1.2484775,0.48692125,0.31823924,0.9364546,2.0928102,-1.9943117,-1.0300777,-0.9165124,1.6600299,-1.9209734,-2.3500123,0.92322457,0.8056029,-0.08624004,0.4291762,0.639842,-0.77039653,0.7812531,1.7153169,0.25536865,2.0810404,0.96624845,-0.19355164,-0.1524196,-0.18603063,0.53281206,0.15973414,2.429672,0.0047234786,0.51418513,2.8120546,-0.1212904,1.6417428,0.19112714,1.8333662,-0.80230105,0.5925772,0.6876358,-0.3786248,-0.13501687,0.19621657,-0.8972516,-0.57247025,0.61090386,0.49534318,-0.4375612,-0.04424198,0.94950086,0.5951086,-0.46925446,0.58817583,0.07028459,-2.4964168,-0.1787468,-0.83243036,0.3617231,0.6719118,0.49156964,0.41812673,1.4397298,-0.6221078,-0.8264286,-1.2013983,-0.7989747,0.097856306,0.8257751,0.7962801,-1.2207475,-1.7272853,0.59374774,-0.44126055,-0.06534539,0.11506267,-1.380874,-0.77646804,-1.9587231,0.63068455,-1.1322138,-0.7494733,1.9142805,0.6013407,2.0325413,-0.072893605,0.1976328,0.28526485,1.232986,-0.0064503695,0.43250182,1.8221183,0.8815917,-1.0962777,1.7621398,1.839608,1.2979116,0.79981285,-0.26878777,-2.1473682,-1.9444708,-0.5551607,-0.58604276,0.8582085,-1.1287926,-0.62129194,1.2020521,-0.097831145,-1.7026547,0.025278408,1.1638627,0.22018221,-0.48493308,0.16581954,-1.137941,-0.4796304,-0.34596807,-1.3061188,0.2509512,2.6482837,0.2583522,-1.7007017,0.9866244,-0.29524165,-0.29879397,0.60404986,1.2321761,1.1278409,-0.8632866,-0.5921269,-1.0520054,0.15631409,0.26330495,-0.291166,-0.07660041,0.9962729,-0.057126477,-0.44409835,-0.76841706,0.6913214,0.8224749,1.1553819,0.112497024,-0.018890338,0.5839003,1.1583438,0.4731978,-1.1000296,-1.0670124,0.7239647,-0.08990804,0.13561761,-0.93049276,0.49088138,-1.8479675,1.4230185,0.4136395,-1.5070107,-0.13511467,0.28769913,-0.034364454,-0.115858436,0.10120421,-1.8047738,2.7832859,2.016897
/organization/organization_member/member_of./organization/organization_membership/organization,0.1569833,0.21551153,-0.024035197,-0.4341804,-0.6523568,1.4037806,-0.4643983,0.78929996,-2.2535577,1.1308341,-0.6332258,1.0182966,0.8352729,-1.1587343,-0.4179917,-0.84104323,1.3315411,-0.30526477,2.1057136,1.0776229,1.445483,1.8310122,0.08543154,0.24026637,-0.3118717,0.64377856,-0.5373155,0.5366901,-0.37342605,-1.3565959,-2.1257896,-0.12137253,-1.3747158,-0.2544336,-0.9494606,0.33295578,-0.6842377,0.0043499824,1.3385311,0.5791979,0.5348217,-0.19839333,-1.2961366,0.0074486616,-1.3959774,1.278825,-1.4652241,0.6183056,-0.899354,0.378693,0.2568271,-0.23831186,0.5321687,-1.1779346,0.7614038,-0.9749144,-1.2815661,0.030139007,-0.19833557,-0.4614521,-0.5289139,0.5662922,-0.3636757,-1.3032571,-1.3395131,0.14715874,0.3316968,1.5911409,1.2053443,0.0020823216,1.3188417,1.5990199,1.654307,-1.5752665,-0.8030021,1.3845092,-1.10732,-0.9798375,-0.068913616,-0.639239,-0.9244923,1.1198251,0.7163484,-1.1383637,0.49808338,-0.14467598,0.3836698,-2.77427,-1.419419,-1.0636677,0.4835961,-0.08392593,0.4506186,-1.9200635,-0.76924163,-1.1008592,-0.08495901,-2.3322732,-1.0081387,-2.0351434,0.9854326,-1.3025162,0.5378686,1.251969,-1.3827313,-0.9784067,0.37014017,-0.43539253,0.2576901,-1.3348337,1.5144669,-0.72988,1.1841526,-0.3506032,-0.4381599,-0.6512855,-1.8067756,-0.29520777,-0.5644661,-0.6217627,-0.85850936,-0.24580736,1.2122446,0.015797654,-0.0661794,-0.6358204,-0.32983822,1.0803279,0.6623183,-1.060902,1.7306516,3.0233982,-0.9245502,0.7246415,-0.091496184,1.9761233,0.1365093,-0.50617987,1.388514,-1.2215638,-0.5369635,-0.34967005,1.7083423,-0.14606959,0.13895002,1.2267609,-0.16064167,0.24439584,0.87443936,-1.0425391,1.2423853,-0.38930497,0.89882034,-0.7892663,0.7491231,-1.1662832,-0.5780413,-1.8810592,0.25492555,-0.20933819,0.8390155,-1.1246412,0.5376237,-0.2740253,0.5162865,-0.941472,-1.9096158,1.3744806,-0.50186497,1.0459112,0.2255953,1.5602949,-1.2554312,0.21081482,-0.7977208,2.115278,1.3117957,1.0421821,0.5472997,1.5233011,-0.7630152,1.1828176,0.5530687,1.3880197,-0.7825023,1.1646894,-1.3185476,0.06474289,-0.12138072,-2.2917418,-1.4308954,0.33823484,1.0956538,1.03179,-0.38906837,-1.0084895,-0.33969542,0.60247236,0.22004853,0.51700944,-0.36286497,0.053279944,0.56573266,2.1839244,1.4014609,-0.08406523,0.49205238,0.113205634,-0.15054989,0.20797937,-0.3452261,0.73130304,-0.955117,1.0064633,0.34318537,-0.5208587,0.27633086,-0.6025591,0.40052348,1.1451803,-0.5478951,0.74962455,-0.2644005,-1.281773,0.7446985,-0.92048097,-0.14328694,-1.6258636,0.2810375,-0.9337784,1.4105108,-0.55279183,1.1896075,0.069891214,-0.74677384,-1.3497065,1.9947544,1.8723336,1.7401052,-0.072163776,-0.5181139,0.65898275,0.18029605,-1.0642269,2.6322272,-0.3972446,-1.3053917,1.8403312,-0.6637854,0.26521918,-1.152375,-0.8741971,1.1101418,-0.4449091,-0.78140646,0.12750456
/people/person/place_of_birth,0.19309732,0.2551151,-0.47374856,0.12401533,-0.16786282,-0.50853014,2.006486,-0.62462616,-1.894207,-0.3152335,0.52436984,-1.0217222,0.7651307,0.3834684,0.18007033,0.78832364,-0.47004944,0.08930659,-0.5799841,1.0776346,-0.21168205,1.1445647,1.4235605,-0.15720236,1.1147244,0.4625499,-0.40103477,1.342503,-0.0064752745,-0.7742916,0.444666,0.07965547,1.330822,0.029143743,-1.8757733,-0.0273156,-1.0524793,-0.53176814,-0.2681348,-0.76730335,0.082498915,0.21407615,0.06767281,0.92341685,0.7425751,0.43552426,0.9337029,0.9050787,-0.7011752,1.6688244,-0.44832298,1.374419,-0.51530236,1.1942344,-2.258545,0.9629562,-0.62071097,0.5877637,1.0823389,0.16659813,-0.98574364,-1.2364635,0.032970868,-0.10326043,0.4938486,0.96922797,-0.6018317,-1.3892293,0.07592518,1.38618,0.41983122,1.034994,0.2595913,0.18494752,-0.35413632,-1.1119937,0.2314984,-0.21604341,-1.1961486,0.079177245,0.6868006,1.3079747,2.1970525,0.7117558,-0.24968296,-1.1759385,-0.89876676,-1.2051386,1.1549301,1.1216056,-0.43267018,0.67348677,-0.59874946,0.48909348,-0.27049384,-0.05717491,-0.41516978,0.35901716,0.4885271,-0.060748305,2.249668,2.1009326,0.9836109,-0.74585366,0.5944582,-0.0073906193,-0.8222151,0.48861292,1.5450847,-1.376059,-0.846265,-0.7730913,-0.060572576,-1.033983,-1.0487144,-1.4539719,-0.8776185,-0.35380107,0.15556026,-0.90860873,0.62736017,-0.7545562,-0.2889668,-0.6156842,1.1371882,-1.6091574,-1.023051,-0.0965832,-1.5902532,0.338907,-0.25900292,0.8152245,-0.84718454,-0.3047064,1.3554423,0.7195458,0.90833807,-0.6215023,0.95232826,-0.5310571,-0.13362809,-1.5588795,0.12944886,1.1386638,-0.96900636,0.7898396,-0.29478392,2.2393942,0.4006285,1.0723053,0.7779283,-1.0485545,-0.24004056,-0.49253824,-1.561465,0.80413955,-0.5174445,0.4768525,2.233461,-0.4812389,-1.2630306,-0.32528287,0.85865784,0.34043407,1.1074284,1.4383353,-0.43683583,0.85003024,-1.2992147,0.85731244,1.1826211,-0.20838894,-0.41674188,0.043636337,0.051993728,-0.51073635,-0.02128397,-0.2886589,0.4399999,0.66006887,0.87235177,-1.0848266,-0.30122784,-1.9524903,-0.13651927,-0.46993965,-0.19242547,0.3871826,-1.3067956,1.237278,-0.9863566,0.69665664,-0.1845976,1.3872744,-1.7597017,-0.4296481,1.3210837,0.05381276,-1.0432127,0.5632355,-0.11405277,-0.845384,-1.8728334,-0.516419,1.5913483,1.358621,-0.21023242,-1.7776792,2.1476424,0.8808357,0.29132125,1.5670838,-0.23261385,-0.0052497284,0.7737194,-0.41133642,1.199272,-0.6656145,-1.4393231,1.2903523,-0.07793884,-1.0037574,-0.09482513,-2.3542416,0.46914878,0.00022550626,-0.60247207,1.0947578,-0.889415,0.7585043,0.3931048,-0.65714294,0.41551873,-1.1829984,-0.13897029,-0.83410805,-0.6978872,-1.7396375,-0.0031417462,1.5296762,-0.69499886,-0.6461769,-0.528727,1.8398031,0.09237465,-0.28636846,-0.16747175,-1.1801482,-2.0571816,1.6532649,0.89490306,1.0804662,0.11260289,0.34035027,0.37731573,-0.3041682
/common/topic/webpage./common/webpage/category,-1.6881996,0.67426795,-0.87285966,-0.19269896,-1.3842019,0.5328187,-0.19899698,1.5616089,3.216555,1.5306382,0.76988494,0.34544405,1.5609478,0.5952881,-1.0054973,-0.19794032,2.0016084,-0.044341512,-0.4208912,-1.0019057,-2.0743055,0.08236453,-0.7571808,0.6050752,0.802325,1.1368083,-2.5748558,-0.12948671,1.5807277,0.43267325,-0.16458228,-0.7624468,1.1518996,-0.18398158,-1.4199431,0.1092957,0.059049215,-0.501396,-0.024489537,-1.0608983,-1.1739751,0.38375196,-0.2920559,0.15195513,1.9969939,-1.0088187,-0.5682029,0.62717134,-1.1570873,0.8447512,1.567601,-0.45300013,-0.8575158,0.4087989,0.053604137,1.2529467,-0.53657466,-1.697712,1.0033234,-1.5132897,-0.17459396,-0.48465112,-0.8599859,0.74261886,-1.1425849,0.52275336,1.9961936,-0.3184148,0.96082735,-0.007934326,-1.493781,0.2367806,-2.1785655,-0.32920286,1.2765014,-0.0493135,-1.1094202,-0.42851272,0.065424725,0.55309063,-0.46052712,-0.05217125,0.97788477,1.257648,-0.35517493,-0.57666475,-1.9845436,-0.4966091,0.87768096,0.18488528,-0.6866958,0.8802905,-0.9224446,-1.1160579,0.30306852,-1.8703334,0.9513259,1.4502081,-0.03703502,0.3391136,-0.24318686,-1.7825421,0.078463025,2.1106076,0.6465462,-1.0219275,-0.80080634,0.30690506,0.49767488,0.8135955,-0.7600979,0.7247163,1.260672,0.7963178,-0.47491595,0.6608102,1.3993596,-1.402963,0.6786034,1.1067332,-0.20337267,-0.2566454,-0.4392178,0.26212046,0.46725047,0.14441344,0.8126746,-0.4683095,1.5830027,-0.92315274,-2.197901,-1.4688152,-0.31428954,2.374185,1.5482504,-1.1029172,1.6632133,-0.71736246,-2.2904105,1.3504845,0.9018244,-0.889923,-0.4806116,2.1513972,-0.89496076,1.625698,-0.01800936,0.6529085,0.05440149,0.97025514,1.4068578,-1.5391225,-0.24270667,1.6639245,-1.2177925,0.8150606,0.69482845,0.07274707,-1.4577572,-0.63385516,0.15887372,-0.45515323,1.487386,0.09761025,0.5513741,0.5093101,-1.549105,1.8977016,1.3673804,0.022821313,-0.66303605,-1.1259775,-0.20513935,0.91509014,0.31380758,-0.4661191,-0.04157034,0.7944335,0.22686964,-0.96927625,-0.051748794,0.26625013,1.3341774,0.5793459,-0.10143049,-0.63662213,-0.19814715,-1.7386997,-2.4437442,0.88722557,-1.9198459,0.07702101,-0.42968723,0.31424546,-1.0407931,-1.9008847,1.1187689,1.4623129,-0.5179141,-0.2655763,0.19616258,1.367739,2.2217605,-1.413647,-0.9566524,-0.32596937,1.54894,-1.7568856,-0.40543467,-0.52138275,-0.58749497,0.42060262,0.33168396,-0.39538747,-0.7932154,1.2635471,1.7826082,0.42857605,0.05808313,-1.4883958,-0.8665259,-0.42552292,-0.13763994,-0.11358159,-0.93742055,-0.8383506,0.16692625,0.36217052,-0.6315309,1.0415148,0.41581824,-0.7204279,0.5813894,-1.1868705,-0.5606171,1.4714938,0.22364442,-0.7080478,-0.6400267,0.46588218,-0.5645191,-0.92235243,0.24364959,0.31787324,-1.904056,0.20608231,-0.46885443,1.7545825,-0.94309044,0.04387283,-0.73256767,-1.927387,0.8514793,-0.5043864,2.169966,-0.31628087
/film/film/other_crew./film/film_crew_gig/film_crew_role,-1.0893806,0.4021487,0.4210028,1.1819041,-0.6685093,-1.1766698,2.0244908,-0.8776441,0.19079831,-0.27274632,-1.049785,0.53623486,-1.3997616,1.2883669,-0.7891598,1.0658425,1.2042445,0.4809904,0.97395074,1.1952565,0.79766536,0.09354697,1.9106431,0.3220488,0.008346605,0.19334483,0.91602474,-0.15065257,0.0012729805,-0.3209396,1.5843734,0.65640026,-1.9722443,1.4015812,-0.20000112,-0.14483228,0.09547988,-0.7276426,0.049433682,0.073376484,1.258572,-0.94432753,-0.7023167,1.4583516,1.5795814,-0.8973021,0.7639282,-0.36654052,-0.9074961,2.1195426,-0.2903623,-0.50699687,0.5474582,0.7361042,1.620922,-2.1024654,1.2881129,-1.564933,-1.3179607,0.30339703,-0.79294264,1.0348206,0.16937554,-1.2665769,1.2826312,0.3165561,-1.0829536,0.5770936,0.123909816,-1.2668995,2.2604024,0.46933803,0.7601208,-0.5703628,-1.5189768,2.0553107,0.72817063,0.96292496,-1.587139,-1.3973757,1.1800177,0.67233306,-0.62159026,-1.1909978,1.6437716,0.82935643,0.5398168,1.1913366,2.2931006,0.0001873396,-0.96422887,0.35219386,-0.6864245,-0.96927047,-0.39236945,0.5915976,-1.0117353,-0.35106578,-1.0890749,-0.9925799,0.42713583,0.7421467,-0.0025500327,2.1186903,-0.5850207,0.2875705,1.1389959,1.7397711,0.5870738,0.05963104,-0.5246588,0.75435466,-0.66760176,-0.39258304,0.89024025,-0.008312519,1.0271848,0.9134154,0.16571546,-0.732162,0.1172142,0.18599486,-0.0059794,-0.42439252,-0.54438174,1.5190789,-0.15312886,-0.8545937,-0.92263067,-0.45618007,1.0472617,1.1719017,0.54090834,-0.28738222,-0.3387031,0.7186639,-0.282224,-0.9626711,-0.07384409,0.35857347,-0.8708182,1.4157083,1.1429696,2.4236007,-1.2891774,2.1012046,0.42011097,-0.25460574,-0.46728832,-0.29871327,1.5723989,-0.55066115,0.587572,-2.5171485,-0.26404554,-0.6402058,-1.0913392,0.38394138,0.7063555,-0.852263,0.52556884,1.0262206,-0.8303571,1.0613291,0.3639827,1.9351093,-0.29593122,-1.6183031,0.6361685,0.22283624,0.37179127,-0.63917166,0.6694958,-2.0521996,1.1903547,-0.15482344,0.99945056,-0.73896706,0.19796914,-1.1669867,0.10435035,-0.66414106,-1.3996879,0.05208603,-0.16064943,-2.0035844,1.1734315,0.1251999,1.4014765,1.5440837,1.7715217,0.11641002,-0.20223099,-0.14594506,-1.6407921,-0.93249965,-0.5610682,0.8231951,-0.6755441,-0.08152581,0.83712554,-0.33355948,-1.3320254,0.44079876,0.44660196,-0.7626156,0.17749579,1.4645587,-2.0168896,-0.061383206,-0.89440787,0.5818207,-0.10899746,-0.53359926,-0.3715733,0.52804756,0.1658808,2.0678594,-0.5924545,0.3246327,0.37009686,-0.58659893,-1.3994892,0.17158313,-2.936755,1.0918453,-0.39495188,0.41218895,-1.0847007,0.21585304,0.8066228,1.0265685,-1.0628966,-0.13311571,0.20557165,1.1616368,-0.17035538,0.13938425,0.20522934,-0.5981458,0.48459223,-1.0799583,-0.08421392,0.7231017,1.2239614,-0.6872055,-0.97589225,0.6050193,0.14147484,0.43395433,1.181584,0.12415728,0.050143257,-0.8536514,1.0402443,1.471401
/award/award_ceremony/awards_presented./award/award_honor/award_winner,1.796679,0.6323967,-1.9433463,-0.17903402,-0.6083246,-0.06903633,-0.47489327,0.93597066,-0.98807997,0.050536443,-0.67192495,0.059776854,1.260609,2.1060147,-1.3943812,-0.103011355,0.46733713,0.66412115,-0.77129126,1.2165825,-0.1329163,-0.7554117,-0.6264668,-0.39833072,0.9392544,0.28191236,0.43679327,0.960515,0.3054816,-2.6791205,1.0563214,1.049264,-0.14786033,-0.47592336,0.17173618,0.61766815,-0.41818884,1.5090334,0.33579308,0.118943624,0.38914543,-2.9269407,0.12187272,-0.5324733,0.8048088,-0.68965316,0.42600262,0.06593032,1.1407886,-2.7803159,-0.24408756,-0.09048284,1.1441716,0.04385418,0.83285844,-0.2542797,0.15612641,-0.64743084,-0.47358307,-1.5266001,1.6781363,1.0122876,-0.0910402,-1.8375648,1.7713593,-0.23706956,0.04567144,-1.1814067,-0.186217,1.6047912,1.9276351,-0.8840602,1.0307547,-0.13841821,0.9829073,-1.0504827,0.057594314,0.63424546,-1.8635077,0.5145804,0.17036271,1.7108643,-1.288263,1.8068235,0.66052806,-0.7729993,0.18346173,0.14356846,-1.3439367,0.17324896,0.026461951,-0.4380678,0.14734054,-0.32178038,0.65087414,1.0757005,-0.46099132,-0.8837207,-1.1129254,-0.7463638,0.25463328,0.9517413,1.0732176,-0.4718618,0.5207325,0.43095824,0.071585104,0.2247115,-0.78660905,-0.613966,-0.98096067,0.5068942,-0.16355906,0.5912229,-2.041642,-0.72373927,0.18347968,1.022653,-0.2986461,-1.2209888,-0.3733018,-1.4998354,0.11993412,-0.86610824,-0.08941473,-1.0117092,-0.12407294,-0.5619707,-0.9840956,-1.5313636,-0.5554963,1.3717511,-0.49889392,-0.6727527,-0.55565524,-0.4340564,1.541006,-0.79078376,0.87231547,-0.3198014,-1.0599502,0.81171715,-0.90512043,-1.0286701,-0.42987576,1.5046005,1.1972243,-0.4975781,1.047801,1.9245532,-1.4966458,2.4809194,1.4991428,-1.0488626,-0.9998437,0.7868531,-0.6088577,1.4750849,0.18429898,-1.0276333,0.17176014,0.048053995,-0.4069868,-0.89776325,-0.06759337,-0.07517029,1.0003495,0.9092029,-0.02775311,-1.1458652,-0.91325015,1.7670655,-0.6425441,-0.6847886,-0.15386577,-0.06744453,-0.1429719,-1.0851858,1.0321062,-0.41566426,-0.72726166,0.75699246,1.2464958,0.8985117,-0.1369802,-0.85053915,-1.1223733,-1.2373536,-0.6172691,0.13393037,-0.63403565,0.43126607,-0.17962864,0.15131487,0.13575156,0.78211284,0.3323769,1.778834,-1.4008737,0.19731253,0.2092468,3.4239993,-0.3553629,0.3714854,-0.48205137,0.36426327,-0.28070804,-0.01563654,-0.33243415,0.56425905,-1.0793241,1.3012347,0.16538845,0.33027676,1.6548107,-0.777726,-0.68680036,2.1459188,-0.13301064,-0.19560365,0.1495296,-0.5755453,0.7896451,0.29839948,0.8760478,0.36940217,0.25545022,0.082139656,1.107346,-2.2349946,-1.401674,0.3564462,-0.6075987,-0.9932445,-0.56723243,0.33150464,0.37104258,-0.4811063,0.27592325,1.2025915,-0.8662319,-1.3965245,0.98152256,1.0071669,0.37763777,1.1567273,0.77933145,-0.36488464,-1.1548301,-2.223854,-0.9496181,-0.92543185,-0.39068946,-0.2675809,1.3160952,-0.5873614
/film/film/country,0.3225654,0.5827116,-2.1348276,-0.008193627,0.98066956,1.1064336,-0.15196283,-0.2353381,-0.15543312,2.0415485,-0.48792738,0.63173825,-0.97132444,-0.17148833,-0.095013216,-0.8244544,2.355142,-1.1901594,-0.08900461,-1.1348791,1.4257268,-1.2855779,-0.47538266,-0.22107127,0.57991606,-1.4216602,0.4081877,0.11058074,0.8035863,0.106510945,-0.033647653,-0.16377465,0.82091284,0.41444716,-1.3750955,0.12513816,-0.8608536,-1.02922,0.11056549,-0.2593763,1.0749221,0.93187416,-1.3433758,-0.13559571,-0.75848776,0.023813313,0.64100546,0.19642535,-1.2184924,0.2707116,1.5529449,-1.6610008,0.4412878,0.5894131,1.0048904,-0.030783972,-1.3364795,-0.32802734,-0.8029422,-2.0166385,1.1709211,-2.0395703,-0.7000558,0.19398783,-1.0498089,1.1204519,-0.49925998,0.5607124,-0.53875816,0.19802138,-0.8381226,1.5360953,-1.3676811,0.8206497,1.4341674,1.8645836,-0.86955315,-0.49280605,-1.0183772,0.63106334,-0.2701592,0.34445038,0.99107313,-0.8686217,-1.3166202,-1.3968369,0.033121966,1.2118634,-0.85476106,0.12531401,0.07921971,-0.74834114,0.9564679,0.49202287,-0.97195977,-0.16367207,1.1825922,-0.86204034,-0.2716106,-0.032479815,-0.26524413,-0.59933966,-0.11813081,-0.06390069,0.00480475,-0.697051,-0.4839798,0.32877132,0.4506537,0.8464761,0.63045007,1.5358506,1.8684945,-0.018751657,0.92946255,1.0857593,0.98033977,0.09718203,0.86596686,-0.83608466,0.20591216,-2.179694,-0.48656937,-0.88054603,-0.022745399,-2.3294463,0.2251321,1.2581246,-0.10941501,-0.52769154,-0.39296395,1.1036892,-0.022099799,-0.4028193,0.37220266,-1.6231784,-0.09144042,1.0882674,0.51858944,-0.56916285,-1.6733805,-0.6147109,-1.285507,-2.0737445,-1.107581,1.0636207,0.40520427,0.4022801,2.3817465,-1.0170742,0.93036425,-0.10399033,1.0089118,0.8643126,-1.7911662,-1.2890916,-0.26949823,-0.39772847,-1.1787289,0.06985934,1.4603556,0.96467733,-0.20682107,0.6872379,0.12487485,0.2232427,-1.1473,-0.21999475,-0.47644198,-0.03461938,0.24663994,-1.2755396,-2.5712905,0.11352194,-0.7705494,-0.32693815,0.96670586,1.4571482,0.8588648,-0.6610311,-0.932627,0.6029559,-0.8918704,-0.5095655,0.9097104,-0.31760827,0.5095668,0.5412319,0.70648026,-2.2166007,-0.28384218,-0.9500775,-0.19490282,0.7669592,0.55120635,-0.16937073,0.9578433,0.38255718,0.7804835,0.07796406,-0.5490003,0.6801593,0.55456996,0.13764793,0.6250331,-0.7576817,0.27254865,1.2198902,0.61361927,-1.3943331,0.7087462,-1.0710825,-0.79407775,-0.72189337,-0.62442833,0.028660882,-1.6110232,-0.38515207,-0.25868607,-1.9337542,0.90269464,-0.79802746,-1.0540141,-0.24921846,0.6883542,0.27883157,-0.752085,0.27254146,-0.5658095,-0.21381254,0.56526095,0.56356204,-2.4224343,-0.09225911,1.1402671,0.3920231,-0.2216537,1.1979363,0.13741481,0.2721022,-0.63349754,-1.1155901,-0.31339383,0.79041076,-0.1631811,-0.022307642,0.5411062,-0.73292726,0.5286079,0.0037590736,-0.035611887,-0.046141423,0.6034235,-1.476627,0.7256014,-0.9679003
/olympics/olympic_sport/athletes./olympics/olympic_athlete_affiliation/country,1.0504854,-1.901418,-0.75967145,-0.71351343,0.20273976,0.5970945,0.6639111,0.43467566,-1.8369731,0.8001809,0.92530465,-1.5330654,0.22690003,-0.24586853,-0.6337905,0.305399,-0.3472795,-0.01368258,-0.74075025,-1.3708218,0.5077683,0.33721426,-0.22285205,-0.014464942,0.425921,0.5860647,-1.3239596,0.3424751,0.83615255,1.8729737,-1.4705052,-0.5347309,-0.38355356,-0.77447355,0.113069706,1.67473,0.05782661,0.7581281,-0.35035712,-2.2008128,0.47290397,-0.8697005,-0.2826984,0.45142,-0.70315474,0.47545168,-1.4789721,0.64800256,-0.15963426,-1.1431956,-0.7753355,-0.036076993,0.453005,1.7300957,-1.0100758,1.1946084,0.53530514,0.47075725,2.0679452,0.7317909,-1.0360982,-1.0195636,-0.90748674,0.7915256,0.52363586,0.1397091,0.36384386,-0.31518796,-0.36951086,-0.5218636,1.2122614,-0.2828994,-0.2257978,0.08576301,-0.6652553,1.0729908,0.59042674,-0.089278504,-0.104599945,1.5526078,-0.13778442,-0.22634181,-1.0230701,1.557217,1.0169812,-0.5509088,0.6706988,-0.04229111,-0.3008985,-1.5199505,2.1325314,-0.18625823,0.22090386,-0.08354344,-0.54951996,-0.91814214,-0.19532731,0.4235781,1.2838881,-0.53063023,-2.86859,0.97132504,-0.7741214,0.014869779,-0.010427492,-0.60123456,0.1699285,-0.5645117,0.7641831,0.025802314,1.5716747,-0.6843561,1.3596641,-0.8646643,0.801864,0.78172654,1.8500752,0.5013857,-2.619923,-1.0625751,0.14947426,-0.779778,-0.25911036,-0.19656993,1.3164675,-0.07132452,-0.03172654,-0.68572533,-0.68374467,1.1128638,0.73641473,-0.2599536,0.1950119,1.0789732,-1.4079533,0.6199432,0.08056796,0.41002578,0.5597914,0.5188031,-0.5244715,0.23454337,0.25991425,0.05513347,0.93768793,-0.860871,0.632667,0.09128278,1.4821671,-1.1685705,0.30669624,-0.36833742,-1.18706,-0.4697062,0.092066735,-0.42246377,-0.25222212,-1.9351449,0.9724206,1.0371717,0.6235262,1.3978648,-0.7285732,0.19177891,-0.3319802,-0.24089485,1.0868021,-0.52596015,0.48571965,0.4372189,-0.542204,-0.22709708,-0.5569303,-1.0832757,1.6296966,-0.23718067,0.38348493,0.5714224,-2.4087625,0.3877818,-0.29806012,-0.4614365,-0.27389285,-0.33292735,0.43312564,0.034024667,-0.6245669,-0.0015624198,-1.2089643,0.45560685,0.7479742,-1.8492675,-0.20659275,1.1534685,-0.041075718,0.81376815,-0.962672,-0.2902099,-1.450644,-0.19249775,-0.4915037,0.7634678,0.7076233,2.2878025,1.4236481,0.67209685,0.66207856,0.12466331,0.13703154,-0.41852877,3.0727975,0.43579277,-0.3462242,0.31033513,0.4587229,0.42437714,0.11545458,0.05314762,-0.027152237,-0.57823664,-0.25597012,0.6490561,-0.58232135,1.9217856,0.39481404,-0.8341202,-0.88322586,0.3747356,-1.0934556,-0.3956287,-1.5611488,0.27598965,-1.1575879,-1.0589137,-0.99403507,-1.2797332,0.35418662,1.0142556,0.60043496,0.698379,1.1799122,-0.57621956,0.062471937,0.79264706,0.06953568,1.0272118,0.39478883,0.7546471,-0.88720256,0.65701973,-0.76635957,0.16164866,-2.0972786,0.5705868,1.0070608,0.7544493
/award/award_winning_work/awards_won./award/award_honor/award,0.040545225,-0.11659458,-0.29374406,0.19622274,1.1808684,1.8924156,-0.5063533,0.11620833,-1.019913,0.08589592,1.7361122,-1.2640884,0.5767174,0.68910694,0.06658087,-0.31401098,-1.5559627,-1.1517555,-0.6650636,1.6569214,-1.669933,-0.48327944,-0.9052427,0.37571257,0.29005954,-0.62361205,-1.9389862,0.49482116,-0.2274629,-0.24180648,0.4227359,0.33895004,-2.7793837,1.2394336,-1.1342666,-0.026554257,0.91627073,0.94500655,0.35443196,0.38650766,0.48357722,0.13233916,-0.32742658,-1.4599861,0.39181095,1.1883178,-0.82404315,-0.3669455,0.113259465,0.2777295,1.3145949,0.13171536,1.1420119,-0.45578173,-0.93310887,-0.29058808,-0.8002325,-0.4129518,0.050950278,0.4806937,0.005903123,0.8526947,-0.007206539,-1.1178837,-0.6355028,-0.75914425,0.21298784,0.94057494,-1.9062216,0.9192787,0.9689731,1.816918,-1.2090465,-1.2240859,0.8711932,1.1416436,0.0071081105,-0.58435786,-1.1030338,0.085882336,-0.20443791,-0.45289764,1.3569784,-0.07701399,0.29151255,0.3893799,-0.18008503,0.6589307,0.6495155,-1.8142786,1.9084824,-0.11113708,0.13718265,-0.042671982,-1.4495982,0.35794377,-0.5362689,-1.5611155,-0.64691406,-0.21240911,-1.1206677,0.06555537,-0.7343683,2.5477443,0.6783413,-0.42870116,1.8668411,0.9029967,0.74345875,-0.57906735,-0.71225494,0.45097506,-1.1900061,-1.1193255,0.6211577,0.39894378,-0.2260001,1.7373096,1.5177088,0.48136485,-1.4393054,0.63559383,0.8554391,0.6850108,-2.1014023,-0.6818566,1.4643726,-0.79048866,-1.3687891,1.2663805,-0.38558897,-0.8220287,-0.84911895,0.6499924,0.6828643,-0.63862455,-0.5706744,0.97542685,-1.1213007,-0.34418705,2.095679,0.68724805,-1.1528112,-0.3536116,-0.05124901,-1.1167426,-0.28310558,0.8312933,-0.66120565,-0.7371719,-1.197629,0.42550555,-0.095105894,0.18905099,-0.78734356,-0.05493898,-0.8914488,0.30139738,0.31139913,1.3939642,0.7598132,-0.47850335,-1.3036273,1.3402461,-0.79793787,0.70581317,1.0354278,-0.7333291,1.4457259,-0.3395374,1.9087853,-1.0507143,1.1052188,1.1329955,0.23432057,1.0581605,-0.5214986,-0.78982544,-0.9112383,-1.0962334,0.13774891,0.49436343,-2.284883,0.5113087,-0.26228446,-0.2546387,-1.1687241,1.340168,-1.2009296,2.095215,2.2621179,-1.2170084,0.007402147,-0.05827998,0.8381912,-0.20852838,-0.12926039,-1.8751572,-1.7195519,-1.3918928,0.93747014,0.5177965,-0.014615467,0.6053052,-0.31345135,-0.8440906,1.0295087,0.6194178,1.732324,0.19053486,1.6579905,2.6772685,-0.4529894,-0.6239533,0.19657518,0.124754295,0.3780142,0.49739376,0.17019537,0.07527803,0.7961317,-0.775427,-0.7911907,0.17427896,-0.69126505,-0.30579647,-2.9763682,-0.66844124,1.3171247,0.06942473,0.07685338,0.16676687,-0.3959863,-0.29900387,0.30158105,-1.1063279,1.7676251,-0.52722317,1.4472374,-1.0170566,2.232195,-1.393421,0.8989819,-0.37505466,0.24423988,-0.61217076,-1.1963778,-0.31620982,0.96526337,-2.5604568,0.56188864,0.17913958,1.0084244,-0.31266737,-0.29751706,1.2483025
/film/film/genre,-0.291505,0.15217252,0.7894958,-0.65406644,-2.0330615,-0.47205243,0.14136194,-0.98902076,0.21180718,-1.1103508,0.0045450474,1.1439421,2.1636565,-0.09745368,-2.3894942,0.49431443,-0.5524752,0.3676047,1.6654836,-0.9852048,1.4168521,1.5391343,-0.4474053,1.075561,1.952801,-1.290818,-1.6787531,-1.0055708,0.9664385,-0.45515388,0.26869875,-0.7123254,0.25085515,1.116078,-0.17019004,0.95962447,0.04112258,-2.1831212,0.032964617,-0.9806845,0.07097799,-0.89577484,3.3916721,1.116281,1.3445183,-0.20164537,-0.5039712,-0.5892917,0.86868614,-0.62327284,0.31968173,0.36147627,1.2216389,0.6546117,1.4410552,-0.30096474,-0.61991096,0.5276102,0.78098947,-0.81790435,-1.1907396,-0.3986334,-1.4190261,0.7418738,-1.454077,-0.7019939,-1.6213794,1.444609,0.07881811,1.138244,-1.162134,0.99640423,0.19765548,0.18784684,0.45156333,1.6144267,0.012161978,-0.21216719,0.95774263,-1.7115694,1.8312649,1.8857535,0.86565506,-0.6168638,0.9492007,-0.14869227,0.24999581,-0.12663396,0.16364372,-1.4020776,0.11822434,-2.0248177,-1.3667129,-0.76221675,0.4674271,0.10934768,0.56800723,0.6689691,-0.63223004,-0.55980897,2.5605981,-1.3124261,2.1695824,0.7463893,0.6676883,1.4531196,1.4396292,-0.3812184,0.024007782,1.628373,-0.45367196,-0.23358594,0.26295927,-1.0288954,-0.7518771,-0.2551495,0.21509978,-0.38531235,0.7515179,0.05501038,-1.481773,-0.34008908,1.8199177,-1.6342993,-0.086280495,0.51877344,-0.52520627,1.8406203,0.09065301,-0.8204202,0.35308662,-0.021797253,-1.5854071,-0.63870174,0.9783753,-0.9379989,0.10372834,-0.06690437,-0.8657872,0.47384754,-1.0630612,0.6640806,0.13444553,0.22585368,-0.16955154,0.07671744,-1.3572872,-0.1817788,-1.3131971,-0.80279654,0.49661535,-1.6606089,0.37004203,-0.13247037,1.045961,-0.037154183,0.37266043,0.65054905,-0.6870988,1.1848104,-0.31921983,0.6338636,-0.7857337,-0.36264616,2.1350389,-0.35397577,-0.26746073,0.0067259176,-0.19305436,-1.2429497,-0.10520372,0.5860252,0.34150413,-0.12651387,0.07737393,-0.6419876,-1.8431139,2.4756672,-0.31924656,-0.01929549,0.7868842,1.1283615,0.8273226,1.469612,-0.6340736,0.7289397,0.46507388,0.5657646,-0.4253441,1.1966041,-0.11053668,-1.1084987,0.5673658,-0.23210266,1.7402515,-0.80899245,2.1480768,-1.3039892,0.58398926,-0.030675996,-0.8052453,0.050810732,1.1367365,-1.4980509,-2.416656,1.836948,-0.043245204,-1.0415244,0.7394604,1.0500135,-0.65572345,-0.59280163,0.11982913,-0.19866665,-0.71849406,-0.90674925,1.1216153,0.10694502,-0.4411943,0.70908076,-0.50983965,0.21913138,-0.17737463,0.23757307,-0.94743377,0.27947158,0.20861135,0.08269895,0.68269646,-1.7516018,1.9015468,-0.004490804,0.111242786,-0.6211314,0.0809085,0.67666835,1.4585806,0.30231446,-0.6284789,1.43112,1.0259225,0.4767221,-0.43140057,-1.2910478,-1.0593648,0.021948392,-0.4357568,-1.0485762,-0.8402089,-2.369685,-0.6293011,-0.40926445,1.1328782,-0.54416263,-0.17023112,-1.1898218
/film/film_distributor/films_distributed./film/film_film_distributor_relationship/film,-0.09399073,-0.41230163,-0.42299125,-0.30151892,-0.16666989,0.21802527,0.9240765,-0.56208,1.0619993,-0.8383797,0.21288393,-0.6497186,0.061670415,-0.2892167,-0.7930679,-0.4318943,-0.32069165,0.9989713,0.47021908,-0.9131922,-0.070212424,0.59845465,-1.6136304,-0.34763357,-1.2963498,0.169512,0.7135601,-2.0281684,0.23321576,0.8690551,0.7211877,0.22482648,0.34923762,-0.8715052,-0.21174648,-0.1931232,0.8116472,0.04150794,0.72187394,-0.5936507,0.0861263,0.36454642,0.17217621,0.2051874,0.034441024,0.56212723,0.99900675,-1.2242436,1.4612364,-1.4517106,0.9051856,-0.22560152,0.17218152,0.115231514,-0.15094857,0.8144615,-0.12440032,1.4346087,-0.9850709,-0.7865527,1.1399671,-2.1223257,0.11261001,0.59125847,0.82235813,-0.604725,-0.89347494,-0.7541814,1.2625947,0.7048525,-1.0258147,0.7352463,1.081941,0.46405646,0.8919935,0.6518973,-0.3893779,0.06292631,-0.6254134,0.09293796,1.8015978,0.9633423,0.023025502,-2.0122294,-1.0233735,1.4703854,1.3011466,1.4983591,0.60648733,-0.76331794,-2.4503446,-0.63948536,-0.030205455,0.52738667,0.33275473,-0.74025655,2.2268023,0.9808525,0.62712246,0.6704408,-0.15217532,-1.202028,-1.0825609,-2.12797,-0.058062576,-0.6960554,1.586626,-0.5859935,1.1100355,-1.2576733,0.6003276,1.2417388,-0.04186154,-1.0680995,0.77538896,-0.5122992,-0.9477648,-0.17053555,0.62149894,2.0604706,0.3577033,-0.798296,1.000702,-0.23126654,1.8774829,-0.5174576,-0.59477353,-0.047347218,-0.13725401,2.1801565,-0.3351526,2.5123796,1.8911743,0.7912474,0.71795875,-0.008439979,0.024934566,-0.75522107,0.60096526,-0.70862496,-0.044423316,-0.4555553,-0.40341386,0.5151965,0.5925172,0.8328778,0.21041468,-1.0816264,-2.2767696,-0.23689498,0.28557813,-1.0922811,2.0325193,-0.6964659,-0.46228817,-1.6533462,1.3667396,-1.33427,0.32667,-1.307102,0.1849861,-0.59772396,-0.6119314,-0.35219878,0.22107455,1.0099475,0.49925187,-1.6254276,-1.190927,2.0926993,0.6197096,-0.042625584,0.40729648,-0.7093047,-0.005827693,0.19228649,0.07098516,-1.0306848,1.0222708,-0.94554734,1.7406319,-1.5726382,-1.2278829,-1.100425,0.45822263,1.5670632,0.94786525,0.09633765,1.0236351,0.002073691,0.18061014,0.49895,-0.5694446,0.32745788,-0.05875204,-0.04230153,0.003698969,-0.22722611,-1.6632423,-0.7113802,0.77667814,0.8948808,-0.19897103,0.55919045,-0.94889754,0.33403766,0.3068002,-1.3001826,-0.16023917,-0.44799548,1.1550444,-0.009675642,-1.465416,-1.3359901,1.5842539,0.006782408,1.2456522,-0.032691143,-1.8591433,0.94764495,-0.9301559,0.61451745,-0.67762154,0.3099835,-0.24015702,-1.8732481,-0.8680911,1.441563,1.001775,-0.38755816,1.7322049,0.4915894,0.30006877,-0.69625336,0.36217076,0.37480366,0.8189974,0.51114386,-1.0765958,0.13936125,-0.6234497,1.0613935,-0.111664996,0.004412422,1.2365899,-0.5224633,0.9950954,-0.6998323,0.5053546,-0.9164552,-0.6998403,-0.36978266,0.19112472,0.60211813,0.14397116,-1.185022
/location/statistical_region/rent50_2./measurement_unit/dated_money_value/currency,-0.15849717,0.11193978,-0.94975466,0.8674913,0.23332764,-1.3630053,0.24076155,0.5663696,-1.0352061,0.11797632,0.33786595,-2.4187376,-0.05515113,1.1499586,-0.40792355,1.6587514,0.36370495,-1.8966639,-0.5143258,-0.8974114,0.14644262,-1.1490957,1.4055765,1.1880472,1.0860473,-0.7717797,1.453908,-0.23920064,-0.6302347,-0.75506884,-0.42893547,-0.60054135,-0.6167006,0.37185717,1.1432762,-1.860003,1.2895248,0.50276,0.56264013,0.8730811,-2.7460232,0.19793718,0.9207148,0.5245138,0.52526194,-0.37653247,1.219447,1.5699303,0.9742328,1.6873161,0.72385347,-1.4963518,-1.8363153,2.4969518,-1.1480272,-0.5504119,-2.1248822,0.84604776,1.1646508,0.94343984,-0.9023881,0.4444271,0.30722535,1.1737362,2.1055121,-2.2217422,-2.105859,-2.0790718,-0.6429519,-0.30386046,-1.2151886,0.9216937,-0.12837909,-1.2450534,-0.69193596,1.8424344,-0.767436,-0.47014025,1.0737115,-2.1184838,0.7904394,0.59764385,-2.5581832,1.8799602,0.8788481,0.8505514,0.35187998,0.06696831,-1.6909827,-2.1234825,2.2618847,1.2353263,-0.6679104,-0.007892791,-1.771648,-1.392877,0.5324761,0.08333853,1.0364139,-0.159115,-0.18361695,-0.29303786,0.7243097,0.079385154,-0.47588232,-0.39762002,0.1668198,-0.5991908,-0.6891928,-0.91687137,-1.6270661,-0.9687421,-0.062519684,-3.309862,-0.07028675,0.9125349,0.72720635,0.9011584,-0.92250854,-1.1174462,1.2832543,1.8537434,0.16378132,-0.3153203,1.1066186,0.16563062,-0.40862563,-1.0705211,0.93691546,0.59010434,-1.0161937,-1.3730109,-0.88538104,-0.5373234,1.5998414,-0.33476514,-0.027242191,0.5177697,0.95194477,0.3359354,0.29646456,-1.3087282,-0.5485685,-0.5772848,-0.50437045,1.5923127,-1.4325534,0.92182606,-1.2328854,-2.261201,0.2114886,0.8421842,2.400211,0.7403039,0.800621,-1.8739768,-1.358259,-1.1710515,0.28198737,-0.49895316,-0.57226396,1.2742152,1.6654471,-0.24237587,-0.5336896,0.85434407,0.73279303,-0.59917957,0.16842909,-1.272647,-1.001746,1.5356314,-0.80258715,0.3521323,-0.19933645,-0.19487876,2.01484,0.7611841,0.079436935,-0.54044527,-0.23824146,0.5648655,0.49358755,-0.6321989,0.047778286,1.1177807,-0.3003131,-0.22709253,2.6488092,-0.6817918,-0.022064047,0.94462234,0.7448305,0.7989093,0.5310691,-0.12055249,0.50894195,0.007064748,-0.21629597,-1.114144,-1.1137135,1.3140732,0.9660209,0.029547714,-2.1187007,-0.08749117,1.6518084,-0.36628243,0.5794669,-0.6036409,-0.7069665,-1.845169,0.9610448,-1.7472494,0.93778497,-0.29934192,-0.38183236,-0.2595322,0.57666117,0.458254,1.1321948,0.37970638,0.078384705,1.4807009,0.17927778,0.3334086,0.39282647,-1.202521,-0.5125908,-0.3168373,1.0748253,-0.294715,-1.3487434,0.013026926,0.706074,-0.15289663,-0.46289745,-1.4437275,-1.6653054,-1.429931,-2.620317,-0.8403405,-0.89279324,1.3625703,0.4359193,-0.8470895,-0.26361722,-0.78758013,1.3589153,1.9031216,0.1829441,-0.9834713,0.38350093,1.9768809,-0.84383625,-0.9299236
