,0,1,2,3,4,5,6,7,8,9,10,11,12,13,14,15,16,17,18,19,20,21,22,23,24,25,26,27,28,29,30,31
/location/country/form_of_government,-0.15295574,1.0528183,-8.693451,-0.4030723,-0.63809496,-0.026307497,-0.5828548,1.3374898,-1.6972156,-0.97828245,-0.5181436,-0.6003887,-0.72873825,0.6060982,-2.4221294,-0.89816135,-0.18409424,1.2436364,-3.222519,1.7392101,0.35332307,0.8743973,0.58235365,1.3349617,1.4453229,-0.7755998,-1.2454118,-2.4625883,-0.09255064,-2.2896705,-0.5597658,2.8103986
/tv/tv_program/regular_cast./tv/regular_tv_appearance/actor,0.79715705,-0.95509344,-3.101389,-0.12734336,-0.45964584,-0.99808276,-0.06222758,-0.7408192,-0.5501687,-0.7307796,0.835587,-0.7297329,-0.68381375,-0.6610886,-2.471399,0.9242881,-0.39182413,-0.1385858,-0.1822072,-0.69767445,0.10199632,0.26615795,0.40409327,0.06544397,-0.6453888,-0.5202488,0.45303723,0.6492933,0.31599838,-0.18996656,0.43265465,-0.42445228
/media_common/netflix_genre/titles,1.0346617,-0.43669862,-1.580288,0.47176188,0.20015411,-1.2157345,0.4734827,0.46223477,0.056214754,-1.5018588,-0.73427117,-0.08924105,1.1355578,-0.2842087,-2.2736228,0.4600464,-0.18356735,0.22563387,0.84510076,-0.882249,-0.012621629,-0.00075429335,-0.2990709,2.2307196,0.69519365,2.2160704,0.59071875,-0.86514246,0.28779548,-0.25000018,-0.87790054,0.2553826
/award/award_winner/awards_won./award/award_honor/award_winner,0.96920574,-0.06793544,-2.8007495,0.13715973,0.0494673,1.2642778,1.0446769,1.0043693,0.94504535,-0.06385822,-0.8319363,1.121755,1.3135781,1.0413172,-3.535037,0.98324335,-0.25953305,0.35134375,-0.045007505,0.5612753,-2.1488717,-0.0035038495,0.11322235,-0.06904318,0.26881847,0.12145091,0.1581506,0.40060803,-0.023563042,-0.16464944,-0.10939177,0.4721905
/soccer/football_team/current_roster./sports/sports_team_roster/position,0.015397537,-0.47150064,-0.54840827,-0.29578075,-0.030826557,-0.28496557,-0.88393664,-1.0759017,-0.3719169,-0.8970968,0.52745295,0.08944806,-0.41732386,0.09065124,-4.4373965,-2.7325268,0.70531994,2.0664544,0.08868547,-2.1156864,-0.69644177,-0.6176621,2.4156764,0.025387563,1.9839144,3.7560606,0.61288697,-0.28708157,-0.27710205,0.37989205,-0.12247571,0.07090073
/soccer/football_team/current_roster./soccer/football_roster_position/position,0.5337324,0.052653193,-1.3926429,-0.09636146,1.0124598,-0.1405408,0.06393161,-0.9432157,0.060843185,-1.8634428,-0.9614634,-0.56356984,0.45348266,-0.40690225,-4.031137,-2.8501601,0.046047036,2.4050758,0.026826251,-0.7342807,-0.09073411,-0.32150954,1.162346,-1.3721218,1.6646835,3.0113099,1.1825162,0.7101036,0.7389039,0.11001478,-0.36865103,-0.7721357
/film/actor/film./film/performance/film,0.6007946,-0.69473237,-4.0300913,-0.40926903,0.3081365,-0.9547601,0.065508604,-0.5188555,-0.52715874,-1.1750758,-0.35864794,-0.6603228,-0.45557657,-0.5801787,-1.7993224,0.6928198,-0.45430467,-0.3532942,0.32540184,0.15088263,-1.9396951,0.33213523,-0.42256323,-0.019877983,0.30764621,0.63143927,0.42358926,0.07318346,0.3201495,0.074934155,0.108756796,0.59552276
/award/award_category/nominees./award/award_nomination/nominated_for,-0.92108065,0.29756653,-1.5161744,-0.3368273,-1.1913792,0.8312751,-0.29058662,-0.7346742,-0.996342,-0.9450067,-0.11215603,-0.367817,0.72385496,0.25541583,-2.511855,-0.6013841,0.058042843,-0.102382824,0.3108921,0.26940724,0.02598541,-0.025330443,-0.06851562,-0.3832039,-0.19063494,1.0689757,0.54157096,0.015549196,-0.24646224,-0.15253627,0.4481539,-0.70511657
/award/award_nominee/award_nominations./award/award_nomination/award_nominee,1.0014468,-0.11888537,-2.5860326,-0.5178463,-0.003893646,0.9299533,1.1003207,0.888503,1.0125316,0.6188098,-0.6942668,0.9944288,1.2313316,1.0357609,-3.5782762,1.4191406,0.3739686,0.09591107,-0.18607473,-0.12235487,-0.66952103,0.20954575,-0.2285034,0.08736334,-0.043002155,0.08749671,0.18492258,-0.0653398,-0.12331071,0.18896565,0.24028553,-0.17992316
/music/performance_role/regular_performances./music/group_membership/role,1.0758907,0.8092601,-0.55664784,0.7385108,0.27326623,-0.6091819,1.5857946,0.4926669,0.8311177,-0.61563873,-0.9197202,-0.43395275,0.24982977,-0.4846548,-3.9883156,-0.070828944,0.013746141,0.99314475,0.057893347,0.51285887,0.5004299,-0.03660035,0.34865248,0.04098411,1.7991962,1.5193012,0.45844555,0.22856157,-0.7308002,0.35553554,0.2533794,-0.3822413
/award/award_category/winners./award/award_honor/ceremony,0.7412603,-0.13419172,-0.0586071,-0.3082182,-0.77225596,0.32304874,-0.24032022,0.14143106,-1.2563173,-1.3091677,-0.16521217,-0.079599254,1.0595026,-1.4101732,-4.893891,-0.36941323,-0.4783952,0.2058979,0.13441426,-0.37633526,-0.5917356,-0.32568973,0.42081305,-0.1538633,0.18975507,-0.299804,-0.058221847,-0.2628612,0.055109233,0.87142223,0.110111535,-0.39332023
/film/film/release_date_s./film/film_regional_release_date/film_release_distribution_medium,-0.014352681,-0.9967164,1.2634461,-1.5068232,-0.663079,-0.0051098615,-1.5819004,-0.22590919,-1.6911021,-0.47541696,0.44664323,0.0585011,0.21091256,0.02686409,-5.2120976,-0.6523078,-0.7419364,-2.1753721,-0.045357637,3.8719,3.9473736,0.00500225,3.9415672,7.2685537,0.15897487,-2.6597607,9.20378,0.6782649,0.26326412,-0.3458511,-4.742428,3.6982546
/award/award_winning_work/awards_won./award/award_honor/award_winner,1.10805,-0.74619764,-4.3519335,0.19489756,0.7803661,-1.2921835,-0.39086995,-1.1089643,-1.3870062,-1.460071,0.0635239,-1.1277388,-1.1175447,-1.0920246,-3.0692618,0.8593449,-0.19919024,0.2741066,0.014102878,0.6297068,0.2054651,-0.12240737,0.3825172,0.28135052,-0.09021334,-0.3695006,0.961649,-0.29162124,-0.32005513,-0.16034432,-0.13227542,-0.32558128
/film/film/release_date_s./film/film_regional_release_date/film_release_region,0.041901108,-0.19464102,-0.48932645,-0.4214097,0.33439043,-0.15463571,-2.5539386,0.25463018,-0.16127957,-0.19162081,0.22345905,-0.15912278,-0.08542002,0.2117671,-3.114369,-0.16082463,-0.34714592,-0.69722825,-0.030239375,-2.7428012,-1.7512329,-0.0318926,0.10376191,-0.46727562,-0.10995454,-0.5427079,-0.81384856,-0.029557226,-0.67780364,-0.36679998,-0.20562236,-0.33401498
/film/film/language,0.011672809,-0.19609046,-1.2569693,0.44176084,-0.6033345,-0.7433781,0.8801814,-0.26402077,1.232231,-0.44356737,0.759839,0.20375362,0.215596,-0.13763905,-3.3271544,-0.5556444,0.70645,0.70842063,-0.37036,3.6915736,2.0845747,0.28980795,-1.9444715,-2.6631484,0.4739294,-0.38153306,2.9777732,0.2551388,-0.16028139,-0.76881725,-0.040042344,1.4109244
/location/location/contains,1.1588905,0.782104,-1.0761988,-0.03143446,-0.60839146,1.7653688,0.69998366,0.46927968,-0.60351384,-0.8015711,0.6144882,1.2663717,0.8535325,-0.47054172,-3.598234,0.7583703,0.117022485,-0.0103213955,-1.1480957,0.7178796,1.7802527,0.069360256,0.46506795,-0.42817336,-0.81367874,0.08732643,0.34245595,-0.4594794,0.24856855,-0.011128963,-0.26343516,0.34670657
/organization/organization/headquarters./location/mailing_address/country,-0.1495975,0.46188244,-0.749075,-1.3373518,-2.5007265,3.3598905,-0.11508799,0.43152088,-0.8079551,1.5691231,-0.2910783,2.1271687,0.49729407,-0.48913133,-7.6025195,-0.34395584,0.5839979,-5.740055,-1.2081568,-10.734377,-0.81597096,-0.40669897,-1.7437752,0.709311,2.6229851,-0.23967007,0.32274407,-3.0337925,0.5318197,0.974401,-0.45594466,-0.68453926
/people/person/profession,-0.87050116,0.88095486,-0.51252425,-0.115004405,-0.31584975,-0.45012763,0.66930354,0.5669924,-0.4238289,-2.1408937,0.4285996,0.28298032,-0.63403445,-0.27063107,-3.443705,-0.55894977,-0.2720756,0.5191016,-0.09441361,-4.6185536,-1.0039119,-0.12260035,0.17786588,-0.22593623,0.529189,0.81063634,0.02375505,0.52950263,-0.252204,-1.7099532,-0.18502322,-0.2773954
/location/statistical_region/religions./location/religion_percentage/religion,-0.2847897,-0.11779938,-2.645215,-0.99726385,-1.4285916,0.7782034,0.18126428,1.2415771,-0.69046754,-1.1693978,0.33048022,-1.7106748,-0.49426162,-0.68509376,-3.090145,-0.7609573,-0.8046232,-1.3137155,-0.9032274,-1.9057943,1.4743701,-1.0637343,1.1591742,-0.120895945,0.5889186,-1.4797057,-0.31257978,0.078674585,0.5767625,0.6096897,-2.2424023,-1.5400311
/award/award_nominee/award_nominations./award/award_nomination/award,-1.0346802,-0.9505255,-0.61163896,-0.36474565,-0.7571932,-0.72944415,0.58378506,0.72988427,0.7272887,0.8682486,-0.6748466,0.36847422,-0.9354826,-0.33076465,-4.2356606,-1.0284829,-0.018668197,-0.018208195,0.043054506,-1.539442,0.68180484,-0.39077458,0.4614799,-0.24582379,0.22559941,-0.0006901759,-0.1019723,0.13249128,0.049690127,-0.62340975,-0.11962539,-0.005515534
/music/genre/artists,-1.2280313,-0.7349846,-2.0434268,-0.50647366,-0.39411244,1.0958608,-0.5552894,-0.8674176,0.03196425,-1.1440368,0.15992568,-0.081230514,-1.1662091,-0.7019788,-2.2680926,-0.876794,0.46604982,-0.09560901,-0.20545468,0.771141,-0.05907797,0.008077861,0.21836287,0.112219594,-0.43587613,-0.28285587,-0.96809673,0.090262115,0.36179283,0.25731894,0.3306908,-0.081405655
/influence/influence_node/influenced_by,0.5268048,0.95212454,-2.3511739,-0.21858355,0.02722202,0.47043955,0.29465014,0.56816673,0.42377472,-0.4248169,0.3057676,-0.24744493,0.3862599,0.46571082,-2.5900726,0.59746736,0.48313525,0.046459068,-0.63096225,-1.2436715,1.5875349,-0.25138658,0.23696136,-0.359875,-1.5645276,-0.10568489,0.25116652,0.030916156,-0.44069374,-1.848341,-0.7240306,-0.45129997
/education/educational_institution/students_graduates./education/education/student,0.062808864,-0.85216826,-3.2221596,-0.04316813,-0.43094712,0.95115536,0.15405463,0.24681595,0.09564427,0.67442423,-0.08483954,-0.20368494,-0.5808456,-0.025172055,-1.9547986,-0.60116756,-0.31413278,-0.20092462,-0.36265785,0.32354796,-1.0921552,-0.2610268,0.14720339,-0.41629916,-0.3353332,-0.27020693,-0.25077525,-0.91087615,-0.35058424,0.38481477,0.42157882,-0.61037946
/organization/organization_member/member_of./organization/organization_membership/organization,0.68563646,-1.2299454,-5.2617764,-0.9738292,0.47012883,1.2766216,1.5435559,-0.13541459,0.74864084,-0.56222737,-0.32394573,1.0428295,-1.0608068,-1.5070418,-2.9502387,0.47355694,0.104416095,-0.7422079,1.0336025,-4.3734612,1.981274,0.09849451,0.043095,-3.2399523,1.3521566,-0.45659977,-1.1405683,-0.12930657,0.22968706,1.3414968,-0.53085417,2.7317796
/people/person/place_of_birth,-0.3211817,-0.66555476,-1.0113173,0.52803266,0.74370575,0.9982125,0.7332741,-0.5862096,0.54753524,-1.334333,0.4965915,-0.022077546,0.39370763,0.2576781,-3.1693544,0.66073895,-0.23954278,-0.25722435,0.001372485,-1.570898,0.55746,0.42965528,-0.15047832,-0.25449058,-0.022672905,0.47751316,0.26730865,1.119524,-0.29640755,0.18317454,-0.087025724,-0.6065333
/common/topic/webpage./common/webpage/category,0.35982764,0.06252561,0.69394195,-0.1110976,0.5052605,-0.25534698,0.041718137,0.039570138,0.53534114,-0.05250999,-0.29690084,-1.747382,-0.75984484,-0.0090649435,-7.537322,-0.083198,1.0948614,0.6661035,-0.033170436,-9.794324,3.7467237,0.08658713,-1.0027897,-0.8383943,2.7454143,0.42981586,-0.5625775,-0.24150518,-0.1193149,6.0440845,0.9882241,0.99378073
/film/film/other_crew./film/film_crew_gig/film_crew_role,-0.3255597,-0.2645316,0.5074051,-0.10047636,0.099922314,-0.17097686,-0.021948725,-0.22033973,-0.13843355,0.18158616,0.79685956,-0.17439032,0.40721366,0.20348516,-2.9220135,0.56806016,-0.6518226,-0.0031561672,-0.026453787,0.053338837,-1.6728919,-0.09123378,-0.24510567,0.42788228,-1.0406718,-0.20925833,-3.1406043,-0.12975977,0.31887445,1.1058247,-0.6715711,-1.3763711
/award/award_ceremony/awards_presented./award/award_honor/award_winner,-0.73075324,0.19680128,-0.7211932,-0.12371217,0.37109974,-0.7332067,-0.799595,0.6287352,-0.7865883,-1.1227185,-0.21308975,-0.803727,-0.8634492,0.16447195,-2.6931598,0.94532263,-0.0503844,-0.13192384,-0.2875334,-0.81051445,-0.9179794,0.15596144,-0.21139279,0.17549446,0.1040606,-0.28314897,-0.53015137,0.88619465,-0.07521469,0.050414108,-0.22603513,-0.047754493
/film/film/country,0.102298364,-0.9742414,-0.620355,-1.2391207,0.48031822,-1.3750976,-0.9211414,0.2791245,0.58997303,-0.6942258,0.023148168,-0.36406997,0.28212434,-0.39363086,-3.3404603,0.21883263,-0.51174146,-1.3481457,0.07094321,-3.2124562,-2.2260005,-0.21983385,2.1552846,-1.1619298,1.8280952,-0.416332,-2.9248557,-0.119817145,0.39901212,-0.16033892,-0.034138124,-1.6838958
/olympics/olympic_sport/athletes./olympics/olympic_athlete_affiliation/country,-0.87015903,1.6532292,-1.8403993,1.2299987,-1.9623396,0.0041696928,2.5718558,0.13713436,-0.8023875,-1.7689816,-0.8897079,-0.9034785,-0.109956406,-0.7017533,-3.923552,-0.60883737,-0.59214085,-1.652529,-0.8414764,0.21635748,-0.6562122,-0.3596958,-0.45739368,-2.9597425,1.0915706,-2.032158,-3.24347,-2.914285,0.9285747,2.3922937,-2.58826,-0.2964022
/award/award_winning_work/awards_won./award/award_honor/award,-0.8675242,0.81268936,-0.96224326,-0.84953123,-0.993881,0.71299547,-0.36832753,-0.76853704,-0.9468157,-1.0618643,0.44285217,-0.5210164,0.84350216,0.28884017,-2.9848695,-0.6515888,0.0846335,-0.049206637,0.25640005,-1.0051222,0.7519227,-0.08352793,0.10494593,0.39385676,0.22143534,-0.37737796,-1.0193958,0.02445533,0.19246927,0.2603229,0.12580977,0.034018587
/film/film/genre,0.8686474,-0.6056649,0.22059573,0.0593678,0.5091223,-0.6111779,0.51233435,0.14455785,-0.6722691,-0.5024357,0.047976375,0.20017026,0.7109207,-0.35371047,-2.959376,0.29542956,0.052456256,-0.11472723,-0.23256344,1.1421808,-2.1116548,-0.0687418,-0.44349948,-2.2567642,-0.24570909,-0.9686995,5.352972,-0.06051574,-0.074460246,-0.23085628,-0.08911983,-1.6915592
/film/film_distributor/films_distributed./film/film_film_distributor_relationship/film,0.4442726,0.5746934,-3.4828813,0.19537757,-0.17565574,-0.28952238,-0.5806009,-0.44289732,-0.8759525,-0.90151745,-0.60323644,-0.6995592,-0.3618452,-0.5164755,-2.024623,0.886265,0.12031553,-0.85196567,-0.20800927,-1.9821309,-1.3575318,-0.04716319,-0.20107296,-0.45859772,-0.35862258,1.1670797,-0.7114893,-0.50313216,-0.08560934,0.24295269,0.011932822,0.62000644
/location/statistical_region/rent50_2./measurement_unit/dated_money_value/currency,-0.030788692,-0.83736265,-1.3613584,0.91836387,-2.6292589,-2.825848,0.22582465,-0.20919725,1.3991685,-0.8293932,0.39117554,-0.517454,-0.26800942,0.19943811,-6.4643145,0.08615938,-1.4681733,-1.2251661,0.62160313,7.0123725,-4.1676445,-0.97800297,0.99831146,2.7001715,-0.4045812,0.6738477,-1.1533862,4.4287233,0.31305182,3.908175,-1.7850263,0.17886177
/film/film/estimated_budget./measurement_unit/dated_money_value/currency,0.25443125,0.0463544,-2.7523925,1.3605679,2.0353673,1.204982,-0.37955508,-0.23493676,2.1776643,0.15916267,0.16070087,0.18595023,-0.1794442,-0.15656962,-4.4043846,0.66054505,-0.18860477,-1.1528524,-0.48460972,5.4469614,-6.4358997,0.15903245,1.7565473,3.6426928,2.4214404,-0.36976442,-0.12511611,0.059382915,0.39319736,-3.1616817,-0.9207201,-1.1023484
/government/legislative_session/members./government/government_position_held/district_represented,0.32998428,0.55697465,-1.3733917,-0.7740325,-1.5138018,-1.7206403,0.47869882,-0.9353848,-1.5062375,-1.0254914,-0.7813593,0.19092079,0.9445904,0.26002228,-3.6042562,0.011142695,-1.0977814,3.1966646,0.4858495,4.0302525,-0.6644947,-0.115632184,0.81918967,2.4062552,-0.17132235,0.6454827,-0.23448029,4.604351,0.05751162,0.1347712,0.09879516,-0.16945562
/sports/sports_team/roster./american_football/football_historical_roster_position/position_s,-2.2168593,-2.2613013,-2.9504738,-2.5625088,-1.5168599,-1.2257574,-1.3660219,-0.9947872,-0.63029534,0.17645597,-0.56189644,-0.3508625,1.0778207,1.3120592,-5.0056715,-2.5526683,-1.0987875,-2.1579869,1.7583715,0.50363195,-4.3375854,-2.7972233,-0.8952982,0.8096839,-1.1819491,0.034741905,4.078899,-2.1125498,1.5477175,-0.21769716,-0.0657946,0.34380123
/government/government_office_category/officeholders./government/government_position_held/jurisdiction_of_office,0.48620003,0.48731485,-1.5131718,1.1318555,-0.80903876,-0.34567326,1.1147884,0.0609894,-1.2354673,-0.996596,-1.5298555,0.6516273,-0.34129965,-0.18708406,-4.1595607,1.0174662,-0.95333976,1.6675849,0.15385221,1.5731785,-1.5472839,-0.17651954,0.5630206,-1.5565592,0.023244059,4.3801603,0.37711924,-0.6168446,-0.90902525,-0.20345317,1.4289298,-1.2771287
/award/award_nominee/award_nominations./award/award_nomination/nominated_for,1.110896,-0.55849695,-4.5012684,0.1468301,0.34712347,-1.2217964,-0.2615814,-0.9744799,-1.3318348,-1.720799,-0.24906623,-1.0600553,-0.9890861,-0.9358444,-2.6937983,1.0824687,0.1947064,0.21023126,0.2623223,0.37446165,-2.031496,-0.17184101,-0.5075568,0.030690825,-0.057408538,0.9549824,-0.46119294,-0.03894395,-0.086106114,0.3243702,-0.07553796,0.25468004
/people/deceased_person/place_of_death,0.4220917,-0.7057051,-0.9089323,0.6555656,0.936975,0.84174466,0.32470143,-0.36975506,-0.57643634,-1.3785994,0.3644367,-0.6951357,0.50070626,0.5525509,-3.3058164,0.66837686,0.0071377503,0.6692497,-0.18581171,-2.4391518,-0.35233182,0.6848176,0.63663286,-0.50988555,-0.72344756,1.0142919,-0.2285865,0.8823174,-0.34037763,1.22291,-0.10478165,0.38466412
/sports/pro_athlete/teams./sports/sports_team_roster/team,-0.8729106,0.7094661,-2.733954,-0.62374735,-0.6049869,1.065877,-0.5342619,0.7484762,-0.7537733,-1.0679115,0.95079327,-0.44597042,-0.91280955,0.8491749,-2.5836134,-1.0838788,-2.231625,-1.7706892,-0.7843447,-0.4633032,-0.5868751,-0.3758813,0.28492656,-0.039823104,0.11477842,-1.0677058,0.1911614,0.06879561,-1.2580274,-0.08519092,1.3009788,-0.89165443
/music/artist/track_contributions./music/track_contribution/role,-0.37047386,-0.3262427,-1.3635643,-0.89433694,-0.7592738,-0.34959632,-1.8150538,0.39660183,-0.32064447,0.2142297,-0.15465608,0.35918733,-0.28592178,-0.22644608,-3.2254822,0.61562854,0.39572635,-0.17160605,-0.24687624,-2.3782642,-2.0619066,-0.36733034,-0.8063571,0.9832967,-0.9500996,1.8156612,0.23125432,0.43891016,1.966114,0.023768848,-0.39023218,0.4624342
/music/instrument/instrumentalists,-1.4115541,-1.2584536,-2.136889,-0.57575196,-0.28757256,-0.1907352,-1.0521688,0.59887767,-0.79282933,-0.21624205,-0.30427858,0.57339984,-0.11880128,0.079143345,-2.566196,1.2563605,-0.006131754,-0.7077528,-0.15650529,-1.3696327,0.9133417,-0.12201768,0.8800509,0.5019296,1.3485457,0.023585914,-0.20550373,-0.55928296,-2.1881015,-0.70255995,0.114250295,0.937241
/people/person/gender,-0.07252069,-3.3273275,0.58548045,-0.66029817,-1.0045228,0.25878447,0.13272314,0.13209568,-0.042583052,-2.5673544,0.31684953,-0.21826947,0.1758006,0.19169919,-8.136423,-0.25889423,0.24966575,0.92571133,0.42065957,5.99525,-4.3207483,0.2079081,-0.07916807,1.5241352,-0.6319774,4.524005,-0.12530303,1.0055816,0.60588616,0.42193884,0.29766268,-0.6999915
/business/job_title/people_with_this_title./business/employment_tenure/company,-0.09299147,0.9855926,-2.4645095,-0.36946848,-1.0486766,0.10913397,0.31711224,-0.6563275,0.1066007,-0.8186857,-0.5074867,-0.7014934,-0.6286368,-0.71486294,-2.1811433,-0.4254098,-0.5511241,1.7665446,-0.038990386,0.7208402,0.3280756,-1.2119042,1.1707041,-0.17292802,0.00049028255,-0.7391819,1.4400964,-0.12156276,0.6483294,0.2773208,-0.5393428,-1.8921797
/base/popstra/celebrity/friendship./base/popstra/friendship/participant,0.65889883,0.24257678,-2.8003807,0.4052765,0.36165863,0.9473015,0.54784834,1.1599082,0.17565294,0.13196349,0.7211343,-0.051098026,0.3983289,0.4345294,-2.9180427,0.8359351,-0.21133849,-0.33554924,-0.0068635955,0.7977882,-2.3881216,0.054822586,0.0886161,-0.23969126,-0.70449114,-0.2289108,-0.19847777,-0.17306277,-0.3613986,-0.3141386,-0.42760977,0.5291302
/business/business_operation/industry,0.503107,1.1475861,-1.7498873,-0.48922342,-0.88417906,-0.47710407,0.9240917,0.15683419,0.8162046,-0.95756924,0.39519003,-0.9797522,-0.91873336,0.3036143,-2.8995686,-0.65729636,0.07770735,-0.09227082,0.08253902,1.9130617,-0.37011856,-0.13170967,-0.036470532,-1.2661014,0.52424407,-0.019765848,1.4937056,0.8952951,1.9070814,-0.7845351,0.26501414,3.4969008
/award/award_category/winners./award/award_honor/award_winner,-0.8475345,-0.9650534,-0.8961346,-0.7780785,-0.674965,-0.85715723,0.6820238,0.7604042,0.8045313,0.52122086,-0.5863417,0.87287706,-0.9560387,-0.4477285,-3.4701686,-0.8564279,0.12889504,0.077905804,-0.29650486,1.176622,-0.46514422,-0.08477596,0.024771892,0.023761306,-0.22033568,0.8646835,0.15085568,0.17027546,0.04987452,-0.07439643,-0.39021215,-0.34601822
/people/person/nationality,-0.17718802,0.8278777,-0.7605012,-0.44326413,-0.2590875,1.7231711,0.36534432,-0.36275747,-0.11887063,0.7547352,0.26152956,-0.2969155,-0.13235758,0.09426971,-4.3014016,0.79223996,-0.2438143,1.564099,-0.250744,-6.3113785,-4.6062675,0.027951287,0.05011305,-0.43589264,-0.28531563,-0.30326185,-0.016577568,1.1141417,-0.50610703,-0.5472709,0.033034083,-0.22164619
/sports/sports_team/roster./baseball/baseball_roster_position/position,-1.6906593,-2.4507453,-6.6563716,-1.2897295,-3.26378,1.4375881,1.8514776,-2.0107038,-2.3665166,-1.1667441,-3.3918731,-1.520621,-1.7610683,-0.17293963,-6.158392,-2.7622993,-2.046739,-1.0230972,1.3118026,-0.3574762,1.1337259,0.7925962,0.7788796,0.113938294,1.8810908,-4.013494,-0.22094084,6.32121,-5.4450755,3.7093382,3.2521255,0.4406373
/people/cause_of_death/people,0.2203931,0.66814846,-3.0950463,1.166861,1.5764308,0.6639389,-0.6589686,1.0583565,0.38321847,-0.8094793,-0.6086472,-0.33726302,-1.5775166,0.44752118,-3.0392454,-0.28039998,1.0081422,1.0323856,0.053400878,2.0614467,-0.04049965,0.42273,-0.49863988,-0.4071329,0.55368215,1.0934883,0.43772158,1.5506995,-0.056551613,-1.3488476,0.4836537,-0.15719758
/tv/tv_program/languages,0.29165125,0.03762893,-1.3430082,0.4997027,-0.47804886,-0.4182467,-0.49181038,0.26752794,-0.96382034,-1.1507127,-0.66702163,0.13060112,0.040603254,0.35291618,-4.083587,-1.0908278,0.8529011,1.3079956,-1.0450387,4.7657113,-2.5676107,-0.7798734,-0.17515941,-3.814746,2.1401796,-1.5594131,-0.4768586,0.5669923,-0.08069035,-0.26933286,0.009850669,2.3672369
/music/genre/parent_genre,0.645077,0.26712555,-1.0048176,-0.45994782,0.56140256,0.49072585,0.6624291,0.6145716,0.96967906,-0.70591277,0.05139353,-0.8452405,0.07604613,0.611569,-2.7882886,0.9040684,0.08670672,1.9251055,-0.27221093,-0.4933635,2.2819095,0.57873935,-0.50828564,0.55701363,-1.7031097,-0.0017104275,0.28296232,0.43531096,-0.3901036,0.34660858,0.21916996,0.8846272
/base/popstra/celebrity/breakup./base/popstra/breakup/participant,1.0639865,-1.4230179,-3.9648821,0.3339095,0.5202551,1.0869561,1.1957617,0.9027336,-0.7744848,-0.33252493,1.649585,-0.0370705,0.6909445,0.8646386,-3.9574509,1.2126331,-0.39957473,0.3060137,-0.81582385,-0.20345603,-1.6773564,0.76784205,-0.3728238,-0.06250902,-0.25639746,0.027431455,0.47902325,-0.028773623,-1.8844745,-0.70956486,0.22147779,-1.216977
/location/country/capital,1.0162437,0.23629028,-1.4404765,0.5161506,-0.12858842,0.5381216,0.65525943,0.9720266,-0.76419896,-1.9958683,0.8703946,0.5654497,-0.27866602,-0.68307966,-3.7022815,1.162622,-0.8178413,0.070472695,1.4679829,3.5227005,1.2762672,1.2107801,0.391089,1.1784221,1.5813226,-0.2963589,-0.6379999,0.41603485,2.7993984,-0.16046008,-0.61891973,2.1351497
/film/special_film_performance_type/film_performance_type./film/performance/film,1.2528977,1.727024,-6.486863,2.2189357,-1.717394,0.62843704,1.0440127,0.11311623,-0.7711449,1.9714594,0.4815753,-2.1535873,0.26205382,-2.7344449,-4.7075877,1.1214021,-0.3463334,-1.9983996,1.4834418,-3.1107001,0.14179468,-0.430551,-3.881169,-0.25650916,-2.393765,-1.9259908,4.4851623,0.18022904,0.20903103,4.619517,-0.36723605,3.4638827
/location/hud_county_place/place,1.2898029,1.1976159,-1.343026,0.3919959,0.8395195,1.7548769,1.1456232,1.3260612,1.1825966,1.6293457,1.3562884,1.1421933,1.3986006,1.4391727,-5.6543517,1.2258537,-0.21169981,-0.14440686,-0.33124405,0.83200806,0.038797367,0.5621649,-0.02188527,0.56621987,-0.2605548,2.086069,0.3081093,0.25780222,-0.44221696,0.10183156,-0.14587896,0.2029646
/music/performance_role/guest_performances./music/recording_contribution/performance_role,0.781687,0.3487059,-1.8402641,1.8406913,-0.34562454,-1.29242,0.963842,1.0288963,1.6671374,0.054849003,-1.1898015,-0.60686606,0.47893116,-0.89320517,-5.194198,0.7044713,-0.37406707,-0.2806418,0.97752726,1.1622304,-0.20831329,0.17334084,0.96580863,0.5560471,1.7072933,-1.0603309,-0.78827536,-1.2007184,0.46283254,0.139292,-0.7602981,-0.6971134
/location/location/adjoin_s./location/adjoining_relationship/adjoins,1.0270245,0.5932907,-1.5472592,0.701012,0.79786587,1.2837136,1.1148616,0.7320952,0.5181638,-0.85993314,-0.6192181,0.96707046,0.81136227,0.9539497,-3.6862502,1.0495713,0.14769854,0.11431093,0.41145232,-2.0715759,0.3153875,0.23777083,0.35113755,-0.52180535,-0.021220557,-1.0461265,-0.41568232,0.034528486,-0.32146415,-0.20261155,0.21354604,-0.33135584
/film/film_subject/films,-0.56925046,1.0703268,-3.4837108,-0.3067021,-0.6730238,-0.37602556,1.2856187,-0.26895192,0.80481535,-1.0654132,-0.32473266,-0.0053504333,0.76511425,-0.4599785,-2.0372071,0.54272836,0.4742616,0.23596202,0.09666848,0.21667452,-0.53027225,0.1670917,-0.17022595,0.81061625,0.51039094,0.77170986,-1.2985213,-0.8265212,-0.05079233,-0.006521376,0.0021055236,-0.19572218
/base/schemastaging/person_extra/net_worth./measurement_unit/dated_money_value/currency,0.16350834,0.35043725,-1.5698403,0.31638214,-0.05686655,-1.8451762,0.31237143,0.47955686,0.32497907,0.52959424,-0.17707704,0.106661856,-0.10988974,0.49200407,-4.8962984,0.389747,2.3842604,0.6529956,-0.1735071,7.770192,-11.84781,-0.9638268,-0.15511812,-2.491312,1.6025444,-0.23024471,0.5619868,-2.1176908,-0.17578389,-1.385824,-0.14899091,-0.12552951
/education/educational_institution/colors,0.12242683,-0.6984285,-1.8282752,-0.6992398,-1.1250042,0.26066345,-0.53099203,-0.09420839,0.9197013,-1.5735768,-0.13715304,1.3143497,0.14584327,0.60480416,-2.918575,-0.7022308,-0.06871731,1.2507633,-0.06218762,1.0280244,-0.012348882,-0.16646986,0.5159818,-0.02099605,2.0598829,-0.32607344,-2.9563575,-0.68014205,-0.23180035,1.5223819,-1.1749167,0.6201151
/base/aareas/schema/administrative_area/administrative_parent,1.1943326,0.20879942,-1.6971142,0.14566046,0.798344,1.4526335,1.0938892,0.65658647,-1.4881474,-0.7545619,0.45840406,0.95693386,0.8767321,-1.4584461,-4.497938,0.63106805,0.23095061,-0.74911654,0.1788536,-5.8102245,-3.6873732,-0.30089355,0.71825933,-1.1508925,-0.67878973,-1.7114015,-0.5105245,-3.0811486,-1.0956796,0.034172352,-0.6868315,-1.1728404
/organization/role/leaders./organization/leadership/organization,-1.2006186,0.07893647,-4.112682,0.20338732,-1.791109,0.46985564,-1.1584723,-0.65412676,1.2925463,-2.2204874,-1.3696431,-2.6567698,0.30882835,0.12321122,-4.1864834,0.32728517,0.72235984,1.3114015,-0.8441192,1.0901856,4.322334,2.8519018,4.9562216,-0.94514453,-0.020030487,-1.3615199,2.1948755,-0.7373442,-0.5501339,-0.8779345,1.0374974,-0.1667394
/government/legislative_session/members./government/government_position_held/legislative_sessions,0.12903695,-0.017749425,-1.5357089,0.27363464,1.1252078,1.3659698,1.0553421,1.4930414,0.18665914,-0.900085,1.2452376,0.5414591,-0.19707446,-1.0825617,-4.0172772,-1.0900656,0.22474831,2.8193843,1.1255987,1.181225,0.33495128,-0.36534104,0.86038196,0.20374338,-0.42388082,-0.93679196,-0.025184546,-0.06983104,-1.6357772,-0.5049999,-0.4685306,0.18596287
/olympics/olympic_games/sports,0.43297312,0.9863566,-3.8800755,-1.5340873,0.66517794,-1.6410552,1.9067796,0.06976968,0.40971786,-0.53670263,-0.65716624,-1.6077982,-0.18335299,0.4284759,-2.8967733,0.23196721,0.4589904,-0.79914606,-1.793228,1.3297902,0.9672559,1.0865163,-0.0808016,-0.4576325,-1.2350336,-0.5554654,3.1612108,-2.1537173,0.12694336,2.411207,0.18740655,-2.0487676
/people/person/places_lived./people/place_lived/location,-0.20457703,-0.67015374,-0.9220151,0.39444607,0.70742804,1.1200017,0.3563825,-0.63307756,0.12512806,-1.16679,0.30520645,-0.12385739,0.3394618,0.2143949,-2.9408607,0.615645,0.030118152,-0.6145944,-0.14079243,-3.0964975,-0.17258595,0.4323041,-0.07440656,0.021066787,-0.5857561,0.2148419,0.2198185,0.9389588,-0.35129708,0.39398876,0.080897324,-0.44546703
/award/award_category/disciplines_or_subjects,-0.32947057,-0.16941532,-0.46382993,-0.39117718,0.74153006,-0.48159802,-0.21132764,-1.1561133,0.42410386,-0.67940176,-0.4615619,0.16294698,0.9100957,0.33843774,-3.6846752,0.6719837,-1.656103,-0.17235391,-0.45499864,-1.2387106,-0.76564753,-0.0946256,1.225031,-0.523982,-1.066591,-2.682298,1.4529798,1.0608916,0.7379676,-0.43769947,0.047107328,-0.5679778
/sports/professional_sports_team/draft_picks./sports/sports_league_draft_pick/school,0.42704463,0.22275351,-3.3403702,1.144031,-0.74940705,-0.5021081,0.28268853,-0.3063421,0.2564721,-0.7610512,-1.2817864,0.29607806,-0.20896846,0.92296386,-1.8386854,0.3979639,1.2889359,-0.602852,-1.7726591,1.9774858,-0.5483067,1.1268315,0.42925292,0.19427696,-0.18672633,0.03175621,-1.5682254,1.0856096,-0.021408444,0.07784094,-1.2027665,-0.32365063
/olympics/olympic_participating_country/medals_won./olympics/olympic_medal_honor/olympics,-0.8946253,0.46482292,-0.37406185,-2.093782,1.3314272,0.33779877,1.0989109,-0.8653316,-0.55770856,-1.700024,-1.131511,-0.017959757,-0.79719645,-3.0064437,-6.0188694,-0.4294702,-1.2716368,0.7399835,0.27258003,0.8652294,-1.5724623,-0.8797635,1.7045738,-0.079115085,1.8975543,-1.065681,0.06505554,-3.5244174,1.3222088,-0.81626433,-2.3633132,-1.607324
/language/human_language/countries_spoken_in,0.41149482,0.70838726,-0.30946866,-0.32952777,-0.9253613,0.34896576,-0.8637561,-0.40169096,-0.2730862,-0.41192818,-0.12318863,0.6984026,0.24801882,1.187146,-4.449748,-0.8197591,0.15549053,-0.5630253,0.21844228,3.2251863,-1.3382719,-0.9837915,0.3351938,0.013622772,1.3246576,-0.27906495,1.5913243,1.140166,0.5591899,-1.2705125,-1.0669601,-0.13901317
/people/ethnicity/people,0.7498439,-1.0196708,-2.5423348,0.20030332,-0.16103598,0.86781645,0.48542282,0.07395157,0.43788812,-1.1193445,-0.30654877,0.07114051,0.14751068,-0.2832121,-2.006836,-0.32438657,-0.24575536,-0.46171194,-0.23448162,-0.114927605,0.59943545,0.48707414,0.44195572,0.3679859,0.18472421,0.25431338,0.49661556,0.94637144,0.23049185,0.65780807,0.6215098,-1.196102
/olympics/olympic_participating_country/athletes./olympics/olympic_athlete_affiliation/olympics,-0.83780515,0.74914354,-0.89533085,-1.2652438,-1.5453062,-0.24333583,1.9170094,-0.22206917,0.07619138,-0.11313499,-0.52180904,0.29640272,0.09069549,-1.8957608,-6.2467036,0.7194613,-0.3174701,-0.7275711,-0.01607172,1.5451428,-0.9663006,0.14690356,0.59743583,-2.5371935,0.67518765,-1.4382625,0.46596763,-1.190013,0.4239527,0.22721002,-0.41418046,-1.2658142
/olympics/olympic_participating_country/medals_won./olympics/olympic_medal_honor/medal,-0.76482785,0.45171916,-5.398402,-1.8240255,0.65231544,0.19171453,-1.4072833,0.090417534,0.30965653,0.6072495,0.2916047,0.25459892,-0.5793729,-2.6443794,-4.2127643,-0.022471024,-0.5477904,0.43695924,-1.274765,-2.3977594,-0.34788716,0.14325002,-1.065123,2.7139611,2.709499,-0.7319098,-2.971765,5.2836413,1.1841751,1.9232594,-0.2050086,-0.07069242
/film/film/other_crew./film/film_crew_gig/crewmember,0.44255581,-0.48916546,-3.3562124,0.20919785,0.5251865,-0.505836,-0.46998352,-0.36573407,-1.591968,-0.5568067,-0.029669903,-0.69248486,-0.2728063,-0.66059726,-2.9736943,0.85699797,-0.9567328,-0.9659133,0.10860476,2.9843163,-3.4222019,-0.464843,0.89663166,3.4585788,0.36126375,-1.1470946,-2.2689476,-0.5414994,0.45314828,1.2149161,-0.63526106,2.0944006
/music/performance_role/track_performances./music/track_contribution/role,0.1972532,-0.4929396,-0.64373124,0.8194105,0.5857878,-0.91791,1.8387077,0.10254407,0.4922435,0.19476433,0.15314163,-0.3486654,0.65608484,0.3791633,-3.8575895,0.27263215,0.20330654,1.1011716,0.0019182924,1.4513514,-0.24829723,0.23949178,0.47001147,0.5453597,2.1920352,1.2615336,0.6644049,0.47218874,-0.86065614,0.70344955,0.12583119,0.09858027
/music/record_label/artist,-0.8904666,-0.30479553,-2.265006,-0.22477733,-0.23632316,0.8550459,0.4160591,-0.7271205,-0.28667983,-0.57532287,-0.458848,0.17533232,0.956495,0.20904839,-2.215952,0.54293287,-0.25585082,-0.09890543,0.12794584,-0.48399985,-2.3920941,-0.0071865027,-0.39383534,0.014225411,0.58862424,-0.14067495,0.37849322,-0.46794915,-0.79493827,0.32554045,-0.007161492,-0.5228664
/base/popstra/celebrity/dated./base/popstra/dated/participant,0.8287025,-1.4466153,-3.095758,-0.31940517,0.63574415,0.79649454,0.43573686,0.7990366,-0.32043397,0.31273732,1.0583819,0.15754625,0.6731134,0.61342937,-3.2186866,0.82154644,0.17052583,-0.49375704,-0.03348557,-0.7709218,-1.4120432,0.047511555,-0.03945426,-0.005083404,-0.3740032,0.07999925,-0.28804442,-0.61071503,-0.045067064,-0.27910745,-0.068956986,0.069220625
/base/locations/continents/countries_within,3.319589,1.4113469,-2.195768,1.5616275,-0.9041974,1.8457246,2.202258,0.8363943,-0.7342702,-3.957643,1.6995322,0.68636215,1.7750189,-1.0813366,-9.1640835,1.2193606,0.5040211,0.13602309,1.2522795,-0.28343925,4.1933846,-2.446803,-0.068530716,-3.030985,2.6047666,0.18606846,0.623426,4.94584,1.2600619,2.5586789,1.77695,-3.3415172
/sports/sports_league_draft/picks./sports/sports_league_draft_pick/school,0.50744563,0.002429754,-3.964864,-1.4196403,-0.2692872,1.299019,0.6188785,0.58659995,-0.8074221,-0.038794022,-1.1699748,0.5741327,-0.95830023,-1.0505525,-2.1678865,0.81277794,1.4041023,-0.57261777,-0.29063708,-2.46771,0.5072205,-0.15369315,-1.5970154,-0.51934695,1.9737128,-0.43007255,-3.154426,-0.8263184,0.545574,-0.7429023,0.6541361,0.25454226
/sports/sports_team/sport,0.7106962,-0.69365305,-4.735157,2.3434694,0.054083567,-0.7007319,-1.1841654,-1.5861375,-1.0103552,-1.1403958,-2.3080935,-1.3172481,-0.23245367,-0.38354605,-3.919653,2.0947464,-0.32585272,1.679794,1.173836,3.6648066,-0.6233384,0.02089309,0.8283858,1.4522761,-0.1578969,0.51586425,1.4513962,1.02303,0.3831661,-0.37369832,0.4469194,0.73516816
/education/educational_institution_campus/educational_institution,1.4457843,1.7006911,-5.185935,1.1940157,1.3733538,1.5617187,1.5913343,1.5178332,1.1982949,0.88229907,1.0373025,1.5815597,1.4563797,1.3987238,-4.964289,1.6908422,-0.16209398,-0.41821286,-0.07958677,-0.21326636,-0.27583566,0.53385854,-0.33228767,-0.58360964,-0.4289777,0.13383563,-0.481097,-0.10543374,-0.20377329,-0.50883627,0.098227315,-0.38212234
/people/person/religion,-0.41194817,0.8528261,-3.627367,-1.2692592,0.08314986,0.7577757,0.25987604,-0.34320816,0.2828477,-0.37347227,-0.603474,0.0014988085,-0.10499217,-0.43573073,-2.384121,-0.41096455,-0.38669518,1.3243781,-0.4618497,0.27414194,2.9147635,-0.963237,0.41320533,-0.14743553,0.28113833,0.9350215,1.0404987,-0.1517315,0.9406999,-0.08656634,0.054407418,-1.898862
/organization/organization/headquarters./location/mailing_address/citytown,0.9424924,0.9362698,-1.5334352,-0.04690927,-0.26219293,1.1888776,0.97937626,-0.06293671,-0.039203748,-1.8966522,0.41310984,1.1377267,0.7348007,-0.15374388,-3.1048493,0.45248803,0.123298325,-0.3888655,0.4771505,-2.9153562,-1.7385978,-0.32725927,-0.3109265,0.31612757,0.9365061,0.7347325,0.45245996,-0.67499846,-0.2261933,0.29987717,0.25312397,-0.82954866
/film/film/produced_by,0.91545326,-0.87301105,-4.473107,-0.03130215,0.24558072,-1.052146,-0.8564139,-1.1184849,-0.87460643,-0.99608004,0.8889349,-0.9122962,-0.75565195,-1.1578559,-2.8894494,0.49998775,0.022420138,-0.87721336,0.082360424,-2.7183216,0.046878237,-0.18367615,0.8288943,0.08246197,-0.13109608,-0.7275372,1.658574,-0.022827797,-0.33413005,0.7739691,0.113804944,1.2365222
/people/person/spouse_s./people/marriage/type_of_union,-0.12475393,-0.3440482,-4.66549,-0.0053998064,0.952234,0.11460764,0.017090749,0.48751026,-0.11473668,-2.0555756,-0.22616108,0.14281128,-0.06521142,-0.038833555,-2.9020267,0.20828724,-0.28109765,-0.84586126,-0.22036056,8.037902,5.4250646,0.2327044,-0.44694105,1.3496102,-0.6328128,1.3620683,-2.5646214,-0.9021957,0.5894445,-0.6777383,-0.103330456,-0.16071486
/film/film/production_companies,0.5632059,0.83940446,-3.2163515,0.20058237,-0.7451316,-0.85743445,-0.862651,-0.7532687,-1.4266299,-0.71835893,-0.10026328,-0.9250635,-0.5248636,-0.8415644,-2.8767612,0.28954616,0.010903624,0.8316082,0.3686197,1.8835783,0.983465,-0.43791127,0.74606615,0.6037073,0.09877643,-0.5785767,4.372513,-0.5788572,0.23063393,0.147915,-0.4811248,1.3152483
/location/country/second_level_divisions,3.1803255,-1.3752284,-1.5743136,1.4831847,-2.5245392,3.808408,1.7261171,-0.44723278,3.0804386,-4.008758,0.19369099,0.9361753,0.4659772,-3.0817246,-6.555658,1.7687702,1.0218731,-3.9380794,6.465875,5.1464605,1.4211761,1.0842665,-4.069986,-2.6566722,-6.620123,-0.87503976,-3.035914,8.346181,7.637413,-7.078206,-1.854837,-3.3292468
/base/culturalevent/event/entity_involved,0.89084905,-0.53228194,-2.305515,-0.76050377,-0.7481947,-1.4588487,-0.22812156,0.29905337,-1.1118737,-1.1359491,0.9713547,-0.6353822,-0.27176452,-0.9325774,-2.7671459,0.2046303,1.1970115,-2.8583887,-0.8666735,-0.45889437,-0.23369497,-0.5026492,1.0988128,1.3337965,-0.5097709,-0.48702657,-0.2569136,-1.9171107,-1.1002233,0.82074827,-0.3950665,-1.2107092
/education/educational_degree/people_with_this_degree./education/education/institution,0.4968352,0.12858616,-3.860573,-1.267587,0.68678427,-1.4679302,0.75942266,-0.5101461,0.5858326,0.07285332,0.62371784,1.8710381,-0.27089858,-0.61646175,-2.8302562,-0.12951356,1.0223885,1.5519464,0.06328509,-2.1528568,-0.82984513,0.011562062,0.780567,-0.2866304,-1.7551826,0.81710154,-1.2198193,-0.0688728,0.25226098,2.5451844,-1.0892361,0.63024306
/film/film/distributors./film/film_film_distributor_relationship/film_distribution_medium,-0.33884063,-0.25857687,0.58082676,-0.96326834,0.28683555,-0.32303643,-0.94975716,-0.11207072,-0.38824105,-0.98142177,0.6047987,0.14249738,0.021647144,-0.1456644,-3.6807473,0.34073994,0.643438,-0.46037155,0.15831678,-3.7614748,-0.9158258,0.002911084,1.6156265,5.344549,0.25026003,-0.5966792,7.376291,-1.0010062,0.79294884,3.578884,-0.38971043,3.6289856
/tv/tv_program/tv_producer./tv/tv_producer_term/producer_type,-1.6888118,-0.5439535,-2.4111202,1.4125099,-0.9101014,-1.8559734,0.51395166,-0.73117465,1.2883073,-0.5381292,-0.1116479,0.17993945,-0.46397227,-0.055605546,-5.237308,0.095174775,-1.1782194,1.1651348,-1.3823098,8.026896,1.4391347,-0.34700406,0.22637114,3.9347076,-2.7469015,-1.2202035,-5.83288,-0.032934368,2.0885336,0.2805296,0.06270178,-0.5730324
/music/performance_role/regular_performances./music/group_membership/group,-2.3853285,0.044675563,-1.9183952,-0.17905338,0.13843514,0.3667032,1.313832,0.6384087,-0.37572625,-0.76363593,0.06834485,-0.96840477,-0.15444365,1.012449,-3.499137,0.7659136,-1.0690011,1.4306812,-1.9445044,5.1625104,0.0007894091,1.0646344,-0.1948558,0.30209547,-1.6044964,-0.21328579,0.62846,1.3666122,-4.120597,0.05691126,-1.3725612,-0.07016545
/government/politician/government_positions_held./government/government_position_held/legislative_sessions,-1.4725177,0.41493806,-3.184947,-0.84771836,-0.9758737,-3.4154866,1.3233675,1.8255782,1.4709315,-1.6237956,-2.1513596,-0.429189,-1.3930054,-0.45015603,-5.0908012,0.48935705,0.6455852,-1.2448919,2.3134694,-1.2055365,1.7007403,2.1492085,2.252023,0.587951,-0.835508,-3.3394141,-1.0960138,4.2689085,-0.5465385,0.54937106,-2.7258315,-3.4698138
/sports/sports_team_location/teams,-0.52263206,0.24146575,-2.4770002,0.2238508,-0.65620816,0.23222397,1.3879805,-0.47115588,0.54654896,-0.5940928,1.0339385,0.0078906035,0.73559654,0.42405462,-2.8145154,-0.07068963,-0.7816727,-0.91410834,-0.26736084,-6.076748,-1.6184895,-0.78712237,0.5521965,-2.836057,-0.6236182,0.3072207,0.35277936,-1.7234242,-0.15726048,0.11284859,-1.4269109,1.3346696
/sports/sports_team/colors,0.2552432,-0.53728896,-1.4519662,-0.93648905,0.4106811,-0.4844874,0.13714018,-0.13526051,-0.06623512,-0.5461341,-1.7395852,-0.14135854,0.28842542,0.27188814,-2.5528922,0.05262638,0.5895081,1.7264584,-0.18328108,-0.8716865,1.2952647,-0.09500386,0.36242503,0.05270711,1.5670847,0.11265224,1.4442005,0.37005156,0.1513118,1.7228291,-0.11522729,1.0212067
/sports/professional_sports_team/draft_picks./sports/sports_league_draft_pick/draft,0.5879345,0.02621917,-1.948451,-1.385598,0.6346049,-0.36970034,0.35567144,-1.1112924,-0.91930807,-0.25117314,1.544076,-0.13045444,0.19268574,-1.3722942,-3.958722,1.3370677,1.0339653,-2.194998,-0.88179106,-0.13884264,-0.092417076,2.88137,-2.6040862,0.52444065,-1.1175869,0.21914323,-0.12887943,0.9091747,-1.0748544,0.5267418,-0.3928014,1.0505382
/award/award_nominated_work/award_nominations./award/award_nomination/nominated_for,0.69086456,1.0517216,-7.257478,-0.80903226,0.5095225,0.9464712,0.91905826,0.57329786,1.1540275,0.79089993,0.4397299,1.1995822,0.835098,0.9467572,-2.731594,0.6448142,-0.34954014,0.018978871,-0.04223471,-0.20557873,-2.1147554,-0.43347412,-0.32992595,0.45303613,0.8893937,-0.8311939,-0.81584316,0.47684413,-0.70634013,0.059332035,0.9666296,-0.72214806
/baseball/baseball_team/team_stats./baseball/baseball_team_stats/season,0.8661683,0.12815148,-0.8177633,0.6734229,-0.6848577,0.3656562,0.041426647,0.42187527,-1.3267592,-0.5836254,-1.8543518,-1.0880721,-1.5247191,-1.3362758,-4.1709785,-1.1490933,1.3651115,-0.1855361,-0.10815073,0.044434983,-0.8141432,1.8301979,0.122918054,0.14492373,-1.5645107,0.29264718,0.80372065,-2.979791,-0.9187301,-0.93446374,1.2013028,-0.0061309156
/user/alexander/philosophy/philosopher/interests,0.07227141,-1.0183853,-1.291674,-0.4659837,-0.7792786,0.1662549,0.7131799,0.41603273,-0.21569861,-0.8161922,-0.17398895,-0.14725938,0.10636563,0.04376443,-3.1270714,0.88076407,0.21784893,1.2781729,-1.4497992,-2.1760404,-0.080563724,-1.0722076,0.7404395,3.5108013,2.9280667,0.7823527,1.4703708,-0.6366036,-3.1351979,-4.629496,0.03705662,0.7343917
/people/person/languages,0.11621591,0.30248025,-0.5507374,-0.6701078,0.428515,0.49101555,0.05337268,-0.030546343,-0.32464564,0.6141917,-0.49894705,-0.4595637,0.15339513,0.11102782,-4.3264775,-0.531441,-0.26796052,0.19728227,-0.38425156,6.126117,3.6930885,-1.0152123,-1.2057936,3.0788505,2.194045,1.4405173,-0.34087107,-0.8767758,0.05214232,-0.6441003,-0.9511093,-1.2100401
/education/educational_institution/students_graduates./education/education/major_field_of_study,-0.17771734,0.4554079,-1.8131336,-0.7090322,0.45181212,-0.51369375,0.5203898,-0.49949065,0.2659707,-0.30155614,-0.26781183,-1.7425622,0.5732601,-0.8722627,-2.9777138,0.41048774,0.19410035,0.0284531,0.21490653,1.2788879,0.2963371,0.12120851,-0.23415771,0.17049713,-0.54076934,-0.5276588,-2.3400543,0.03968588,0.88251513,-1.8095876,0.44785407,0.34967285
/film/director/film,1.2159796,-1.3996916,-5.755342,-0.26481846,0.18806101,-1.572622,-1.0661308,-1.227098,-0.98925424,-1.6272041,0.53738725,-1.3081747,-1.1613824,-1.2245028,-3.5595999,1.1538523,0.8602072,-0.5066618,-1.9462749,1.0587734,-3.9696717,-0.15503067,-1.0595474,-0.2279927,2.5864215,2.45862,-1.5198126,0.19328596,0.69159335,-0.78776747,0.8454021,-0.9564263
/award/award_ceremony/awards_presented./award/award_honor/honored_for,-0.2831063,0.09104294,-1.7701421,0.29518,0.2701447,0.41402507,0.06182639,-0.2916353,0.60710144,1.1358998,-0.068064414,0.017571237,0.39765307,0.09779576,-2.2889483,0.4344956,-0.13563398,0.6633155,1.303097,-1.112149,-1.523104,0.2713005,1.2821637,0.11977238,0.116844185,-1.1283596,1.5267336,0.14488012,0.5100789,0.49089712,-0.069619276,0.25161588
/olympics/olympic_sport/athletes./olympics/olympic_athlete_affiliation/olympics,0.41746196,0.7559588,-1.2707262,-1.3154118,0.80027527,-0.1769771,2.5387459,-0.5961555,-0.44009155,-1.2928848,0.0849882,-1.5238025,1.4829102,0.41643354,-4.2008667,-0.14580622,0.5827473,-0.7018281,0.084916964,-0.66903186,1.0191575,-1.7487079,-0.96607816,1.0731021,-1.3443965,-0.24717917,-1.4014482,1.2283412,-1.507981,-3.7463052,1.7327212,0.35598367
/film/film/costume_design_by,0.7776561,-0.8094182,-4.2383637,-0.09905196,-0.32430443,-0.7739043,-0.9091548,-0.5086692,-1.3235471,-0.4257304,-0.17084047,-0.6427581,-0.5166761,0.056082208,-3.1411097,0.41580537,0.6500585,3.0562634,0.08067544,0.3506547,0.65271884,0.34971544,3.0462177,0.30956537,-0.7229433,0.13229892,-4.446271,-0.5041896,1.6561781,-0.6531531,-0.15666583,-2.26079
/film/film/featured_film_locations,0.04355768,0.8724402,-1.7558204,-0.1709121,0.7376504,-0.8863647,-0.25131348,0.35787725,-0.1282194,0.8297152,-0.6073854,0.04317469,-0.20109113,0.17217225,-2.4109287,-0.31666726,-0.11355007,0.5546463,0.2653762,-4.1528387,1.7629615,-0.1277825,1.1741364,-0.39305228,0.10758238,0.581463,1.2012513,-0.4904965,-0.053777676,-0.20449299,0.13320585,-0.20210479
/tv/tv_program/genre,0.7350547,-0.67682564,-0.0022298088,0.26235712,-0.79007083,0.49292287,-0.50319743,0.8891545,0.3179843,-0.37657377,0.5128815,-0.2943574,0.50259787,-0.51304823,-3.0479693,0.37722763,1.1146115,-1.2604095,0.07741635,3.7764084,0.46416488,-0.055698067,0.4489612,0.003447933,-0.22983985,-0.7787782,-2.427134,-0.37325114,0.23459038,-0.30137166,0.43283966,-0.9285376
/organization/endowed_organization/endowment./measurement_unit/dated_money_value/currency,-0.404844,-0.54386854,-1.7874198,-1.142446,-2.079725,-3.0806065,0.410617,-0.81365806,-1.1756998,-0.84377027,-0.84308326,-2.3011072,-0.014290547,-0.86886847,-5.8080587,-0.18729143,-0.8712353,1.5566282,-0.93736225,2.8364732,0.25705752,-0.7214361,0.48952696,-1.2591816,3.1195762,-1.7293396,1.020889,1.9407552,0.10741628,-5.5049553,-1.4700143,-1.701138
/film/film/written_by,1.1229544,-1.4358724,-4.6605153,-0.05279437,0.2953874,-1.0390446,-0.72090393,-0.7951422,-1.1691198,-1.3483363,0.69734484,-0.99617666,-0.8917443,-0.7215128,-3.1750658,0.59006727,-0.10153355,-1.0912267,0.2670415,-3.304465,-1.3748748,-0.3824556,0.25176919,-0.6676523,-0.3218101,-0.42255574,5.045449,0.13534014,-0.062893905,-0.049633846,0.002728502,1.9735936
/tv/tv_producer/programs_produced./tv/tv_producer_term/producer_type,-1.6288857,0.3493872,-0.9363028,1.0742841,0.8528283,0.87212914,0.9022862,-0.04895506,-0.53164667,-0.09778027,0.4882838,0.20881927,0.5554777,-0.018503768,-6.149316,-0.13041395,-3.5047455,-0.7343575,-0.5296723,10.374762,0.046022594,1.7922872,-0.7844609,-4.3168335,2.5158098,-1.0382369,3.7484648,0.36249635,1.0478202,0.20465581,0.17601225,0.5473414
/location/hud_county_place/county,1.2002469,0.90322614,-1.6764575,-0.15892464,0.13370852,1.9814047,1.1189965,0.8706763,-0.27754915,-0.792187,-0.4292196,1.1017768,1.0692774,-1.3545619,-4.344608,1.027945,-0.102059506,-0.53292966,-0.2343165,-1.0844,1.6459559,0.211988,-0.057613593,-0.35156643,1.7503375,0.07037638,-1.3124714,0.66372305,-0.2632462,0.14298536,0.12257502,-0.20120005
/education/educational_degree/people_with_this_degree./education/education/major_field_of_study,-0.20916834,0.023223732,-0.3995337,0.8794162,0.7156075,0.06980702,0.86734635,1.905408,0.35800037,-0.7085769,-0.03617578,-1.7885948,-0.63981533,0.76591325,-4.5746775,-0.2465529,-0.87270886,1.6432865,0.72354174,-0.3835022,0.052812044,0.75164104,0.9945877,-0.950845,0.5219086,-0.19536485,-3.2806299,0.3134999,-2.7012365,-3.2167618,2.0395396,2.432636
/base/schemastaging/organization_extra/phone_number./base/schemastaging/phone_sandbox/contact_category,-0.30162564,-1.8096886,-1.1606872,-0.98964655,-0.20602272,0.9588625,-1.2904954,0.64637923,-0.5202458,-1.3222829,0.34189513,1.6781931,-0.72991276,0.6294424,-4.433565,-0.17053604,-0.924909,2.7161496,-0.2898486,0.29741803,-1.0023032,2.0791395,2.059742,1.4649702,-0.38956043,0.1600083,-1.962835,-0.80064595,1.346311,-3.530233,-0.48285866,-1.2956222
/base/saturdaynightlive/snl_cast_member/seasons./base/saturdaynightlive/snl_season_tenure/cast_members,3.9162085,-0.5820229,-7.0058365,-2.3919876,5.4794145,1.5320854,1.3879395,0.81827956,2.349219,-2.6298895,0.2844418,1.7794142,1.3917129,-1.0398397,-7.685975,1.0160723,3.4015927,-2.1270788,0.83901733,3.4982128,4.586544,-0.32282278,2.2348285,-0.20875844,-0.46472213,-0.8910049,-2.185201,1.9961425,-0.7716015,-2.1264021,-3.60202,-0.01256094
/film/film/film_format,-0.19947132,-0.06242523,1.320599,1.6307914,-0.22458903,0.022665817,-0.85774094,-0.1539926,0.55653757,0.08529027,-1.3726617,0.56625205,-0.005663023,-0.5684536,-3.6563418,-0.29945177,-0.37533715,1.010879,-0.13043593,0.13232848,-2.9908235,0.08788574,-1.5901793,6.3892975,-0.26964346,0.04964657,-0.7996529,0.2721898,0.13211098,0.44514647,-0.74305844,0.94682235
/film/film/music,0.90337276,-0.6642005,-3.923392,-0.113175586,0.52576154,-0.915039,0.15695912,-0.45663887,-1.0665896,-0.7078718,0.920375,-0.6517632,-0.30430794,-0.61641836,-2.7361119,0.850766,-0.13153511,-0.8985799,-0.060588263,2.4061058,-0.27076164,-0.698762,2.2775915,0.9193672,-0.10882751,-0.32664424,2.149639,0.15849438,1.3913378,-0.5369509,-0.22904642,-1.9039752
/sports/sports_team/roster./american_football/football_roster_position/position,0.09100081,-0.68656415,-3.0134947,-1.8245875,-0.123506874,0.07285039,0.22253138,-0.7858025,0.57452774,-0.6439684,-0.87544054,-0.9349666,0.03640043,0.13322806,-3.6054142,-2.3321717,-0.6342745,0.6437842,-0.4186453,-0.040973756,-5.923031,-1.0156028,-0.17435233,-0.5695472,0.1042043,-0.21942821,0.62423956,0.20287517,0.81176734,0.50916195,-0.57310444,-1.097748
/user/tsegaran/random/taxonomy_subject/entry./user/tsegaran/random/taxonomy_entry/taxonomy,-0.09271976,0.29598218,-9.522809,0.011647616,-0.0848124,0.1428648,0.19776675,-0.3490999,-0.5868644,0.6593875,0.21569075,0.53106934,0.068296015,0.9058825,-2.5077066,-0.17725609,-0.30251318,2.364091,-1.4290817,3.5097988,0.76246476,0.17118481,1.4676348,-1.4713696,-0.92604035,2.4737043,-0.4712562,2.5764368,-0.8334557,-1.1259886,-0.039266467,-1.5408194
/celebrities/celebrity/celebrity_friends./celebrities/friendship/friend,0.8635176,0.5578459,-3.1115663,0.397293,0.17840667,0.7881178,0.5012795,0.8684322,-0.13873494,-0.27463955,0.90460485,-0.37369928,0.5266501,0.29622984,-3.2127388,1.3236071,0.24574031,1.1188159,-0.53885734,1.3011587,-2.5709393,-0.7604523,0.62327206,-0.09402018,-0.6506833,0.064980775,-0.6509739,-0.34726328,-1.3251781,-0.08098126,0.0121510755,0.36638132
/location/hud_foreclosure_area/estimated_number_of_mortgages./measurement_unit/dated_integer/source,0.009431274,-0.3697793,-10.077947,-0.16988783,0.80764663,-4.5132327,-0.4145386,-0.24220252,-0.20195559,-0.99665815,-0.20079325,0.14227691,-0.027769761,0.24940509,-4.983748,-0.8111132,-0.58525455,-1.5282638,1.9400396,-5.015977,2.7232993,0.5059978,-0.6597505,2.9715652,0.6794996,-1.9796075,-0.8909469,-2.090642,0.4721846,-0.63411087,-0.5399328,3.454948
/base/x2010fifaworldcupsouthafrica/world_cup_squad/current_world_cup_squad./base/x2010fifaworldcupsouthafrica/current_world_cup_squad/current_club,0.70723355,0.6710774,-4.562421,1.5841402,0.547288,-0.7703084,0.348404,0.6434426,-0.65811884,-0.5792379,0.08902703,0.8449237,-1.068922,0.6496723,-2.1177092,1.6303086,1.7807461,2.4198,0.4209612,-0.23789325,0.7332465,-0.040101532,-0.58228844,-1.1964386,1.005322,-2.172768,0.5071497,1.053952,-0.22031163,-1.2368813,0.03647131,0.24411544
/base/popstra/location/vacationers./base/popstra/vacation_choice/vacationer,-0.37722668,-0.05147437,-1.4258412,0.21677731,0.20852487,0.083454914,-0.39009914,-1.0389223,0.44101384,-0.2771083,0.25321296,-0.115024775,0.122777976,0.66571444,-2.6807368,0.34311008,1.9792227,1.6012106,-0.11420976,1.2338765,-1.3391055,0.16027597,0.6333844,0.4944571,-0.06003515,-1.5102633,-1.4859455,1.0618249,-0.51888126,-2.054227,0.9723879,0.6086248
/base/popstra/celebrity/canoodled./base/popstra/canoodled/participant,1.0662317,-1.4333225,-3.2671955,-0.18121742,0.4827557,0.71309006,0.49984407,0.7133313,-0.16611113,0.5202261,1.140282,-0.017560346,0.56732476,0.53590786,-3.250085,1.0643404,-0.45103246,-0.21565968,-0.9662706,-0.10252666,-0.08266573,0.18125701,0.07367263,0.076546595,-0.15445429,-0.2269786,-0.18828177,0.048799776,-0.1920794,0.109588295,-0.20184511,0.29308823
/education/educational_institution/school_type,0.6503226,0.36426482,0.4024311,0.008927515,-0.6772398,-0.63039726,0.5678269,1.3726622,-0.060507257,-1.1613915,-0.7940795,1.9437988,0.074790284,0.3224918,-4.283987,-0.4824115,-0.6205056,1.2881242,0.16159226,-2.0343008,0.1675981,0.37201777,0.6166523,0.48738882,3.0441406,-0.27395958,0.5583387,-0.52226055,-0.04579887,4.3771324,-0.81746966,0.49174836
/sports/sport/pro_athletes./sports/pro_sports_played/athlete,-0.61455333,-1.5460576,-2.6685958,-0.55792505,0.8856428,0.5427192,1.1132973,-0.40457276,0.36744452,-0.41510066,-0.68470365,0.82967037,-1.7106136,-1.5687232,-4.298251,-2.0309203,0.034743242,0.33424973,-1.4343235,0.5259111,-2.2337863,-4.0668163,-0.50517696,-1.424161,0.7083789,-0.30134895,-3.9838023,1.5558052,0.98362243,1.1229095,-2.5489407,-0.84530944
/award/hall_of_fame/inductees./award/hall_of_fame_induction/inductee,1.6156057,-1.4370687,-3.7647014,-0.8386778,-0.9254569,0.9563709,0.8172557,2.3999329,-1.4047117,-1.7854544,2.052606,-0.7161162,-0.49322805,-1.8671846,-5.0509305,0.041256245,1.1561589,0.9898264,-1.2130963,-3.7953985,-1.5035995,-0.24852616,-1.7531683,0.53081256,4.5588803,-0.1413515,2.3146276,1.8913423,0.3093967,1.8097597,-2.1658297,-1.4648317
/base/biblioness/bibs_location/state,1.8607115,0.90022475,-1.9680082,0.08730744,-0.2664769,1.5738565,0.91054475,0.59881985,-0.630787,-0.5596588,0.5614776,1.3245507,1.2954317,-0.46143696,-4.434407,0.62522894,-0.108676136,0.305071,-0.24228682,-5.359211,-3.941927,0.47499347,0.9658543,0.14998893,-4.3986845,-0.5392927,0.6079617,-1.2290503,0.36633852,-0.55956763,0.4819292,-2.2322824
/education/university/local_tuition./measurement_unit/dated_money_value/currency,0.33097708,-0.73339385,-2.4121714,-1.5007205,-2.467249,-2.9488976,0.3843323,-1.81263,-1.2486567,-0.7355739,-1.2015684,-2.308111,-0.595008,-1.0448557,-6.23384,-0.6929838,0.07516814,2.576497,0.0524239,2.2694967,-0.25509942,1.0733882,0.027383383,-1.626067,2.6268268,-0.830422,2.082543,3.2318058,0.27208933,-5.417655,-2.9105375,-1.2082766
/business/business_operation/revenue./measurement_unit/dated_money_value/currency,-0.6073579,-0.36226034,-3.165561,1.0941186,-3.555709,-2.570264,0.702944,-0.6564042,-2.0466154,0.08665493,0.13641317,-1.0775752,0.15441725,2.3760545,-7.517116,-0.580018,-0.49127045,1.6745483,0.04808906,4.774018,1.1208963,-1.9428624,-1.1150122,-3.1187468,4.85435,-2.71469,-0.63540196,6.116005,-0.49123633,-4.3784285,-1.2521017,-4.1402645
/sports/sports_position/players./sports/sports_team_roster/team,-1.3465405,-0.059623398,-2.87088,-2.2504184,-0.6057585,-0.64008456,1.0320545,-1.3125354,-0.891403,-1.547419,-0.78993803,-0.61359376,0.73169076,0.89356965,-3.1085973,-2.4249008,1.198131,1.9943702,0.27128452,0.3528959,-0.6575136,0.26317015,-1.3053026,0.5667862,0.82456726,-0.52356464,-0.22064465,-0.30070594,0.41216666,1.3385704,0.077412106,1.5791868
/military/military_conflict/combatants./military/military_combatant_group/combatants,1.0942132,-0.92817056,-1.4341751,-1.2945287,-0.6998073,-0.6166969,-1.6474655,0.6489484,-0.74914634,-0.8095982,0.760589,-0.86369765,-1.0377948,-0.44671714,-3.2239606,-0.687845,0.3444043,0.51662606,1.3525113,-0.09293094,-0.15398818,0.84823245,0.29567164,1.7253269,0.10310227,0.037659183,0.4724862,-0.5148983,-0.66120905,-0.46556002,0.15925606,-0.59188545
/sports/sports_league/teams./sports/sports_league_participation/team,0.9965198,2.1299589,-7.0666404,-3.8111453,-1.4117284,2.5626872,1.4142025,-1.9468119,1.77739,-4.0705357,-0.5948194,-1.2282343,-2.4066114,1.7954322,-5.5145426,0.77797383,2.3624022,-1.0906851,1.1843107,-0.48478457,1.7403129,0.61042184,2.013983,2.7326913,-0.51264304,-3.7868028,2.1496375,-1.2375116,2.318893,1.2337288,0.30713326,0.534037
/base/biblioness/bibs_location/country,1.0556879,-0.1984627,-0.5440719,-0.28054965,-0.3571901,2.0766428,1.1008326,0.3050711,-0.80644536,-0.52466196,0.46528608,1.1726978,0.07095088,-0.17218967,-5.4008245,0.6939195,0.23465669,-1.080102,0.38742223,-5.000248,-3.2280784,-0.07745419,-0.08257052,0.6370314,1.3226237,-1.0216225,0.02668298,-0.9030948,-0.9376077,-0.4103359,-0.6131356,-0.09403273
/music/group_member/membership./music/group_membership/role,-1.1065654,-0.08995502,-1.2494862,-1.3029187,-0.3294994,-0.697442,-1.0222145,0.17889997,-0.81628597,-0.7917464,0.6280778,0.05673638,-0.49259502,0.45437407,-3.229158,0.47031757,1.615105,0.46289054,0.32925215,-0.063066065,-3.4751,-0.35114825,-2.1411245,0.9679124,-0.5698045,0.0933146,-0.99369836,1.1924208,1.2320089,-0.5463154,-0.21250264,-0.53821784
/location/administrative_division/country,1.0311183,-0.6950826,-0.64620525,0.07579384,-0.0913381,1.6459014,1.4050106,0.31254172,-0.9382398,-0.69727385,0.9628731,1.2988793,0.6498024,-1.187782,-5.3596816,1.0928636,-0.38598615,-0.6596335,0.007006941,-5.068095,-3.8038533,0.30003092,0.04937803,0.3008347,1.7874662,-1.4917569,0.84398675,-0.76604795,-0.09735669,0.6430093,-0.4853578,-2.216635
/film/film/executive_produced_by,0.7745336,-0.8915393,-3.471147,0.3029514,0.2850436,-0.80597436,-0.80656224,-1.1831931,-0.9307793,-0.9046486,0.75560284,-0.77046883,-0.7674303,-0.39307284,-2.7021816,-0.3952667,-0.30666736,-0.5753493,0.31306925,-0.21087131,0.61325145,-0.27785385,1.1885645,-0.077562094,-0.2816556,-0.41838488,0.87286323,-0.6078971,0.090876564,0.5792344,-0.22374192,1.3654146
/food/food/nutrients./food/nutrition_fact/nutrient,0.78864664,-0.9885808,-2.973339,-0.8775934,1.0313845,-1.2258466,0.91755104,-1.2253894,-1.241746,-1.5890292,-0.41935083,-1.5684814,-0.6791163,-1.3194538,-2.8780293,1.0712205,-1.8803732,0.841682,-0.47475585,0.8762448,-1.4069637,-1.4132501,-0.63812745,-0.8725812,-0.31027627,0.31818157,-0.047906965,-3.6776311,0.9621392,-0.09216922,0.2983209,1.4440625
/music/group_member/membership./music/group_membership/group,1.5549471,-0.025647307,-3.9058025,-0.19840659,0.2510514,1.1849025,-0.4612487,1.1077936,0.3074289,0.0025826276,0.4634142,-0.29531035,1.4598103,0.9894472,-3.0861115,1.1641409,-0.20272136,-0.635128,-1.2205245,-5.949927,0.21877773,-0.14435148,-3.513825,-0.3273858,2.2263122,1.4091291,-1.4033976,0.7162492,0.55310875,-0.59281856,-0.16556753,-0.232543
/location/statistical_region/gdp_nominal_per_capita./measurement_unit/dated_money_value/currency,-2.1542468,-0.36736083,-2.5917497,-1.5176897,3.8447,-0.23757856,1.3587644,-0.17448461,-2.026383,-1.3350838,-1.1405128,1.3485883,-1.1612883,4.4054766,-9.471266,-0.993019,-4.3426704,1.1279534,-1.9595091,0.82652444,-3.07187,0.51622015,0.010777293,2.158841,2.4494581,-2.6718338,2.9030492,7.823107,1.3971223,-4.56859,-4.9780455,-3.508531
/education/field_of_study/students_majoring./education/education/student,0.025726415,-0.6334735,-1.755952,-0.17853247,-0.67782587,-0.80649006,-0.16265517,-0.13122424,-0.04268007,-0.04726155,-0.041418128,0.6756692,-0.8020809,-0.18468298,-2.8013132,-0.39460889,-0.5975669,-0.7623151,0.9745847,-1.2966557,0.46559006,0.9174496,-0.34559792,0.66051054,0.0077520735,-2.0048594,1.2262256,0.38515246,0.79710865,1.1438304,-0.9286319,0.9301938
/award/award_winning_work/awards_won./award/award_honor/honored_for,0.417386,1.2921759,-6.6127377,0.5859574,0.820267,1.7265332,0.86961764,0.8818038,1.1683265,1.1476065,0.7006623,1.5152624,0.68826604,0.75114346,-3.041523,0.5097978,0.710603,-0.2546659,0.98014814,-2.7024498,-2.6573012,1.0738357,-1.4207624,1.0712758,-1.442941,-0.29668137,0.27998975,0.009044165,-0.09704586,0.71911794,0.32064337,-1.7357793
/sports/sports_team/roster./basketball/basketball_roster_position/position,0.7155623,0.30560982,-5.341075,-1.2221073,-2.4423664,-1.5375608,1.4247715,-0.9239278,-0.52397287,-0.57495844,-3.149941,-0.15800922,1.1817144,0.61895573,-5.0712743,-1.1988552,-1.9022256,-3.4167042,2.0230443,-3.8501775,-0.38929966,-0.7997921,0.07297744,-1.8182184,3.0373921,0.23748185,4.2151804,-3.8861756,-3.7246761,-1.6117145,1.9870311,-0.39345092
/organization/organization/headquarters./location/mailing_address/state_province_region,1.3208535,0.9822277,-2.496026,-0.29899144,-0.9377568,1.381256,0.75414425,-0.1589044,-0.2826766,-0.4166533,0.6526357,0.97921604,0.94396704,-0.30002445,-3.449986,0.5130463,-0.48361337,0.9278279,-0.21450318,-3.7812557,-0.8297481,0.14457157,0.7235084,-0.29053482,-3.5872548,0.084894404,-0.37158427,-0.62818605,-0.12770204,0.32767516,0.06590018,-0.33680594
/base/aareas/schema/administrative_area/capital,0.96970767,1.0958374,-1.400414,0.11805637,0.32037842,1.1671636,1.1997335,0.71126163,-0.4535991,-1.5582175,-0.62937295,1.3128918,1.1076431,-1.0089271,-4.3495717,1.1016698,0.24116714,-0.67104787,-0.1674595,2.3178241,3.1524184,-0.34864467,-0.94951355,1.0313883,0.9824752,-0.5959286,-0.19232489,-0.36723965,0.53529614,-0.12653229,0.37866044,0.69832283
/tv/tv_producer/programs_produced./tv/tv_producer_term/program,0.9933381,-0.86085296,-5.193566,0.2047156,0.42258894,-1.5493913,1.1438044,-1.135033,-0.86376923,-1.3964642,-0.6243535,-0.77962714,-0.8831293,-0.9429411,-3.343052,0.4063231,0.19786724,0.26849106,-0.7052293,1.3215424,0.42301762,0.59127945,-0.471178,0.18818256,0.4822213,0.77164805,0.60265607,-0.43238708,0.24149387,0.13494317,0.009215166,1.5186177
/education/educational_institution/campuses,1.6296737,1.4715565,-5.3133574,1.1111476,1.2841811,1.3606595,1.3221439,1.647391,1.3314939,1.0257943,1.3270884,1.8220029,1.5380784,1.4832313,-5.135828,1.754045,0.6814303,-0.44692102,-0.87745786,-0.74584883,-0.11745067,0.79966825,-0.3336961,-0.13619569,-0.22351809,0.58720857,-0.80385756,-0.37838903,-0.50719446,-0.4150203,0.19706582,-0.5978312
/film/film/distributors./film/film_film_distributor_relationship/region,-0.57828057,-0.82004845,-2.5832362,-0.7492879,-0.042639058,0.41574413,-0.67687434,-0.16374531,0.5488269,-1.2630571,-1.2012606,0.2756346,0.07708931,-0.076126195,-4.254158,1.4663931,3.4220922,0.26097202,0.18738197,-4.7875175,0.51811856,1.4451027,1.0361946,0.7546376,1.516768,-0.25594008,-5.461654,-2.2898679,1.8262284,-3.720449,-0.604328,-0.10902295
/travel/travel_destination/climate./travel/travel_destination_monthly_climate/month,-0.23516253,-0.85717225,-2.314619,-1.6796438,-0.92761725,-0.13598411,-1.3673694,-0.088183634,-0.041530248,-1.5558697,-0.34680885,-0.36896822,0.051027592,-0.880657,-3.3409424,0.115474924,-0.40626448,4.8960123,-0.6101294,3.470204,-4.441652,-0.29774556,0.7469607,4.4151964,0.44008628,0.9149629,-8.518799,0.09377977,0.03743696,-3.6014109,-0.8849598,-0.46794018
/medicine/disease/notable_people_with_this_condition,-0.1685781,-1.2754052,-3.1063848,-0.8776908,-0.27707034,-1.1122562,0.539067,0.9058047,-0.4587215,-2.4056842,-0.4108368,0.93271065,-0.76792526,-0.260526,-3.0205264,1.084134,0.31646615,0.014186384,1.681217,0.499214,-0.41858295,-0.35444406,-0.8940128,-0.8246475,1.943603,-0.12859662,2.722364,0.3772668,-1.16699,0.31910637,-0.5478718,1.5446566
/base/schemastaging/organization_extra/phone_number./base/schemastaging/phone_sandbox/service_location,0.6545497,-1.168593,-2.5129545,-0.6496373,-0.7619546,1.477069,1.3885216,0.18401504,-0.45891988,-0.57797533,-0.35691002,1.0591927,0.24509895,0.12701453,-2.959189,1.085963,-0.44031146,-1.5428127,-0.57161796,-3.7137806,0.11136524,-0.22314869,-0.90159273,-1.9692601,-0.046628565,1.2949191,-0.65574706,0.36099562,-0.75712216,1.8747066,-0.34994128,-0.24303788
/people/ethnicity/geographic_distribution,0.06746233,0.28306693,-0.8546623,0.36878386,-0.17698278,0.7175759,-1.1820157,-0.6771013,-0.1400821,-0.41844872,-0.22611186,0.63122696,0.79057634,-0.81745666,-3.287535,-0.7994486,-0.5318627,0.98753726,1.0324785,-3.1846387,1.5330725,-1.3856422,0.7500677,-1.3985418,-0.44520047,-0.74578255,0.5965377,-3.2655587,-1.3481451,0.8622549,0.32286215,0.6307054
/military/military_combatant/military_conflicts./military/military_combatant_group/combatants,1.2727449,-0.36296988,-1.7146848,1.4439065,0.062118128,-0.074066386,1.568426,0.7736496,-0.1866364,-0.6736028,0.8613215,0.25996906,1.4185721,1.375262,-4.1384983,-0.25467345,0.04465625,0.57763314,0.5832979,0.05330955,0.6538666,0.6154681,0.7133078,0.27726254,0.2296054,-0.6639101,1.1601862,0.0015853052,1.9061023,1.0523866,0.9000134,-0.74032384
/film/film/personal_appearances./film/personal_film_appearance/person,0.6988487,-0.7225561,-4.245112,0.38386148,0.020519525,-0.698275,0.25717965,-0.6041801,-0.11764548,-0.8065737,-0.12933154,-0.3778488,-0.048983917,-0.21716328,-2.6854131,-0.62499803,1.0310215,0.07278348,0.36162585,0.103058964,0.2620992,0.83037895,-1.2594926,0.22921444,-1.1570814,-0.09744307,-0.2318171,-0.0069684214,-0.69087476,0.100246005,0.54238576,-0.7379623
/location/location/time_zones,-1.5302832,-0.4799979,-6.941143,-0.61946565,-0.15783133,1.976592,1.2775278,-0.4455021,-0.0835617,-0.3160067,0.05083465,-1.079391,1.1425039,0.18748006,-2.9588392,0.9446741,0.6167154,0.26340595,1.3694049,1.4187214,-1.655822,0.25004828,-0.34400755,1.1644083,1.3323642,-0.3270073,-2.1752532,0.983114,-0.76976883,-0.1860277,-0.35149154,1.4858234
/film/film/story_by,0.79604,-1.2021191,-4.4207397,0.069317296,-0.15172976,-1.1670591,-0.3597985,-0.4896896,-0.28183097,-0.86265194,0.2952902,-0.944223,-0.5603182,-0.45351908,-2.8048244,0.42827734,0.654425,-0.3106539,-0.37347293,-2.2701852,-0.14513697,0.28899476,-0.85994047,-0.64192015,-0.004852382,-0.25841776,2.196946,-0.56606317,-0.1473822,0.86238074,0.19226018,2.0341222
/base/petbreeds/city_with_dogs/top_breeds./base/petbreeds/dog_city_relationship/dog_breed,0.2077474,0.55826485,-6.6276827,0.064808875,-1.0402433,0.8864962,0.30276427,-1.1617211,0.35723588,-1.2996358,-1.254178,-1.0712672,-0.182244,0.6501391,-2.627474,-0.60772,0.8573679,-0.7761643,0.073873736,-6.6822777,-5.076015,0.6087566,-0.66781324,-1.3622671,1.1913089,-2.3100061,-0.81211764,0.0051068855,0.21768506,-4.535789,-0.38974416,3.9007285
/olympics/olympic_games/participating_countries,-0.14379907,-0.049137574,-1.747481,-0.93286705,-1.2673744,0.08371165,1.7515159,0.09310862,0.032890875,-0.7436461,0.12522936,-0.13210599,0.35906833,-1.087059,-4.8517427,-0.2569519,-0.024913825,-1.9094659,2.5848727,1.657275,-0.26970893,0.42125568,-0.12613532,0.07844662,0.3164695,0.9579244,-0.54563797,-1.0831159,-0.7941036,0.026232583,-0.0071943197,0.15606315
/tv/tv_network/programs./tv/tv_network_duration/program,0.18318835,0.6666434,-3.9711192,-0.54113436,0.686178,-1.0053815,0.7933785,-0.68449944,-0.1981725,-1.3168256,-1.2794542,0.06752619,0.11526608,-1.2321403,-2.1536434,0.27545825,1.4540025,-0.63866323,-0.23486933,2.1682549,2.4958682,0.14796871,-1.657496,-1.2301755,-2.6978085,0.3638753,1.5214087,0.32839942,-1.1612672,-0.6251804,-1.3062372,0.07773101
/people/person/employment_history./business/employment_tenure/company,-0.19468328,-1.0127488,-2.6800473,-0.5442988,-0.22365272,1.1435606,1.0556408,0.74509984,0.46324098,-0.010239065,0.061328,-0.4916273,-0.27128398,0.49555564,-2.6966908,0.6440989,1.731087,-0.8525705,0.3088249,-1.2812026,3.4280903,0.34436288,-1.221613,-0.3396849,-0.6183086,0.44300377,1.6551526,0.59455895,-0.30915195,1.1540062,-0.4226379,-0.38720658
/music/artist/origin,-0.25650525,-0.6445174,-1.1025699,0.5313657,0.8403843,1.1307303,0.47493258,-0.4474688,0.51320124,-1.2092597,0.5129923,0.28554398,0.3922932,0.34421352,-2.9539602,0.73196614,0.04022512,-0.081770726,-0.26815996,-3.3334327,0.06908332,1.5457668,1.0607982,0.17446864,-0.7464201,-0.7433852,0.7305371,-0.2815923,0.33322573,0.01738246,0.7316461,0.10784543
/people/marriage_union_type/unions_of_this_type./people/marriage/location_of_ceremony,0.6104977,0.06955872,-0.03376621,-1.5173162,0.54316115,-0.58724695,-2.2317188,-1.4033045,-1.2178297,1.3316834,0.4931808,-2.6058116,-0.07268529,-0.39336008,-3.3844364,-0.13745724,-3.661093,0.7074965,2.9169872,-4.650545,0.2843691,-0.78834134,3.8997211,0.44743356,-1.9380344,4.1387115,-0.24657887,-0.89474803,0.9982655,-1.567855,-0.36332434,1.7670066
/tv/tv_writer/tv_programs./tv/tv_program_writer_relationship/tv_program,1.1374432,-0.5137206,-4.8659277,0.4761109,0.024498262,-1.0957879,0.75167435,-1.0065715,-1.3167238,-1.0355176,-0.58768415,-0.7607391,-1.0489436,-0.93762773,-3.2739246,0.6488395,-0.15917243,0.28166956,-0.5676534,2.6070416,-0.19035934,-0.36383688,-0.41066507,-0.23642023,0.10974803,1.9155815,2.3900235,-0.2381238,0.1798959,0.26309764,0.0379179,0.06883032
/time/event/locations,0.7560733,0.56574625,-1.1062068,-1.2130991,-0.547236,-0.7455011,-0.17521337,-0.64180577,0.6328665,-1.9216843,-0.90572137,-1.4602264,-0.6045499,-0.6049995,-3.2666023,-0.4330494,1.7591139,-0.79398733,-1.1135811,-0.5810649,1.7020835,0.03797402,-0.4879206,0.10310714,1.2553566,-0.29575315,2.7154555,1.4381745,0.40197593,1.3844031,1.0162375,-1.5946844
/celebrities/celebrity/sexual_relationships./celebrities/romantic_relationship/celebrity,0.93878853,-1.5058942,-3.8447688,0.2694963,0.58655643,1.2704921,0.4231236,0.8901784,0.26398998,-0.274166,1.5099642,0.57028794,0.45812556,0.8681109,-3.496252,1.0990888,0.6600775,0.31585723,-1.1619811,-2.6753154,-1.110188,-0.04348161,-0.8300021,0.119289584,-2.1787493,0.7640208,-1.1632959,-0.07980396,-0.6217133,-0.4762678,1.166611,-0.31045958
/government/political_party/politicians_in_this_party./government/political_party_tenure/politician,-1.207265,0.30068836,-3.8676674,-0.34148055,-0.08446345,-1.0996834,-0.1475374,-0.41758367,2.2008247,-0.86089236,0.7847319,-2.4775093,-0.9508825,-2.1118753,-4.1504974,0.8698394,-1.0074502,-1.8579748,1.7288283,-0.13671264,-5.173271,1.3999001,0.6263396,-0.2118589,0.4664637,-0.8317423,0.72563976,-3.3809307,-1.042397,1.9654815,1.9671668,0.9968602
/education/university/domestic_tuition./measurement_unit/dated_money_value/currency,-0.5167945,-0.2725085,-1.742276,-1.0567861,-2.0474787,-2.6952748,0.42714307,-1.4267269,-1.3415478,-0.53573835,-0.56797904,-1.9005448,-0.49974173,-0.5724004,-5.2022443,-0.30621764,-0.13875116,2.6652632,-0.63550425,2.6918635,-0.08401245,1.2711248,-0.31212294,-0.7036642,2.42118,-1.398608,2.1025789,2.3105395,-0.5209914,-4.3149524,-1.7244192,-0.729898
/organization/non_profit_organization/registered_with./organization/non_profit_registration/registering_agency,0.12535766,-0.17148529,-2.7469916,0.9499192,3.8548362,-1.143543,0.1847253,0.4495201,-1.415798,-1.4628632,0.16429982,3.5641086,-0.15628254,0.57192427,-9.023713,0.21373408,1.6973639,-2.0996938,2.0844097,-1.5836519,0.9646615,-1.5334532,-0.2283537,2.3872094,4.04786,0.18250376,-1.0830941,-8.251405,-0.880901,-1.6743996,-0.17815737,-0.31646287
/user/ktrueman/default_domain/international_organization/member_states,2.2255392,0.13559982,-3.3959816,-2.2704678,1.6907129,1.7784806,4.008216,-0.8237088,0.015691213,-0.45419896,0.055542056,0.17827055,-1.0336814,0.6921573,-3.9031794,0.9407452,0.85574865,-1.2172244,0.54420835,1.3119326,1.4279507,-1.4506141,-0.8168722,0.9127354,-2.5804095,1.1742389,-1.6946706,1.2310717,-1.5173517,0.92615485,0.32801032,-1.8345128
/american_football/football_team/current_roster./sports/sports_team_roster/position,0.17711122,0.06877314,-2.8819015,-1.6770902,-0.15213862,-0.12582116,-0.053889267,-0.74351186,-0.031262968,-0.4962647,-0.5207366,-0.88367265,0.3662607,-0.14917694,-3.6507945,-2.3669467,0.7801591,-0.07346467,-0.26278397,-0.037281774,-5.471162,-1.5270051,0.3655935,-0.49539644,1.1120089,-1.0066599,0.81098044,-0.6895562,0.59767264,1.2448951,-0.6692099,-0.27868554
/soccer/football_player/current_team./sports/sports_team_roster/team,-1.1210672,1.0126833,-4.4078083,-1.2643635,-1.3471488,1.5625807,-1.3173593,1.2116431,-1.1973116,-2.1457121,0.24003239,-1.8189951,-0.76671576,0.5607695,-3.3414068,-1.8051023,-1.9722617,-0.56608933,0.1264329,-0.62934744,0.026766881,-1.6056875,-1.9562601,0.66973156,2.1013937,0.7571942,1.4689053,-0.3646865,-0.4849788,1.3256065,-1.1145532,0.16635974
/olympics/olympic_games/medals_awarded./olympics/olympic_medal_honor/medal,2.5317934,0.5744722,-8.24888,2.7420046,0.087891705,-0.3503724,-3.067159,-2.0448039,-0.7494414,-2.2623043,-0.9040993,-0.39782742,1.462772,1.2936615,-7.0228286,1.253393,1.5323687,-4.8910728,3.210567,0.047190543,3.5563219,-1.1992466,-1.7939314,-1.1877228,3.8264618,0.93887675,6.0283604,0.737447,-3.2060359,-7.152131,1.8539863,-0.3060462
/award/ranked_item/appears_in_ranked_lists./award/ranking/list,-0.9762542,-0.3093679,-0.37105924,-0.6463219,0.785808,-0.1000708,0.6972825,-0.08429813,0.70538074,-1.2086465,0.37483263,0.5752535,-0.099685565,-0.24071611,-3.453524,0.23120195,2.3314552,-4.4617767,0.24903007,2.112254,-1.45187,1.6269302,-1.634819,-0.6098472,0.8343782,-0.29692823,5.131374,-0.50820416,-0.57509893,-0.7643375,-0.81454355,-0.610413
/film/film_set_designer/film_sets_designed,0.14702159,-0.6765921,-6.5493503,-1.0753641,0.13714454,-0.32860544,0.44164002,-1.3804986,-1.4523523,-2.0594354,-0.19269979,-2.147802,-0.54279035,-1.7210027,-4.0301275,1.5614479,-0.8003202,0.41358286,0.5926236,3.7651782,-4.2401304,-1.7898929,-1.0205458,-3.254943,-1.3025535,2.7230163,0.15265903,-0.8571371,-4.765637,-0.72291106,0.041714713,0.4853895
/user/jg/default_domain/olympic_games/sports,0.08851753,1.6650518,-4.8952303,-2.0552306,0.28870824,-1.567048,2.1153488,-0.411508,0.22652245,-0.009330421,-0.1988427,-1.6190706,-0.055146374,0.5458757,-3.0812962,0.17168601,0.8566994,-0.98253876,-0.009102037,2.781803,0.6211091,0.26846918,0.41729963,0.25464562,1.2700776,0.2453698,5.4601717,-1.8209678,2.6870608,3.2372375,-0.950892,-2.6040423
/people/person/sibling_s./people/sibling_relationship/sibling,0.7663233,0.7447705,-3.8771281,0.19306383,-0.28702193,1.2438234,0.29831308,0.57501924,0.9850256,0.25681168,1.0017124,0.8926983,0.7197418,-0.41621032,-3.3731916,1.0391055,-0.5368059,0.5438365,0.23290238,-0.9479839,-2.9664073,0.38071442,1.7686398,0.8234988,-0.6895864,0.77217877,1.7422663,-0.3327737,-0.4802127,0.11685121,-0.4855031,0.5679515
/base/marchmadness/ncaa_basketball_tournament/seeds./base/marchmadness/ncaa_tournament_seed/team,1.1256667,-1.0361637,-3.531546,-1.2265252,-0.4213569,1.8324829,0.81837785,2.8523629,-1.7966505,-1.8151132,1.0707413,1.7028202,0.6676088,0.8156712,-4.2031975,-1.0285758,-0.93041897,-2.26285,1.1241106,1.3147937,1.1040343,0.7117615,0.2927095,0.19193749,-1.6409218,-2.9690776,-0.72318906,-0.9302741,2.1149843,-2.6523852,-0.5943389,-1.5705997
/music/artist/contribution./music/recording_contribution/performance_role,-0.3140943,-0.0126038585,-1.4908525,-1.4794621,-0.3429212,0.07923813,-0.82675356,0.43456137,-0.913174,-0.5040534,-0.076531716,0.20747033,-0.53332585,0.0349916,-2.9813302,0.43434685,-0.22457574,1.4027945,-0.19745773,0.4003447,-1.124166,-0.07755582,-2.272099,0.7078514,0.5780477,-0.80434704,-0.019557504,2.2139223,1.6128654,-1.277054,-0.4786413,0.5240476
/sports/sports_position/players./sports/sports_team_roster/position,0.37806898,-0.40323427,-0.97413325,1.7442455,0.69027597,2.10879,0.4461125,0.5724707,1.5110761,-0.56453675,-1.4819152,1.1571397,-2.156814,1.2973192,-7.400025,0.9807812,-1.7711184,0.714367,0.92536753,-1.200503,0.7337315,-0.7409391,0.1796424,-0.69189966,-0.0028313643,0.55302924,-0.8171092,-0.38909382,0.80664825,0.4965676,-2.8038414,1.4016641
/government/politician/government_positions_held./government/government_position_held/basic_title,-0.07054866,-0.15483014,-2.650611,-0.66505826,0.70726234,-1.0749109,0.2611145,0.4110327,-0.35128093,-0.773849,-0.21217541,1.4928757,0.31957433,-0.5450183,-2.983518,0.5328717,1.3050686,1.353469,-1.3171383,-3.3692033,-2.9472473,2.2132688,-1.053893,1.1686388,0.9671959,1.8120127,-1.6841974,-0.15130337,-0.4263602,2.2979906,-0.5406575,-1.7100407
/sports/sports_position/players./american_football/football_historical_roster_position/position_s,-1.8641709,-1.3775581,-3.7225552,1.0160465,-0.40878794,3.2922618,-0.47594005,0.7835742,-0.80744505,-0.84551984,-2.0040753,1.7557614,0.022376228,1.8642426,-7.5961113,0.002993182,-3.3199792,4.66853,2.1118977,5.553069,-0.893717,-1.1752762,-0.8661155,-4.336584,-5.394077,1.8168414,4.008266,1.5369853,0.4576496,-1.0247164,-0.0389991,0.29502267
/people/profession/specialization_of,0.5050752,0.43703136,-0.51743394,-0.5344301,-0.58712393,0.4256876,0.61960083,0.08241367,0.18834765,0.5223707,0.115385376,0.7248493,0.5729349,0.65964305,-3.5188124,-0.5600269,-0.8595043,0.08006923,-1.9254885,-3.5307364,-0.36941797,-0.010622092,0.011367392,0.23283532,0.66686344,2.160475,-1.2450719,1.9905006,0.6008195,1.2697836,1.2834748,2.2771144
/award/award_category/category_of,1.1542549,0.2838062,-4.8355427,1.4668037,1.2904724,1.7403688,0.59137803,0.40881994,-2.744665,0.5964707,-0.20837098,1.2343374,2.2452137,1.2257965,-5.0839343,1.416311,0.9112481,1.2866797,-0.095123515,0.5740151,0.24726868,0.46914446,0.2680112,-0.6674244,-0.11264606,0.84903663,3.468161,0.7905579,-1.7339242,2.1106098,-0.9359688,-1.732581
/film/film/cinematography,0.9215942,-0.9591767,-3.6555398,0.64819777,0.1034396,-0.7206729,-0.035531256,-0.65897256,-1.3474479,-0.84631884,-1.1704658,-1.0416398,-0.4337375,-0.6300612,-3.101447,0.8311054,-0.26915887,-2.0209374,-0.07266587,-1.6181366,0.4948712,-0.40493977,1.7409959,-1.8337499,0.1451092,-0.66236746,0.034678753,0.041979145,1.025771,0.19807088,0.6030695,2.136462
/film/film/film_production_design_by,0.8365587,-1.1063368,-3.701414,0.22096807,0.81284314,-1.2345215,-0.24428023,-0.82859564,-1.511723,-0.58329177,0.1615102,-0.9343063,-0.5063655,-0.46248862,-3.2396147,0.21098252,0.35277826,-0.7701202,-0.31111082,4.7045455,-2.1352718,-0.42433915,-2.9639513,1.2986965,0.29987374,-1.8339696,-3.4998085,0.26804128,1.7403873,-0.24630457,0.5090188,3.1658452
/tv/tv_program/country_of_origin,-0.2963168,-1.4370812,-1.3755537,-1.2732495,-0.26103222,-2.164837,1.3036456,0.26554316,-0.65586007,-1.0756557,0.05788249,0.18938166,0.5267766,-0.24633537,-4.641724,1.3544651,-1.5482658,-1.020561,-0.14703931,-5.209907,1.7436858,0.5325188,0.7284875,-1.3001443,0.46209604,-0.4227334,1.0584475,-1.4535216,-0.34336206,1.1355647,-0.4399667,0.22705896
/film/film/edited_by,0.53454953,-1.1860915,-3.3363907,-0.51767343,0.5695933,-1.066758,-0.9971687,-0.24352904,-1.3015634,-0.5647887,0.385769,-1.1916176,-0.90857047,-0.71054035,-3.2977755,0.5290574,-0.42260206,-0.23083688,0.5898203,2.033127,1.458387,-1.1287678,1.3405894,-0.41565585,-0.07579343,-0.55592084,-1.9300317,0.07787063,0.33397728,1.5480745,0.00499025,2.1635602
/tv/tv_personality/tv_regular_appearances./tv/tv_regular_personal_appearance/program,0.94566715,-0.4367149,-4.568934,-0.2654137,-0.59401757,-1.0487204,0.57967997,-1.1260766,-0.50177354,-1.0518855,0.5313973,-0.98580045,-0.48218307,-0.19184138,-3.1255646,1.194852,0.05364765,0.24910398,-0.65440065,4.0636506,-0.17661007,1.0804881,-1.3695012,1.4088511,2.242607,0.3881532,-0.8946109,0.9606794,0.26904348,-1.7864755,-0.03125231,0.4004499
/education/field_of_study/students_majoring./education/education/major_field_of_study,1.1591632,0.040204734,-0.71334267,0.49311355,0.40878317,0.2836334,0.2446873,-7.480076e-05,-0.07560927,-0.47209606,0.1464691,1.337708,0.5732151,1.0558324,-4.594182,0.76243585,0.17622332,0.7960918,0.39777234,0.6636656,0.58282673,-0.27008045,-0.5131517,0.8594741,0.46307662,-1.7112815,1.9679444,0.0083895,0.72824085,-0.5576101,-0.3871763,-0.69674575
/education/educational_degree/people_with_this_degree./education/education/student,0.17659126,-0.8946687,-1.7119993,-0.17684224,-0.62786245,-0.469851,-0.088412404,0.007663473,0.06925862,0.67927116,0.33901373,-0.43642166,0.44649866,0.014910955,-2.6754804,0.09779917,0.06528361,-0.55836356,2.132808,-1.6814709,-0.28604507,0.7084792,-0.44967833,-0.13419196,1.1770352,1.7566789,-0.72545147,-1.5323629,1.0664209,1.0719182,2.9626303,-0.6724736
/location/us_county/county_seat,1.0678593,1.054825,-1.2373631,-0.032608017,-0.12965132,1.3509918,1.0534153,1.1182029,-0.97910446,-1.3691993,-1.1710643,1.0991373,0.7087488,-1.0143323,-4.4222436,1.3405262,0.71385205,0.7550437,0.10596134,1.2053058,0.45815542,0.94668275,-0.5052426,0.5744819,-1.3478377,-1.3963428,1.3528463,-0.5760624,0.16064583,0.70595235,-0.4886242,1.0034033
/film/film/film_festivals,0.5782052,-0.5138166,-1.8076683,-1.0586082,-0.33223477,0.024939947,0.7211697,0.60038185,-0.03743726,-1.2121216,0.045897022,0.9032149,0.35364532,-0.16979931,-2.7110043,-0.87953275,1.0617911,-0.6128224,-0.526288,2.999228,-1.0056757,-0.28282773,-0.18953404,3.6961167,-1.0191165,-0.4248795,-1.9110078,-0.34847826,0.12646648,-0.038030643,0.2825182,1.880864
/people/person/spouse_s./people/marriage/spouse,0.95034796,-1.1337602,-2.9450862,0.08166386,0.4363219,1.2581289,0.24893491,0.6294768,0.013012028,0.44328362,1.0180267,0.83026826,0.71380913,0.61666703,-3.377513,0.7351972,0.29461864,-0.043025076,-0.23684162,0.14176698,-0.96448225,-0.28390667,-0.85750365,0.019218715,-0.7068468,0.13540755,0.083655976,-0.039418712,-0.26762682,0.11456569,0.011669413,0.035401195
/film/film/runtime./film/film_cut/film_release_region,0.54297346,-0.5126414,-1.6828887,-0.28848088,0.9672345,-0.39446035,-0.9955566,0.37935284,-0.23024614,-0.6503761,-0.58765554,-0.13494663,0.2839944,-0.25830793,-3.5747414,0.43015003,-0.24008131,-3.0932841,0.30921325,-4.182204,-3.5398476,-0.19745049,3.3514948,0.5956244,-2.9219112,1.591844,-0.45540422,0.83879757,1.1755885,0.22542407,-2.2995787,0.64954525
/location/capital_of_administrative_division/capital_of./location/administrative_division_capital_relationship/administrative_division,1.4823601,0.80302495,-1.8947271,0.119673274,-0.043824006,1.8272959,1.2702494,1.1526332,-0.8409532,-1.1329728,-0.9662698,1.2463632,1.3661445,-1.3699332,-4.492782,1.116391,0.43497798,0.358034,-0.6463093,-2.793944,1.1844654,0.070229836,0.04778049,-0.37674478,1.0412314,-0.28808337,-1.1249615,0.7978486,0.21185958,0.2142522,-0.111931324,-0.87020695
/base/aareas/schema/administrative_area/administrative_area_type,0.22119832,-0.29959795,-9.309819,1.9562149,-3.4512515,-0.24121125,-3.809956,1.2520648,-1.7433616,-2.7670865,-0.16566643,0.18255202,0.2628304,-5.3082767,-9.43512,0.8279054,0.45065522,0.35837683,1.3343229,6.8388677,1.1742697,0.6852247,-5.233374,0.40481138,2.3402445,-2.5466313,-1.3475332,-7.9906573,-1.9561262,5.8432803,-0.09195438,-0.9647342
/influence/influence_node/peers./influence/peer_relationship/peers,1.2529801,1.0592712,-3.814343,0.8689949,-0.24375193,0.5959944,0.79562044,0.8904035,0.87542576,-1.2226092,1.1922755,0.78996336,0.73832077,0.028563298,-3.3144782,0.48265323,-0.5471788,0.79476887,0.18217863,-1.2815571,-0.58302814,0.8089162,-0.47969815,-0.320359,0.29308027,-1.4970217,0.15884195,-1.0779443,0.16180386,0.28657368,0.504602,-0.010087488
/government/governmental_body/members./government/government_position_held/legislative_sessions,-2.6519392,-0.89866275,-4.7969785,-1.9095627,-2.9540462,-4.972037,0.6480008,-2.6022365,-0.4678799,-1.550381,-3.0715044,-1.2833905,-1.587093,1.6703817,-7.103052,0.68052053,3.1549022,-0.816716,1.2557935,0.18609722,2.432344,-0.32724226,5.9344306,2.3587253,-0.22082572,0.13920315,2.7483525,-9.269465,0.71676844,0.074389175,-1.1376101,-0.8412515
/base/schemastaging/organization_extra/phone_number./base/schemastaging/phone_sandbox/service_language,0.020347448,-0.21626855,-2.6730118,-0.39210778,0.93078214,1.4028181,-2.0123885,-0.84057933,-0.9230907,0.7535578,1.1055529,-0.62476593,-0.26218396,0.6455244,-3.9105527,-0.27576923,0.38703486,0.20586558,0.2725348,4.4793463,-0.98364085,1.6997983,0.87515515,-1.7149826,2.0501614,-1.6388943,2.7365549,1.5237104,0.1496228,-4.557211,-2.0929835,2.76784
/organization/organization/place_founded,1.1573356,1.0459206,-1.8143607,-0.1447367,-0.16558878,1.7526877,0.7154099,-0.7625226,-0.28999233,-2.0419033,0.33124995,1.1616423,0.8276403,0.49633104,-3.3411481,-0.615796,1.1233573,1.0429609,0.4480214,-4.2845874,-2.1790586,0.3500707,-2.4388506,1.4650903,-0.25891954,0.578474,0.28221512,-1.2510246,-1.3762431,-0.59005743,0.7120948,1.1136181
/base/eating/practicer_of_diet/diet,0.21830615,0.14878875,-2.220897,-0.06956085,0.115801506,-0.097725846,-0.5867151,0.46804643,0.17037016,-1.2533911,-0.99638194,0.6059285,0.5175997,0.19959353,-3.447294,-0.31160498,-0.60830504,0.9617803,-1.00372,-6.662345,8.933942,1.031085,0.39092687,-1.9724685,0.28308418,-0.35448283,3.9963722,-1.3163016,-0.6565984,1.5415287,-0.016243542,-1.0521874
/tv/tv_program/program_creator,1.1885124,-1.1920384,-4.5019774,0.19190152,0.53895545,-0.98161924,1.3980366,-0.7706738,-1.0387069,-1.2843632,-1.4274033,-1.5499645,-0.32732293,-1.0736245,-3.3713107,0.2528312,-1.4523305,-0.6638746,-1.2052146,-2.7326415,-0.016755754,0.26693848,1.3162636,0.4824717,-0.016433902,-0.82711077,-5.555815,-0.68476737,-1.533176,-1.2050514,-0.20718512,-0.37774372
/people/deceased_person/place_of_burial,-0.61230034,0.4500114,-2.653468,0.32580835,0.23027354,0.62827593,0.7908343,-0.35161224,0.12655887,-0.6863406,0.05052577,-0.6750939,0.39221567,0.10558672,-2.8448865,0.19121967,0.6212434,0.099611305,0.07342782,-6.481462,3.957713,-0.21622317,-0.026076581,0.038907,0.33204994,0.40028057,0.6083276,-1.0926833,-1.1626616,-1.5146141,0.1588456,-1.5057925
/film/film/release_date_s./film/film_regional_release_date/film_regional_debut_venue,0.48776054,0.31417823,-2.0860212,0.12773946,-0.17565288,-0.12634476,0.8225887,0.47753012,0.15773952,-0.6736164,-0.5559533,-0.039375007,0.112309314,-0.1193314,-2.7508335,-0.7290649,1.0591902,0.38442773,-0.11791836,-0.5929346,1.5866565,-0.21651044,-1.1734176,3.5575264,-0.15966035,-0.8067904,-2.4886272,-0.81172615,0.10615141,-0.5344863,0.4786592,0.52069825
/ice_hockey/hockey_team/current_roster./sports/sports_team_roster/position,-0.9480334,-0.50756866,-4.871014,-2.6669612,0.77350795,-1.3385894,-0.78096414,-1.6603812,-2.4005878,-0.7427601,-1.4025005,-1.3345975,0.27491683,-0.799092,-4.8662043,-1.1953669,0.35983866,-2.1625874,3.7375133,1.6746942,-0.7761007,1.4249446,0.7171864,0.9766503,3.0499387,-1.5292549,-1.5700933,3.6062865,-4.0401587,-0.015236428,-0.04828874,-1.3514454
/location/administrative_division/first_level_division_of,1.4414502,0.33724746,-1.2050952,-0.57156646,0.48333785,1.8179656,2.1211352,0.11614676,-1.4259552,-0.25788254,0.9022515,1.5955697,0.35678667,-1.4340651,-6.88972,1.178125,0.21080992,-0.89328456,0.014079757,-6.9631515,-2.5581985,0.26861173,-0.20527193,0.079974085,-0.41562185,-1.0768598,-2.8024216,-0.88551426,-0.29083198,0.8254953,0.011369085,-3.4794679
/location/statistical_region/gdp_real./measurement_unit/adjusted_money_value/adjustment_currency,-1.2012575,0.707969,-2.36478,-2.272722,5.8939176,1.2309186,1.4991772,0.6175305,-1.5928218,-0.763758,-0.12321316,1.0381669,-1.4571439,4.493594,-13.260741,0.8403911,1.765792,-5.111636,2.9534185,1.7739244,-1.3925169,3.225836,3.3296728,4.771204,1.4346662,-2.9089885,-1.6021866,11.219429,-0.12478368,-3.363014,-2.1893487,-5.13572
/organization/organization/child./organization/organization_relationship/child,1.2686721,0.7545066,-2.7424667,0.31579605,1.0943905,1.1306795,0.54919434,0.318585,1.2570614,-0.9322212,0.37178084,1.5191417,1.2186935,1.1660383,-3.0145915,0.18473546,1.2440199,1.785664,-1.2768286,1.3334742,-0.934238,0.61817485,1.0950787,-0.7548248,1.5934297,0.657834,0.64466405,0.09988433,-0.19702953,1.3196133,0.5736505,-1.9895765
/business/business_operation/assets./measurement_unit/dated_money_value/currency,-0.20151561,-0.8569757,-4.728709,0.78111297,-5.100807,-3.209286,0.67759895,0.09002778,-2.1589956,-0.60083765,0.21360356,-0.9925961,0.28293803,2.5774648,-9.716591,-0.6373419,-1.032931,2.863452,-1.9807919,7.5959716,0.5247899,-6.021579,0.3908089,-2.0688763,5.606557,-4.6369724,-1.2548803,5.7586694,-0.6117423,-5.365376,-0.28521514,-4.702039
/film/person_or_entity_appearing_in_film/films./film/personal_film_appearance/type_of_appearance,0.04675021,1.2963492,-2.682918,-1.432479,1.7493601,0.043819487,0.18064529,0.9628087,0.8307615,-1.610488,0.045491774,1.1404333,0.0005604271,-0.46010056,-4.2381473,0.6893699,-0.73397106,0.4077872,-2.12291,-10.66618,-2.161979,-0.9213765,-1.23812,0.5321444,5.521438,0.78984886,-7.332194,6.1903934,-1.234634,-2.3459835,2.0350897,-0.09210401
/time/event/instance_of_recurring_event,0.77272135,-1.6207606,-3.8922517,-0.67494994,-1.2484136,0.7697998,0.13960992,-0.6779901,2.4315996,-1.1505313,-0.6924752,0.8054234,1.3251197,-1.349707,-3.8576097,-0.35667986,1.474803,-1.2345576,0.08232574,4.850903,1.0056609,0.66047794,-0.22629642,-1.0677948,-1.2608458,-0.4320049,-0.8855006,-0.24297336,2.1326077,-2.8103812,-1.7137543,-0.58207047
/tv/non_character_role/tv_regular_personal_appearances./tv/tv_regular_personal_appearance/person,-0.3776631,0.04473402,-5.65346,2.3972108,-1.5120584,0.5068932,-0.34664643,1.5861576,-1.1462269,-0.44992557,-0.91276175,-0.028764967,-0.10581333,1.5680193,-6.3081822,-1.3406969,-1.9957901,1.1882849,0.09231744,-3.6214314,1.5009404,0.4696097,2.919168,-0.15394565,-0.8311295,-2.2973154,-2.7119558,3.7376552,-3.2629232,2.3468478,0.15376402,-1.1138787
/film/actor/film./film/performance/special_performance_type,-0.023352263,-0.117797606,-0.31439185,-0.4333973,-0.6141728,-0.28123105,0.39095828,0.27103198,0.23955108,-0.7204108,-1.0021243,0.40793142,0.39353552,0.62403893,-3.9422193,0.6005499,-2.225111,-1.0836326,-0.40149435,5.444059,2.403995,-2.1490755,-0.061277267,-4.23881,-0.7387682,1.1489993,1.9686844,-0.324501,-0.6232324,3.144785,-0.92913085,-1.9629549
/business/business_operation/operating_income./measurement_unit/dated_money_value/currency,-0.09232676,0.0038217166,-5.667147,1.7986059,-4.8308063,-2.02567,-1.3497226,-0.83629423,-1.673048,-0.7781291,0.62516874,-1.9573709,-0.23115563,3.086022,-9.907635,-1.0809431,-0.9965039,1.8388076,-0.6618896,9.359083,0.18969125,-1.790963,-0.7639537,-0.005722467,7.836786,1.3412688,0.23674892,5.0311,-0.3920171,-7.6215677,-0.4580208,-3.0886347
/people/ethnicity/languages_spoken,0.30176863,0.75446653,-0.24934122,-1.3438405,-0.5050446,0.803416,0.82606024,0.07519939,-0.6944426,-0.14279738,0.6544308,0.96699196,0.2262259,-0.6620289,-3.1438844,0.9086876,-0.28405547,-2.7353632,-0.42553917,-0.099147916,-1.1831433,1.5584611,-0.06474561,1.2070322,-0.081856355,-0.3845334,0.66916513,-1.2997688,0.14396268,0.96890557,0.39571002,-0.46375355
/base/americancomedy/celebrity_impressionist/celebrities_impersonated,-1.9263042,3.1746504,-4.4858236,-0.76958007,-1.7037024,-0.8275061,0.06541904,0.8223364,0.39114872,-0.32911867,0.5611121,-2.1563478,0.4487332,2.9562373,-4.287898,0.7568136,2.0654678,-4.496475,-1.3318831,4.377536,0.85727775,0.16806065,-5.9674115,1.8490126,2.5288332,0.05306966,-1.466866,2.014066,-1.1594012,-3.2033098,-0.37156114,-0.6771727
/medicine/symptom/symptom_of,-0.7909759,1.8962432,-3.3963625,-0.10120169,-0.014617673,-1.4398154,-1.5315683,-0.88898504,-0.8690338,-1.3300309,-1.0173395,2.0125473,-0.2151071,0.84684056,-3.8013499,-0.68510216,-4.153891,0.7081315,1.5870025,0.4925878,3.3779638,1.1965133,-0.10718646,1.9126438,0.93872625,3.53974,1.9682505,-1.7217219,4.0269313,-0.99814457,0.7170759,-1.3198768
/education/university/fraternities_and_sororities,0.3220122,1.2858255,-2.2493064,-0.66059,-0.38339475,2.331388,-1.3578022,0.19256681,-0.54830766,-1.811553,1.7244844,-1.6553907,-0.0656866,-0.8022664,-3.8985822,-0.15923159,-0.096226804,3.8592021,-1.3260865,0.66528326,1.1113822,1.76109,0.91130245,0.8396119,-6.36836,-0.61982226,-4.6337333,2.6078336,0.17385247,-2.1285992,-0.04135737,-0.6602707
/location/statistical_region/places_exported_to./location/imports_and_exports/exported_to,1.0507667,0.2997225,-0.6326271,0.99846196,1.8871204,-0.06717343,0.80788815,-0.25593972,-0.0058525773,-0.9633611,-0.45977056,0.31174424,0.24567987,1.27053,-4.871516,0.6957866,0.60480815,-0.259579,0.58947295,-0.7741662,0.020150237,0.96332973,-0.78622013,-1.3362836,-0.024910286,-1.8493098,-0.27668074,-2.8241675,1.8664796,-0.5482742,0.71503085,0.3008522
/location/statistical_region/gdp_nominal./measurement_unit/dated_money_value/currency,-0.6622627,-0.8984217,-1.3253187,-2.3353517,4.7210474,-0.41632223,0.79607284,0.852944,-1.4834619,-0.38777205,-0.12007911,-0.5266903,-0.22134686,3.641062,-9.732785,-0.5760681,-1.6548702,-2.5928478,0.002207335,3.905166,-1.719044,-0.46304172,1.4220525,7.0754375,-1.8712579,0.51575726,0.69490105,3.9924185,2.638873,-2.0371685,0.7870001,-3.7462654
/travel/travel_destination/how_to_get_here./travel/transportation/mode_of_transportation,0.6226363,-0.87647295,-3.53799,-0.097116634,-0.92989546,-0.14785707,-1.2825887,0.8340478,0.35761854,-1.1328952,-0.2605026,-0.8903737,0.051702637,-0.46700478,-4.0866003,0.09022075,0.7893441,3.2662108,-0.900211,-7.5481486,2.0497684,0.8285875,-0.9134345,-3.342126,2.6713617,1.4025154,3.3783655,-0.8365656,1.0495745,-3.5725212,-1.0017608,1.1530824
/location/country/official_language,0.6741399,0.40808743,-0.27452353,-0.26192373,-0.68008363,0.627433,-0.6995012,-0.21203679,-0.15591986,-0.487297,-0.022643844,0.91861063,0.4059338,1.2760203,-5.0462437,-0.561211,-0.41417885,-0.9728318,0.923101,-2.6658947,0.5691665,2.6411343,0.13853961,-3.1539297,2.0543017,-0.19287081,-0.82783246,1.6570097,0.27323183,0.92571646,-0.5819611,1.9727408
/location/location/partially_contains,1.4222867,0.22723266,-1.118408,0.30335733,-0.15877266,1.5197275,1.0277319,1.0321797,-0.93298256,-1.1580088,0.03426259,-1.562096,0.7305202,-0.87968576,-5.0476165,-1.3357933,-0.5921457,1.2816714,3.429774,-5.2981124,-3.5286832,-0.47839576,2.4395552,0.5782011,1.371313,2.190761,-1.5937604,1.1462178,1.2208252,4.3415685,-2.5540154,-1.1230197
/film/film/film_art_direction_by,0.6889214,-1.0058594,-4.3573675,0.22989616,1.1168249,0.4400653,-1.1051944,-1.6282519,-1.4995595,-0.8262129,0.017276566,-1.2409793,-1.3130571,-1.8165107,-4.539242,0.78271914,-1.6668016,-1.2175047,0.25004786,5.5318284,0.85271174,-1.5191013,1.4476167,2.151092,-0.6024394,1.929353,-4.440723,0.93942,5.6653833,0.856609,-2.2375185,0.021924134
/people/person/spouse_s./people/marriage/location_of_ceremony,-0.063859366,-0.1654177,-0.7156322,0.18052676,0.29176322,0.9036875,0.45061177,-0.44785777,0.005660702,-0.92878133,0.26098812,-0.48463425,-0.08960537,0.15737759,-2.8824992,0.63093483,-0.23483668,-1.2932757,0.046545066,-3.8565807,-0.24849023,0.17835347,0.12445943,0.014918837,-0.94931245,1.2343552,-0.45806497,0.7818501,-1.6060097,-0.024303863,0.00039380815,-0.5785245
/education/university/international_tuition./measurement_unit/dated_money_value/currency,-0.13691375,-0.4195556,-1.817579,-0.8632625,-1.3573788,-2.1029038,0.6687052,-1.246942,-0.997598,-1.0621353,-0.71647984,-0.9706607,-0.04187568,-0.59169555,-5.20251,-0.71675646,0.08664229,2.802247,-0.9126856,0.5915186,0.31714272,0.14068463,1.819479,-1.8183683,0.048185907,-0.8083579,2.1564076,4.0889297,-0.16615081,-3.6875663,-0.41307247,-0.9321618
/organization/organization_founder/organizations_founded,-0.23291604,-1.2101915,-2.7022016,0.5735138,0.10077296,0.7499493,1.2589245,0.8022878,0.85761434,-1.0569979,0.26124305,0.6788061,0.5386132,0.43237334,-2.822783,0.54627454,2.1329472,-0.44087818,-2.0265036,0.080190234,4.7103677,-1.1003467,-0.84552354,-1.1162717,0.19567098,0.6052293,1.8312382,2.4670155,0.12787119,-0.21622376,0.9930019,2.0838146
/film/film/dubbing_performances./film/dubbing_performance/actor,0.7648045,-1.066546,-2.958474,0.20690933,0.20842414,1.4467088,-0.7422799,-1.0057157,-0.677444,-0.1685368,-0.71361244,-1.2014292,1.0905385,-0.9089176,-3.38879,-0.5956096,1.3667173,-0.6570433,1.3843526,-0.12972939,0.4497832,1.0939933,1.7920047,2.9985144,-0.8863838,1.5369873,-2.3272974,0.51179373,-0.3307891,-1.1719108,-3.3410332,-1.1240425
/dataworld/gardening_hint/split_to,1.1847565,1.236028,-3.0368752,0.94902277,0.79306793,1.4055535,1.5395315,-0.45983598,0.40058783,-0.45651203,0.33635235,1.8180814,0.15168497,-0.14905372,-4.450328,1.3760427,1.4255829,-2.7788653,2.9397266,-2.6932106,-1.3507824,1.1479926,2.1281736,2.435534,4.0165114,-4.183263,2.5802994,0.68707305,1.6911802,-2.5529957,1.1229392,0.63573813
/medicine/disease/risk_factors,-0.4648745,1.6117046,-1.7660758,-0.22601879,1.1417949,0.9180603,0.16759823,0.7843623,0.19610628,0.69549304,-0.73204416,1.1333094,-0.68578976,0.30726373,-3.1957066,0.56064034,-2.1817183,-0.6519197,-0.8493174,-1.1785468,3.2080376,0.3680924,0.57103014,1.3333184,-0.34302774,-0.305214,-2.219788,-2.3211112,0.76234376,-0.053046938,-1.4436306,1.1969352
/film/film/prequel,0.9978873,0.67376035,-6.10131,0.26530257,0.6085567,1.1919186,0.35525605,0.9406503,0.93802106,1.0956273,0.4895486,0.5921182,0.96650904,0.8516391,-2.914715,0.9187605,-1.131034,0.56572574,-3.5818858,1.2558903,-2.3547025,0.6089107,-0.7898202,-0.76641685,0.54532754,-1.5845227,0.20074898,1.6561623,0.072591156,1.4133512,2.7573423,-1.512593
/base/localfood/seasonal_month/produce_available./base/localfood/produce_availability/seasonal_months,-1.3955137,2.2767897,-6.8237033,1.6059917,0.4381471,-0.49077147,1.0247667,1.3556743,0.41444275,0.7538854,0.6672424,-1.326293,-0.7997521,-0.13922882,-4.2786717,1.54735,0.3707641,-0.82592386,-0.52833796,1.5497609,3.0281456,2.400019,0.63377494,0.77395105,-2.8959744,-1.3316053,2.3828144,-2.100723,-0.4896196,-0.40031648,-2.9324455,0.8275591
/film/actor/dubbing_performances./film/dubbing_performance/language,-0.33046576,0.832472,-1.0893346,-0.5915439,0.33127567,1.0262179,-0.6690952,-0.19319826,-0.5922265,1.197522,-1.5414851,-0.007000971,0.3402787,-0.122141264,-6.594149,-0.76788306,-0.28558424,-1.2929007,-0.3486949,9.612075,5.5904236,0.89507514,-3.3500466,5.505509,-0.19571368,-0.6642802,1.7844027,-0.51368856,0.0041815555,-0.5297098,-0.4934493,1.9848306
/broadcast/content/artist,-1.3815565,-1.4185752,-6.4185386,0.8681366,-0.6457349,2.373857,0.0017267965,0.5991718,0.6065916,-0.92664707,1.0906119,1.0764272,-1.7821095,-2.4583046,-5.358187,-0.41878757,2.459369,1.1094444,-2.9604952,1.4176458,2.8570836,-2.6421669,-1.1585115,-5.155761,-2.03799,3.0914247,8.068142,-1.026809,2.0597324,1.8503265,0.90925014,-2.4995751
/location/statistical_region/gni_per_capita_in_ppp_dollars./measurement_unit/dated_money_value/currency,-0.9820236,0.081890725,-3.1360567,-3.747923,6.5525756,1.159377,2.314541,-0.03346416,0.42838964,-0.61270064,-0.7818849,0.48438072,-0.56872606,5.123156,-17.289467,-0.40145752,-0.8851736,-5.0609136,1.5049039,3.7912521,-0.7116504,0.83380926,4.9162545,5.5328593,0.03435672,-0.5524592,0.9505792,11.167648,0.42671806,-5.442749,-0.64361554,-2.7524147
/music/instrument/family,0.50172323,-1.6084697,-3.4704158,0.4359761,1.4942124,-0.80104876,2.412307,0.92661744,0.45120287,-0.5117836,-1.248323,-0.0038212382,-0.049285423,-0.77232975,-4.9976573,0.16859372,0.266506,1.7604848,-0.3664319,4.2210374,1.5089557,-2.9219315,-1.6929946,-1.2973057,9.224012,3.8086412,0.2700377,-3.0312247,1.6546508,1.3685961,0.32034892,2.468223
/government/politician/government_positions_held./government/government_position_held/jurisdiction_of_office,1.0012934,0.40085995,-1.0744932,-0.37377048,1.0968034,2.1611094,0.71052074,0.37153623,0.3310597,-0.02623869,0.78479075,-1.0970608,0.17686161,-0.045401547,-4.518678,0.5781674,-1.0119338,-0.21962619,0.4366399,-3.1044004,-1.8311994,1.3689972,-0.38508824,0.2974452,1.9375598,-0.15010609,1.0744599,0.32738456,-1.6460965,-1.6276883,0.9654,0.30298322
/location/country/form_of_government_inverse,-0.20305714,2.0310009,-0.15916748,-0.75737715,-0.86604923,-0.51442814,-3.3539755,1.4423327,-1.7196052,-1.776141,-1.8185334,-0.28618848,-1.172192,0.8983236,-3.3273668,-0.96367395,-0.32069325,1.8193445,-1.7583293,-1.4234747,-0.27746597,-0.95092666,0.28963834,0.3515489,3.4658144,2.845628,2.0275888,1.306455,1.1082894,0.5725425,-1.018366,1.5448754
/tv/tv_program/regular_cast./tv/regular_tv_appearance/actor_inverse,0.6840538,-0.62032694,-4.3650217,0.43321437,-0.63155407,-1.2386181,-0.09720122,-0.7830588,-0.81889164,-0.9778837,0.6895874,-0.88201594,-0.8941684,-0.84716797,-2.647695,0.91980445,0.66415006,0.09243945,0.17603037,2.8310897,0.5671676,-0.27067497,0.09802581,0.74679923,0.24454065,0.8250265,0.8312038,-0.2454378,-0.33450672,0.13360953,-0.10796538,0.22523144
/media_common/netflix_genre/titles_inverse,0.79677963,-0.7844957,0.22971776,-0.09764415,0.24647452,-0.990765,0.4177255,-0.11509238,0.0901056,-0.7609001,-0.9216437,0.038141243,0.7576633,-0.29701763,-3.1466727,0.31307107,-0.07340311,-0.7456426,-0.07936299,2.9240832,-1.2851003,0.06652231,0.46741956,-1.0231442,0.19079407,-0.72597533,1.6978849,0.53471285,0.47842175,-0.9046563,0.105642065,-0.88733894
/award/award_winner/awards_won./award/award_honor/award_winner_inverse,1.0699408,0.015779588,-2.810981,0.20869933,0.1753077,1.1137671,1.2068837,0.9135358,0.93269444,-0.12405168,-0.80142266,1.1756439,1.3327492,1.1400468,-3.477545,1.0308709,0.003847496,0.5524457,0.026049228,0.50696856,-2.2888336,0.12530816,0.16915493,0.3036757,-0.037681803,0.18662675,0.3987479,0.2619648,0.16930261,-0.12747733,0.07032448,0.4095826
/soccer/football_team/current_roster./sports/sports_team_roster/position_inverse,0.5884064,-2.2620275,-5.510465,-2.3909886,-0.21692337,-2.9066226,-1.1622738,-2.8565168,-1.460847,0.5456639,-0.44150728,0.6200081,-2.9437113,0.80412483,-5.234524,-3.5805454,-1.3953172,2.524866,2.222634,3.27055,1.8278743,-1.9100811,-1.038801,1.2892976,0.32005683,4.6001434,1.0625395,0.37479317,1.2762493,-2.4132018,3.5634708,0.6101749
/soccer/football_team/current_roster./soccer/football_roster_position/position_inverse,0.96205515,-0.5696995,-6.0303793,-1.5580199,2.552826,-0.5146229,0.21577853,-1.3456917,-1.8986814,-2.121441,-2.3507462,-1.8352114,0.52227896,0.21539299,-4.5654764,-4.074288,4.263666,-0.8988857,-1.3209791,3.4071794,-3.7571785,0.11467563,-2.1861522,-4.0012,3.2513728,-2.6385083,-5.681304,-1.0763748,1.5757499,1.6544436,-1.1925094,0.9797246
