0,1,2,3,4,5,6,7,8,9,10,11,12,13,14,15,16,17,18,19,20,21,22,23,24,25,26,27,28,29,30,31,32,33,34,35,36,37,38,39,40,41,42,43,44,45,46,47,48,49,50,51,52,53,54,55,56,57,58,59,60,61,62,63,64,65,66,67,68,69,70,71,72,73,74,75,76,77,78,79,80,81,82,83,84,85,86,87,88,89,90,91,92,93,94,95,96,97,98,99,100,101,102,103,104,105,106,107,108,109,110,111,112,113,114,115,116,117,118,119,120,121,122,123,124,125,126,127,128,129,130,131,132,133,134,135,136,137,138,139,140,141,142,143,144,145,146,147,148,149,150,151,152,153,154,155,156,157,158,159,160,161,162,163,164,165,166,167,168,169,170,171,172,173,174,175,176,177,178,179,180,181,182,183,184,185,186,187,188,189,190,191,192,193,194,195,196,197,198,199,200,201,202,203,204,205,206,207,208,209,210,211,212,213,214,215,216,217,218,219,220,221,222,223,224,225,226,227,228,229,230,231,232,233,234,235,236,237,238,239,240,241,242,243,244,245,246,247,248,249,250,251,252,253,254,255,256
/location/country/form_of_government,0.4080696403980255,-0.8194881677627563,-0.006487857084721327,0.04848872497677803,-2.2309672832489014,0.004592672921717167,-0.4343501925468445,0.06748387217521667,0.17781901359558105,-1.155760645866394,0.28277528285980225,0.331095427274704,0.8191431760787964,-1.23677659034729,0.10660635679960251,0.12264886498451233,-0.3966948688030243,-0.08124085515737534,0.20384091138839722,-0.7883358001708984,0.08794742077589035,-0.05268419533967972,-0.02091103233397007,-0.3134313225746155,-0.11069097369909286,-0.004458231385797262,-0.21387948095798492,0.036074284464120865,-0.06460239738225937,0.0037668023724108934,-0.1171874850988388,0.0727185308933258,-0.3455038368701935,0.023753294721245766,0.17838551104068756,0.11743789911270142,0.25687870383262634,0.4926956593990326,-0.11230506747961044,-0.010575161315500736,-0.29176777601242065,-1.0020371675491333,-0.04965413734316826,0.4590097665786743,-0.577068030834198,-0.11818622797727585,-0.8619511127471924,0.04697641357779503,-0.14529316127300262,0.0380486361682415,-0.1268637627363205,-1.882154941558838,0.24084481596946716,-0.21331527829170227,-0.003580941818654537,0.13989375531673431,-0.08374596387147903,-0.1973591446876526,0.0020690879318863153,0.06962355226278305,0.004322176333516836,0.9505652785301208,-0.08908441662788391,-0.058433566242456436,0.08485223352909088,-1.3587422370910645,0.08755921572446823,0.08177877962589264,0.008579020388424397,0.49345776438713074,-0.08501827716827393,-0.376626580953598,-0.03288022801280022,-0.6598891615867615,-0.21866007149219513,-0.04231395199894905,0.09862525761127472,-0.009204687550663948,-0.10061152279376984,0.04818056896328926,-0.09535495936870575,0.659777045249939,-0.5160956382751465,-0.0005721711786463857,0.08751840889453888,-0.22613267600536346,-0.05728492513298988,-0.042473744601011276,0.525712788105011,0.10000407695770264,0.5368484854698181,-0.001633366453461349,-1.5338010787963867,-0.9008613228797913,-0.008874086663126945,0.032139431685209274,0.1955900937318802,-1.2361502647399902,-1.0604867935180664,-0.7051868438720703,0.046178508549928665,0.1964924931526184,-0.062011245638132095,0.047407254576683044,0.07490096986293793,0.12150219827890396,-0.46109551191329956,0.3624119758605957,-0.9585132598876953,0.1261872798204422,-0.5317943096160889,-0.2893718481063843,-0.022533169016242027,-0.1270918846130371,0.7111386656761169,-0.18712370097637177,-0.16186252236366272,-0.028192006051540375,0.8424338102340698,0.04640878364443779,-0.03537403419613838,-1.1771390438079834,-0.14455100893974304,0.045584503561258316,-0.013909869827330112,-0.3331265151500702,-0.038841214030981064,0.05651194602251053,0.20482181012630463,-0.5126019716262817,-0.08684829622507095,-0.47175928950309753,2.7688417434692383,-0.11828845739364624,-0.549972653388977,-0.7747334837913513,0.05539148300886154,-0.2476942092180252,-1.6829197406768799,0.8516590595245361,0.6099449992179871,-0.09389195591211319,0.5352303385734558,0.5439482927322388,0.3245897889137268,0.31182676553726196,0.4743654727935791,1.6717289686203003,-0.7644784450531006,0.8030259609222412,0.06687222421169281,1.0210139751434326,-0.3470115065574646,-0.6656857132911682,0.2245173305273056,0.30240872502326965,0.9393085241317749,0.5308237075805664,1.4096778631210327,-0.6193937659263611,0.03350100293755531,0.20645266771316528,-0.1417771428823471,-0.6404346227645874,0.6626590490341187,0.1342501938343048,-1.2133208513259888,0.13470467925071716,-1.3991105556488037,-0.7207754850387573,0.53260737657547,0.21455711126327515,0.6332764625549316,-1.6948840618133545,0.6904241442680359,-0.26010429859161377,0.7968530058860779,-0.8669845461845398,0.5784318447113037,-0.9562813639640808,0.009463006630539894,0.22731003165245056,-0.18276523053646088,0.7377481460571289,0.654523491859436,0.1727483570575714,0.13367298245429993,0.11335088312625885,-0.053616054356098175,-0.13210466504096985,-0.32275211811065674,0.6270076632499695,-0.6895995140075684,0.3194413483142853,-0.5411231517791748,0.22122585773468018,-0.8284913897514343,-0.6403615474700928,0.5814586877822876,0.22892236709594727,0.905549943447113,-0.6824291348457336,-0.7753594517707825,-0.16282664239406586,0.7582482695579529,0.019461864605545998,-0.15550225973129272,1.4520025253295898,-0.7668227553367615,-0.5504734516143799,0.2821009159088135,0.7457754611968994,0.0855344906449318,0.40788373351097107,-0.24200092256069183,-0.026148969307541847,-0.6677551865577698,-1.2280480861663818,-0.07696156203746796,-0.7169522047042847,-1.9496911764144897,-0.28690293431282043,-0.2568952441215515,-0.4605911374092102,-0.5008457899093628,3.33762526512146,-0.22487007081508636,-1.3159006834030151,-0.5332362055778503,-0.08182217180728912,0.5905964374542236,-0.030845198780298233,-0.2747751772403717,0.28842395544052124,0.2520765960216522,0.4848726689815521,-0.6102822422981262,0.40131786465644836,1.2891088724136353,0.388491153717041,0.27056893706321716,2.194186210632324,-0.4744780659675598,0.3607713282108307,0.4045335650444031,-0.09003440290689468,0.6974223256111145,-0.16252675652503967,0.2158156782388687,2.904989242553711,0.9205505847930908,-0.8222137689590454,0.4668349623680115,-0.16495417058467865,-0.6447669267654419,0.38934245705604553
/tv/tv_program/regular_cast./tv/regular_tv_appearance/actor,-0.23685462772846222,0.01705957017838955,-0.06515216827392578,0.026943784207105637,-1.0838149785995483,-0.5878992080688477,-0.2155340313911438,-0.07147771120071411,0.35510849952697754,0.03266502916812897,-0.30722853541374207,-0.0076888795010745525,0.22896502912044525,-0.7958361506462097,-0.06734165549278259,-0.27261629700660706,-0.025636769831180573,0.10429634898900986,0.11014590412378311,-0.02153472602367401,0.01880110241472721,-0.13719947636127472,-0.009518139064311981,-0.3553386628627777,-0.32127639651298523,-0.0606042854487896,-0.015146991237998009,0.04582708328962326,-0.050036631524562836,0.09220278263092041,-0.06009092554450035,-0.03154405951499939,-0.061424314975738525,-0.014147039502859116,-0.477593332529068,-0.3106507658958435,-0.5098735094070435,0.3471474051475525,-0.059043899178504944,0.0249380711466074,-0.04441043362021446,-1.2801862955093384,-0.1475217044353485,0.10927897691726685,0.10636834800243378,0.19165049493312836,0.09100934863090515,0.2594434916973114,0.05208594724535942,0.05749281868338585,-0.1509239226579666,-1.7049064636230469,0.03511589765548706,0.030601592734456062,-0.09179428964853287,0.040824633091688156,-0.12512816488742828,-0.08062638342380524,-0.45900601148605347,0.038536928594112396,-0.14018391072750092,0.11489207297563553,0.08969812840223312,0.0967145711183548,0.12001730501651764,-0.41071781516075134,-0.04937522113323212,-0.06775830686092377,-0.016214687377214432,-0.733059287071228,0.02018148824572563,-0.4204931855201721,-0.032701149582862854,-0.032391540706157684,-0.3582321107387543,-0.054772112518548965,0.05220738425850868,0.4927786886692047,0.0023999789264053106,-0.01627679541707039,0.09140320122241974,0.034610647708177567,-0.00412381486967206,-0.6898005604743958,-0.07947281002998352,-8.612901001470163e-05,0.10738090425729752,-0.5017821192741394,0.02009366825222969,0.012569930404424667,0.14481960237026215,0.06023428961634636,-1.3671071529388428,-0.16980116069316864,-0.10953939706087112,0.018616322427988052,0.20872662961483002,-0.5744776725769043,-0.13578374683856964,-0.6941476464271545,0.018304571509361267,-0.05640517547726631,-0.10050120949745178,0.021489689126610756,0.05178947001695633,-0.3449990749359131,0.034059565514326096,-0.09536722302436829,0.6048078536987305,-0.4920305013656616,-0.14291226863861084,0.5881179571151733,0.06711233407258987,-0.2100793421268463,0.1702418327331543,-0.05311872810125351,-0.009843607433140278,0.06141512840986252,-0.017788775265216827,-0.12397263199090958,-0.023349987342953682,-0.5970065593719482,-0.31856769323349,0.07913807034492493,-0.03235641121864319,0.6702863574028015,0.02682432346045971,-0.008592435158789158,-0.34528446197509766,1.0579177141189575,-0.4462136924266815,0.6316680312156677,1.7408638000488281,-0.46986621618270874,1.4450122117996216,1.2258496284484863,-0.11331138759851456,0.7980290651321411,0.5719269514083862,0.6836889386177063,-0.006425042636692524,-1.2076261043548584,-1.896918535232544,-0.30952340364456177,-0.9049795269966125,-0.494335800409317,-0.903160572052002,0.5184587836265564,-0.4479443430900574,-0.44720181822776794,0.15791746973991394,-0.47754260897636414,-0.8675790429115295,-1.16627037525177,0.8739268779754639,-0.016704807057976723,0.7797435522079468,0.6199084520339966,0.3549942970275879,-0.31433066725730896,-0.1926507204771042,-0.49019333720207214,-0.3437266945838928,0.686750590801239,0.0443074032664299,-0.8111481070518494,-1.1563674211502075,0.4463016092777252,0.9561605453491211,0.7003057599067688,0.010478519834578037,-0.11768185347318649,1.7220301628112793,0.34295210242271423,-0.43422946333885193,-0.9098823070526123,-0.6035784482955933,0.6095272302627563,-1.1196057796478271,5.357560634613037,0.41666877269744873,-0.26041582226753235,0.9748194813728333,1.1154707670211792,0.4936244785785675,0.6515471339225769,-1.7484841346740723,-1.6851104497909546,-0.009626265615224838,1.3830708265304565,1.0132031440734863,-0.5540459156036377,-1.0026181936264038,0.9409343600273132,-1.2714592218399048,-0.5609301924705505,-0.15155881643295288,1.2403205633163452,1.2355819940567017,0.4134308099746704,0.22716058790683746,0.9053006172180176,-0.2732126712799072,0.7288205027580261,-0.7244325876235962,-0.12127692252397537,0.7809897661209106,1.0753366947174072,-1.0374786853790283,0.11516698449850082,-0.39298635721206665,-0.28652870655059814,0.5608660578727722,0.008884782902896404,0.863585352897644,-0.5373746156692505,0.08272574096918106,-0.03319631144404411,-0.03110181912779808,0.526098370552063,-1.2507212162017822,1.1631659269332886,0.30718502402305603,0.1462562382221222,-0.358040988445282,0.516072690486908,-1.005098581314087,-0.14025337994098663,-1.1969980001449585,0.16345766186714172,0.5711609721183777,-0.9401388168334961,-0.8856620192527771,0.3916241526603699,-0.36686933040618896,-1.2195552587509155,0.14774908125400543,-0.24064654111862183,-0.3078829348087311,-0.05255105718970299,-0.6303635239601135,-1.1270736455917358,0.42958468198776245,-0.10246948152780533,0.5091407299041748,0.2183218002319336,-0.561123788356781,-1.0548993349075317,-0.6180976629257202,1.9662925004959106,0.2375316023826599,0.8613398671150208,0.8742523789405823,0.5129691362380981,-0.28169333934783936,0.19790047407150269
/media_common/netflix_genre/titles,-0.24586182832717896,-0.21989700198173523,0.00371499452739954,-0.020971696823835373,-1.1965882778167725,0.2317650318145752,0.44870278239250183,0.09811224788427353,0.07561700791120529,0.23994356393814087,-0.5312740802764893,-0.1963576376438141,-0.38192060589790344,-0.9969682097434998,0.7646624445915222,-0.611851155757904,0.44244587421417236,0.05128474906086922,0.024992432445287704,-0.4915906488895416,0.18593132495880127,0.11058206856250763,0.2931996285915375,-0.5701013803482056,-0.0798473209142685,0.6222690343856812,-0.46049895882606506,-0.20201493799686432,-0.07100154459476471,-0.16807059943675995,0.057575251907110214,-0.00032469091820530593,-0.25485798716545105,-0.05911024287343025,-0.11881984025239944,0.021086545661091805,-0.33252766728401184,0.34902313351631165,-0.08199471235275269,-0.03860091045498848,0.11206772923469543,-1.0075671672821045,0.8772140145301819,0.14228715002536774,-0.8980010747909546,-0.2414257675409317,-0.04182058945298195,-0.10377436131238937,-0.18321016430854797,0.7510592937469482,-0.9308387637138367,-1.692891240119934,0.0424935482442379,-0.8694964647293091,0.03926648572087288,-0.4997401535511017,0.01646660454571247,-0.11778564751148224,0.648578405380249,0.23879222571849823,0.3809484541416168,-0.17884667217731476,-0.20098422467708588,0.08786948025226593,-0.08291011303663254,-0.06408952921628952,-0.3895166516304016,-0.5838704109191895,0.23444071412086487,-0.7884437441825867,-0.05544999614357948,0.34145882725715637,-0.18049921095371246,0.15798313915729523,-0.6772699356079102,-0.13519848883152008,0.5514166951179504,-0.18856680393218994,0.3335656523704529,-0.38531428575515747,0.15895891189575195,0.059164974838495255,-0.7408549785614014,0.3167482614517212,-0.1150643527507782,0.21009138226509094,-0.008637753315269947,-0.22497516870498657,0.25730374455451965,-0.07086750119924545,-0.02076108194887638,0.06605802476406097,-1.2008309364318848,0.011633358895778656,-0.2613598704338074,0.7438039779663086,-0.3998928666114807,-0.9643146395683289,-0.026781529188156128,-0.25068026781082153,0.25301921367645264,0.12571598589420319,-0.13230736553668976,0.06521794199943542,0.025293871760368347,-0.3239784240722656,0.29833078384399414,-0.029812047258019447,0.11021407693624496,0.4062848687171936,-0.4721163809299469,-0.06311117857694626,-0.08022521436214447,-0.030100585892796516,-0.25078490376472473,-0.17184802889823914,0.4136664867401123,0.18285472691059113,0.24033571779727936,0.09990595281124115,-0.5705024600028992,-1.2514413595199585,-0.5048381686210632,-0.06400230526924133,-0.1656634360551834,0.0005495963850989938,-0.03990403190255165,0.1782275289297104,-2.0513393878936768,0.040214549750089645,0.9924873113632202,0.43556156754493713,-1.972474455833435,-0.5158780813217163,0.9263011813163757,0.882045328617096,0.20516401529312134,-1.2739297151565552,0.0965983122587204,-1.0295246839523315,-0.793438196182251,0.017577333375811577,-0.8402227759361267,1.2991042137145996,1.0614253282546997,-0.06470567733049393,-0.1138024851679802,-1.3995521068572998,0.3221299946308136,-0.2859068214893341,-0.38423052430152893,-0.8934760093688965,0.9323333501815796,0.9232767820358276,-1.8328280448913574,-0.7271140813827515,-0.3341009020805359,0.24980942904949188,0.9614753723144531,0.45826229453086853,1.058814287185669,-0.12895019352436066,-0.7538941502571106,-1.52741277217865,1.56437349319458,0.08757820725440979,0.21589262783527374,-1.4013537168502808,0.18111179769039154,2.2608180046081543,-0.277675598859787,-0.30151697993278503,0.24401681125164032,0.8748881220817566,1.4736320972442627,0.6213807463645935,-0.43030595779418945,0.5133652687072754,-0.45565861463546753,-2.0866737365722656,-0.23078125715255737,0.9009395241737366,-1.5101779699325562,0.28276780247688293,1.3771419525146484,1.1847529411315918,-0.1432807892560959,-0.9493564963340759,1.1817495822906494,0.9532234072685242,-0.3812069594860077,-0.5535995364189148,-0.12639877200126648,-0.8558366298675537,0.9167755246162415,-0.4513193368911743,0.3395768404006958,0.11630623787641525,-1.8686250448226929,-0.5842037200927734,0.3661603629589081,-0.5352187156677246,2.388493537902832,-1.0469931364059448,-0.9233847856521606,-1.114687204360962,-0.08497008681297302,0.07839613407850266,-0.6363840103149414,0.745679497718811,-0.6006489396095276,0.42557451128959656,-0.7706022262573242,0.24475239217281342,0.28631240129470825,-0.32776910066604614,0.12537799775600433,0.2156267613172531,1.640856385231018,-0.9390822649002075,-0.8254666328430176,-0.2598159611225128,0.7401378750801086,0.3868497908115387,2.1512961387634277,1.676673173904419,-0.6498880982398987,-1.3124123811721802,-0.2631325125694275,-0.21951529383659363,1.0032999515533447,-0.2001783698797226,-0.18193456530570984,0.12916728854179382,1.5569922924041748,-1.0706508159637451,-0.9581584930419922,0.8320321440696716,0.28192225098609924,-0.8549192547798157,1.5478321313858032,-0.35067594051361084,-0.07903522253036499,-0.6141682863235474,0.7970026731491089,-0.13712836802005768,-0.4429114758968353,-0.8859991431236267,-0.234478160738945,-2.3484346866607666,-0.7976572513580322,-0.34843316674232483,-0.87666916847229,1.2719099521636963,-1.1141915321350098,0.9909209609031677
/award/award_winner/awards_won./award/award_honor/award_winner,-0.6006429195404053,-0.02961750514805317,0.11712534725666046,-0.06647584587335587,-1.5250517129898071,-0.11807791143655777,-0.05143106356263161,0.09133131057024002,0.010598547756671906,0.2121972143650055,-0.708855390548706,-0.17927098274230957,-0.48887744545936584,-1.1210659742355347,0.28769394755363464,-0.45141223073005676,-0.0035566191654652357,-0.11722083389759064,0.19750083982944489,-0.9180047512054443,-0.08574344962835312,-0.01474322471767664,0.15716508030891418,-0.325088769197464,0.04766150191426277,-0.21780633926391602,-0.09074251353740692,-0.44547978043556213,-0.0023531534243375063,-0.05608276650309563,-0.016141856089234352,0.029841601848602295,-0.050360843539237976,-0.0051324088126420975,0.3379269540309906,-0.5785446763038635,-0.09799351543188095,0.060156237334012985,0.1054055243730545,-0.01117688324302435,-0.036036860197782516,-1.7207032442092896,0.43150800466537476,-0.18508334457874298,-0.0018945100018754601,-0.31160828471183777,-0.3561607599258423,-0.032580289989709854,-0.05641847476363182,-0.06713896989822388,-0.052361078560352325,-2.029296636581421,-0.09398180991411209,-0.138924703001976,0.05434379726648331,-0.009555784985423088,-0.2694011926651001,-0.25851550698280334,-0.01595347560942173,0.04368479922413826,-0.16691116988658905,-0.6512317061424255,-0.1549225151538849,-0.01942576840519905,-0.11904603987932205,-0.009718907065689564,-0.148699551820755,0.26874470710754395,-0.08775395900011063,-1.2078908681869507,-0.05404037609696388,-0.5565635561943054,-0.03655572235584259,-0.3559166491031647,-0.4858269989490509,0.04929955676198006,-0.13672766089439392,-0.06121467426419258,-0.12442859262228012,-0.08679031580686569,-0.5876176953315735,-0.2922127842903137,-0.2630215585231781,-0.0605752058327198,0.005572056397795677,-0.1881207376718521,-0.10718902945518494,-0.20533587038516998,-0.13597486913204193,0.04118373245000839,-0.1642289012670517,-0.31858447194099426,-1.6629738807678223,0.12225040793418884,-0.03422867879271507,-0.20373496413230896,0.18802309036254883,-1.0075851678848267,0.033670343458652496,-0.7988598942756653,-0.42288026213645935,-0.28353601694107056,-0.8231799006462097,-0.0606679767370224,-0.052879419177770615,-0.5082733035087585,-0.18280775845050812,0.027735361829400063,0.03252169117331505,-0.08106306940317154,-0.2643216848373413,0.0033087662886828184,-0.050473202019929886,-0.04186340793967247,0.7146493792533875,0.04813804104924202,0.03994614630937576,-0.21418029069900513,0.04807932302355766,0.11493824422359467,-0.06615587323904037,-1.1020108461380005,-0.5761289596557617,0.06025492772459984,-0.0069679683074355125,-0.010837008245289326,-0.01375920232385397,0.02162429876625538,-1.4590442180633545,1.7205376625061035,-0.744393527507782,-1.1343467235565186,-0.34773269295692444,-0.6025992035865784,0.6774190068244934,-0.6460597515106201,-0.786505401134491,0.4035932719707489,1.010213017463684,-0.7092300653457642,-0.012092581950128078,-1.5374083518981934,-0.801551103591919,-1.2037256956100464,-0.7569397687911987,-1.9668281078338623,-1.2750178575515747,0.7697862386703491,-2.057643413543701,-0.29434892535209656,1.3934210538864136,-0.9891496300697327,0.8974779844284058,0.9993599057197571,0.8147483468055725,1.4301334619522095,-1.52053964138031,-0.12514550983905792,1.7995434999465942,-1.19915771484375,1.7819920778274536,0.7657799124717712,0.6283338665962219,1.1562461853027344,-0.2480573058128357,-0.6590691804885864,0.07564884424209595,-2.130638599395752,-1.5252728462219238,0.6823099851608276,0.7147913575172424,0.2726879119873047,-1.549438238143921,-1.234649658203125,-0.19678328931331635,0.7809391021728516,0.5329680442810059,-0.054459139704704285,1.4653651714324951,2.263340950012207,0.7161758542060852,-0.8461434841156006,0.7119901180267334,0.7263566851615906,-1.3747321367263794,0.5287684202194214,0.11655918508768082,0.9673571586608887,1.8443005084991455,-0.575047492980957,-1.93625807762146,1.354810118675232,-2.050899028778076,-0.9309895038604736,-1.4109675884246826,1.4266573190689087,-1.0799301862716675,-1.2543421983718872,-2.3328945636749268,0.5472984910011292,-1.1557108163833618,-0.7911209464073181,0.150495246052742,0.6991599798202515,-1.0829379558563232,0.1498388797044754,-2.3647501468658447,0.8757253289222717,0.29611456394195557,-1.2227897644042969,-1.3354167938232422,-0.46473458409309387,0.4785960614681244,1.7797051668167114,-0.15711811184883118,0.5938791632652283,1.0148488283157349,-0.2991766035556793,1.5318864583969116,-0.057240553200244904,-0.05685213580727577,1.8130325078964233,-0.4187975525856018,-1.9020161628723145,-1.1920021772384644,0.7093020081520081,0.5127252340316772,0.08743514120578766,2.216782808303833,2.0840320587158203,0.5281862616539001,2.2346882820129395,1.5468307733535767,0.6954057812690735,1.2325228452682495,0.16246657073497772,-1.1496093273162842,0.36154183745384216,1.400456428527832,0.4893777370452881,0.48943692445755005,2.2106237411499023,1.9276050329208374,0.5132913589477539,-0.7398268580436707,0.6975843906402588,-1.6304837465286255,0.5432383418083191,-0.44474029541015625,1.0523605346679688,-1.2243276834487915,-1.8023608922958374,1.030903935432434,1.09549081325531,-0.4719856083393097,-1.6330435276031494
/soccer/football_team/current_roster./sports/sports_team_roster/position,-0.2964673340320587,-0.14419040083885193,-0.20319737493991852,-0.21053636074066162,-1.299740195274353,0.015819061547517776,-0.07072543352842331,-0.005441230721771717,0.0021293223835527897,-0.004601365886628628,-0.590491533279419,-0.011834369041025639,-0.014573895372450352,-0.5432941913604736,0.35896340012550354,-0.07308895140886307,-0.03719162940979004,-0.0821453332901001,-0.047619931399822235,-0.6148989200592041,-0.020869256928563118,0.12248224020004272,-0.03240286558866501,-0.3831976652145386,-0.15104787051677704,-0.2637341320514679,-0.24666303396224976,-0.24999073147773743,-0.09326928108930588,-0.2101251184940338,0.011679442599415779,-0.019914761185646057,-0.009111671708524227,-0.1302918642759323,0.2854057550430298,-1.2600054740905762,-0.5011464357376099,-0.03765957057476044,-0.19244563579559326,-0.02094968408346176,-0.3796669840812683,-1.4747525453567505,-0.01016892772167921,-0.16731256246566772,0.050043147057294846,-0.22211091220378876,0.018544165417551994,0.10994753241539001,0.06596431136131287,-0.03601934760808945,0.1526428610086441,-2.353217124938965,-0.033139750361442566,0.006438426673412323,0.036400653421878815,-0.006064772605895996,-0.4703872799873352,0.04088493436574936,-0.25034797191619873,-0.009142967872321606,0.36640632152557373,-0.27473968267440796,-0.5065166354179382,-0.02264825627207756,0.010602261871099472,-0.32249993085861206,0.3800327181816101,-0.043754152953624725,0.07582221180200577,-0.8916121125221252,0.07274585217237473,-0.5046349167823792,-0.019506925716996193,-0.10492008924484253,-0.3666420876979828,0.03310155123472214,0.007006275001913309,-0.12700721621513367,0.2905595600605011,0.0626664087176323,-0.3117663264274597,-0.3622879683971405,0.1306682676076889,-0.1782427877187729,-0.6561453342437744,0.1095757707953453,0.1583082526922226,-0.03138194605708122,0.1466837376356125,-0.002196952234953642,0.006236678455024958,0.019232353195548058,-1.6889301538467407,-0.026185937225818634,1.054870367050171,0.07169175148010254,0.011180009692907333,-0.6095972657203674,-0.06946562230587006,-0.6527770757675171,0.27047199010849,0.0123222004622221,-0.02796683833003044,-0.0016505647217854857,-0.11753743886947632,0.4662695825099945,-0.35292932391166687,-0.008290978148579597,0.06840749084949493,-0.0958191454410553,-0.3041929006576538,0.2357739955186844,-0.0602942630648613,-0.11883807927370071,-0.1533416509628296,0.002747782738879323,-0.025865139439702034,-0.02719593420624733,-0.021348347887396812,-0.002093156101182103,0.009644366800785065,-1.2659605741500854,0.21803069114685059,-0.31151720881462097,-0.017976021394133568,-0.04342057183384895,-0.04343809932470322,0.030582457780838013,-1.716448187828064,-0.06498786062002182,0.15017716586589813,-0.03660636767745018,0.7976060509681702,-0.7782634496688843,1.1014313697814941,-0.21426530182361603,-0.3310339152812958,-0.0728117972612381,-1.330853819847107,0.05908120051026344,0.453381210565567,0.35226574540138245,0.30831313133239746,0.371354341506958,-0.6183494925498962,0.31571629643440247,-0.4731196463108063,-1.4056503772735596,-0.011397375725209713,0.2827621102333069,0.9569993019104004,0.07662887126207352,0.20432813465595245,-0.07286521792411804,-0.7023748755455017,-0.7317078113555908,-0.10744559019804001,0.2670079469680786,0.2621014416217804,0.7451092004776001,0.6258835792541504,1.5585576295852661,-0.13161738216876984,-1.4462273120880127,0.4463939666748047,-0.7583211660385132,-0.1806858330965042,-0.2781147360801697,1.2102116346359253,0.4957418739795685,-1.376276969909668,0.5226544141769409,-0.19184546172618866,-0.33940795063972473,0.2179979830980301,-0.3146829903125763,0.20014822483062744,-0.6246612071990967,0.2403574138879776,-1.084269404411316,-0.37748077511787415,-0.40795353055000305,1.3551137447357178,0.10410840064287186,-0.41243618726730347,-0.15218912065029144,-0.16332867741584778,-0.1749524623155594,0.3874557912349701,0.25442054867744446,1.0404784679412842,0.4504859745502472,-0.04461069405078888,1.2385079860687256,0.08300543576478958,-0.043863628059625626,-0.23775556683540344,-1.942475438117981,-0.15476080775260925,1.1666486263275146,0.18845440447330475,0.4909074604511261,-1.3482786417007446,0.2679935693740845,0.8931987285614014,-1.7889529466629028,-0.7763269543647766,0.3395027220249176,0.13768628239631653,0.043507471680641174,0.06714112311601639,-0.3239246606826782,0.0036379494704306126,0.09133203327655792,0.4150824248790741,-0.1101902648806572,-0.45604458451271057,-0.6248617172241211,0.4487132728099823,0.12864798307418823,-1.4251430034637451,0.7646724581718445,-0.002464849501848221,0.07513556629419327,-0.2835718095302582,0.006355966441333294,0.29995423555374146,2.1142971515655518,-0.057074930518865585,-0.28294140100479126,-0.27211347222328186,-0.3641539216041565,-0.10784661024808884,1.143822193145752,-0.1097075492143631,0.330831915140152,-0.6380861401557922,-0.3504217863082886,-1.145626425743103,-0.2316025197505951,-0.10809167474508286,0.44313499331474304,0.3900388181209564,-0.2564523220062256,-0.4664139449596405,0.16371038556098938,0.2147633582353592,-0.22364479303359985,-0.6130466461181641,-0.7577678561210632,-0.40042465925216675,0.06408531218767166,0.08624628931283951,-0.3243599832057953,-0.15542589128017426,-0.5206146240234375
/soccer/football_team/current_roster./soccer/football_roster_position/position,-0.2945719063282013,0.02329965867102146,0.058933816850185394,-0.011243438348174095,-1.587290644645691,0.030183522030711174,-0.31322699785232544,0.062086500227451324,0.02214433066546917,-0.1794504076242447,-0.3285103142261505,-0.03194519877433777,-0.06595883518457413,-0.4841865599155426,-0.003603791119530797,-0.041762929409742355,-0.0695718452334404,-0.08960501849651337,-0.22012868523597717,-0.6571763157844543,0.31072577834129333,-0.03263270854949951,0.4199458658695221,0.03735462576150894,0.0033618942834436893,-0.16036124527454376,-0.06400200724601746,-0.1464899182319641,-0.42204105854034424,0.0377299003303051,-0.057747673243284225,-0.014769583009183407,-0.1649189591407776,-0.05575621873140335,0.08008943498134613,-0.9783897399902344,-0.20606836676597595,-0.07537905126810074,-0.044313784688711166,-0.019421840086579323,-0.3421233594417572,-1.6704628467559814,0.022742824628949165,0.023612717166543007,-0.0017675309209153056,-0.05611150339245796,-0.03825404867529869,0.011450152844190598,0.16791808605194092,0.16315263509750366,-0.04998018965125084,-2.359646797180176,-0.021204140037298203,0.018031222745776176,0.01276985090225935,-0.8170451521873474,-0.2949487268924713,0.10992802679538727,0.06571798026561737,0.04757519066333771,0.05409504473209381,-0.03142919763922691,0.6638742089271545,-0.409963995218277,0.028090568259358406,-0.32406020164489746,-0.1731186807155609,0.19014158844947815,-0.00903800968080759,-0.9370821118354797,-0.010276351124048233,-0.5021355152130127,-0.0625799372792244,-0.1094934344291687,-0.38041406869888306,-0.03873339295387268,-0.0004814458079636097,-0.32909682393074036,0.07403407990932465,-0.07922269403934479,-0.11981058120727539,0.4880445897579193,0.3022824227809906,-0.1395663321018219,0.004505275748670101,-0.053361132740974426,-0.025743279606103897,-0.06825730204582214,0.005701943766325712,-0.060755301266908646,-0.020736241713166237,0.03380312770605087,-1.7311893701553345,-0.002155645051971078,0.035432375967502594,0.015011425130069256,-0.09211492538452148,-0.5145488381385803,-0.05124572664499283,-0.07698110491037369,-0.08583342283964157,-0.006634138990193605,1.1847599744796753,0.14194294810295105,-0.029982689768075943,-0.21171025931835175,0.0006371550844050944,-0.09263850003480911,0.010127753019332886,-0.04920557141304016,-0.11159565299749374,-0.008978337980806828,0.015579250641167164,-0.23462440073490143,-0.14013999700546265,-0.1343241184949875,-0.037903815507888794,-0.5067247748374939,0.08818970620632172,0.4536888301372528,0.0599372573196888,-1.5014760494232178,-0.30731499195098877,-0.1362122893333435,-0.6159078478813171,0.05998324602842331,0.028672143816947937,-0.26785188913345337,-1.7799993753433228,0.1284084916114807,-0.46003127098083496,-1.251491904258728,1.159928560256958,-0.07720621675252914,0.2627095580101013,-0.6177124977111816,1.385154366493225,-0.6686401963233948,-0.8559494614601135,-0.8279058933258057,0.584880530834198,0.17145758867263794,-0.36964166164398193,0.11663629114627838,-1.4767495393753052,-0.1433127224445343,-0.5088368654251099,-1.2270604372024536,0.12960749864578247,0.7361869812011719,0.36045074462890625,0.08947037905454636,0.1945345550775528,0.028159938752651215,-1.0415065288543701,-0.061922017484903336,0.12424153089523315,0.25235438346862793,0.02889394946396351,0.23149031400680542,1.006126046180725,0.038712505251169205,0.10182773321866989,-1.2881321907043457,0.06851337850093842,-0.8801394104957581,-0.4622192680835724,0.2132282257080078,0.48210200667381287,0.5444492697715759,-1.1051654815673828,1.3785830736160278,-0.28408610820770264,-0.9204910397529602,-0.11014805734157562,-0.9756078720092773,-0.19891047477722168,0.35110190510749817,0.9859345555305481,-1.3751020431518555,-0.052933067083358765,0.029029516503214836,0.0477193258702755,-0.3504001200199127,-0.310604453086853,-0.029812047258019447,-0.6226508021354675,-0.6618634462356567,0.18251515924930573,-0.5579301118850708,-0.8749932050704956,0.8941078782081604,-0.3538723289966583,1.1784889698028564,0.6184808611869812,-0.2688877582550049,-0.8738657832145691,-2.0367093086242676,-0.18693843483924866,1.2965795993804932,1.1250622272491455,-1.0073734521865845,-1.354684591293335,-0.38059332966804504,0.20970959961414337,-1.8144652843475342,0.4979821741580963,-0.0017567963805049658,0.6288658976554871,0.11850757896900177,-0.17156066000461578,-0.05031540244817734,0.08759065717458725,-0.0006948915543034673,0.1558912992477417,0.31957268714904785,-0.3270573019981384,0.13863836228847504,0.34679144620895386,0.09290692210197449,-1.5771948099136353,-0.522523820400238,-0.2617264986038208,-0.21167302131652832,-0.0659552812576294,-0.42737364768981934,0.746931791305542,1.574345350265503,0.2158966064453125,0.09850683808326721,-0.1753663569688797,-0.1731966733932495,-0.2629218101501465,-0.003958879970014095,-0.1804417073726654,-0.46692320704460144,0.21302969753742218,-0.36866816878318787,-1.0252069234848022,-0.2919541299343109,0.42456063628196716,0.22992989420890808,0.7839576005935669,-0.20132428407669067,-0.10754977911710739,0.13144227862358093,0.031400203704833984,-0.0826873630285263,-0.3140966296195984,-0.7510534524917603,0.01269086729735136,0.6896292567253113,0.1264319270849228,0.2640722393989563,-0.6225071549415588,-0.45554012060165405
/film/actor/film./film/performance/film,0.08344390988349915,0.033146243542432785,0.004648678470402956,0.09972381591796875,-1.0288352966308594,-0.09541697800159454,0.12848304212093353,-0.014769967645406723,0.0333067886531353,-0.029279036447405815,-0.44212406873703003,-0.02590731903910637,-0.05936238169670105,-0.6158457398414612,-0.08277065306901932,0.034357085824012756,-0.14870165288448334,0.06900326907634735,0.004140063188970089,-0.3905123770236969,-0.1151636391878128,-0.0777704194188118,-0.07150013744831085,-0.3132074773311615,0.33554351329803467,-0.1045638918876648,0.010593974962830544,0.06799919903278351,0.03782552853226662,0.015423758886754513,0.042226824909448624,0.021207652986049652,-0.07342875003814697,-0.03457151725888252,-0.04284832626581192,-0.3840053677558899,-0.11629235744476318,-0.12849384546279907,0.06838174164295197,0.07986097037792206,-0.12618419528007507,-1.3494821786880493,0.2950841784477234,-0.036529961973428726,-0.22874294221401215,-0.01201669778674841,-0.05838977172970772,-0.07320381700992584,-0.4417575001716614,0.025496026501059532,0.00556922797113657,-1.5197978019714355,0.37594494223594666,-0.00018096520216204226,0.02922576107084751,-0.007464325055480003,-0.17498567700386047,-0.08484429121017456,-0.042646221816539764,0.11038487404584885,0.010632382705807686,-0.024866148829460144,0.012322107329964638,-0.19629579782485962,0.019928010180592537,-0.04548947140574455,0.19807259738445282,0.0625426173210144,0.003295730333775282,-0.7012047171592712,-0.018564634025096893,-0.34738054871559143,-0.038081783801317215,-0.05359712243080139,-0.3513944745063782,-0.18938501179218292,-0.12909851968288422,0.11119778454303741,-0.0018170606344938278,0.12898589670658112,-0.10213731229305267,0.17703573405742645,0.014619147405028343,-0.0251202043145895,0.07134101539850235,0.03521902114152908,0.23553389310836792,0.030883291736245155,-0.029128238558769226,-0.7391682863235474,0.004043926019221544,-0.06802241504192352,-1.190330147743225,-0.025095157325267792,0.008003786206245422,0.08292590826749802,0.034636031836271286,-0.9337244033813477,-0.02324582450091839,-0.5281254053115845,0.07579546421766281,-0.03863118216395378,-0.269419401884079,0.008863753639161587,0.019093411043286324,-0.3899337351322174,0.07835028320550919,0.004504084587097168,-0.03724094107747078,-0.03969893604516983,-0.018184835091233253,0.031616851687431335,-0.009369960054755211,-0.08044108003377914,0.021785466000437737,0.25718095898628235,-0.18949034810066223,0.09486367553472519,0.029265301302075386,0.03879876807332039,-0.2326916605234146,-0.7850435972213745,-0.21619710326194763,-0.04118715599179268,0.009917874820530415,0.03591533005237579,0.006753035821020603,0.028365446254611015,-0.3934048116207123,-0.499675989151001,-0.4127165377140045,0.1149459108710289,-2.41341495513916,-0.6895456314086914,0.5442797541618347,-0.43744033575057983,0.517912745475769,0.023298345506191254,0.6809227466583252,-0.35236984491348267,-0.0006482016760855913,1.3871177434921265,-0.16005556285381317,-0.625802755355835,-0.25545305013656616,0.4232321083545685,-0.685899555683136,-0.5217278003692627,-0.5764275789260864,0.10939714312553406,0.09991828352212906,-1.116007685661316,-0.08290457725524902,0.03745712339878082,0.48888441920280457,-0.8759343028068542,-0.10476400703191757,-0.26708486676216125,0.21332809329032898,-0.11927137523889542,0.20973841845989227,-0.0556185208261013,0.3663652837276459,-1.1290093660354614,0.46483245491981506,-1.007647156715393,-0.5278459787368774,-0.01589021645486355,0.39682871103286743,2.255530595779419,0.4085164964199066,-0.651256263256073,0.21546778082847595,-0.4825246036052704,-0.13392023742198944,0.4284903407096863,0.15969696640968323,0.047415103763341904,-0.5049693584442139,-4.652366638183594,-0.15727666020393372,-0.22165685892105103,0.7655891180038452,-0.3949359953403473,0.7753826379776001,-0.17116659879684448,-0.6063870787620544,-0.8360674381256104,-0.1622849553823471,0.2964462637901306,0.6978804469108582,-0.6793161630630493,0.5220235586166382,0.376964807510376,-0.44507908821105957,0.1900213360786438,0.309400349855423,-0.4538830816745758,0.45693278312683105,-0.327189177274704,-0.2949002683162689,1.0228378772735596,1.5695319175720215,0.23058021068572998,0.04737791791558266,-0.04544705152511597,0.18509013950824738,0.3282623589038849,0.03766068071126938,0.22789832949638367,-0.06786009669303894,-0.19976511597633362,-0.20269891619682312,0.1829623430967331,-0.24324123561382294,0.3362560272216797,0.2948909401893616,-0.30539730191230774,-0.36408984661102295,0.2315090149641037,0.0781983807682991,-0.1407957524061203,-0.13468043506145477,0.3828752040863037,0.22215259075164795,1.753517746925354,-0.4855259358882904,0.4216957092285156,-0.21038919687271118,0.012341655790805817,0.26413199305534363,-0.19070763885974884,-0.16694922745227814,0.6780650615692139,-0.4993961751461029,-0.011465199291706085,-0.058942779898643494,0.3976686894893646,0.21723367273807526,-0.30441319942474365,-0.474854975938797,0.6594808101654053,-0.49087730050086975,0.12024466693401337,-0.020847590640187263,-0.7120925784111023,-0.15324178338050842,-0.5003863573074341,-0.868600606918335,-1.5049231052398682,-0.46320241689682007,0.3451049029827118,-0.3248703181743622,-0.02101045660674572,-0.7658821940422058,-0.9478184580802917
/award/award_category/nominees./award/award_nomination/nominated_for,-0.12236206978559494,-0.13864585757255554,-0.39607083797454834,-0.2950683832168579,-1.332127571105957,0.06123717129230499,0.39336952567100525,0.002176016103476286,-0.5742735266685486,-0.07479995489120483,-0.28450605273246765,-0.15085792541503906,0.044271115213632584,-0.8202462792396545,0.46271347999572754,0.16493193805217743,-0.3520563840866089,0.04285845905542374,-0.2819271981716156,-0.580025851726532,-0.24205774068832397,-0.4846595823764801,-0.09313465654850006,-0.47592219710350037,-0.17821180820465088,-0.15228214859962463,-0.25611740350723267,0.04375457763671875,0.5746949911117554,-0.20583775639533997,-0.04251162335276604,0.015746524557471275,0.5130335688591003,0.06617621332406998,-0.10876165330410004,-0.7007864713668823,-0.2187906950712204,-0.07144283503293991,0.34540602564811707,0.111562579870224,0.06245079264044762,-1.0638408660888672,-0.7583498358726501,0.014928385615348816,-0.22600434720516205,-0.005433999001979828,0.010051446035504341,-0.3038187026977539,0.20703628659248352,-0.013924953527748585,-0.2482651323080063,-1.854528546333313,0.05846257135272026,0.12066636234521866,-0.00441183103248477,0.13464561104774475,-0.45730361342430115,0.17862896621227264,0.18179553747177124,0.044926054775714874,-0.41263169050216675,0.01881638914346695,0.15788012742996216,-0.3213490843772888,0.12568292021751404,-0.029784999787807465,-0.12755882740020752,-0.1052904725074768,-0.07645783573389053,-0.9982250332832336,0.13652704656124115,-0.6178830862045288,-0.08577212691307068,-0.23277676105499268,-0.0651543065905571,-0.07247599959373474,-0.014018571004271507,-0.11270377784967422,-0.016357745975255966,-0.019192108884453773,0.10159865766763687,0.1353583037853241,0.020195456221699715,0.04775821417570114,0.2846945822238922,0.16922329366207123,-0.272769957780838,-0.5082144141197205,-0.17563363909721375,-0.3616156578063965,0.19280192255973816,-0.10163959115743637,-1.177314043045044,-0.05010955035686493,0.004155162256211042,0.03362872824072838,-0.11039422452449799,-1.4343793392181396,-0.028184374794363976,-0.4291667938232422,-0.11657106131315231,-0.05312482267618179,-0.18786190450191498,0.5216901898384094,-0.0887402892112732,-0.3090308606624603,0.052395738661289215,0.011598785407841206,0.15037670731544495,-0.6447039842605591,-0.5207622051239014,-0.2811391055583954,-0.2633311152458191,-0.45883944630622864,0.3563039004802704,0.012659216299653053,-0.27282387018203735,0.18963073194026947,-0.11860419064760208,0.03813167288899422,-0.19425706565380096,-1.3974727392196655,-0.49425017833709717,0.22599974274635315,-0.07595249265432358,0.0556119903922081,0.031440574675798416,-0.1119423434138298,-0.9638257026672363,0.06668161600828171,-0.5216317772865295,0.3344593942165375,-2.4950873851776123,-0.6625581383705139,-0.7832311987876892,0.03239593282341957,0.9604067206382751,0.23911604285240173,-0.49152982234954834,0.48299115896224976,0.5965265035629272,-1.4515329599380493,0.1542162448167801,0.05342554673552513,-0.48201948404312134,-1.3374921083450317,-0.19961105287075043,0.643375039100647,1.2520785331726074,-1.0468426942825317,-0.1187380999326706,-1.4062955379486084,-0.42108154296875,-0.5514792799949646,0.30863749980926514,-0.4140315353870392,-0.6790628433227539,1.6975419521331787,-0.6777337789535522,0.3130991756916046,0.5904800891876221,-0.04554329439997673,-0.6146290898323059,-2.3358492851257324,0.12952487170696259,0.43636175990104675,0.2719237208366394,0.7541642785072327,0.7076646089553833,4.943943977355957,2.0499634742736816,-1.4637376070022583,0.43473854660987854,0.4093990921974182,-0.16372810304164886,0.0841812938451767,-0.25999724864959717,0.034902218729257584,-0.6306517124176025,-3.0102226734161377,0.8571854829788208,0.004354224074631929,1.4793915748596191,-0.21873150765895844,0.3264002203941345,0.5380539298057556,0.699562668800354,0.7312169075012207,-0.2598605751991272,-0.7153511643409729,0.21528860926628113,-0.2660605311393738,0.2590501308441162,-0.3463248014450073,-0.41381072998046875,-0.2879191040992737,0.18272928893566132,-0.8029686212539673,-0.39432504773139954,-0.8579878211021423,-2.3474106788635254,0.37415769696235657,0.5925449132919312,-0.15924707055091858,0.5823447108268738,0.5019033551216125,-0.6180555820465088,-1.2179725170135498,0.05444370210170746,0.3440972864627838,2.470707416534424,-0.39244142174720764,0.5187292695045471,0.08424391597509384,0.018851235508918762,0.3651311993598938,0.11605363339185715,0.21276630461215973,-0.9862385392189026,0.6423072218894958,-0.0360054075717926,2.2126810550689697,-0.30488428473472595,-1.013053059577942,-0.6298656463623047,1.902413010597229,-0.13513332605361938,1.2967076301574707,-0.29455408453941345,-0.21344859898090363,1.0121023654937744,-1.566747784614563,-0.3930673599243164,0.49325090646743774,0.10850132256746292,-2.322998523712158,-0.5233254432678223,1.1578041315078735,-0.6536291837692261,0.6716105937957764,0.5883764028549194,-0.32043397426605225,0.9000617861747742,-0.7687231302261353,0.23993432521820068,0.06743783503770828,0.0031315963715314865,-0.2801465690135956,-0.16960106790065765,-3.12263560295105,0.33005353808403015,-0.1711149960756302,-0.43459460139274597,-0.3068475127220154,-0.3418234884738922,0.1304217129945755
/award/award_nominee/award_nominations./award/award_nomination/award_nominee,-0.5429169535636902,-0.0432388037443161,-0.010561659932136536,-0.06221072003245354,-1.549512505531311,-0.10336436331272125,0.01423811074346304,0.3484722375869751,0.06777382642030716,-0.9112744331359863,-0.7399810552597046,-0.28193575143814087,-0.4886060357093811,-1.2986496686935425,0.021522412076592445,-0.1454840749502182,-0.051569864153862,-0.0619385726749897,-0.016502467915415764,-0.9441544413566589,-0.11653172969818115,0.08660778403282166,-0.08402411639690399,-0.34914737939834595,-0.014969643205404282,0.034024327993392944,-0.21910731494426727,-0.3890734314918518,-0.0036246359813958406,-0.22194291651248932,-0.11422602832317352,-0.0310911163687706,-0.058771610260009766,0.10621433705091476,0.5412979125976562,-0.25914716720581055,-0.021072952076792717,-0.03921346738934517,0.083403080701828,-0.025322839617729187,-0.08019823580980301,-1.6042332649230957,0.6998851299285889,-0.07522915303707123,-0.10441276431083679,-0.10872894525527954,-0.12453603744506836,-0.016187718138098717,-0.013717995025217533,0.014140982180833817,0.21503211557865143,-2.020235300064087,-0.02968388795852661,-0.02172856219112873,-0.05231187865138054,-0.1056784987449646,-0.20669931173324585,-0.19406718015670776,-0.006519101094454527,-0.13258716464042664,-0.2363114207983017,-0.5621823072433472,-0.11508800834417343,-0.02472677454352379,-0.13376331329345703,-0.021218545734882355,-0.25977596640586853,0.3431290090084076,-0.13083618879318237,-1.1937832832336426,-0.05992705002427101,-0.6838732361793518,-0.10304206609725952,-0.17364917695522308,-0.47326546907424927,0.08852750808000565,-0.1512095332145691,-0.10171069949865341,-0.04199647158384323,-0.010912830010056496,0.20506837964057922,-0.18713992834091187,-0.08163116872310638,0.15748775005340576,-0.00826798751950264,-0.1314670592546463,0.00701838918030262,-0.6313750147819519,-0.15929248929023743,0.08320046961307526,-0.08293499797582626,-0.41486090421676636,-1.6976598501205444,0.10154616832733154,-0.06867315620183945,-0.05672810599207878,0.3935161828994751,-1.164320468902588,-0.0323132686316967,-0.9415242075920105,-0.21008621156215668,-0.2704703211784363,-0.6597527265548706,-0.11440742015838623,-0.09393519163131714,-0.5313553214073181,-0.11160395294427872,0.032775215804576874,0.12490513175725937,-0.12886840105056763,-0.21210713684558868,0.05557532235980034,0.040699347853660583,-0.05977138131856918,0.11605364829301834,0.12244613468647003,-0.03414522856473923,-0.40441814064979553,0.14987759292125702,-0.003497289028018713,-0.023375025019049644,-1.0485659837722778,-0.34941422939300537,0.13726161420345306,-0.05503496155142784,-0.011507056653499603,0.21819338202476501,-0.03860558196902275,-1.1091594696044922,1.2489954233169556,-0.6468437314033508,-0.7418252229690552,0.10756668448448181,0.014723045751452446,0.4619179368019104,-0.8342006206512451,-0.10710714757442474,0.5060861706733704,1.0920677185058594,-1.1158853769302368,-0.25666543841362,-2.276818037033081,-0.6581169962882996,-1.0125007629394531,-0.2994316518306732,-1.943334937095642,-1.1681416034698486,0.6718865036964417,-1.874231219291687,0.04009155556559563,0.9473796486854553,-1.0041919946670532,0.900870680809021,0.6106179356575012,1.0376243591308594,1.0990538597106934,-1.1384680271148682,-0.08524448424577713,1.8077616691589355,-0.7203376889228821,1.496579885482788,0.8236294984817505,0.3948846459388733,0.06908746063709259,-0.43907272815704346,-0.8276428580284119,0.03032383695244789,-1.7220652103424072,-0.9925498366355896,0.6663030385971069,0.5111109018325806,0.30812907218933105,-1.5255094766616821,-0.8786330223083496,-0.06628909707069397,0.4946642518043518,0.3294242024421692,-0.14282813668251038,1.337290644645691,2.948981761932373,0.9029847979545593,-0.9688234329223633,0.9872133135795593,-0.0017236105632036924,-1.4665194749832153,0.49039849638938904,-0.4629423916339874,-0.7141037583351135,1.6376725435256958,-0.6635550856590271,-1.8275989294052124,1.1400809288024902,-1.4516127109527588,-0.49308302998542786,-0.8624207973480225,1.2312171459197998,-0.5779751539230347,-0.8850741386413574,-2.0136818885803223,0.7688079476356506,-0.9207897782325745,-1.0172938108444214,0.5836431980133057,0.09890476614236832,-0.6167224049568176,0.3746435344219208,-2.342060089111328,0.47349703311920166,0.05698150023818016,-1.3210102319717407,-0.9808018207550049,-0.2907366454601288,0.6000204086303711,1.5590661764144897,0.1629904955625534,0.8380107283592224,1.0682846307754517,-0.5535600185394287,1.550811767578125,-0.20879924297332764,-0.7565773129463196,1.1828272342681885,-0.40881577134132385,-1.3147553205490112,-1.1241395473480225,0.9357861280441284,0.16030028462409973,0.21175429224967957,1.506956934928894,1.9366352558135986,0.32147541642189026,1.596531629562378,1.6168162822723389,1.4740813970565796,1.3129935264587402,0.345106303691864,-0.7558482885360718,0.4768688380718231,0.7589145302772522,1.0273023843765259,-0.3115399181842804,1.9590578079223633,1.168397307395935,0.01648985780775547,-0.713054358959198,0.8171173334121704,-1.5701969861984253,0.6003886461257935,-0.28813332319259644,1.1895475387573242,-1.2851133346557617,-1.2650383710861206,0.16477294266223907,0.6264915466308594,-0.07233915477991104,-1.4744423627853394
/music/performance_role/regular_performances./music/group_membership/role,-0.7773579359054565,-0.13238954544067383,-0.07144269347190857,0.33457717299461365,-1.6939568519592285,-0.020859332755208015,0.1423889398574829,0.008225955069065094,0.8333938121795654,-0.07047179341316223,-0.5811652541160583,0.10559936612844467,-0.22603482007980347,-0.5136877298355103,-0.09366985410451889,-1.0284806489944458,-0.4381726086139679,0.10194727778434753,-0.4075304865837097,0.1402384489774704,0.18917180597782135,-0.06679987907409668,-0.09449093788862228,-0.634155809879303,0.05247485637664795,0.15272344648838043,-0.3099409341812134,0.3100779354572296,0.4356614947319031,-0.06890609115362167,-0.03544393554329872,-0.04036344960331917,0.041473351418972015,-0.047299545258283615,0.8300753831863403,-0.8729009628295898,-0.4511261284351349,0.2737925350666046,0.25431618094444275,-0.5281384587287903,-0.3206888735294342,-1.4559383392333984,0.09875449538230896,0.12871548533439636,0.12048438936471939,-0.09286170452833176,0.3171180486679077,-0.010400152765214443,0.32298582792282104,0.1184641569852829,-0.15844380855560303,-1.7448456287384033,0.308891624212265,-0.005904048681259155,0.13800442218780518,0.11472577601671219,-0.22275780141353607,-0.14409232139587402,-0.021599678322672844,0.18219022452831268,-0.21104969084262848,-0.6985325217247009,-0.7400457859039307,0.1221616193652153,0.35781002044677734,0.021749252453446388,-0.6390125751495361,-0.5417593121528625,-0.033106766641139984,-1.3764806985855103,-0.7725957632064819,-0.786323606967926,-0.18737509846687317,0.03977101668715477,0.1623537391424179,-0.02099505066871643,0.011408662423491478,0.26244407892227173,-0.06569597870111465,-0.1703852117061615,0.07202666252851486,-0.04913070797920227,-0.28737786412239075,-0.6419597268104553,-0.012865773402154446,0.02415417693555355,0.0011555860983207822,0.2730034291744232,-0.023898353800177574,0.09929899871349335,-0.010134358890354633,0.045474521815776825,-1.4026097059249878,-0.3826293349266052,-0.2294340878725052,-0.059951987117528915,0.29030463099479675,-1.2172400951385498,0.20756925642490387,-0.87494295835495,-0.009504251182079315,0.22733965516090393,-0.3221331536769867,-0.10044073313474655,0.14217416942119598,-0.8144025802612305,-0.3760349750518799,0.014852570369839668,-0.242739737033844,-0.33526310324668884,-0.6114999055862427,0.0023020270746201277,-0.3529623746871948,-0.22325187921524048,0.15018121898174286,0.007199232466518879,0.0698530375957489,0.28516340255737305,-0.600138783454895,-0.09621471911668777,-0.022617829963564873,-1.4059396982192993,-0.1040889099240303,0.1681196689605713,-0.10094624757766724,0.5474262833595276,-0.30245476961135864,-0.5777008533477783,0.8033963441848755,-0.1774030178785324,0.6650187373161316,-0.3094339072704315,-2.9869256019592285,0.15933857858181,1.1678367853164673,-0.17022958397865295,-0.28420403599739075,0.4729315936565399,-0.1492847502231598,0.1778871715068817,-0.14773833751678467,-0.29079028964042664,0.1263430267572403,-0.25292766094207764,0.01985669694840908,-0.9841145873069763,0.9890941381454468,1.7291431427001953,-0.22393377125263214,1.0458377599716187,1.8472843170166016,-1.2293188571929932,0.046438783407211304,0.5275772213935852,3.1131086349487305,0.7220438122749329,0.3721769154071808,0.47511395812034607,-0.2329999804496765,-1.1407498121261597,-0.6567002534866333,0.7616429924964905,-0.38610050082206726,-1.160644292831421,1.1640331745147705,0.13062536716461182,0.3034479022026062,-0.7860439419746399,-1.464722752571106,-1.0271852016448975,-0.47326070070266724,-0.7669343948364258,-0.5273675918579102,0.22441646456718445,0.2930300831794739,0.5357945561408997,-1.0697499513626099,0.6590988039970398,-1.0372625589370728,0.07896781712770462,-0.2705135643482208,-0.07115381956100464,-0.4790571630001068,-0.7769903540611267,-0.293038547039032,1.081551194190979,-0.19708123803138733,-0.5573593378067017,0.6985219717025757,0.9928678274154663,1.377882480621338,-0.3063328266143799,1.6035501956939697,1.0510220527648926,-0.5227616429328918,-1.8579682111740112,0.7488952875137329,-2.157581090927124,0.16677026450634003,0.47475355863571167,1.284408688545227,1.6583924293518066,0.05792798846960068,-2.1194698810577393,-1.4159469604492188,0.3335581421852112,0.17157216370105743,-1.1014721393585205,-0.7293111085891724,-0.34912052750587463,0.25220099091529846,0.1287495642900467,0.5783334970474243,-0.14512798190116882,-0.40503156185150146,-0.7145462036132812,-1.4663437604904175,0.7175799608230591,-1.352726697921753,-0.04864083603024483,1.2514201402664185,0.18786342442035675,1.1322622299194336,-0.38403454422950745,-0.12982308864593506,-2.0164239406585693,0.814354658126831,-1.9278936386108398,-0.34412482380867004,-0.046817559748888016,0.4597894847393036,1.481680154800415,0.836365818977356,0.731807291507721,0.7892435193061829,0.6284722089767456,0.9584598541259766,0.8107349872589111,-0.4062027037143707,-0.5775745511054993,-0.2820223569869995,0.9420922994613647,-0.0020297898445278406,-0.5097275972366333,-0.7425424456596375,-1.6488205194473267,0.5226435661315918,-0.23263825476169586,-0.8290999531745911,0.5397955775260925,-0.882827639579773,-0.08857538551092148,-0.37720754742622375,-0.8623310327529907,-0.10422393679618835,0.2619236409664154
/award/award_category/winners./award/award_honor/ceremony,-0.39688220620155334,0.190186008810997,-0.031116588041186333,-0.07828374952077866,-1.3188587427139282,-0.3362206220626831,0.04094080254435539,-0.17936180531978607,0.2936707139015198,-0.15831699967384338,-0.8427726030349731,-0.1458137333393097,0.004073852673172951,-1.1152900457382202,0.5132935643196106,-0.14702440798282623,-0.08872371912002563,0.513027012348175,-0.019294196739792824,-0.7452503442764282,-0.07011175900697708,-0.24038706719875336,-0.08513422310352325,-0.8441619873046875,0.38664063811302185,0.24835489690303802,0.21641109883785248,-0.4002303183078766,0.08198681473731995,0.11023437231779099,0.056359484791755676,0.35088807344436646,0.07636141031980515,0.266825795173645,-1.2676374912261963,-0.8552386164665222,-0.24677975475788116,0.03822893649339676,-0.03848377242684364,-0.3683813810348511,-0.3816418945789337,-1.7241507768630981,-0.2014792114496231,-0.13567624986171722,0.20902590453624725,-0.4368319511413574,0.14394566416740417,-0.23676100373268127,1.145768404006958,-0.04260960593819618,0.10373682528734207,-1.7421536445617676,0.03490186855196953,-0.6325735449790955,-0.11410661041736603,-0.207959845662117,-0.20323094725608826,0.1651974767446518,-0.6050152778625488,-0.17459270358085632,0.5282427668571472,0.6464725136756897,0.0721450001001358,0.11037956178188324,0.5715072154998779,0.11075224727392197,0.12097723037004471,0.00047045614337548614,0.020756948739290237,-1.4132426977157593,-0.14526192843914032,-0.8375035524368286,-0.15860669314861298,0.044636983424425125,-0.5292477607727051,-0.1711745262145996,-0.9208939075469971,-0.038360487669706345,0.019172724336385727,0.10857389122247696,-0.0031281013507395983,0.17350272834300995,0.2542598247528076,0.0535287968814373,0.011065295897424221,0.3293933868408203,1.0977271795272827,-0.26837158203125,-0.379141241312027,0.24800251424312592,0.028614703565835953,-0.4333189129829407,-1.6063789129257202,-0.5239589810371399,-0.1114969328045845,0.04122456908226013,0.34558990597724915,-1.0852962732315063,0.05607366934418678,-1.0691828727722168,-0.35758522152900696,0.4169769287109375,-0.015550726093351841,-0.1775292009115219,0.07728119939565659,0.4811883866786957,-0.4847138822078705,0.12437418848276138,0.9264097213745117,-0.011395006440579891,-0.412188857793808,1.2040092945098877,-0.18502740561962128,-0.5686928629875183,0.43974775075912476,-0.14546243846416473,-0.7671608924865723,0.558443546295166,0.04078105837106705,-0.15174107253551483,-0.37651702761650085,-1.0766310691833496,-0.6777470707893372,0.7550171613693237,-0.09369523078203201,-0.06093988195061684,0.07139291614294052,-0.27091339230537415,-0.7824366092681885,0.28256282210350037,-0.4448179304599762,0.301397442817688,2.393768310546875,0.3394039571285248,-0.0016915462911128998,-0.1426769345998764,0.13355806469917297,-0.00275525264441967,0.5354093313217163,-0.6227078437805176,-0.5269614458084106,2.723766565322876,-0.40413379669189453,0.8927789330482483,0.2089233249425888,1.027141809463501,0.20730192959308624,3.119832992553711,-0.1957015097141266,0.8382881879806519,0.9964556694030762,2.4336724281311035,0.11643238365650177,0.7643243670463562,1.15184485912323,0.19855955243110657,0.4470343291759491,-0.16166824102401733,-0.08812957257032394,0.06146666035056114,0.07612167298793793,1.093421220779419,-0.4473660886287689,4.530820846557617,0.3399033844470978,-0.35274219512939453,0.08146277070045471,0.040985945612192154,0.14290904998779297,6.101961135864258,-0.479419082403183,0.3507895767688751,-1.2769126892089844,-0.03983709588646889,0.5572566986083984,-0.34132397174835205,-0.34185630083084106,-0.05080808326601982,-0.7392957806587219,2.3893628120422363,0.5592147707939148,0.5495814085006714,1.1836276054382324,-0.4522319734096527,-0.9627277255058289,0.0634077787399292,-1.8620930910110474,-0.23328645527362823,0.7335432171821594,0.04581940174102783,0.44361448287963867,-0.037084806710481644,-0.22667980194091797,-0.2858350872993469,-0.0410613939166069,0.4808287024497986,-0.8689441084861755,-1.4089757204055786,0.12157873064279556,-3.1976096630096436,0.34332212805747986,-0.5046748518943787,1.3182836771011353,2.2457387447357178,1.1327779293060303,0.08383241295814514,-1.0455254316329956,-1.107415795326233,1.3046196699142456,2.115375280380249,2.1487598419189453,0.03201349452137947,0.8503296971321106,0.2524895966053009,-0.8250724673271179,-0.7641255855560303,-0.28205230832099915,1.6853950023651123,-0.22862693667411804,-0.1644580215215683,4.175232410430908,0.42684027552604675,0.9505428075790405,-1.1642147302627563,-0.8168467283248901,-2.4654603004455566,0.9155505895614624,0.055822666734457016,1.9364888668060303,-0.39520585536956787,-1.682492733001709,0.5660876035690308,-0.6012121438980103,1.2663995027542114,-0.15726415812969208,-0.18584023416042328,-1.038278579711914,-0.823547899723053,-1.1309731006622314,0.320922315120697,0.04584091156721115,0.7013025283813477,0.8309440612792969,0.2576221525669098,0.406502902507782,-3.0828559398651123,-0.26518574357032776,-1.6659038066864014,-0.09925203025341034,-3.917393684387207,-3.165297508239746,0.014775238931179047,-1.252477765083313,-0.9544711709022522,-1.0282455682754517,0.011231981217861176
/film/film/release_date_s./film/film_regional_release_date/film_release_distribution_medium,-0.2805114984512329,0.005738089792430401,0.011368022300302982,0.3549499809741974,-1.5926471948623657,0.017276503145694733,-0.0551934652030468,-0.002108660526573658,-0.009259192273020744,-0.010781551711261272,-0.4732203781604767,0.12182183563709259,0.019232919439673424,-0.8426096439361572,0.04078371822834015,-0.12376923859119415,-0.15389569103717804,0.020460568368434906,-0.05707535892724991,-0.4197152853012085,-0.049088869243860245,-0.03146287053823471,0.9150112271308899,-0.34494107961654663,0.00322687067091465,-0.06996505707502365,-0.13320401310920715,-0.05164383724331856,0.12910865247249603,-0.011697234585881233,0.20434266328811646,0.010827497579157352,0.14628584682941437,-0.023381171748042107,0.22262631356716156,-0.5027482509613037,-0.26101118326187134,-0.01926196739077568,-0.013031182810664177,-0.056333500891923904,-0.031139351427555084,-1.628800868988037,0.0846361443400383,-0.31721755862236023,0.003409921657294035,-0.0025930856354534626,-0.012202620506286621,0.13246747851371765,-0.016517089679837227,0.00576569139957428,0.00048159167636185884,-2.071439027786255,-0.056593503803014755,-0.5676054954528809,0.23249542713165283,0.0657777488231659,0.14919622242450714,-0.020958680659532547,0.1394004225730896,-0.039756689220666885,0.01734696887433529,0.013332604430615902,-0.019283322617411613,-0.00918163638561964,-0.012353501282632351,-0.023511039093136787,0.012104220688343048,-0.05476018413901329,0.01264584343880415,-1.367594599723816,0.239470437169075,-0.15923026204109192,-0.06804407387971878,-0.10750900954008102,-0.3067065477371216,-0.014092127792537212,-0.01174179371446371,0.006237741094082594,-0.0811794325709343,-0.19168983399868011,0.06820724904537201,0.03410819172859192,-0.006060326937586069,0.002287171082571149,-0.03027523308992386,0.03226357698440552,-0.02853330969810486,0.12414643913507462,0.0033701660577207804,-0.24462324380874634,-0.015552048571407795,-0.7002362608909607,-1.9115328788757324,-0.07950291037559509,-0.003617014968767762,0.0023840030189603567,-0.006423499900847673,-1.3187384605407715,0.15273578464984894,-1.1929268836975098,0.0012076206039637327,-0.023925378918647766,-0.015433821827173233,0.006057485472410917,0.008089091628789902,-0.17175734043121338,0.007602325174957514,0.012350229546427727,0.03223757445812225,-0.019081877544522285,0.029213648289442062,-0.0022649825550615788,0.008691104128956795,0.13860933482646942,-0.013155086897313595,0.0067217727191746235,0.04571394622325897,-0.006352303083986044,-0.004362667910754681,-0.04758907109498978,-0.02390318363904953,-0.8478498458862305,-0.057130053639411926,0.6241370439529419,-0.17886723577976227,-0.02080247737467289,-0.042058832943439484,0.06256476044654846,-1.703958511352539,0.17020153999328613,0.1022278368473053,0.09136068820953369,1.9000521898269653,-0.07614901661872864,0.7987152338027954,0.8289085626602173,0.2842232882976532,0.3916952908039093,1.07547926902771,0.03575839474797249,0.4913112223148346,-2.6349494457244873,-0.8811266422271729,0.009324239566922188,-0.021086830645799637,0.2044629156589508,-0.28144994378089905,1.8072268962860107,0.045363783836364746,0.14228491485118866,-0.06268489360809326,-1.660639762878418,-0.014700889587402344,0.8058081865310669,-0.4010533094406128,0.2083708941936493,-0.11806432157754898,-0.08994169533252716,0.32386547327041626,-0.006255361717194319,-0.21320867538452148,0.6493054032325745,0.4534236788749695,-1.1927893161773682,1.1965863704681396,-1.081641674041748,0.1655149757862091,0.13737696409225464,-0.22863133251667023,-3.503469228744507,0.3358657956123352,0.08776399493217468,0.029721034690737724,-0.3515017628669739,0.19732370972633362,0.026839321479201317,0.6521921753883362,-0.11890556663274765,-1.0698413848876953,-1.5913596153259277,0.12337682396173477,-0.07635615020990372,0.22056320309638977,0.2091389298439026,-0.0775970071554184,-0.07034789025783539,0.050461385399103165,0.034546852111816406,0.08747506886720657,0.2551369369029999,0.20492881536483765,0.05418774485588074,-0.15181788802146912,0.26453155279159546,-0.2358396053314209,0.18023870885372162,-0.0019302032887935638,1.1823185682296753,-0.019672220572829247,0.44427090883255005,0.4558858573436737,0.24956505000591278,2.3265011310577393,-0.15385298430919647,-0.02124042995274067,-0.25861096382141113,0.24610701203346252,0.15530933439731598,-0.3737139105796814,0.09828411787748337,-0.6294911503791809,-0.16787011921405792,0.20942288637161255,0.10511261224746704,-0.8546064496040344,-0.2732045352458954,0.10747795552015305,0.7248199582099915,-0.21697139739990234,0.06852339208126068,3.9215550422668457,0.09670858085155487,-0.12192187458276749,0.13798506557941437,0.10119202733039856,0.9969273209571838,-0.31152576208114624,-2.7689576148986816,0.39604899287223816,-0.44837987422943115,0.21182020008563995,-0.2057649940252304,0.3702271282672882,0.40958648920059204,-0.15196268260478973,0.29222655296325684,-0.12451150268316269,0.0806812047958374,0.19952161610126495,0.060800228267908096,0.012320765294134617,0.4669824540615082,0.28587937355041504,0.08753107488155365,-0.21490952372550964,0.008192905224859715,-0.2314334213733673,-0.06941420584917068,-0.16168206930160522,1.3614908456802368,-0.0688246637582779,0.43545010685920715,0.07334016263484955,0.9268563389778137,-0.5259997844696045,0.24446044862270355
/award/award_winning_work/awards_won./award/award_honor/award_winner,-0.3325844407081604,-0.010310216806828976,0.24229297041893005,0.2550800144672394,-1.0764002799987793,-0.02926911972463131,-0.021102827042341232,-0.04335426539182663,0.032068584114313126,-0.08404618501663208,-0.34468555450439453,-0.13952653110027313,-0.08326085656881332,-0.7976166009902954,-0.1274273842573166,0.07094252854585648,0.18201853334903717,-0.49671533703804016,0.07856488972902298,-0.7133978009223938,-0.05362716317176819,-0.6465283632278442,-0.2614736557006836,-0.4288328289985657,0.017753208056092262,-0.1430446207523346,-0.09304311871528625,0.11277150362730026,-0.08315068483352661,0.15214551985263824,0.005986930336803198,-0.13923592865467072,-0.0010392367839813232,-0.2834394872188568,-0.2410236895084381,-0.5137832760810852,-0.17801180481910706,-0.11572914570569992,-0.09737031161785126,-0.08144218474626541,0.02856837585568428,-1.2960045337677002,0.1889093965291977,-0.28083938360214233,-0.12643741071224213,-0.002905685920268297,0.11495530605316162,-0.015519428998231888,-0.03749478608369827,0.07836085557937622,-0.08282224088907242,-1.6736352443695068,-0.00881937239319086,-0.011497602798044682,0.03267338499426842,-0.04990300536155701,-0.19745077192783356,-0.05586577206850052,-0.1891222894191742,0.27107110619544983,-0.0800362154841423,-0.013279911130666733,0.016935572028160095,-0.018119817599654198,-0.019738877192139626,-0.12633290886878967,0.15436290204524994,-0.002159169176593423,0.0597585029900074,-0.964220404624939,-0.022262398153543472,-0.3145693838596344,-0.053405046463012695,-0.021152833476662636,-0.38947391510009766,-0.0815776064991951,0.12649239599704742,-0.08865409344434738,0.08169366419315338,0.167160764336586,-0.007119514513760805,0.11262152343988419,-0.048526909202337265,0.06067052111029625,0.010084584355354309,0.010798097588121891,-0.2583790421485901,0.028220830485224724,-0.05549001321196556,-0.029381433501839638,0.03452049568295479,-0.16539247334003448,-1.5287284851074219,0.03494139760732651,0.0524146668612957,0.03815913572907448,0.2259211242198944,-1.1576251983642578,0.11220766603946686,-1.0129345655441284,-0.049354612827301025,-0.06240186095237732,-0.16036434471607208,0.07056703418493271,0.00014036406355444342,-0.28483811020851135,0.08422615379095078,-0.005358235444873571,0.00017882714746519923,-0.2952420711517334,-0.05554596707224846,0.05689452588558197,0.07491190731525421,-0.20449048280715942,0.0059270611964166164,0.06836029142141342,0.050676457583904266,0.16832047700881958,0.05865207687020302,-0.015329345129430294,0.09335498511791229,-0.7662129402160645,-0.27419453859329224,-0.0038202041760087013,-0.07685152441263199,0.5101029872894287,0.0021975087001919746,0.021854231134057045,-0.4218938946723938,-0.3770018219947815,0.005446799099445343,0.38918474316596985,0.4776138663291931,-1.5742998123168945,1.767570972442627,-0.41489043831825256,0.42421281337738037,0.5625663995742798,0.010333867743611336,0.4841703474521637,-0.4531465768814087,-1.8905850648880005,-1.3726654052734375,-1.3922977447509766,-0.05546126142144203,-0.3238890767097473,-1.277785301208496,0.9026967883110046,-0.8146371841430664,-0.5346652269363403,0.31198230385780334,-0.6258627772331238,-0.5494567155838013,-0.7636790871620178,1.0336759090423584,-1.0567163228988647,0.18563035130500793,-0.39101657271385193,-0.44755834341049194,-0.5353121757507324,-0.17143648862838745,-0.8141351342201233,-0.24998711049556732,0.10065281391143799,0.8615376949310303,-1.6747514009475708,-0.4727638065814972,-0.40524545311927795,-0.11753084510564804,0.5510765314102173,0.6347689628601074,-1.531922459602356,0.44406747817993164,-0.026720533147454262,-0.461876779794693,0.6323992609977722,1.3287014961242676,0.4190182387828827,0.7098571062088013,5.577844619750977,-0.07197505235671997,-0.5876456499099731,1.2382477521896362,-0.18878057599067688,0.9296507239341736,-0.1978507786989212,-1.6539613008499146,-1.6344555616378784,-0.28241676092147827,1.278579831123352,1.5573534965515137,-0.9494026899337769,0.5214913487434387,0.08723761886358261,-1.5364408493041992,-0.8513704538345337,0.2651558518409729,-0.2782037556171417,0.27245283126831055,0.5728533267974854,-0.3568260967731476,2.1416385173797607,0.18724662065505981,1.2807385921478271,0.4074828624725342,-0.6262818574905396,0.12150555104017258,1.1908897161483765,0.04108406975865364,0.32260218262672424,-0.4579721987247467,-0.33768200874328613,-0.23744909465312958,-1.1045256853103638,0.6206322908401489,-0.44805803894996643,0.13994115591049194,0.24284939467906952,0.29159805178642273,0.700039267539978,-1.388258695602417,0.43197861313819885,0.4078214466571808,-0.10267800092697144,0.7216559052467346,1.7803473472595215,-0.45385247468948364,-0.003907495178282261,-0.09724326431751251,0.6884247064590454,0.7043019533157349,0.1874663233757019,-0.7339372634887695,0.05494595319032669,-1.0270496606826782,-0.4859691262245178,0.14360608160495758,0.9071918725967407,-0.13381539285182953,0.30267196893692017,-0.9931719899177551,0.395187109708786,-0.9754932522773743,1.266093134880066,-0.1914980262517929,-0.3094536066055298,0.5172426700592041,0.15152671933174133,-0.8753191232681274,0.48601973056793213,0.0017080949619412422,0.648315966129303,0.8681272864341736,0.10226351022720337,-0.9230720400810242,-1.5033284425735474
/film/film/release_date_s./film/film_regional_release_date/film_release_region,-0.3966067135334015,-0.0476066991686821,-0.01262293104082346,0.41174155473709106,-2.0805552005767822,-0.03375333920121193,0.006041163112968206,-0.04871971160173416,-0.09047669917345047,0.021662317216396332,-0.19447828829288483,0.05679037794470787,-0.08798656612634659,-1.1442283391952515,0.04260079190135002,-0.0023055700585246086,0.06114676967263222,-0.2571907341480255,0.009940736927092075,-0.40703892707824707,0.10188468545675278,-0.09648915380239487,-0.020478323101997375,-0.1389385610818863,0.025477495044469833,0.08404554426670074,-0.013463933952152729,0.09632639586925507,0.08270984888076782,-0.524039626121521,0.10466504096984863,-0.19278936088085175,-0.13445569574832916,-0.1354861557483673,0.14405281841754913,-0.04551617056131363,-0.07603135704994202,0.028506837785243988,0.32345128059387207,-0.007422848138958216,1.3103705644607544,-1.9959828853607178,-0.17433027923107147,-0.02317941188812256,0.4472910165786743,-0.025774434208869934,0.18305563926696777,-0.3764550983905792,0.6215476393699646,-0.10660982877016068,0.007198899518698454,-1.9145374298095703,0.08820736408233643,0.06750688701868057,-0.038498081266880035,-0.0718478113412857,-0.0027521629817783833,-0.07841798663139343,-0.02638988010585308,-0.10717644542455673,0.05819913372397423,-0.4787396490573883,-0.04606832563877106,0.16770325601100922,0.02727525867521763,-0.04703906178474426,-0.05832808464765549,-0.007154536433517933,0.0995008796453476,-1.3138136863708496,0.02230660244822502,-0.14803503453731537,0.18975979089736938,-0.08941236883401871,-0.2760531008243561,0.430296391248703,-0.001384766772389412,0.0747576653957367,0.28943097591400146,-0.4192235767841339,0.08900309354066849,0.054339006543159485,-0.00197041779756546,0.02057223953306675,0.14955143630504608,0.018755339086055756,0.020872756838798523,-0.18523231148719788,0.030793623998761177,-0.10766403377056122,0.034791093319654465,-0.15422454476356506,-2.2142210006713867,0.0770292803645134,0.05068955197930336,-0.3864506185054779,0.9058184623718262,-0.9485077857971191,-0.39548566937446594,-1.1055606603622437,-0.08852571249008179,0.03994453325867653,0.20544233918190002,-0.051995329558849335,-0.1338282823562622,-0.18915235996246338,0.1366182118654251,0.009396297857165337,0.2773818373680115,0.360678493976593,-0.08098333328962326,-0.022547900676727295,-0.07671216130256653,0.06252571940422058,0.07009701430797577,0.012637458741664886,0.30400019884109497,0.005365705117583275,0.04262559115886688,-0.03095453791320324,0.09320500493049622,-0.39502012729644775,-0.10171962529420853,0.15365493297576904,0.29173338413238525,0.07771732658147812,-0.010563737712800503,-0.2855492830276489,0.9477022886276245,-0.2894386351108551,-0.05849538743495941,-0.39888715744018555,-6.2388153076171875,0.3110519349575043,-0.10843373090028763,0.09618615359067917,-0.11512850224971771,0.025417214259505272,0.2895062267780304,-0.05392634868621826,0.6202293038368225,1.5094977617263794,-0.270916223526001,-0.018184438347816467,-0.034883011132478714,0.17654868960380554,0.5345409512519836,1.3314363956451416,-0.4160606563091278,-0.1467851847410202,-0.04388287663459778,-0.1461416333913803,-0.16074217855930328,0.1896110326051712,0.35838213562965393,-0.16322191059589386,-0.003944802563637495,0.9378951191902161,0.2951147258281708,-0.16706551611423492,0.13680346310138702,-0.5928300619125366,-0.1256077140569687,1.3950265645980835,-0.06104150414466858,0.05526930093765259,0.044798605144023895,-0.27408403158187866,-2.261082649230957,-2.7338485717773438,-0.05203617364168167,0.1262999325990677,0.513037919998169,-0.17797353863716125,0.47128593921661377,-0.6635671854019165,-0.1933300495147705,-0.10988860577344894,0.13351713120937347,-2.302215099334717,0.030232654884457588,0.020172743126749992,-0.27540481090545654,-0.12006984651088715,-0.28190183639526367,-0.26506078243255615,0.1531217396259308,0.0060666510835289955,-0.10816405713558197,0.1795492321252823,0.18664513528347015,0.8214458227157593,0.018680134788155556,0.32951149344444275,0.005159231834113598,-0.747289776802063,-0.2865890562534332,-1.75681471824646,-0.6828874945640564,0.13736018538475037,-0.4714089632034302,0.12953373789787292,-2.2777156829833984,0.20130492746829987,-0.443461537361145,0.016335327178239822,-0.29388731718063354,-0.13447241485118866,-0.40251636505126953,0.1828918159008026,0.04503757879137993,-0.288322776556015,0.6346067786216736,-0.063064344227314,-0.050331566482782364,0.0564090833067894,-0.03634708747267723,-0.07814580202102661,-0.37660664319992065,-0.41296035051345825,5.808167934417725,0.27567341923713684,-0.15094055235385895,0.3596416413784027,0.05203897878527641,1.6444990634918213,0.4986956715583801,1.363477349281311,0.33800554275512695,0.15324054658412933,0.39006704092025757,-0.43788620829582214,0.07346037030220032,1.1385036706924438,0.05504345893859863,-0.14503838121891022,0.13230648636817932,0.008831581100821495,0.2741648554801941,-0.062367428094148636,0.09699618816375732,-0.2642809748649597,0.05243552476167679,0.17987287044525146,0.7039090991020203,-0.21143761277198792,-0.21453188359737396,0.042995430529117584,0.11771360784769058,2.083153009414673,-0.3485812842845917,-0.03186589106917381,-0.40250465273857117,-0.006408965215086937,0.8360085487365723,-0.16494743525981903
/film/film/language,-0.313010573387146,-0.015854841098189354,0.028550032526254654,0.004954686854034662,-1.4838851690292358,-0.022752953693270683,-0.0119995828717947,-0.012415631674230099,-0.025867674499750137,0.1254928559064865,-0.5077932476997375,-0.024464521557092667,-0.0004252433427609503,-1.484799861907959,0.3108777403831482,-0.04042047634720802,0.05699820816516876,0.2696739137172699,-0.024433683604002,-0.6702826023101807,0.0044347201474010944,0.19317655265331268,0.013539796695113182,-0.34569430351257324,-0.025612929835915565,0.01452193595468998,-0.07197641581296921,-0.003762207692489028,-0.00157028972171247,0.06865515559911728,0.0018749989103525877,0.0006610075361095369,-0.02411249279975891,-0.1488005518913269,0.05652369186282158,-0.567905604839325,-0.0412164069712162,-0.009200607426464558,-0.09365052729845047,-0.06822115927934647,-0.09188202768564224,-1.7132710218429565,-0.0014314898289740086,0.06214037910103798,-0.02953842468559742,-0.04723082482814789,0.10054630041122437,-0.046680666506290436,-0.13490448892116547,0.3018141984939575,0.040879182517528534,-1.9943692684173584,-0.08501315116882324,-0.015176608227193356,-0.046995628625154495,-0.03393736854195595,-0.0600680336356163,0.0784679651260376,-0.004199830815196037,0.016913780942559242,-0.02812647819519043,-0.3959997594356537,0.07670994848012924,0.04068712145090103,0.016953526064753532,-0.03583366051316261,-0.036651112139225006,0.00965607725083828,0.00850754790008068,-0.9311720132827759,0.04645959287881851,-0.21474526822566986,0.0041972566395998,-0.05678141489624977,-0.3423035144805908,0.12792493402957916,-0.019914261996746063,-0.3477124571800232,0.06557638943195343,-0.015887688845396042,0.004394878167659044,0.0006082019535824656,0.29164931178092957,0.017928464338183403,0.021253542974591255,-0.032253701239824295,-0.03113320842385292,-0.01534346304833889,-0.027317754924297333,-0.055362239480018616,0.04913828894495964,-0.035520367324352264,-1.685425877571106,0.01240853313356638,-0.015125924721360207,0.0644778162240982,0.06872035562992096,-1.065603256225586,-0.027226049453020096,-0.7636661529541016,-0.27327948808670044,0.006068069487810135,0.004395534284412861,0.0241707656532526,0.022609451785683632,-0.08062038570642471,-0.026215970516204834,-0.03325841948390007,-0.008479577489197254,-0.05161402374505997,0.03478012606501579,0.05098588764667511,0.05642889067530632,-0.04991909861564636,0.05060901492834091,-0.055036261677742004,0.00016098839114420116,-0.002088014269247651,0.44608330726623535,-0.0678216814994812,-0.0066305650398135185,-0.5177370309829712,-0.06392884999513626,0.22801288962364197,-0.01063521672040224,-0.01665252074599266,0.028997797518968582,0.010649729520082474,0.9156398177146912,0.45298972725868225,-0.1722961813211441,0.03410060331225395,-2.3132333755493164,-0.3042360246181488,0.6804570555686951,0.849137544631958,0.5003162622451782,0.0643896609544754,0.3405003547668457,0.5060546398162842,0.4069150388240814,1.0889376401901245,-0.038307659327983856,-0.2705608308315277,-0.6102048754692078,-0.3175545334815979,0.18660056591033936,2.1826961040496826,0.020860519260168076,0.3442501723766327,-0.4161053001880646,-1.2045235633850098,0.3973386883735657,-0.1725233644247055,0.9410805702209473,-0.2674484848976135,0.11267304420471191,-0.011139646172523499,-0.5130382180213928,-0.388516366481781,-0.7905108332633972,-0.7065488696098328,-0.3701110780239105,0.38281965255737305,0.5117478966712952,-0.45975202322006226,0.24630485475063324,-0.2046336531639099,0.03457571566104889,2.686021566390991,-0.2989007830619812,-0.021559027954936028,-0.18183115124702454,0.17675252258777618,-0.5418298840522766,-0.23111627995967865,0.0387066975235939,0.26256728172302246,-0.9815281629562378,-1.8282814025878906,0.29037588834762573,0.22929511964321136,-0.620737612247467,0.23746545612812042,-0.11487216502428055,0.10436449944972992,-0.29582899808883667,-0.42072203755378723,-0.8233559131622314,0.02171667106449604,0.4032544493675232,-0.04469117894768715,0.19604729115962982,0.10312525928020477,-0.04105854779481888,-0.010513773187994957,0.04479178413748741,-1.8972489833831787,-0.3681827485561371,-0.06586050987243652,0.4686477780342102,0.18936380743980408,-1.8356194496154785,0.29817280173301697,0.2848920226097107,0.024178165942430496,-0.39241623878479004,-0.02056884951889515,-0.07787935435771942,0.5506359934806824,0.053675416857004166,0.2612903416156769,0.28231555223464966,0.24269962310791016,0.29667261242866516,0.25502467155456543,0.39329004287719727,0.027822881937026978,-0.624456524848938,-0.199715256690979,-2.8243815898895264,0.13991038501262665,-0.04032716900110245,-0.519622266292572,0.28373345732688904,-3.2919607162475586,0.20883725583553314,0.6989939212799072,-0.4773930311203003,0.09377133846282959,-0.13547290861606598,0.12578065693378448,0.2935580313205719,-0.6005725860595703,-0.5026760697364807,-0.3224070072174072,0.01247579138725996,0.5905851721763611,0.20340202748775482,0.18045704066753387,0.45931047201156616,0.12875504791736603,0.05514686554670334,0.08180436491966248,0.36799532175064087,0.4115849733352661,-0.2378798872232437,0.1948930025100708,0.10731647908687592,2.6584861278533936,-0.7551071643829346,-0.3823584020137787,0.6467511653900146,-0.04470321908593178,0.33045902848243713,-0.37197345495224
/location/location/contains,-0.23786377906799316,0.13921135663986206,0.08597536385059357,0.05599495396018028,-0.9607071876525879,-0.0082467095926404,0.11507859826087952,0.11937417089939117,0.04295768216252327,0.04347730427980423,-0.3137817084789276,-0.04060632362961769,0.04585682973265648,-0.5774442553520203,0.045268166810274124,-0.13183178007602692,-0.07704676687717438,-0.1241707056760788,0.08781666308641434,-0.3324310779571533,-0.04738464578986168,-0.009004393592476845,0.018082037568092346,-0.6938353776931763,0.11205276846885681,-0.1057484969496727,0.22447218000888824,-0.002101308899000287,0.04288238286972046,-0.04604349657893181,-0.008731682784855366,0.0112138781696558,-0.08615025877952576,-0.18815398216247559,0.06465870141983032,-0.26770108938217163,-0.05537296459078789,0.1796061247587204,-0.009900569915771484,0.14333823323249817,-0.2125113159418106,-1.3484824895858765,-0.06047463417053223,0.07179922610521317,-0.039188746362924576,-0.14159788191318512,-0.8142180442810059,-0.20813430845737457,0.13404978811740875,0.1779043972492218,-0.011818558908998966,-1.383792757987976,-0.03360529989004135,-0.14622820913791656,-1.3043205738067627,-0.05993223562836647,-0.47139909863471985,-0.001285672769881785,0.03299161419272423,0.011106686666607857,-0.09376821666955948,-0.009468668140470982,0.0264747217297554,0.05328543856739998,0.1761758029460907,-0.0015075235860422254,0.20296022295951843,0.2678415775299072,-0.07141400128602982,-0.9566604495048523,-0.16069748997688293,-0.5361018180847168,0.04050525277853012,-0.17447297275066376,-0.5145785212516785,-0.07587793469429016,0.07901498675346375,0.07989822328090668,-0.003498359117656946,-0.034339118748903275,-0.1659785807132721,-0.015980999916791916,-0.029865380376577377,0.0015944205224514008,0.3593376576900482,-0.1068626120686531,-0.8377255201339722,-0.13158437609672546,0.02426493726670742,0.13734346628189087,-0.02619113028049469,-0.08528737723827362,-1.5894204378128052,-0.0649598091840744,-0.04425836354494095,-0.006264206022024155,0.20691852271556854,-0.4765890836715698,0.010136233642697334,-0.7395775318145752,-0.033659350126981735,-0.08612393587827682,-0.24407027661800385,-0.0626942366361618,0.004685183055698872,-0.15913954377174377,0.07087434083223343,-0.12129434198141098,0.08314190059900284,0.20209342241287231,-0.2066430151462555,0.02686445228755474,-0.07947235554456711,-0.6465356349945068,-0.007142932619899511,-0.018568433821201324,0.06784063577651978,0.15101686120033264,-0.0069133383221924305,-0.05193707346916199,0.25354504585266113,-0.3591368496417999,-0.2690207064151764,-0.01213342696428299,0.010704055428504944,-0.08757669478654861,0.5647174119949341,-0.9160858988761902,-0.9250089526176453,0.6384739875793457,-0.3718443810939789,-0.14223182201385498,-1.3435884714126587,-0.5684296488761902,-0.025178855285048485,-0.8973227739334106,0.20070448517799377,0.29028451442718506,0.6106328964233398,-0.36481422185897827,-0.36426493525505066,0.43334120512008667,-0.2126840502023697,0.37907132506370544,0.18963053822517395,-0.031180592253804207,0.8329595923423767,0.5084499716758728,0.1437518149614334,-0.5578165650367737,0.4597264528274536,-0.5227217078208923,-0.21835540235042572,0.34450075030326843,-1.2973037958145142,-0.6501483917236328,-0.7176692485809326,-0.893550455570221,0.12075503170490265,0.27669233083724976,0.08140196651220322,0.3881136476993561,1.4545342922210693,1.8265239000320435,-0.17920725047588348,0.024017460644245148,-1.1946308612823486,0.41345590353012085,-0.005779874511063099,0.5903196334838867,-0.086444191634655,0.5202921032905579,0.029251208528876305,-0.4308578372001648,-0.2723672688007355,-0.0793740451335907,0.38188570737838745,-0.30671894550323486,0.5695134997367859,0.305154025554657,0.3202480971813202,-0.15951289236545563,-0.8947969079017639,0.14116734266281128,-0.9684632420539856,0.05582841485738754,0.03325233235955238,-0.6883018612861633,-1.0116713047027588,-0.22883397340774536,-0.10445840656757355,-0.0702439621090889,-1.2407077550888062,0.38286519050598145,-0.639523446559906,-0.9123560786247253,-0.23663438856601715,-0.39041319489479065,-0.39054375886917114,-1.8200689554214478,0.32591718435287476,0.32119134068489075,0.28572726249694824,0.07026170194149017,-0.2478308379650116,-0.3806392252445221,0.103659488260746,0.08916904777288437,-0.3900732696056366,1.2670904397964478,0.1421673744916916,0.7066957354545593,0.6050675511360168,-0.4686814248561859,0.2674426734447479,0.28366026282310486,-0.3603764474391937,0.9124487042427063,0.6224122047424316,-0.888184666633606,2.1525464057922363,0.31295228004455566,-0.43274009227752686,-0.6604146361351013,-0.1198849231004715,-0.43873316049575806,-1.1019761562347412,-0.7660198211669922,-0.7297117114067078,-0.5449737906455994,0.6537773609161377,0.5497217178344727,0.3007163405418396,-0.35166698694229126,0.4026199281215668,0.2635442018508911,1.5873154401779175,0.789490818977356,1.1973546743392944,-0.7366859316825867,-1.2047995328903198,0.8845629096031189,-0.37065112590789795,-0.24520929157733917,-0.08602606505155563,0.2668820321559906,-0.5941249132156372,0.5331861972808838,-0.5975842475891113,0.7095444202423096,-0.3470771312713623,0.09445866197347641,1.4476066827774048,-0.8154095411300659,-0.742763102054596,-0.12539567053318024
/organization/organization/headquarters./location/mailing_address/country,0.03274733945727348,-0.032165274024009705,-0.35467979311943054,0.06912381947040558,-1.431872010231018,-0.6992461085319519,0.012477679178118706,0.002040333114564419,-0.17076261341571808,-0.07004138827323914,0.06348643451929092,-0.6731775403022766,-0.01999572105705738,-0.7137613892555237,0.12601207196712494,0.0011093078646808863,0.1998683661222458,0.08163858950138092,-0.11259124428033829,-0.9536158442497253,-0.026184843853116035,0.008406369015574455,0.008371997624635696,-0.07777301222085953,-0.10591500252485275,-0.13013941049575806,0.028210224583745003,-0.06394083052873611,0.010184889659285545,-0.11421074718236923,0.17969518899917603,0.0003592542780097574,-0.004558945074677467,0.0009875184623524547,-0.010881747119128704,-0.3107428550720215,-0.08366221189498901,-0.0290871299803257,0.007542925886809826,-0.11562864482402802,-0.33678731322288513,-1.2944445610046387,0.8419538736343384,-0.7337737083435059,0.010108201764523983,-0.032655272632837296,-0.17258502542972565,-0.014835348352789879,0.2793668508529663,-0.058719221502542496,-0.004238719120621681,-2.0376319885253906,-0.6645798683166504,0.0032561079133301973,-0.4289286136627197,-0.3115803003311157,0.1535077840089798,0.027228523045778275,0.07186076045036316,-0.1842055320739746,-0.033858977258205414,0.019551513716578484,-0.01535482332110405,-0.004602651111781597,0.055636826902627945,-0.2311560958623886,-0.015261780470609665,-0.23503291606903076,0.04762028157711029,-1.1571546792984009,-0.6042249202728271,-0.5863484740257263,0.002290828386321664,0.09866765886545181,-0.9466073513031006,-0.015216277912259102,-0.006875733379274607,0.033332016319036484,1.1376959085464478,0.7456085085868835,0.00729474937543273,-0.1773056983947754,-0.027715815231204033,-0.03104734793305397,-0.4013258218765259,0.38412827253341675,-0.03612852841615677,-0.04398304224014282,0.06205609813332558,-0.061775945127010345,-0.02951674535870552,0.47172245383262634,-1.7361558675765991,-0.42987409234046936,0.001573404879309237,0.0008235229761339724,-0.004655872471630573,-0.363626092672348,0.010440227575600147,-1.0862864255905151,0.0007492919685319066,-0.06506482511758804,-0.3151908218860626,-0.004822439514100552,-0.12334392964839935,-0.3044517934322357,-0.002778857946395874,0.252689003944397,0.0032914127223193645,0.05732329189777374,-0.3119983673095703,0.1414063721895218,0.0037772320210933685,-0.15613587200641632,0.9168881773948669,0.013840585947036743,-0.10137628763914108,0.022478731349110603,-0.028015807271003723,0.1680237203836441,-0.016788525506854057,-0.763218104839325,-0.3146130442619324,0.02808750979602337,-0.0038760837633162737,0.01700991950929165,-0.0304932352155447,-0.04821612313389778,1.0621635913848877,-0.11164940893650055,-0.7710970640182495,0.5332295298576355,-2.8253753185272217,-0.478741317987442,0.01820695400238037,-0.4255984425544739,0.24688543379306793,-0.273211807012558,0.2388792634010315,-0.12563201785087585,0.08282986283302307,0.7973706126213074,-0.14592626690864563,-0.3289099633693695,0.03399351239204407,0.4221106469631195,0.3055530786514282,2.351414680480957,-0.04319002106785774,-0.2981056869029999,0.01910683885216713,-0.09803732484579086,-0.5207088589668274,-0.18035592138767242,0.41359981894493103,0.012667380273342133,0.029601680114865303,0.07738490402698517,1.4244276285171509,0.011423480696976185,0.20318233966827393,-0.3252391517162323,-0.2545422613620758,2.022562265396118,-0.11141768842935562,-0.5284505486488342,-0.289354532957077,0.4314584732055664,0.8613523840904236,0.470351904630661,-0.06366396695375443,-0.06114858388900757,0.7636978030204773,-0.18718171119689941,-0.11826393753290176,-0.13944853842258453,-1.079161286354065,-0.21446147561073303,0.8957935571670532,-1.9460170269012451,-0.36278048157691956,-0.06476917117834091,0.07605212926864624,1.4751378297805786,0.3109039068222046,-0.1466808021068573,-0.3230729103088379,0.3454754948616028,0.5817145705223083,-0.3327879309654236,0.3464580476284027,-0.16955983638763428,-0.4062527120113373,0.9107730984687805,0.7054121494293213,-0.4368517994880676,0.5739566683769226,-2.7801709175109863,0.49523067474365234,-2.753040313720703,-0.8036440014839172,0.36184191703796387,-2.5145533084869385,0.3502517342567444,0.1916601061820984,0.09633530676364899,0.3154624104499817,-0.2063867598772049,-0.030694101005792618,0.5751200318336487,-0.1599501669406891,0.5820558667182922,0.3174287974834442,0.2487192153930664,0.5283762216567993,-0.07705964148044586,0.3460937440395355,-0.126689150929451,0.19799280166625977,0.015225918032228947,0.5258445739746094,0.47000399231910706,-0.23349881172180176,0.1876918226480484,-0.23729869723320007,2.4249589443206787,-0.5434814095497131,0.20848293602466583,-0.1393025666475296,-0.6076300144195557,-0.014165556989610195,-0.3741106390953064,0.24011971056461334,1.9010920524597168,0.036111366003751755,-0.0027107715141028166,0.09570547193288803,0.7177349925041199,-0.023208606988191605,-0.24263155460357666,-0.12695546448230743,-0.4911040961742401,0.06976068764925003,0.375537246465683,0.1304241567850113,-0.23185105621814728,-0.04559818655252457,0.24379095435142517,0.19101133942604065,3.079822301864624,-1.109154462814331,-0.1706918179988861,-0.06094567850232124,0.1330517679452896,-0.10897857695817947,1.4015289545059204
/people/person/profession,-0.2897484004497528,0.010028733871877193,0.03740423172712326,0.019592395052313805,-1.3460681438446045,-0.10600627213716507,0.6039735674858093,-0.17773640155792236,-0.3334478437900543,0.3096296489238739,-0.8948105573654175,0.10733719915151596,0.02799507975578308,-1.0786265134811401,-0.005839950405061245,0.05215933173894882,0.2822140157222748,0.005343601573258638,0.12259791046380997,-1.0629537105560303,0.021769177168607712,0.042205844074487686,0.0804261639714241,-0.5486040711402893,-0.017978360876441002,-0.07733975350856781,-0.03800756856799126,-0.002697751158848405,-0.17943653464317322,0.05981384217739105,-0.013780088163912296,0.012885723263025284,0.17572049796581268,-0.012439019978046417,0.010147564113140106,-0.5372161269187927,0.06151800975203514,-0.017800647765398026,0.02806829661130905,-0.06770875304937363,0.05875901132822037,-1.4865096807479858,0.06937035173177719,-0.059315282851457596,-0.10917869210243225,0.09477435797452927,0.092801034450531,-0.0024020709097385406,0.14644581079483032,0.09099771082401276,0.020025230944156647,-2.1652252674102783,-0.005817893892526627,-0.016082201153039932,0.037830859422683716,-0.1667635142803192,-0.04411293938755989,-0.034397631883621216,-0.19287021458148956,0.03814037889242172,0.0421568863093853,0.001305667799897492,-0.061777811497449875,0.21481865644454956,-0.000729865743778646,-0.06353679299354553,-0.029429515823721886,0.008861755952239037,-0.14856238663196564,-1.2587453126907349,-0.06671003252267838,-0.07235433161258698,-0.18207842111587524,-0.08710942417383194,-0.48040783405303955,-0.028973959386348724,0.4371759593486786,-0.019539792090654373,0.10609521716833115,0.0219162255525589,-0.09757719933986664,-0.41759803891181946,-0.12170406430959702,-0.03731536865234375,-0.08354175835847855,0.014706349931657314,0.008831912651658058,-4.717746196547523e-05,-0.1392476111650467,-0.02322857640683651,0.011251114308834076,-0.18048600852489471,-1.62055504322052,0.01871228776872158,-0.014393948949873447,-0.0489501915872097,-0.14230699837207794,-1.1160975694656372,0.034489743411540985,-0.24259179830551147,0.023854047060012817,0.0151382926851511,0.0574815608561039,-0.06635119020938873,0.15684765577316284,-0.43766969442367554,0.04999764636158943,0.11607690900564194,-0.05635470151901245,-0.19728727638721466,-0.4220067262649536,-0.21596269309520721,-0.017843084409832954,-0.030033089220523834,0.07409738004207611,-0.01911371387541294,0.03171183913946152,0.15576107800006866,0.3956011235713959,0.02207372523844242,0.017828863114118576,-1.004991054534912,-0.3167892098426819,0.07697200775146484,-0.34640660881996155,0.004383821971714497,-0.0418255440890789,-0.041135504841804504,-1.0940320491790771,-0.8208822011947632,0.24502801895141602,-0.2551855146884918,1.2948269844055176,-0.2579926550388336,0.10398663580417633,0.5786917209625244,0.316870778799057,-0.18118582665920258,-0.7331082820892334,0.15999656915664673,-0.04060738533735275,2.6232736110687256,0.44613829255104065,0.2511862814426422,-0.10417749732732773,-0.5098291039466858,0.14813069999217987,-0.6238868236541748,-0.18016090989112854,0.27130430936813354,0.012760201469063759,-0.4049605429172516,-0.16232143342494965,0.1557558923959732,0.8651826977729797,-0.16952624917030334,0.05466577410697937,-0.1306968629360199,-0.2093328833580017,-0.1641179621219635,-0.2998395562171936,0.08847840875387192,-0.5522533059120178,-0.4953022003173828,-0.5693162083625793,0.34784477949142456,0.0018590508261695504,0.3429638743400574,-0.3137257695198059,2.9602413177490234,0.16736963391304016,0.38509008288383484,-0.05451994389295578,0.1460082083940506,-0.652097225189209,0.20639891922473907,0.14533650875091553,0.2829338312149048,0.3522743582725525,0.729962170124054,0.2205202430486679,0.0707472637295723,-0.004347076173871756,0.021587999537587166,0.908316969871521,0.05741306394338608,-0.23249126970767975,-0.4676564633846283,0.15366770327091217,0.003133069723844528,0.006996560841798782,-0.5866113305091858,0.20142222940921783,0.022722890600562096,-0.40308982133865356,-0.3521641492843628,-0.08277106285095215,-1.521413803100586,0.052988551557064056,-0.3896638751029968,-0.02742595225572586,0.38224756717681885,1.8467692136764526,0.418775349855423,-0.0960712656378746,0.11758418381214142,0.04162493720650673,0.04530012980103493,-0.06398560851812363,0.19021476805210114,-0.02774599753320217,0.3506794571876526,0.14691737294197083,-0.01972797140479088,0.09954662621021271,0.3106164038181305,-0.30510154366493225,0.21352693438529968,-0.07310714572668076,0.008195691742002964,-1.769621729850769,-0.7252292037010193,0.30072954297065735,-0.047850169241428375,-0.26816877722740173,-2.4762415885925293,0.03126988932490349,-0.5293319225311279,-0.6084038019180298,0.13345174491405487,-0.40301597118377686,-0.08614616096019745,0.41079258918762207,0.22640995681285858,-0.3889293074607849,0.18390652537345886,0.10602420568466187,0.5445681214332581,1.6777456998825073,0.35467126965522766,0.21771390736103058,0.4795337915420532,-0.20397454500198364,-0.2971305251121521,-0.37342214584350586,-0.28097912669181824,0.18630357086658478,0.302044540643692,-0.08495794981718063,-1.5437260866165161,0.7374117970466614,-0.01250819955021143,0.009957460686564445,0.5105409622192383,0.38402897119522095,-0.27570587396621704
