,0,1,2,3,4,5,6,7,8,9,10,11,12,13,14,15,16,17,18,19,20,21,22,23,24,25,26,27,28,29,30,31,32,33,34,35,36,37,38,39,40,41,42,43,44,45,46,47,48,49,50,51,52,53,54,55,56,57,58,59,60,61,62,63,64,65,66,67,68,69,70,71,72,73,74,75,76,77,78,79,80,81,82,83,84,85,86,87,88,89,90,91,92,93,94,95,96,97,98,99,100,101,102,103,104,105,106,107,108,109,110,111,112,113,114,115,116,117,118,119,120,121,122,123,124,125,126,127,128,129,130,131,132,133,134,135,136,137,138,139,140,141,142,143,144,145,146,147,148,149,150,151,152,153,154,155,156,157,158,159,160,161,162,163,164,165,166,167,168,169,170,171,172,173,174,175,176,177,178,179,180,181,182,183,184,185,186,187,188,189,190,191,192,193,194,195,196,197,198,199,200,201,202,203,204,205,206,207,208,209,210,211,212,213,214,215,216,217,218,219,220,221,222,223,224,225,226,227,228,229,230,231,232,233,234,235,236,237,238,239,240,241,242,243,244,245,246,247,248,249,250,251,252,253,254,255
acquired_abnormality,-1.1368829,-0.095435835,-0.743571,-0.8542521,0.59880644,-0.45514694,-0.61703676,-0.9011794,-0.33110434,0.013658796,-0.5165779,-0.52936006,0.23438117,1.1260308,0.06445528,-0.38749287,-0.28148523,-0.46710646,0.5378277,0.42516008,0.17849365,0.917769,0.045795042,0.50708246,0.524348,-0.01605296,-1.4435402,-1.2201661,0.06558544,-0.10996016,-0.014048358,-0.3096381,1.0664011,0.07514883,-0.2306045,-0.38458177,-0.05496558,-0.07020758,0.40734097,-0.4927326,-1.1107104,0.94597876,-0.5731019,0.6112589,1.6490021,-0.61224926,0.8336432,0.07142201,-0.5200534,-0.07487235,0.07776281,-0.16830976,0.5219587,-0.12136403,0.47312102,1.4927874,-0.045810457,0.50081354,-1.0608114,-0.79381603,0.8417652,-0.23000039,-2.3486872,-0.2913384,0.4113709,-0.57675517,-0.33697176,-0.39256918,-0.1848689,0.19353046,1.1455575,-0.3484476,-0.022798404,-0.1755395,-0.4493624,-0.775723,0.042894714,0.09636527,-0.04079877,-0.3623352,-0.20199446,-0.18489183,-1.032217,0.013290522,-0.8532184,0.09378631,0.45968926,-0.37647337,0.3144827,-1.1748129,-0.4122465,0.32415769,-0.46234623,0.28361362,-0.3369468,1.1536245,0.100367405,0.49861413,0.48790103,-0.35690752,0.82771087,-0.7587253,-0.22566077,0.5325747,1.046588,0.038536917,-0.108154625,0.48344266,-1.3384197,0.1266339,-0.8745816,-0.24384515,0.17885287,-0.17745031,0.9634868,0.33019933,0.17781049,0.6084558,0.778736,-1.353798,1.5910547,-0.26214424,-0.1175483,1.1454858,-1.4227021,1.1819894,-0.19632724,0.7067339,-0.40479574,-0.5187829,0.115542695,1.3049469,-1.383453,-0.6741951,1.8998394,0.2288333,-0.34776703,-1.8192971,-0.21764429,0.97899455,1.0793447,1.8801812,1.8364573,-1.0798173,-1.3804227,-1.0773017,-0.018900294,-0.091893226,1.0569038,-0.3576471,1.1767688,-1.4666383,0.002203611,-1.5401173,0.7430066,0.74916327,1.7178369,1.356605,-1.5069728,1.46616,-0.29710096,1.184009,0.37221637,0.37018013,0.12120596,-1.3104359,-0.3858648,1.2929536,0.22306071,0.24650548,0.8487488,-0.9833207,0.634594,-0.53792024,0.45187896,-1.3099612,0.16250381,1.213451,-0.4216049,0.75084716,-1.2135932,-0.74297243,-0.8920727,-0.2721778,0.31116867,-1.0669497,-0.15068242,0.00676803,-0.7176415,-0.14837828,-0.9223541,1.3219142,-1.5483822,-0.29068223,1.0639594,0.6512434,-0.8932746,-0.47262314,-2.8908954,-0.9338232,-1.6778632,2.249638,-1.3461925,0.5491694,-0.3168905,0.94207,-0.4469573,-1.2841451,0.80481,0.5692139,-1.1099342,1.9807856,1.7985525,0.32028177,2.0382397,0.8408259,0.19161981,-0.47852772,0.4548324,-1.3557334,0.5811893,0.7203724,0.3808206,2.9116242,2.7315931,0.32809868,-0.65252954,-1.0094945,0.0005427697,0.6876839,1.0062753,1.7552708,-0.5192571,1.420282,1.9131587,0.1992458,-0.03204125,-2.656919,-0.035190824,0.6150087,-0.15107197,0.7857769,0.26148704,0.59730434,0.029938051,-1.21416,-0.11633164,0.19480182,2.1264336,0.38712028,0.5002518,1.8636189,0.9032059,-1.388926,0.02082458,1.4014496
anatomical_abnormality,-0.92928696,0.7884727,-0.45291966,0.93939656,1.7692935,0.33274397,-0.2853658,-0.9568024,-0.65254986,0.941784,-0.46951124,0.19755134,-0.11830834,1.6615996,-0.24551731,-1.7999293,-0.5133906,-0.31325957,0.4501959,0.15812297,-0.43655232,0.66767085,0.6009173,0.57406807,0.39274,-1.3172777,0.12191528,-0.28136227,0.033425387,0.4336481,0.14029372,0.004327958,-0.56479317,-0.629789,-0.3476158,-0.043457713,-0.8259192,-0.28012633,-0.5835827,-0.66955316,-0.13178211,0.62456316,0.44408473,0.5770729,0.15310779,0.75497085,-0.1673733,0.11856726,0.28616163,-0.424588,0.09856228,1.5251766,0.35965866,0.041987386,0.051127564,0.25542665,0.23418982,0.39541253,-1.1705694,-0.7157298,0.5035591,-1.559679,-0.50594753,-0.27384177,0.17470202,-0.3027714,0.08846052,-0.15962501,0.66772246,0.10605004,0.144685,-0.43328676,0.11501727,0.27970865,-0.3375042,-0.77875644,-0.06286456,0.5406049,-0.11765386,0.26447427,-0.12812054,0.006596038,-0.9342201,-0.23957753,-0.15840979,0.10995243,0.980762,-1.6265839,0.17671138,-0.38355714,0.57911,0.6005588,-0.15755671,0.72373086,-0.6251301,-1.1679665,-0.1957679,0.22702016,0.12646459,-1.0337913,0.2251025,-0.8382697,0.92906874,0.119342215,0.9683667,-0.17382172,-1.0686436,1.138591,-2.0395908,-0.2660456,-0.26645127,1.0059631,0.091736,0.40140906,0.67436457,-1.0818119,-0.14419656,0.58579516,0.71706814,-0.99396485,0.47160617,-0.124845766,-0.023103906,0.09447755,-0.12316692,0.16081208,-0.342578,0.48721617,-1.2988921,0.124379456,1.0111467,-0.1485115,0.2128057,-0.019618053,2.4118404,0.15573257,0.74820566,0.5653013,-0.29292738,1.1159451,-1.4139236,0.20270213,1.0655639,-1.8127742,-0.30631208,-1.8428512,-0.54380566,-0.90245306,0.6746758,0.50908715,1.1986343,-0.91981494,-0.037371617,-0.60055596,0.16926979,0.13162306,-0.11829432,-0.8247259,-1.4240265,0.43928885,0.51546025,1.4339253,0.84957945,-0.27393952,-0.16045703,-1.4394245,-1.4320952,0.04404638,-0.49823746,-1.3094757,0.48464733,-0.33109188,0.37433296,0.4162549,-0.37358516,0.5057423,-0.046233885,0.9656304,0.21936423,0.42082244,-1.280577,-1.5211601,-0.95426136,0.16535197,-0.08284767,-1.0911092,0.061137855,-0.61711556,-1.3380793,-0.17554167,0.41191378,-0.7566896,-1.1737134,-0.2125326,-0.5833156,1.0213974,-0.7333014,1.96624,0.26313028,-0.55837786,-0.35965136,0.9019973,-2.0892735,1.2848598,-1.8260928,1.3124086,-1.4802431,-1.7308443,0.81148195,1.6884863,-0.8580356,1.0792638,2.6192992,0.21249661,1.1517799,0.38888103,1.1383688,-0.6967849,-0.60230887,-1.2935116,0.21252808,0.60878885,-0.15306592,-0.34072533,1.3519828,0.056220062,-0.8679957,-1.5065379,-0.13625649,0.40059823,-0.5767501,1.0127732,-1.5438646,-0.12849507,0.26448488,1.9780098,-2.618674,-1.0663708,0.17456548,-1.382874,-1.4847225,1.0864671,-1.1148684,1.2750415,0.086236924,-1.3793327,0.16732523,0.028257594,2.7412283,1.6481068,1.4835509,1.3157294,0.000360979,0.05428125,-0.13865054,0.2200616
alga,0.21928523,0.8375374,-0.38615966,0.71011657,-0.16539237,0.13593291,0.27096048,-0.6467731,-0.1252233,0.8380318,-1.1198641,0.3973455,0.25105634,-0.20323968,-0.88177246,0.10314193,0.002807049,-0.03925351,1.4427049,0.84726137,0.21595855,0.5125831,-0.43032983,-0.10113518,-0.032165278,0.7395947,0.7498828,-0.6109265,-0.86495936,0.21217677,0.5957667,0.39960957,-0.22966774,0.624611,0.19463046,-1.6661451,-0.1824907,0.31391948,0.6591054,-0.41766426,-0.10917108,0.3846596,0.47454503,-0.004721533,0.099509284,1.148212,0.6768697,0.7276804,-0.5884262,-0.78187615,0.66623056,-1.0206175,0.7198398,0.1732494,0.19523442,-0.42723536,0.4023438,0.49833083,-0.8394029,0.10292356,0.22404937,0.20557737,-0.32855815,0.5609586,-0.4926022,0.31303546,-0.27388492,0.21461712,0.4272798,0.6168011,-0.27181223,1.0489327,-0.8009273,0.5416839,1.0189551,-0.20203884,-1.3355392,-0.2655474,-0.32986322,-1.3692597,0.510266,-0.69234616,0.21067984,-0.19973144,-0.08436694,0.5433824,0.7434394,2.369656,-0.8328183,-0.3090823,0.42357945,-2.07662,0.6705705,-0.16420038,-0.52696186,-1.2566445,-0.42486778,-0.45217544,0.67704463,0.36664227,-1.0495002,-0.14398684,1.1195201,-1.0167973,0.18819067,-1.0072542,-0.25782308,-0.09630535,0.080259375,0.78412664,-0.46379554,-0.29920384,-1.285899,-0.36038408,0.26436672,-0.9863429,-0.4335189,-0.39700958,1.3696605,0.11873444,-0.8849018,2.013932,0.3160581,0.51211154,-0.5268756,1.5112135,-0.209813,0.74950814,1.6559907,0.5427415,1.9056745,-0.49645746,1.3519063,0.81960654,1.1372255,0.18221423,2.134631,-0.49296075,1.7307796,-1.1838561,-0.06920634,0.72904015,0.47723624,2.846332,1.0577141,-0.763943,1.6523495,1.37228,1.1195921,1.8604481,0.66483194,-0.32623073,-0.45339662,2.725594,0.2826894,0.29531175,0.26482484,1.4070822,0.0025868865,-0.51431453,1.024599,1.3359675,0.60684514,-0.24535707,0.21636404,-0.040106498,-2.1095157,0.10172281,0.792955,0.61845595,1.8391223,1.1731676,0.54528207,1.4727491,-1.2877281,1.2993339,0.8097568,-0.21295744,-0.43464866,-0.75013447,0.03154607,-0.52351654,-0.17074503,-0.14244775,0.6500546,-0.51023936,-2.1876533,-1.031407,-0.27551585,0.9085412,-0.4309976,0.9974507,1.1097387,-0.5886248,-0.5424256,-2.494067,-0.7568895,0.97186726,-0.30437866,-0.64372313,0.83162653,1.6202555,1.248139,-1.3211741,2.1652014,0.48545837,-0.107857525,0.0778705,-1.1136049,-0.4453166,1.4826939,1.5171392,-1.410933,0.72329956,0.38006294,-1.1993666,-0.7965269,2.5202062,-1.124842,0.084279455,0.34336254,0.2534997,-1.3369116,-0.018049892,2.3213694,-0.48168325,0.4311819,-0.2634462,-0.0892315,-0.2846707,0.7746309,-0.304984,-0.21899652,0.5010832,0.0094967075,-0.75595,-0.93420833,0.34481797,-0.59788495,-1.7478197,-0.14910069,-1.2124293,1.4408765,1.4470093,-1.3021836,-1.7482432,1.0275943,0.06660581,1.0129548,0.9057467,0.4684231,1.1900715,0.9484547,-1.1134776,-0.56587505,-1.527436
mental_or_behavioral_dysfunction,-0.5636811,0.28011787,0.23114023,0.472293,0.65076125,-0.6464889,-2.0116563,-0.11936778,-0.078110486,0.8844962,-0.25234511,0.5815003,-0.46647492,-0.37452924,0.45650986,-0.6781949,-0.14654677,0.3501432,0.7890239,0.3366402,0.51431507,-0.0007209648,0.1156891,0.15715319,0.15883827,-0.15423098,0.39899078,-0.65323454,-1.1302798,0.72542924,-0.04693808,0.5622351,0.6215177,-0.24763888,-1.1751264,0.28505877,0.67920494,-0.66523993,-0.32649314,-0.4212612,-0.64370483,1.892384,-0.25137013,2.4291484,-0.095398925,-0.49875015,0.34059837,-1.3484527,-1.4466271,-0.41130322,-0.5766687,-0.5293852,0.9367978,-0.81060416,-0.90422124,0.5022176,0.03917162,2.1175632,0.09660428,0.28657603,1.0536877,1.0669972,-0.9539856,-0.68503237,0.2661249,-0.2416793,1.1189084,-0.57907987,-0.36905128,-0.4806601,0.27150902,-1.4152883,-0.40752366,-0.040044278,0.23753569,-0.059532583,-1.5074902,0.9322205,-0.097372614,-0.48592666,0.27394179,0.8044634,-1.0059203,0.11562775,-0.45429423,-0.2040018,0.5552817,0.32688943,0.025511863,0.24602555,-0.78307503,-0.2602252,-0.46313977,0.13956213,0.2023462,-0.939054,-0.5495144,-0.84136254,-0.15769328,-0.12452923,0.89475167,-0.9324579,0.48401812,0.6640486,-0.40021262,-0.3034134,-0.29141164,0.8565851,0.10186572,-0.5430174,-0.53980166,0.9693377,-0.3856493,0.28543583,0.7168838,0.8500627,1.1147064,0.9150547,0.21301895,-0.2513688,-0.69662225,-0.5245978,-0.68559974,-0.38970795,-1.4597424,-0.16527423,0.6499354,1.2267292,-0.23736198,1.2679319,-1.0120103,-0.14262468,-0.8606536,1.3781794,0.30762982,-0.056385234,1.0992336,0.37929237,0.7387381,-0.56411946,-0.88597643,-0.38962704,1.0863894,-0.23124018,-1.0692579,-1.7350487,0.9657749,0.75802463,-0.9328486,1.0209433,0.3046605,-0.34719115,0.030998917,-1.9181246,0.55198336,-1.2978851,-1.4348775,-0.11151213,-0.6381469,-1.9803668,-0.06259844,-0.7035392,-0.53577375,-0.8166078,1.3613722,0.85638165,-0.22593625,0.04025577,-0.27626526,0.3850978,0.41822043,-1.2205062,1.0015101,-1.4945443,-0.9859983,-2.3522184,-2.8361764,1.1983392,-0.5426133,-0.099203855,0.11481717,0.03728211,-2.328025,-1.1135074,-1.3475169,-1.4726627,1.0802376,-0.55306023,-0.5972136,-2.0390697,-0.5130716,1.5296404,0.66987854,-1.1253273,-0.44437197,-0.1902317,-1.1336123,-0.0075215595,-1.5716597,0.45190233,-0.11296779,1.3082125,-1.2877777,-0.6068675,2.1621337,1.2560465,0.9041214,-1.014182,0.4286744,-0.61014634,-1.2835723,1.0284752,1.6444522,0.6696163,0.011056069,1.6129498,0.6323457,0.011818523,0.72036284,-0.97538984,0.74885017,0.8036218,0.9416799,-1.2315081,-0.49450478,-0.5000567,0.8481881,-0.58897173,-1.2153748,-0.07923568,0.9036607,-0.122312665,-0.05427341,1.0216559,1.7776492,2.55942,0.06640907,-1.0673603,0.17017074,0.034145784,-1.1184599,0.65527785,-1.8345392,2.6233075,2.1138356,-2.5938826,-0.5587283,0.19061513,0.2663376,0.65873724,0.6497723,1.3084337,1.3290087,-1.0749193,0.41458103,0.6839603
health_care_activity,0.66837734,-0.4012079,-0.24327132,0.07413056,0.903554,-0.50842434,0.6561746,-0.28572044,-0.39122608,0.04018424,-0.7757275,0.16272211,0.34258017,-0.6629449,0.33499134,0.20337856,-0.7412022,-1.264513,0.4802996,1.7045002,1.1579924,-1.3567449,0.21539925,-0.8191357,0.9249338,0.50222504,0.12679717,-0.23540266,-0.31575578,-0.5470774,-1.14454,-0.55280274,0.68724716,-0.19624542,-0.08551137,0.7754481,0.886656,-1.0737073,0.09511625,0.36540204,-0.47794107,0.16154833,0.0520052,1.1887391,-0.3760911,-0.42640674,0.14218193,0.16531111,0.08468303,-0.44354227,1.2026312,-0.7429312,1.2536784,-1.8220202,0.2818032,0.56326944,0.123491704,0.137484,-1.095294,-0.5844139,-0.10381538,-0.87450695,-0.18492228,-0.029525299,0.18530226,-1.401868,-0.60392886,-0.89930755,-0.44507602,-0.6728396,0.927704,-0.650468,0.44305003,0.24955836,0.57330126,-0.46497613,-0.39958534,-0.8105906,0.73149836,-0.84116554,0.43711236,-1.2590334,-1.2647053,0.96266377,0.4905548,1.077577,0.57410437,-0.79427063,0.16584577,-0.64490765,-0.414079,0.12591799,1.4371918,0.5273592,0.13216172,-1.0936441,0.47855705,-0.8759593,0.39947203,0.6347096,0.17893532,0.29828385,0.076282784,-0.7725105,1.2068928,-1.3118806,-1.2588902,-0.27558792,-0.2684993,-0.43418503,0.35936865,0.64942217,-1.6297294,-1.0500994,1.2094945,-0.007080526,-0.2563002,1.1892127,1.703923,-0.93041867,-1.3891989,0.55167246,0.44083273,1.1286469,-0.26729754,0.56872624,0.89937204,0.19416392,1.2855932,0.8860562,1.96381,1.135239,-1.028307,1.7392635,1.6869329,-1.4205431,0.23226267,-1.5033029,-1.3021592,0.66930526,2.4387486,-0.74045736,0.14689411,-1.3840086,0.25630927,-0.61922044,-0.27388185,1.3166622,2.3240364,1.5851027,-0.5830347,0.4446239,0.84044516,-0.25086835,0.86083865,-0.20081505,0.43609807,-0.3143664,-1.388355,0.10871217,-1.2022854,0.6050235,-0.84457666,-0.013412212,1.9520802,0.3968615,-2.4218745,0.46077362,0.084671475,0.34697253,-0.98629713,-0.30618808,-1.7375668,1.0635661,0.3378815,-2.2392805,1.7916592,1.4822568,-0.3007748,-1.3107204,1.1928531,-1.1057199,-1.0420554,-0.20682532,1.196452,-0.33909613,-1.928929,-1.928218,0.6001663,0.09284993,-1.8528349,-0.017296845,0.09627671,0.9856866,-1.4618207,-1.4932117,-1.1169391,1.0307282,-0.27895764,-0.08098328,-2.0646076,1.539861,-0.17732115,0.18497817,1.8219976,0.9954254,-1.1172479,-1.1544632,-3.2488644,1.4223964,-1.0104057,0.013278639,0.2638865,1.7475743,1.4180063,-0.16718476,-1.280722,0.40200666,-2.6069164,1.4729615,1.3790091,-0.19514105,-0.9429785,0.26260695,0.24856602,0.45234194,1.4329597,0.7001084,-1.3608367,0.5387621,0.03174531,0.08422303,-1.2615954,1.0059202,-0.5605698,0.39063781,-0.488546,-0.5070137,1.0264807,0.46461737,0.4948877,-0.49466223,0.76331085,0.3110942,-0.64430314,0.065729626,1.1870937,0.9832478,-1.9495536,-0.42513427,3.0675778,2.7101698,-0.63556886,1.1337099,-1.500458,0.22462519
population_group,-0.6262722,-0.4710344,0.19197643,-0.365812,0.33190617,-0.5893962,-1.4453413,0.4001646,-0.29094437,-0.10221313,-0.586283,-0.09577145,-0.6567129,-0.36621293,-0.08634882,-0.23078541,-0.13550451,0.38972506,0.14854585,-0.48488367,-0.17091691,-0.07444148,-0.22375348,0.8199444,0.5962642,-0.4856755,1.7496384,-0.74655014,0.38921753,-0.44045687,0.97616196,0.12115342,0.14693496,-0.9355399,-0.48396692,0.865532,-0.28138798,0.6685917,0.1404191,0.121462286,0.34387898,0.19506317,0.038253047,0.52690166,0.37938967,-0.54084575,0.17071322,0.6509783,-0.35971138,-0.15544343,1.7657723,-1.2396058,0.088603765,1.2240833,0.15788405,-0.9414617,-0.19864878,0.39789644,-0.2688703,-0.22561973,0.07711253,-0.2654174,-0.44905964,0.70172143,-0.033966977,-0.08867822,0.4438765,-0.40990597,0.5099452,0.8054392,-0.3379358,-0.3286931,0.122014,-0.37515888,0.14220962,-0.004066813,-0.15403837,-0.3227584,-0.50592375,-0.2599847,0.7487073,-0.8435293,-0.72093433,-0.35700044,0.8409095,-0.65522116,1.4047239,1.0993406,0.4733492,0.3550567,0.44003597,1.2272731,1.7395666,0.13290605,-0.2912927,-0.6951431,-1.5904737,0.24477008,-0.6976561,0.9123993,0.8343212,-0.28723097,0.24915096,0.25977138,0.9368878,0.45617628,0.5249075,-0.103447944,-0.69791085,0.39194137,0.011484785,1.1075644,-0.830893,-0.017835844,0.43923998,0.04838973,-0.11479895,0.10872179,0.47607258,-0.91793853,-0.47841483,1.751666,0.59932363,0.7352778,-0.24806859,0.06343422,-0.22137833,0.7323384,-0.020403393,0.71318454,1.0207312,1.1745688,-0.17306483,0.5876547,0.443774,-0.55057395,-0.81293666,-0.7476009,-0.99741524,0.013161135,1.0360621,1.4731904,0.49433562,0.8730939,1.4630697,-0.94859093,1.6692096,-0.4246094,1.647853,0.29864907,-1.3173416,-0.15384515,-0.30725065,-2.0556946,-0.16431376,0.055409063,-0.21902226,0.9255316,-0.99526036,-0.17278977,-1.2140621,-0.4507266,-0.73534,-0.031999968,0.839355,-1.625397,-1.5930629,-0.36840063,2.1222637,0.44989344,0.95513237,0.5424043,0.7819196,-0.7219169,-0.2892849,0.052968923,0.3226562,0.782027,0.12439603,-0.76269984,-1.253375,-0.8489335,-0.12555975,-1.7325214,1.2667831,-0.25160858,-0.83540666,-0.7523205,0.34654105,-0.27019757,0.16133526,0.8792462,-1.411646,0.32528082,0.85698074,-0.458767,-1.7967122,0.6958075,-0.5521244,-0.31442145,1.0667574,0.294862,0.06704845,-1.0552914,1.4855683,0.9372797,-0.77600485,0.12855321,-0.94992685,0.5251486,-0.3114362,0.06308814,-0.29882473,-0.6160138,-1.5650724,-0.49518704,-0.7838106,0.7129003,-1.0798441,1.1737816,1.5359589,1.1747451,0.43030202,0.41392162,1.2040248,1.386051,-0.2204701,-0.6174248,0.37019992,0.49058288,-0.11725981,-0.51955134,-0.10107894,0.332895,0.0053961086,0.0070267324,-1.0289792,-0.52635336,0.40989542,-0.28608724,0.5981018,-1.2448108,0.93944454,-0.07047784,-0.68538386,-1.0212183,-0.42817035,-0.18210104,-0.13541538,1.62094,0.98486227,0.9688795,1.9002562,1.9590003,-0.62723094,-1.0098025
clinical_attribute,0.26249012,0.6018982,1.0736458,0.73978645,0.6266594,0.17952208,0.5848239,-0.15857853,0.23061202,-0.60549706,0.65840435,0.56398374,-0.766207,-0.9933507,-0.13438782,-0.29060984,0.06271132,-0.46428713,0.038244125,0.46989185,0.68716395,-1.170751,-1.2884638,0.19536342,0.9650021,-0.30221426,-0.010344955,-0.6869088,0.18386002,0.32405415,0.7290638,0.08470409,-1.4750257,-0.24360688,0.2564106,-0.08912366,0.45048362,-0.7791643,-0.7061778,1.5559149,-0.72501487,0.80075115,-0.14829952,0.51237184,-0.31102073,0.05755002,-0.40941387,1.0374111,-0.8039765,-1.9302962,0.41876924,-0.62070966,0.7074134,-1.525174,1.5222342,-0.042281482,0.11733136,-0.62391806,0.1764035,-0.2239289,-0.3637056,-0.50965786,-0.9841849,0.25097737,-0.23964205,-0.77354383,0.47330332,0.55793273,-1.1041906,0.7497161,1.0236672,-1.5239997,0.41360742,0.89401543,0.10400855,1.0368913,0.4977359,0.27142653,-1.3699158,-1.366897,0.80209386,-0.26312855,-0.49495375,-0.28256842,-1.1558,-0.4279978,0.28800923,0.5271248,0.8779134,0.94523406,-0.41968057,0.35294986,-0.25913808,-0.2778598,-1.0872838,0.31923512,-0.21907233,-0.2883892,0.16904649,-0.5346528,-0.0030099489,-1.2061478,0.83628327,-1.7580466,0.97712195,-0.7931045,-0.31349337,0.43428555,0.5523193,0.4014792,-0.439149,-0.11454313,0.07166805,0.5314512,1.6205057,-0.9865296,1.4264437,-0.19285233,0.88073915,-0.7559251,-1.0502374,0.21948148,-0.22083369,0.26312065,0.5232102,-0.17131844,-0.7137793,0.2080819,1.0186895,0.11141493,0.31095123,-1.0655631,0.13528185,2.1002603,1.2659911,-1.0391783,0.30760065,-0.76375854,-0.42020017,0.37188837,-0.5986745,-1.9774878,1.7008604,0.0096905725,1.9087591,-0.23538828,1.6246629,-0.64865535,0.31392348,1.9259568,-1.0972419,-0.23257078,0.11449293,0.6462131,2.347972,-1.1851081,0.40248683,1.2350537,1.020527,0.2682763,1.2226355,0.9509032,1.168565,-2.142799,0.3049395,-0.35891187,-2.4213376,-0.21049473,0.8247364,0.1486113,-0.19045967,0.80795175,1.049043,-0.025640609,-1.0562171,-0.861948,-0.16810694,0.48290998,1.441843,-0.44085267,-1.3199329,-1.641045,-0.2610901,-0.6461902,-0.007504351,-0.5271456,-0.71469384,-0.7512018,-1.7522416,-0.8933716,0.02967833,3.4138887,-0.32598013,1.6931789,-0.09697594,0.9809505,-1.476628,0.9216934,0.4052992,-0.2962427,0.2409843,1.0136061,-1.7636863,-0.46290562,0.3245038,-0.74445134,0.5894501,-1.9260993,-0.8854696,-1.1917776,-1.0102831,3.009135,1.873335,-0.3585838,1.1393229,-0.15576863,-1.6850123,0.37470144,-2.2245572,0.784363,0.52418846,-0.3110992,0.3406068,-0.4633363,-0.5284547,1.206502,-0.30709505,0.04823376,-1.0671781,1.3234686,-1.0838299,-1.4952942,-2.3965685,0.5262746,-0.00034366455,-1.6067775,0.23072933,-0.6275927,0.32146907,-0.11810171,0.40575725,0.36167184,-1.0363628,-0.7745619,0.82697046,-1.8546671,0.20325497,2.3219762,0.057162505,0.68310076,2.3069549,0.98155695,0.045089528,0.94338757,-0.9577232,-1.2073046
body_part_organ_or_organ_component,0.17785543,-0.5792262,-0.10257482,0.51450783,0.4914227,-0.123103224,-0.87485105,0.23277308,0.07317221,-1.5067325,0.5840522,-0.91706115,0.4781863,-0.8226856,0.89487976,-0.9021517,-0.0021786669,-0.041164164,0.5765979,-0.18985102,-0.23727067,0.1864717,0.40955502,-0.27651882,0.96742815,-0.8951777,-0.08634538,-0.83847815,1.0610685,-0.47210905,1.7138804,-0.10793162,-0.4762403,0.8538834,0.14805491,-0.7957016,-0.6357333,-0.18161686,0.43919238,0.15589358,0.13161345,-0.058943916,-0.22412458,1.295942,-1.7909807,-0.12905607,0.73245585,0.44632,0.34190857,-0.09799373,0.49933723,-0.49451706,0.46383452,0.57642764,-0.1198295,-0.4613365,0.67028135,-0.31421962,-0.63112086,0.20839734,-0.42631832,-1.5874497,-0.5184387,-0.0040843976,-0.72359914,-0.46237943,-1.3636278,0.53190273,0.30334428,0.05801138,0.1972127,0.33743387,-0.51601225,0.024682637,-0.07318489,0.69644266,-0.3383728,0.88260645,-0.2384224,0.1807425,-0.12818088,-0.16256967,-0.4834798,-1.1087903,0.2482895,-0.66323984,1.5948976,-0.42515194,-0.15558788,-0.8504894,0.8779624,0.78123736,2.0622847,0.10313646,-0.13416371,0.1597802,-0.40567896,-0.17968751,0.6144533,0.7680928,-0.3075399,-0.019971697,0.44574553,0.77294207,0.8978692,0.117256105,-0.1648429,-0.33600342,0.19780661,-1.1302294,-0.5883359,0.38295102,-0.10289325,-0.052364744,0.6195002,0.24116586,0.00812771,0.8590733,0.63364685,-1.0255886,-0.8383781,-0.70593405,0.46612495,-0.8126988,0.28625265,-0.32386622,-0.06872598,-0.6495831,-0.6444318,-0.42502502,1.632512,-0.790614,0.774269,0.93171686,-0.019760193,0.21645665,-0.8451925,1.1452785,-1.2526911,1.1643277,-0.31883508,0.051623724,0.11098628,-0.9151387,-0.13796093,-0.17827094,-1.9280969,0.8397747,0.8572776,0.08321581,0.0013139498,-0.7618831,1.5437647,0.73563087,0.422394,0.27697653,-1.3663142,0.19182207,0.69528913,0.35449782,-1.1669577,1.3223118,1.1744869,0.27760822,0.6139844,-1.4163499,-1.5239979,1.6690354,0.657612,-1.1168201,0.13083436,0.5671657,-0.44130686,-0.8523593,-0.45505127,-2.4507256,1.080019,1.0228989,-1.1925483,0.69963783,-0.32298613,-2.0677829,-1.1366197,0.5098773,-0.45929676,-2.4787462,-1.5755196,0.051052444,-0.714951,-0.18379425,-0.69368494,1.1514133,-1.471213,0.4788469,0.45673817,1.6750175,-2.8133242,-0.5522371,-0.48233318,-0.36820465,-1.0976518,0.25646317,0.63572836,-1.1721928,1.6686367,-1.8912848,0.39457533,1.4967483,-0.06398906,-0.25932267,1.277167,1.4586434,-0.42113495,1.5438412,0.59980935,-1.2515762,1.2815776,-1.1160741,-1.1614233,0.9802272,0.0007778031,1.2705507,0.05790489,1.7329155,-0.3875594,0.10748521,0.04300891,1.0407435,0.9233118,-0.47398144,0.9016498,2.6746526,-0.1347419,1.3397858,0.35474092,0.7403036,0.1556621,-0.07893396,-0.34933144,0.056662843,1.1347221,-0.45989788,2.422412,-0.4094761,-0.8953276,0.54011303,1.1147821,0.6017379,0.71781284,1.2925869,2.0186095,1.4464258,-1.1178468,-0.11845068,1.2431859,-0.51865715
biologically_active_substance,-1.0058739,-0.9375276,-0.67040056,-0.93887955,1.024268,-0.28535494,0.39262995,0.2750255,-0.26900923,-1.2125803,-1.4333665,-2.2229216,0.27707848,0.24813502,2.0900338,0.2290228,0.4365689,0.56495535,1.1354699,1.1939565,0.3232439,0.031786345,-1.0511286,-0.8456359,1.0225685,-0.10987034,1.2846509,-0.49482885,0.099549465,-0.19150913,0.60162795,-0.5056996,-0.44553512,0.9167372,0.7491292,0.5137401,-0.6435939,-1.1464133,0.13037902,-0.6981876,-0.55044115,1.462925,0.44151872,1.0129769,0.5665442,-1.453647,1.2056835,0.66358495,0.38837495,-0.7724034,0.053938303,-0.45099723,0.8397944,-0.98712456,-1.1348313,1.3631552,1.2272043,-0.26744482,-1.2224627,0.47696096,-0.384368,-0.13711143,-1.2253584,0.17042848,-1.2449126,-0.36612615,0.26476732,-0.39066473,-1.079709,-0.4909109,-0.2811582,-0.19676128,0.2220833,0.09756966,-0.52765924,-0.9234474,0.6714483,0.11669598,-0.8946533,-0.006256297,-0.12267728,-0.55165803,-0.3882303,-0.5007894,-0.47318858,0.12451348,-0.14630459,-0.05779261,0.105536334,-0.71031487,-0.23530574,-0.15112211,-0.051795308,-0.57648456,-0.24961454,0.567841,-0.5376286,-1.4189385,0.60664177,1.0603911,0.7857348,0.9762268,0.44385582,0.40621227,0.70453024,-0.5586501,-0.33135495,-1.7557273,0.16127396,0.1387814,-0.40387926,1.298046,-0.03539784,0.5066472,-0.10270174,-0.8413307,-0.26894197,0.13410665,-0.56431574,-2.0120354,-0.04826004,-0.56150204,0.570136,0.13747983,0.36531484,1.7080822,-0.12162428,0.24557707,-0.2899627,1.9518951,0.25391608,-0.28342116,1.4480749,0.28734,-0.04123196,-1.3260078,-0.8765253,-0.39378738,0.7385791,2.0496366,0.76691675,0.98105925,0.225923,2.425045,0.22720827,1.5709227,-1.3144059,0.583604,2.1749022,-0.04955446,0.67707044,1.3412739,-0.20496753,1.1535825,0.121267274,-0.52905285,-0.61753947,0.6772437,0.11056929,0.9071192,-1.3030545,2.1802475,0.039800916,0.89220876,1.6384279,-0.19711447,-1.2703373,-0.3227615,0.1356702,0.49976817,0.83060867,0.12550052,1.1166997,0.038653973,1.2481269,-1.2221212,1.4866335,0.13932627,-0.3972029,-0.67664653,0.8300202,-0.9988312,1.5237467,0.44743,0.39752233,0.6938813,0.34545684,-2.1584492,-1.2414634,0.51517606,1.0773386,1.6422855,0.09919396,2.2259734,0.4450932,-1.1492037,0.19187859,0.5487611,-1.9839463,-0.88153666,-0.4134048,2.1655521,-1.6666977,-1.9825748,0.28725854,0.34177893,0.911028,-0.82160085,-0.08122864,0.6542736,-0.21581683,-0.3641247,1.854028,1.0390363,0.14230488,0.13760658,-1.3566067,-0.018147027,-1.2515843,1.3973076,0.010597382,0.17815842,0.92887276,1.3066505,-0.5309528,-1.6689299,-2.0933769,0.3576549,0.23322025,-0.59922934,1.2769982,0.43094164,-0.63682,0.12361222,1.6336459,1.6068996,0.11240752,-2.3371017,-0.32727593,-0.3098617,-1.1413851,-0.41924772,0.5417231,-0.0540397,-0.29490346,-1.9553854,-0.6141463,1.6847111,-0.033957332,0.67212534,0.40108788,-0.49349403,0.13133922,0.06153086,-1.4083271,-1.2348688
disease_or_syndrome,0.4039248,-0.07540703,-0.21926218,0.79229593,0.32845825,0.12599072,-1.4486482,1.3664501,0.7244925,0.83719677,-1.2411313,-0.5983667,-0.16813722,-0.07986587,0.10522639,-0.18974929,-0.28850195,0.35527706,0.73633224,0.8853456,-0.7878308,0.022501737,-0.1995414,0.3082714,-0.38065255,-0.7470673,0.3831982,0.98289645,0.050482683,0.0740605,0.8232571,0.11216628,0.117355995,0.40396264,-0.7025618,0.3535354,0.73852783,-0.49382472,-0.5463135,0.4495228,-1.2106923,0.8023145,-0.37200525,0.44200882,-0.180734,0.82691103,0.0016287955,0.45633096,-0.4287572,-0.5148856,-0.13367234,-0.2605208,-0.14980882,-0.2050017,-0.37651813,-0.29196942,0.84847087,-1.2178413,-1.3232914,0.14497043,0.35803074,0.5326148,-0.9132803,-0.5891003,-1.7580607,0.22556026,0.64477354,-0.08590272,0.056538615,0.15050301,-0.3861487,-0.7132437,0.51752645,0.17272061,0.20901243,0.2514797,1.5987495,0.71558833,0.09119034,-0.44916,0.6236781,-0.24411462,-0.90165085,-0.28309938,-0.49825698,-0.059268314,1.1653695,0.14717188,1.1509467,-0.5945053,-1.404898,0.14278217,-0.65621096,0.36958268,0.027834827,-0.13790257,-0.64532477,0.6535784,0.96465683,-0.9336277,0.72280467,-0.30941153,0.37755287,-0.4541813,-0.2636064,0.28992954,-0.51135004,1.1355364,0.77729696,-0.33631465,-0.32253557,0.37406957,0.17215347,-0.14332998,0.68665206,0.018340984,-0.57751,0.55512065,0.18776593,-0.89026,-0.2736783,0.47594178,-0.27963105,1.1464535,-0.54027426,0.2147254,-0.25267276,0.711691,2.0538244,0.7609695,-0.39902794,0.28662026,-0.8058737,1.9530823,1.0137383,-0.2332782,1.5508417,0.19245864,0.2988554,0.5338559,-0.19838034,-0.23884691,0.2881729,-0.7367908,0.6010902,-1.6204304,1.1873584,0.5456833,0.8003512,0.011850052,0.64718825,-1.3690302,0.26513615,-0.74321735,0.20551944,-0.31605318,-0.78384405,0.31408605,-1.503996,-0.62059504,0.20857942,0.41263673,-0.039100844,-0.50217223,0.9449321,2.228731,-0.65448236,-0.7717413,-1.0359688,0.2653862,1.3253741,-0.46043536,0.13624245,0.49665213,-1.0605227,-0.6252801,-0.6864657,1.4331447,-1.0153978,1.4516686,0.8894555,-0.7214187,-0.9753534,0.45833978,-0.70921427,-0.75099134,0.56118405,-0.055801302,-1.2500621,0.19070028,-0.08709885,0.614029,0.80990416,-1.6347485,-0.4631529,0.432997,0.30304167,0.28762597,-1.6250864,-0.18875284,0.23166656,2.5515532,0.060246132,-0.4297645,0.5714702,0.58477104,0.013361938,-1.362632,0.4981748,-0.50855076,-0.44944283,0.38185978,0.38502416,0.10252823,0.9991541,1.4177969,0.18561412,0.50206953,-0.09294453,-1.5299282,0.45287725,0.29695398,0.67415994,0.31944236,0.224164,-0.5913147,-0.24292353,-1.029675,-0.43249494,0.44970092,-0.29367197,-0.7033703,-0.106865115,1.0144234,1.3073308,2.005227,-1.0576011,1.9804914,0.42717174,0.5678063,-1.6239665,0.295314,-1.5596372,2.0907052,0.0071217883,-0.84233934,-1.6307086,0.12504208,0.40161362,0.44960994,0.9113605,-0.071957745,1.709347,0.04962911,0.22174165,-0.10520513
carbohydrate,-0.8182423,-0.47835252,0.00049674255,1.1902047,0.19089808,-0.13127625,0.29691863,0.39844134,-0.9785841,-0.34827718,-0.3390735,-0.28923374,0.19696778,-0.42843273,-0.11076235,0.036110636,0.46845186,1.3432689,0.6231432,-1.7703047,0.8739768,-0.67770875,1.5547396,0.1994914,0.57275337,0.45773485,0.14380455,-0.56683207,-0.09215636,0.14006162,0.18019836,-0.17695183,-1.2246336,-0.0410895,0.23809919,-0.04963607,-0.6772087,-0.7721172,-0.56405765,-0.21196374,0.118198045,1.2063189,-0.8421604,0.22220144,-0.3465703,-0.14336444,0.16263485,-0.07052905,-0.100764036,-0.30102417,-0.101390496,-1.8880541,-0.10688412,-0.62540776,0.52312297,-0.23289342,-0.2343461,-0.60560143,-0.19009799,0.25403634,-0.31540465,0.9787516,-1.309855,0.12257089,-0.40999037,-0.6210076,-0.10635575,0.052240748,0.5833212,-0.41711763,0.1607672,-1.4576508,-0.24310565,-0.7740096,0.57917607,-0.22258215,0.90146554,-0.6265711,-2.865291,0.0453159,0.27783266,-0.5110293,-0.71036863,-0.4088687,-1.302619,-0.019373486,-1.140089,-0.20568179,0.17016609,-0.6202305,0.00678042,-0.1425596,-0.090070665,0.21150285,-0.06333791,0.5632367,-0.34933275,-0.73038054,-1.6589609,1.749457,-0.14888917,0.10678041,0.5605336,1.0245095,0.5467863,-0.373721,-0.40631187,-1.0250145,-1.8367918,0.6408007,-0.7771597,0.87310714,-0.27067712,-0.14538872,1.2100925,0.026304454,-0.30396527,-0.42103213,-0.19559817,-0.108066395,-1.1859885,-0.058626644,0.36153507,0.68382496,-2.6592834,0.39186072,0.017608434,1.1602309,1.2234477,1.6356512,0.38888273,0.1277786,-0.09464902,1.3957788,1.2170808,0.32490748,-0.66189045,-1.8540157,1.1720206,-0.9480293,-0.22860254,0.63082725,-1.0420434,2.080722,-0.029924843,1.4745275,0.17173398,1.73156,-0.9561753,0.897456,0.9539756,0.067322895,-0.4094181,1.2475299,0.25554085,-0.5608216,-0.608035,-1.4381952,1.3360367,0.6722487,-0.8572645,-0.092176095,0.022167217,-1.1799111,0.50941956,0.6705188,-0.946779,1.1138954,1.2132151,2.1793344,-1.9537786,-0.3305999,0.20550977,-0.8365831,0.8899299,-0.26340625,1.0653847,0.16012722,1.5902727,-1.7796954,0.19239919,-0.18459822,-0.6324632,-0.35402206,0.9280953,0.22636071,-0.026983608,-1.2931552,-1.4386537,0.19283926,-0.98632634,2.0996232,-0.9202129,1.553063,-1.7792767,-0.23488057,0.14746915,1.7742229,0.07885185,-0.8594583,-0.62907296,0.68592787,-1.1895472,-0.7876535,0.94582045,1.4372172,0.9676389,0.8320191,-1.6130227,-1.7809265,-0.32164007,0.5391394,0.35982507,0.27928486,-1.5097549,-1.4421418,0.18138863,-0.58316153,-0.5395037,0.613647,0.45707795,-1.8859067,1.0210656,-0.328578,1.9096192,1.0340296,0.49369824,-0.13890655,-0.39734736,1.8973166,-0.08527729,1.443878,0.08055555,0.65160644,0.11271737,1.3768176,-2.2828853,-1.1969668,0.38414115,-0.68165153,0.11465204,-1.6825192,0.20976104,0.29455942,0.38145345,-1.1264815,-0.32783222,1.7406827,-0.33556172,1.6333243,0.9288236,-0.05055424,2.4340837,0.6092391,-1.9620174,0.22562864
molecular_sequence,1.0932442,0.73152524,0.12647973,-0.8495906,-1.3270282,-0.49673226,0.6665662,-0.2374248,0.2593863,0.6035762,0.04515024,-0.13902175,-0.13272358,0.16777427,0.9753571,0.99989086,0.09640452,0.6780967,1.1638973,0.23942617,-0.34578493,0.004695307,0.27713284,-0.011915662,0.61877143,-0.3376016,-0.14439997,-0.2176548,1.0926367,0.029033298,1.203705,-0.34050816,-0.5990086,-0.15224415,0.038133014,0.4278307,0.04525956,-0.3510313,0.65267015,-0.116427034,-1.110447,-0.7804441,-0.15715405,0.34735456,0.3005845,-0.14182384,0.12937562,0.74723506,-0.847575,-0.09820419,0.67689365,-0.6333632,1.0784013,-0.5523578,-0.55320394,-0.08141038,0.30438724,0.70313317,-0.88113654,-0.23570307,-1.8385627,0.33767346,-1.3041172,-0.36780512,1.3174764,0.30793265,0.08375638,-0.049975272,0.32089058,0.75121677,0.46360514,-0.12555055,-0.59931827,0.1278862,0.45730242,0.63794327,-2.1177435,-2.0530472,-0.20728455,-0.16984326,0.08797922,0.026117636,-1.7048908,-0.6553979,0.9222701,0.11930616,1.3655334,-0.57062197,0.34554946,0.2528736,-0.29594442,0.1320748,-0.5250409,0.041474123,-0.3100686,1.2799522,0.24862203,-0.40751925,0.81677514,0.8112329,0.041454554,0.15752901,-1.1745398,0.5753965,0.86781704,0.073861495,-0.22111131,0.60526127,0.04129627,-0.27526757,-0.12802127,1.6529357,-1.0962701,0.90202856,0.387944,-0.035493392,0.11905711,-0.14488158,0.073265806,-0.45374504,-0.53044474,-0.05845513,-0.12182225,-0.13622113,0.17898247,0.25868514,-0.49855274,-0.96604174,0.29022992,0.43326634,1.1978413,1.3196341,1.1664819,0.8319731,0.22159682,0.008111103,-1.159266,-0.43559808,0.19059488,0.08137504,0.49070606,-0.17381936,0.10904288,0.31362027,1.6934837,0.7635462,-0.34561485,-0.1530457,2.6192093,1.3663741,-0.68680763,-0.66429466,0.11434837,-0.8530538,1.1733696,-0.056860093,-0.27060455,0.905495,0.11892789,0.41188195,-0.16916564,0.8455639,0.22330001,-1.9972119,0.19952083,0.08464086,-1.3735251,0.67457664,1.8272681,-0.6383664,-0.27982482,2.0096517,0.50896823,-0.8417098,-0.7574563,-0.29818588,-0.09700588,-1.4778132,0.97943646,0.20895411,-2.404699,-1.1926832,0.80324674,0.21725611,-0.43297818,-0.8459535,-1.0974721,-1.5069103,-0.04840541,-1.2999799,-0.028628118,0.5134197,-0.023919854,2.634967,0.5996852,-1.3657331,-0.5724224,0.3706915,-0.41672146,-1.0565253,-1.2331384,1.5818865,-0.36635888,-0.5696317,1.2124361,1.3774052,-0.5475472,-0.33049932,-0.418715,-0.27031097,-0.92968756,1.4826263,0.27182892,1.3755674,-0.7691619,-1.2049539,-1.0249126,1.3845797,-1.0834496,1.741047,-0.4790298,-0.09642039,0.5014023,3.1602335,1.5047224,-1.987976,-0.848942,1.3022244,-0.77777797,1.1379541,0.6269843,1.3536954,-1.2241884,1.4658041,1.9052744,-0.6086314,0.22264302,0.20863289,-0.77682817,-0.2698145,-2.1335857,-1.597389,0.86690587,0.035482302,-1.2937435,-2.7793865,-0.1424426,0.7792925,1.1109085,1.4614851,-1.3029898,0.670209,1.0584393,0.51262414,-1.5296625,0.34091866
steroid,-1.200708,-0.035806235,0.2635981,0.18753889,0.40448493,0.56739247,0.17240728,0.33521143,-0.2647361,-0.15600817,0.08835154,0.6835128,-0.5023601,0.47455418,-0.95505714,-0.46351123,0.7546199,0.9043031,1.0100936,-0.06451902,0.30019575,0.88449925,0.07155421,0.35278893,0.36442727,0.20163986,0.24131203,-0.7258942,0.39763775,0.2699865,0.6002895,-0.5108464,-0.21576594,-0.40319934,-1.0487103,-0.24933012,0.16979705,-0.21160297,0.20666562,-0.7481889,-0.4105815,-0.74244654,-0.38689572,0.7449887,1.0204695,0.8086739,-0.009949682,0.013225734,-0.25229415,0.44684133,0.22831891,-0.031363048,0.30021426,-0.3153601,0.2586729,-0.017930195,0.5872018,-1.1352535,-1.0463259,0.40481544,0.5091037,0.07796762,-0.7726068,0.26846012,-0.38975152,0.09804647,-1.1080866,0.16808926,-0.56509036,0.26350787,0.7445935,-0.15247872,0.18845077,0.13063414,-0.13865626,-0.15645055,0.19515157,-0.00041208172,-0.8639627,-0.8860319,0.5060261,-0.29032606,-0.027752057,-0.25749227,-0.18936865,-0.02955562,0.85857356,-0.38372323,0.2935545,0.991677,-0.64069206,-1.9370481,0.58742857,0.9424605,0.25784585,-0.6999616,-0.4234572,0.112681516,0.4641108,1.1806796,0.3353799,-0.06776075,0.044312153,0.9326423,0.902972,-0.37947682,-0.44504815,-0.23793007,0.24943115,0.7868639,-0.14896995,0.8233167,0.7908723,-0.7106116,0.6763989,-0.1700857,-0.45179752,0.7023,0.20208567,-0.25207436,-0.77992064,0.12425063,0.7495732,-0.8433995,-0.10426271,-0.11677814,0.018729609,-1.0353693,-0.20431456,2.5288503,1.6372582,0.12799245,0.40650043,1.0831548,-0.58351934,-1.811063,-0.66840965,-1.5842576,1.4542419,-0.9043133,0.33580583,0.5640038,1.9090717,0.07544432,1.3215705,-0.7465179,-1.3172219,1.1658452,0.33377773,0.48283023,-0.8307814,0.45452094,-0.59486574,1.3622243,1.8267323,-0.07902285,-0.28310218,1.1374022,1.2395247,0.42839915,-1.5535928,0.73244923,-1.4507715,-0.40242645,1.1692841,0.21593288,-0.026312444,0.6480694,0.40705067,0.1113894,-0.5909773,0.5939399,0.76254475,-1.0247382,-0.9100487,-1.1043407,1.0630674,0.24872118,0.5595428,-1.5571166,-0.3814034,-1.5417569,-1.0992057,-1.4145538,-0.1133049,-1.3190749,-0.2420234,-1.9652426,-1.130667,1.5939348,0.41093123,0.4925487,-1.9424591,1.2394593,-0.23167089,-0.18035522,0.033119675,1.4971486,-0.71976197,-1.0562676,0.6817701,0.6469495,-1.6466562,-1.0909877,-0.4397065,1.3178134,0.10437943,0.37680572,-0.051064957,0.18513148,1.64851,0.08918952,-0.0401528,-1.0296203,-0.7222091,-0.9120269,-1.1681067,-1.0882345,0.47112265,0.053600878,1.965411,-0.713837,1.2076858,0.01004705,-0.2838905,0.17234929,-1.5207316,0.01649863,-1.2486992,0.2920595,0.49758083,-0.7061058,-0.68312365,1.3406857,0.46568197,1.7942629,-0.87979394,-1.4896234,-0.32199097,-0.74494797,-0.49283016,-1.3428874,1.4631125,0.6773619,-0.24529566,-1.8276665,0.577014,1.3617024,-0.94234335,1.0015831,1.0447745,1.1893845,1.5753791,1.4687438,-1.0593039,-0.43749204
experimental_model_of_disease,-0.07683417,0.23950905,-0.01183687,-0.11991252,0.6870242,-0.007728835,-1.2585641,-0.056136835,0.0727675,-0.43539745,-0.23632985,-0.44718257,1.3000578,0.74244356,0.0068622753,0.14046712,0.23650587,0.5493819,-0.5554907,-0.50642115,0.42090097,0.7279485,0.07356157,0.3445044,-0.29727113,-0.021555273,0.54543316,-0.76244956,1.2135724,0.27070686,0.21638732,0.18046215,-0.5876878,0.20390838,-0.0069868593,-0.09380194,1.2075934,-0.39702037,-0.14086378,-0.7861669,-0.56438243,-0.07910944,-0.3415143,1.3886439,0.6450551,0.0036614272,0.082886465,0.25010905,-0.6130015,0.93255204,-0.28300467,-0.61019593,-0.05289863,-0.21102175,-1.4293437,0.052485723,0.34428644,0.068401225,-1.0376172,-0.088748276,-2.0021343,0.79391307,-0.5556662,-0.5623854,0.5322148,0.5613098,0.81000817,-0.738918,-0.49483073,0.152144,0.0068631703,-0.5009219,0.093754746,-0.9578256,0.08616665,-0.476936,0.27705887,0.87415403,-0.048295364,-0.30899408,-0.2353237,-0.84503037,-1.360821,-0.5119298,0.044938996,0.6261438,0.52141744,0.090705216,0.6114126,-0.9672436,-0.81636524,-0.5219623,-0.8198189,0.033663053,-0.30715403,0.678915,-0.9957458,-0.49501142,-0.0274958,0.12548636,0.6195047,0.33836567,-0.9816978,0.19117367,-0.4044818,-0.46552873,0.76556605,0.27375686,-0.43320528,-0.07758155,0.72592574,0.84788036,0.29486445,-0.37953365,0.86123514,0.42006302,-0.71335715,1.101685,0.11175729,-1.1014547,-0.31757966,0.57274514,-0.13719007,0.7896032,-0.68883157,0.07906462,-0.8565393,0.4534983,-0.31438968,0.44907832,-0.6253307,1.1413361,-0.8190197,-0.34300894,0.16601959,-0.66294837,2.4911883,1.0342102,-0.30524185,0.4716118,-0.49594834,-0.011367422,1.4736148,0.64660335,0.57246846,-0.546761,0.5215922,-0.17104395,1.5635566,0.5811903,1.3646668,-0.44549936,1.5333029,-1.1876947,0.51309115,-0.8506403,-0.66771096,-0.5921403,-0.62695235,0.067574866,0.9781998,0.55343425,0.025773607,0.9369736,1.7351353,1.4752789,0.28842077,-0.455424,-0.11786378,0.6175397,1.2300483,-1.1748854,0.335375,0.5328735,-0.21410128,-1.9870858,0.20450872,0.011145236,-1.3011054,0.33448106,0.07047878,-0.40402487,-1.6887045,0.5398179,-1.1854308,0.047789853,0.035931673,-0.64303845,-3.2302566,-0.56089026,0.4309947,0.22430436,1.2901974,0.56048006,-0.29792532,0.35456917,-1.0035865,0.2638285,-1.5317705,0.003251716,-0.227719,0.7912105,0.025312457,0.21014118,0.15279698,0.93047726,0.34827697,-1.1526078,0.9507109,-0.8497942,0.051024675,0.76814866,0.6862045,1.1718005,1.1943051,0.8112892,0.70304525,0.8562966,0.21858944,-1.1241302,0.089975685,-0.30280387,-0.23779926,0.79305595,-0.35673773,-0.5529148,1.3663157,-1.2792612,-1.1844674,0.6109315,1.7850486,0.22210994,0.17467147,2.061439,1.9059702,1.8993573,0.25242284,-1.2273484,0.946476,0.59149885,-0.5568349,0.033668388,-1.3016503,1.1847647,-0.38825002,-0.6150436,-1.6218686,0.24418494,0.90681434,1.408956,1.0490565,1.5186642,0.68740726,-1.6520427,0.370954,-0.09748919
patient_or_disabled_group,-0.24701115,-0.34649634,-0.54305077,-0.13126382,-0.6989632,-0.6447952,-0.5002874,-1.3666015,-0.17193052,-0.12011627,-0.17399514,-0.52176917,1.4516882,-0.37132034,-0.56780803,-0.11508842,0.17505561,0.4180816,-0.048848942,-0.5796336,0.31960607,0.17318109,0.060712118,-1.4673092,0.9486324,0.16531932,-0.26894435,-0.72351843,0.13823564,-0.44213644,0.9482976,-0.52149695,-0.37474415,-0.22073941,-1.0058777,-0.7420162,-0.5768418,-0.14281118,-0.3190595,-0.1289854,0.37907308,0.7268296,-0.41211608,0.018592883,-1.2650675,-0.10605275,-0.06408946,1.0648762,-0.42386946,0.35812315,0.9920101,-0.73855287,0.19843759,0.611281,0.37028143,-0.70908934,1.7117511,-0.09746271,-1.1522176,-0.27385393,-0.19467784,1.2751635,-0.63456404,-0.1484119,0.11248247,-0.13008301,1.447964,0.19633633,0.037539814,0.62895954,0.2835565,-0.9943117,0.07617196,-2.276358,-0.023033304,-0.044208236,0.011777237,0.008281294,0.32971448,-0.27056554,0.03448637,0.6273245,-1.0214885,-0.59051985,0.07437222,-0.18190515,0.824024,1.3465459,-0.10657932,-0.12825122,0.30443352,0.45824137,0.12443841,0.05582219,0.490295,-0.64094585,-0.8406467,-0.48087576,-0.3844859,0.56360304,0.064130224,0.61291575,1.0405339,0.6270016,0.34519416,0.9591583,-0.1180705,0.4805861,-0.48070183,-0.2535979,-0.31661737,0.4074211,-1.7918385,-0.1524069,0.099416874,-0.4544969,1.0473012,-0.21144874,0.2606466,0.33334136,-1.23151,0.053670064,0.11139976,-1.1818725,-0.13360827,0.4742981,-0.67128676,0.11340819,-0.5706273,1.4965594,-0.48265326,0.04251673,0.007168876,1.3666387,1.361792,0.1442698,-0.03856951,0.20741917,-0.23380569,0.02540178,0.6370549,1.6842598,1.1448891,0.6193541,-0.55458134,-0.08508998,1.1363108,0.15973952,0.23424885,1.0343418,-1.1639211,2.2464018,0.5556337,-2.0969343,0.26419103,0.66423494,1.9505439,-0.31781703,-0.7389783,1.0334806,-1.2916182,-0.25286847,-0.62763196,-0.06687018,1.019763,-0.062418252,-1.5895414,-0.045476038,0.013086945,-0.5831603,1.9069619,1.5414344,-0.1402119,0.12093199,-0.07849136,-0.52579224,1.1161782,2.3067389,0.86881983,-0.34068695,0.13121693,-1.6747179,0.68462455,0.93627197,-1.0151535,-1.0412438,-1.5194776,-0.23630887,-1.5647141,-1.133154,-0.5000681,-0.22904065,-1.180825,0.18635547,-0.4140837,-0.20141613,0.3325699,-0.6168294,-1.7488024,0.1377341,-1.0926182,0.11003584,0.4735718,-2.2555084,1.6093206,0.86799836,-0.2527762,0.008266914,-0.9410889,-0.83480793,1.0418816,0.3909961,0.41349715,0.44432682,-1.5748314,-1.1813985,0.45235395,0.72904897,-2.2065766,0.32928768,0.6970538,0.26446438,0.9975939,0.5425505,-0.11668188,2.0210383,-0.37693182,-1.0722648,-0.99742025,-0.2797348,-0.76244897,0.6736592,0.19856836,3.3469672,0.6455508,-2.1847987,-1.6128222,0.30464506,0.05529237,-0.48520982,-0.23416215,-1.7480924,1.5515871,0.2778142,0.9131412,-0.19640368,-0.26717448,0.2994805,-0.52462095,0.058497604,1.3186904,2.0768325,-0.19564244,1.7911482,-1.1663588,-0.91505873
professional_or_occupational_group,0.33729702,-0.46205118,-0.8240201,0.10966761,-0.47952366,-0.05504045,0.5663619,-0.6510346,-0.30110595,0.048475403,0.40828648,0.17533065,-0.38405177,-0.61134636,0.0021748205,-0.10912974,-0.3271792,0.49751592,0.105148345,-0.8904103,-1.1647686,-0.38642856,-0.45419174,-0.0018462136,0.77803165,0.4227055,-0.94624406,-0.53684616,0.28660288,-0.1765223,1.4223962,0.078745686,-0.36760208,-0.0849499,0.13377415,0.07037278,-0.058627643,-0.023933787,-0.15664773,-0.4582084,-0.1591168,-0.3766069,-0.68841845,0.7359964,-0.38702306,-0.6691162,-0.3101346,1.3316128,-0.7012062,-0.5467409,1.6935636,-0.8515525,0.13563608,0.15636379,0.056376353,0.007839414,0.65743786,-0.06464291,-0.29488266,-0.6017219,0.035093162,0.1108023,-0.7352458,-0.8384026,0.4065102,-0.506252,0.21870084,0.06180643,-0.06977686,1.007518,-0.10378307,-0.064233884,0.63985014,-0.5261566,-0.60870296,-0.18042079,0.3645278,0.5709072,-1.2898102,1.9245505,0.9659608,0.14197169,-0.5966172,0.25483948,0.14338021,-0.60589725,-0.5193351,-0.010113336,2.7012901,-0.509564,-0.8543447,-0.22749867,-0.073864356,-0.023181506,-0.6084028,-0.47564435,-0.81223583,-0.03562546,-0.18921134,-0.3078997,0.5326524,-0.041903168,0.30826008,0.3922665,0.9740906,0.42981458,-0.5570355,0.6114457,-0.124179445,0.046483133,0.36128578,0.47411034,-0.8464835,-0.0007096736,0.94038725,-0.6048411,-1.1437079,1.3681282,-0.097512186,0.060679078,-1.3817666,-0.0920443,-0.5306412,-0.5372593,-0.35355747,-0.57291377,-0.064565115,0.19767338,-0.50060815,0.5315818,-0.5243566,-0.7696728,-0.03752621,-0.0048285206,0.35972568,0.9235942,-0.0070957667,-0.6069509,0.21662872,-0.75411636,0.6748802,1.1876215,-1.3456651,0.62753797,1.1819421,-0.73518705,1.343365,0.29184365,2.1172547,-0.09640688,-1.7197556,-0.8654699,0.71787506,-1.5256767,0.8272477,0.29069087,-0.73789275,-1.0093825,-0.25907934,0.5513108,-0.6753252,0.21282135,0.2220454,0.82136697,0.32091507,0.5646436,-0.6019229,-0.0067328876,-0.37255383,-0.60194916,1.1281507,0.18239358,1.1960685,-0.222351,0.16951627,-0.08501441,-0.72462267,0.43785292,-0.84208906,0.58832836,-0.5851129,0.47085097,1.1968589,0.21948789,-0.5254129,-0.78417486,-0.97544485,-0.8890543,-0.6608461,1.6171651,-1.3786836,0.41129336,-0.84743476,-1.8612956,-0.25033173,-0.47104532,0.37887293,0.22578838,-2.2331877,-0.59880024,0.3086575,0.92310834,-0.6766176,-0.23273356,0.04527645,1.5071906,-1.5944155,0.7888151,-1.3572294,-0.1095796,0.90947235,1.7123808,0.60235727,-0.6465789,-1.1754172,-1.1647168,-1.5550004,0.54590154,0.48327518,0.5739633,0.13672775,-0.80535424,0.6497412,-0.8497857,-0.068500265,1.3111869,-0.34838307,-0.5315067,-0.75251186,-0.5537575,0.68949515,1.0221157,-0.7876965,1.572357,-1.2252856,-1.086091,0.32964322,-0.039341353,0.60108566,-0.60906374,-0.38057855,-1.4804904,1.3917228,2.5956354,-1.885183,-2.6735663,-0.75004184,0.2680581,-1.5925182,3.062759,1.3158362,1.3497001,0.07822392,0.911291,-1.4811451,0.39043143
nucleic_acid_nucleoside_or_nucleotide,-1.4625676,0.04347848,-0.13724184,-1.7389407,-0.19770922,-0.8945748,0.04262723,0.81317735,0.511882,0.007465634,0.10349424,-1.1428738,0.6609724,0.70511943,-0.5537313,-1.4599129,0.06355286,0.20852968,0.5905922,-0.72620565,0.6551575,0.28780714,0.041442275,-1.4815361,1.0940208,-0.013188001,-1.045362,-1.2109034,0.11150328,0.0717294,-0.7399756,0.11413659,-0.03731507,0.49375558,0.14650562,1.5755287,-0.52344835,-0.018067215,-0.09228884,-1.0487748,-0.026974866,-0.30400687,-1.1968374,0.6209502,0.45430306,0.66238475,-0.39638844,0.1376905,-0.3970476,-0.11622986,0.09938231,-0.58168745,0.09592438,-0.22559893,1.1023062,0.7867773,0.412248,-0.6174091,-1.3680036,0.0019031345,-0.08759392,0.79983336,-0.30539414,-0.15123095,0.5067733,0.3861876,-0.020279828,-0.23366886,0.5199147,0.1786284,-0.043417457,-0.014788633,0.2397967,0.009479184,0.20802453,-0.8544467,-0.48347753,-0.68774927,-0.3213129,-0.0016824263,0.25893477,-0.6251454,-0.6715403,-0.22725011,1.6102155,-0.30353618,-0.5692373,-0.87495303,-0.8911626,-0.74677855,-0.19979468,-0.60618246,0.08084129,0.47872585,-0.08703553,0.5867514,-1.8996003,-0.64527845,-0.010126887,-0.3510331,0.38442606,0.08744732,-0.60667044,0.29360422,0.5189547,-0.20056881,0.0497865,1.1474845,0.37127638,-0.672741,-0.35920718,1.514984,-0.18753341,-0.34838286,1.547156,-0.027611544,-1.8067048,-0.1678205,-0.98883575,0.055852864,-0.93916345,-0.29990518,0.4469829,0.19334464,-0.892416,0.21202862,2.167371,0.60813606,0.23185585,2.5034297,0.8855276,1.6357775,0.5305435,1.8581135,0.7278457,-1.1851783,-0.8228144,-1.7096988,0.94898105,-0.26916927,0.76510465,-1.2216628,-0.077849716,0.82616407,0.6032273,1.8205196,-1.4154036,1.021988,0.5247128,0.09095787,-0.3516756,-0.2754854,-0.27574944,0.7909828,0.59490114,0.20449057,0.1343724,0.5676041,1.9267188,-0.34120086,-0.6149712,1.4972547,-0.6611249,-1.04486,0.6651912,0.03653824,-0.5531546,0.90132374,0.92338735,0.4206041,-1.347583,1.8362731,0.2548327,0.25565776,-1.6048253,-1.1894416,0.114612795,0.597151,0.8111446,-1.2786657,0.9464619,-1.1201924,-0.7447322,-1.2851151,0.18293646,-1.0938004,-0.16890962,-0.8260084,-0.14486483,0.7613241,-1.0798149,1.4442003,-0.7832853,1.5442346,-1.243153,-0.64002967,-0.9118748,0.082975484,-1.0898337,-0.6829894,-0.5836966,0.27189243,-1.8444494,-0.56300896,1.7696776,1.9638027,0.23734349,1.6505115,-0.7137802,-0.5981218,0.49785775,0.100016505,-0.5596051,0.64551395,-1.2725955,0.4931225,-0.061394047,-1.2440655,-0.36691213,-0.23189533,0.5862256,-0.88362753,-0.48630288,1.0248008,0.47442302,-0.13300599,-0.78057766,-1.6465156,-0.59941256,-1.137358,0.91258687,-0.64095616,-0.3170279,1.6089787,1.2261729,0.41034544,0.4847755,-0.58594036,-0.012286151,0.35345465,-0.90334785,-0.48727208,0.7884932,-0.07622885,-0.37887743,-1.3624688,0.45269343,3.0219831,-0.8668225,1.1891165,1.2967162,-0.36813396,2.3421621,-0.06162718,-0.77404714,-0.13684477
organism_function,-0.49428865,-0.15389735,-0.3372409,0.61168027,0.38650107,-0.55469173,-0.6312778,0.1316259,0.958225,0.23544338,0.31430686,0.3159117,-0.13856828,-0.7183999,0.36615118,1.206655,-0.37751535,0.66816384,0.36672354,-0.023924513,-1.0727715,0.6378435,0.37942868,0.29310352,-1.2836812,-0.49981663,0.84488267,-0.19765705,0.39129013,1.5203075,-0.6194593,1.6678597,-0.867226,0.5577665,0.4941952,-0.38167652,0.8097249,0.28155157,0.18488373,-0.4130944,-0.37170276,-0.27242413,-0.020985318,1.607863,-0.2627338,-0.6939204,-0.91565806,0.49810147,-0.7340942,-0.053306844,0.24849394,0.19439118,1.0277219,-0.77667177,0.021999186,0.057004426,-0.37952593,0.19999066,0.28141174,0.11926751,-0.6341245,0.1784649,-0.7189337,-1.3427341,0.13301522,-0.13900575,0.2983829,0.04122479,-0.3678823,0.48913077,0.7755778,-0.5602564,-0.27420917,0.08999954,0.051442567,0.29573286,0.3251344,0.56408775,-0.7756822,-0.27229396,0.07068908,-1.3354105,-0.8190996,-0.110717826,-0.93282396,0.5776027,-0.03988462,-0.3813533,0.00057699415,-0.5846612,1.2074068,-0.9818527,-0.31791225,-0.35416508,-0.61730206,-0.89165044,-0.38161924,0.49870288,0.2258789,0.6455962,-0.19512853,-0.33541164,0.8192571,0.72813946,0.26203176,-0.532753,0.5631541,0.48911312,-0.9548679,-0.70984,-0.21340169,1.2712405,0.012520633,-0.4488434,0.45478714,-0.15579545,-0.052872006,1.0338118,0.5706224,-0.6009831,-0.44388506,-0.48114094,0.31998563,0.09053768,-0.4879847,1.1352867,-1.1229333,0.24592033,-0.06630924,-0.012673769,-0.4075296,-1.073628,-2.3238175,2.417311,0.7489025,-1.5558935,-1.4382776,-0.54362786,-1.5339429,0.51306224,0.6885714,-0.71117604,0.8437191,0.68717957,0.23565774,-0.7169849,1.7404233,0.89300025,2.146283,0.030404912,1.6455083,-0.14413252,1.0185553,-0.7558687,0.08751776,-0.36349878,-0.8916926,-1.011471,0.7770227,-1.7434993,0.9813228,1.9617699,0.8694704,0.5618804,1.2283523,0.5191995,-0.43727353,-0.048635308,1.0311437,-1.0842916,0.3973987,-1.4390569,0.84821767,-0.12701684,-0.7385783,0.4249066,0.16647917,0.36423722,-0.123477936,1.7709117,0.6915201,0.21742475,0.043972876,-0.11737871,-0.014180975,-3.8224907,0.8404208,-0.25772497,-0.98307055,-1.48531,0.42769006,1.9160948,1.2446696,-0.14326468,-0.3992371,-1.0982678,0.0848618,1.1451719,-2.2940383,-0.836676,-1.093484,0.041549075,-1.2861497,-1.9002343,-2.2093372,1.3798497,-0.084865585,-1.3251854,1.3054935,0.43522918,0.63019055,0.31536317,-0.0057877414,-0.27784073,-0.018658416,0.22044098,0.57801443,0.8157237,0.49791658,1.3212116,0.17849602,0.06537029,0.18917063,0.4340174,-0.12258237,0.8046158,-0.85279965,-0.008039052,-0.863496,-0.25123474,0.25154346,-0.085100584,-0.1975584,0.7839368,2.080507,1.6530182,-1.5677925,-1.3038063,-0.6287185,-0.8191722,-0.8529639,0.19503146,-1.8560071,0.5063229,-0.2130932,-1.5935614,-0.40525186,1.2224838,-0.14308323,0.63121414,1.5995702,-0.30610442,-0.934093,-0.94904333,-0.487281,0.10327595
mental_process,0.5268219,1.1989176,-0.46322653,0.18397357,1.0501877,0.8032283,-0.625836,0.31748003,-0.54973096,0.33268124,2.2157667,-0.7010214,-0.45310596,0.26248115,-0.13657945,-0.027670413,-0.47042078,-0.7485665,0.10622262,-0.18584414,-0.82620203,0.16132076,0.11874596,0.18710902,-0.17493446,-0.056196533,0.8991057,-0.9749605,1.4604044,-1.6487012,0.16260676,-0.48928183,0.27770615,0.4776655,-1.2890671,-0.9566605,0.69683087,-0.62727827,0.7086853,-0.8983021,-0.40667748,-0.0184367,-0.3599546,0.9912534,-0.01600233,0.08523985,0.14093773,0.4626294,-0.4596478,-0.5762563,-1.3452579,0.39603293,-0.23613828,-0.5396456,0.1750191,-0.6311833,1.059967,0.48395464,-1.1945598,-1.0607384,0.45254803,-1.5870463,-0.77504885,-0.32270297,0.10146644,0.22544385,0.22970882,0.7168397,-0.17079923,0.57280326,-0.3211496,-0.34693587,-0.110788144,-0.49058738,-0.4922447,-0.23895061,0.56435806,0.43368,-0.6850116,-0.4987548,-0.35918853,-0.11137367,-1.0034022,-0.46594164,-0.7370894,-0.28207105,0.16910124,0.29476815,-0.2636167,-1.3065354,-0.7252397,-0.44341654,-0.5121223,0.21671386,-0.62991536,0.957987,-0.5571019,-0.26791063,-0.1377229,-0.02714054,0.30218208,-0.89095217,0.26970524,-0.11053641,0.36839506,-0.8771075,-0.07457234,0.029074578,-1.0699248,0.32738876,0.07204094,0.97003096,-0.18913944,0.8314207,-0.9687925,0.564421,0.35213545,-0.0996937,0.11967745,-0.36357355,-0.90656626,-0.16311951,0.30681342,-0.058559082,0.6224171,-0.11355102,-1.4051651,-0.43062374,-0.14247736,-0.18008056,0.4696934,0.500969,-1.4145905,1.2953717,0.28947788,1.1145196,1.1915365,-0.70839363,0.18014564,-1.4985766,0.6264086,0.15673637,0.2601738,-0.63146114,0.31202468,-0.9749469,0.26587576,0.49001485,0.19031253,-0.3198687,0.7176552,0.4835636,1.6831281,-0.8663576,0.6949545,0.030237813,-0.10660429,-1.0691742,-0.23223901,0.42213398,0.69767624,1.2772975,-1.5815996,0.6685037,-0.13185403,1.4540507,-2.0232992,0.59268475,1.3423321,-2.5650878,0.35556102,-0.50969267,0.5958932,0.97082007,-1.1060079,-1.0850595,-0.81822157,1.4510335,0.12460852,0.37277982,0.8824322,-0.4520742,-0.9865402,-1.3354911,-1.3478788,-1.1094013,-0.46445808,-0.94615304,0.57019186,-0.9229135,1.2372682,0.21607497,1.9252316,1.2199947,-1.3119015,0.92378557,-1.642163,-0.49295685,0.11800996,-1.5518935,-0.97814125,0.16327637,-1.8818603,-0.14943112,0.32461035,0.5984256,1.4305176,-0.54485863,0.35895753,0.1586474,1.3316178,0.24467751,-0.5816837,0.5795522,0.2244257,1.2122656,1.1615096,0.6660299,0.25694466,0.66973007,0.09457272,-0.27663437,-0.9441193,0.64295167,1.7636232,-1.482797,0.28725046,-0.4170129,-1.7111973,-1.0992479,0.57255447,0.3661753,-2.169067,1.5465127,1.8029963,0.3954608,-0.9648985,1.2203122,1.91201,-0.852383,-0.94127053,0.30089897,-2.0233748,0.30093986,-0.09971861,-1.1432357,0.3039319,1.0365573,-0.030497912,0.3771999,0.25210106,0.22400884,-1.4925778,-1.7929838,0.6527028,0.62226397
therapeutic_or_preventive_procedure,0.85410124,-0.43583724,0.10957347,0.7245222,0.49276394,-0.61943257,-0.03670779,-0.36117005,-0.24893409,0.375218,0.13011572,-0.1982761,1.0762633,-0.58488,-0.0005748859,0.1102891,-0.15644391,-0.159452,0.4783308,0.17195387,-0.3348156,0.18966652,0.25905445,-0.19082326,-1.0656371,0.18499655,0.57937986,-0.8922036,-0.1038309,1.0434191,-0.44816163,-0.08100994,0.004123044,-0.9438782,0.18151638,-0.05875318,0.7079499,0.011743116,0.42307305,1.2406107,-0.41545537,0.6374358,-0.69874656,1.1005416,0.04850927,-0.69463915,-0.78376293,0.090562746,-0.82466304,0.37337855,0.6093368,-0.7740448,1.3275019,-0.6278335,-0.91823715,-1.1733497,0.20021956,0.17461582,-0.9234408,-0.5185389,-0.42822307,-0.052272618,-1.4571917,-0.5177449,1.7270904,0.7121757,-0.18596292,0.061805468,-0.7249279,-0.23042995,0.98818177,-0.96283954,0.18827432,0.2030797,0.24814922,-0.33514485,-0.3152583,-0.56525445,-0.7226515,-0.83689725,0.09531194,0.03403516,-0.15183419,-0.9493436,0.052572288,0.30070388,1.1955929,-0.24182145,0.19302043,-1.1911349,-1.1444186,0.80567795,0.16238135,-0.11684959,0.251715,0.5512479,-0.8089009,-0.41493368,-0.34947193,-0.12910244,0.34158036,-0.96961194,0.7717927,0.3141196,0.3679356,-0.39585838,1.7439032,-0.0043731187,0.430374,-0.82531774,0.44149613,0.18345141,-0.0077163912,-0.57067484,0.63962114,-0.014350606,-0.60543567,0.012570968,-0.009674584,-0.9104713,-0.06480376,-0.23791353,-0.1298729,0.05212932,-0.5223547,-0.62949705,0.07454408,-0.34814182,-0.27202964,0.42466465,0.2629734,0.5276843,1.1112918,0.18484096,0.17159806,-0.98893636,-0.8365044,-0.8089838,-1.2093973,0.75106126,0.8644082,-0.43495566,-1.4085536,-1.0494215,1.367625,0.27718776,-0.9679524,0.8405103,1.6571691,-0.48967308,-0.45905495,0.2937997,-0.8573454,-0.93855953,-1.4617066,0.7212673,-0.21030642,0.42406926,-0.5840408,0.9078485,0.11886331,0.63485223,0.16534655,-1.9651281,1.1624645,0.30773163,-1.1440345,-0.97576034,-1.4247656,-0.99944836,-0.5453008,0.5708393,1.4283131,-0.8545066,-0.84757406,-1.260487,0.7769367,1.3533859,-1.1277597,-1.2823163,1.0502002,-0.8256021,-1.036674,-0.5515115,0.15974875,-0.52935684,-1.6948997,-0.7731591,-0.19607098,0.33520892,0.3554512,-0.12740332,0.35286325,-0.14224486,-0.17275271,-0.30932447,-1.3352873,0.8373356,0.25896382,-0.48986062,0.9556503,2.211663,-0.5105164,-0.9179788,1.2241331,1.0304825,-0.16084145,-1.2887439,-0.57424706,0.42249057,1.1809224,-1.0492389,0.57385737,0.61047864,2.300892,-0.11589381,-2.1104958,0.72655654,-0.8133687,3.6905494,-0.10698136,-0.41601247,0.30229387,1.355516,1.551828,0.46162024,0.9040274,2.145425,-1.9077033,0.91913354,-0.1291375,0.021485593,-1.200618,-0.35253525,1.953408,1.6841545,0.679437,0.10694228,0.84331995,0.7221239,-1.0394322,0.87245744,0.29604393,0.47741818,-0.6585441,0.6194336,1.1592728,0.4398849,0.35307145,0.02415317,2.7040536,0.2088392,-1.2187482,0.41619352,1.4307303,0.2553131
cell_function,-0.16455814,0.51768875,0.17402883,0.7604411,0.31963006,0.44013947,-0.7767937,-0.067346565,0.9409717,-0.48769677,-0.11261501,-0.08414362,0.24575795,-2.0803945,2.1535678,-0.2329358,-1.2318492,-0.2136945,-1.2937807,0.40568522,0.404601,0.28564632,-0.07513248,1.2924374,0.6417558,-0.8309057,1.0247445,-0.1797018,0.25379536,0.0033430858,0.6331725,1.8950943,-0.51728183,-0.80083156,-0.6643389,-0.8675056,0.43437153,0.1603903,0.14441311,-0.47129056,-0.3141025,0.73589665,-0.2561742,0.8897897,-0.30263606,-0.067703925,0.09955427,0.6991473,0.5328273,-0.26177922,0.85035366,-0.20530848,0.70802236,-0.40502584,0.20937473,-0.6085558,0.41094968,0.08583687,-0.8960184,-0.17770225,-0.35626885,-0.09471755,-1.4399754,1.1284627,0.17239928,0.15479387,0.5273825,-0.28164423,1.0658983,0.25325567,-1.4353604,-0.47745362,-0.5425853,-0.39796546,-0.61844766,-0.5029398,0.072489016,0.9598762,-0.34144598,-0.6408983,-1.8943975,-1.0860932,-0.7255296,-0.5527392,-1.0613048,-0.08680343,0.5197859,-0.022768928,-0.738367,-1.1801845,-0.28550577,0.7900552,0.74913955,-0.20273885,-0.46391457,0.76556325,-0.33172306,0.40398362,0.5640205,1.144598,-0.12984848,0.53947014,0.66972536,-0.5887494,-0.10527611,-0.7472075,0.10534385,-0.12244673,0.019332353,0.097371586,-0.5806633,0.92583454,-0.018256037,-0.35186785,0.41839424,0.6671032,0.3775835,0.85651636,0.8812614,-0.54767585,-0.50769615,-0.5905269,0.08512309,-0.009943922,-0.5836754,0.77149844,-0.37647405,0.43163857,1.2563909,-2.6694384,-0.4672306,0.2977971,-2.0318453,0.7252531,2.011762,-0.58801615,0.15996072,1.2277247,-0.35716164,-0.47092882,-0.11231966,-0.48116782,0.7424916,1.7500572,1.1501056,-0.38651127,0.020133158,0.12592697,1.0421208,-0.34215832,0.8637212,-1.6978443,1.4422395,-0.92449456,0.3883806,-0.241652,-0.0967216,-0.5154186,0.68058485,-1.0026653,1.0555059,1.1078162,0.7005182,-0.16027817,-0.48928723,-0.02695458,-1.5163054,-1.7153658,0.81629425,-0.6902219,0.7630909,-0.70107293,-0.98829466,-0.16288862,-0.40654108,-0.8440229,0.6402693,0.96286476,1.2798349,0.48158154,0.08840125,-0.15188347,-1.6013848,0.5789768,-1.5597101,-1.598565,0.86886555,-2.0811467,-0.091911234,-1.0559394,0.0011963181,-0.3981943,1.7916832,1.0731546,0.5545849,0.121897966,-0.7113845,-0.67922395,1.4770416,-1.9957939,-1.5254282,-0.42870945,-0.61894655,-0.27187026,2.857256,1.2896813,0.34588858,-0.9984585,-0.10142764,-0.6590375,1.7591356,0.019723905,-0.06601523,-0.406449,0.944423,0.9864361,0.6828225,0.99095243,0.01672565,0.48654965,1.4729645,0.64310634,0.30592406,1.8852288,1.8164612,0.7035908,-1.9210335,-0.37109002,-1.094637,-0.61490935,-0.4871937,-0.4522508,-0.50990254,1.7154527,1.6904528,1.1541437,-0.7077871,-0.40272948,1.3457613,-0.40264508,-0.91767704,-1.2561479,-2.0755253,1.0960286,-0.31378517,-0.14138699,0.31048626,1.8900371,0.13820668,0.08721879,2.2043672,0.87372154,-0.9736916,-1.6766585,-0.373987,1.0917304
pathologic_function,-0.88444823,0.335669,0.4214798,0.6897534,1.1798824,0.334891,-1.2347448,0.4761442,-0.6972102,1.3748223,-0.4071598,-0.32605603,-0.76263636,0.654474,0.47502655,-1.7146863,-1.04966,0.33338502,0.7328965,-0.036345538,-0.5487255,0.13888896,-0.28282422,0.24662673,-0.1952865,-0.586579,1.4949893,0.7184033,0.055448964,-0.14565097,-0.2834737,-1.0947194,-0.4370737,0.44419837,-0.8126007,0.18869998,0.3281072,-1.2293122,-0.3708326,-1.1179919,-0.8279149,0.031388223,0.53408414,0.3867425,1.3357316,-0.093512565,0.9548722,0.35609218,-0.46635512,-0.6037558,-0.70159566,0.29440114,0.032510363,-0.49781856,-0.37687775,0.034400985,-0.009481868,0.46236157,-1.0356815,-1.7060143,-0.1423527,0.34095272,-1.2640624,-0.35651076,0.39495468,0.45999125,0.47394726,-0.0778214,-0.26296517,-0.35027015,-2.1399004,-0.20384821,0.28377447,-0.118169025,0.20201981,-0.5980745,0.07387901,0.7910997,-0.45495066,0.17169246,-0.3845226,0.6872397,-0.67236996,-0.33662844,-0.5279266,0.25224864,0.6733337,0.14455467,-1.1742734,-0.57778054,-0.830945,-0.067698166,-1.2360616,-0.9803618,1.441116,-0.4511661,-0.4359042,0.7731496,0.0680072,-0.04758326,0.3390725,-1.5841682,-0.121877775,-0.2722585,-0.10938359,-0.16382466,0.21917582,0.82610744,-0.9024643,-0.41713977,-0.6854581,1.3218317,0.13869944,-0.04790046,0.6234989,-0.56722516,1.4546664,0.674789,0.72095346,-1.1279378,-0.4992362,-0.798842,-0.9447169,-0.340893,-0.47399518,0.42646483,-0.20968547,0.5570306,-0.8272162,-0.44153506,-0.47518912,0.77143604,-0.95485115,-0.21076979,1.096296,-0.29942784,2.301089,-0.70378476,1.0930605,0.29551247,0.44496143,0.8479922,1.121635,0.35991132,-0.27794144,-2.1997986,1.2382258,1.1907642,1.0622256,0.4003909,0.4866843,-0.5827102,2.5499952,-1.0665151,0.4712888,-0.025825216,-1.3290986,-1.5071495,-1.4392952,2.304703,0.36353943,-0.13523586,-0.9958576,-0.9428105,0.27998322,0.18443428,-1.9105985,-0.22414923,-0.36200747,-0.20190051,1.303331,-0.76815283,1.5056852,-0.01545256,-0.29664126,-0.7944151,0.27370292,1.0079045,-1.060233,1.2364033,0.8833731,0.6714424,-0.51295984,0.053284984,-1.5677942,-0.9488,0.74198,-1.2057133,-1.3291698,-1.5157398,-0.04599258,1.1959798,1.0950508,-0.32332563,1.0070758,1.5429243,0.26209995,0.87471074,1.2138854,-0.43533677,-0.48410633,2.2904472,-0.26969925,0.26003173,0.075479776,0.7602363,0.07083905,-0.630609,-0.24741468,-0.19986285,-1.0234689,1.2894993,1.176017,1.4504895,0.6254738,-0.1968142,-0.3815666,0.8193202,-0.51810545,-1.4381409,-0.36632594,1.6353697,-1.2165554,-0.28670925,0.13551532,0.376234,0.2183604,-0.58479977,-0.13816148,-0.07120304,-0.19337183,0.43970826,-0.9041145,0.41862336,1.6576308,1.3191311,-1.2309805,0.047175452,-0.99346334,0.7895983,-0.6646112,0.7841958,-1.3731612,0.98656094,0.32994008,-1.7428473,-0.04838954,-0.3207701,1.0517316,2.506285,0.9877419,1.0521938,0.92729825,-1.0042504,-1.0209919,0.27452606
organ_or_tissue_function,1.1417655,0.6221878,0.32158464,0.7306674,0.842516,1.892866,-0.29229212,0.7416105,1.220107,-0.30095994,-0.5992136,0.1762243,0.11053784,-0.4730838,0.025650777,0.3612134,0.7035978,1.3850945,0.03797812,0.0025266125,-0.39273712,0.7533529,-0.27358806,1.0283271,0.21870211,1.3500606,0.80307335,0.7489339,0.2994904,0.24766201,0.7232386,-0.03744542,-1.3387735,0.111445494,1.0126828,-0.16367148,0.47536308,-0.17814583,0.17513904,-0.411865,-0.7147676,0.7793713,-0.15061757,1.3587803,0.68510777,0.36920166,0.6057425,0.45756027,-0.5155536,-0.9057737,0.17897244,0.30207524,0.7820127,-0.38882163,-0.47560725,-0.9029657,-0.48171234,0.69058937,-0.93407434,-0.30695298,-0.52867174,0.95647436,-0.9081587,-1.6123978,-1.3854145,0.16893555,0.03340019,-0.0033640435,0.4385806,-0.15549712,-0.6408956,-0.66152656,0.25664678,0.10390877,0.7919296,-0.21668161,-0.21573101,0.8432317,0.25119233,-1.0810875,-0.8326817,-0.44840705,-1.2854545,-0.7407506,-1.3644439,-0.65126854,0.59085363,0.4681888,0.24102658,-0.44514492,-0.3224291,-0.3191754,-0.32143083,-0.1702235,-0.36528048,0.8249086,0.6077708,1.6333705,1.1278878,0.6352954,-1.2747332,-0.14860664,0.43784547,-1.4220285,-0.053721484,-0.20181353,0.06257522,0.27885252,0.22333041,0.7695725,-0.11993759,1.2287233,0.5491731,-0.35414627,-0.14928651,1.3155595,-0.07114041,0.8515602,0.2661017,-0.5866325,-0.95906955,-0.3813809,-0.099237196,0.61679375,0.84516144,-0.2276233,-0.61445415,0.188649,0.56321806,-0.72408056,-0.26742008,-1.0784461,-2.0106034,1.2911158,0.36553282,1.3478804,-0.28121686,-0.59926087,-0.058382846,-0.7374342,0.63149524,-1.2945207,0.29016376,0.6584704,2.1992714,-0.53877854,1.2083687,-0.2636477,1.5403444,-0.22067386,1.6374727,0.5793436,1.6438073,-0.7266391,-0.5057938,-1.0251713,-0.91094893,-0.5616083,0.5583315,0.11951909,1.8875142,1.5218937,1.1381108,-0.452046,0.044689506,0.5148828,-0.51702744,-0.78161734,-1.1252185,-1.5433991,0.48959684,-1.2959375,1.1746651,0.7567495,-1.6442635,-0.20772028,-0.40478063,0.38278005,1.2045566,1.0817912,1.1489547,0.47731104,-1.4011732,0.23812158,-0.6033165,-3.3515792,1.2437053,-0.70827925,-0.8745598,-1.6703866,0.46430466,0.20776142,-0.084526695,-0.8060026,0.7229704,0.4468854,-0.9863939,0.30951315,-1.2674338,-0.7384835,-1.1436352,1.4489952,-0.18803065,-2.4515512,0.86349964,0.94209325,1.1040525,-1.2284273,0.62293994,-0.56066906,1.1426296,0.3731945,0.20635757,-0.59183,0.49257833,0.34980035,0.41765088,0.83537334,0.33036867,0.5631297,-0.53211325,0.8279175,-0.23034336,0.13273676,0.00850714,-0.42224622,-2.097071,-0.52112865,0.6881781,-0.2216303,0.43391508,-2.0922036,-1.100428,1.0147887,1.8966274,0.93768054,-0.33663422,0.47142312,0.6661827,-0.3206664,-0.89974666,0.055848617,-0.5962074,0.2710117,-0.11889177,-2.010668,0.17671084,2.0767455,0.39458618,-0.018858219,0.88885957,-0.3670331,0.069245555,0.2994285,-0.72881764,1.0880936
enzyme,-0.9546982,-0.9844062,0.00772596,0.7873044,0.68872976,0.06045926,-0.6842097,0.37066808,-0.43502095,-1.021504,-0.33259273,0.13038526,-0.5780683,0.036447536,-0.08274481,0.50597537,0.49351346,0.8989039,0.8558894,0.39897084,0.22429149,0.6193542,0.4018864,-1.1394882,0.9457073,-0.22225647,1.4248803,-0.610225,1.1571287,-1.370986,0.5017798,0.40964463,-0.39248314,0.84766597,0.6545983,0.16019054,0.12679729,0.042272758,-0.512033,-0.32392862,-0.50441027,0.5827844,-0.50468767,0.6150402,0.32980838,0.4871645,-0.0472201,-0.03974796,0.16716848,-0.83696383,1.3833379,0.2627155,0.67641634,-0.6016817,0.4104468,-0.10469696,1.2306658,-0.19620048,-0.6612713,-0.29791522,-0.6009679,-0.0033674547,-0.12235706,0.22050673,-0.3883058,-1.3054534,-1.5312034,-0.10132633,0.9175536,0.32627898,0.18207136,0.20253092,0.75797635,-0.26518676,0.17193145,-0.7312603,-0.15228687,0.12473103,-0.9065152,0.03326853,0.6550602,-0.90696806,-0.5562755,-0.10853189,0.53518575,0.27889356,1.1159256,0.10286632,0.79245967,-0.5980711,-0.53960323,0.8142104,-0.44395098,0.20499462,-0.6671758,-0.34903225,-0.28569818,-0.62185436,-0.43718672,-1.8956891,0.3753293,0.097340085,0.3720438,0.45807204,-0.14558364,-0.52821887,0.1294062,-0.66962975,0.4669089,-0.15371853,-0.4183273,1.2052509,-0.07653232,-0.6120109,0.34416628,-0.6390932,-1.6641419,-0.31976068,-0.5713741,0.7201236,-0.6178474,-0.14459217,0.1360819,0.13924061,0.937147,-0.23812087,-0.18990621,-0.6135036,-1.1716901,0.50775784,1.1339643,-0.016388398,0.5010905,-0.0024073895,-0.106025696,0.5951009,-0.106079966,-1.2396852,0.5508254,-1.597291,1.1147957,-0.2584249,-0.093809515,1.9087136,0.8961758,0.40464732,-0.5663158,1.4785144,1.5229912,-0.04972153,-2.029037,0.82646924,0.61739117,3.0446584,0.2031718,-1.3781104,-1.2987471,0.05384264,1.4780298,0.14444138,-0.18180971,0.9856869,-0.6874988,0.35874605,1.6820548,-0.83615136,-1.283834,0.8127216,2.141327,-0.16082789,0.7247064,-0.6379637,-0.91716146,0.29601002,-0.43068847,-1.6609628,1.3318253,0.72079396,-1.0481433,-2.0187976,0.23810606,-0.92350346,-1.2983967,-0.6503648,0.47058752,-0.2665596,0.22962023,-0.6440556,-1.2780777,0.40765134,-0.7174405,0.33643392,-1.3505669,0.39771384,0.62034833,-1.9163928,-1.1175761,-0.25128338,-0.29014277,-0.84095454,0.35513744,0.35807067,-1.0604296,-1.2141047,2.8181996,1.0155338,-0.6318884,-1.0265701,-0.55231416,0.64655656,0.7595036,-0.3084487,-0.2265574,1.9393448,-0.45051235,-0.21418871,-1.0710585,-0.32328153,-0.6661599,1.3498724,-1.5684146,-0.72448355,0.2916977,-0.10438815,1.2302026,0.56243557,-0.64923495,-0.5593917,-0.0156222815,1.4923309,1.2845899,0.7160717,1.6256803,0.86905223,-0.6350763,0.07193362,-0.18537237,0.047967713,-1.0696386,-0.20604321,-0.02143632,0.13824354,1.031118,-0.11017678,0.56355566,-0.5732364,-1.0873457,1.6562551,-1.0119663,1.3384964,1.182846,0.12744924,0.022313355,0.52656376,-1.6884576,-0.85125244
cell,0.19224074,0.98039246,-0.33440918,1.1920286,0.252953,0.93281144,-0.3551503,0.14637522,-0.8356484,-1.3127489,-0.36336204,0.4049608,-0.28511405,0.30963686,-0.6075859,1.0813338,-0.01559316,0.48405877,0.93562955,0.09647008,-0.2111496,-1.5799977,0.19434944,-1.7427888,0.23557879,-0.5848503,0.15909651,-0.5499049,-0.07421075,0.16927584,0.9508384,-0.82546175,-0.35841784,-0.22832729,0.19008707,-0.62227416,0.29790336,-1.1592648,0.556914,-0.31443805,-0.20591374,-0.10071226,-0.2026733,1.1522496,0.022870209,-0.11289802,-0.0067993775,0.34991315,0.038378276,-0.19078541,0.8986578,-0.12694319,-0.3893303,-0.32822323,0.07225698,-0.80974776,-0.64200485,-0.7498844,-0.5505292,0.043265518,-0.8010084,-0.37663516,0.035228204,-1.0224344,0.14694916,-0.025762277,-0.24324504,0.3398519,-0.26240808,0.56562495,0.30518508,0.3887816,-0.34018984,0.08291312,-0.10923281,-0.10241978,-0.039874494,0.66309613,-0.56346667,-0.85944927,0.0055868034,-0.39958954,-0.91606194,-0.41181958,0.47889644,0.23709576,0.8717714,-0.30758885,0.14785892,-0.8934913,0.72932637,0.33297396,0.24461125,0.20396046,0.30998728,-0.57171714,-0.9749179,-0.5526095,0.12113074,0.01664643,-0.08288989,0.14599986,0.08001494,0.44310838,2.0731113,-0.57153964,-0.8451177,0.26048237,0.77626455,1.3935546,0.08808244,1.4147265,-0.4112208,0.4121132,0.53754586,-0.34779364,-0.340321,0.8422904,1.0657392,-0.8205383,-1.2021585,-0.39050913,2.286594,-0.56428283,0.14799191,-0.076384135,-0.051721256,-1.7964052,-0.9694736,-0.22223477,0.915889,-0.60198194,-0.29549026,-0.03544265,0.5439332,-0.2345987,-1.140174,-1.1398667,-1.6464627,-0.56344634,-0.3252416,-0.29434532,0.35093415,-0.79780287,0.78134346,1.7050835,-0.700291,-0.17987616,0.10135388,0.83266,-0.026812028,0.4849065,-0.021915969,-0.7594968,-0.4813695,-0.760824,1.9114003,-1.1839352,-0.3752377,0.76626736,-0.10765638,1.1798373,0.7710975,0.3862967,0.5431516,0.87354004,-0.5974886,0.79474777,2.126783,-0.81321305,-0.47087708,-0.6743548,0.59409666,0.19716953,-0.012016976,-0.3567769,-0.060761534,-1.4055009,-0.8647335,0.07552641,-0.083251715,-1.3113245,-1.1190192,0.90309185,1.9071743,-1.8086975,-1.0692557,-1.1681947,-1.7765112,0.55569106,-1.1689371,0.16413385,-0.27697688,0.13829665,0.123164706,0.2012371,-1.6209469,1.0675774,-1.2232519,-0.93333495,0.63415366,1.6313198,-0.74815094,-0.6906995,1.3294712,-0.07726167,-0.7052098,-0.4542873,-0.19236833,-0.034163456,1.2863109,0.8947248,-0.43698442,0.7524087,-0.07976647,-1.1828157,1.5982754,-1.2799244,-0.33218804,-1.1892462,-0.53333235,-0.21742919,0.48541477,1.4127748,-0.58147836,1.1283456,-0.068710014,-1.4875,0.88851655,0.0013102889,1.1583309,1.1701388,-0.7110393,1.5713129,-0.87795925,1.8667989,0.10047194,-0.40401888,1.4843134,-0.88331753,0.70994884,-0.028343985,1.4785405,0.77709264,0.34119344,-0.36762592,0.5730171,0.10946928,1.0622598,-1.2318014,1.6836554,-0.7661942,-1.3340257,-1.2508601,0.64426285,1.1567435
cell_component,-0.41316253,-0.8674241,-0.3577656,-0.28493774,-1.2065493,0.15086058,1.1066163,0.1026625,-0.34875807,-0.55664915,0.18869902,-0.96257204,0.26898152,-0.2281593,0.90113467,1.2672336,-0.26939848,1.1720282,-0.1991829,0.07638336,-0.5705882,-0.051296897,0.27542993,0.24102166,0.7118084,-0.15497246,1.0451635,-2.073849,-0.12473955,0.6939518,0.3731131,0.3964152,-0.14186768,-0.73262346,-0.040688608,0.68180066,0.1500629,0.40129644,0.8943977,-0.031551708,-0.6633888,-0.7382406,-0.29217112,0.92340773,0.38397723,-0.6618426,-0.66088325,0.04951801,-0.45537966,0.27251962,-1.3993719,-0.34821746,-0.4314038,-0.92679495,0.3208199,-0.20641981,0.16199853,-0.3334675,-0.11420789,-0.12977827,0.280063,-0.93861103,-1.0453422,1.5641478,0.2694554,-0.14671654,0.16575773,0.20635767,-0.31074536,-0.67978114,0.49786606,0.09796337,-0.360207,-0.15364043,-0.024046395,0.52145565,-0.38422877,-0.20580843,-0.44997117,-0.14878562,0.61022925,-0.49495178,-0.7026743,-0.3107367,-0.628914,-0.017224887,-1.1439345,0.10939237,-0.0153232375,-0.99268913,0.26594672,-0.39141482,0.011335932,0.24779592,0.1911779,-0.071236275,-0.3060708,0.6873788,-0.3890187,0.066451475,0.020708878,-0.059797358,-0.05733342,0.5434911,1.0758,-0.15081353,0.8856764,0.02814063,0.29057217,0.2389429,-0.10690724,0.94657713,-0.28596136,0.66655153,0.2050919,-0.14887504,-0.6318808,-0.52422273,-0.069616735,-0.5684055,-1.0673379,0.27238813,-0.6901301,0.1043559,-0.5890587,-0.5478349,-0.03299643,0.389228,-1.1505084,0.22262923,0.6155264,-0.08585067,-1.0972875,1.7644573,0.8812499,-0.6712886,-1.5740037,-0.13713223,-0.15475674,-1.0512404,-0.7476142,0.40960822,-0.7598524,1.7750688,0.103290625,-0.12105973,-0.32572928,0.09496946,0.8945392,-0.5117951,1.1388731,-1.9452822,0.62684,-0.72223485,-0.076139346,0.45556894,0.5509777,0.5656686,0.56619257,-0.58212566,0.64003545,1.5084212,1.3666725,-0.5241865,0.35212514,-0.21938737,-0.8000749,0.38061044,-0.17548165,-0.921694,-0.47354063,-0.59448564,0.7758774,-0.23982659,-1.3365294,-1.0593024,-0.16862047,0.57699424,0.03645001,-0.054291945,0.25521243,-0.41591245,-0.043530926,-0.008926589,0.9112855,-0.23300967,-1.2267814,0.42663264,-1.3711382,-0.2556023,0.8110767,0.40584037,0.2113843,0.8587305,-0.66243833,0.5860238,-0.12455923,3.03577,-2.1052713,-1.6831135,-0.12178377,0.9334169,-1.7550172,-1.1842104,1.2393472,0.23768328,-1.0578141,1.4181584,-0.1655471,0.33261347,2.1496198,1.109618,1.6186703,1.1884447,-1.3406066,-1.8902812,0.2692453,-2.0852458,-0.4900474,0.6586084,-1.6074178,0.26441154,-1.3215975,1.0920134,0.52850264,0.55423576,-0.46688777,0.29503608,-1.0529481,0.32514814,1.1579736,0.95028406,-1.284612,1.6308242,1.7772048,0.9727418,0.53528416,-1.0799973,0.4014013,-0.72436535,1.0406524,0.03893022,1.674527,0.038174253,0.2153419,-1.3178896,-0.7110753,1.2553217,-0.62548333,0.68350226,0.71291083,-0.017900862,-0.03842466,-1.1792644,1.471177,-0.48351902
cell_or_molecular_dysfunction,-0.90239,0.74775404,0.5060764,0.123833165,0.5567544,0.28085056,-1.2831966,0.22477809,-0.6416429,0.32528386,-0.22750317,-0.16913605,0.64442784,0.2858079,0.10664731,-0.45387334,-0.056416534,1.428792,0.65519255,1.4872565,-0.1811567,0.3547562,0.2624758,0.43142805,-0.042001944,-0.0548749,0.6567185,-0.6222828,-0.2875875,-0.063457854,0.061132774,0.09106878,-0.6435254,-0.08444832,-0.8390144,-0.10520417,0.8207888,-0.39329088,-0.49559802,-0.780239,-1.117506,1.7931863,0.8515884,0.693082,-0.09298231,0.30140227,-0.95316106,0.2438088,-0.32011536,0.19912325,0.25922996,0.9627682,0.78930193,0.1576049,-0.17848131,-0.12464898,1.065391,0.68236756,-0.63244027,-0.44272143,-0.24878626,-0.70197463,-0.34251684,-0.5065385,0.37027583,-1.1472036,0.13783477,-0.13620996,-0.1520946,-0.6576851,-0.17726798,0.11852313,-0.22423202,1.0614482,-0.36398795,-0.5800482,-0.13746306,0.65222496,0.15632208,-1.1033334,0.38623562,0.030959386,-1.3080096,0.1818637,-0.5942071,0.11420808,0.8265729,-0.39211,1.8774499,-0.76502055,-1.5151316,-0.3114817,-0.705989,0.55994433,-0.19575791,-0.12473871,-0.68210775,-0.8015065,1.7632005,-0.09112653,0.7942262,0.44332194,-0.3392146,0.34042752,0.07440348,-0.993097,0.086532,-1.0908148,-1.8148562,-0.097402334,-0.22853987,0.34518248,0.31394398,-0.07472563,0.68310696,1.0968221,0.4793462,-0.19334939,-0.45416313,-0.72749716,-1.6266598,-0.7509108,0.059412327,0.26541397,-0.33885664,0.23285052,-0.34011197,-0.035648882,0.15437964,0.71491325,0.01269943,0.45830473,-0.68880844,0.8694775,0.93749094,-0.2739804,1.6447436,0.51691014,0.6395716,-0.058266435,-1.0715997,-0.39793363,1.0493366,0.22896981,-0.05351951,-2.0090868,1.2823329,-0.68552,1.062179,0.32689953,0.5970564,-0.377435,1.1648142,-1.5970823,0.4157369,-0.22381026,-1.1282743,-1.3766657,-0.6408643,-0.84086984,1.7865845,0.9068276,-0.35245124,-1.1423634,-0.36196613,0.508646,-0.28927186,0.09104631,-0.06717169,0.010236146,1.1619399,-1.4693359,0.3802466,0.8917721,-1.8510482,-1.8785161,-1.312974,0.9697405,-0.45813444,0.23405875,0.16747797,-0.102547854,-0.9754241,0.13837384,-1.0048096,-0.58045554,0.7070816,-0.73128605,-3.2556958,-1.5698113,-0.0017265434,1.7517922,1.2061596,-1.6011858,0.23345982,-0.29282582,-0.6258181,1.3206758,-0.88260615,-0.039029915,0.030015813,2.2373083,-1.1508062,-0.9413591,0.23934406,1.0635324,0.7346026,-1.7944026,0.23519358,0.7669857,-0.6129382,0.51918644,2.4074373,-0.3366491,1.4021671,0.6595288,0.72955406,1.3171636,0.17526795,-1.3688083,1.251842,0.39286703,0.818191,0.90767884,-0.67466164,-1.3331487,-0.81651574,-1.5392721,-1.1794796,-0.26124653,0.73376894,0.018355787,-0.82511127,1.4263955,0.17481771,0.6649071,-1.3046756,0.31764364,-0.18959402,0.04124592,0.6023669,0.014011219,-1.7996091,2.263165,0.8147594,-0.5808863,-1.1260176,-0.5728968,0.11067031,-0.10387418,0.578176,1.3542268,0.15813318,-0.030091094,-0.13881965,-0.54404366
hormone,-1.6998374,-0.7159844,0.7167868,-0.6677208,0.16404301,-0.0588436,-0.6435569,0.38187054,-0.21423915,0.03939781,0.16482402,-0.5043757,-0.12717254,-0.1984675,0.67190534,0.19641191,0.15771551,0.47752374,1.0932062,-0.30033937,0.2728075,0.70705503,0.83304274,-1.304071,1.0927827,-0.6701862,1.2511833,-0.90118843,0.7452038,0.09063086,0.28408557,1.2492744,-0.41832063,0.9209455,1.5163302,0.30201533,-0.56212676,0.4784059,0.96053594,-0.29177678,-1.0309734,1.0107467,-0.71569306,0.41222838,-0.07911344,-0.15209958,-0.100060046,-0.060264006,0.1219882,-0.6351731,0.9539854,-1.4253165,-0.51148444,-0.38883474,0.17325519,-0.8797533,1.1038104,-1.4916656,-1.287037,0.29864305,-0.3553651,-0.44345215,-0.8108912,-1.2156888,0.15746725,0.73966503,0.10237293,-0.35573602,0.25090107,0.3349123,0.8389216,0.05915421,-0.27687773,-0.18498148,-0.016021539,0.22577696,0.3803605,0.046240773,0.3847583,-0.78720534,0.71440315,-0.6458814,-0.6168135,-1.9877727,-0.7252368,0.30099377,0.8376232,-0.27820733,0.97423816,-0.63563305,0.031637616,0.7916745,-0.43662587,0.45243436,0.5452135,-0.40821314,-0.6062831,-0.15087219,-0.8245942,0.94639146,-0.46741107,-0.27177915,0.4692049,-0.2522185,0.43854183,-0.3229516,-0.0216222,0.17861918,0.7091158,-0.9562796,-1.2843988,0.63279533,-0.34714186,-0.587146,0.008331499,-1.51141,-1.9527769,-0.67092955,-0.40813962,-0.15755333,0.91348916,1.6667275,-0.33542123,0.4942754,-0.44067264,-1.2197722,2.5858169,0.5246136,-1.0338873,0.72322476,1.293806,1.4763315,0.9878862,1.5636922,0.3153442,-0.2158778,0.1170091,-2.8069394,-0.7527543,-1.0713165,1.4900496,-0.78220576,0.23230226,-0.75179976,2.356038,0.14432026,-0.44248426,0.9946879,-0.45447487,-0.8660027,-1.0213354,0.6729698,0.68053395,0.681598,-0.8055624,-1.1025504,-0.53665644,-0.7235296,0.110521376,-1.0567856,-1.1462046,1.5577999,0.7178404,0.32219744,1.8613418,-0.9010716,-1.6345576,1.3547475,0.51971596,-0.25573945,0.62301666,-0.8300365,-2.4698472,-0.30174112,-1.8414785,-0.5568213,2.0977044,0.47344747,1.275684,-1.3192221,-0.68336767,-1.4991777,-0.2203386,0.07654844,-0.34709194,0.010385409,0.6602433,-0.9775787,-1.1793524,0.82425463,-0.17563622,0.9581654,0.07413734,0.06543849,-0.5748812,-1.2812171,-1.7805026,0.3036073,-0.8304768,-0.04996173,0.46721578,1.040819,-0.814945,-0.6419208,0.38491616,-0.13837065,-0.04333557,-0.13426128,-0.53614295,-1.6632472,1.4195726,0.3850881,2.0611508,0.8346581,0.579414,-0.5158482,0.59364516,0.74469393,-0.38953608,1.3225092,-0.11563976,-0.8666384,-0.86395353,-0.50204957,0.35828054,-0.5528755,0.11356858,1.4653283,0.5962417,0.8022455,0.17644438,1.173423,-0.32856706,0.75288707,-0.26947403,1.8173954,-0.4630849,-0.42740345,-1.4795402,0.086155675,-0.48482767,0.55061585,1.116326,-0.026714418,0.65786004,-1.6435989,-0.19453914,-0.6695746,-1.2094984,0.9400897,1.8320453,-1.7123119,1.0388892,0.5487248,-1.4423876,-1.7133765
organic_chemical,-0.13325849,-0.33127108,-0.06963294,0.39088258,0.31500697,-0.098662555,0.19876657,-0.85930794,-0.54823256,-0.76644814,0.81715566,-0.5623497,0.21863541,-0.0699651,-0.6287389,0.3563921,0.11043681,-0.7460851,0.75403774,-0.4682571,0.23765945,-0.46657488,1.6912222,-0.9902492,1.2053937,0.040601604,0.19026287,-0.9208274,-0.0909192,-0.61777544,0.6199496,0.70401365,0.287763,-1.1695584,0.688649,1.0213766,-0.32927164,0.62073356,0.26021567,0.47928706,-0.051954627,0.59399414,-0.74557894,0.6072213,-0.2506041,0.15023774,-0.28314582,0.46885872,-1.0506544,-1.2568402,0.49365252,-0.6323268,0.9066334,-0.46952155,0.3857371,0.7221868,-0.538566,-0.81973463,-0.6408143,0.025361273,-0.91119343,-0.14452618,0.6364567,0.5407153,0.34628382,-1.4212489,-1.005222,-0.518872,-0.38825947,0.0138284555,0.46823376,-0.09389756,0.5326614,0.47380826,0.088309295,-0.45562664,0.008589231,-0.11921555,-1.0585686,0.99000704,0.73156506,0.13870881,-0.8644088,-0.27909306,-1.0166705,-0.23817568,1.0301923,-1.2124852,-0.15288925,-1.0508661,0.4498511,-0.33418253,-1.0862962,0.47693795,0.9495188,-1.5793331,0.7752408,1.1581643,0.14018825,-0.50961566,-0.19258386,2.097072,0.48527852,0.2995654,1.1304258,-0.8809638,1.341897,-0.89791554,-0.006368616,-0.18865417,-0.7996468,0.8507674,0.56499153,-0.94548655,2.0645065,-0.90428746,-0.22210291,0.030846106,-0.46350867,0.31585327,-0.3194634,2.4739382,0.5103842,0.7772001,-0.139522,0.105089515,0.2409278,0.2336408,0.8263679,1.3925426,3.1038527,0.50729907,1.0088419,1.3345356,0.7314883,-1.5936288,-1.8864924,-0.24777126,0.6781093,1.0868833,0.7409181,0.5961467,2.17291,0.078809224,2.7079782,0.3394274,-0.5513525,1.6802592,-0.07757221,0.75366443,0.10819724,1.2227606,0.55430436,1.9879698,0.47318363,-0.10403693,1.299593,0.14765576,1.3768938,0.3677913,-1.6442646,0.54206514,1.4104635,-0.964982,0.25000322,-0.21612406,-1.3776367,0.5529871,1.6785634,1.1653923,-1.021373,0.7291831,-0.14297614,-0.13428633,0.24314989,-0.6577119,0.8427623,0.26719117,2.3136265,-2.156516,-0.35952303,-1.2872788,-1.9255465,-0.19505827,0.22989777,-1.1824176,0.6675806,-0.7721975,-1.5155556,0.8298769,0.6370418,0.6966103,-0.9256178,1.4365946,0.023304172,-2.9937968,-0.7535939,1.7630166,-0.016694618,-1.3378376,0.7031745,1.5988034,-1.2100581,-0.8401414,0.8835958,0.19389546,0.51368105,0.8212345,-0.5526441,-0.97417665,-0.20462498,0.80715793,-0.5832643,1.095334,-1.1151751,-1.2426125,-0.8080855,-0.64848745,-2.6803827,0.68423647,-0.9274573,-0.6770777,0.75379527,-1.3957378,0.51654416,-0.16883568,0.5041554,0.545658,-0.08497977,0.83219624,0.02401685,0.8612037,-1.3662649,-0.18509778,1.1303998,0.16537824,-0.9099426,-0.9321246,-0.38295105,-0.5922006,-0.046490155,-0.1927437,0.63586074,0.26169738,-0.7060009,-1.7338116,0.99536824,1.44955,0.3149367,1.2223555,0.5545708,-0.29289263,1.4462653,0.8078716,-0.00371857,-1.0290782
behavior,0.24847986,0.76896304,0.33389178,0.25262246,-0.5527441,0.10586893,0.55629593,-0.15481153,0.010677893,0.19599964,1.1981028,-0.7280829,-0.75770605,-0.30284572,0.007324432,-0.29981112,0.5301515,0.7111003,0.27717566,-0.055616442,-0.7281596,-0.09182081,-0.00022371908,-0.22272056,0.6390529,-0.1521201,-0.47281933,-0.26947826,-0.088623844,-0.33607677,-0.42514533,-0.28562278,-0.50365365,0.9528716,-1.9408199,-0.135078,0.41918352,-0.31559289,0.41823435,-0.604167,-0.5366972,0.26237762,-0.37806463,0.12833269,0.9976896,0.82845044,0.21178052,-0.33674136,-0.13984717,0.6373209,-0.57350457,-0.47853732,0.58717173,0.8413903,0.078972615,-0.94410175,0.32287276,0.58144397,-1.2826916,0.6011639,-0.3538891,0.30843985,-0.68562394,-0.6337026,0.27740422,-0.8686612,0.49487373,-0.7625299,0.47385493,-0.46604636,-0.57191074,-0.58907866,-0.6794267,-0.21224801,-0.4129636,-0.113275036,0.20411341,-0.099390954,-0.03406562,-0.010971319,1.783755,0.52631986,0.31689933,-0.040110882,-0.17363857,-1.3359678,-0.0268002,-0.5695663,-0.31042585,-0.19075061,-1.0029888,-0.53440917,-0.10949344,0.08675258,0.7532172,-0.4207146,-0.21276161,0.04536259,-0.20838617,0.5642313,-0.12659243,-0.018152311,-1.2857177,0.3928502,0.7090429,-0.35141957,0.5503269,0.24308887,-1.38472,-0.0977647,-0.39344907,0.74079376,-0.4665504,0.46317944,1.0230943,-0.8942847,-0.21640642,0.63595635,0.16500744,-0.4223379,0.09276145,-0.4309976,0.7571434,-0.02054727,-0.39100185,-1.1865131,0.13063072,-0.44005698,-2.5057173,1.3044763,-0.56173545,1.6684272,-1.2311516,2.0335696,1.7573141,-0.6464123,-0.30693662,-0.32628945,-0.18865934,1.5407324,-0.20750469,0.7608437,0.24141029,-1.6764562,1.2590925,-0.67732733,0.05820617,1.1430892,1.1401827,0.43806356,0.25390798,0.04012601,-0.6152297,-1.7117337,-0.7371787,0.12368856,0.7956851,-0.32655182,-0.7058022,0.21014695,-0.5998024,1.65853,-2.0121086,1.376238,0.040715992,-0.3659464,-0.21380123,-0.16046847,-0.15269606,0.071156844,-0.35796246,0.2987619,0.23900384,1.0123909,0.16020232,-0.47583932,-0.5942319,-0.19656447,1.4823996,-0.98479176,-0.9327815,-1.0023558,0.6221739,-0.63866,-0.3663337,-0.083275124,-1.2065715,-0.5456519,-1.5196385,-0.0049334858,-0.40790138,0.4097217,-2.5241132,-1.5446798,-1.1703745,-0.3711447,-1.0681331,0.011133835,1.4295473,-1.2126793,-0.15782613,1.7317071,0.054445617,-0.08060302,0.971767,1.0264348,0.6756545,-0.11672626,-0.5920313,-0.16499951,-0.12947075,1.3090038,0.7712854,-0.6936353,-0.56570196,0.6882579,-0.22324713,0.7792207,-0.48734438,-0.33252668,0.22581033,-0.31629905,0.5197341,0.16289736,1.2162724,0.0069444515,-1.7964252,0.49002597,-1.1789677,0.23145598,-0.45021677,-0.24300104,-0.8810447,1.6028267,1.4869498,0.57865465,-0.46337157,0.5111693,0.5831812,-1.6040109,-0.038116273,-1.2891959,0.02588688,0.2539471,1.436743,0.2448984,0.53182644,-0.44976252,0.6793802,1.4770827,1.3675615,0.71336585,0.1882138,0.9594424,-0.071173504,-0.7317365
neuroreactive_substance_or_biogenic_amine,-0.017399825,1.0910167,-0.06494401,0.8732167,-0.7725919,0.034208324,-0.5930397,0.5091346,-1.2998459,-0.17527474,1.4122804,0.5315258,0.16998532,-0.7691494,0.62697035,1.0118824,-0.31735504,-0.7379989,0.6346443,-0.013674152,0.49470925,0.25793663,-0.46766254,0.37203178,1.506327,-0.5881689,0.015904378,-0.13000454,0.1726741,0.07420837,0.5697554,-0.20100728,0.22996835,-0.2608929,0.21093161,-0.4697578,-1.0886128,0.7099421,0.60494465,-0.6124483,-0.45263484,1.1221989,0.5247252,0.44683006,-0.39451233,-0.33506984,0.43084213,0.18063578,0.49990836,0.005314187,0.46058977,-0.52953607,0.8189936,-0.8127342,0.17967252,-1.1124175,-0.8884618,-0.7104142,-1.5592896,-0.37848666,-0.61308336,-0.5361643,-1.4075576,-0.20010947,-0.09182633,0.4196883,-0.012557823,0.0306484,0.044487152,2.0657308,0.7615184,0.35310313,1.3762176,0.11940068,0.09708811,-0.8521101,0.2126149,-0.9553404,-0.04523217,-0.33216456,-2.2053273,-1.2535657,-0.36924705,-0.7332791,0.659951,-0.09638584,0.77580553,0.70064735,0.09244646,-0.23278527,0.21694137,-0.121358834,-2.0367694,0.4783845,-0.2412935,-0.8331714,0.6202552,-0.17046385,0.11960198,0.020087551,-0.11977246,0.20050877,1.2861863,-0.12852979,0.8000589,-1.1280959,-0.6650628,-0.03210296,1.2640607,0.09213266,-1.1172372,1.2028344,-0.24553883,-0.68151325,-0.013329991,-0.9802465,-0.7451148,0.06983239,0.11172179,-0.15437517,-0.60523576,-0.4124348,0.12279515,0.55115354,-0.09295049,-0.26205012,-0.023674875,-0.0019435664,0.21668231,2.0733728,1.5269579,0.8308618,0.76773083,-0.19533162,1.4691304,-0.63798416,0.45492098,-0.622767,-0.31642714,-1.9074543,0.0033966224,1.4064234,1.104627,0.8585818,0.865592,1.9110218,-0.6517061,0.7239242,2.3481448,-0.06136386,-1.3688855,-0.1256882,-0.36686477,1.4788665,-1.1890041,-1.9110657,-0.66056573,-0.21192327,-0.68461454,-0.5366874,0.21794559,1.0702951,-0.2972361,-0.61022174,0.605188,-1.590719,-2.018509,-1.0458546,1.6051621,0.027489359,1.168153,0.25495216,-0.606214,-1.8698118,-1.1089405,-1.5858649,1.4733156,0.92680836,0.64989865,-0.015816294,0.8976889,-0.8862736,-0.96668315,-0.27165878,1.9140257,1.8445016,0.5267838,-1.0967475,-0.11474853,1.4391897,-0.12568247,0.14416468,0.060849313,0.7790844,-0.92573065,-0.82025254,1.6254764,0.48400924,-0.17858249,-0.34136912,-1.0680653,1.7520537,-1.039022,-0.1494347,1.1597928,-0.37746847,-0.88372535,-0.7346034,-0.08770631,-0.38663188,0.4514533,0.7965535,1.650219,0.73301125,0.72427404,-0.90422404,-0.4281376,0.055015083,-1.1053741,1.9858356,0.3380609,-0.627546,-0.5596455,-0.45125026,0.26529977,1.4905384,-0.9132545,-0.67174655,0.80889416,1.0747353,0.20023856,-0.3061764,-0.40049243,0.029550837,0.75853264,0.6552111,0.8011781,-0.74256676,-1.3028618,0.7712458,-0.98025465,0.17932044,-0.009042831,0.64100665,-0.4267809,-0.4486867,-0.35587016,0.9548427,-1.7993731,1.2981538,1.8572028,-0.17398337,0.62084377,0.2636935,-0.59178525,-0.098363996
embryonic_structure,0.45532617,0.3634324,-0.39930347,-0.5290918,-1.6351074,-0.31650025,0.20462218,-0.29261744,0.5136687,-0.55654263,0.5874915,0.051779337,1.6863647,-1.316427,0.018435478,0.7229042,0.043805588,0.76131314,0.09593927,-0.2116771,-0.7582282,0.555429,0.491444,0.43684095,-0.2029468,0.31623757,1.0303525,-0.48548374,0.36110672,-0.4566771,0.08816241,0.59065145,0.4096883,0.7877073,0.053412773,-1.9246542,0.8404434,0.17582805,0.75725347,-0.043206524,-0.3972219,-0.14002186,-0.71643317,1.6488248,1.7257094,-0.27068996,1.7363048,0.23851043,-0.37766752,-0.2491263,0.4204512,0.29955387,-0.86669785,-0.13143037,0.2649038,-0.5145428,0.21679665,-0.19360636,-1.3325452,0.24572805,0.41064167,0.11200487,-1.0411313,-0.6870101,-0.24197009,-0.6755303,-0.45682377,0.019510487,-0.08342824,0.4106162,-0.13720176,-0.34244028,-1.4712297,-0.43823102,0.3525863,0.34461704,0.3992749,-0.22246535,-0.9723748,-0.44695234,0.06819488,0.0021096133,-0.2071357,1.0914787,0.99936676,-0.19503278,0.08765091,0.017873826,2.0425642,-0.92886543,0.5349032,-0.35738552,0.012903392,0.59248286,0.0051548257,0.018637499,-0.2527548,-0.5549023,0.4816822,-0.03306646,-0.3250851,0.631224,-0.19221722,-0.2606518,1.1929934,0.3816889,-0.10658342,0.306691,-0.01585946,0.8812521,-0.11127655,0.5143495,-0.09728818,-0.30589482,1.0412928,0.074597515,0.1543351,0.22024645,-0.6643386,-1.3461145,-0.28050184,-0.2156165,-0.5750639,0.28860965,-0.20891269,-0.7709598,-0.38626072,0.06593861,-1.2474092,0.084936365,0.69373745,1.1421824,0.6044627,1.3832277,1.2209035,2.024077,-0.33249807,-0.6660163,-1.0687006,-0.79172575,0.50591236,0.78912216,1.5527209,0.9044734,2.1169424,-0.30411637,-0.5774948,0.96417344,1.9511259,-0.1145388,-0.8445468,-0.27885795,0.5976434,0.720048,0.27061617,-1.3242273,0.2989169,-0.057706848,-0.2277936,1.7472397,0.90109664,0.20585202,0.54342216,-0.858125,1.5630741,-0.2422115,-0.7199527,1.0293908,0.7467788,-1.7288938,0.6426418,0.09159299,0.8579439,-0.53482836,1.0886768,-1.2181094,-0.63975024,0.1929487,-0.66025406,0.45931944,-1.452314,-1.1627734,-0.9223707,0.20529936,1.7055125,-2.9823198,-2.5311692,-0.17467025,-1.3802183,-0.8052141,0.045507982,-0.78193665,-1.8390901,-1.5087827,-0.22042371,-0.43054777,-0.60271,1.1347772,-0.86812055,-0.8393097,-0.40881324,1.3628207,-0.05424251,-1.565465,0.5374472,0.8608203,-1.7633859,2.116261,-0.4431464,0.16896817,0.27913132,1.116637,1.0193675,-0.37414178,0.01657415,-1.9746667,-0.76128393,-0.18498826,-1.7265124,0.7174805,0.7298924,0.4224397,0.23703453,2.2087243,0.8015866,0.033099726,1.1714162,-0.22390051,0.53623927,0.06167654,2.1879303,0.5916924,-0.5791027,1.2621812,1.9419124,0.21427377,-0.12725464,-0.8832692,1.6864796,-0.5838447,-0.60406274,1.0109963,-0.25225773,0.5103523,0.24161269,-0.61011875,0.2729108,2.056667,-0.12174704,1.6745763,-0.34477058,2.1273258,0.8248447,-1.4790584,0.09652714,-0.39101708
neoplastic_process,-0.31973618,-0.99601835,0.17203183,0.23138548,0.5436367,-0.014491754,-1.0953996,0.433081,-0.18228148,0.723942,-0.32215714,-1.7891566,-0.6160786,-0.13222012,0.05493609,0.20115224,-0.33798304,0.23710054,0.59897345,0.11565851,-0.9770486,0.39631698,-0.062011365,-0.031236054,-0.2493263,-0.27146274,0.79808396,-0.8509533,0.52421,0.47291467,-0.29713133,-0.31331426,-1.7639197,0.07706583,-0.18987541,-0.2815817,1.0504308,0.07977193,-0.7100365,0.042275198,-1.1697904,-0.20950635,-0.96661437,1.0125029,0.6944296,-0.025816526,0.21727662,0.58700097,-0.8240848,-0.74833226,0.029561147,-0.6968256,0.98380584,0.25837404,-0.10086839,-0.37312976,0.642368,1.1427015,-1.1131355,-0.043841567,0.29406267,1.7779999,0.15520662,-0.3249927,-0.032204058,-1.0209547,0.17796229,0.093328565,-0.089072324,-0.9469439,0.39522523,0.83181804,0.5245748,-0.110262394,-1.2623287,-0.06270616,0.31023335,1.1531831,-0.21698014,-0.42140803,0.14719541,0.88712424,-0.7450487,-0.25711355,-0.54689956,0.17131777,0.8892335,-0.518731,-0.5848317,-0.57195604,-0.7088307,-0.072465345,-0.7096509,0.4103297,-0.42855236,0.01659277,-0.7263999,-0.05436335,0.2902448,0.21544157,0.883044,-0.23928812,-0.77819765,-0.0027782472,-0.7035606,-0.17370108,0.27981153,0.20418066,-0.64686227,-1.1940547,-0.0141296005,0.58901864,-0.2726611,-0.09126117,0.53562343,0.38757262,1.6179519,0.8469234,0.368981,-0.5259844,-0.94002223,-0.5998008,-0.4395969,-0.13762493,-0.4040443,-0.07223491,-0.6312358,-0.60772747,0.8331421,0.33878946,-1.0893797,0.21512932,0.20209281,1.0872661,-0.3400967,0.034866773,1.7942497,0.6470115,0.91594386,1.0947319,0.279642,0.5332127,0.49502417,0.012664827,-0.39245412,-1.270734,1.4328771,-0.65558606,0.8689506,1.0097345,0.6814953,0.43420354,1.2995458,-0.3118658,0.06325377,0.41375944,-0.5503226,-0.16027488,-0.9487208,0.1390679,0.6065448,2.4424922,-0.19570258,-0.7333144,0.5716357,1.4112631,-1.647545,-0.71809393,0.44567087,-0.81619877,0.09326663,-0.53076893,0.2889557,0.55115604,-0.6927977,-1.5474371,-0.47863314,0.11671771,-0.5817731,1.449494,0.30849612,-0.43599325,0.2795372,-0.26035303,-1.400318,-1.35429,-0.7121255,-1.5604236,-0.88811976,-1.375052,1.0491242,1.736657,0.88674873,0.0691081,1.2016681,0.7217197,-1.001425,-0.021657353,-2.3742566,-0.6050088,0.009589536,-0.52379155,-0.2668545,-0.72882354,1.3617647,1.0698365,1.1551193,-1.5404806,-0.57368445,-1.0856278,-0.25109017,0.610637,0.81408006,-0.11307056,0.8867427,1.22788,2.1759844,1.0082183,-0.43514648,-1.4285811,1.6965088,0.09307046,0.21100657,-0.46969172,-0.18640734,-0.59064746,0.62794626,-0.39018643,-1.3396264,-1.1243598,2.0367873,0.39820847,-0.84100443,0.6571317,1.0244522,1.1242456,-0.9564979,-0.40563723,0.9382866,0.8042143,-0.79260963,0.31071877,-1.1586709,0.6572496,1.2188225,-1.3899484,-0.30572757,-0.46620697,0.68382686,0.8622873,1.4233108,2.1781108,1.1045461,-0.23692626,-0.62524897,0.03553957
laboratory_procedure,1.0831474,0.11992499,1.9585758,0.049951877,0.32836846,-0.27062875,0.69447654,0.5554715,0.21088485,-0.12357414,-0.031650856,-0.45612022,-0.14637345,1.6525356,-0.17050356,-0.21780877,-0.13741098,1.137569,0.51471996,0.881297,-0.39661014,-0.5369769,-0.07042558,-0.80377257,1.1548684,-0.20911527,0.32667997,-0.6165451,-1.3972119,0.9572932,0.7689555,0.01929385,-0.52440333,-0.42856714,0.40356526,-0.172338,0.41641265,0.41612095,-0.30712807,-0.26310474,-0.8531616,0.5471181,-0.43452862,0.523486,-1.3095573,0.54542935,0.1644236,0.5780744,-0.36854464,-0.2095605,0.6130729,-0.88165486,0.77834177,0.6552491,0.7262671,-0.48040184,-0.33603474,1.1208758,-1.0963643,1.1525774,0.2086547,-0.037383392,-0.39215508,-0.30549517,-0.63411385,0.027568689,0.226607,-0.5370191,-0.030632952,-0.9968333,-1.0218294,0.14073348,-1.8398416,-0.21070443,0.23590803,0.9468213,0.41645262,-0.7924373,-0.5043665,-1.0329206,-0.025026357,-0.4072455,-1.118287,-0.983085,-0.21010788,0.11042055,0.7059398,-1.2298332,0.42426726,-0.5989416,0.2426716,0.36599505,0.105535276,-0.050897986,1.398693,0.40567932,-0.081556424,-0.017857462,0.8311709,0.28539798,-1.3354785,-0.769235,0.50144,1.2989731,0.4432793,1.0087934,0.1826346,-0.08594918,1.5033296,0.07753097,-1.0334171,-0.013694811,-0.9068642,-1.1914908,-0.080173954,1.1675514,-0.031639148,0.15283431,0.028390883,-0.6925284,-1.0169182,-0.2959284,-0.29205695,-0.031916626,-1.1047778,-0.19410664,-0.28518313,0.63078207,1.4518516,1.7774429,-0.035739806,1.319066,1.4820873,0.005686286,0.4490653,-1.2838304,0.9237461,-1.0944321,-0.7594164,-0.7477437,0.18945608,-1.5756851,-1.5343181,-1.7233615,1.343639,-1.3140876,-0.58899295,0.15881428,0.6909852,1.6823883,0.5342136,-0.21390419,-1.1058397,-2.7386475,-0.16349016,-0.108116016,0.444066,1.1556848,-1.2306374,-0.13482694,1.8271062,0.406243,0.15042134,-0.82542926,2.06321,-0.4062659,-1.2533056,0.52359176,-0.74618894,0.71798074,-0.878205,0.22611333,-0.6493722,1.1291298,0.011819179,-0.16960604,0.2664343,1.396479,-0.34969068,-1.1497802,-0.779248,0.18742323,0.31218624,-1.4496723,0.44404244,-0.28101978,0.16008984,2.2476113,1.6291935,1.8768188,-0.15713346,0.5112792,-1.5609211,0.26796138,-1.2432349,-0.95924145,0.050563063,0.49089307,1.9253287,-0.04911539,0.93980646,0.23245257,-1.6023145,0.80047965,0.51330364,-0.82004386,0.654243,-0.0572679,-0.74155784,1.4335274,0.116114646,-1.793505,0.75679636,0.80093217,-0.9767598,-0.65341425,-0.39565098,-1.143764,-1.0193077,-0.229747,0.8930736,0.4288878,-0.20437399,-0.4977394,-0.044127658,-0.31715396,0.53852683,0.023694664,-0.97675276,-0.6762064,0.22296241,0.045305204,-0.60061204,0.8142951,0.93557197,1.6897472,0.21853477,1.0150088,0.20996082,-0.35317338,0.12524211,-1.5964682,-0.46654767,0.23027088,-0.84902906,-0.397276,0.9574793,1.0113816,0.13652353,1.0215949,0.17909685,0.6633729,-0.8496901,0.3086999,-0.22967526,-1.0281953
