0,1,2,3,4,5,6,7,8,9,10,11,12,13,14,15,16,17,18,19,20,21,22,23,24,25,26,27,28,29,30,31,32,33,34,35,36,37,38,39,40,41,42,43,44,45,46,47,48,49,50,51,52,53,54,55,56,57,58,59,60,61,62,63,64,65,66,67,68,69,70,71,72,73,74,75,76,77,78,79,80,81,82,83,84,85,86,87,88,89,90,91,92,93,94,95,96,97,98,99,100,101,102,103,104,105,106,107,108,109,110,111,112,113,114,115,116,117,118,119,120,121,122,123,124,125,126,127,128,129,130,131,132,133,134,135,136,137,138,139,140,141,142,143,144,145,146,147,148,149,150,151,152,153,154,155,156,157,158,159,160,161,162,163,164,165,166,167,168,169,170,171,172,173,174,175,176,177,178,179,180,181,182,183,184,185,186,187,188,189,190,191,192,193,194,195,196,197,198,199,200,201,202,203,204,205,206,207,208,209,210,211,212,213,214,215,216,217,218,219,220,221,222,223,224,225,226,227,228,229,230,231,232,233,234,235,236,237,238,239,240,241,242,243,244,245,246,247,248,249,250,251,252,253,254,255,256
locatedin,0.7628176808357239,-0.14885738492012024,-0.25846976041793823,0.40495458245277405,0.07944117486476898,-0.19560931622982025,-0.6757069826126099,-0.42538079619407654,-0.0014938311651349068,0.38268572092056274,-0.13146333396434784,-0.9560688734054565,0.5779346823692322,-0.11251989752054214,0.040361132472753525,0.24937887489795685,-0.31318527460098267,-0.25498640537261963,-0.42882421612739563,-0.23639479279518127,-0.18366961181163788,0.6207454204559326,-0.6606040596961975,0.7626699805259705,1.0158815383911133,-0.86378413438797,-1.610248327255249,-0.696124255657196,-0.8112691640853882,-0.3534950315952301,-0.38810524344444275,-0.2987986207008362,-0.14798976480960846,-0.31431207060813904,0.04835878312587738,-0.9770967364311218,0.5604543685913086,0.40544167160987854,0.06241139397025108,-0.49037885665893555,0.5790301561355591,0.6343321204185486,-0.12963248789310455,-0.6237233281135559,-0.8382170796394348,0.21684803068637848,0.6500149965286255,-0.9720107316970825,1.3250528573989868,-1.2953929901123047,0.257538378238678,0.5683333277702332,-0.27490687370300293,-0.08644717931747437,-0.8387903571128845,1.2738566398620605,0.04792311042547226,0.9740476012229919,-0.35535886883735657,-0.7419406771659851,0.30047962069511414,-1.4544517993927002,-0.2705925405025482,0.49198976159095764,1.1422630548477173,0.08556721359491348,0.7487966418266296,-1.0525392293930054,-0.16792069375514984,-2.281531810760498,-0.7352960109710693,0.11039359867572784,0.5169832110404968,-1.3652102947235107,-0.9194769859313965,-0.8045879602432251,-0.7317488789558411,-0.46936336159706116,0.17485041916370392,0.4980255961418152,-0.14381982386112213,-0.024732345715165138,-0.061923906207084656,1.2879748344421387,1.107987880706787,-0.11427110433578491,-0.0673043355345726,0.128072127699852,0.6828775405883789,0.9063377380371094,0.2433338314294815,-1.0537327527999878,2.2656216621398926,1.0424273014068604,-0.09094709903001785,1.0434895753860474,-0.06899262964725494,1.822967290878296,0.9457272887229919,0.04845340549945831,-1.2374658584594727,-0.09151280671358109,0.46232178807258606,0.1809544414281845,0.321505069732666,1.150743007659912,0.6245495080947876,1.385535478591919,-0.9100721478462219,2.511070966720581,-1.3184922933578491,1.1914888620376587,-0.4050453007221222,1.2159944772720337,0.6263452768325806,1.918898105621338,0.78570955991745,1.546114444732666,1.8569408655166626,-0.12463511526584625,-0.1506122648715973,1.377573847770691,-0.02033485658466816,0.41869574785232544,1.6618727445602417,-0.4215339720249176,0.5077927112579346,2.126692295074463,0.18627585470676422,-0.22575919330120087,-0.7331490516662598,-0.7453299164772034,0.16022007167339325,-1.712507963180542,0.9048450589179993,-1.5332087278366089,-0.8239913582801819,-0.15229946374893188,-0.7079883813858032,0.11853674799203873,0.3325495719909668,0.31631115078926086,0.7634744644165039,-1.4637209177017212,1.0617924928665161,-0.04772784188389778,0.544347882270813,-0.9976181983947754,1.9562041759490967,1.3516533374786377,-0.8840057849884033,-1.2736669778823853,0.8453381657600403,-1.3064533472061157,1.5156195163726807,-0.4145931303501129,-1.048511028289795,0.1365971714258194,-0.5880019664764404,0.5159577131271362,-1.2457218170166016,-0.8531244993209839,0.7043408155441284,-1.819248914718628,0.13421282172203064,0.21956384181976318,0.3899475038051605,2.353628635406494,2.340332508087158,0.3425118327140808,-1.5384271144866943,-0.14797669649124146,-0.5678220391273499,1.5481334924697876,-1.1106312274932861,-0.6342548727989197,-0.4679872691631317,-0.7376912832260132,-0.3905844986438751,1.9683605432510376,-0.308354914188385,-0.2942003905773163,0.5551000237464905,0.5239391922950745,0.003983600065112114,0.2623045742511749,0.8412196636199951,-0.9720096588134766,-0.803662121295929,0.9463289976119995,-0.7731972932815552,0.03979934751987457,0.7918977737426758,0.34730952978134155,1.3086473941802979,-0.5852291584014893,0.9293026328086853,0.17429287731647491,-0.4857093393802643,-0.7153865694999695,-0.7538664937019348,0.3543134927749634,-0.4826272130012512,0.9223248958587646,1.0688817501068115,0.07813163846731186,0.9866254925727844,1.3486441373825073,-1.1505194902420044,0.9091389179229736,0.3622961938381195,-1.6592375040054321,0.7555332183837891,0.04920926317572594,-1.1884081363677979,-0.8153426051139832,-0.456288605928421,-0.2638603746891022,0.40020379424095154,-0.12317129969596863,-0.9079433083534241,-1.2751121520996094,1.3767063617706299,-0.26923349499702454,-0.516452431678772,-0.6753296256065369,0.14193394780158997,0.5559858083724976,-0.30827659368515015,1.456505537033081,0.35936862230300903,-0.4407919645309448,0.4733083248138428,1.1997365951538086,1.229272484779358,-0.5933005213737488,-0.2951148450374603,1.4304405450820923,-0.6748039722442627,-0.6318148970603943,-0.4537668526172638,-1.6326394081115723,-1.093897819519043,-0.18264789879322052,0.8090831637382507,0.1919376701116562,-2.790800094604492,-0.28770291805267334,1.5586026906967163,1.1663397550582886,-1.5755324363708496,-1.3771387338638306,-1.777459979057312,-2.0902130603790283,1.331270694732666,-2.1235928535461426
neighbor,-0.7978351712226868,-1.0106918811798096,-0.12651273608207703,-1.1653729677200317,0.26466941833496094,-1.1240339279174805,-0.4226056933403015,0.19572767615318298,-0.03525618836283684,0.28208374977111816,0.2737672030925751,-0.5966206789016724,-0.45364660024642944,0.9566729664802551,-0.5019440054893494,-1.2664899826049805,0.08695854991674423,-0.3479013442993164,-0.7136319279670715,-0.8974339365959167,-0.7012884020805359,-0.8357819318771362,-0.5518315434455872,-1.3386504650115967,0.01657058671116829,-0.16359269618988037,1.1555452346801758,-0.7800251245498657,-0.018288645893335342,-0.19545677304267883,-0.634804904460907,0.20903313159942627,1.6774754524230957,0.5081391930580139,0.5083127021789551,0.39263561367988586,-1.2307918071746826,-1.4002841711044312,0.3682635426521301,0.5263403058052063,0.6105645298957825,-0.052954886108636856,-0.6228158473968506,-1.3209089040756226,0.6454123258590698,0.3957531452178955,0.4905432164669037,-0.4155701994895935,-1.450806736946106,0.5901265144348145,0.26920226216316223,0.46570587158203125,0.06696372479200363,-0.2636898159980774,-0.8781054019927979,0.19552375376224518,-0.30510663986206055,-0.0031744118314236403,-2.1082959175109863,-0.4486847221851349,-0.3128696382045746,-0.06210316717624664,-1.494844913482666,-1.8372746706008911,-0.1547834873199463,-0.2821609675884247,-1.2299634218215942,-0.14021223783493042,0.9172928929328918,-0.45848795771598816,0.9799191355705261,0.699337899684906,1.3142824172973633,0.5342134237289429,1.0266633033752441,-0.15523770451545715,0.952296257019043,-0.71186363697052,-0.7600418925285339,0.9806535243988037,0.5315913558006287,0.7579951286315918,-0.4310389459133148,-0.4070315957069397,0.20646932721138,0.08260815590620041,-1.764926552772522,1.4865168333053589,-0.4031867980957031,-0.41479629278182983,0.9225510358810425,0.8321298360824585,0.5812784433364868,-0.23481252789497375,-0.25675490498542786,-0.06659974902868271,-0.9707767963409424,0.0745851993560791,0.88844895362854,1.1646959781646729,0.14510641992092133,1.280066967010498,0.18431362509727478,-0.4756428003311157,0.08746054023504257,-0.7899392247200012,-0.17623083293437958,-1.1279611587524414,0.015279082581400871,0.9861499667167664,-1.0031967163085938,-0.2941248416900635,-0.13399136066436768,0.07444838434457779,-0.42406222224235535,-0.5192215442657471,-0.22920654714107513,-1.5314677953720093,0.1589134782552719,0.21005944907665253,-2.151859998703003,-0.31320810317993164,-0.19829678535461426,-0.18920035660266876,0.24947568774223328,0.4918060600757599,-0.08121863007545471,1.2607686519622803,2.066348075866699,-0.08626756072044373,0.8514881730079651,1.0441861152648926,1.0676827430725098,-0.060768067836761475,-0.31376180052757263,-0.05819530785083771,1.6356052160263062,0.27994418144226074,0.457889586687088,-0.45108938217163086,0.324247807264328,-0.6398696303367615,-1.7805808782577515,-1.0962860584259033,0.3966405987739563,0.6883912682533264,0.035030003637075424,0.28232821822166443,-0.3099657893180847,0.8119955658912659,-1.9115571975708008,-0.7250792980194092,-0.02749302051961422,0.2820012867450714,-1.0813542604446411,1.6252555847167969,0.689549446105957,0.8345831632614136,0.3006599545478821,0.8362150192260742,-0.9417034983634949,1.0471370220184326,0.7964304089546204,-0.025305889546871185,-1.4686968326568604,0.8253768086433411,0.45591479539871216,0.05200272053480148,0.15427649021148682,0.24642017483711243,0.2102116048336029,0.3137434720993042,-0.9273431897163391,0.42934563755989075,1.4901734590530396,0.061297353357076645,1.6248327493667603,-2.089520215988159,0.0735829696059227,0.4353516697883606,1.7755029201507568,2.097214698791504,-0.014949637465178967,-1.2859501838684082,0.7273723483085632,-1.5751245021820068,1.1942486763000488,-0.8720166087150574,-0.9934558272361755,0.5126742124557495,0.29275503754615784,2.4961631298065186,-0.07695785909891129,0.615452766418457,-0.7214103937149048,-0.987804114818573,-0.990699052810669,0.5309560894966125,0.9003223180770874,1.4773770570755005,-0.3796643018722534,-0.4360084533691406,-0.18091543018817902,-0.559701681137085,-0.43846070766448975,0.0905727744102478,-0.0933251902461052,-0.8819671869277954,0.15218248963356018,0.27911144495010376,0.9239321947097778,0.8597102165222168,-0.1804129183292389,1.9631507396697998,-0.6921662092208862,0.2202962189912796,0.18255457282066345,-0.1852611005306244,0.08454297482967377,-0.6025179624557495,0.5524685978889465,-1.1442062854766846,0.012455509044229984,-1.4544867277145386,-0.5713334083557129,0.2580162286758423,-0.7354201674461365,-2.071587562561035,-0.5823944807052612,1.3525961637496948,-1.8707575798034668,-0.02714640647172928,-0.9647265076637268,0.2885015904903412,0.9848323464393616,-0.8682236671447754,-1.6616874933242798,1.0969492197036743,-0.9015050530433655,-0.6380245089530945,-1.508338212966919,0.41884323954582214,0.5036651492118835,1.0972397327423096,-0.32608169317245483,-1.0951906442642212,0.008314116857945919,0.3959037959575653,0.44852861762046814,-1.8963676691055298,-0.723902702331543,0.019640138372778893,-2.5289149284362793,-1.8222838640213013,-0.8866419196128845,-0.5324347615242004
locatedin_inverse,-0.2556915879249573,0.332981139421463,-0.40768754482269287,0.43961024284362793,0.1570626050233841,0.5727059245109558,-0.012955943122506142,-1.8269141912460327,0.1832706183195114,0.30073752999305725,1.3156143426895142,0.5700845122337341,0.9171556234359741,1.3298661708831787,0.11521278321743011,-0.9683459401130676,0.2709951102733612,1.0286260843276978,-0.5382797718048096,-0.1050475463271141,0.1622362583875656,-0.2528415620326996,-0.03157166764140129,1.5486983060836792,-1.4780396223068237,1.9611105918884277,0.12282125651836395,1.0095548629760742,1.739543080329895,-0.6759493350982666,0.8035967946052551,0.8503067493438721,-0.03535708412528038,1.7848800420761108,-0.8307167887687683,-0.7009353637695312,0.04715247452259064,-0.3420424461364746,0.25320926308631897,-1.0499920845031738,-0.04100351780653,1.449833869934082,-0.9420488476753235,-0.7399936318397522,0.5752085447311401,-0.6628068089485168,-0.27540868520736694,-0.438228040933609,0.09953155368566513,0.14103710651397705,0.9723148941993713,0.007895220071077347,2.524677276611328,0.7881421446800232,0.017060287296772003,-0.554325520992279,-0.3531906306743622,-0.0460519939661026,1.5946153402328491,-1.1316263675689697,-0.6389946341514587,1.1374733448028564,-1.0724650621414185,-0.24706828594207764,-0.001422683708369732,0.8616460561752319,-0.2840566039085388,-0.40503591299057007,-0.04414299130439758,-0.08911704272031784,0.5820981860160828,0.8793238997459412,0.2918238043785095,0.8195736408233643,-0.3823815584182739,0.5534394979476929,0.5703366994857788,-0.8286880850791931,0.8492845892906189,-0.7934306263923645,-0.8060778379440308,0.3060745596885681,-0.02108287811279297,0.36086443066596985,0.029566507786512375,0.43394359946250916,0.31122511625289917,0.28995344042778015,0.61976158618927,0.21886403858661652,-0.08152033388614655,0.07727076858282089,-0.7120844721794128,0.4534563422203064,2.1244075298309326,0.17488977313041687,-0.23048843443393707,0.5827596187591553,-1.187855839729309,0.7933406829833984,0.41253015398979187,0.3534439504146576,1.5501028299331665,0.1883397251367569,0.09833584725856781,-0.1090492531657219,1.1296765804290771,0.20794203877449036,1.8750059604644775,0.8607833981513977,-0.3033811151981354,0.25741374492645264,-0.34523308277130127,1.0676249265670776,0.8361927270889282,-1.5193320512771606,1.1105005741119385,0.27544575929641724,0.09226693958044052,-0.5576691031455994,-0.5356900691986084,0.3019746243953705,0.6235447525978088,0.9041414260864258,-1.3454540967941284,0.3194773495197296,0.3335022032260895,-0.15969888865947723,0.02175058051943779,0.9681702256202698,-1.1116042137145996,-0.32464972138404846,-1.2494795322418213,0.29539233446121216,-0.029065102338790894,0.4623166024684906,0.2893143594264984,1.3061864376068115,1.9593019485473633,-0.25834423303604126,1.0911610126495361,-0.20905698835849762,0.5661396384239197,0.22010847926139832,0.7516558170318604,0.6394470930099487,0.7842718958854675,-2.038370370864868,0.5208633542060852,0.674933135509491,0.6367647051811218,1.3554571866989136,-0.7925260663032532,1.2279292345046997,0.08607232570648193,2.129384994506836,-0.7220118045806885,-0.4570392966270447,1.9584861993789673,0.18288058042526245,0.31083646416664124,0.3795161247253418,-0.7633705139160156,0.7820187211036682,0.31096404790878296,0.3737119734287262,-0.12980297207832336,1.0589625835418701,0.35087233781814575,1.3895156383514404,-0.7902169227600098,-0.48720669746398926,-0.327436238527298,-1.7741994857788086,-2.1903445720672607,-0.09306143969297409,1.347012996673584,1.0381360054016113,-0.06445497274398804,-0.16861292719841003,0.5078879594802856,0.11323122680187225,0.48362216353416443,0.4499396085739136,0.8290947675704956,-0.251914918422699,0.8019508123397827,0.6323481202125549,-0.21597328782081604,-0.946428120136261,-0.21225179731845856,0.8410699367523193,0.46836569905281067,-0.6600744128227234,0.2601246237754822,0.11726050078868866,-0.45478877425193787,-2.003143072128296,-1.0664840936660767,-1.1009294986724854,0.04524747282266617,-1.1582057476043701,-0.7172137498855591,0.8334371447563171,0.7413675785064697,-1.7752267122268677,-0.15492883324623108,0.42750537395477295,0.7790821194648743,-0.19818215072155,0.34012699127197266,-0.9772123694419861,-0.4192488193511963,-0.7269255518913269,-0.9548910856246948,0.9585244655609131,0.403971403837204,0.6427915692329407,0.5841058492660522,-0.07407736033201218,-0.5500112771987915,-1.2434509992599487,-0.08421499282121658,-1.5869945287704468,-0.7008787989616394,-0.40366849303245544,1.3530418872833252,0.09980514645576477,-0.5320116281509399,1.7200871706008911,1.6335800886154175,-0.6116460561752319,1.3489172458648682,-0.28736037015914917,0.866735577583313,0.5123515129089355,2.15927791595459,0.9861156344413757,0.9407572746276855,-0.6644561290740967,-0.4929748773574829,-0.2531445622444153,0.4192216396331787,-0.10723884403705597,-0.24640189111232758,-2.6399426460266113,-1.2338426113128662,-1.7861850261688232,1.3319185972213745,-0.055589012801647186,0.8788208961486816,-0.6037160754203796,-0.41280877590179443,0.010276391170918941,-1.9596127271652222,0.9431797862052917
neighbor_inverse,0.1154574602842331,-0.22405968606472015,-0.09346767514944077,0.514790952205658,0.4031841456890106,-0.25164321064949036,-0.38266485929489136,-0.25334224104881287,-0.7919676899909973,-0.9789365530014038,0.8087460398674011,0.4652954936027527,-0.3556688129901886,-0.8579093813896179,0.6966890692710876,-0.1598094254732132,1.313370943069458,-0.20976154506206512,-0.1340479552745819,0.7703024744987488,0.9211015105247498,-1.0985512733459473,0.2891868054866791,1.60312819480896,0.16804705560207367,-0.31670960783958435,0.07015857845544815,0.1897076517343521,-0.07248686999082565,-0.4190654456615448,0.7391709089279175,-0.5863073468208313,-0.3773554861545563,0.8517305850982666,0.9252592921257019,0.6670511364936829,0.9536712765693665,0.2105848491191864,0.05860186368227005,-1.137603759765625,0.0008428441360592842,-1.1431565284729004,-0.5819958448410034,-0.6907544732093811,0.2235434353351593,-0.9142113924026489,0.4059067666530609,-0.6202234029769897,-0.05049195885658264,2.258828639984131,0.10500697046518326,-0.7447464466094971,0.008386717177927494,0.220856174826622,-1.272996187210083,1.7723209857940674,-1.0328658819198608,0.518971860408783,-0.13412919640541077,0.2134510576725006,-0.3046885132789612,-0.6111261248588562,0.6831499338150024,-1.2049193382263184,0.04030562564730644,-0.3628619909286499,0.0076803769916296005,0.26458635926246643,0.20677080750465393,-0.11900363862514496,1.0617988109588623,0.5078571438789368,0.4641624093055725,-1.8890806436538696,-0.6354342699050903,-0.9865713715553284,-0.19222886860370636,-0.34056124091148376,-0.1298077553510666,-0.3341069519519806,-0.5815520882606506,-0.8497745990753174,-0.9321529269218445,0.010370083153247833,1.5392879247665405,0.3752465844154358,0.5251946449279785,0.33821818232536316,0.151112899184227,-0.16669629514217377,0.7224501967430115,-0.43967118859291077,-0.6041536927223206,-0.02113478258252144,0.5954089164733887,-0.5634411573410034,-1.0288413763046265,-0.07960543036460876,-0.3707245886325836,0.5720511078834534,1.1184701919555664,0.5310400128364563,0.09187870472669601,-0.7720927596092224,0.8451451659202576,-1.115031123161316,-0.5531955361366272,0.07707136869430542,-0.21121761202812195,-0.5917715430259705,-0.3282054364681244,0.9368870258331299,0.23047694563865662,0.038804616779088974,-0.8421342968940735,-0.5420312881469727,-1.852472186088562,-0.48848041892051697,-0.5791572332382202,-1.9759318828582764,-0.5219855308532715,0.5512292981147766,-0.22246146202087402,-0.10633838176727295,-0.9087775945663452,0.13922788202762604,0.30346110463142395,-0.009881895035505295,-0.07395552098751068,-0.03384719043970108,-1.0453834533691406,1.6583694219589233,-0.4158891439437866,0.25166431069374084,-0.351532518863678,-1.88942551612854,-0.6464351415634155,0.7244812250137329,0.28253698348999023,-0.11854298412799835,-1.0498031377792358,1.2340998649597168,-1.9854364395141602,-0.7064367532730103,-1.3076560497283936,1.191063404083252,0.20922571420669556,-0.8853703141212463,0.4555794894695282,0.2990386188030243,0.07324281334877014,-0.3492180407047272,1.2360665798187256,0.10382607579231262,0.978438138961792,0.8771311640739441,-0.05723332613706589,0.7544136643409729,-1.5790400505065918,-1.4353307485580444,-0.41009438037872314,-0.13185176253318787,-1.4330114126205444,1.100162386894226,0.6457310914993286,0.38997548818588257,-0.2634976804256439,2.2854971885681152,-0.4635167717933655,-0.46053898334503174,-0.8081899285316467,0.5245892405509949,-1.128334879875183,0.5302345752716064,-0.9928951263427734,2.009772300720215,-0.1795024424791336,-0.24407236278057098,-0.759147584438324,-0.25562340021133423,1.5752613544464111,1.3613430261611938,1.283079743385315,0.3281124234199524,0.08700768649578094,0.326819509267807,-0.056907325983047485,1.596848726272583,-1.4766087532043457,-1.1395155191421509,-0.8392277359962463,-0.0608142726123333,0.6009142994880676,0.3505260646343231,1.3330172300338745,-0.3039197623729706,-0.30533817410469055,1.3083537817001343,0.8718774914741516,0.07304917275905609,-0.9526644349098206,-0.4537663161754608,1.232465147972107,-2.0405571460723877,0.43610692024230957,0.06315276026725769,0.2469300776720047,-0.17434364557266235,1.4128615856170654,-0.8096502423286438,-0.9082028269767761,1.1582632064819336,-1.89141047000885,0.9134363532066345,0.7626615166664124,-0.059463467448949814,-0.3360891044139862,-0.38334590196609497,-0.15034209191799164,0.21432211995124817,-0.9140456318855286,-0.783007025718689,1.3526698350906372,-1.1303222179412842,-0.13539601862430573,-1.8997834920883179,-0.1737615317106247,0.7478075623512268,-0.7824537754058838,0.4089829623699188,-0.45201921463012695,-0.4370708167552948,0.8007336258888245,-0.8395321369171143,-0.47857558727264404,-0.335787832736969,-1.4423273801803589,0.9138018488883972,-1.1352965831756592,0.1957135647535324,-0.5566591024398804,1.0612149238586426,0.03461666405200958,-0.227171391248703,-0.13382340967655182,-0.9932687282562256,0.3529477119445801,-0.5134447813034058,0.5880727767944336,-0.5818291902542114,0.1775113046169281,-0.03557773679494858,0.33074676990509033,-0.7931192517280579,1.7072819471359253,-1.3983756303787231
