,0,1,2,3,4,5,6,7,8,9,10,11,12,13,14,15
locatedin,-0.2241414,0.36347455,-0.024740621,-0.17594798,0.6262476,0.3571078,0.30811346,1.6035397,2.107785,-1.0052692,1.0116303,1.1591703,0.59247184,-1.4852295,-0.88444066,0.70454365
neighbor,-0.4959697,0.37392455,-0.26955563,-0.199114,0.33387837,0.013083165,0.26654142,0.61011815,2.0290906,-0.8063731,1.1845908,1.1051885,0.5841687,-1.2517858,-0.6562054,0.6265859
locatedin_inverse,-0.2190168,0.19956914,-0.048715666,-0.12315228,-0.40688655,0.38579854,0.18282492,0.55986875,0.8915764,-0.7289077,1.775917,0.600524,0.20137228,-1.1135373,-0.6949963,0.3433683
neighbor_inverse,-0.57514334,0.38644645,-0.14747684,-0.19072509,0.3058075,0.30931365,0.2862693,0.538222,1.9777361,-0.6950953,1.2636286,1.0446182,0.5388252,-1.1854162,-0.6318524,0.61719894
