0,1,2,3,4,5,6,7,8,9,10,11,12,13,14,15,16,17,18,19,20,21,22,23,24,25,26,27,28,29,30,31,32,33,34,35,36,37,38,39,40,41,42,43,44,45,46,47,48,49,50,51,52,53,54,55,56,57,58,59,60,61,62,63,64,65,66,67,68,69,70,71,72,73,74,75,76,77,78,79,80,81,82,83,84,85,86,87,88,89,90,91,92,93,94,95,96,97,98,99,100,101,102,103,104,105,106,107,108,109,110,111,112,113,114,115,116,117,118,119,120,121,122,123,124,125,126,127,128,129,130,131,132,133,134,135,136,137,138,139,140,141,142,143,144,145,146,147,148,149,150,151,152,153,154,155,156,157,158,159,160,161,162,163,164,165,166,167,168,169,170,171,172,173,174,175,176,177,178,179,180,181,182,183,184,185,186,187,188,189,190,191,192,193,194,195,196,197,198,199,200,201,202,203,204,205,206,207,208,209,210,211,212,213,214,215,216,217,218,219,220,221,222,223,224,225,226,227,228,229,230,231,232,233,234,235,236,237,238,239,240,241,242,243,244,245,246,247,248,249,250,251,252,253,254,255,256
western_africa,-1.2659618854522705,-0.8974996209144592,-0.9841523170471191,-1.3439960479736328,-0.0259166918694973,-0.34811702370643616,-0.657135009765625,-1.3062881231307983,-0.43869611620903015,0.019070940092206,-0.4963587522506714,-0.36498042941093445,-0.5045761466026306,1.4091893434524536,-0.01845511421561241,0.2828291654586792,-0.4494936168193817,-0.8930342793464661,1.03303062915802,0.5049823522567749,0.5840960144996643,0.5073421597480774,-0.33958306908607483,0.5256622433662415,0.8096117377281189,-0.4149748980998993,-1.9586336612701416,-1.1752147674560547,-0.1771964728832245,-0.28753986954689026,-0.5053988695144653,0.123807892203331,1.5906829833984375,0.2038183957338333,-0.08778735995292664,-0.5107370018959045,-0.055529262870550156,-0.13015082478523254,-0.13383756577968597,-0.7989681959152222,0.159798264503479,0.19139079749584198,-0.4871482253074646,-0.3453219532966614,2.0939488410949707,-0.7757198810577393,1.3149309158325195,-0.29869183897972107,-0.6502750515937805,0.26356041431427,-0.20748788118362427,-0.17762325704097748,0.48693007230758667,0.14694838225841522,1.0701273679733276,1.7211750745773315,0.4635637700557709,0.6829923987388611,-0.07272200286388397,-0.3275604248046875,1.2846797704696655,-0.5903693437576294,-3.0499329566955566,-0.45786309242248535,0.2982932925224304,-0.7690744400024414,-0.4861195981502533,-0.761507511138916,0.01702849194407463,0.30014413595199585,1.3860236406326294,-0.3113066852092743,-0.7035390138626099,0.10950017720460892,-0.69068843126297,-0.532524824142456,-0.20070461928844452,-0.2406442016363144,0.5746055841445923,-0.6848844885826111,-0.3644323945045471,-0.1977447122335434,-0.7407475113868713,0.42733079195022583,-1.1559234857559204,-0.20925767719745636,0.23492330312728882,0.052960678935050964,-0.06171921268105507,-0.7028162479400635,-0.7526431679725647,0.6152990460395813,-0.7595421075820923,-0.21101368963718414,0.38398367166519165,1.6840869188308716,0.3707684874534607,0.9071938991546631,0.525847315788269,-0.6688752770423889,1.1108784675598145,-0.6132614016532898,-0.6699241995811462,1.3080036640167236,1.0545015335083008,0.3136849105358124,0.12858089804649353,-0.1550518125295639,-1.817265272140503,-0.3551464378833771,-1.4321410655975342,-1.2059638500213623,0.5392538905143738,-0.28725308179855347,1.0129666328430176,0.5704038739204407,0.05275685340166092,0.05869494751095772,0.38095271587371826,-0.7406551241874695,2.247067928314209,-0.34875598549842834,0.2734529674053192,1.5823869705200195,-1.697587013244629,1.48861563205719,-0.04645272344350815,0.07480683922767639,1.0026681423187256,-1.4761714935302734,0.061766013503074646,1.458710789680481,0.005074726417660713,-2.0428154468536377,0.5430247783660889,-0.8516127467155457,-1.5826537609100342,-2.180011510848999,0.8460909128189087,0.9721009135246277,2.3540568351745605,0.36549556255340576,1.9697341918945312,-1.485079050064087,-1.1216962337493896,-0.8645764589309692,1.2704044580459595,0.9141772389411926,0.7724414467811584,-0.1184375211596489,0.24148090183734894,-1.43659508228302,0.7549565434455872,0.4134666919708252,0.5783047080039978,1.0164250135421753,1.8041504621505737,2.146235942840576,-0.4084266126155853,2.3601107597351074,0.49741628766059875,0.0964866429567337,-0.530241072177887,-0.6985907554626465,-0.9259631633758545,-0.7109249234199524,0.5694860219955444,0.6781595349311829,0.6119853258132935,1.5618914365768433,1.5127935409545898,-1.963741421699524,-0.7130308747291565,-0.6512021422386169,-0.31258097290992737,0.22847960889339447,0.8333368897438049,1.1334068775177002,0.21832342445850372,1.3165929317474365,-0.657448947429657,-0.16914692521095276,0.10138508677482605,-0.6647083163261414,2.025193214416504,-0.4465697407722473,-0.0606328621506691,1.623865008354187,0.29311326146125793,1.0779309272766113,-0.034494221210479736,1.254961609840393,-0.2593938708305359,1.1472513675689697,1.8609508275985718,-0.49223601818084717,0.6527888178825378,-1.5370981693267822,-2.6074860095977783,-0.37078598141670227,-0.7051977515220642,0.7222742438316345,-0.8921034336090088,0.22194725275039673,-1.2421457767486572,-0.4645964205265045,0.5681317448616028,0.3604743480682373,0.9730744361877441,1.3554611206054688,-0.8304998874664307,1.0678801536560059,0.5448313355445862,1.9054466485977173,2.055370807647705,1.1186996698379517,-0.6619184017181396,1.114123821258545,0.9137440919876099,-0.49701184034347534,0.523964524269104,-0.2654806077480316,1.149075984954834,1.4678674936294556,1.6128966808319092,-0.1333673596382141,-0.5787427425384521,-1.748260736465454,1.1076240539550781,0.9648587703704834,0.08284547179937363,0.5649774670600891,-0.3177127242088318,0.645515501499176,0.6510835289955139,-1.2581260204315186,1.4277064800262451,-2.674079179763794,-1.1445579528808594,-0.017173457890748978,0.2955405116081238,0.6851103901863098,1.407873272895813,-0.8567245602607727,-1.0536866188049316,-0.5116411447525024,-0.09005099534988403,0.20463712513446808,0.33765995502471924,-0.271962970495224,-0.2619019150733948,0.702846884727478,0.20370355248451233,-0.8714888691902161,-0.37797102332115173,0.25443944334983826
slovakia,-1.0103355646133423,0.593571126461029,-0.15250685811042786,0.4756823480129242,2.1244940757751465,0.7817364931106567,-0.12229684740304947,-1.4072182178497314,-0.936336874961853,1.301788330078125,-0.8462321162223816,0.49999168515205383,-0.30917122960090637,1.8347822427749634,-0.3074887692928314,-2.1680009365081787,-0.8535756468772888,-0.8030205965042114,0.9214829206466675,-0.18298780918121338,-0.026296501979231834,0.25544023513793945,0.4930213689804077,0.7903758883476257,0.5562399625778198,-1.9934766292572021,-0.06448642164468765,-0.9864353537559509,0.2108444720506668,1.4733952283859253,0.05272485688328743,-0.3058761954307556,0.02877543866634369,-1.0748929977416992,0.047556765377521515,0.3573596477508545,-1.2752985954284668,-0.7874682545661926,-0.6108732223510742,-0.8039206862449646,0.7206821441650391,0.2031530886888504,0.8484168648719788,0.3201940357685089,0.5343599319458008,1.091985821723938,-0.5830089449882507,0.8286742568016052,0.7488091588020325,-0.033146172761917114,0.4075617492198944,2.060791254043579,-0.4270629286766052,0.5166498422622681,0.5619743466377258,-0.10652198642492294,0.21137206256389618,0.7146836519241333,-0.23184886574745178,0.46513399481773376,0.9620319604873657,-1.996690273284912,-0.8325759768486023,-0.5965458750724792,0.39383241534233093,-0.555673360824585,-0.06252535432577133,-0.19204720854759216,1.1236259937286377,0.7892166972160339,-0.4198765158653259,-0.5677554607391357,0.5157243609428406,0.7783454656600952,-0.7378572225570679,-0.4986633360385895,-0.3773982524871826,1.0512423515319824,-0.3093520700931549,0.8286983370780945,-0.4035709798336029,-0.2733868956565857,-0.8963778018951416,0.09483817219734192,0.43241414427757263,0.06763207167387009,0.2816084325313568,-2.060279369354248,0.07745090872049332,0.19864091277122498,1.0054683685302734,0.9772883057594299,0.40932923555374146,0.23166503012180328,-0.17136968672275543,-1.6594157218933105,0.0020660292357206345,0.5683038830757141,0.3702324628829956,-1.4896554946899414,-0.6123313307762146,-1.156036376953125,1.416652798652649,0.2865680456161499,0.6085658073425293,-0.2486926168203354,-1.4716800451278687,0.5854419469833374,-2.443693161010742,0.07822227478027344,0.022931473329663277,0.8329799771308899,-0.8745676875114441,0.6784581542015076,-0.2793239653110504,-1.1051204204559326,-0.7144441604614258,0.5314691066741943,0.8824876546859741,-0.7354516386985779,0.9966880679130554,-0.28450098633766174,-0.45611894130706787,-0.37139227986335754,0.40805667638778687,0.13830877840518951,-0.7030099630355835,0.7000654935836792,-0.856810450553894,-0.2768990099430084,1.256360411643982,-1.691491961479187,1.1086978912353516,-0.9571458697319031,1.153042197227478,0.19202224910259247,0.03415287658572197,1.5440729856491089,0.2762976884841919,-0.1813584715127945,-0.3419542908668518,-0.9434307813644409,-0.11461719870567322,-2.286888837814331,0.5889157056808472,-1.2315255403518677,-0.834043562412262,-0.3300654888153076,-0.5364958047866821,0.4580334424972534,-0.002097475342452526,-0.2848408818244934,-0.934682309627533,1.2845854759216309,0.3699466288089752,-0.7652796506881714,-0.6555873155593872,0.5868752598762512,-0.37991079688072205,-0.4668657183647156,-0.14940506219863892,0.6201359629631042,-0.04581860452890396,0.3767170011997223,-0.06820228695869446,-2.1020054817199707,-1.585288166999817,-0.3726605176925659,0.21332235634326935,-2.5438601970672607,0.8634912371635437,0.21163345873355865,-0.5167422294616699,0.9756515622138977,0.11380024254322052,1.9485564231872559,0.6292295455932617,1.730098843574524,1.2834304571151733,0.4111856520175934,-1.295621395111084,0.19935210049152374,0.5071764588356018,0.3052242398262024,0.9721450209617615,-0.23839005827903748,-0.08309587836265564,-0.7500620484352112,-0.3824427127838135,-0.9515244960784912,2.0048000812530518,-1.5543168783187866,0.06535755097866058,-0.0385725274682045,0.5749881267547607,0.5585024952888489,-0.7339159250259399,0.7734013795852661,2.0609729290008545,-1.0097163915634155,0.4554838240146637,-0.05929504707455635,-1.7636622190475464,1.397247314453125,-3.45961332321167,0.19963720440864563,-1.804976224899292,-1.7988858222961426,0.7864357829093933,1.1354484558105469,0.20285041630268097,1.1409152746200562,1.4838677644729614,-0.04427029937505722,-0.07895340770483017,0.24140261113643646,-0.30727893114089966,-0.4308849275112152,-0.3664638102054596,-0.26864299178123474,0.4458087086677551,-0.29086893796920776,-0.8135452270507812,0.3058870732784271,-0.6983193159103394,0.2732850909233093,-0.8677813410758972,-0.8213540315628052,0.811062753200531,0.8400770425796509,-0.738766074180603,-0.3500247001647949,-1.8157823085784912,-1.0223947763442993,-1.4956470727920532,1.0207874774932861,-1.8925440311431885,-0.022753864526748657,0.10973723977804184,-2.63244366645813,-1.2855135202407837,-0.06526166945695877,-0.09117104113101959,1.2183336019515991,-0.14513246715068817,-0.48306891322135925,-0.17950361967086792,-0.8216338753700256,1.3422374725341797,1.0320271253585815,0.8863593935966492,0.5668421983718872,-0.12655650079250336,0.5868244171142578,0.259039968252182,-0.8727499842643738
niger,0.2425541877746582,1.0267153978347778,-0.14887157082557678,0.21820712089538574,-0.03048579953610897,0.8330755829811096,0.10750896483659744,-1.0596944093704224,0.09655775129795074,1.120761513710022,-1.4672733545303345,0.22212360799312592,0.21594542264938354,0.018004238605499268,-0.7286978960037231,0.0246692206710577,0.09249347448348999,-0.33411529660224915,1.0065006017684937,1.034300446510315,0.565138578414917,0.8713043928146362,0.14080289006233215,-0.19749081134796143,-0.6072655320167542,-0.3096720278263092,0.9349729418754578,-0.9179224967956543,-1.2640879154205322,1.117775559425354,0.7627078890800476,0.28059694170951843,0.09030582755804062,0.9216923117637634,-0.20313937962055206,-2.1311140060424805,0.3965437114238739,-0.09107416868209839,0.2526305913925171,0.018475834280252457,-0.3373148441314697,0.8099009990692139,0.23636014759540558,-0.9409104585647583,-0.23102732002735138,1.4523978233337402,0.8410950899124146,0.9795623421669006,-0.3651145100593567,-0.6039996147155762,0.7163989543914795,-0.3684876263141632,0.9501559734344482,0.5489904880523682,-0.041159532964229584,-0.27062124013900757,-0.17329731583595276,-0.15892764925956726,-0.5484119057655334,0.6249756813049316,0.6445848345756531,0.5845678448677063,0.20117932558059692,0.182302325963974,-0.5660870671272278,0.5578175783157349,0.42508068680763245,0.05783313885331154,-0.10694094002246857,1.010208010673523,-0.6091763973236084,1.1369296312332153,-0.6245730519294739,1.106876254081726,1.226628065109253,-0.5030100345611572,-1.7005974054336548,-0.5646520853042603,0.4006204307079315,-1.662969946861267,0.5520460605621338,-1.1464303731918335,0.6540955901145935,-0.277121365070343,0.4013424813747406,0.6711253523826599,0.05419670790433884,2.73471736907959,-1.1674591302871704,0.5861030220985413,-0.21531644463539124,-2.4990172386169434,1.0619856119155884,-0.014740603044629097,-0.8811821937561035,-0.3376869857311249,-0.037472695112228394,-0.3244595527648926,0.866500198841095,-0.7011563777923584,-0.5713584423065186,-0.41191431879997253,0.7225890755653381,-1.4143717288970947,-0.5445960760116577,-1.2585030794143677,-0.7244475483894348,-0.5598974823951721,-0.3711167871952057,1.0064913034439087,-1.0670177936553955,-0.5469986796379089,-1.6011505126953125,-0.2723635137081146,-0.017184266820549965,-1.289739727973938,-0.7220376133918762,-0.8344249129295349,1.8010915517807007,-0.033875972032547,-0.5333245396614075,2.5096328258514404,0.6449483036994934,0.8713331818580627,-0.2801506817340851,1.8830416202545166,0.1773826777935028,0.6289569735527039,0.7213099002838135,-0.1618436574935913,1.4515806436538696,-0.6226648688316345,1.9039688110351562,-0.22078187763690948,0.462135374546051,0.6352347731590271,0.09511886537075043,1.0894414186477661,1.502446174621582,-1.6629893779754639,0.6209768056869507,1.867356777191162,0.7342528700828552,2.2002298831939697,0.13395044207572937,-1.7284554243087769,0.8922156691551208,0.4657021760940552,-0.20259422063827515,1.4050904512405396,-0.4859459102153778,0.03193064033985138,-0.9611726403236389,2.0233163833618164,-0.011433551087975502,0.9188570976257324,0.08961683511734009,1.6324543952941895,-0.6957553029060364,0.19014106690883636,0.47176387906074524,1.4183835983276367,0.9659700393676758,-0.4884587824344635,-0.4156360924243927,0.5127285122871399,-1.3987354040145874,0.08564162254333496,0.01622534729540348,-1.0577301979064941,0.613505482673645,1.1999465227127075,0.025319479405879974,-0.21064186096191406,-1.884386658668518,1.058457612991333,-0.42377135157585144,0.10953772813081741,0.649662435054779,0.09994794428348541,0.485503226518631,0.5492355227470398,-0.057040099054574966,-0.16219733655452728,-0.463053435087204,0.665249764919281,-1.0061988830566406,-0.813729465007782,0.17911575734615326,0.9700362086296082,0.939957857131958,-0.4656020402908325,1.0077234506607056,0.351606160402298,0.10557792335748672,-2.3943071365356445,-1.8145055770874023,0.011583831161260605,-0.9773672819137573,0.6097825169563293,-0.8183264136314392,0.7492232322692871,1.4707633256912231,0.1303912103176117,1.6496400833129883,-0.6342001557350159,-0.6785048842430115,0.8787640929222107,-1.6444884538650513,-0.9527934193611145,1.389006495475769,0.6177822947502136,-1.212492823600769,0.8106423616409302,0.08397749066352844,-0.2797503173351288,-0.11131269484758377,1.4082612991333008,-0.5606203675270081,0.27057090401649475,0.8877772092819214,1.9241743087768555,-1.683632493019104,-0.551807165145874,1.2679016590118408,0.4159792363643646,1.4065067768096924,0.2902381122112274,-0.11157512664794922,-0.8106794953346252,0.49522078037261963,0.8754602074623108,0.32926690578460693,-0.8107578754425049,-1.043279767036438,-0.87141352891922,-0.5952845215797424,-0.036663416773080826,-1.4431391954421997,-1.2714828252792358,1.4856034517288208,0.4222811162471771,0.7835829257965088,1.492165446281433,-1.758705735206604,-1.5507850646972656,-0.05254286900162697,-0.6660348176956177,0.9094479084014893,0.8447827100753784,-0.8926257491111755,0.8284521698951721,1.753810167312622,-0.8364134430885315,0.5496848225593567,-0.98551344871521
belize,-1.1292724609375,-0.23399697244167328,-0.11946063488721848,0.314281165599823,-0.20268890261650085,-1.1938660144805908,-2.4134161472320557,-0.5545871257781982,-0.18486842513084412,1.2697606086730957,0.23546704649925232,1.0197607278823853,0.006603210233151913,-0.7527280449867249,0.724189817905426,0.1356123834848404,-0.19972674548625946,0.3998948633670807,0.6921870708465576,-0.08012717217206955,1.0444326400756836,-0.38381174206733704,0.10074600577354431,0.07283569872379303,-0.40744906663894653,-0.8592981100082397,0.1830405592918396,-0.6971209645271301,-1.4901247024536133,1.4742486476898193,-0.24714425206184387,0.7451464533805847,1.0518754720687866,0.1882735788822174,-1.3548130989074707,0.5725236535072327,-0.03437987342476845,-0.7631910443305969,-1.163535237312317,-0.06122832000255585,0.5699325203895569,2.2704949378967285,-0.9395392537117004,3.059011936187744,-0.4492376446723938,-0.0698329284787178,0.6851783394813538,-1.8183954954147339,-1.5534254312515259,-0.3316667377948761,-0.9259437322616577,-0.5852206945419312,1.1137279272079468,-0.9611988067626953,-0.049031417816877365,0.7960227131843567,-0.39818325638771057,2.5862066745758057,0.7886942028999329,0.8790408372879028,1.5326958894729614,1.4669911861419678,-0.47947999835014343,-0.9082372784614563,0.008612832054495811,0.32268092036247253,1.2774544954299927,-0.7277134656906128,-1.0755794048309326,0.4843459725379944,0.5918364524841309,-1.832261323928833,-0.9566429853439331,0.47463637590408325,0.4330122768878937,0.3638574779033661,-1.9855470657348633,0.426778107881546,0.2036474496126175,0.39390552043914795,0.5729560852050781,1.1699317693710327,-0.28960728645324707,0.6579937934875488,0.4155711233615875,-1.2141718864440918,0.23195943236351013,0.5692019462585449,0.22130128741264343,0.8822011947631836,0.30795660614967346,0.44627201557159424,-0.21244995296001434,0.3116309940814972,0.4520599842071533,-0.908056378364563,-0.7342967391014099,-1.2978477478027344,-0.6350775361061096,-0.36436641216278076,0.7548829913139343,-1.3098171949386597,-0.20575609803199768,0.8349802494049072,-0.6182352900505066,-0.7572921514511108,-0.05470366030931473,0.09672089666128159,0.5790510773658752,-0.623495876789093,-0.18382740020751953,0.6984143853187561,-0.9387511014938354,-0.2578358054161072,0.08513810485601425,1.1735106706619263,-0.059824444353580475,0.11685855686664581,-0.35837453603744507,0.047876399010419846,-0.3490540087223053,-0.2756499946117401,-1.7377680540084839,-1.0630055665969849,-1.807607889175415,-0.43606215715408325,1.3589868545532227,1.6426246166229248,0.6741547584533691,2.115938186645508,-0.5711061358451843,-1.4699276685714722,0.5583252310752869,0.08933316916227341,-0.5553248524665833,-0.40986934304237366,-0.20050181448459625,0.9305400848388672,0.7341968417167664,-0.027852527797222137,-0.20345556735992432,-0.7723127603530884,0.5072882175445557,-0.3218979239463806,-1.3446426391601562,-0.7030639052391052,1.3686130046844482,1.1321215629577637,-2.0322725772857666,1.620527982711792,-0.8494219779968262,0.6901280283927917,-0.8264116048812866,-2.154067277908325,0.5547541379928589,-1.2230286598205566,-1.5217132568359375,0.5960820317268372,-0.5417095422744751,-1.1249268054962158,-0.8335274457931519,-1.5978764295578003,-0.9537973999977112,0.20272253453731537,0.9109117984771729,1.1088099479675293,0.1022411584854126,-0.007607150822877884,-0.7029730081558228,1.375282645225525,-0.15238013863563538,-0.7148920297622681,0.6738427877426147,-1.5206120014190674,-0.9670568108558655,-1.2412800788879395,-3.6393566131591797,1.4455262422561646,0.15502038598060608,-1.352135181427002,0.7641230821609497,0.6117978096008301,-1.089739441871643,-0.4596640467643738,-0.21991752088069916,0.2092457115650177,0.47230252623558044,0.3171737492084503,0.19299423694610596,-0.9171050190925598,-1.4844040870666504,1.003827452659607,1.3062796592712402,-0.5215745568275452,0.4468531310558319,-0.2884621024131775,-0.5705040693283081,-1.0504904985427856,-0.9029790163040161,1.2325267791748047,-0.7679269909858704,0.1533481776714325,0.1096813976764679,-0.28349757194519043,3.075812339782715,1.4788000583648682,1.2491254806518555,0.10297732800245285,0.33281394839286804,-0.5826314687728882,-0.5090519189834595,1.4055376052856445,1.3002599477767944,0.6235874891281128,-0.9766636490821838,1.4757037162780762,1.488867163658142,0.003398329485207796,1.099237084388733,-0.40561360120773315,0.6379698514938354,1.9282528162002563,-0.17578135430812836,-0.9574829339981079,-1.2201550006866455,0.4984309673309326,-0.10548093169927597,-0.13804303109645844,-0.9905329346656799,-0.43537065386772156,-0.3655061721801758,0.2222815454006195,0.8576710820198059,0.08599089831113815,0.21968382596969604,2.579192876815796,0.46917110681533813,-0.6729701161384583,-0.6051554679870605,1.339290738105774,-0.14026103913784027,0.14089243113994598,-2.2954394817352295,3.361417770385742,3.174992561340332,-1.8560973405838013,-0.2317204475402832,0.17171776294708252,-0.6324958205223083,0.2766973078250885,-0.09019723534584045,2.3000941276550293,0.31144046783447266,0.47165223956108093,1.0972790718078613,0.7475917339324951
morocco,0.6103368997573853,-0.9730727076530457,-0.4894344210624695,-0.18522529304027557,0.17229335010051727,-0.6656802296638489,0.7366349697113037,-0.6550828218460083,-0.698918879032135,-0.31832078099250793,-1.0223419666290283,0.3014821410179138,-0.1990334689617157,-0.4273654520511627,0.42639896273612976,-0.03223273903131485,-0.2348547726869583,-1.7263543605804443,0.14019230008125305,1.9981260299682617,1.596151351928711,-1.7332724332809448,0.1502949744462967,-1.0839852094650269,0.08192242681980133,-0.22414830327033997,0.2979211211204529,0.26984935998916626,-0.22930759191513062,-0.10366425663232803,-1.513736367225647,-0.20528186857700348,1.112879991531372,-0.58424311876297,-0.41601476073265076,0.9670141935348511,1.2494091987609863,-1.3636471033096313,-0.17610964179039001,0.8685729503631592,0.4358515739440918,0.5316011309623718,-0.2456386238336563,1.3499599695205688,0.36070242524147034,-0.29558974504470825,0.10452979058027267,-0.05999114364385605,0.35730260610580444,-0.6043114066123962,0.1129632368683815,-0.05665542185306549,0.6604785919189453,-2.2431623935699463,1.0422042608261108,0.8078150153160095,0.20794092118740082,-0.7556444406509399,-0.5226174592971802,-0.09812550991773605,-0.28027382493019104,-1.2074263095855713,0.2487039417028427,0.7576993107795715,0.6259341835975647,-1.7421419620513916,-0.9965119361877441,-1.2459672689437866,-0.3607272207736969,0.1217285618185997,1.338018536567688,-0.8165518045425415,-0.18463163077831268,0.915502667427063,0.9412486553192139,0.2533668577671051,-0.20936985313892365,-0.1792544722557068,1.1722393035888672,-0.2584547996520996,0.11463811993598938,-1.4719319343566895,-1.7803760766983032,1.4233609437942505,1.0545976161956787,1.4496057033538818,0.26848408579826355,-0.938592255115509,0.8674545884132385,-0.509894073009491,-0.1624831110239029,-0.2622666656970978,1.793797254562378,-0.16802752017974854,0.21270591020584106,-0.4139237105846405,0.8652968406677246,-0.7498928308486938,0.6659590601921082,1.0208348035812378,0.6663124561309814,0.7316319346427917,0.07274338603019714,-1.0049961805343628,1.4036625623703003,-1.637256383895874,-1.5943200588226318,-0.4072798788547516,-0.26714038848876953,-0.3503958284854889,0.34754514694213867,0.34609454870224,-1.9408138990402222,-0.9809109568595886,0.09442528337240219,0.02056247927248478,0.04437379166483879,1.4830244779586792,2.1025309562683105,-0.8943272233009338,-1.2741672992706299,0.8771359920501709,0.5300666689872742,1.4876922369003296,-0.2247525155544281,0.8476283550262451,1.3884800672531128,-0.11746148765087128,0.2103150188922882,-0.2765346169471741,1.3649027347564697,0.4843083918094635,-0.6973543763160706,0.5601716637611389,0.5964009165763855,-0.9413061141967773,0.04339001700282097,-0.4101773202419281,-0.6581213474273682,0.4054265320301056,2.0641632080078125,0.12151829898357391,0.8514862060546875,-1.0008972883224487,-0.11213961988687515,0.6367678642272949,-0.7482192516326904,-0.05451170355081558,1.4099980592727661,1.2183945178985596,-0.5243474841117859,0.10553836822509766,-0.4241459369659424,-0.09640361368656158,0.418428897857666,0.33855435252189636,0.4377138316631317,0.18496164679527283,-0.8488489985466003,-0.9418362379074097,-1.0110657215118408,0.026476098224520683,-1.167914628982544,1.4922759532928467,1.0208871364593506,-0.07964835315942764,-1.8336682319641113,-0.8892102837562561,0.42786750197410583,1.9433236122131348,-0.0016601700335741043,-1.2498008012771606,-1.9804391860961914,0.9372883439064026,1.1012070178985596,-2.035362482070923,0.5836985111236572,2.783961772918701,0.5536785125732422,-1.0078258514404297,1.115068793296814,-0.16188736259937286,0.2133820354938507,0.03425164893269539,1.5542932748794556,1.3470922708511353,-1.405172348022461,-1.1484438180923462,0.4814720153808594,-0.25449138879776,-0.5312209129333496,-0.9241974949836731,0.2916943430900574,0.01345060020685196,-0.8355280756950378,-0.04857111722230911,-0.7023075222969055,0.37605008482933044,0.9935497045516968,1.295622706413269,-2.7171590328216553,0.5407156348228455,1.4297467470169067,0.15278670191764832,0.6928115487098694,0.377876877784729,-0.4524593949317932,-1.7273542881011963,-2.3272318840026855,0.011691284365952015,-0.859374463558197,0.5203925967216492,-0.10159818083047867,0.8532139658927917,0.2835942506790161,0.14237922430038452,-0.6231797337532043,0.9516671895980835,-2.2323989868164062,0.5416771173477173,1.0924607515335083,1.0839483737945557,-0.7359268665313721,-0.3692030906677246,-0.6201345920562744,-0.5083106160163879,1.297763705253601,-1.0677388906478882,-1.4868866205215454,-0.7826933860778809,-0.7204210162162781,0.3521479666233063,0.0020749978721141815,-0.20462103188037872,-2.1347427368164062,-0.7857271432876587,-1.342763066291809,-0.31394124031066895,1.726635456085205,1.7739968299865723,1.474597692489624,0.473296195268631,0.803597092628479,-0.027396081015467644,0.14852358400821686,0.802096426486969,0.10568705946207047,0.11546462029218674,-2.944108247756958,-0.7873374819755554,2.0780692100524902,1.880654215812683,0.8920353651046753,0.8728084564208984,-0.5673535466194153,1.0681239366531372
falkland_islands,-0.9023261666297913,-0.9441694617271423,0.3360040783882141,-0.7063226699829102,1.2786452770233154,-0.9223940372467041,-1.656245470046997,1.5212873220443726,-0.16037693619728088,-0.2339918166399002,-0.8866252899169922,-0.19646327197551727,-1.09378981590271,0.2246243953704834,0.24110035598278046,-0.3627115488052368,-0.028748147189617157,-0.09282843768596649,-0.23311077058315277,0.12412693351507187,-0.6457688212394714,0.7280383706092834,-0.5872598886489868,1.0734120607376099,0.09132329374551773,-1.3971236944198608,2.151885509490967,-1.0573229789733887,0.7197893261909485,-0.7088881731033325,0.8933746218681335,0.4466383159160614,0.4914058446884155,-1.3825676441192627,-0.7904180288314819,0.8957546353340149,-0.6022597551345825,0.990361213684082,0.8374415636062622,-0.0021287044510245323,0.8591800332069397,-0.05934901162981987,-0.043952926993370056,-0.4716426432132721,1.0765706300735474,-0.8669271469116211,0.6255366206169128,0.36324790120124817,-0.2964044511318207,-0.5335884690284729,0.7996079325675964,-0.8346768021583557,-0.25104838609695435,1.4513813257217407,0.757169246673584,-1.1136430501937866,-0.6353976130485535,0.1585254818201065,0.04735109210014343,-0.31915876269340515,0.10388483107089996,-0.5374849438667297,0.01872428134083748,1.2544255256652832,0.04992913827300072,-0.6749837398529053,0.48040810227394104,-1.276917815208435,0.8266276717185974,0.842290461063385,-0.927182137966156,-0.5107448101043701,0.41226235032081604,0.6988500356674194,0.18578168749809265,0.737511932849884,0.281497597694397,-0.5009238719940186,-0.9078959822654724,-0.15997402369976044,0.9862416982650757,-1.1541719436645508,-0.08901017159223557,-0.5328856110572815,1.2075172662734985,-0.6978981494903564,1.5382477045059204,1.4369125366210938,-0.02061651088297367,1.0449222326278687,0.45990189909935,1.547431230545044,2.079836845397949,0.04898937791585922,0.06655813008546829,0.11628035455942154,-1.7520337104797363,0.4615647792816162,0.19507303833961487,1.2833404541015625,1.2455719709396362,-0.10660310834646225,-0.46718764305114746,0.29021385312080383,0.07833351194858551,0.7328354120254517,0.9205766320228577,-0.8028786778450012,-0.664768397808075,0.7419278025627136,0.3017346262931824,1.2791588306427002,-1.1236740350723267,-0.14650550484657288,-0.37213486433029175,0.27090874314308167,-0.05849909037351608,0.06823530048131943,0.7261070013046265,-0.444703072309494,0.11704431474208832,2.196643829345703,0.05576828867197037,1.2670842409133911,0.2830953001976013,0.852765679359436,0.17979468405246735,0.9393383860588074,-0.386461079120636,-0.7001296281814575,0.19790446758270264,1.439501166343689,-0.11024384200572968,-0.24438588321208954,-0.11737791448831558,-0.7153630256652832,-0.304075688123703,-1.577359676361084,-1.7586925029754639,1.1241109371185303,-0.36936402320861816,-0.08157467842102051,-0.060577139258384705,-0.9141736030578613,0.6535957455635071,-1.1716597080230713,1.437691569328308,-2.078317880630493,1.0527465343475342,0.4308106005191803,-0.298920214176178,0.2042011171579361,-1.4971367120742798,-0.5529235005378723,-0.11851906031370163,0.331645667552948,-0.33201658725738525,2.5881288051605225,-1.6677619218826294,0.7924503684043884,0.8651278614997864,-0.4446093440055847,-1.4410752058029175,-0.18324139714241028,0.3218722343444824,-1.817644476890564,-0.33518919348716736,-1.2401825189590454,2.1497411727905273,0.7975051403045654,0.2825540006160736,-0.3697952330112457,-0.3771370053291321,0.4910801947116852,0.34117501974105835,0.06322480738162994,1.2059919834136963,0.23842477798461914,-1.1155190467834473,-0.4980087876319885,-0.6725348234176636,0.5226666331291199,-0.9069842100143433,-2.4429264068603516,0.7675173878669739,0.699291467666626,0.33087357878685,-0.30447715520858765,0.5486225485801697,1.2881195545196533,1.334458589553833,0.3072895407676697,-0.1920071244239807,0.9622411131858826,1.7957288026809692,0.7588503360748291,-0.9611313939094543,-0.10438774526119232,-0.24397246539592743,0.7923334240913391,1.8284554481506348,-0.6719173789024353,-0.8444386720657349,0.30928200483322144,-0.0439203679561615,0.08475510030984879,-0.06089054420590401,0.8431188464164734,-1.1140669584274292,1.2299679517745972,-1.3721116781234741,-0.6143064498901367,-0.2511746883392334,-0.8144387006759644,-0.7542352676391602,0.3711484670639038,0.0952487513422966,0.7572664618492126,-0.20261868834495544,1.8344696760177612,1.2879136800765991,1.919317364692688,1.060335397720337,0.43463370203971863,0.3763501048088074,0.4902607798576355,1.2426875829696655,-2.3880810737609863,1.5837749242782593,1.0955365896224976,-1.1653013229370117,-0.8155493140220642,0.7112590670585632,-1.240821123123169,-0.4946310520172119,1.0305309295654297,-0.944991409778595,-0.5830342173576355,0.47021666169166565,0.8840196132659912,1.3090105056762695,-0.4250081181526184,0.08544792234897614,-1.3726389408111572,-0.3075850307941437,0.4766748249530792,-1.4573949575424194,-1.064925193786621,-0.7238674759864807,1.2821897268295288,-0.24847061932086945,-0.010159130208194256,1.168005347251892,1.7357072830200195,0.19709360599517822,-1.341619849205017
saint_vincent_and_the_grenadines,0.43192821741104126,0.3331649899482727,1.3680684566497803,0.8394216299057007,0.47744500637054443,0.23558157682418823,0.8118128776550293,0.4949180483818054,0.5904525518417358,-0.8888713121414185,0.5116090774536133,0.9253779053688049,-1.1095675230026245,-1.0900031328201294,0.3773539662361145,-0.3658747375011444,0.1985352635383606,-1.0378326177597046,-0.040239401161670685,0.44076284766197205,1.1486868858337402,-1.707455039024353,-1.4950687885284424,-0.22421497106552124,0.5892921686172485,-0.051806095987558365,-0.2505987286567688,-1.3444242477416992,0.29736968874931335,0.8554436564445496,-0.3710823953151703,0.5839627385139465,-1.8153733015060425,-0.5084016919136047,0.06504300981760025,0.17015288770198822,0.36962100863456726,-0.32512199878692627,-1.6310787200927734,1.9313937425613403,-0.1598941683769226,0.4041471779346466,-0.3652033507823944,-0.8132136464118958,-0.7619501948356628,-0.013994969427585602,-0.08494101464748383,1.7135339975357056,-0.7705548405647278,-2.2716219425201416,-0.13753308355808258,-0.042958393692970276,1.1869750022888184,-2.0775368213653564,1.9600797891616821,0.29924672842025757,-0.3910509943962097,-1.1421476602554321,0.8780785799026489,0.4594387114048004,-0.6844119429588318,-0.5046941637992859,-0.6849871277809143,0.748965859413147,0.0968889519572258,-0.8609572649002075,0.42774584889411926,0.6412196159362793,-1.3954764604568481,0.7136330604553223,1.251428246498108,-1.9798468351364136,0.8729206919670105,0.4418298304080963,0.288113534450531,1.7028050422668457,0.6346175670623779,0.917191743850708,-1.5674848556518555,-1.1320443153381348,0.2787160575389862,-0.3540327847003937,0.10186757147312164,0.1680874526500702,-0.6546133756637573,-0.36437904834747314,0.06465219706296921,0.7650948166847229,1.2840174436569214,1.5822950601577759,-0.8195776343345642,-0.25797390937805176,-0.5247862935066223,-0.8087935447692871,-1.2281612157821655,0.9720836877822876,-0.34466591477394104,0.6120366454124451,-0.11014900356531143,-1.0368008613586426,-0.19026488065719604,-1.5406079292297363,-0.15165546536445618,-2.1596295833587646,1.0047566890716553,-0.9454578161239624,0.06657193601131439,0.6654486656188965,0.8777450323104858,0.7546288967132568,-0.10838408768177032,-1.1967273950576782,-0.2955153286457062,0.564165472984314,0.412349671125412,-1.4283734560012817,1.9319614171981812,-0.11963026225566864,1.3679754734039307,-1.1726552248001099,-1.3633289337158203,0.7971386313438416,0.023418623954057693,-0.07021649181842804,0.9198493361473083,-0.955420732498169,-0.6022443175315857,0.578252911567688,0.6847749352455139,-1.0289556980133057,-0.8999179601669312,-0.06473218649625778,0.4973578453063965,0.8841292858123779,-0.4492851793766022,-1.3629876375198364,0.9119086861610413,0.5650076866149902,0.37132030725479126,1.2954837083816528,-1.5881834030151367,-1.499503254890442,0.5840943455696106,0.7806485295295715,0.3860548138618469,-0.4030734598636627,0.18756824731826782,-1.72479248046875,0.028770949691534042,1.2236027717590332,-0.2648769021034241,-0.41400426626205444,-0.9174123406410217,1.21261465549469,1.7615888118743896,-2.2147164344787598,0.4708225727081299,0.7195404171943665,0.9374403357505798,0.11657905578613281,0.8485524654388428,-0.24236518144607544,0.48386135697364807,-1.324985146522522,-0.6800884008407593,-0.22386358678340912,-2.43052077293396,-1.0284979343414307,1.2795600891113281,-0.764194130897522,0.23430290818214417,0.8994938135147095,-0.2311878502368927,-0.7845994234085083,-1.1896049976348877,-0.5841519832611084,0.9250571131706238,-0.19351887702941895,0.25727808475494385,0.5415236949920654,-2.0018362998962402,-0.5910075306892395,-1.3750535249710083,-0.5641584396362305,-1.274465799331665,-1.7583483457565308,-0.38272327184677124,0.009391259402036667,-1.2067487239837646,-0.6647916436195374,1.0276705026626587,2.4844226837158203,-0.8893648982048035,0.7348381280899048,0.4675290882587433,2.2355310916900635,-0.8466217517852783,0.7724878787994385,1.7558624744415283,1.0974005460739136,-0.9053789973258972,-0.27677440643310547,-0.5152767300605774,1.0043025016784668,-0.050280213356018066,-0.10266023874282837,0.3840470612049103,-0.25372129678726196,0.16403353214263916,-0.765333890914917,-0.5551319122314453,1.986426591873169,1.4914711713790894,-1.2387895584106445,0.2864900231361389,0.21988847851753235,-0.27822184562683105,-1.350131630897522,-1.1699111461639404,1.4966388940811157,1.177725911140442,-0.8148440718650818,0.43160948157310486,-0.6125543713569641,-1.7701544761657715,0.36663439869880676,0.2035185992717743,-0.744554340839386,-0.9488168358802795,0.1328696310520172,-0.4566430449485779,-1.4331563711166382,-1.4672948122024536,-0.9716721177101135,-0.06716163456439972,-3.1098923683166504,-0.011006021872162819,-0.4474082887172699,0.8115750551223755,0.39281049370765686,1.620195746421814,0.4086288809776306,-0.2624257802963257,-1.04734468460083,-0.08559054136276245,-1.1967294216156006,-0.3814410865306854,1.209423303604126,-1.5011457204818726,0.8447854518890381,1.4397823810577393,-0.4768383800983429,-1.193947672843933,0.7354140877723694,0.6675059795379639,-1.5792312622070312
brunei,0.17491775751113892,-1.0672144889831543,0.06730395555496216,0.5358104705810547,1.0555181503295898,0.04730942100286484,-1.2607746124267578,-0.3254829943180084,-0.33209651708602905,-1.8665668964385986,0.8487054109573364,-1.2356587648391724,0.8341673016548157,-1.0636661052703857,0.9485995769500732,-0.6528545618057251,-0.2775685489177704,-0.1279732882976532,1.2198224067687988,-0.5582035779953003,0.002434082329273224,0.050752513110637665,0.6371610164642334,-0.02627161704003811,0.7996003031730652,-1.355268955230713,0.06376010924577713,-1.4148234128952026,1.7384990453720093,0.17333634197711945,1.9638084173202515,-0.16100548207759857,-0.5381379723548889,0.8904662728309631,0.31410935521125793,-1.144391655921936,-0.8674502372741699,0.1833401769399643,-0.6803354024887085,-0.19724620878696442,0.6325605511665344,-0.18924584984779358,-0.2222592681646347,0.6511943936347961,-2.162433624267578,-0.35278382897377014,1.1087076663970947,1.1268384456634521,0.7232768535614014,-0.200025275349617,1.2616775035858154,0.007884723134338856,0.6098004579544067,0.7770063281059265,0.6044037342071533,-0.11049723625183105,0.6964909434318542,-0.4871474504470825,-0.45697450637817383,0.8946753144264221,-0.6553252339363098,-1.9342458248138428,-0.1054968610405922,-0.38764113187789917,-1.054694414138794,-0.6563658118247986,-1.5648874044418335,0.10241104662418365,0.5973377823829651,0.44585859775543213,-0.10449844598770142,-0.13720807433128357,-0.6567437648773193,-0.045157309621572495,-0.13545607030391693,0.9682344198226929,-0.3649984300136566,1.5819697380065918,0.010350064374506474,0.3068593740463257,-0.04932820424437523,0.44717928767204285,-0.5841134190559387,-1.4880176782608032,0.5762064456939697,-1.0960839986801147,2.044774293899536,-0.11018406599760056,0.17024974524974823,-1.098743200302124,0.5086396932601929,0.2084258496761322,2.419818878173828,-0.27736514806747437,0.4835859537124634,0.25279000401496887,0.13976849615573883,-0.4012180268764496,0.9240838289260864,0.18617519736289978,-0.5559508204460144,0.06669831275939941,0.10316834598779678,1.0711586475372314,0.12733204662799835,0.5757997035980225,0.17433664202690125,0.18420851230621338,-0.6286574602127075,-1.4944734573364258,-1.505248785018921,-0.6933165192604065,0.042084500193595886,-0.0029636286199092865,0.024124300107359886,0.2974691092967987,0.052169691771268845,1.233473300933838,0.283430814743042,-1.1930270195007324,-0.6311345100402832,-1.1074140071868896,-0.1348419338464737,-1.573691487312317,0.383378803730011,0.021384837105870247,-0.17800486087799072,-0.5820087194442749,0.115831658244133,0.12427154183387756,1.2108937501907349,-0.4398733377456665,0.04322000592947006,-0.12434655427932739,-0.0006577735766768456,0.5486329197883606,0.47869622707366943,0.6210106015205383,0.3551469147205353,0.04166845977306366,0.6853646636009216,-0.7513024210929871,0.1832617223262787,-1.7247837781906128,-0.9449692368507385,-1.03850257396698,-0.5898436903953552,0.19845008850097656,0.18853645026683807,-0.5191139578819275,0.514648973941803,-1.9971085786819458,1.6888755559921265,-0.08910368382930756,-0.3579421937465668,-0.12836851179599762,0.014506645500659943,1.1433985233306885,0.05344980210065842,-0.2158380150794983,-0.02543461322784424,0.8467490673065186,0.7368855476379395,0.21414874494075775,0.3566722273826599,-1.2327321767807007,-1.6410857439041138,0.7765268683433533,0.18701419234275818,-0.8929155468940735,0.6432598233222961,0.6891889572143555,-0.9492615461349487,-0.9602020978927612,-1.899497389793396,-3.4324734210968018,0.22752165794372559,1.1051331758499146,-1.1705708503723145,-0.8509390950202942,1.1998978853225708,-2.23730731010437,-0.5062496662139893,0.3173994719982147,-2.122119665145874,-1.1188766956329346,0.2550284266471863,1.032502293586731,-0.2914923131465912,-0.11741761118173599,-1.2198313474655151,0.9848538637161255,0.2959417700767517,0.2907944619655609,0.48236048221588135,2.465012788772583,-3.3686978816986084,-0.7037092447280884,0.19466045498847961,0.38816437125205994,-0.8063056468963623,-0.17256329953670502,1.7412910461425781,-1.4852782487869263,0.7382559180259705,-2.306349992752075,0.9787501096725464,1.9046096801757812,0.7014255523681641,-1.3317241668701172,1.455735206604004,1.9043444395065308,-0.4832649827003479,3.2922072410583496,-0.25710874795913696,-0.42509329319000244,1.2494053840637207,-0.2840748727321625,-0.7940312027931213,1.2240328788757324,-0.4132557809352875,1.0867122411727905,0.1657610833644867,1.5391591787338257,-0.9576597213745117,0.5197364687919617,0.5571550726890564,-0.346626341342926,0.08582833409309387,-0.8356643319129944,-0.9775312542915344,1.7855045795440674,-0.6999290585517883,0.19918514788150787,1.0784995555877686,-0.0030667847022414207,1.5833591222763062,-0.6338136792182922,-0.07837642729282379,-0.612067699432373,1.322015404701233,0.03753829747438431,2.2769813537597656,-0.5157141089439392,-0.10787227004766464,1.712947964668274,2.399237871170044,0.0651257112622261,0.32147321105003357,0.8458808660507202,0.6905185580253601,0.8277905583381653,-0.605275571346283,0.8408825397491455,0.28264087438583374,0.44103366136550903
iran,-0.004015020094811916,-0.30647724866867065,-1.6806014776229858,-1.4449074268341064,0.9012326598167419,0.10922247171401978,1.614696741104126,0.5990949273109436,-0.5571562051773071,-1.5588151216506958,-1.703364372253418,-2.6319336891174316,0.016884073615074158,0.039451487362384796,2.3857481479644775,-0.20985515415668488,0.3513447940349579,1.3741600513458252,1.6665937900543213,1.6025828123092651,0.04877817630767822,0.019442066550254822,-1.4469929933547974,-1.090192198753357,0.1794164925813675,-0.7976639270782471,1.5597383975982666,-1.1729391813278198,-0.10545506328344345,0.004260050132870674,0.9274836778640747,-0.1080380380153656,-0.01723778434097767,0.8655501008033752,0.3462122082710266,0.8240461945533752,-0.05889216065406799,-1.5278910398483276,-0.11993016302585602,-0.7526040077209473,-0.6037262678146362,1.0371670722961426,0.7485897541046143,1.3834792375564575,0.5321460366249084,-1.9032752513885498,1.5556925535202026,1.041516661643982,0.7590267062187195,-0.962162435054779,-0.7175024151802063,-0.06045099347829819,0.18533816933631897,-1.288041114807129,-1.5330510139465332,1.6331617832183838,1.7048159837722778,0.20052020251750946,-0.7165824770927429,1.21933114528656,-0.5522227883338928,0.2710852324962616,-0.5639212131500244,0.8318813443183899,-1.6317194700241089,-0.24315916001796722,0.4978373348712921,0.004650969989597797,-1.421028971672058,-0.8589533567428589,-0.5256428122520447,-0.4736228287220001,-0.22687892615795135,-0.2774099111557007,-0.603766143321991,0.007344956509768963,0.8145968914031982,0.6773611903190613,-1.1029655933380127,0.1466229110956192,-0.4219605326652527,0.13579680025577545,-0.20091213285923004,0.19901706278324127,-1.0125857591629028,-0.5981941819190979,-0.5784094333648682,-0.05528862401843071,0.15696123242378235,-0.23033897578716278,-0.34111034870147705,0.571054220199585,0.32426080107688904,-0.9295865297317505,-0.6325007081031799,1.0245976448059082,0.25296586751937866,-1.709580659866333,0.9169325828552246,0.6294719576835632,1.2609325647354126,1.2514756917953491,1.3594574928283691,0.4962570369243622,0.15358500182628632,-0.5170067548751831,0.09827064722776413,-2.0908195972442627,-0.7791261672973633,-0.3953676223754883,-0.9444236755371094,0.7243075966835022,0.644847571849823,0.8571991920471191,-0.41805171966552734,-0.4884231984615326,-0.12475793063640594,0.15565863251686096,-0.4430811107158661,-2.559077262878418,0.15283462405204773,-0.025038594380021095,-0.6266593933105469,-0.3804643750190735,0.5888839364051819,2.067127227783203,-0.9932308197021484,-0.1661551296710968,-0.7543691396713257,1.1163697242736816,-0.5590792298316956,-0.8733262419700623,-0.007695767097175121,-0.8955827951431274,-0.7885897159576416,-1.6572999954223633,0.34612900018692017,1.3501209020614624,0.3994247615337372,1.5400445461273193,0.5377638936042786,0.1840692013502121,-1.0371015071868896,0.9038689732551575,-0.463977575302124,0.5472590327262878,0.3056566119194031,-0.17430852353572845,1.206143856048584,0.5369667410850525,1.6951605081558228,1.10274076461792,0.49578967690467834,0.41474783420562744,-0.7121737003326416,-0.2747043967247009,-0.9814751744270325,1.839518427848816,0.7350494861602783,0.9604241251945496,-1.6070643663406372,2.2687478065490723,0.9020357131958008,1.5012034177780151,0.767452597618103,-0.7938600778579712,-2.071232318878174,-0.7138262987136841,-0.7419934272766113,-0.9012255668640137,1.4287986755371094,-0.31349998712539673,1.7294117212295532,1.1308741569519043,-0.04543229937553406,-0.1224605143070221,-0.1544192135334015,1.0009855031967163,-0.2726910412311554,0.40455785393714905,0.671515166759491,0.30568331480026245,2.6700079441070557,-0.18903231620788574,1.1397219896316528,0.28788068890571594,1.3070625066757202,-0.9152470231056213,-1.3276578187942505,-0.24138852953910828,1.5486972332000732,0.5565638542175293,1.0248072147369385,1.1522668600082397,0.1205204427242279,0.2613133192062378,0.10438710451126099,-0.23465026915073395,-2.9520626068115234,-0.3946091830730438,0.5862418413162231,1.9303253889083862,-0.7527822256088257,-0.6246415376663208,-1.150947093963623,-0.0304454006254673,2.2674927711486816,-0.6934000253677368,-0.7270574569702148,1.046308159828186,-0.8983755111694336,-0.9548002481460571,0.6872056722640991,-0.36607930064201355,-0.7904602289199829,0.4567950367927551,-0.24627581238746643,0.10795030742883682,-1.401106357574463,-0.2883734405040741,0.6662890315055847,1.2572252750396729,-0.03509591892361641,1.2234787940979004,-1.3029873371124268,-1.654741883277893,-0.9489902853965759,-1.0932914018630981,0.5118204951286316,-1.7348796129226685,0.28857383131980896,-0.4584807753562927,-0.27153679728507996,-0.6188269853591919,1.3058472871780396,0.5715367197990417,0.2574634253978729,-3.272367238998413,0.8201687335968018,-0.25647759437561035,-1.604296326637268,-0.6272608637809753,-0.7845041751861572,1.3261417150497437,-0.19150219857692719,-1.1248929500579834,1.2584494352340698,1.009618878364563,1.255501389503479,-0.23016110062599182,-0.9659280180931091,1.0108717679977417,-1.2147966623306274,1.3734339475631714,-0.6507933139801025,0.09322582930326462
indonesia,0.7129969596862793,-0.8186728358268738,0.2660411596298218,0.0481417253613472,0.5081126093864441,-0.10288665443658829,-0.15532511472702026,1.8798283338546753,0.19718115031719208,1.2469134330749512,-1.636511206626892,-0.8787029385566711,0.5574725866317749,-0.06065016984939575,0.024151643738150597,-0.4318335950374603,-0.5445671677589417,1.2337912321090698,0.7838809490203857,1.3154017925262451,-0.8328772187232971,-0.3891461193561554,-0.44767341017723083,0.3763311207294464,-0.5884771347045898,-1.466772198677063,0.4529624283313751,1.5169190168380737,0.03584229201078415,0.45764902234077454,0.8366031050682068,-0.13722704350948334,0.568231999874115,0.5566256046295166,-0.9908634424209595,0.7479056715965271,0.1852409690618515,-0.23198485374450684,-0.4104347825050354,0.9471756815910339,-1.1135503053665161,0.1172318235039711,-0.5107910633087158,-0.584320068359375,-0.33883729577064514,1.1997507810592651,-0.029513312503695488,0.5741651654243469,0.22704753279685974,-0.4238404929637909,0.11011501401662827,-0.5018975138664246,-0.8957143425941467,0.3327927589416504,-0.5596029162406921,-0.10288786143064499,1.224198818206787,-1.920792818069458,-2.0472867488861084,1.2040369510650635,0.9140848517417908,0.5447462797164917,-0.4459211528301239,-0.8422497510910034,-2.2298524379730225,0.4668249189853668,0.09992298483848572,-0.010069121606647968,0.5206654071807861,0.9397547245025635,-0.7411289811134338,-1.045921802520752,0.7255135178565979,0.11547583341598511,-0.04201546683907509,1.3184640407562256,2.1602466106414795,1.1215741634368896,0.699314534664154,-0.14245472848415375,1.0233709812164307,-0.12691767513751984,-0.30209288001060486,0.011845115572214127,-0.4383391737937927,-0.4708024561405182,1.4254485368728638,-0.1104266345500946,1.528836965560913,0.07220988720655441,-1.6872743368148804,0.4562493860721588,-0.7561948299407959,0.5558111667633057,0.30352476239204407,0.08034230023622513,-0.7292652130126953,1.0399984121322632,1.3121368885040283,-1.496088981628418,0.18152934312820435,-0.036065686494112015,0.39156991243362427,-0.8445920348167419,-0.5483261942863464,0.9080394506454468,-0.7547448873519897,0.5309749841690063,1.4620167016983032,-0.23043972253799438,-0.3930475413799286,-0.585970401763916,0.4659862816333771,0.17890200018882751,-0.04411529749631882,-0.21363648772239685,-1.2284022569656372,0.5832610726356506,-0.13109587132930756,-1.288278579711914,0.18988871574401855,0.9854220151901245,-0.6244650483131409,1.5700514316558838,-0.7638874053955078,-0.8653049468994141,0.050739649683237076,1.04001784324646,1.8688218593597412,1.4984068870544434,0.8874900937080383,-0.8516748547554016,0.004115625284612179,0.4386082589626312,-0.1446530818939209,0.3611014783382416,1.6114282608032227,-0.30590200424194336,1.3291387557983398,-0.7221665382385254,0.07780400663614273,-1.173424482345581,-0.3614310920238495,0.2944631576538086,-0.2484443485736847,-0.039707910269498825,0.28931599855422974,0.5414794087409973,-0.14362047612667084,0.3661080598831177,-0.8732584118843079,-1.8945331573486328,-1.8356385231018066,0.4092051684856415,0.975947380065918,-0.09651447087526321,0.07651427388191223,1.5903325080871582,-0.502519965171814,-1.846846580505371,-0.44899094104766846,-0.5598767399787903,-0.2944909632205963,0.6535935401916504,0.6797531247138977,1.4507019519805908,-0.2434992641210556,-0.020423881709575653,-1.9781556129455566,1.3665279150009155,0.6141018271446228,1.0311942100524902,0.6089617609977722,1.2520146369934082,-0.12853148579597473,0.288558691740036,-1.040196180343628,2.164487600326538,-0.30036526918411255,1.6879408359527588,-0.07813267409801483,-0.9958038330078125,0.28563353419303894,0.08967732638120651,-0.30459359288215637,-0.7684051394462585,1.005969524383545,-0.4053024649620056,-0.17601512372493744,1.3281457424163818,-0.7995877265930176,-0.014936947263777256,2.0011656284332275,-0.014827318489551544,0.20498621463775635,-0.05372242256999016,0.524300754070282,-0.7676601409912109,-1.3645896911621094,-0.04883106052875519,0.6774974465370178,1.4441096782684326,-0.00040388572961091995,-0.6368069052696228,0.6566393971443176,0.3127823770046234,-0.8199406266212463,-0.7601101994514465,0.2826065719127655,-1.79632568359375,-0.38981860876083374,-0.6863589882850647,-1.2520207166671753,-0.9722340703010559,1.2299985885620117,1.073837161064148,0.5021060705184937,1.4453181028366089,0.39258918166160583,0.4514367878437042,0.3209567070007324,0.016128020361065865,1.4672939777374268,1.088942289352417,-0.39844751358032227,-0.8896470665931702,-1.4063928127288818,-0.1894025057554245,0.19648884236812592,-0.19607119262218475,-2.1821675300598145,0.3699638843536377,0.3124748170375824,0.878217339515686,0.31824201345443726,0.6072620153427124,-0.7329495549201965,0.7605360150337219,-0.31620821356773376,0.006650530733168125,-2.742774486541748,-0.1303250640630722,-1.2835198640823364,1.9191699028015137,-0.35952430963516235,0.4934603273868561,-1.9518548250198364,-0.6420825719833374,1.2374482154846191,-0.3425777554512024,-0.4703473746776581,-1.7096494436264038,1.901074767112732,0.5680145621299744,-0.1183832660317421,-0.9521122574806213
senegal,-0.769936740398407,-0.7095465064048767,0.19093327224254608,0.2830008268356323,0.17180709540843964,-0.0836862102150917,0.41097140312194824,0.860436737537384,-1.434145212173462,0.061068095266819,-0.7344753742218018,-0.21025724709033966,0.6394391059875488,-0.0112216891720891,-0.3629419803619385,0.17968983948230743,0.950257420539856,1.9907962083816528,0.2742094397544861,-2.110377073287964,0.7015502452850342,-1.0395299196243286,1.9867902994155884,0.023917753249406815,-0.6500408053398132,0.32942306995391846,-0.24829955399036407,0.022999390959739685,-0.4804128110408783,0.3866632282733917,0.39911773800849915,0.22763220965862274,-1.5967544317245483,-0.534211277961731,-0.23559695482254028,-0.5411756038665771,-0.11490342020988464,-1.047527551651001,-1.1219404935836792,0.3961145579814911,0.27250486612319946,0.35655447840690613,-0.5493373870849609,-0.7596584558486938,-0.8742294907569885,0.433140367269516,0.3083896338939667,-0.4694279134273529,0.35179898142814636,0.21346454322338104,-1.1917340755462646,-2.2972521781921387,-0.6205101013183594,-1.4424235820770264,0.639454185962677,-0.6004902124404907,-0.8119774460792542,0.05690842121839523,0.6777458190917969,0.2605883479118347,0.22939752042293549,1.1050279140472412,-0.5547783970832825,0.31188681721687317,-0.6420170068740845,-1.0030750036239624,-0.13366127014160156,0.283812940120697,0.85439532995224,-0.111756831407547,0.17686894536018372,-1.9382195472717285,-0.46556758880615234,-1.258488416671753,1.0294467210769653,0.8427531123161316,1.1366615295410156,-0.3236653208732605,-3.302910327911377,0.2189943790435791,-0.39194414019584656,-0.5435949563980103,-0.6823521256446838,0.828338086605072,-1.5444215536117554,0.0016142837703227997,-1.7004444599151611,-0.5065419673919678,0.37832877039909363,0.13646212220191956,0.3187926113605499,0.5888000726699829,-0.19634535908699036,-0.043877433985471725,0.08811913430690765,1.2523269653320312,0.02336711809039116,-0.11724734306335449,-2.002563953399658,1.115189790725708,-0.11212858557701111,0.2650906443595886,0.5909263491630554,1.3891925811767578,-0.5147749781608582,-0.3817880153656006,-1.0718117952346802,-1.2826436758041382,-2.2231502532958984,1.1462222337722778,-1.428273320198059,-0.36181142926216125,-0.33534395694732666,-0.29896506667137146,0.6930738687515259,0.34137582778930664,-0.2479819655418396,-0.06071440130472183,-0.34420424699783325,-0.5967628359794617,-1.007887601852417,-0.0440363883972168,-0.6443154811859131,-0.22222720086574554,-3.057582139968872,0.6906487941741943,-0.8764768242835999,1.3873200416564941,2.3094000816345215,0.3465498685836792,-0.6682593822479248,-0.6242783069610596,-0.9550735354423523,-0.14319808781147003,0.47008705139160156,1.2987748384475708,-1.8079209327697754,-0.6496978402137756,0.8775731325149536,-0.018029095605015755,-1.1056885719299316,0.3224206268787384,-1.405585527420044,1.2756975889205933,-0.9436975121498108,2.788620948791504,-1.0911896228790283,1.5588582754135132,-2.697073221206665,0.3390207588672638,2.3162715435028076,-0.31476348638534546,-1.1860170364379883,1.6224092245101929,-0.6359370946884155,0.0683365911245346,-1.2188091278076172,-1.8985346555709839,1.0089997053146362,0.3919387459754944,-0.0679420679807663,-0.3111339807510376,0.8997358083724976,-0.30315595865249634,-0.8264115452766418,0.6654887795448303,-0.1793188452720642,0.5826655626296997,1.0519946813583374,2.0360472202301025,-1.0906099081039429,-1.8387833833694458,-0.41977614164352417,-1.5448647737503052,1.6806573867797852,1.1479886770248413,0.6158604621887207,-0.7365900874137878,-0.23932799696922302,-0.9579453468322754,0.5035083293914795,0.7685726881027222,0.6645569205284119,-0.6877562999725342,0.660094678401947,2.009251832962036,-0.37606534361839294,-0.22603200376033783,-1.295219898223877,-0.9862176179885864,-1.3147269487380981,1.1044538021087646,0.3272029459476471,1.334549069404602,-1.4324029684066772,1.3462328910827637,0.7033947706222534,1.4596575498580933,0.6428653597831726,0.5796681046485901,-1.0837136507034302,-0.2708565294742584,-0.053276676684617996,0.12786339223384857,-0.4135458171367645,0.4679528772830963,1.6631953716278076,-0.21990109980106354,-1.159276008605957,-1.470698356628418,-1.7165744304656982,-0.02123507671058178,-0.09878600388765335,-0.877892017364502,-0.4428829550743103,-2.419713258743286,1.1716526746749878,-0.8417608141899109,-0.1169087365269661,0.18405656516551971,0.6980945467948914,-1.4181313514709473,-0.22028489410877228,-0.9325390458106995,1.8185713291168213,1.445199966430664,0.7642845511436462,-0.31018614768981934,-0.31782981753349304,1.057868242263794,-0.9356913566589355,0.46817266941070557,0.903358519077301,-0.22483333945274353,-0.2197422981262207,0.2063305377960205,-1.4312546253204346,-0.9283192157745361,0.9593017101287842,-0.24021917581558228,1.5689646005630493,-1.1184886693954468,-1.313761591911316,-0.1097475066781044,1.7085816860198975,-0.23933503031730652,-1.5775853395462036,0.42129379510879517,-0.849396288394928,0.7992327809333801,0.017016325145959854,0.24512900412082672,1.666002869606018,1.6113868951797485,-0.9313731789588928,1.3323471546173096
central_america,1.4293029308319092,0.7242814898490906,0.41519448161125183,-1.362813949584961,-1.7684541940689087,-0.619070827960968,1.0897785425186157,-0.4483834505081177,-0.604982316493988,0.8282520771026611,-0.2560933828353882,-0.22216616570949554,-0.15214180946350098,-0.21561062335968018,1.2767332792282104,1.402113914489746,-0.18108373880386353,0.4162246286869049,1.673586368560791,0.5403353571891785,0.12292462587356567,0.2319238781929016,0.5283416509628296,-0.08789083361625671,0.3408569097518921,-0.48678332567214966,0.16798293590545654,0.12333901226520538,1.2411226034164429,0.4534289836883545,1.347076416015625,-0.18591643869876862,0.3026735782623291,-0.2856089472770691,0.14547418057918549,0.5100080966949463,-0.1493050456047058,0.4651123881340027,0.4247206449508667,-0.43837490677833557,-0.2723163068294525,-1.2344759702682495,-0.8511894941329956,-0.7511093020439148,0.3766612112522125,-0.20609435439109802,0.548442542552948,1.5279039144515991,-0.0824689045548439,-0.05255911499261856,0.2294808328151703,0.06277438998222351,0.6310707330703735,-0.9190583229064941,-0.5938519835472107,-0.023652134463191032,-0.33853980898857117,0.33342018723487854,-0.07412020117044449,0.2491290122270584,-2.192244052886963,0.37393906712532043,-1.1410295963287354,-0.5896892547607422,1.690097451210022,-0.5394134521484375,-0.04930988326668739,0.036002177745103836,0.4255714416503906,0.8269298076629639,0.3217518627643585,-0.2434382140636444,-0.07488260418176651,0.2777346670627594,0.6040129065513611,0.9950701594352722,-2.4509875774383545,-2.3419480323791504,-0.01526003796607256,0.13147984445095062,-0.27838411927223206,-0.31502556800842285,-2.2152841091156006,0.16996218264102936,1.0934674739837646,0.8724936842918396,0.5603955984115601,-0.8026635050773621,0.584187388420105,0.8363301753997803,0.1420675665140152,-0.05736781656742096,-0.6712555885314941,0.3403792381286621,-0.4256911873817444,1.6907936334609985,0.5292862057685852,-0.35926032066345215,1.1196480989456177,0.3041130006313324,0.3466816246509552,0.3386822044849396,-1.5216331481933594,0.28352394700050354,0.7750456929206848,-0.04678565636277199,0.09257366508245468,-0.026455918326973915,0.0523332841694355,-0.23010963201522827,-0.17311912775039673,1.1339101791381836,-1.7347618341445923,1.2046542167663574,-0.24229080975055695,-0.15230192244052887,0.20309489965438843,-0.2136344611644745,0.36142632365226746,-0.23458260297775269,-0.21092867851257324,-0.3580794632434845,-0.8458833694458008,-0.2803356349468231,0.3239240050315857,0.39836397767066956,-0.8781942129135132,-1.2993733882904053,0.30376315116882324,-0.23454591631889343,0.5596832633018494,0.940272331237793,0.7098097205162048,-0.6548710465431213,-0.8946552276611328,0.11790655553340912,-1.1875249147415161,0.0228005051612854,-0.08377345651388168,0.0737602636218071,0.06817951798439026,0.691004753112793,-0.09940475225448608,0.06228398531675339,0.9149979948997498,-0.06046795845031738,-0.13771367073059082,-0.9598374366760254,1.8788070678710938,0.21601423621177673,-0.572851836681366,-0.6509753465652466,0.5766013264656067,-0.3820747435092926,-0.16863003373146057,0.04677882045507431,-1.0618531703948975,1.3713680505752563,-0.39680927991867065,0.44367367029190063,0.8578699231147766,0.05409007892012596,-0.48919278383255005,-0.992612898349762,-0.2873114049434662,1.0754790306091309,-1.233486294746399,0.13851837813854218,0.900966465473175,0.08942563831806183,0.6129399538040161,1.3080288171768188,-0.4168984293937683,0.4616326689720154,0.2120269238948822,0.47410571575164795,-0.6992055177688599,-2.1702117919921875,0.02774103730916977,-0.09594130516052246,-2.40922212600708,-1.0214142799377441,1.7941583395004272,-0.6132256388664246,-1.1029058694839478,0.11377547681331635,-0.6366966962814331,-0.5566502809524536,0.7009827494621277,-2.043508529663086,0.8977388143539429,-0.019959013909101486,0.124720498919487,2.3111960887908936,0.3997343182563782,-0.24224640429019928,-0.6077520847320557,-0.9230619072914124,0.14480845630168915,0.08830346167087555,-0.9323636889457703,0.6287683248519897,0.7975426912307739,0.013796833343803883,0.34511345624923706,0.34133291244506836,-1.5213639736175537,-0.7720382213592529,0.8621663451194763,0.8653329014778137,-1.3286540508270264,0.13437870144844055,-0.35891008377075195,1.1563836336135864,-0.21951892971992493,-0.6203676462173462,-0.555367112159729,0.660246729850769,-0.5443838834762573,1.141324520111084,0.7917774319648743,0.3207271695137024,-0.19862200319766998,2.2875351905822754,0.4460993707180023,-2.705265760421753,-0.24105368554592133,1.2541438341140747,-1.5195033550262451,0.5934959650039673,-0.13829305768013,1.5620746612548828,-0.5907719135284424,0.8273864388465881,1.097713828086853,-1.3461893796920776,0.18285061419010162,0.7680770754814148,-0.8288711309432983,0.03710804879665375,-1.1460810899734497,-2.4440882205963135,0.025043657049536705,0.2092408388853073,-0.4635208547115326,-2.2376911640167236,0.0724160224199295,0.32197999954223633,1.9313607215881348,0.8029601573944092,-2.5334928035736084,-0.3169579803943634,1.0410157442092896,1.6091021299362183,-0.8833345770835876,1.6400365829467773
equatorial_guinea,-1.3965767621994019,-0.1224624365568161,0.6089469790458679,-0.3895663321018219,0.7287148237228394,1.1935597658157349,0.21009619534015656,0.5074141025543213,-0.5651029944419861,-0.4249664843082428,-0.1574268341064453,0.9995895624160767,-0.7897058129310608,0.8355067372322083,-1.302794337272644,-0.7796956896781921,1.1208428144454956,0.662401556968689,1.0216995477676392,0.9513192176818848,-0.0991397500038147,1.2527974843978882,-0.41816169023513794,0.6854901909828186,-0.5710394978523254,-0.24501699209213257,-0.0861133337020874,-1.5261304378509521,0.9717704653739929,0.5162063837051392,0.9648459553718567,-0.7566075921058655,0.3721872866153717,-0.300080269575119,-1.3112757205963135,-0.5964820981025696,0.7567160129547119,-0.31079572439193726,0.04866280406713486,-0.8274939060211182,-0.7446093559265137,-1.26051664352417,-0.9137104749679565,0.04859835281968117,1.1236896514892578,1.037613868713379,-0.326389878988266,0.48035728931427,0.12489200383424759,0.7924172282218933,0.10342756658792496,0.3908917307853699,-0.22867868840694427,-0.13043883442878723,0.8802900314331055,-0.2918602526187897,0.6288602948188782,-0.8116493225097656,-0.7032618522644043,1.1784436702728271,0.8616513013839722,-0.1675424575805664,-0.24265781044960022,0.10969321429729462,-0.6070319414138794,-0.13896358013153076,-1.4957804679870605,0.4432229995727539,-0.9441614151000977,0.4659169614315033,0.8691592216491699,0.3338150680065155,0.5326763987541199,0.5355933904647827,0.2905082404613495,0.8929369449615479,0.11514287441968918,0.8530287146568298,-0.7030224204063416,-1.1073118448257446,0.7933664917945862,-0.3173021376132965,0.655097484588623,0.22112013399600983,-0.4322322607040405,0.5759442448616028,1.029658317565918,-0.4003632068634033,0.44917726516723633,1.5528011322021484,-0.5512620210647583,-2.2183144092559814,0.8714830279350281,1.2158328294754028,0.12321088463068008,0.01495907548815012,-0.09649479389190674,0.4426732659339905,0.7344884872436523,0.8235426545143127,0.5802968740463257,-0.381185919046402,-0.6514021158218384,1.2627370357513428,0.11418355256319046,-0.6437509655952454,-0.800869882106781,9.215995669364929e-05,0.0020057279616594315,1.0331064462661743,0.04830155149102211,0.13915398716926575,1.1963627338409424,-0.3334839940071106,0.2279752641916275,0.15057453513145447,0.02336861938238144,0.9956524968147278,0.37381911277770996,-0.558067798614502,-0.9326159954071045,0.3068094849586487,0.7386947274208069,-1.3094826936721802,0.08478718996047974,-0.15313555300235748,-0.1843542605638504,-1.6104168891906738,0.9546900987625122,2.0155022144317627,0.6165147423744202,-1.1480906009674072,0.19131141901016235,-0.04076411575078964,-1.6091164350509644,-2.6225054264068604,0.038430362939834595,-0.3418154716491699,2.151604413986206,-0.424709677696228,0.35321685671806335,0.8692958950996399,1.2921425104141235,-0.5522693395614624,0.07531291991472244,-1.0913951396942139,-0.5392466187477112,-0.16086064279079437,-0.4002384543418884,0.2722683846950531,-0.5608001351356506,0.790778398513794,-0.5345054268836975,-0.04608041048049927,1.5063952207565308,0.8230803608894348,0.27730780839920044,2.4069855213165283,-0.2526254653930664,-0.5047276020050049,-1.1447107791900635,0.6333078145980835,-1.460548996925354,-0.23252516984939575,1.3204370737075806,1.053887128829956,1.073664903640747,0.09693598747253418,-0.7932650446891785,-1.1605000495910645,0.754088819026947,-0.11503422260284424,0.24597468972206116,-1.6032685041427612,-0.1898653358221054,-0.686479389667511,0.025195017457008362,-0.5660661458969116,-1.234392523765564,-0.4699738621711731,-0.5304780602455139,-0.6384334564208984,-0.23520119488239288,-2.091829538345337,-0.4016854166984558,0.006202892400324345,0.3727373778820038,-1.0585380792617798,-0.5175079703330994,0.3046063780784607,-0.424850732088089,-0.1459936946630478,-2.2006282806396484,0.5756287574768066,-0.21072536706924438,0.2828088402748108,0.7853752374649048,0.7647098302841187,-0.1519402414560318,0.3662241995334625,0.3248840868473053,0.185700461268425,-0.18340395390987396,-0.8442539572715759,-1.6511677503585815,0.3787493109703064,0.9313555955886841,-1.106164813041687,-0.12303658574819565,0.6085777282714844,1.356876254081726,-0.9061801433563232,0.17388832569122314,-2.2814183235168457,1.05345618724823,-1.1763101816177368,-1.1671323776245117,-1.0051450729370117,0.6528403759002686,-0.43832817673683167,2.1239004135131836,-0.10676252841949463,1.0158694982528687,0.8789047598838806,-1.235047698020935,-0.0668070912361145,-0.2369823306798935,-1.0730705261230469,-0.9563382863998413,-0.7879931330680847,0.4506673514842987,-2.167830467224121,-0.4307241439819336,0.319987028837204,-0.2308775782585144,1.1233597993850708,-0.10497231036424637,-2.182215929031372,0.5112461447715759,-1.340032696723938,-0.6214256882667542,-0.39550402760505676,1.4839898347854614,0.6228427886962891,-0.7713363170623779,-0.5059269666671753,-0.6572885513305664,0.4602982699871063,-1.1172484159469604,0.46003735065460205,0.13740506768226624,1.544419527053833,0.121319979429245,1.5791577100753784,0.5229126214981079,-0.4981482923030853
gibraltar,0.32306355237960815,-0.3097619414329529,-0.12076226621866226,-0.5477346777915955,0.9318984746932983,-0.32648998498916626,-0.8329023122787476,-0.43098998069763184,0.7017293572425842,-0.9742403030395508,0.1388021558523178,-0.19095252454280853,1.7944008111953735,1.138053297996521,-0.4711035490036011,0.2429608255624771,0.623795747756958,-0.022502955049276352,-1.2133413553237915,-1.0310906171798706,1.1291791200637817,0.9742849469184875,0.08484239876270294,0.49892690777778625,-0.4073345959186554,0.6321130394935608,-0.14754511415958405,-0.5499787926673889,1.764593482017517,0.14592786133289337,0.06000658497214317,0.559579074382782,-0.09833142906427383,0.34842729568481445,-0.23768454790115356,-0.4221123456954956,1.7682090997695923,0.03580864518880844,0.0942043587565422,-1.3604978322982788,0.6282554864883423,-0.11915235221385956,-0.13020308315753937,1.6452102661132812,1.0649893283843994,0.13539496064186096,-0.3251211643218994,1.1160719394683838,-0.029102182015776634,1.433791160583496,0.5630581378936768,-1.0011017322540283,-0.7881923317909241,0.4334803819656372,-1.8594895601272583,0.2846885919570923,0.534420371055603,-0.08643853664398193,-0.6627966165542603,1.113938808441162,-2.4951841831207275,1.1629711389541626,-0.33148521184921265,0.09703867137432098,0.9249823689460754,1.3236979246139526,0.3811127543449402,-1.2598488330841064,-0.8843616247177124,0.6311023831367493,0.0890018567442894,-1.2688450813293457,0.13503898680210114,-1.476694107055664,0.3450770676136017,0.5074373483657837,0.301349401473999,0.1819799691438675,0.44329434633255005,-0.23354332149028778,-0.36458274722099304,-1.1309317350387573,-0.9518309831619263,-0.682142972946167,0.8204466104507446,1.0508431196212769,0.3668563961982727,0.08881860226392746,0.41918113827705383,-0.7872596979141235,-0.9814860820770264,-0.9143613576889038,-1.0395889282226562,-0.04954652860760689,-0.044417813420295715,1.3013285398483276,-0.9134747385978699,-0.8049991130828857,-0.5415157079696655,-0.05240705981850624,0.5198192596435547,0.7099711298942566,-1.3614953756332397,-0.22856104373931885,-0.766076385974884,-0.6286341547966003,1.069024682044983,-0.130574032664299,-0.3047671616077423,-0.3198434114456177,1.1199805736541748,0.21576939523220062,0.7711033225059509,-0.71392422914505,0.3005053400993347,0.013917707838118076,-1.463496446609497,1.4439841508865356,-0.505195677280426,-1.5218578577041626,0.2067895233631134,1.1834630966186523,-0.28154703974723816,1.1293375492095947,-0.18398553133010864,-0.6132820248603821,-0.5329968929290771,-0.22544246912002563,0.5339722037315369,-0.28761011362075806,0.4180891215801239,1.6972603797912598,1.1314284801483154,-1.4809939861297607,0.31793010234832764,-1.3856244087219238,0.8091126680374146,0.8519368767738342,0.3498291075229645,1.1590197086334229,-0.4030950665473938,1.2987667322158813,1.4406306743621826,1.3669843673706055,-1.039876103401184,1.0494296550750732,0.34362298250198364,-0.8232590556144714,1.3625571727752686,-0.00774854701012373,1.0636615753173828,-0.5440472960472107,0.5240299701690674,0.7034050226211548,-0.27181723713874817,-1.859167218208313,0.6718845367431641,-0.1810181736946106,0.7223228812217712,0.6665588617324829,0.128557488322258,-0.24421347677707672,0.3410850763320923,0.3716747462749481,1.4024641513824463,0.9826393723487854,0.16570594906806946,-1.4031784534454346,0.5392637252807617,0.23627611994743347,-0.10741999745368958,-0.2870229482650757,-0.8712908029556274,-0.0688522458076477,0.33456602692604065,-0.6057518124580383,0.47549641132354736,1.4172536134719849,-0.6190416812896729,0.23024094104766846,-1.251704216003418,-0.3569873571395874,-1.3717135190963745,0.3616733253002167,-0.5659120678901672,2.0490591526031494,-1.4375414848327637,-0.32394251227378845,-2.3171985149383545,0.9799146056175232,0.10585926473140717,-0.4679412841796875,0.7191081047058105,0.8915241956710815,-0.8856452703475952,0.6752315163612366,0.10682115703821182,0.5913110375404358,-1.3971614837646484,0.33567163348197937,-0.009173538535833359,-0.7513906955718994,0.2690861225128174,-0.0010948851704597473,-1.2479509115219116,0.7165572643280029,0.6031925082206726,-0.5223813056945801,0.969817042350769,-0.11898808181285858,0.4441501498222351,1.0732876062393188,-0.06432848423719406,2.2911078929901123,1.6679472923278809,0.18517227470874786,0.18904903531074524,0.7702569365501404,0.7625603079795837,-0.3642013669013977,1.2106432914733887,0.08091283589601517,0.0894923135638237,1.0818028450012207,-1.7447236776351929,0.20038245618343353,2.1587777137756348,-2.127009153366089,-1.1184735298156738,1.1124818325042725,0.7152695655822754,1.2607507705688477,0.33987629413604736,1.1465691328048706,1.4542080163955688,0.7280858755111694,0.857735276222229,-1.2281594276428223,0.022449711337685585,0.04607495665550232,0.7729818224906921,-0.12938249111175537,0.4292345643043518,0.5458739399909973,0.05537914112210274,0.4129410982131958,-0.3346402943134308,-0.5274385809898376,0.3534405827522278,1.0597440004348755,0.0697820633649826,0.7854432463645935,1.674217939376831,-0.5055773854255676,1.5220242738723755,0.31348296999931335
hungary,0.38315755128860474,-0.9012705087661743,-1.2136883735656738,-0.5764538049697876,-0.9900825023651123,-1.1773381233215332,-0.007650937885046005,-1.6620930433273315,0.3093320429325104,-0.011461148038506508,-0.49360036849975586,-0.7955187559127808,1.9050135612487793,-0.28881603479385376,-0.8482077121734619,0.5953839421272278,0.6217485666275024,0.48211365938186646,-0.33919399976730347,0.07369258999824524,0.7224692702293396,0.4446695148944855,0.4667889177799225,-1.8151400089263916,0.07824994623661041,-0.5907981991767883,0.3433173596858978,-0.2525648772716522,0.10493385791778564,0.09963548183441162,0.5406401753425598,0.022219575941562653,-0.13843628764152527,0.4105040729045868,-1.3970565795898438,-1.2079851627349854,-0.6726719737052917,-0.01185609307140112,-0.8950655460357666,0.14925067126750946,0.5271851420402527,-0.346551775932312,-0.44060128927230835,-0.6836159229278564,-1.782981038093567,-0.3952336311340332,-0.4263480305671692,1.5829637050628662,-0.5947316884994507,0.37773171067237854,0.6323310732841492,-0.27570706605911255,0.8476961851119995,0.6013206243515015,1.01231050491333,-0.9798612594604492,2.043813943862915,0.20273081958293915,-0.6429439783096313,0.39290469884872437,-0.3035154640674591,1.6565381288528442,-0.42979446053504944,0.1808219999074936,0.09887155890464783,-0.19598977267742157,1.7447460889816284,-0.24611027538776398,-0.45396775007247925,0.8048920631408691,-0.7172958850860596,-1.4042174816131592,0.39380013942718506,-2.7876574993133545,-0.4368947148323059,-0.3267953097820282,0.35330072045326233,0.16212764382362366,0.8014715313911438,-0.6831071376800537,-0.07317626476287842,1.031767725944519,-0.3208332657814026,-0.7836306691169739,-0.30928924679756165,-0.02323620580136776,-0.16551326215267181,1.682175636291504,-0.5031366348266602,0.5520565509796143,0.11718353629112244,0.8186931014060974,0.26079902052879333,-0.19583235681056976,1.040136456489563,-0.10442936420440674,-0.4132533371448517,-0.6696555018424988,-0.5960157513618469,-0.4026068150997162,-0.3470166027545929,0.9201275110244751,1.1940735578536987,1.117221713066101,-0.7395451664924622,1.4049652814865112,-0.19050651788711548,-0.08343874663114548,-0.06106007844209671,-0.6279545426368713,-0.7676297426223755,-0.31071338057518005,-2.0421643257141113,0.23133499920368195,-0.6247550845146179,-0.05646301805973053,1.5561531782150269,-0.6546086668968201,0.435992956161499,0.9683032631874084,-0.9005455374717712,-0.11159651726484299,-0.04292517155408859,-1.6376996040344238,-0.08519306778907776,0.537300169467926,-0.9595797657966614,0.12885157763957977,-1.1753549575805664,2.154787540435791,-1.5615788698196411,0.0005885548889636993,-0.2709762454032898,0.38911035656929016,0.7064132690429688,0.4918130934238434,0.768789529800415,0.880365788936615,0.3934730291366577,-0.4997911751270294,0.6271471977233887,1.6764057874679565,0.6226844191551208,-0.7656099200248718,-1.8494569063186646,0.8734691739082336,-0.4887298047542572,-1.285109519958496,-0.5789168477058411,0.3931816816329956,-0.09466271102428436,0.8211040496826172,1.320281744003296,-0.38987505435943604,-0.24651919305324554,0.5215362310409546,0.31858131289482117,0.17924079298973083,0.6849347949028015,1.6983271837234497,-0.9831443428993225,-0.47467902302742004,-0.9265018105506897,-1.5580008029937744,-0.30148160457611084,-0.35931700468063354,-0.9493181109428406,0.8472328782081604,-0.5430513620376587,0.4504280090332031,0.7881097197532654,0.7863358855247498,-0.556799590587616,1.0401338338851929,0.8359051942825317,-0.023035850375890732,2.771122455596924,1.6728925704956055,1.185299277305603,-0.5008133053779602,0.7515436410903931,-0.7225074768066406,0.609246015548706,0.4994428753852844,-0.32386544346809387,0.30067679286003113,-1.9950169324874878,0.6806862354278564,-0.30193716287612915,-0.24483218789100647,1.0555565357208252,-1.4147727489471436,0.22673898935317993,0.24708715081214905,0.9303282499313354,-0.4750117063522339,1.281043529510498,-0.7102816700935364,-0.6397949457168579,1.4768658876419067,-0.8610696196556091,-1.002573847770691,0.7271463871002197,-1.093603491783142,0.14962077140808105,0.438934862613678,0.20698998868465424,0.6886119246482849,0.0012347670271992683,0.11651799827814102,0.8335894346237183,-0.24465803802013397,0.08496974408626556,0.33009693026542664,-1.4490371942520142,-0.7090824842453003,1.9050848484039307,0.8105332851409912,-1.3250744342803955,-0.8216502666473389,1.6297123432159424,1.5308868885040283,0.7336254119873047,1.317415714263916,-0.7826475501060486,1.5312985181808472,0.04266396909952164,-2.302647113800049,-0.191990926861763,-0.6979264616966248,-1.7851721048355103,-0.44136014580726624,-0.5748052597045898,2.021301507949829,0.35586827993392944,-2.9712321758270264,-1.8596138954162598,0.1722242832183838,0.46808984875679016,-0.5833461284637451,0.5114967823028564,-0.2858771085739136,0.3832334280014038,-0.36117780208587646,2.2209043502807617,0.5664017796516418,-1.0568856000900269,-0.13227179646492004,-0.3207656443119049,-0.7838931083679199,-0.08682846277952194,0.6525524258613586,-1.0254018306732178,0.41760826110839844,-0.028776435181498528,-0.10998494178056717
poland,0.30795127153396606,-0.7856687307357788,-1.3512911796569824,0.0005104988813400269,-0.47589102387428284,0.2827584147453308,1.270871877670288,-0.08321048319339752,-0.22545954585075378,-0.254422128200531,0.31018954515457153,-0.0629437267780304,0.2209189087152481,-0.23491527140140533,0.2605815827846527,-0.4623841345310211,-0.06774969398975372,0.8903796076774597,0.5299144387245178,-0.7867662906646729,-1.4733015298843384,-0.661962628364563,-0.2730204164981842,-0.26212793588638306,-0.14733123779296875,0.7569612860679626,-1.086113691329956,-0.6289353370666504,0.9883473515510559,0.5876168012619019,1.5750737190246582,-0.10660345107316971,-0.38613301515579224,0.08895094692707062,-0.1788255274295807,-0.14817479252815247,-0.3745875656604767,0.11490250378847122,0.04413400590419769,-1.011558175086975,-0.8430184125900269,-0.7373471260070801,-0.6615637540817261,0.1547110378742218,-0.8336389064788818,-1.0175156593322754,-0.1159590557217598,1.9238373041152954,-0.40222376585006714,-0.8050167560577393,2.304271697998047,-0.42413094639778137,0.3946819007396698,-0.4444999396800995,-0.07773752510547638,0.289613276720047,0.6224173903465271,-0.22346973419189453,-0.44357824325561523,-0.03053935617208481,-0.25898870825767517,-0.12328343093395233,-0.09463056176900864,-1.154640555381775,0.855154275894165,-0.7570832371711731,-0.09693454205989838,0.13184426724910736,0.37355318665504456,1.2578307390213013,-0.7954515218734741,0.3401643931865692,0.8477224707603455,0.4155692756175995,-0.8613870143890381,-0.3349292278289795,0.8283195495605469,1.1565438508987427,-1.714571237564087,2.202000141143799,1.3627177476882935,0.8426550626754761,0.12063279002904892,0.21827955543994904,0.04690488427877426,-0.39249253273010254,-0.9329296946525574,-0.58488529920578,3.121350049972534,-0.31228315830230713,-1.3204574584960938,-0.49766355752944946,0.43642672896385193,-0.035432904958724976,-0.7566132545471191,0.5461559295654297,-0.650814414024353,0.08833899348974228,-0.3267168700695038,-0.680445671081543,0.3647007644176483,-0.1089695617556572,-0.2650861144065857,0.7028295397758484,1.1217366456985474,0.6877456903457642,-0.6900742650032043,0.27541518211364746,-0.8791167140007019,-0.1920868158340454,0.6385721564292908,0.1710471212863922,-0.3303948938846588,0.05396762117743492,1.2067797183990479,-0.7410935759544373,-1.5780912637710571,1.6221532821655273,-0.3937298655509949,0.39098432660102844,-0.950598418712616,-0.4826042950153351,-1.516855239868164,-0.3157788813114166,-0.23817184567451477,-1.1066442728042603,-0.293113112449646,0.20482055842876434,0.624419629573822,0.009276880882680416,-1.299621820449829,0.46666914224624634,0.3200136721134186,-0.648520290851593,-0.3780563175678253,1.5865449905395508,0.6518164277076721,-1.1466494798660278,0.06600935012102127,-0.3779219388961792,0.28227993845939636,0.26874876022338867,-0.7880970239639282,-0.022722676396369934,0.8984689712524414,-0.5025350451469421,0.9575587511062622,-0.9357125163078308,1.6684600114822388,-0.6249489784240723,-1.1404155492782593,-0.22070617973804474,1.0893117189407349,0.09620979428291321,1.4261318445205688,-0.20081020891666412,-1.1114603281021118,-0.8260993957519531,0.6768454909324646,0.7983388900756836,0.8793065547943115,0.039648182690143585,-0.103468157351017,0.19034315645694733,-0.18948855996131897,1.0045026540756226,-0.1819109320640564,-0.11690263450145721,-1.151336431503296,0.402121901512146,0.5098923444747925,-1.2431607246398926,1.4056512117385864,-0.1955840289592743,0.7378904223442078,1.0068384408950806,-0.1829657107591629,-0.46491748094558716,-0.15545108914375305,0.015350524336099625,0.44919222593307495,1.66596519947052,0.9694016575813293,-0.3176949620246887,-0.8378674983978271,0.0781293660402298,-0.16789403557777405,-0.7578648924827576,-0.021304599940776825,2.1516571044921875,-1.032294750213623,-0.4560127258300781,-0.16006942093372345,-1.6221532821655273,0.3341458737850189,0.11513473093509674,1.2817864418029785,-0.7913535237312317,-1.094882845878601,0.7525204420089722,1.2963911294937134,-0.17261812090873718,-0.2285858541727066,0.33475667238235474,-0.7253937721252441,1.264266014099121,-0.9942265152931213,1.238431453704834,-1.1499489545822144,0.5108870267868042,0.46347683668136597,2.0505802631378174,2.229923725128174,-0.9498462677001953,0.21805918216705322,-1.3490002155303955,-0.22798413038253784,1.7909730672836304,-0.20220761001110077,-0.07407532632350922,-0.41816237568855286,-1.5152448415756226,-0.6221679449081421,-1.8041470050811768,-0.040982551872730255,1.1117233037948608,0.24535813927650452,-0.9937437176704407,-0.6066938042640686,-0.8882192373275757,-0.3269989788532257,1.9738913774490356,-0.5898197293281555,1.0512152910232544,-0.7993981242179871,-0.8202926516532898,-0.4372744858264923,-0.5008086562156677,1.350339651107788,0.8970037698745728,-0.9713823795318604,-0.35638266801834106,0.41136693954467773,2.305011749267578,-1.9454971551895142,-1.4134618043899536,-1.1855788230895996,0.6440467238426208,-0.8444008231163025,2.628129005432129,0.384670615196228,1.0317180156707764,0.0601983405649662,-0.44040077924728394,-0.7758589386940002,1.5083671808242798
micronesia,-1.650469422340393,-0.5126087665557861,-0.28075268864631653,-2.2742505073547363,-0.29545795917510986,-1.3502092361450195,0.15176400542259216,1.2237008810043335,-0.00998845137655735,0.42791011929512024,-0.08141070604324341,-1.448679804801941,1.0058575868606567,1.113417387008667,-0.9303086996078491,-1.7905824184417725,0.37492138147354126,-0.2952354848384857,0.4529102146625519,-0.9532105922698975,0.7553503513336182,0.5626062154769897,0.6705486178398132,-1.7935978174209595,0.19835740327835083,-0.11396864056587219,-1.5143991708755493,-1.2669636011123657,-0.4565739929676056,0.513857364654541,-1.17996346950531,0.33489707112312317,0.29711461067199707,0.47654783725738525,-0.22421909868717194,2.014069080352783,-0.23148110508918762,0.011768637225031853,-0.27639874815940857,-1.5969464778900146,-0.33857643604278564,-0.955766499042511,-1.04176664352417,0.27050089836120605,-0.3323586583137512,0.9948610067367554,-0.4477919638156891,-0.40966007113456726,0.0034326408058404922,-0.28242963552474976,-0.48066648840904236,-0.206795334815979,-0.35383546352386475,-0.597650945186615,1.4535658359527588,1.113965630531311,0.2622658312320709,0.006279422901570797,-0.24163328111171722,0.564197301864624,-0.28374508023262024,0.5017518997192383,0.3277856409549713,-0.5446614027023315,0.5224187970161438,0.4223305284976959,-0.4764220118522644,0.09837716817855835,0.7514855265617371,1.0841541290283203,-0.4562905430793762,-0.43522295355796814,0.04010116681456566,0.7211877703666687,0.8819186091423035,-1.0893900394439697,-1.0009952783584595,-0.8715496063232422,0.4787922203540802,-0.20705853402614594,0.057552412152290344,0.057595908641815186,-0.4486663341522217,0.5338320732116699,2.0851919651031494,-0.7215073704719543,-1.0488821268081665,-1.2401304244995117,-1.2881749868392944,-0.2236744463443756,0.21301555633544922,-0.9151880741119385,0.07020805776119232,0.05844173580408096,-0.33095115423202515,1.0529427528381348,-2.2955820560455322,-0.3161342144012451,-0.03368891030550003,-0.9239885210990906,0.2719230353832245,-0.3997708857059479,-0.9761682748794556,0.8651090860366821,-0.3029617965221405,-0.04662882909178734,0.8364719152450562,1.6084917783737183,0.4960174858570099,-0.9085823893547058,-0.07392705976963043,1.7481484413146973,-0.6790685057640076,-0.26980483531951904,1.0518044233322144,0.2789326012134552,-2.2490854263305664,-0.2159866839647293,-0.21173979341983795,-0.5683563947677612,-1.209313988685608,-0.6135253310203552,0.44276878237724304,0.48022136092185974,-1.1088238954544067,-0.14378729462623596,2.619962692260742,0.880478024482727,-0.3255298435688019,1.6491382122039795,0.27500393986701965,1.0108399391174316,0.30691903829574585,0.5913211703300476,0.09090867638587952,0.43230414390563965,-0.42395278811454773,-0.6256650686264038,0.7535786628723145,-0.560492992401123,1.3967525959014893,-1.6016993522644043,-0.5502636432647705,-0.15480132400989532,-0.3943938910961151,0.9994845986366272,-0.8224884271621704,-0.2189464271068573,-0.8277073502540588,-0.549852192401886,-0.03107290342450142,-0.4105399250984192,-1.2486958503723145,0.5836857557296753,0.022586945444345474,0.8927361965179443,-0.35978132486343384,1.620161533355713,1.6481239795684814,1.0125596523284912,0.1301988661289215,0.8514726161956787,0.0034639090299606323,-0.5357406735420227,-0.4077889025211334,0.8393558263778687,0.39618542790412903,0.16484948992729187,-0.01953243277966976,0.2855594754219055,-0.42933255434036255,2.6090312004089355,-1.0532550811767578,-0.8607829213142395,-0.9313408732414246,0.22347426414489746,-1.28607177734375,0.21615758538246155,0.5822016596794128,-0.06723591685295105,1.5959492921829224,-0.2704514265060425,0.26204293966293335,-2.4372169971466064,-0.173236683011055,0.3039330244064331,-0.5067490339279175,0.3835650086402893,0.19491061568260193,-0.5896774530410767,-0.898604154586792,0.8815038204193115,0.7705657482147217,1.652367115020752,-0.714714527130127,0.3925902545452118,-0.043189872056245804,-0.5017259120941162,-1.4084948301315308,0.711900532245636,-0.38624143600463867,-0.007039784453809261,-1.2472562789916992,0.23542562127113342,1.1033639907836914,0.908212423324585,-0.7949385643005371,1.302140474319458,0.08153700828552246,-0.10989692807197571,0.027474863454699516,-0.7006803154945374,-0.40238308906555176,0.7822973728179932,-0.6444282531738281,0.5793352723121643,0.3024846613407135,-0.6024692058563232,0.2770727574825287,-0.7749119400978088,0.14112630486488342,0.43334731459617615,-1.3819928169250488,1.473097562789917,-0.6836800575256348,0.7474241852760315,-0.14057831466197968,-1.9902385473251343,0.7003875374794006,-1.4606252908706665,0.30898839235305786,-1.3879047632217407,0.5677739381790161,0.954461932182312,-0.03158021718263626,-0.49749061465263367,2.035067081451416,0.2491561472415924,0.3664965331554413,1.4987072944641113,-0.5367006659507751,0.15698207914829254,0.029608959332108498,-0.28891026973724365,0.9943997859954834,-0.5597677230834961,0.4022720754146576,2.2852447032928467,-0.3750833570957184,0.031391870230436325,0.35566234588623047,0.08731065690517426,2.033507823944092,-0.5736753940582275,0.5701141953468323,0.5726270079612732
eritrea,-0.8760139346122742,-0.9498727917671204,-1.437873125076294,0.3346812129020691,-0.7429505586624146,-1.0247498750686646,0.002628202550113201,0.5393171906471252,1.189965009689331,0.43675941228866577,0.6976064443588257,0.6348984837532043,-0.11016740649938583,-1.0776739120483398,0.6994927525520325,1.638322114944458,0.23970024287700653,1.0074161291122437,0.3597344756126404,0.024446196854114532,-1.4491231441497803,0.306187242269516,0.3760592043399811,0.12093114852905273,-1.7509862184524536,-0.983552098274231,1.0356534719467163,0.3139262795448303,0.7111474871635437,2.214320421218872,-1.085459589958191,2.0946366786956787,-1.2034690380096436,1.0096118450164795,0.9209164381027222,0.42398953437805176,0.4997136890888214,0.6558156609535217,0.759766697883606,-0.876490592956543,0.33957937359809875,-0.8355488181114197,0.40108442306518555,2.183361053466797,-0.05396369472146034,-1.034177303314209,-1.3732823133468628,-0.01092442125082016,-0.5661758184432983,0.15732687711715698,0.5545604825019836,0.4125928282737732,0.7630332112312317,-0.08305535465478897,-0.14594554901123047,0.2848482131958008,-0.7316089272499084,-0.03459814935922623,1.142704963684082,0.6250916123390198,-1.0698068141937256,0.30690330266952515,-0.42235544323921204,-1.5759623050689697,-0.2260606288909912,-0.3802574574947357,0.4315282702445984,-0.2545953392982483,-1.083583950996399,0.8560512661933899,1.1261751651763916,-0.08389635384082794,-0.6753919124603271,0.6694414019584656,0.15023618936538696,0.9904788136482239,-0.2312222570180893,-0.13087840378284454,-0.39436089992523193,0.4771978259086609,0.5866374373435974,-1.7429273128509521,-1.0390946865081787,0.7644791603088379,0.38193508982658386,1.088507890701294,-0.5711231827735901,-0.763129472732544,0.5869160294532776,-0.24459031224250793,1.7644667625427246,-1.3475890159606934,0.26485151052474976,-0.4397236406803131,-0.7945904731750488,-0.7279849052429199,-0.2064571976661682,0.8415923118591309,-0.21112291514873505,-0.18012332916259766,0.03014858067035675,-0.7082993388175964,1.3183176517486572,1.30552077293396,0.785339891910553,-0.23666340112686157,1.0371452569961548,0.22209706902503967,-1.0195528268814087,-1.1169146299362183,-0.07259230315685272,1.5268503427505493,-0.18711960315704346,-0.6937520503997803,0.48938098549842834,-0.8251746892929077,-0.44887852668762207,1.2734534740447998,0.886715829372406,-0.14637310802936554,-0.013284992426633835,-0.8022449016571045,0.8813750147819519,-0.8454346656799316,-0.3360457122325897,1.455385446548462,-1.4152019023895264,0.11952507495880127,-0.7496494650840759,-0.30478179454803467,0.2691594958305359,-0.5147292613983154,-0.2335277795791626,1.2778170108795166,-0.21985302865505219,-1.2125920057296753,-0.7694932222366333,-0.5536027550697327,-0.496198832988739,0.6321710348129272,-0.048952411860227585,1.2255662679672241,0.5116133689880371,-0.21619707345962524,-0.41522669792175293,-0.770938515663147,1.6153979301452637,-0.03483001887798309,1.61142897605896,0.408153772354126,0.5235047936439514,-1.1596531867980957,-0.0568869449198246,-0.8093425035476685,-0.35045093297958374,-0.5478016138076782,-0.8207812309265137,0.6236973404884338,0.056651875376701355,-1.2469054460525513,-0.2638513743877411,1.1799492835998535,0.993799090385437,-0.12430517375469208,0.8812145590782166,0.018887022510170937,-0.2266349047422409,-0.49900245666503906,1.446125864982605,0.4308459162712097,0.044840604066848755,-0.2377699464559555,0.7813898324966431,0.09236028790473938,-0.12475262582302094,1.8179181814193726,0.6589362621307373,0.9274601936340332,0.15645462274551392,0.8821695446968079,-0.25877147912979126,0.7385784387588501,1.1338382959365845,0.682840883731842,1.518263339996338,-4.1117987632751465,1.3300085067749023,0.03291650116443634,-1.408031940460205,-0.0004912372678518295,-0.5000874996185303,1.796815037727356,0.6099134087562561,1.1321626901626587,0.6728706359863281,-0.9890554547309875,0.9383465051651001,0.7441684603691101,-1.8270469903945923,0.07857006043195724,-0.5653049945831299,-1.2450324296951294,0.24170677363872528,-1.7100807428359985,-3.7128734588623047,0.8454498648643494,-1.1336138248443604,-0.07846579700708389,0.4497264325618744,0.4864836037158966,-0.23234570026397705,1.4249736070632935,0.7318152189254761,-1.0645004510879517,-0.1417965441942215,-1.6075208187103271,-0.7320489287376404,1.7024250030517578,1.260738492012024,1.574487328529358,0.02390996925532818,0.7940728068351746,0.8093134164810181,0.5457707643508911,-0.016855953261256218,1.0295639038085938,0.05710972473025322,0.2879886329174042,-0.1374562531709671,1.0536880493164062,0.8377300500869751,-0.6804741024971008,0.8846710324287415,-0.08267469704151154,1.1498693227767944,-0.043741993606090546,-2.2940502166748047,-2.0341532230377197,-0.9677822589874268,-0.8713027238845825,-0.7934736609458923,0.32688796520233154,-0.9188406467437744,-0.9716413021087646,0.20387694239616394,-1.04909086227417,-0.32486140727996826,1.0200008153915405,0.1768074333667755,-0.23132385313510895,0.8537847399711609,-1.0376465320587158,-0.5152084827423096,-0.1641138792037964,-1.922459363937378,-0.8688066005706787
barbados,0.77678382396698,1.332031011581421,-1.3689296245574951,-0.6198248863220215,1.4091025590896606,1.2537554502487183,0.13624508678913116,0.8816829323768616,-1.0620495080947876,-0.4300072193145752,2.6912388801574707,-1.036627173423767,-1.1044061183929443,0.7168471217155457,0.5393988490104675,0.011581599712371826,-0.38798367977142334,-1.0308030843734741,-0.4359852373600006,-0.07274860888719559,-1.2259944677352905,0.17153199017047882,0.028599709272384644,0.32278311252593994,-0.5219981670379639,-0.9674197435379028,0.9805040955543518,-1.4884841442108154,1.8723469972610474,-2.018052339553833,-0.5685168504714966,-0.9556684494018555,0.8198315501213074,0.6635895371437073,-1.5449153184890747,-1.2479243278503418,0.8364818692207336,0.06613829731941223,0.9965822100639343,-0.9087251424789429,-0.20236216485500336,0.30948811769485474,-1.0144459009170532,0.7265378832817078,-0.7105270028114319,0.14232587814331055,1.1993166208267212,0.9410578012466431,-0.5756160616874695,-0.7011299133300781,-1.9542161226272583,1.009933352470398,-0.9017353653907776,-0.5354886651039124,0.29737362265586853,-0.8610042333602905,1.2714871168136597,0.7066532969474792,-0.7998560667037964,-1.3841387033462524,1.0868035554885864,-2.105461835861206,-0.3686343729496002,-0.24589507281780243,0.04651555046439171,-0.22632083296775818,0.45873525738716125,0.8768311738967896,-0.43109065294265747,0.7704392671585083,0.4420609772205353,0.1992584764957428,-0.7282516956329346,0.39824795722961426,0.30849671363830566,0.6046106219291687,1.0625826120376587,0.6207045912742615,-0.017189333215355873,-0.19597338140010834,-0.8278422951698303,-0.017546657472848892,-0.2454984486103058,0.4787570536136627,-0.8139677047729492,-0.6199166774749756,-0.03853835538029671,0.13174523413181305,0.09514104574918747,-1.5886814594268799,-1.1227574348449707,-0.5147964358329773,0.05728897079825401,-0.0319964773952961,-0.6700824499130249,1.5110836029052734,0.07332990318536758,0.24494822323322296,-0.887093186378479,-0.7271473407745361,-0.34332743287086487,-1.2600295543670654,0.5572382807731628,-0.5360890626907349,0.8886769413948059,-1.134490728378296,-0.30752167105674744,-0.07188770920038223,-1.3900949954986572,0.10019182413816452,-0.810486912727356,0.21472923457622528,-0.7028467059135437,1.237783670425415,-1.8044933080673218,0.6405324935913086,-0.06737329810857773,0.09766660630702972,0.2781822085380554,-0.13553208112716675,-1.2670297622680664,0.22351431846618652,0.8299555778503418,-0.6852561831474304,1.0195798873901367,-0.39920222759246826,-1.8677982091903687,-0.949970543384552,0.014476585201919079,0.38766372203826904,0.5004624128341675,-0.2830379903316498,-0.07669099420309067,0.04990057647228241,0.564152181148529,1.621618628501892,2.250535011291504,-0.5532619953155518,0.7682803273200989,-1.7349008321762085,0.6764771938323975,-0.7396234273910522,0.27840545773506165,-1.325961947441101,-0.31086117029190063,-0.6344413161277771,0.6070989966392517,-1.0771074295043945,-1.0325584411621094,1.1856904029846191,0.4094773232936859,1.2450010776519775,0.1470278799533844,0.05906445533037186,0.2503143548965454,-1.0078108310699463,-0.2516031861305237,-1.4027831554412842,-0.9104321599006653,-1.3171181678771973,-0.20858746767044067,0.3240354359149933,-1.0289306640625,1.723156452178955,-0.09843116998672485,1.0797289609909058,-0.9285500645637512,0.9949730634689331,1.9999946355819702,-1.468157410621643,1.4899277687072754,-0.2198677957057953,1.6162453889846802,0.9346999526023865,-0.8686795830726624,-0.6297622919082642,-0.2322705090045929,1.0774928331375122,0.23834186792373657,-0.7551410794258118,0.16767865419387817,0.2424842268228531,-0.15835459530353546,-1.9378653764724731,-0.6961333751678467,0.621800422668457,-0.5732831358909607,-0.21064965426921844,1.292202115058899,-1.4701794385910034,0.2764023542404175,-0.8220189809799194,2.9157257080078125,1.7042909860610962,-0.834583580493927,0.6417399644851685,-0.9609277248382568,-1.0514583587646484,0.546811580657959,-1.5523139238357544,-1.1756242513656616,-0.7979323863983154,-1.1903263330459595,0.4266667366027832,-0.46256232261657715,-0.8254177570343018,0.8100521564483643,0.5724309086799622,0.7004371285438538,-0.10380163788795471,0.7860333323478699,-0.1690884530544281,-1.3416366577148438,-0.8000592589378357,0.3701246380805969,0.23272502422332764,1.5386624336242676,-0.6056396961212158,0.6730164289474487,-0.378976970911026,-0.1751927137374878,-0.1488383561372757,-1.443983793258667,-0.6081019043922424,1.0951484441757202,-1.6158004999160767,-0.25347205996513367,0.8247106671333313,-0.6130253076553345,-0.21349173784255981,0.2300235629081726,1.6908111572265625,-1.9429126977920532,0.5667834281921387,0.742554247379303,-1.3067045211791992,-0.5228472352027893,1.0644745826721191,1.3767880201339722,-0.04375576972961426,-1.014390468597412,1.0948816537857056,-0.7999918460845947,-1.068882703781128,-0.3939991891384125,-0.4144498407840729,0.1496627926826477,1.6285243034362793,0.64810711145401,0.5977461934089661,-0.8179858922958374,-1.1012219190597534,-0.2043130248785019,-2.457645893096924,1.3516013622283936,-0.007482729386538267
