,0,1,2,3,4,5,6,7,8,9,10,11,12,13,14,15
western_africa,-1.1950947,-0.42352057,-0.21102944,-1.5823551,0.54465735,-0.7697463,-0.37584054,-0.5428752,-0.15584794,1.2612995,1.0220059,-0.20292467,0.30619428,0.6044107,1.1296958,0.35332906
slovakia,-0.4926342,-0.49297702,0.9602252,-1.0847483,0.408217,-0.27626336,-0.5263261,0.25436294,-0.48191768,1.4560922,-0.35361052,-0.19775431,1.116898,1.1605724,1.1243304,0.7671163
niger,0.4174124,-0.488908,-0.16489364,-0.9920547,0.62967336,-1.0956194,-0.6446424,0.13428585,-0.6845296,1.4377791,1.2763695,-0.6274022,1.3972901,0.42697918,1.4382956,0.9468226
belize,-0.8940693,-0.65596646,0.6074093,-1.4035426,0.4590639,-0.55601585,-0.26563448,1.0920169,-0.67544377,1.8307354,0.5763763,-0.82060057,1.6003437,1.447712,-0.4060607,1.4848512
morocco,-0.9436532,-0.61869264,-0.09114432,-1.1476352,0.40203816,-0.6381569,0.1895996,0.22790298,-0.39494458,1.4166985,0.68721104,-0.8477938,1.6373005,0.63623744,1.3873721,0.9495194
falkland_islands,-1.1017073,-0.36698583,0.28941435,-0.7369921,-0.5151841,-0.5752255,-0.53028345,0.28256193,-0.3423294,1.9400829,0.43575364,-0.9113511,0.45434904,1.3284651,2.3412237,1.2414954
saint_vincent_and_the_grenadines,-0.76920515,-0.04189047,0.49251375,-1.6419469,0.6897239,-0.69628954,-0.38978586,0.38616052,-0.4324508,1.912398,0.24505644,-0.6040953,0.81087035,1.3776373,1.511364,1.0252129
brunei,-0.4355429,-0.4699344,0.8160353,-0.91830575,0.5282633,-0.7077396,-0.6083608,0.3092409,-0.47011882,1.7540079,0.7045689,-0.6413572,0.93514633,0.95528215,1.718041,0.98224205
iran,-0.3634002,-0.7985209,0.62614465,-0.63646585,0.18590395,-0.79338384,-0.40096396,-0.06884313,-0.3650532,0.71722317,0.58763844,-0.387813,1.6985545,0.8762747,0.97729945,0.3635719
indonesia,-0.9895583,-0.5169086,0.97005886,-0.87470686,0.6228188,-0.48945397,-0.4003299,-0.48487946,-0.268694,1.1751618,0.52505594,-0.55697554,1.198227,0.75511014,1.4344189,0.53425103
senegal,-0.5605374,-0.6939797,-0.31559947,-1.2105569,0.39397293,-0.70630145,-0.3000189,0.2956771,-0.11263216,1.2463261,1.516089,-0.1355134,0.8011351,0.50442505,1.5746688,1.3440003
central_america,-0.7667731,-0.27009922,0.5450597,-0.29082525,-0.0858866,-0.3839606,-0.7936324,0.4013133,-0.36680973,1.5211546,0.47481468,-0.98390317,0.095389,1.2399744,1.9350095,0.749852
equatorial_guinea,-0.7511313,-0.15110905,1.2222966,-1.3222518,0.2590693,-0.98823184,-1.7487537,0.032265075,-0.36660567,1.14292,0.2545739,-0.1583144,1.014029,0.6410528,2.130413,0.93829906
gibraltar,-0.41961098,-0.38034248,0.48438945,-0.51302695,0.39243132,0.05827834,0.121822715,0.72760624,-0.44879803,2.4512289,-0.08242506,-1.1246676,2.1793456,1.2699809,2.2564716,1.8622729
hungary,0.3484337,-0.48727152,1.618523,-1.3691332,0.7510581,-0.11934224,-0.49336854,0.30750737,-0.7749027,1.4597131,-0.47893715,-0.38003525,1.503926,0.8795153,1.0384631,0.9998228
poland,-0.65533435,-0.11731144,1.2405183,-1.2004265,0.033074845,-0.29456118,-0.39046064,0.24818322,-0.37052622,0.92273027,-0.38198274,-0.026274532,1.1223552,1.1470244,1.2676615,0.8365721
micronesia,-1.299416,-0.34522393,0.7283067,-0.8518846,1.5592924,-0.16223192,-0.6609909,-0.7716179,0.008660651,1.931973,0.39615208,-1.3101741,0.71482295,1.335058,2.03875,-0.3551258
eritrea,-0.8254709,-0.60419226,0.1906825,-0.9761461,0.29907623,-0.39738432,-0.3371608,0.43237323,-0.15219545,0.80623394,1.1555512,-0.7053227,1.6504757,1.1664814,1.4715997,0.751302
barbados,-1.2919809,-0.6534543,0.4743975,-1.3754139,-0.6725652,-0.60834825,-0.3583481,0.17996325,-0.29742265,1.9752965,0.22322513,-0.60212743,0.94983464,1.2908646,1.7336562,1.1482865
kiribati,-0.52916807,-0.42599404,0.7150164,0.51228297,0.28847507,-0.47231367,-0.5926405,0.14220239,-0.41471368,2.490817,0.34219348,-1.3744377,1.6788908,1.0732028,1.6413713,1.1878165
italy,-0.2753232,-0.34075075,1.8914125,-0.80326223,0.71782494,-0.37770817,-0.32971704,0.011337271,-0.4610445,1.3540587,-0.27347234,-0.46653056,1.1083202,1.0297931,1.0159569,0.6349875
new_zealand,-1.2497573,-0.7009187,0.16923535,-1.7461249,0.5444603,-0.7420964,-0.6039249,-1.2807206,-0.6101095,2.563115,0.26799414,-1.0222129,2.112913,1.8562492,1.8330171,-0.35032344
liechtenstein,-0.92078334,-0.30916044,0.91325605,-1.7821298,0.005639357,-0.82222325,0.11964868,0.46004418,-0.41086817,1.8466104,-0.49279475,-0.6677718,-0.009215773,1.1988506,1.8771139,1.1511736
guam,-1.1852987,-0.21725605,0.62311804,-1.5652186,-0.081545986,-0.34743807,-0.17287432,-0.05497846,-0.26489556,1.6300507,0.3128203,-0.7213312,1.3386612,1.5919876,1.0557945,1.3660581
venezuela,-0.81402516,-0.36155528,1.0202333,-1.4711591,0.46201882,-0.5880308,-0.11864147,0.057452396,-0.21565346,1.6788013,0.34760967,-0.19179623,1.3628583,0.935234,1.2718838,0.5001977
afghanistan,-0.69098204,-0.87900376,-0.3427352,-1.0341153,0.2555416,-0.34534624,-0.5262594,0.4254837,-0.31820744,0.93835235,0.6220191,-0.43742308,1.182411,0.7791061,1.1615351,0.79944
greece,-0.38875026,-0.58606696,0.7377038,-0.8345556,0.19675043,-1.376406,-0.775756,0.3484089,-0.9124905,0.4756862,0.04181879,-0.28171614,1.0199288,1.3078293,1.5179069,0.7636277
iraq,-0.3084135,-0.1762148,0.9425679,-1.243468,-0.52854997,-0.5641485,-0.8063451,0.1153534,-0.3926369,1.1366276,0.08136476,-0.5098209,0.67372066,0.6444475,2.0214164,0.76197624
republic_of_the_congo,-1.3266556,-0.7385466,0.7448725,-1.6185919,0.5005272,-0.465705,-0.0055720024,-0.14817645,-0.30278274,2.0382361,0.40244922,-0.7091046,0.15684092,0.9748506,0.12836184,0.47110063
mayotte,-0.41650456,-0.028309943,0.39504212,-0.8745814,0.63406444,-0.6618784,-0.4080199,0.25708476,-0.40258244,1.26314,0.9796228,-0.9745495,1.761977,1.4612598,1.9306395,1.1865116
qatar,-1.0326753,-0.71133053,0.49055916,-1.6072788,0.31347352,-0.4178137,-0.7418305,0.014012774,-0.37521195,1.6859047,0.22850566,-0.8902789,0.82898533,1.6385657,2.327984,0.006437148
british_virgin_islands,-1.315449,-0.46486834,0.61174166,-0.063100055,0.49325264,-0.69052935,-0.4366356,0.06978323,-0.30195367,1.9567866,0.22098933,-0.9689903,1.4394194,1.3064139,2.1298358,0.9389843
peru,-0.5741033,0.012167587,1.2919744,-1.1565313,0.605994,-0.3789138,-0.54961455,-0.26690188,-0.4459823,1.3680696,0.2834941,-0.27277616,1.0650698,0.9518164,1.0738713,0.7816354
austria,-0.65792596,-0.31415775,0.9478047,-0.50072587,0.44646353,-0.1989623,-0.43780833,0.29435766,-0.43982503,1.0456479,-0.5971501,-0.36929715,1.1286819,0.84098274,1.4089248,0.90850806
norway,-0.5760762,0.06886441,1.5330036,-1.8186543,0.3423722,-0.42148045,-0.44690406,0.31893894,-0.43957558,1.460536,0.0682791,-0.052497145,1.0559791,0.99840313,1.458759,0.9921416
saint_martin,-0.65821284,-0.48466146,0.5103692,-1.5355493,0.7302022,-0.3833009,-0.4510199,0.14675826,-0.22114502,1.4978489,0.75717956,-1.3621564,0.91958416,0.8100121,1.5874208,0.8317177
zambia,-0.64966816,-0.5164176,0.05001973,-0.83969235,0.0052105123,-0.2357065,-0.44428486,0.49782866,-0.29101032,1.2020019,1.1971292,-0.33070523,0.68400633,0.8254054,1.3064069,0.6214505
ecuador,-0.26046994,-0.71072936,0.56768006,-1.3981596,0.8210869,-0.28156576,-0.51216066,1.8702503,-0.45573854,2.22079,-0.019564688,-0.32865217,1.8762314,1.2261181,1.2712085,1.7769674
aruba,-1.4928601,-0.56374305,0.7455988,-1.6405004,0.063915156,-0.76774794,-0.3589163,-0.6256153,-0.43831563,1.384538,0.2806034,-0.6677405,1.1972088,1.6774393,1.2625718,0.3461906
mongolia,-1.3330384,-0.61994594,0.47397235,-1.8986495,-0.010206935,-0.65106183,0.4332826,0.5379115,-0.18570249,1.8171389,0.6393784,-0.29563755,1.2940665,1.4501876,1.4602168,0.91142505
taiwan,-0.19576736,-0.29536408,0.7020221,-1.5510108,0.9701254,-0.5065657,-0.2946072,0.44201577,-0.31251323,1.6418484,0.62393403,-0.4699593,1.8801928,1.2210231,1.7414967,1.4566315
costa_rica,-0.6972598,-1.1906112,0.60743296,-0.77784866,0.73895985,0.23853956,-0.5724382,0.31603944,-0.26964042,1.7471147,0.24520788,-0.6804069,1.3711411,1.0909559,1.2637165,1.2338623
french_guiana,-1.0320771,-0.07949554,0.5176628,-1.3714375,0.15365525,-0.49946985,-0.7273582,0.32656604,-0.2202842,1.2058386,0.35724813,-0.54831827,1.1986427,1.1034565,1.3097335,1.1376822
yemen,-0.8631309,-0.5846697,0.63712907,-0.95901793,0.4052777,-0.45412043,-0.5500919,0.36200795,-0.36295554,1.1314449,0.011530557,-0.58538496,1.144072,1.2520491,1.9849825,0.7738535
namibia,-0.06542338,-0.42896563,0.07667672,-1.8463508,-0.4665631,-0.69284046,-0.49020365,0.4472508,-0.3540105,1.490187,0.7744689,-0.66120845,1.3688807,0.58338845,1.3900995,1.0352082
hong_kong,-1.4457078,-0.5836877,0.7262204,-1.4654329,-0.63702595,-0.21419433,-0.66579884,0.56873333,-0.298285,1.7878919,0.8567013,-0.6210521,1.1641413,1.3560426,1.2264823,1.1296145
guadeloupe,0.0015383469,-0.5521377,0.6862503,-1.1018741,0.52851367,-0.7657738,-0.3619447,0.46166173,-0.587348,2.0696027,0.28482053,-0.8018482,1.6390553,1.4945053,1.372711,1.1368592
turkmenistan,-0.21163622,-0.8777742,0.41637108,-0.12454741,-0.38727883,-0.7816724,-0.73550093,0.19975491,-0.46016693,1.5706282,0.94230145,-0.9450598,1.2399012,0.5870632,1.9620253,0.8542298
paraguay,-0.6138778,-0.48143435,0.86650383,-1.0351162,0.18045712,-0.7451501,-1.6269531,-0.10306624,-0.23319261,0.9686455,0.1940597,-0.31177488,1.4255198,0.74488366,1.9514859,1.0013605
iceland,-0.9555903,-0.23837776,0.8144679,-1.5167519,0.6890904,-0.56676817,-0.38470766,0.34554207,-0.28269768,1.749802,-0.20999482,-0.5318758,1.0187714,1.3778013,2.1033547,0.8670038
azerbaijan,0.054303866,-0.926413,-0.43574643,-1.140925,0.5939171,-0.6669701,-0.7348425,0.1472293,-0.42630726,1.9557719,0.027749581,0.23697324,1.5468879,1.5794275,2.040072,0.5464404
india,-1.1354704,-0.42051092,-0.46022612,-1.1219037,0.5649351,-0.48581567,-0.42414218,0.35504523,-0.037515268,0.9745936,1.1502656,0.012241499,1.2941931,0.9729186,0.90180665,0.7570289
cameroon,-0.8385751,-0.35617736,0.8805009,-1.2230436,0.052463643,-0.63029987,-0.5155527,-0.8333775,-0.57441396,1.2268665,0.08777523,-0.29905316,0.3401364,0.79146904,1.5976794,0.61352324
Åland_islands,-0.47832218,0.15512401,1.0701418,-0.6948527,0.5116844,-0.68947715,-0.5936868,0.26478195,-0.368805,1.9702467,-0.1741319,-0.79862064,1.5750868,1.4060162,2.3125944,0.8306163
british_indian_ocean_territory,-0.89325297,-0.72630215,-0.11453152,-1.4934647,0.5029024,-0.7985875,-0.3902364,0.44608608,-0.28675255,1.5718181,0.9689237,-0.62427646,1.699721,1.1606709,1.8802558,1.1227582
croatia,-0.59568405,-0.5330359,0.9618047,-0.13902861,0.38261214,-0.3606013,-0.47871828,0.3452504,-1.1630033,1.2151797,-0.23500992,-0.63309735,0.7461074,1.3199545,1.6256572,0.94321954
ukraine,-0.30172458,0.2609438,0.469275,-1.4313039,0.50241077,-0.2998715,-0.5814146,0.20556585,-0.48204112,1.0486476,-0.56076723,-0.100602254,1.1962813,1.4284861,1.5533026,0.92538226
ethiopia,-1.2221218,-0.65770566,0.57792205,-0.39889935,-0.93914676,-0.21214873,-0.57857835,0.46692,-0.18909927,0.79038197,1.88567,-0.8128851,0.262399,1.1008534,1.7022457,1.173961
antigua_and_barbuda,-1.0692081,-1.0532304,-0.26938954,-1.6305188,0.32309452,-0.507556,-0.26902705,0.08504714,-0.41719192,2.2891195,0.28421888,-0.58627546,1.6163949,1.0394626,1.5473613,0.7045186
denmark,-3.1347375,0.003935188,0.7901556,-1.4179357,0.4500479,-0.46228692,-0.8044988,0.44300216,-0.20332162,1.5818173,-0.30247557,-0.47485983,2.0849988,0.81673837,0.9991874,0.9698273
saint_pierre_and_miquelon,-0.29951447,-0.33580333,0.5843482,-1.3774835,0.44306153,-0.72389936,-0.58715695,0.32472515,-0.34959596,1.5739119,0.24769364,-0.5571147,1.5882807,1.0899565,2.226717,1.1589795
honduras,-0.43027514,-0.4648836,0.017493274,-0.05141401,0.5769468,-0.53184813,-0.73385143,0.8833629,-0.6261462,1.6837896,0.6443143,-0.8433559,1.481598,0.80907524,1.5423805,1.1983414
eastern_asia,-1.33366,-0.47077328,0.3124649,-1.7046055,-0.3150934,-0.41650626,-0.4743356,0.51314515,0.03975051,1.5907589,0.6071941,0.05791646,0.35396534,1.0294785,1.5655882,0.5962134
sint_maarten,-1.3853574,-0.7812683,-0.9116552,1.0092708,2.1136887,-1.2072982,-0.80985856,0.5115309,-0.6096523,2.2186415,0.25354975,-0.47100112,2.2283337,1.2912394,2.988822,2.1509037
slovenia,-0.11048476,-0.51025563,1.059508,-1.0687121,0.6447309,-0.49673423,-0.61139464,-0.028190058,-0.6267498,1.2796108,-0.49106455,-0.6340697,0.9890074,1.1828562,1.6286069,0.7645012
marshall_islands,-1.4117302,-0.9900946,0.49603397,0.37787232,1.1422821,-0.9583146,-0.5191857,-0.45918673,-0.17190143,2.287913,0.25606468,-1.2470428,1.7444824,1.6091233,1.1366051,0.88309246
malaysia,0.063403144,-0.5151876,0.29651153,-0.5483088,0.91306955,-0.91056836,-0.59079915,0.5020287,-0.33427438,1.5410018,0.33944073,-0.6520515,1.6305962,0.94362986,1.710391,1.1962414
united_kingdom,-0.45852578,-0.42575127,0.93047786,-1.0973152,0.47010124,-1.6067107,-0.47471178,0.48131996,-0.34304446,1.5433872,-0.17369045,-0.2858405,1.2893841,0.80899674,1.6310954,1.1628555
andorra,-0.4429946,-1.2143383,-0.29032457,-1.5724132,0.4127773,-0.70197207,0.015882947,-0.17049885,-0.3555707,1.987487,0.052502558,-0.71825045,2.235629,0.9547801,1.8548393,0.85581106
kyrgyzstan,-0.9376823,-0.9791575,-0.58023155,-0.29376882,0.822832,-0.0258798,-0.75324976,-0.19752191,-0.2914499,1.593496,0.6909408,-0.8013768,1.7684456,1.3373992,1.7465315,0.5402103
australia_and_new_zealand,-0.5632777,-0.6064446,0.8696251,-0.550905,0.49643934,-0.37817127,-0.61345774,-0.32736295,-0.2759928,1.0774981,0.49276125,-0.62497383,0.51130855,1.3479658,2.16684,1.0046593
belarus,-1.4183874,-0.6256967,1.357884,-1.4267365,0.6179307,0.15001015,0.38242912,-0.19870947,-0.46759713,2.1137788,-0.42594805,-0.05684747,1.3201543,1.1141235,1.5764941,0.6868448
sri_lanka,-0.5573782,-0.6186159,0.5912857,-1.4495758,-0.14168611,-0.26909807,-0.75269926,0.14490218,-0.2226247,1.5547228,1.0836877,-0.680565,1.4049513,1.0789274,2.1179545,0.9475848
gambia,-1.1895709,-0.52597255,-0.2777405,-1.3503219,1.0591571,-0.39033827,-0.45741585,0.2057041,-0.35424593,1.5765485,1.2292608,-0.4559788,1.8105087,0.929147,1.4622021,1.1478463
tunisia,-0.95030975,-0.577837,-0.6266514,-0.37735137,0.41656497,-0.78038585,-1.0793072,0.05494765,-0.35242683,1.8205211,1.1386086,-1.4069142,1.1106008,0.8114812,2.19095,0.5885748
latvia,-0.35591188,0.7104175,0.8391775,-1.4745721,0.66703624,-0.62096614,-0.47230586,0.36483535,-0.48904938,1.5786628,-0.43634745,-0.17811918,1.5560017,1.3447402,1.9024004,1.0309399
algeria,-0.70184743,-0.42245737,-0.49785063,-0.7214929,0.5016551,-0.8080554,-0.42139006,0.27052882,-0.43210027,1.0683231,1.5160758,-0.7829109,0.8173736,0.1994984,1.0708162,1.0717554
western_asia,-1.3414955,-0.3943486,0.81850076,-0.95166445,0.29623622,-0.33414346,-0.3516801,0.20411377,-0.2906413,0.9687426,0.2194575,-0.24263206,0.47776765,0.63768256,0.8194014,0.61943245
niue,-1.1824642,-0.3680665,0.9968891,-1.4291347,-0.41283566,-0.464982,-0.40476665,0.3048769,-0.3408105,1.9803196,0.21539496,-0.5799739,0.2780551,1.4795041,2.0164337,0.9999343
macedonia,0.43046364,-0.82174754,0.58536553,-1.5057881,0.3380778,-0.30054396,-0.6720278,0.41321647,-1.1614361,1.0794643,-0.268747,-0.4840526,1.776011,0.89773035,1.4418817,0.9974884
czechia,-0.73731565,-0.36648083,1.0623451,-1.2040172,0.3690191,-0.49688292,-0.9183174,0.4365134,-0.38148293,1.1806645,-0.48899114,-0.37121928,1.2355331,0.84839654,1.3098695,0.95932454
bangladesh,-1.0575083,-0.47040358,0.047485154,-1.5115987,0.23435861,-0.43675214,-0.54475415,0.6892483,-0.11348754,1.2815499,1.5361241,-0.36454725,1.1989291,0.7725546,1.7415264,1.3847979
mexico,-0.43815964,-0.8781759,-0.07882288,-0.58716315,0.089542545,-0.20848414,-0.4867693,0.47185275,-0.5722794,1.4943044,0.36204103,-0.792833,1.4651704,1.0928521,1.9257036,0.98106605
saint_lucia,-1.0599673,-0.4687123,0.4447686,-1.5929123,0.64722407,0.1502954,-0.32235083,-0.48057684,-0.37789816,2.0905817,0.17255914,-0.69781226,1.6891704,1.4406935,1.9114149,0.9071556
bhutan,-0.85313445,-0.49012193,0.29540738,-1.6150513,0.5875931,-0.2063308,-0.6592873,0.10754086,-0.12419276,1.6621343,1.2435415,-0.31196967,1.1618114,0.9886657,1.4833313,0.7884223
gabon,0.11819984,-0.7246154,0.88470095,-1.4837337,1.0204129,-0.6377295,0.04042294,0.7871148,-0.3231448,1.5098655,0.0886509,-0.2528556,2.17716,0.6875387,1.3051158,1.830129
palau,-1.505822,-0.21823055,0.5207335,0.14322026,0.8733858,-0.38124985,-0.34505332,0.3203492,-0.19200577,1.9070631,0.27023956,-0.92810637,1.3628329,1.4772654,1.8311839,1.4921849
oman,-0.6685149,-0.67254055,1.0531545,-0.8659937,0.3772776,-0.3980972,-0.22449581,0.43806756,-0.28239402,1.365613,0.13806874,-0.63288593,1.0635576,1.1315289,1.0999669,0.90325904
cayman_islands,-1.2011566,-0.44860193,0.53012156,0.06679949,0.6761787,-0.84892976,-0.5064241,0.17836906,-0.42453143,1.1282594,0.28567335,-1.0854366,1.7112504,1.4249164,2.1087756,1.1593363
moldova,-0.33665365,-0.68170714,0.8260058,-1.5627512,0.7758454,-0.2984869,-0.5118595,0.25019357,-0.63407445,1.7059749,-0.22725011,-0.1765995,2.0227113,1.0141188,0.86247915,1.1123346
myanmar,-0.5959656,-0.53271186,-0.7023645,-1.4616032,0.6297082,-0.82083666,-0.60845715,-0.40744144,-0.15316705,1.5059336,1.1391218,-0.25998092,1.5633248,1.2986748,2.0312777,0.5640876
faroe_islands,0.053568974,-0.38865858,0.36052048,-1.7541997,-0.1313026,-0.70674443,-0.6526193,-1.0071096,-0.6706431,2.377898,-0.18767741,-0.787547,1.6525885,1.8451571,2.8872914,0.6514094
christmas_island,-1.2684749,-0.37170157,0.9251289,-0.9314809,-0.3519488,-0.45197904,-0.36994636,0.2578947,-0.34562173,1.5336304,0.26176524,-0.9252451,1.0626714,1.3619335,1.8324846,0.9751966
vatican_city,-0.91666955,0.18124266,-0.38948214,-1.4761182,0.28349867,-0.57411915,-0.7940076,0.28853005,-0.61608535,1.7160217,-0.19837,-0.77069,1.3464899,1.1571332,2.4290419,1.2673279
ghana,-0.43060043,-0.27388364,0.3255747,-1.3980995,0.7142628,-0.23917212,-0.47118878,0.12730072,-0.2280361,1.3037903,1.1391004,-0.5906831,1.6216623,0.51868045,1.5323641,1.168556
finland,-0.00567626,-0.45149162,1.0718904,-1.6063324,0.818934,-0.5997558,-0.67232037,-0.2404745,-0.4388638,1.7530804,-0.045909528,-0.18317416,1.402489,1.2854375,1.839688,0.29373083
togo,-0.37010592,-0.31929913,0.88661164,-0.53415006,0.38022074,-0.7356106,-0.4820244,0.20712966,-0.27722168,1.0593697,1.3091596,-0.6703379,1.5816592,0.7749717,1.7090454,0.9803896
mali,-0.4419642,-0.64906675,-0.19830064,-0.76747847,0.70522934,-1.1287286,-0.6265348,-0.03525342,-0.3375055,0.98284477,1.989988,-0.31115016,1.3153818,-0.02343868,1.6027591,1.1721458
northern_europe,-1.357296,-0.14052483,1.8482423,-1.0568244,0.2762365,-0.38959515,-0.25988677,1.0916597,-0.09197372,1.5193188,-0.070789285,-0.1305221,0.35428473,0.41122684,0.83890736,0.8209501
guinea,-0.82554966,-1.3768187,-0.23293471,-1.2863331,0.7616099,-1.2255695,0.25788906,0.10366248,-0.06303332,0.887236,1.5328909,-0.04148987,1.1949799,0.64331025,1.0282986,1.5340366
kuwait,-1.3050554,-0.9095926,0.7859094,-1.0822285,-0.44598594,-0.91898763,-0.30634913,-0.9242611,-0.44278112,2.4963832,0.23489626,-0.7750783,1.6798776,1.4731725,0.3311138,0.2431128
nicaragua,-0.9805643,-0.4206841,0.42439008,-1.1807348,-0.066182844,-0.45585197,-0.52827924,0.46694806,-0.35597518,1.299985,0.42262363,-0.98231614,0.82675153,1.2200931,1.1961663,0.882315
mauritania,-1.1590478,-0.6114845,-0.40650553,-1.5347575,0.8702655,-1.152793,-0.6435284,-1.2566984,-0.45913613,1.1671349,1.7053648,-0.6215818,1.6184685,0.6170121,1.9113328,0.11653394
netherlands,-0.8919214,-0.21225457,0.80305284,-1.4463019,1.4154248,-0.7226882,0.12561558,-0.0071795895,-0.12042753,1.6329856,-0.15662044,-0.5737635,2.133999,0.81969523,1.282897,1.0158064
swaziland,-0.21406245,-0.67395574,0.031583205,-1.4317434,0.3442704,-0.27009603,-0.5147181,-0.120184265,-0.37643266,1.5510445,0.7112095,-0.7136055,1.8765731,0.752277,1.9750249,0.7888426
wallis_and_futuna,-0.5630707,-0.38145107,0.22092104,-1.5854282,0.455034,0.104407266,-0.25420743,0.3432915,-0.34563977,2.0401268,0.24243987,-0.6625703,1.5583875,1.6448064,1.9772996,0.93659025
ireland,-0.57132655,-0.50303096,1.0002911,-1.6583843,0.49061888,-0.82568926,-1.257633,0.056311738,-0.38626537,1.6460632,-0.07117578,-0.675095,1.444412,0.51461357,1.8290223,0.6999431
france,-0.5254954,-0.30584243,0.8575749,-0.6258183,-0.6574149,-0.4855486,-0.47560677,0.29554394,-0.09465704,1.1590663,-0.369527,-0.7134755,0.6550592,0.7208329,1.3893254,1.0777829
seychelles,-1.1487687,-0.521953,0.48880774,-0.014254345,0.04997094,-0.41684943,-0.019522294,0.27417877,-0.30827296,2.107377,1.008815,-1.2359987,1.1754662,1.4797806,1.8639716,1.2464433
eastern_africa,-1.2559123,-0.4346509,-0.1460177,-0.24112438,0.62811965,-0.14748737,-0.35567555,0.3442801,-0.0061952765,1.1526654,0.89499104,-0.5165069,0.33027017,0.87251616,1.3481098,0.41788653
monaco,-1.328958,-0.49602857,0.6085561,-1.2771186,0.09513088,-0.5725826,-0.5960907,-0.22531489,-0.24477822,1.4275073,0.130833,-0.746084,1.6565374,1.0019462,1.9281307,0.6524236
caribbean,-0.13982058,-0.15892401,0.858091,-0.96459085,0.5806712,-0.35199687,-0.15373524,0.42131284,-0.069404684,0.9303617,0.5507069,-0.39749226,0.5629184,0.29175818,1.2816249,0.42380086
united_arab_emirates,-0.60284215,-0.7140632,0.97184116,-0.80777466,0.4665194,-0.48481005,-0.96106064,0.08928864,-0.37201855,0.81189275,0.025498692,-0.68279314,1.276957,1.2132955,2.2651472,0.6621678
jamaica,-1.2680776,-0.3505935,0.50803465,-1.2636697,0.36712638,-0.7160801,-0.2303172,0.24282934,-0.32306972,1.4820328,0.1731179,-0.5447544,1.3685198,1.2289367,2.0797503,1.117698
macau,-0.9112764,-0.037293546,0.36887142,-1.9526087,-0.33218178,-0.78154266,-0.6703556,0.5447582,-0.3863425,1.5077333,0.8251062,-0.8094146,-0.0815796,1.3695562,2.4121745,1.3314339
palestine,-0.22502401,-0.47201082,0.76345724,-1.2345829,0.3767963,-0.29444605,-0.51091075,0.25930876,-0.38302088,1.574353,0.8431846,-0.509185,1.4707558,0.67494327,1.8612955,0.9735349
israel,-0.8644833,-0.4785891,-0.57113475,-0.8758071,0.4176745,-0.45091084,-0.51225495,0.35823536,-0.48669022,1.4678018,0.48659375,-0.543964,1.1699771,0.86545104,1.3074042,0.8698372
puerto_rico,-1.4893683,-0.46365857,0.49178997,-1.7951353,0.5231824,-0.84852016,0.715564,0.34801796,-0.38229012,1.3908334,0.18615852,-0.7555942,1.7392024,1.2550582,1.592269,1.3180931
thailand,-0.89909273,-0.41081452,0.58749086,-0.99512076,-0.00095333817,-0.45468286,-0.41961744,0.4657254,-0.29118282,1.2379009,1.0347973,-0.47386265,0.7891019,0.62337005,1.0603496,1.0895016
eastern_europe,-0.91898715,-0.47408375,1.75639,-1.3142821,0.4412247,-0.18390204,-0.5473862,-0.35927385,-0.30875954,1.1925452,-0.054494925,-0.19758052,0.50593567,1.2297065,1.464654,0.24948892
cocos_keeling_islands,-0.77439106,-0.36114195,0.8216787,-1.2225044,0.43247384,-0.31580207,-0.22342406,0.1866692,-0.30999783,1.8357116,0.23772518,-0.820881,1.5784266,1.1820242,1.7788287,0.65321237
lesotho,-1.0923277,-0.7950169,-0.032895282,-1.1336172,0.41269982,-0.7612974,-0.41285586,-0.53675526,-0.44621724,1.5819643,0.53031737,-0.74629015,2.0671191,0.96391267,1.8690645,0.53555316
botswana,-1.1571465,-0.44583318,0.19259802,-1.0073887,0.5064177,-0.8831346,-0.6971724,0.0071989056,-0.73244876,1.045162,0.9786417,-0.4953929,1.5466229,0.9046692,1.2625271,-0.22201133
el_salvador,-0.6648388,-0.25150114,0.019762442,-1.0656494,0.7270111,-1.180373,-0.51390237,0.3257311,-0.74446404,0.83621746,0.43324375,-0.97192067,1.3957794,1.0601288,1.3819227,0.96162814
southern_africa,-1.6259043,-0.8766084,0.58410454,0.21453841,-1.9134152,-0.71962863,-0.73762274,0.5392003,-0.36965007,2.165129,0.8773488,-1.2910633,-0.18688379,0.9508898,2.6647255,1.4525987
jersey,-1.2599027,-0.6814228,1.2593875,-0.2798213,0.101910405,0.706258,-0.76555115,0.60116845,-0.3876762,2.1562448,-0.20061673,-1.1567512,1.1464661,2.0764027,2.7566512,1.4644982
samoa,-0.91774994,-0.27980632,0.16034576,-1.4994172,0.3230645,-0.4621824,-0.3005895,1.1586918,-0.37068838,1.9663898,0.24637184,-0.57078075,1.5389273,1.458333,1.9131311,1.0911103
dominica,-0.59675103,-0.6739542,1.3256927,-1.6434498,0.31649894,0.10697123,0.5444374,0.325914,-0.4684585,2.442612,0.21599822,-0.9678979,1.1759717,1.7496234,1.573933,1.3811281
brazil,-0.5975212,-0.29997978,-0.017666727,-1.0645055,0.55408764,-0.33912796,-0.24664782,0.16382465,-0.2398454,0.93093497,0.03445314,-0.1533405,1.241733,0.82985574,1.0115452,0.97374284
cambodia,-0.6441428,-0.2657016,0.8186522,-0.024062676,0.54237324,-0.6168709,-1.0532258,-0.3560684,-0.32046708,1.0946021,0.9277064,-0.545128,1.9740329,0.9898969,2.4576056,0.46900523
angola,-0.8042571,-0.12506609,0.4070964,-0.39421114,0.58485895,-0.9754744,-0.5322693,0.23519959,-0.2341847,0.915853,1.1032485,-0.33963284,1.7644103,0.52453715,1.9460083,0.9147797
uzbekistan,-0.12866274,-0.68923104,-0.056177482,-0.723655,0.15928662,-0.6374707,-0.7760109,0.9888816,-0.3403302,0.8691908,0.7730471,-0.7512381,1.2519387,1.1970011,1.2917575,1.1334122
mozambique,-1.2687812,-0.44602528,0.06250901,-0.9029127,-0.6879906,-0.5035243,-0.34281272,0.29543388,-0.4645624,0.8474135,0.97723365,-0.2745833,0.75322133,1.2554651,1.2951895,0.8462509
haiti,-0.76253355,-0.5333024,0.817646,-1.019427,-0.46841857,-0.648238,-0.58107513,0.31984022,-0.3413114,1.6189371,0.51086515,-0.571368,1.1392103,0.7661252,1.7320178,1.672475
melanesia,-1.5004659,-1.0420142,0.8699483,-0.9199329,0.8154612,0.012657203,-0.5045538,0.42811525,-0.35909823,1.5607327,0.69971126,-0.51845276,0.5574235,1.3688658,0.96382314,0.83346975
são_tomé_and_príncipe,-0.9946536,-0.24859561,0.35654125,-1.7502229,0.6732833,-0.9118333,-0.76710856,-1.5740671,-0.51598346,1.9118887,0.95068604,-1.010321,2.103683,1.8393792,1.9457674,0.339518
martinique,-1.0951098,0.011240145,0.09811141,-1.5994197,0.44351122,-0.6649169,-0.5221143,-0.3209745,-0.40485653,1.9639795,0.25482884,-0.5430443,1.4875059,1.3216076,1.6232141,0.9570174
papua_new_guinea,-1.0090127,-0.7009415,0.42582738,-1.3872457,0.6194404,-0.5215136,0.33520246,0.37525415,-0.11274846,1.561342,0.14281741,-0.5331788,1.4833894,1.3777952,1.7158321,1.2506522
cape_verde,-1.4542613,0.32973644,0.35624003,-0.4294574,0.6101767,-0.7759269,-1.0161679,0.12558894,-0.2111178,1.017825,1.0171393,-0.8089621,1.7351847,1.264336,2.361196,1.227487
tonga,-1.5011876,-0.35232288,0.4567113,-0.9269862,0.34565267,-0.7495964,0.95899963,0.5001043,-0.37682554,1.928678,0.25055775,-0.9935152,1.3001754,1.4749357,2.2323065,1.1581137
chile,0.015773462,0.034491852,0.46477264,-1.334528,0.1914047,-0.5838567,-2.0421069,-0.00068897975,-0.38406152,1.2879044,-0.051477373,-0.4340392,1.6042216,0.9219452,2.533081,1.2236868
canada,-0.7888327,-0.2500074,0.011938282,-1.3825927,0.3077952,-0.5992179,-0.49244776,0.34575766,-0.3313614,1.5470414,0.4315457,-0.8824473,1.8666464,0.9509942,1.7048283,1.0228934
grenada,-1.1728822,-1.0581812,0.006364844,-1.3966305,0.39086518,-1.1751795,-0.23483993,0.276197,-0.383075,1.9182172,0.23017001,-0.6477914,1.4534751,0.33494425,2.1247187,1.081603
kazakhstan,-1.0221828,-0.53823006,0.28485134,-0.5786154,0.30111843,-0.5940371,-0.2536073,0.6035538,-0.2719918,1.0459553,1.0503554,-0.7327685,1.1612136,0.9871507,1.0036501,0.9116589
djibouti,-0.12130334,-0.6460359,0.0877996,-0.967929,0.334269,-0.34652603,-0.40961844,1.1037935,-0.33291295,1.5658607,1.2111585,-0.746451,2.2493157,1.1607633,1.5897652,1.1868671
united_states,-0.9123404,-0.33697474,0.60614234,-0.2044877,-0.1621683,-0.7110787,-0.66245097,0.34634444,-0.3305458,0.82520485,0.6426126,-0.70800436,1.1067686,1.170994,2.3049827,1.2230537
saint_barthélemy,-0.47350112,-0.23010443,-0.3252722,-0.6667714,0.5764707,-0.6750538,-0.36924186,0.55213755,-0.52621067,2.019278,0.28909963,-0.87732214,1.4751124,1.4530883,2.148203,1.4453663
central_europe,-1.3189833,-0.6531241,1.2503831,-1.7336323,-0.28704023,-0.4646839,-0.7193433,0.20039815,-0.3792345,0.9474242,0.097917445,-1.0301931,0.14790826,1.7216848,2.3107057,1.0449879
guinea-bissau,-1.8885212,-0.8626758,0.27168068,-1.2954108,0.5056496,-0.41454703,-0.5559902,-0.41868716,-0.09948547,1.1895679,1.3700703,-0.3469355,1.4649869,0.63140565,2.3775566,0.6274421
south_africa,-0.028349757,-0.4801278,0.20196112,-1.0334526,0.036910057,-0.552624,-0.12596793,0.2705036,-0.5240153,1.3251886,0.91875905,-0.31484967,1.0978568,0.65573674,1.3333976,1.0538341
cyprus,-0.9346204,-0.014269755,1.1363312,-1.7927907,0.47036418,-0.7392472,-0.39880303,-0.20998262,-0.40822428,1.6680156,-0.17089267,-0.5752706,1.5948541,0.6182155,1.9399294,0.7095327
tuvalu,-0.6376744,-0.42869443,0.55061674,-1.7458022,-0.5412653,-0.40510505,-0.4532975,-0.49273995,-0.42849216,2.3500106,0.3544327,-0.66105163,0.48300165,1.727256,2.2600324,0.831639
zimbabwe,0.5702852,-0.24585542,0.27492058,-1.5425067,0.54822224,-0.54013014,-0.6318263,0.45699382,-0.51002854,1.377609,1.1063305,-0.49147558,1.8695353,0.9067112,1.8170546,1.4315308
bolivia,-1.0009036,-0.52659005,0.8036731,-0.96012044,0.5410093,-0.5183374,-0.6145425,-1.084213,-0.4776702,1.7708105,0.052412536,-0.44904536,1.7568057,0.93221235,1.3000027,-0.16835369
russia,-0.5952005,-0.1873839,0.6100152,-1.0583621,0.28547806,-0.06548912,-0.17866455,0.2682872,-0.29470292,1.0499773,-0.21386448,0.18397312,0.64381796,0.7729878,1.2784269,0.85843897
luxembourg,-1.1122046,0.25867856,1.7928852,0.14965345,0.3937625,-0.8510141,-0.7613563,0.43259937,-0.024090406,0.6932835,-0.050356023,-1.5379823,2.1359076,1.0135922,1.4556947,1.3039049
nigeria,0.6092983,-0.59287405,0.27696928,-1.317035,0.57202995,-0.76046044,-0.7730607,0.2292,-0.81788296,1.5180802,0.8605118,-0.37247634,1.7300903,0.79938394,1.583138,1.225363
nepal,-1.1292086,-0.8019671,0.34176552,-1.5191408,-0.6507681,-0.4370128,-0.4035904,0.6974288,-0.050764546,1.8825725,1.2576741,-0.4211482,0.94005436,1.0618784,1.7230873,1.0916849
benin,-0.80205256,-0.4859201,-0.47470963,-0.9458025,0.46071002,-0.64581203,-0.8764953,0.09456679,-0.72396904,1.4488015,0.8825359,-0.5226684,1.4033018,0.27878523,1.3057077,0.83300495
belgium,-2.2177122,-0.32659194,0.04340658,0.017035853,0.1370767,-0.64455044,-0.8034437,0.21877232,-0.10803957,1.484102,-0.2554245,-0.8896224,1.286803,0.53756934,1.66778,0.75553024
montenegro,-0.42088816,-0.53639364,0.8127365,-0.6184024,0.32439896,-0.26158667,-0.48843098,0.2745699,-0.9241273,0.78723085,-0.1484812,-0.7035131,1.4870994,1.1966178,1.2378898,0.78883785
estonia,-0.48899925,0.4065482,1.3122174,-2.161612,0.57767624,-0.8771556,0.3559245,0.4690672,-0.5080518,1.9968104,-0.23531109,-0.60865295,1.389706,1.0387299,1.7867432,1.3160219
south_korea,-1.3102083,-0.4643042,0.47285917,-1.3827666,0.30803242,-0.74934226,-0.80889004,0.2807386,-0.029874858,1.5011287,0.48587853,-0.013882147,1.1797235,0.7225573,2.026026,0.93944365
norfolk_island,-0.5949955,-0.37476486,-0.13994622,-2.1843848,-0.071005866,-0.45826763,-0.22749388,-0.101018794,-0.3753895,1.9826932,0.25766316,-0.5673229,1.3582186,1.3437505,1.7488335,0.8121321
singapore,-1.4501848,-0.8496443,0.675532,-1.5206316,0.6987497,-0.9868732,-0.75345886,-1.0220313,-0.34972596,1.5913273,0.7488352,-1.2618898,2.4205608,1.919677,-0.25446656,0.78682977
bermuda,-1.2216206,-0.43500054,0.574065,-1.1181018,-0.91489017,-0.64099634,-1.0384912,0.047277182,-0.27389202,1.8545903,0.26214293,-0.8756551,0.51524895,1.257736,2.234304,1.1489987
dr_congo,-0.8499259,-0.44941893,-1.170821,-0.4838708,0.4603062,-0.44038707,-0.52860814,0.7444768,-0.15774159,1.1938691,0.8184986,-0.59503955,0.7991255,1.0128868,1.1499138,1.3725774
isle_of_man,-1.2526404,-0.39307952,0.7542409,-1.09444,0.2581407,-0.736212,-0.493107,0.026833251,-0.19337483,2.0729623,-0.17806894,-0.7589314,-0.031835258,1.4525591,2.0968864,0.93880427
vietnam,0.39099395,-0.6533483,0.18394601,-1.7342368,-0.2204984,-0.65544534,-0.64818525,0.85447264,-0.5580161,1.7258954,0.9251686,-0.6383677,0.7439035,1.5700461,1.2801902,1.5897
burkina_faso,-1.2290242,0.33671924,-0.12830496,-0.6053204,-0.97647685,-1.1834036,0.028256923,0.3591011,-0.5074819,2.0317726,1.7243226,-0.90647566,0.07617218,0.36732128,1.9694817,1.6096224
guyana,-0.7950821,-0.28902096,0.49866596,-1.1034029,0.12209087,-0.41860798,-0.43162414,0.35401863,-0.14409693,1.6860584,0.23681164,-0.17209756,1.0171251,0.7362799,1.951325,1.2047317
uganda,-0.3368479,-0.6154976,0.021054957,-1.1169826,0.55998343,-0.17505948,-0.53976613,0.29329598,-0.1831195,1.4104897,1.7566857,-0.75072587,1.2509098,1.0487629,1.0560504,1.0794462
uruguay,-1.0739276,-0.3134977,-0.10473195,-0.5880962,0.48463237,-0.15311366,-0.5786538,0.26297745,-0.27428725,1.3376287,0.25872308,-0.69572884,2.0610352,1.069206,2.4389007,1.1189371
ivory_coast,-1.0692906,-0.8651172,-0.60084665,-1.2348948,0.49973953,-0.86524224,-0.4542768,-0.9312506,-0.3616315,1.2216994,1.3542924,-0.22843823,1.9536769,0.5830474,1.8263395,0.18887249
bosnia_and_herzegovina,0.3392469,-0.4303942,0.64961284,-1.4291563,0.34255773,-0.17342618,-0.7217504,0.41521114,-0.98226935,1.4691689,0.042071898,-1.1794676,0.70280623,1.314123,2.2657034,1.3796663
solomon_islands,0.0018177244,-0.4329393,-0.21548398,-1.3874295,0.8303211,-0.41328037,-0.6333769,0.3266233,-0.38042837,1.747959,0.258233,-0.69311905,1.8660333,1.7611067,2.0343904,0.97623825
germany,0.2147282,-0.24540107,1.183124,-1.158803,-0.75760525,-0.60058683,-0.7007735,0.2035386,0.04024286,1.7559638,-0.41940993,-0.59120804,0.6369652,0.8022751,1.6778814,0.86731106
philippines,-0.91988015,-0.18581195,0.8655489,-0.9637947,0.59913784,-0.62179625,-0.42952564,0.39308757,-0.11503207,1.4242177,0.62808496,-0.5633196,1.6408038,1.2079753,1.7564006,0.8944617
serbia,-0.052554797,-0.5402136,1.3396215,-0.62843424,0.25835258,-0.20343393,-0.41862568,0.32477716,-1.2767781,0.71481144,-0.27042252,-0.45571116,1.3252482,1.1925803,1.0951475,0.62026346
timor-leste,-0.8995161,-0.6052063,0.47527367,-1.4349475,0.43828812,-0.70716083,-0.60379803,0.2549638,-0.17659375,1.8038,0.38058174,-0.6633476,0.6916503,1.1931139,1.4355998,1.1168866
lithuania,0.34289682,-0.46135432,1.5404307,-1.7253416,0.43982467,-0.43611777,-0.5093207,0.318033,-0.44229612,1.9574009,-0.30606067,-0.37702814,0.6849701,0.8778967,1.9805199,1.1122918
kenya,-1.0580677,-0.54872376,-1.2136623,-1.0663689,0.77468455,-0.39369938,-0.5744963,-0.11117944,-0.23620272,1.3951024,1.1216663,-0.69866025,1.94749,1.3043116,1.3849142,0.98982435
albania,-0.12616299,-0.6820134,0.9402646,-1.0790856,0.19890103,-0.27471882,-0.95687497,0.39970177,-0.84771186,0.8974731,-0.09802187,-0.74643934,1.3063349,0.8214187,1.4415056,0.85423434
comoros,-1.3333545,0.10367016,0.33217335,-1.6063243,0.6693508,-0.6258544,-0.39291817,0.21909901,-0.23325261,1.1470586,1.0036217,-0.7826356,1.6522114,1.3030274,1.6368564,0.7132718
western_sahara,-0.41279784,-0.5769581,0.1837372,-0.43314955,0.3494423,-0.7007673,-0.5523845,0.26716733,-0.23186253,1.564647,1.4382436,-0.6554398,1.2391317,0.56889534,1.8599334,1.5431671
australia,-0.46984425,-0.4425947,0.26420704,-1.3259249,0.92503107,-0.37315613,-0.25143388,0.20322514,-0.46815836,1.9080057,0.27228713,-0.90874904,1.3419054,1.4210196,1.7823291,0.82942045
china,-0.42109707,-0.45272437,-0.20900093,-0.90670794,0.22012247,-0.10901132,-0.42283574,0.34086585,-0.057532497,0.61696196,0.9134136,0.17159274,1.2782271,0.87494785,1.1950014,0.66499114
argentina,-0.84770197,-1.2398754,1.1434923,-1.1858133,-1.4687784,-0.6772005,-0.22596626,0.15846945,-0.2711591,1.6425004,0.25483343,-0.46288893,0.68080044,0.72661316,0.88247955,1.4128604
suriname,-1.0125743,0.47755867,0.94844157,-1.3010727,0.23777905,-0.5584296,-0.61519504,0.32916188,-0.12535428,1.665943,0.59036976,-0.3395387,1.3182328,0.93246263,1.4226525,0.8979951
central_asia,-0.92511064,-0.55127656,0.16395998,-1.424814,0.022653077,-0.31060687,-0.62797445,0.37702346,-0.28646976,1.456602,0.664698,-0.9911384,0.23897931,1.1809151,1.6552868,0.6274631
kosovo,-0.3824892,-1.9418328,1.0517534,-0.32363886,-0.32158887,-0.30444184,-0.5882752,0.7623388,-1.0593612,1.8116822,-0.28634113,-0.6340108,1.0287069,1.4146485,1.2877922,1.2482233
northern_america,-1.2850314,-0.9920989,0.79716074,-1.2636334,0.12942073,-0.5294535,-0.2498221,0.43552232,-0.08796563,1.7592865,0.50289124,-0.4485712,0.23256774,0.8530862,1.1219742,0.5487598
mauritius,-1.2674458,-0.44826758,0.33874175,-1.5268661,0.2826937,-0.13615938,-0.377507,0.15260543,-0.15184188,1.847869,0.9605228,-0.8548441,1.4942232,1.3649777,1.3339424,0.97743493
lebanon,0.06219687,-0.53747505,0.56658936,-0.99530506,0.49900368,-0.11747621,-0.6529942,0.39193696,-0.48039123,1.860426,0.7120793,-0.69846433,1.5668685,0.7874298,2.2257617,1.1185709
sweden,-0.8034372,-0.3798556,-0.4957018,-1.5360458,0.606043,-0.56105155,-0.6053432,-0.035542108,-0.70024943,1.30973,-0.16929305,-0.33967814,1.6163367,1.1981946,1.7091193,1.1346647
switzerland,-0.6792404,-0.055557843,1.744588,-0.7452413,0.531254,-0.5093791,-0.33727118,0.1430006,-0.32426825,1.0115594,-0.3277146,-0.40120673,2.044568,0.739573,1.5063498,0.8392504
northern_mariana_islands,-1.2261049,-0.3986342,-0.6393312,-0.9302995,-0.33266357,-0.4492933,-0.26407367,0.18050559,-0.26265976,2.3298733,0.3380775,-1.0691592,1.2029523,1.7595567,1.1449705,0.97844553
south_america,-0.6507919,-0.3407848,0.85178226,-1.3773786,0.10790142,-0.43587777,-0.40527073,0.05515446,-0.114934266,1.4155754,0.24783725,-0.20691665,0.22732869,0.91892457,0.87156826,0.5743302
svalbard_and_jan_mayen,-1.1449019,-0.22567075,0.7528096,-0.43074176,0.4056956,-0.62525403,-0.45745575,0.7210802,-0.19643798,1.5731093,-0.19906662,-0.76883847,1.6143212,1.3528757,2.2018147,1.2208525
guatemala,0.11745351,-0.5802504,0.46730074,-0.9893851,0.5198497,-0.1982813,-0.73186266,0.20182149,-0.604304,1.5240833,0.7842571,-0.8226911,1.2185634,0.9106713,1.6917502,0.44199574
malta,-0.76310134,0.39299318,0.66696084,-1.784659,0.7147728,-0.8926922,-1.2446979,-1.1859812,-0.38210502,1.2126371,-0.1536208,-1.0738052,1.913607,1.8695859,3.0732467,0.51789415
bulgaria,-0.24952634,-0.5293112,0.26754948,-1.1705688,0.22780433,-0.39994314,-0.4519633,0.30525705,-1.0226629,1.3443944,-0.25514686,-0.40097883,1.5316349,0.66941905,1.2981796,0.9344019
japan,-1.2135985,-0.44569805,-0.630012,-1.7774475,0.5938319,-0.23073967,-0.051622916,0.42149878,-0.23270285,1.7732064,0.679304,-0.46869966,1.7893841,1.0441012,1.6265575,1.1351167
french_polynesia,-1.3334817,-0.4746772,-0.13052525,-1.5734348,0.012652423,-0.5277507,-0.41729984,-0.77308327,-0.2902986,2.042088,0.26201105,-0.7298463,1.1073,1.6549048,2.0715528,0.34367633
rwanda,-1.5926431,-0.5109322,-0.1446637,-0.68984866,0.24551773,-0.296532,-0.5014945,0.23978402,-0.12644617,1.1639766,1.3701138,-0.5924015,0.9378356,1.2030754,1.5648338,0.74453366
syria,-0.652162,-0.25113016,0.8522215,-0.9079018,0.3446019,-1.4236684,-0.38936034,-0.02572541,-0.53455615,0.8282672,0.3725749,-0.365477,1.2277325,0.90655345,1.1728712,0.759635
south_georgia,-1.1985778,-0.5821222,0.41494778,-1.6553704,0.269666,-0.7005987,-0.3868124,-0.9377132,-0.39504412,2.3790414,0.23970756,-0.7837487,1.4215709,1.0832107,2.1321383,0.09358504
central_african_republic,-0.5706889,-0.39252564,0.6195019,-0.61360383,0.47011942,-0.47463703,-0.48844874,0.09587419,-0.1806627,0.8207634,0.69441754,-0.44909662,1.3383884,0.67948234,1.7009013,1.0769742
vanuatu,-0.61717063,-0.3188727,0.46307477,-1.2397562,0.3963989,-0.34914252,-0.58771163,0.057383787,-0.32613692,1.4045142,0.2494807,-0.787644,1.5652024,1.6367362,2.0675144,0.7751458
new_caledonia,-0.38825744,-0.45993575,-0.57495993,-1.4725024,0.884101,-0.030665642,-0.4110667,0.30825564,-0.38444725,1.9969587,0.33110493,-0.68415844,1.8790393,1.7839444,2.2296457,0.8878061
guernsey,-1.0758033,-0.25140506,1.1836444,-1.7318052,1.3407539,-0.7042871,-0.474814,-0.47889012,-0.31905237,1.8007632,-0.29754195,-0.47948325,1.9306536,1.4011804,1.7036501,0.63288754
portugal,-1.1003168,0.29914632,0.46527714,-1.8227888,-0.24435374,-0.55159986,-1.3580759,0.36250207,-0.26095143,1.6548308,-0.07892009,-0.7826223,-0.2902692,1.4977556,2.2002654,1.5351201
madagascar,-0.3859606,-0.1493843,0.5140266,-1.9280752,-0.0822772,-0.76560575,-0.52366054,-0.1257191,-0.35848877,0.6857832,0.93350965,-0.9664587,1.2338271,1.5928785,2.5603666,0.84135604
réunion,-1.0602586,-0.6783087,0.061396908,-1.5552582,0.57224935,-0.092513494,-0.39803877,0.34407297,-0.20653403,1.5316477,0.91696733,-0.64135116,1.2686265,1.2536683,1.9062258,1.1415449
american_samoa,-0.9811448,-0.44480553,0.16570354,-1.3809243,0.33077806,-0.13474847,-0.8488202,0.11717134,-0.33909246,1.7733077,0.23757124,-0.4650635,1.4204619,1.4057741,1.8886735,0.8349206
liberia,-0.41835505,-0.84374934,0.23880339,-1.6274347,-0.56815886,-0.023196636,-0.72740686,-0.6036609,-0.38873222,1.7685791,1.4889789,-0.46636027,0.8098279,0.97231597,2.287021,1.1804243
south_sudan,-0.37622193,-0.6103354,0.14219585,-0.270198,0.44670084,-0.554057,-0.44310954,-0.13410145,-0.25142676,1.2374115,1.4098637,-0.7863068,1.2879503,1.0047681,1.4113871,0.60215753
turks_and_caicos_islands,-0.9866386,-0.29307517,0.5359357,-1.5524111,0.5231331,-0.7529244,0.09049718,-0.11459013,-0.39555672,1.9311681,0.28560153,-0.5992712,1.3736509,1.2211262,1.755964,0.9660616
montserrat,-1.4632956,-0.4098653,0.5712902,-0.9466449,0.57051396,-0.17833851,-0.51035285,-0.5939698,-0.38820598,2.1534898,0.22356166,-0.7505677,1.5844393,1.4088296,2.0847023,0.2753542
romania,-0.37271845,-0.15868166,1.2876514,-1.1050262,-0.5859684,-0.39053223,-0.92618084,0.27865887,-1.019712,1.5021365,-0.10702618,-0.30164385,-0.04095331,1.3848473,1.8432374,1.080869
bahamas,-0.7012863,-0.40167242,-0.32809883,-0.7092461,0.5243439,-0.6531678,-0.9644066,0.28001627,-0.4809856,1.8629371,0.21692249,-0.8348994,1.3411063,1.2897183,2.1838274,1.1839106
malawi,-0.5801193,-0.7705728,0.18305954,-1.0704567,0.47358295,0.2342329,-0.2255147,0.4157013,-0.17193907,1.8118013,1.1221243,-0.6009069,2.0374336,1.2590231,1.4974446,1.2851409
tajikistan,-1.0443584,-0.6236662,1.5607874,-1.279291,0.013545629,-0.036802787,-0.39360377,0.44986165,-0.26654157,1.051259,1.5506532,-0.4580117,0.97046196,1.0635177,1.0174917,0.80465746
burundi,-0.5232141,-0.5414605,0.17374806,-1.118841,0.4209101,-0.21750899,-0.45133972,0.025538988,-0.14710528,1.5286016,1.5223393,-0.7116421,1.4254063,1.0763328,1.8127025,0.78431004
dominican_republic,-1.305207,-0.658153,-0.21452238,-1.3831599,-0.24098687,-0.9527975,-0.5867076,-0.85150415,-0.46856764,1.8482038,0.192411,-0.784324,1.9328308,1.0956374,1.5457076,0.78982717
middle_africa,-0.73142624,-0.5409071,0.28859138,-1.5889515,0.51019996,-0.60140693,-0.59132206,-0.8603015,-0.29587767,1.6148578,0.41949198,-0.39121062,0.31659028,0.8373287,1.6168114,0.33833972
somalia,-1.0289148,-0.604553,-0.7095833,-1.2205379,-0.22065865,-0.44045725,-0.5274933,0.3742547,-0.23503159,1.5954213,1.2080129,-0.82252765,0.5904124,1.3455142,1.7397599,0.8956474
tanzania,-0.72756225,-0.3952051,0.1964376,-0.89808553,0.2926573,-0.26909885,-0.3597171,-0.22656465,-0.028243033,0.93360656,1.7634772,-0.47229543,1.251558,1.3107636,1.2124735,0.61367667
georgia,-0.88545936,-0.62409085,1.5293237,-1.6615652,0.4886632,-0.36936584,-0.63085055,-0.5221619,-0.29532385,0.0108746635,0.20428684,-0.24487463,1.8088644,1.5115743,1.853716,0.40915197
united_states_minor_outlying_islands,-1.2785449,0.123890266,0.48029363,-1.4828134,0.5279519,-0.6460536,-0.4101827,1.0512239,-0.13973275,1.5870237,0.23432747,-0.6614311,1.501145,1.1309608,2.045801,1.3744814
laos,-0.93227476,-0.5696896,-0.15496908,-1.2276272,0.18973306,-0.14033267,-0.13206707,0.5358251,-0.43751624,1.3865873,1.0467821,-0.25985882,1.3400147,0.81173444,0.9428494,1.0541881
southern_europe,-1.1907158,-0.3424918,0.9956406,-0.9449158,0.97521114,-0.2478975,-0.33035287,0.45477822,-0.47801122,1.3122448,0.048410345,-0.31483477,0.39245972,0.56209505,0.642814,0.5276434
egypt,-0.79917175,0.24027243,-0.6326135,-1.0565573,0.46065322,-0.449492,-0.6114796,0.27682313,-0.3773983,1.6035033,1.2858548,-0.97405744,1.2276483,0.8474321,1.6961441,1.2383411
maldives,-1.280053,-0.29479092,0.675808,-1.3198117,0.37316418,-0.34718457,-0.41226652,0.51264477,-0.017847681,1.7241808,0.7395701,-0.50676924,1.6795627,1.2357954,1.6098913,1.2017463
sudan,-0.7285625,-0.4335816,-0.595226,-0.70455974,0.41245127,-0.4769514,-0.39384994,0.41476056,-0.13869336,1.3604707,0.7797101,-1.1291496,1.1647685,0.7852539,1.2678413,1.0548664
bahrain,0.73516726,0.25966513,1.0119253,-1.9803549,0.45066026,-0.9127507,-0.6786657,0.1918891,-0.54039794,1.8338192,0.4351665,-0.9355828,1.861853,1.6934757,2.7821949,0.85270804
cook_islands,-1.203974,-0.21763037,0.25325674,-1.3895215,0.81985563,-0.34758157,-0.18254311,0.5892007,-0.23668763,1.5462831,0.25713253,-0.5168825,1.4970574,1.4049855,1.7215463,1.0948652
turkey,-0.4161161,-0.6320341,0.6672606,-0.9503381,0.097210996,-0.37014392,-0.4619327,0.22072919,-0.4160848,1.0370436,0.06586431,-0.278307,1.1192267,0.41539344,0.924449,1.0276701
colombia,-0.6642281,-0.14351879,0.7552206,-1.3407557,0.32445878,-0.32257184,-0.7326335,0.31756985,-0.40515047,1.1583965,0.058692038,-0.16965611,0.25630406,0.95907885,1.744642,0.9043787
cuba,-1.1540177,-0.2870365,0.4842361,-1.2895176,1.2111243,-0.30010274,-0.39266673,0.30998516,-0.32652774,1.5738467,0.18037449,-0.6325749,1.2491342,1.2584239,1.9910425,1.1286705
pitcairn_islands,-1.3614676,-0.47654772,-0.5389959,-1.5664808,0.060143143,-0.4160248,-0.14455727,0.2051024,-0.28504226,1.9567765,0.27372772,-0.4894194,1.3798802,1.7191448,1.7494447,0.8830109
spain,-0.72902167,-0.2603071,1.0909638,-0.77916294,-0.7545104,-0.43369672,-0.34431207,0.15640591,-0.19920127,1.0233147,0.34413704,-0.40327722,1.240339,1.0253655,1.7778441,0.74179643
trinidad_and_tobago,-1.379776,-0.4141439,0.3552418,-1.3922529,0.0943371,-0.673699,-0.45663515,-0.34019107,-0.36974514,1.6094354,0.19831222,-0.69859624,0.9333992,1.2284765,2.0084145,0.91235584
chad,-0.6339309,-0.44811797,1.1419401,-0.8147386,0.405211,-0.56199074,-0.3780546,0.0054260218,-0.54145944,0.8478485,0.8068529,-0.5658446,0.8812118,0.30352527,1.086735,0.90718013
saudi_arabia,-0.2347819,-0.512043,0.8565159,-0.8507991,0.3648028,-0.03916792,-0.5383198,0.37646025,-0.30563527,1.0360991,0.074630596,-0.34679732,1.5135652,0.8420568,0.92393124,1.354098
curaçao,-0.029916387,-0.3967366,0.4879675,-1.3705138,0.6269299,-0.77023816,-0.5881547,-0.057551976,-0.55117834,1.9926933,0.2846548,-0.6441623,1.7064955,1.4604006,1.8515887,1.0788432
pakistan,-0.7060882,-0.6255021,0.22041346,-1.3505869,0.20373583,-0.42198083,-0.4819245,0.3520848,-0.20353934,1.2558208,1.1054345,-0.32094276,1.0332594,0.7677638,1.5146362,0.9395458
armenia,-0.9394643,-0.82354635,1.0338585,-1.5210013,-0.76973766,0.1382295,-0.53143936,0.36154464,-0.34037617,1.4069167,0.20181808,-0.4193063,0.51921356,1.0042541,1.4645451,1.4415144
tokelau,-0.47974324,-0.533892,-0.47632024,-1.5141305,0.679313,-0.613568,-0.53562117,0.99017066,-0.40175712,1.702564,0.30842814,-0.59252137,1.6024405,1.5724266,1.6982734,1.4481457
polynesia,-0.46989924,-0.29665124,0.80598086,-1.2848814,1.1300305,-0.13132735,-0.31753606,0.34775478,-0.12620667,1.307956,0.6857979,-0.18146272,0.50729,0.8589975,1.6093068,0.5863343
jordan,-0.32679516,-0.5221475,0.5134657,-1.0779665,0.22480237,-0.39259362,-0.5502394,0.20598021,-0.42199117,1.467762,0.30674425,-0.37657174,1.2173353,0.75040895,1.2760849,0.86729497
nauru,-1.1188902,-0.399337,0.6357887,-1.3027098,0.5148222,0.017488457,-0.24922843,0.18762872,-0.29259917,1.9283564,0.3286726,-0.73709726,1.6286306,1.5596497,1.1572486,1.3255322
fiji,-1.0478643,-0.7401839,0.3238832,-1.28666,0.5754589,-0.2165683,-0.637144,0.27035302,-0.21848439,1.7234013,0.22245838,-0.620202,1.5696567,1.5689393,1.578726,0.705096
libya,-0.86186653,-0.33775267,0.2728448,0.40048447,1.1846665,-0.92262334,-0.59199077,-0.17526281,-0.3944102,1.6410319,1.6253456,-1.1512381,1.3472202,0.39503968,1.3870617,0.4032832
united_states_virgin_islands,-1.4100488,-0.1291937,0.3052886,-1.2847459,-0.20128019,-0.5162962,-0.3449287,0.87181044,-0.35294276,2.0006058,0.2961183,-0.62848896,0.88621145,1.2239687,2.054019,1.5708619
saint_kitts_and_nevis,-1.2039526,-0.5965671,0.67177504,0.16309689,-0.6717861,-1.0003223,-0.8282747,0.4366388,-0.49118456,2.5318215,0.2136601,-0.97880286,0.66943,1.4385544,1.814629,1.4601644
north_korea,-1.3025585,-0.46720204,0.5858089,-2.2246432,0.35629424,-0.8651716,-0.35408297,0.49367598,-0.017214617,1.4630945,0.65864253,-0.021046193,1.4765881,0.9570947,1.0352353,0.43751076
sierra_leone,-1.0292803,-0.62278545,0.16322447,-1.6504594,0.6175857,-0.4680121,-0.5044873,-0.8797136,-0.38466436,1.3455908,1.1608424,-0.20686287,2.017647,1.1725571,1.2486271,0.87432337
northern_africa,-1.1687429,-0.46000108,0.19125046,0.25326866,0.3626538,-0.8154581,-0.7284086,-0.4002128,-0.31102696,1.4210249,1.268139,-1.4584247,0.3168429,1.2303888,1.8335718,0.5277537
western_europe,-1.2227101,-0.39852527,1.2958964,-1.2540169,0.093391225,-0.5654412,-0.17745721,0.60109764,-0.022106193,1.8143072,-0.0792725,-0.6319546,0.32891622,0.6938936,1.4099368,0.6539853
san_marino,-0.6183899,-0.35470563,0.10543335,-1.119094,0.58502257,-0.33193833,-0.66622263,0.40455416,-0.5081141,1.7215319,-0.0104455305,-0.72605795,1.3666323,1.2112817,2.2439537,1.2044986
panama,-0.6820458,-0.51429826,0.6296249,-1.197608,1.6094614,-0.5407098,-0.6859069,-0.5113704,-0.52875215,1.2549441,0.40530682,-0.51110893,1.9345989,1.4232879,1.4530864,0.5455216
south-eastern_asia,-1.777809,-0.3791248,0.19254379,-1.2442929,0.27907208,-0.5140713,-0.59589404,0.34354076,-0.08419112,1.13524,0.45007485,-0.3795566,0.15270102,0.48655096,1.2132472,0.5267795
anguilla,-1.328154,-0.45089445,0.8598877,-1.0399531,-1.5438923,-0.88752025,-0.42317235,0.3700427,-0.41366175,1.8406895,0.35123244,-0.93215847,-0.13019033,1.7124715,2.7083883,1.4529434
southern_asia,-1.6481506,-0.18140967,0.121385686,-1.0325669,0.52080786,-0.41261622,-0.5852623,0.5114076,-0.009978498,1.255517,0.70489645,-0.2937802,0.2885146,1.1551178,1.4934362,0.65222996
greenland,-1.3102325,-0.3353485,-0.04277323,-1.4652305,0.1419569,-0.59791857,-0.3154465,-0.008533885,-0.1337478,1.513803,0.28784797,-0.7163679,1.4014164,1.1549226,2.106268,1.0344857
africa,-1.0747195,-0.14326143,-0.25138855,-0.87124294,0.36868393,-0.34689733,-0.05682347,-0.19064203,-0.059153743,0.8814377,0.8343616,-0.22163163,0.27281412,0.26661468,0.671679,-0.011279482
americas,-0.82285136,0.06580098,0.7061436,-0.62773985,0.49970105,-0.16421978,0.03008859,-0.28872845,0.017636703,0.6516993,0.3362336,-0.2658874,0.4134856,0.24984406,0.8576865,-0.08810641
asia,-1.0991875,-0.1370717,-0.02626165,-1.1465687,0.30130076,-0.22615974,-0.21062379,0.32354847,-0.019960815,0.59762627,0.3272997,-0.045825165,0.19767398,0.33254066,0.7483323,0.20712064
oceania,-1.1372716,0.020138625,0.76628196,-0.602664,0.094069265,0.20243756,-0.012728751,0.15545762,0.06590019,0.73511267,0.52012116,-0.32471138,-0.011292538,0.5866455,1.260158,0.37714437
europe,-0.6763274,0.09471483,2.4417417,-0.9105681,0.29541144,-0.16016175,-0.05316361,-0.17454544,-0.13141571,1.2212207,-0.20059481,-0.06789053,0.15626527,0.41428772,0.7060935,-0.035965875
